svm_type c_svc
kernel_type rbf
gamma 0.0078125
nr_class 2
total_sv 24
rho 6.39635e-05
label 1 0
nr_sv 10 14
SV
0.5 0:-0.0491508 1:-0.134782 2:0.105271 3:0.315757 4:0.50121 5:0.702689 6:0.715609 7:0.780522 8:0.770561 9:0.668048 10:0.716521 11:0.758272 12:0.784136 13:0.827926 14:0.850111 15:0.763775 16:0.748884 17:0.814074 18:0.828762 19:0.756178 20:0.629198 21:0.383168 22:0.192779 23:0.109478 24:-0.0527002 25:-0.147421 26:-0.0982723 27:-0.0934487 28:-0.0192089 29:-0.320725 30:-0.477669 31:-0.516613 32:-0.561013 33:-0.691643 34:-1 35:-1 36:-0.376399 37:-0.127606 38:0.235278 39:0.356902 40:0.657114 41:0.767371 42:0.521752 43:0.375601 44:0.232018 45:0.287281 46:0.3645 47:0.467237 48:0.600409 49:0.628434 50:0.751978 51:0.87822 52:0.855018 53:0.700522 54:0.413276 55:0.133087 56:0.0620528 57:-0.0723548 58:-0.125222 59:-0.221229 60:-0.254946 61:-0.220186 62:-0.364165 63:-0.517612 64:-0.656215 65:-0.650891 66:-0.554303 67:-0.436402 68:-0.879419 69:-0.68883 70:-0.22104 71:0.399643 72:1 73:1 74:1 75:0.241764 76:-0.308857 77:0.293704 78:1 79:0.897032 80:0.418013 81:0.176795 82:0.376802 83:0.671266 84:0.546987 85:0.462383 86:0.483958 87:0.424484 88:0.247648 89:0.0284709 90:-0.0493478 91:-0.0796045 92:-0.14424 93:-0.18519 94:-0.254011 95:-0.470435 96:-0.664588 97:-0.666005 98:-0.936963 99:-0.726555 100:-0.385417 101:-0.513598 102:-0.609711 103:-0.670215 104:-0.679943 105:-0.621911 106:-0.611387 107:-0.614579 108:-0.601746 109:-0.606965 110:-0.559904 111:-0.449111 112:-0.3353 113:-0.198198 114:-0.0839417 115:0.0140497 116:0.147173 117:0.313065 118:0.470867 119:0.622831 120:0.703137 121:0.748302 122:0.784498 123:0.830137 124:0.85422 125:0.878142 126:0.955045 127:0.979433 128:0.988941 129:1 130:1 131:1 132:1 133:1 134:1 135:1 136:1 137:0.509348 138:0.0500781 139:-0.339174 140:-1 141:-1 142:-0.884893 143:-0.499864 144:-0.165282 145:0.134622 146:0.405502 147:0.581495 148:0.703506 149:0.826485 150:0.914389 151:0.970452 152:0.967066 153:0.977595 154:0.970192 155:0.932255 156:0.878729 157:0.807879 158:0.696371 159:0.606274 160:0.493345 161:0.376796 162:0.258597 163:0.151306 164:0.00257075 165:-0.197231 166:-0.395127 167:-0.618295 168:-0.787293 169:-0.895729 170:-0.973866 171:-1 172:-1 173:-1 174:-1 175:-1 176:-1 177:-1 178:-0.896673 179:-0.630856 180:-0.323277 181:-0.131742 182:0.0656032 183:0.236165 184:0.241362 185:0.269868 186:0.27247 187:0.304734 188:0.325138 189:0.383545 190:0.404706 191:0.377441 192:0.368483 193:0.402667 194:0.399381 195:0.400902 196:0.435398 197:0.485672 198:0.461007 199:0.258488 200:-0.735771 201:-0.567445 202:-0.418849 203:-0.277696 204:-0.0902486 205:0.0800347 206:0.249309 207:0.392976 208:0.471185 209:0.512495 210:0.581241 211:0.600316 212:0.556527 213:0.454157 214:0.351359 215:0.232644 216:0.177969 217:0.132406 218:0.0789541 219:0.0685994 220:0.0566627 221:0.0413866 222:0.0343229 223:0.0432411 224:0.0513846 225:0.0545361 226:0.0408502 227:-0.0252605 228:-0.238782 229:-0.295806 230:-0.476507 231:-0.624999 232:-0.783616 233:-0.868512 234:-1 235:-1 236:-1 237:-0.592928 238:-0.246488 239:0.0956931 240:0.383341 241:0.597153 242:0.742906 243:0.848869 244:0.946543 245:0.984827 246:0.966117 247:0.943257 248:0.901124 249:0.83125 250:0.765114 251:0.709809 252:0.682956 253:0.670119 254:0.648825 255:0.591577 256:0.480467 257:0.340648 258:0.285354 259:0.29485 260:0.18332 261:0.116679 262:0.0739659 263:0.00196006 264:-0.0495735 265:-0.271841 266:-0.583671 267:-0.778786 268:-0.892077 269:-0.921719 270:-1 271:-1 272:-0.968055 273:-0.273553 274:0.615144 275:1 276:1 277:1 278:1 279:1 280:1 281:0.919823 282:0.888891 283:0.814256 284:0.696603 285:0.611845 286:0.553436 287:0.537705 288:0.46807 289:0.374606 290:0.265018 291:0.141939 292:0.0835549 293:0.0423139 294:-0.0367224 295:-0.1146 296:-0.13331 297:-0.13854 298:-0.133241 299:-0.104601 
0.17628077775447 0:0.712778 1:0.583121 2:0.572753 3:0.567832 4:0.560502 5:0.706445 6:0.619812 7:0.462733 8:0.23013 9:-0.0368432 10:-0.151092 11:-0.207002 12:-0.123235 13:-0.116248 14:-0.177287 15:-0.329525 16:-0.485245 17:-0.59561 18:-0.63978 19:-0.645466 20:-0.657336 21:-0.625405 22:-0.458196 23:-0.406783 24:-0.647914 25:-0.917937 26:-1 27:-1 28:-1 29:-0.984917 30:-0.849372 31:-0.632816 32:-0.419964 33:0.186945 34:0.619417 35:0.113642 36:0.0225795 37:-0.0432307 38:0.0725942 39:-0.0325424 40:0.130728 41:0.116659 42:0.00122136 43:0.0247368 44:-0.102999 45:-0.0315443 46:0.126404 47:0.280978 48:0.321249 49:0.255788 50:0.143475 51:-0.0059378 52:-0.252076 53:-0.816544 54:-1 55:-0.868573 56:-0.682833 57:-0.539373 58:-0.539728 59:-0.677381 60:-0.651962 61:-0.506257 62:-0.538133 63:-0.458093 64:-0.409644 65:-0.2774 66:-0.251791 67:0.246622 68:0.0958605 69:0.547368 70:0.630961 71:-0.0833753 72:-0.420227 73:-0.573402 74:-0.348874 75:-0.0847493 76:0.10185 77:0.419287 78:0.749582 79:1 80:0.79699 81:0.366716 82:0.229355 83:0.323549 84:0.284333 85:0.294293 86:0.376281 87:0.357247 88:0.222221 89:-0.0713357 90:-0.253364 91:-0.336147 92:-0.348243 93:-0.301889 94:-0.32293 95:-0.390889 96:-0.475426 97:-0.370248 98:-0.55994 99:-0.49564 100:0.349979 101:0.499346 102:0.59754 103:0.719802 104:0.839864 105:0.966274 106:1 107:1 108:1 109:1 110:1 111:1 112:1 113:1 114:0.966872 115:0.945614 116:0.91282 117:0.871579 118:0.799535 119:0.699109 120:0.576778 121:0.496552 122:0.472317 123:0.443558 124:0.364138 125:0.348723 126:0.429964 127:0.489229 128:0.51789 129:0.604477 130:0.593786 131:0.468111 132:0.278088 133:0.161109 134:0.070786 135:0.065806 136:0.240554 137:0.325252 138:0.457152 139:0.585449 140:0.627723 141:0.675757 142:0.653204 143:0.627917 144:0.604358 145:0.638961 146:0.718433 147:0.755539 148:0.76509 149:0.799938 150:0.823272 151:0.826098 152:0.757727 153:0.680268 154:0.598606 155:0.479702 156:0.320913 157:0.104622 158:-0.207664 159:-0.301228 160:-0.400844 161:-0.512597 162:-0.609989 163:-0.654971 164:-0.740265 165:-0.852074 166:-0.892445 167:-0.822118 168:-0.707013 169:-0.634873 170:-0.623698 171:-0.556826 172:-0.407319 173:-0.379512 174:-0.401695 175:-0.47766 176:-0.568027 177:-0.671499 178:-0.681723 179:-0.543675 180:-0.374435 181:-0.306063 182:-0.209575 183:-0.0830387 184:-0.0298897 185:0.0617041 186:0.0796386 187:0.125915 188:0.157142 189:0.25918 190:0.329368 191:0.351751 192:0.358203 193:0.35903 194:0.32279 195:0.316755 196:0.33901 197:0.351317 198:0.293914 199:0.190929 200:0.463577 201:0.518212 202:0.476562 203:0.409998 204:0.355074 205:0.267826 206:0.120365 207:-0.0730792 208:-0.304629 209:-0.540586 210:-0.507243 211:-0.49519 212:-0.508885 213:-0.561953 214:-0.664095 215:-0.799842 216:-0.852622 217:-0.934493 218:-1 219:-1 220:-1 221:-1 222:-1 223:-0.961206 224:-0.902231 225:-0.848319 226:-0.801953 227:-0.804614 228:-0.891853 229:-0.600814 230:-0.425973 231:-0.200993 232:0.0399024 233:0.306981 234:0.645504 235:0.739766 236:0.784033 237:0.832587 238:0.841784 239:0.849477 240:0.919905 241:1 242:1 243:1 244:1 245:0.972654 246:0.917119 247:0.86259 248:0.829173 249:0.769243 250:0.709966 251:0.667743 252:0.657508 253:0.642977 254:0.588376 255:0.462492 256:0.191094 257:-0.0866153 258:-0.207003 259:-0.261271 260:-0.375407 261:-0.415126 262:-0.459288 263:-0.549755 264:-0.567698 265:-0.788338 266:-1 267:-0.879471 268:-0.616605 269:-0.224447 270:0.0448234 271:0.143874 272:0.205966 273:0.526914 274:0.829697 275:0.888206 276:0.772856 277:0.799273 278:0.734299 279:0.792079 280:0.852624 281:0.858208 282:0.878143 283:0.852402 284:0.804859 285:0.74859 286:0.69109 287:0.640103 288:0.553381 289:0.467456 290:0.386209 291:0.313845 292:0.267518 293:0.218252 294:0.159003 295:0.0884829 296:0.0631231 297:0.0617141 298:0.0763104 299:0.0998918 
0.5 0:-0.678646 1:-0.857144 2:-0.866683 3:-0.823854 4:-0.758689 5:-0.701059 6:-0.600776 7:-0.45922 8:-0.550689 9:-0.624957 10:-0.653653 11:-0.667599 12:-0.590248 13:-0.625996 14:-0.632216 15:-0.705846 16:-0.840298 17:-0.981373 18:-0.984854 19:-0.863688 20:-0.709172 21:-0.627096 22:-0.426101 23:-0.216817 24:-0.27642 25:-0.507196 26:-0.366935 27:0.131485 28:0.815569 29:1 30:1 31:0.590904 32:-0.0195746 33:-0.248584 34:0.279939 35:0.817099 36:1 37:0.927842 38:0.870089 39:0.760677 40:0.889725 41:0.965505 42:0.801827 43:0.761761 44:0.747963 45:0.818872 46:0.820043 47:0.84684 48:0.864544 49:0.651403 50:0.654072 51:0.692949 52:0.600736 53:0.367285 54:0.160817 55:0.0271298 56:0.0818927 57:0.0682772 58:0.0623711 59:-0.0950424 60:-0.195333 61:-0.162902 62:-0.150161 63:-0.236762 64:-0.698152 65:-1 66:-1 67:-1 68:-0.700841 69:0.161614 70:0.262562 71:-0.236626 72:-0.368005 73:-0.437219 74:-0.060182 75:0.279571 76:0.3313 77:0.258013 78:0.0450212 79:0.139165 80:0.143866 81:0.0832043 82:0.263591 83:0.611327 84:0.585106 85:0.460853 86:0.472704 87:0.563808 88:0.653439 89:0.673947 90:0.653827 91:0.662587 92:0.724963 93:0.751799 94:0.73258 95:0.718217 96:0.691069 97:0.763206 98:0.69832 99:0.629094 100:0.828037 101:0.841502 102:0.806978 103:0.714486 104:0.670885 105:0.706877 106:0.663909 107:0.635825 108:0.594606 109:0.591923 110:0.611145 111:0.619729 112:0.593652 113:0.569403 114:0.527523 115:0.472627 116:0.411908 117:0.342362 118:0.253841 119:0.134741 120:-0.0476613 121:-0.262715 122:-0.481607 123:-0.723267 124:-0.982428 125:-0.949637 126:-0.839361 127:-0.81418 128:-0.903899 129:-0.973203 130:-0.925609 131:-0.876099 132:-0.864029 133:-0.761252 134:-0.633751 135:-0.508161 136:-0.390046 137:-0.284175 138:-0.04745 139:0.154164 140:0.0566845 141:0.0842342 142:0.0910598 143:0.231201 144:0.362293 145:0.483558 146:0.618644 147:0.691691 148:0.73556 149:0.800741 150:0.855226 151:0.918995 152:0.944735 153:0.970043 154:0.980423 155:0.965244 156:0.939938 157:0.925806 158:0.908271 159:0.912959 160:0.928356 161:0.971087 162:1 163:1 164:1 165:0.90343 166:0.673749 167:0.421538 168:0.133648 169:-0.113124 170:-0.196628 171:-0.15374 172:-0.112465 173:-0.147686 174:-0.204414 175:-0.314853 176:-0.471436 177:-0.669013 178:-0.788604 179:-0.750099 180:-0.643958 181:-0.649228 182:-0.634066 183:-0.568093 184:-0.54813 185:-0.475014 186:-0.491588 187:-0.461245 188:-0.470375 189:-0.379834 190:-0.365805 191:-0.435801 192:-0.508632 193:-0.523425 194:-0.524529 195:-0.506573 196:-0.417315 197:-0.33151 198:-0.398184 199:-0.567347 200:-0.0262647 201:0.143652 202:0.27343 203:0.342822 204:0.35469 205:0.339058 206:0.332802 207:0.289691 208:0.180727 209:0.0165498 210:0.025366 211:0.0016078 212:-0.0585733 213:-0.144719 214:-0.224476 215:-0.327227 216:-0.37885 217:-0.442415 218:-0.481295 219:-0.475957 220:-0.519091 221:-0.596127 222:-0.665369 223:-0.685392 224:-0.684213 225:-0.679362 226:-0.612615 227:-0.548053 228:-0.63358 229:-0.376543 230:-0.0690718 231:0.295975 232:0.529472 233:0.780209 234:0.876814 235:0.861223 236:0.821806 237:0.772472 238:0.738561 239:0.71051 240:0.71829 241:0.725693 242:0.68589 243:0.639016 244:0.630501 245:0.617709 246:0.558926 247:0.469187 248:0.438594 249:0.351474 250:0.284604 251:0.236994 252:0.230592 253:0.206492 254:0.11691 255:-0.102433 256:-0.580825 257:-0.873754 258:-0.939459 259:-1 260:-1 261:-0.925127 262:-0.917575 263:-1 264:-1 265:-1 266:-0.593345 267:-0.047151 268:0.0313658 269:0.42619 270:0.628601 271:0.748898 272:0.808126 273:0.810955 274:0.843189 275:0.788566 276:0.662202 277:0.695029 278:0.625264 279:0.679762 280:0.735601 281:0.742784 282:0.764979 283:0.744835 284:0.704624 285:0.657604 286:0.62461 287:0.653789 288:0.63997 289:0.600637 290:0.552453 291:0.503357 292:0.47016 293:0.432017 294:0.38946 295:0.344373 296:0.338154 297:0.33914 298:0.341852 299:0.345502 
0.5 0:-0.697274 1:-0.794549 2:-0.858821 3:-0.750027 4:-0.608602 5:-0.567773 6:-0.496952 7:-0.380481 8:-0.427462 9:-0.462601 10:-0.488807 11:-0.550555 12:-0.475811 13:-0.478972 14:-0.502803 15:-0.664716 16:-0.836187 17:-0.931377 18:-0.966923 19:-1 20:-1 21:-0.977578 22:-0.78827 23:-0.604893 24:-0.537904 25:-0.450587 26:-0.498165 27:-0.44705 28:-0.0885415 29:-0.0595428 30:0.329297 31:1 32:1 33:1 34:0.0332083 35:-0.449357 36:0.182296 37:0.611463 38:1 39:1 40:1 41:0.814399 42:0.579431 43:0.661323 44:0.798668 45:0.990413 46:1 47:1 48:0.95711 49:0.635768 50:0.62177 51:0.723056 52:0.711956 53:0.481683 54:0.102259 55:-0.166605 56:-0.180355 57:-0.18639 58:-0.14832 59:-0.182786 60:-0.156736 61:-0.0584565 62:-0.0996135 63:-0.273645 64:-0.77797 65:-0.858624 66:-0.750256 67:-0.774624 68:-0.822926 69:0.0158934 70:0.266594 71:-0.139058 72:-0.219228 73:-0.28802 74:0.0604242 75:0.31941 76:0.354315 77:0.308675 78:0.126182 79:0.184392 80:0.141427 81:0.0452003 82:0.232842 83:0.614867 84:0.595321 85:0.489477 86:0.537876 87:0.652657 88:0.763952 89:0.796767 90:0.780636 91:0.814426 92:0.902168 93:0.923895 94:0.891988 95:0.888384 96:0.794085 97:0.718926 98:0.507068 99:0.360666 100:1 101:1 102:0.938023 103:0.897372 104:0.867514 105:0.914972 106:0.860787 107:0.78198 108:0.714252 109:0.675259 110:0.655442 111:0.631373 112:0.60198 113:0.596773 114:0.569995 115:0.525902 116:0.466291 117:0.377932 118:0.260871 119:0.131437 120:-0.0436708 121:-0.26666 122:-0.491446 123:-0.694965 124:-0.920418 125:-0.935739 126:-0.886366 127:-0.86045 128:-0.883087 129:-0.932931 130:-0.95113 131:-1 132:-1 133:-0.867531 134:-0.692636 135:-0.539474 136:-0.451568 137:-0.364652 138:-0.106574 139:0.177658 140:0.171006 141:0.187258 142:0.122651 143:0.190015 144:0.2879 145:0.422482 146:0.583628 147:0.67592 148:0.741125 149:0.840878 150:0.931865 151:1 152:1 153:1 154:1 155:1 156:1 157:1 158:1 159:1 160:1 161:1 162:0.969026 163:0.938613 164:0.935029 165:0.872124 166:0.718195 167:0.319521 168:0.0974682 169:-0.156953 170:-0.249379 171:-0.216075 172:-0.160664 173:-0.201306 174:-0.264146 175:-0.369059 176:-0.51485 177:-0.704838 178:-0.821451 179:-0.776552 180:-0.661878 181:-0.660964 182:-0.650166 183:-0.591196 184:-0.564296 185:-0.495784 186:-0.538893 187:-0.527322 188:-0.540052 189:-0.442093 190:-0.428411 191:-0.504925 192:-0.583918 193:-0.59267 194:-0.569064 195:-0.508809 196:-0.396726 197:-0.288462 198:-0.322321 199:-0.446388 200:-0.170897 201:-0.0411285 202:0.046647 203:0.0976592 204:0.171847 205:0.237804 206:0.275849 207:0.245964 208:0.212917 209:0.153684 210:0.185026 211:0.161283 212:0.133018 213:0.0653176 214:-0.0161036 215:-0.104582 216:-0.149871 217:-0.249176 218:-0.376627 219:-0.44173 220:-0.488832 221:-0.539578 222:-0.595357 223:-0.607443 224:-0.575955 225:-0.549787 226:-0.565981 227:-0.676687 228:-0.918921 229:-0.69715 230:-0.521979 231:-0.108596 232:0.318572 233:0.60072 234:0.792236 235:0.813633 236:0.792609 237:0.759859 238:0.731295 239:0.717547 240:0.743755 241:0.769945 242:0.738282 243:0.709436 244:0.710749 245:0.695594 246:0.635723 247:0.555773 248:0.524048 249:0.432551 250:0.35331 251:0.294608 252:0.273447 253:0.241599 254:0.161201 255:-0.0260731 256:-0.428386 257:-0.682742 258:-0.74451 259:-0.785398 260:-0.797901 261:-0.748604 262:-0.753862 263:-0.819094 264:-0.816943 265:-0.849008 266:-0.673231 267:-0.125419 268:0.164639 269:0.441956 270:0.693151 271:0.687808 272:0.65027 273:0.586614 274:0.641941 275:0.630104 276:0.541945 277:0.590874 278:0.526917 279:0.570766 280:0.614356 281:0.618208 282:0.645011 283:0.638802 284:0.614439 285:0.578205 286:0.54602 287:0.568207 288:0.556329 289:0.540811 290:0.517933 291:0.488814 292:0.463204 293:0.430978 294:0.403364 295:0.387886 296:0.409659 297:0.436764 298:0.467454 299:0.489912 
0.5 0:-0.759681 1:-0.777964 2:-0.744701 3:-0.738061 4:-0.710694 5:-0.666338 6:-0.592417 7:-0.414384 8:-0.462509 9:-0.517422 10:-0.574431 11:-0.61833 12:-0.510552 13:-0.486159 14:-0.45868 15:-0.601395 16:-0.825144 17:-0.994745 18:-1 19:-0.937224 20:-0.914078 21:-1 22:-1 23:-0.865606 24:-0.722392 25:-0.570705 26:-0.692582 27:-0.930656 28:-0.562772 29:-0.239727 30:0.193299 31:0.532995 32:0.397555 33:0.146838 34:-0.219872 35:0.196878 36:0.838062 37:1 38:0.932013 39:0.717723 40:0.812738 41:1 42:1 43:1 44:1 45:1 46:0.912636 47:0.922611 48:0.897974 49:0.576362 50:0.524686 51:0.551481 52:0.450644 53:0.109443 54:-0.203019 55:-0.323758 56:-0.276691 57:-0.255677 58:-0.230724 59:-0.2627 60:-0.23052 61:-0.127382 62:-0.283404 63:-0.561356 64:-0.876447 65:-0.873826 66:-0.885144 67:-0.649811 68:-0.649125 69:-0.0284816 70:-0.0383833 71:-0.287907 72:-0.28324 73:-0.254444 74:0.209524 75:0.510501 76:0.503744 77:0.35202 78:0.0873179 79:0.156444 80:0.1646 81:0.0858781 82:0.238484 83:0.559956 84:0.533452 85:0.439269 86:0.469296 87:0.543733 88:0.624707 89:0.679995 90:0.718131 91:0.761491 92:0.8365 93:0.862392 94:0.830055 95:0.788402 96:0.617023 97:0.521802 98:0.293693 99:0.207534 100:0.915188 101:0.971355 102:1 103:1 104:1 105:1 106:0.916319 107:0.817304 108:0.723785 109:0.660881 110:0.639094 111:0.628333 112:0.605097 113:0.597015 114:0.572474 115:0.525247 116:0.468028 117:0.412294 118:0.346607 119:0.253781 120:0.10777 121:-0.0747249 122:-0.288424 123:-0.530704 124:-0.858317 125:-1 126:-1 127:-1 128:-1 129:-1 130:-1 131:-0.929693 132:-0.799799 133:-0.625965 134:-0.498159 135:-0.386476 136:-0.230064 137:-0.0397981 138:0.199266 139:0.321989 140:0.185049 141:0.148864 142:0.106067 143:0.166609 144:0.236415 145:0.326444 146:0.435615 147:0.495518 148:0.538121 149:0.619878 150:0.693287 151:0.750294 152:0.745309 153:0.744364 154:0.742841 155:0.727264 156:0.704375 157:0.6948 158:0.698833 159:0.770638 160:0.795478 161:0.805453 162:0.823249 163:0.864216 164:0.933513 165:0.87747 166:0.773795 167:0.424579 168:0.21946 169:-0.0498006 170:-0.168307 171:-0.191324 172:-0.158483 173:-0.207863 174:-0.274728 175:-0.391921 176:-0.557708 177:-0.769815 178:-0.886635 179:-0.80731 180:-0.641742 181:-0.588026 182:-0.529244 183:-0.45783 184:-0.463197 185:-0.424064 186:-0.469291 187:-0.454235 188:-0.454059 189:-0.347348 190:-0.334177 191:-0.412944 192:-0.490568 193:-0.496825 194:-0.483104 195:-0.428048 196:-0.310279 197:-0.191345 198:-0.20624 199:-0.301598 200:-0.282383 201:-0.0934246 202:0.0376189 203:0.108756 204:0.200578 205:0.282211 206:0.346574 207:0.336802 208:0.271047 209:0.180842 210:0.208458 211:0.19489 212:0.161611 213:0.0740563 214:-0.0186787 215:-0.0984571 216:-0.122655 217:-0.175289 218:-0.238416 219:-0.254561 220:-0.273872 221:-0.313147 222:-0.371402 223:-0.428754 224:-0.47692 225:-0.528787 226:-0.584706 227:-0.634655 228:-0.754827 229:-0.58291 230:-0.482875 231:-0.0832244 232:0.408843 233:0.70577 234:0.870546 235:0.85297 236:0.789538 237:0.746935 238:0.716172 239:0.685949 240:0.69334 241:0.705915 242:0.67902 243:0.64861 244:0.647944 245:0.632484 246:0.580416 247:0.511267 248:0.490511 249:0.399805 250:0.318614 251:0.263331 252:0.25971 253:0.251132 254:0.193637 255:0.0247431 256:-0.367198 257:-0.630617 258:-0.706964 259:-0.763281 260:-0.793497 261:-0.783629 262:-0.822006 263:-0.885335 264:-0.841973 265:-0.859824 266:-0.760221 267:-0.409596 268:0.0749457 269:0.201804 270:0.542307 271:0.682981 272:0.773495 273:0.798368 274:0.827075 275:0.78659 276:0.671649 277:0.689173 278:0.586558 279:0.602934 280:0.632302 281:0.626487 282:0.640507 283:0.621416 284:0.584543 285:0.530671 286:0.475265 287:0.489767 288:0.48482 289:0.478566 290:0.458388 291:0.429737 292:0.408806 293:0.381569 294:0.36042 295:0.334406 296:0.336626 297:0.350175 298:0.367385 299:0.386587 
0.5 0:0.472771 1:0.19164 2:0.294318 3:0.462546 4:0.564942 5:0.711812 6:0.72733 7:0.827253 8:0.885516 9:0.837464 10:0.936831 11:0.856517 12:0.748075 13:0.711775 14:0.669298 15:0.587459 16:0.655557 17:0.659455 18:0.362877 19:0.0273953 20:-0.167543 21:-0.234026 22:-0.199949 23:-0.269046 24:-0.595708 25:-0.885086 26:-0.926579 27:-0.870262 28:-0.759991 29:-1 30:-1 31:-0.574114 32:-0.150402 33:0.557302 34:1 35:0.394411 36:0.154413 37:0.101484 38:0.273495 39:0.316403 40:0.515953 41:0.417131 42:0.141317 43:0.149396 44:0.156357 45:0.30807 46:0.306882 47:0.135627 48:-0.186969 49:-0.257887 50:-0.497467 51:-0.658982 52:-0.610413 53:-0.655576 54:-0.705902 55:-0.840238 56:-0.926752 57:-0.909945 58:-0.915303 59:-0.901358 60:-0.728193 61:-0.300987 62:0.204206 63:1 64:1 65:1 66:0.47119 67:0.185157 68:-0.929191 69:-1 70:-0.507377 71:-0.159085 72:-0.0576934 73:-0.101936 74:0.269738 75:0.441483 76:0.409397 77:0.351714 78:0.21604 79:0.266237 80:0.164052 81:-0.0285974 82:0.00791393 83:0.18244 84:0.0940603 85:-0.0128411 86:0.0453906 87:0.126722 88:0.136779 89:0.0282311 90:0.00576463 91:-0.000750127 92:-0.108662 93:-0.244568 94:-0.323655 95:-0.392901 96:-0.401354 97:-0.24822 98:-0.507323 99:-0.552045 100:-0.677235 101:-0.828677 102:-0.8938 103:-0.923771 104:-0.922012 105:-0.780138 106:-0.658105 107:-0.564349 108:-0.446904 109:-0.330449 110:-0.195862 111:-0.0553348 112:0.07583 113:0.207212 114:0.311144 115:0.431956 116:0.582637 117:0.743762 118:0.883976 119:0.979982 120:1 121:1 122:1 123:1 124:0.967434 125:0.947151 126:0.981964 127:0.959222 128:0.860489 129:0.711433 130:0.605646 131:0.456721 132:0.116688 133:-0.104551 134:-0.106367 135:-0.0110824 136:0.230062 137:0.354672 138:0.545617 139:0.753003 140:0.929327 141:0.987453 142:0.999582 143:1 144:1 145:1 146:1 147:0.955312 148:0.918209 149:0.860536 150:0.72051 151:0.601154 152:0.507038 153:0.423412 154:0.246076 155:-0.0293303 156:-0.320708 157:-0.618685 158:-0.994251 159:-1 160:-1 161:-1 162:-1 163:-1 164:-1 165:-0.886988 166:-0.687315 167:-0.574889 168:-0.457533 169:-0.290398 170:-0.142206 171:-0.0078426 172:0.118395 173:0.143286 174:0.112056 175:0.00622355 176:-0.143645 177:-0.319561 178:-0.423446 179:-0.386323 180:-0.270932 181:-0.199606 182:-0.0663185 183:0.0658228 184:0.0677773 185:0.0876404 186:0.0406105 187:-0.0097162 188:-0.0428322 189:0.0469793 190:0.12155 191:0.147942 192:0.181256 193:0.243115 194:0.254828 195:0.275128 196:0.35974 197:0.393485 198:0.363924 199:0.283745 200:-0.413733 201:-0.206228 202:-0.0174861 203:0.137181 204:0.317412 205:0.448714 206:0.542253 207:0.54524 208:0.497673 209:0.33795 210:0.257361 211:0.188947 212:0.121912 213:0.00679604 214:-0.0991788 215:-0.197533 216:-0.255074 217:-0.330981 218:-0.381849 219:-0.374595 220:-0.375063 221:-0.389156 222:-0.406455 223:-0.407833 224:-0.407326 225:-0.413949 226:-0.430534 227:-0.513508 228:-0.803394 229:-0.81019 230:-0.761471 231:-0.464771 232:-0.0662344 233:0.363554 234:0.672252 235:0.852854 236:0.897746 237:0.908914 238:0.868772 239:0.846503 240:0.860808 241:0.85314 242:0.79189 243:0.746888 244:0.72267 245:0.658315 246:0.543688 247:0.433343 248:0.425109 249:0.346237 250:0.272245 251:0.225028 252:0.227232 253:0.215449 254:0.133512 255:-0.0858538 256:-0.537888 257:-0.796381 258:-0.867002 259:-0.934487 260:-0.893493 261:-0.721047 262:-0.584005 263:-0.503932 264:-0.30761 265:-0.137533 266:0.105263 267:0.352479 268:0.519742 269:0.618092 270:0.708392 271:0.724988 272:0.67143 273:0.620668 274:0.703878 275:0.678604 276:0.557564 277:0.620079 278:0.595038 279:0.662831 280:0.707075 281:0.69746 282:0.697901 283:0.633935 284:0.5473 285:0.464208 286:0.39199 287:0.366505 288:0.303059 289:0.257281 290:0.218207 291:0.181727 292:0.204098 293:0.211508 294:0.171106 295:0.127806 296:0.13999 297:0.164804 298:0.196622 299:0.218927 
0.5 0:0.620183 1:0.571474 2:0.592864 3:0.625804 4:0.597946 5:0.705472 6:0.712554 7:0.815531 8:0.893029 9:0.816667 10:0.802438 11:0.782058 12:0.754104 13:0.71234 14:0.666481 15:0.558541 16:0.516284 17:0.558464 18:0.564599 19:0.496735 20:0.414699 21:0.334579 22:0.263597 23:0.137081 24:-0.12809 25:-0.37503 26:-0.491839 27:-0.532997 28:-0.565179 29:-0.772031 30:-0.793941 31:-0.777611 32:-0.776688 33:-0.975973 34:-0.93342 35:-0.286806 36:0.52985 37:0.433196 38:0.0503224 39:-0.51008 40:-0.478298 41:-0.428014 42:-0.173328 43:0.0585436 44:0.0510628 45:0.195418 46:0.327628 47:0.39493 48:0.359786 49:0.300085 50:0.350383 51:0.487236 52:0.553057 53:0.440274 54:0.189216 55:-0.0737572 56:-0.146408 57:-0.359687 58:-0.520402 59:-0.598168 60:-0.478814 61:-0.303011 62:-0.557402 63:-0.867979 64:-0.877295 65:-0.815943 66:-0.679364 67:-0.602295 68:-1 69:-0.847439 70:-0.557126 71:-0.166973 72:0.259685 73:0.214122 74:0.258364 75:-0.314926 76:-1 77:-1 78:-0.605027 79:0.485753 80:1 81:1 82:1 83:1 84:0.58636 85:0.353169 86:0.407655 87:0.522945 88:0.539539 89:0.376026 90:0.199709 91:0.0691778 92:0.0537208 93:0.0720038 94:0.0566086 95:-0.0401155 96:-0.236085 97:-0.310454 98:-0.667833 99:-0.660817 100:-0.757728 101:-0.730199 102:-0.653653 103:-0.597931 104:-0.528769 105:-0.362973 106:-0.251698 107:-0.174031 108:-0.105948 109:0.00313285 110:0.118965 111:0.246627 112:0.373306 113:0.505621 114:0.623016 115:0.721137 116:0.803236 117:0.882376 118:0.931215 119:0.956059 120:0.915354 121:0.856414 122:0.79657 123:0.733892 124:0.650828 125:0.621498 126:0.668769 127:0.680917 128:0.677782 129:0.691202 130:0.678101 131:0.658692 132:0.572752 133:0.47817 134:0.397207 135:0.298739 136:0.331558 137:0.248458 138:0.32741 139:0.422869 140:0.384098 141:0.424372 142:0.45318 143:0.539621 144:0.57959 145:0.632645 146:0.716228 147:0.746319 148:0.748468 149:0.79306 150:0.844018 151:0.887445 152:0.876745 153:0.865201 154:0.838355 155:0.77896 156:0.67659 157:0.513504 158:0.303247 159:0.219291 160:0.117418 161:-0.0227313 162:-0.197606 163:-0.311533 164:-0.431381 165:-0.585931 166:-0.729244 167:-0.897427 168:-1 169:-1 170:-0.937165 171:-0.738246 172:-0.57972 173:-0.586823 174:-0.625226 175:-0.665553 176:-0.684608 177:-0.739971 178:-0.734019 179:-0.570878 180:-0.335708 181:-0.190813 182:-0.0290746 183:0.118157 184:0.130457 185:0.163369 186:0.156608 187:0.198525 188:0.225238 189:0.286387 190:0.313137 191:0.27075 192:0.239269 193:0.249925 194:0.265724 195:0.282521 196:0.309005 197:0.335513 198:0.308863 199:0.252077 200:-0.45021 201:-0.334954 202:-0.190346 203:-0.0396599 204:0.0923689 205:0.18865 206:0.263498 207:0.29908 208:0.293148 209:0.209054 210:0.216094 211:0.218397 212:0.198399 213:0.148705 214:0.0970484 215:0.0477367 216:0.0587887 217:0.0504551 218:0.0152236 219:0.0101931 220:0.0072746 221:-0.00373057 222:-0.0190149 223:-0.032676 224:-0.0468438 225:-0.0657847 226:-0.102681 227:-0.20343 228:-0.475858 229:-0.532764 230:-0.691891 231:-0.837578 232:-0.993792 233:-0.928172 234:-0.808197 235:-0.68537 236:-0.697717 237:-0.462486 238:-0.134394 239:0.133354 240:0.382483 241:0.574841 242:0.690444 243:0.789429 244:0.920242 245:1 246:1 247:1 248:1 249:1 250:1 251:1 252:1 253:1 254:1 255:1 256:1 257:0.785003 258:0.580676 259:0.478543 260:0.276198 261:0.160783 262:0.0714161 263:-0.0501889 264:-0.106084 265:-0.321014 266:-0.635762 267:-0.846158 268:-0.982305 269:-1 270:-0.993341 271:-0.930729 272:-1 273:-0.594762 274:-0.122651 275:0.264767 276:0.474254 277:0.672898 278:0.653359 279:0.709659 280:0.78927 281:0.77867 282:0.810511 283:0.81246 284:0.772734 285:0.721579 286:0.678375 287:0.670123 288:0.616908 289:0.561538 290:0.481789 291:0.385921 292:0.313826 293:0.260604 294:0.212637 295:0.168741 296:0.163828 297:0.171202 298:0.187171 299:0.209923 
0.460549630754763 0:0.668739 1:0.757392 2:0.906512 3:1 4:1 5:0.995997 6:0.761519 7:0.799374 8:1 9:1 10:1 11:0.944116 12:0.898174 13:0.924749 14:1 15:1 16:1 17:1 18:0.880934 19:0.700869 20:0.55502 21:0.354151 22:0.177888 23:0.0332012 24:-0.294663 25:-0.636967 26:-0.853089 27:-0.883286 28:-0.696524 29:-0.718445 30:-0.816957 31:-0.861903 32:-1 33:-0.897402 34:0.117586 35:1 36:0.968515 37:0.284766 38:-0.224277 39:-0.463604 40:-0.0158373 41:0.288453 42:0.286553 43:0.239749 44:0.03584 45:0.0166871 46:0.0728881 47:0.08815 48:-0.0504308 49:0.0185906 50:0.0660582 51:0.104384 52:0.0200374 53:-0.278832 54:-0.486033 55:-0.598746 56:-0.59292 57:-0.487863 58:-0.573685 59:-0.838857 60:-0.941049 61:-0.820532 62:-0.888108 63:-0.80308 64:-0.592975 65:-0.298806 66:0.0513251 67:1 68:1 69:1 70:0.126225 71:-0.85701 72:-1 73:-0.767623 74:-0.0792512 75:0.465222 76:0.575049 77:0.50391 78:0.184996 79:-0.00719295 80:-0.166926 81:-0.261173 82:-0.119963 83:0.0691527 84:-0.0856256 85:-0.265119 86:-0.198823 87:-0.0472399 88:0.0365239 89:-0.0926085 90:-0.275528 91:-0.451792 92:-0.476933 93:-0.383675 94:-0.319716 95:-0.404047 96:-0.63546 97:-0.670137 98:-0.989868 99:-0.793171 100:-0.803498 101:-1 102:-0.980302 103:-0.880489 104:-0.733585 105:-0.529106 106:-0.448421 107:-0.403862 108:-0.323647 109:-0.223781 110:-0.106501 111:0.0261386 112:0.146051 113:0.278603 114:0.406407 115:0.523645 116:0.629719 117:0.73391 118:0.819639 119:0.864923 120:0.847994 121:0.819794 122:0.81554 123:0.828069 124:0.787284 125:0.767874 126:0.842113 127:0.878455 128:0.900395 129:0.862463 130:0.739595 131:0.637841 132:0.501852 133:0.483334 134:0.329092 135:0.130196 136:0.180815 137:0.248294 138:0.401719 139:0.52594 140:0.536936 141:0.596529 142:0.644757 143:0.699183 144:0.716573 145:0.779452 146:0.876529 147:0.912632 148:0.911873 149:0.927655 150:0.94452 151:0.925504 152:0.858488 153:0.777011 154:0.647084 155:0.466137 156:0.264917 157:-0.00698864 158:-0.41424 159:-0.57266 160:-0.699049 161:-0.821034 162:-0.932895 163:-0.948255 164:-0.964725 165:-1 166:-1 167:-1 168:-0.929136 169:-0.803775 170:-0.643749 171:-0.477998 172:-0.339535 173:-0.318322 174:-0.29171 175:-0.280211 176:-0.312635 177:-0.384592 178:-0.428611 179:-0.364947 180:-0.232261 181:-0.119994 182:0.0894281 183:0.29746 184:0.334038 185:0.373473 186:0.377428 187:0.411954 188:0.433261 189:0.480269 190:0.479104 191:0.427286 192:0.396512 193:0.401492 194:0.401053 195:0.415081 196:0.446501 197:0.471946 198:0.480817 199:0.442982 200:-0.750281 201:-0.616132 202:-0.496412 203:-0.393566 204:-0.207535 205:-0.00217564 206:0.136265 207:0.200409 208:0.215947 209:0.186866 210:0.257767 211:0.283461 212:0.280927 213:0.237455 214:0.184304 215:0.122465 216:0.109071 217:0.0877316 218:0.0554422 219:0.0590601 220:0.0447773 221:0.0209135 222:0.00949908 223:0.00633577 224:-0.0100706 225:-0.0384944 226:-0.0820389 227:-0.189131 228:-0.463236 229:-0.538293 230:-0.755486 231:-0.95694 232:-1 233:-0.696619 234:-0.32363 235:-0.194695 236:-0.151455 237:0.210517 238:0.430898 239:0.535478 240:0.602681 241:0.669531 242:0.709824 243:0.741846 244:0.779514 245:0.797669 246:0.78854 247:0.77729 248:0.775226 249:0.73548 250:0.700026 251:0.6954 252:0.713206 253:0.722468 254:0.712835 255:0.641853 256:0.447681 257:0.144246 258:-0.0559623 259:-0.193099 260:-0.363322 261:-0.45233 262:-0.545621 263:-0.674572 264:-0.665428 265:-0.788127 266:-0.913873 267:-0.713035 268:-0.188994 269:0.323473 270:0.516127 271:0.774918 272:0.898795 273:1 274:1 275:0.857464 276:0.672095 277:0.671406 278:0.594119 279:0.617931 280:0.634037 281:0.604872 282:0.597921 283:0.553109 284:0.491843 285:0.427251 286:0.365928 287:0.362943 288:0.322608 289:0.280737 290:0.239197 291:0.202234 292:0.192838 293:0.181892 294:0.168971 295:0.155873 296:0.174 297:0.215333 298:0.251411 299:0.282519 
0.5 0:0.632953 1:0.432117 2:0.429957 3:0.462298 4:0.489564 5:0.708943 6:0.725676 7:0.692429 8:0.593482 9:0.363503 10:0.187471 11:-0.00623507 12:-0.0886292 13:-0.189416 14:-0.230848 15:-0.316598 16:-0.375558 17:-0.289687 18:-0.162396 19:-0.196055 20:-0.303987 21:-0.487986 22:-0.497963 23:-0.479742 24:-0.689515 25:-0.917291 26:-0.891059 27:-0.860822 28:-0.706138 29:-0.414865 30:-0.238991 31:-0.324639 32:-0.425158 33:-0.349706 34:0.184021 35:0.411343 36:0.419967 37:0.227893 38:0.175318 39:0.0344306 40:0.189959 41:0.105025 42:-0.0578493 43:-0.0390716 44:-0.167163 45:-0.107568 46:-0.0489618 47:-0.148364 48:-0.611322 49:-0.652914 50:-0.720145 51:-0.668101 52:-0.608008 53:-0.842164 54:-0.82182 55:-0.754342 56:-0.821894 57:-0.908741 58:-0.988628 59:-1 60:-0.825575 61:-0.545272 62:-0.639523 63:-0.651305 64:0.0418623 65:0.895029 66:1 67:0.932413 68:-0.396666 69:-0.890855 70:-1 71:-0.497912 72:-0.247416 73:-0.202302 74:0.17785 75:0.351686 76:0.176449 77:-0.1081 78:-0.519062 79:-0.359596 80:-0.346017 81:-0.463744 82:-0.436974 83:-0.255146 84:-0.116164 85:-0.0462876 86:0.0374154 87:0.0657862 88:-0.0131045 89:-0.185768 90:-0.213251 91:-0.231229 92:-0.204062 93:-0.143873 94:-0.122739 95:-0.183036 96:-0.310499 97:-0.321298 98:-0.671241 99:-0.693084 100:-0.423326 101:-0.247645 102:-0.0735079 103:0.0654692 104:0.207949 105:0.391188 106:0.511405 107:0.609428 108:0.687106 109:0.768297 110:0.852679 111:0.92542 112:0.969235 113:0.99731 114:1 115:1 116:1 117:0.99394 118:0.975736 119:0.941191 120:0.888014 121:0.833623 122:0.812729 123:0.816565 124:0.793623 125:0.752891 126:0.758154 127:0.696064 128:0.591468 129:0.520908 130:0.364529 131:0.123187 132:0.0293313 133:0.0270265 134:0.0645842 135:0.0947227 136:0.284706 137:0.397384 138:0.551218 139:0.668942 140:0.7099 141:0.746301 142:0.75314 143:0.742061 144:0.712569 145:0.719527 146:0.770542 147:0.757466 148:0.707368 149:0.663806 150:0.603449 151:0.552056 152:0.44989 153:0.336373 154:0.200859 155:-0.0290151 156:-0.323499 157:-0.60375 158:-0.89655 159:-0.842096 160:-0.848682 161:-0.890801 162:-0.907215 163:-0.762699 164:-0.628667 165:-0.650767 166:-0.659811 167:-0.666767 168:-0.643214 169:-0.541739 170:-0.413729 171:-0.26664 172:-0.134907 173:-0.0984615 174:-0.074679 175:-0.104897 176:-0.1933 177:-0.317395 178:-0.366466 179:-0.275109 180:-0.132402 181:-0.0272633 182:0.127586 183:0.280245 184:0.305291 185:0.3197 186:0.27178 187:0.243457 188:0.223003 189:0.288789 190:0.316575 191:0.26765 192:0.184534 193:0.125987 194:0.103401 195:0.13908 196:0.220197 197:0.267271 198:0.232147 199:0.113478 200:0.0617701 201:0.1151 202:0.139343 203:0.154719 204:0.169552 205:0.132647 206:0.0211229 207:-0.151615 208:-0.368446 209:-0.61039 210:-0.576831 211:-0.521453 212:-0.458694 213:-0.462538 214:-0.501025 215:-0.556402 216:-0.550748 217:-0.588768 218:-0.647329 219:-0.688817 220:-0.77231 221:-0.872866 222:-0.962609 223:-1 224:-1 225:-1 226:-1 227:-1 228:-0.996655 229:-0.496583 230:-0.162003 231:0.0989581 232:0.50716 233:0.826499 234:1 235:1 236:1 237:1 238:1 239:1 240:1 241:0.996098 242:0.934616 243:0.889305 244:0.866006 245:0.82967 246:0.764367 247:0.699506 248:0.665522 249:0.586509 250:0.534449 251:0.505229 252:0.50115 253:0.474382 254:0.389113 255:0.194055 256:-0.233572 257:-0.613039 258:-0.791715 259:-0.9266 260:-0.999993 261:-1 262:-1 263:-0.836344 264:-0.604796 265:-0.426784 266:-0.10013 267:0.165208 268:0.381212 269:0.503633 270:0.5656 271:0.556852 272:0.436359 273:0.299027 274:0.331571 275:0.325026 276:0.270144 277:0.342942 278:0.334879 279:0.421551 280:0.512161 281:0.547792 282:0.589826 283:0.577366 284:0.542974 285:0.499347 286:0.46352 287:0.487123 288:0.480308 289:0.475496 290:0.466171 291:0.453086 292:0.454757 293:0.438789 294:0.406495 295:0.378467 296:0.382216 297:0.395635 298:0.403076 299:0.411389 
0.3852651955496678 0:0.360149 1:0.264725 2:0.193161 3:0.19209 4:0.237263 5:0.387923 6:0.436358 7:0.539297 8:0.606447 9:0.578134 10:0.682965 11:0.756138 12:0.737526 13:0.676775 14:0.626544 15:0.529249 16:0.477448 17:0.454813 18:0.397878 19:0.26384 20:0.149922 21:0.0666807 22:0.0391033 23:-0.0478667 24:-0.314573 25:-0.597132 26:-0.743025 27:-0.746178 28:-0.601176 29:-0.815018 30:-0.941534 31:-0.894769 32:-0.818552 33:-1 34:-0.728569 35:-0.137661 36:0.456664 37:0.301385 38:-0.248888 39:-0.902352 40:-0.699075 41:-0.437079 42:-0.0410181 43:0.244611 44:0.230226 45:0.242852 46:0.204544 47:0.143409 48:0.091553 49:0.350413 50:0.54127 51:0.610701 52:0.509045 53:0.27117 54:0.0261711 55:-0.180712 56:-0.249609 57:-0.277195 58:-0.297238 59:-0.482853 60:-0.622796 61:-0.576048 62:-0.735877 63:-1 64:-1 65:-0.816081 66:-0.642116 67:-0.546098 68:-0.771146 69:-0.143189 70:1 71:1 72:0.847806 73:-0.0792383 74:-1 75:-1 76:-0.205469 77:0.571506 78:0.736331 79:0.63175 80:0.373085 81:0.0971556 82:0.129491 83:0.414551 84:0.452817 85:0.3291 86:0.240545 87:0.181949 88:0.0950347 89:-0.059642 90:-0.0842417 91:-0.0771644 92:-0.0325542 93:0.018034 94:0.0231029 95:-0.0998927 96:-0.364556 97:-0.405195 98:-0.711726 99:-0.723776 100:-0.574696 101:-0.507039 102:-0.482701 103:-0.431493 104:-0.342898 105:-0.190781 106:-0.119058 107:-0.083866 108:-0.0541785 109:-0.0100814 110:0.0782379 111:0.198277 112:0.307862 113:0.421891 114:0.515832 115:0.583223 116:0.634795 117:0.692207 118:0.745448 119:0.775956 120:0.742822 121:0.694336 122:0.646695 123:0.606637 124:0.554144 125:0.555207 126:0.640779 127:0.669567 128:0.644911 129:0.60024 130:0.56892 131:0.537912 132:0.473999 133:0.314081 134:0.306241 135:0.299415 136:0.320518 137:0.254266 138:0.36945 139:0.484976 140:0.431426 141:0.402679 142:0.413997 143:0.532479 144:0.630046 145:0.732822 146:0.816472 147:0.822948 148:0.837638 149:0.907601 150:0.939319 151:0.930711 152:0.880322 153:0.84391 154:0.758492 155:0.619327 156:0.461606 157:0.317444 158:0.123067 159:0.0604496 160:-0.0119094 161:-0.0781866 162:-0.147264 163:-0.197857 164:-0.283771 165:-0.421198 166:-0.578913 167:-0.774896 168:-0.906831 169:-0.951951 170:-1 171:-0.874318 172:-0.616312 173:-0.574334 174:-0.627754 175:-0.629236 176:-0.602946 177:-0.629766 178:-0.564441 179:-0.392868 180:-0.22103 181:-0.113792 182:0.052979 183:0.215689 184:0.226852 185:0.236925 186:0.209209 187:0.231979 188:0.24992 189:0.323976 190:0.351375 191:0.31246 192:0.253778 193:0.222299 194:0.212055 195:0.220765 196:0.272138 197:0.330096 198:0.297871 199:0.246741 200:-0.42343 201:-0.292835 202:-0.206353 203:-0.11973 204:-0.0171258 205:0.0763344 206:0.136205 207:0.149322 208:0.0730605 209:-0.0581518 210:-0.0240102 211:-0.0120143 212:-0.030877 213:-0.0918391 214:-0.144085 215:-0.185948 216:-0.170066 217:-0.169601 218:-0.161173 219:-0.110611 220:-0.0772744 221:-0.0658009 222:-0.060328 223:-0.0534792 224:-0.0589378 225:-0.079912 226:-0.103081 227:-0.177742 228:-0.409296 229:-0.474527 230:-0.661777 231:-0.806576 232:-0.999418 233:-1 234:-0.842967 235:-0.633868 236:-0.621383 237:-0.279827 238:0.0539936 239:0.325433 240:0.559481 241:0.713657 242:0.743234 243:0.787821 244:0.885398 245:0.954501 246:0.960219 247:0.965204 248:0.97326 249:0.959654 250:0.933068 251:0.908458 252:0.909659 253:0.917606 254:0.912277 255:0.864148 256:0.761581 257:0.512506 258:0.351508 259:0.287022 260:0.126038 261:0.0366859 262:-0.0285567 263:-0.131617 264:-0.203266 265:-0.46977 266:-0.838396 267:-1 268:-1 269:-0.956922 270:-0.907533 271:-0.538837 272:-0.135115 273:0.222307 274:0.572601 275:0.673303 276:0.642177 277:0.755322 278:0.666617 279:0.714343 280:0.816433 281:0.86747 282:0.906719 283:0.884904 284:0.848294 285:0.811818 286:0.761165 287:0.727128 288:0.651935 289:0.575168 290:0.50912 291:0.445667 292:0.388076 293:0.324532 294:0.264574 295:0.211422 296:0.202226 297:0.201087 298:0.21088 299:0.21773 
-0.2423389795998635 0:-0.627224 1:-0.606232 2:-0.552926 3:-0.539463 4:-0.544489 5:-0.566681 6:-0.549679 7:-0.449494 8:-0.481686 9:-0.435679 10:-0.323779 11:-0.20042 12:0.00268393 13:0.148207 14:0.302633 15:0.374741 16:0.547626 17:0.826436 18:1 19:1 20:1 21:1 22:1 23:1 24:1 25:1 26:0.971452 27:0.905383 28:1 29:0.432933 30:0.083788 31:-0.0370985 32:-0.0985778 33:0.188247 34:0.616612 35:0.471962 36:0.34411 37:0.046985 38:-0.0997955 39:-0.301496 40:-0.164432 41:-0.262638 42:-0.299387 43:-0.175266 44:-0.261221 45:-0.153484 46:-0.0189783 47:0.0052002 48:-0.0951301 49:0.020036 50:0.099939 51:0.234896 52:0.344485 53:0.221043 54:0.0373302 55:-0.14664 56:-0.242365 57:-0.441798 58:-0.499464 59:-0.587472 60:-0.471015 61:-0.0515163 62:0.412812 63:0.806029 64:0.424757 65:0.302885 66:0.105483 67:0.258496 68:-0.355455 69:-0.383969 70:-0.537452 71:-0.467375 72:-0.349935 73:-0.303186 74:0.113809 75:0.392425 76:0.397011 77:0.272994 78:-0.0212754 79:-0.00233578 80:-0.0386052 81:-0.1245 82:0.0149663 83:0.302591 84:0.29163 85:0.180199 86:0.190319 87:0.236964 88:0.254627 89:0.180234 90:0.145963 91:0.131786 92:0.161906 93:0.173693 94:0.143649 95:0.0535713 96:-0.100323 97:-0.119652 98:-0.42603 99:-0.451107 100:-0.145258 101:-0.0574933 102:0.0305415 103:0.0956596 104:0.0977891 105:0.133534 106:0.128869 107:0.0909054 108:0.05043 109:0.010002 110:-0.013699 111:-0.00218836 112:0.0120285 113:0.0371247 114:0.0585208 115:0.0763215 116:0.095577 117:0.111129 118:0.115333 119:0.0990962 120:0.0433983 121:-0.0223206 122:-0.0782232 123:-0.12325 124:-0.181197 125:-0.11206 126:-0.00404024 127:0.020328 128:-0.0292683 129:-0.111273 130:-0.163031 131:-0.165187 132:-0.199539 133:-0.217664 134:-0.213639 135:-0.172255 136:-0.106569 137:-0.124222 138:0.0292925 139:0.135025 140:-0.0502461 141:-0.0130402 142:-0.0137763 143:0.063389 144:0.11123 145:0.175835 146:0.26733 147:0.309385 148:0.337108 149:0.40685 150:0.494679 151:0.597054 152:0.661764 153:0.692478 154:0.703074 155:0.668948 156:0.615883 157:0.551669 158:0.409457 159:0.379826 160:0.378335 161:0.324339 162:0.241376 163:0.180334 164:0.120294 165:0.0548244 166:-0.00614269 167:-0.089179 168:-0.143676 169:-0.193894 170:-0.208729 171:-0.185024 172:-0.139658 173:-0.183575 174:-0.260003 175:-0.388938 176:-0.555364 177:-0.769037 178:-0.911552 179:-0.887714 180:-0.787411 181:-0.821854 182:-0.858846 183:-0.845394 184:-0.857797 185:-0.825458 186:-0.913053 187:-0.917875 188:-0.943756 189:-0.823267 190:-0.809488 191:-0.901539 192:-1 193:-1 194:-0.982522 195:-0.940915 196:-0.807873 197:-0.670514 198:-0.72678 199:-0.897843 200:-0.26405 201:-0.154049 202:-0.0541569 203:0.0181685 204:0.101317 205:0.184375 206:0.260922 207:0.330624 208:0.377933 209:0.414889 210:0.538941 211:0.619966 212:0.672384 213:0.665347 214:0.675399 215:0.710631 216:0.769045 217:0.824209 218:0.841113 219:0.867981 220:0.894909 221:0.911564 222:0.935499 223:0.958943 224:0.979444 225:0.999925 226:1 227:1 228:1 229:1 230:1 231:1 232:1 233:1 234:0.91532 235:0.709647 236:0.484184 237:0.347584 238:0.198386 239:0.0804427 240:0.0747937 241:0.0865154 242:0.0937992 243:0.0530539 244:0.0760038 245:0.0922137 246:0.0456456 247:-0.0567726 248:-0.025412 249:-0.097426 250:-0.147565 251:-0.168017 252:-0.12215 253:-0.102771 254:-0.161437 255:-0.372332 256:-0.831619 257:-1 258:-0.820567 259:-0.590823 260:-0.268654 261:-0.0299693 262:0.144211 263:0.318034 264:0.505637 265:0.603857 266:0.663052 267:0.718736 268:0.77819 269:0.773686 270:0.742554 271:0.681353 272:0.566776 273:0.432386 274:0.403872 275:0.326113 276:0.206748 277:0.206746 278:0.132045 279:0.130293 280:0.119873 281:0.0632643 282:0.0099637 283:-0.0634303 284:-0.162778 285:-0.28342 286:-0.404502 287:-0.398676 288:-0.422559 289:-0.452215 290:-0.487599 291:-0.541088 292:-0.558661 293:-0.548783 294:-0.584304 295:-0.632053 296:-0.617391 297:-0.594367 298:-0.584635 299:-0.592416 
-0.3906418279495628 0:-0.318587 1:-0.349164 2:-0.33902 3:-0.295716 4:-0.272949 5:-0.210513 6:-0.12347 7:0.00187744 8:-0.0248281 9:-0.059478 10:0.0233786 11:0.0105371 12:0.0819302 13:0.179328 14:0.345304 15:0.4063 16:0.499043 17:0.620633 18:0.609483 19:0.507845 20:0.457699 21:0.450843 22:0.445442 23:0.376953 24:0.318936 25:0.301967 26:0.267929 27:0.207143 28:0.329328 29:-0.0556657 30:-0.308224 31:-0.373843 32:-0.372497 33:-0.178286 34:0.211503 35:0.14402 36:0.120037 37:-0.128896 38:-0.133469 39:-0.142351 40:0.12332 41:0.0353787 42:-0.237918 43:-0.334332 44:-0.781464 45:-1 46:-1 47:-1 48:-0.473608 49:0.0262254 50:0.179 51:0.32136 52:0.429837 53:0.274536 54:0.173847 55:0.169536 56:0.402639 57:0.44603 58:0.464794 59:0.30875 60:0.204648 61:0.258802 62:0.374147 63:0.469603 64:0.0272926 65:-0.0919902 66:-0.182116 67:-0.062405 68:-0.547471 69:-0.485433 70:-0.56061 71:-0.433725 72:-0.328781 73:-0.353276 74:-0.0816947 75:0.0610608 76:-0.0609427 77:-0.255879 78:-0.767956 79:-0.784995 80:-0.906717 81:-1 82:-1 83:-1 84:-1 85:-1 86:-1 87:-1 88:-1 89:-0.997726 90:-0.849128 91:-0.80583 92:-0.676852 93:-0.489499 94:-0.329469 95:-0.394416 96:-0.586249 97:-0.626882 98:-0.990582 99:-0.880859 100:0.169222 101:0.15703 102:0.0965921 103:0.0367972 104:-0.002934 105:0.02359 106:-0.0300288 107:-0.0887324 108:-0.138949 109:-0.181321 110:-0.177406 111:-0.148351 112:-0.113865 113:-0.0602409 114:-0.0125992 115:0.0411525 116:0.0829763 117:0.112704 118:0.131668 119:0.152402 120:0.154612 121:0.0909629 122:0.0524647 123:0.0607528 124:-0.024883 125:0.0770158 126:0.180672 127:0.19118 128:0.15216 129:0.0998756 130:0.05445 131:0.0472862 132:0.01937 133:0.022469 134:0.0317972 135:0.0641272 136:0.251592 137:0.356931 138:0.54512 139:0.745779 140:0.900283 141:0.941456 142:0.887034 143:0.753285 144:0.611205 145:0.459868 146:0.373316 147:0.385251 148:0.27219 149:0.159612 150:0.0965909 151:0.124617 152:0.125159 153:0.108921 154:0.100613 155:0.0683633 156:0.0220862 157:-0.0411498 158:-0.162951 159:-0.0926452 160:-0.0681031 161:-0.0687337 162:-0.0714677 163:-0.0401924 164:-0.0296277 165:-0.0560267 166:-0.0867316 167:-0.154524 168:-0.18482 169:-0.207568 170:-0.204237 171:-0.173566 172:-0.138208 173:-0.193362 174:-0.279997 175:-0.407394 176:-0.563543 177:-0.756527 178:-0.882031 179:-0.844694 180:-0.724688 181:-0.677565 182:-0.566397 183:-0.371856 184:-0.237397 185:-0.0901771 186:0.0161976 187:0.199497 188:0.37004 189:0.545068 190:0.613141 191:0.659475 192:0.705919 193:0.742955 194:0.74264 195:0.72415 196:0.732017 197:0.728895 198:0.698035 199:0.645444 200:0.420727 201:0.51062 202:0.602222 203:0.676853 204:0.754583 205:0.820148 206:0.878808 207:0.909101 208:0.920941 209:0.945799 210:0.896599 211:0.829173 212:0.772535 213:0.689773 214:0.618399 215:0.558591 216:0.513981 217:0.464101 218:0.401868 219:0.380505 220:0.349789 221:0.339643 222:0.35929 223:0.405792 224:0.464747 225:0.473292 226:0.494082 227:0.507224 228:0.463649 229:0.494235 230:0.496253 231:0.526472 232:0.556585 233:0.592263 234:0.549902 235:0.385786 236:0.128656 237:0.0134642 238:-0.121673 239:-0.317659 240:-0.461251 241:-0.610672 242:-0.738469 243:-0.915352 244:-0.906564 245:-0.853586 246:-0.809759 247:-0.689888 248:-0.190059 249:0.11319 250:0.378009 251:0.601488 252:0.797287 253:0.836138 254:0.839136 255:0.823549 256:0.815124 257:0.69444 258:0.629943 259:0.688122 260:0.603288 261:0.572972 262:0.614713 263:0.664462 264:0.728272 265:0.755595 266:0.749722 267:0.734821 268:0.765456 269:0.74102 270:0.722746 271:0.681175 272:0.592051 273:0.456055 274:0.396878 275:0.289099 276:0.163549 277:0.14769 278:0.0526005 279:0.016672 280:-0.0364656 281:-0.131459 282:-0.243474 283:-0.380574 284:-0.543383 285:-0.756239 286:-1 287:-1 288:-1 289:-1 290:-1 291:-1 292:-0.975733 293:-0.935286 294:-0.954204 295:-0.964307 296:-0.851906 297:-0.719839 298:-0.602356 299:-0.52623 
-0.216547290049166 0:-0.100779 1:-0.1651 2:-0.169529 3:-0.131916 4:-0.114183 5:-0.076293 6:-0.116867 7:-0.0726148 8:-0.149471 9:-0.20943 10:-0.170914 11:-0.117788 12:0.0256657 13:0.142138 14:0.253814 15:0.290855 16:0.347932 17:0.444887 18:0.468476 19:0.385266 20:0.3155 21:0.241789 22:0.225542 23:0.223823 24:0.106655 25:0.00746236 26:-0.000828329 27:-0.00306796 28:0.111417 29:-0.197698 30:-0.368831 31:-0.374626 32:-0.342273 33:-0.127978 34:0.263308 35:0.199196 36:0.213046 37:0.0575508 38:0.0682833 39:-0.0146527 40:0.141874 41:-0.0866988 42:-0.376744 43:-0.39682 44:-0.653113 45:-0.733262 46:-0.627964 47:-0.478507 48:-0.368714 49:0.051426 50:0.1641 51:0.368614 52:0.421521 53:0.207804 54:-0.0363491 55:0.0049992 56:0.21484 57:0.243657 58:0.208982 59:0.090514 60:0.104231 61:0.239292 62:0.322702 63:0.347153 64:-0.0780983 65:-0.194172 66:-0.278195 67:-0.201535 68:-0.693633 69:-0.669849 70:-0.809754 71:-0.615561 72:-0.515886 73:-0.550652 74:-0.297524 75:-0.0837728 76:-0.140594 77:-0.281255 78:-0.739943 79:-0.657845 80:-0.656708 81:-0.715907 82:-0.694679 83:-0.687828 84:-0.708087 85:-0.635842 86:-0.36623 87:-0.133976 88:-0.0330267 89:-0.117213 90:-0.199615 91:-0.249378 92:-0.210371 93:-0.19802 94:-0.284403 95:-0.520169 96:-1 97:-1 98:-0.87919 99:0.2296 100:-0.283412 101:-0.207202 102:-0.140559 103:-0.0784435 104:-0.0191125 105:0.0388868 106:0.0588896 107:0.0421978 108:-0.0027719 109:-0.0826021 110:-0.101475 111:-0.0814641 112:-0.0535125 113:-0.00560778 114:0.0333337 115:0.0640324 116:0.0811981 117:0.0920178 118:0.11476 119:0.120042 120:0.0765395 121:0.0327725 122:0.0181167 123:0.00847458 124:-0.0101916 125:0.0694107 126:0.175321 127:0.20155 128:0.166927 129:0.106051 130:0.0652885 131:0.0623643 132:0.0355479 133:0.0480148 134:0.0678095 135:0.118908 136:0.352645 137:0.501903 138:0.683718 139:0.81398 140:0.876199 141:0.796075 142:0.624709 143:0.512651 144:0.431853 145:0.388194 146:0.341372 147:0.306823 148:0.203913 149:0.0613009 150:0.00269725 151:0.0484544 152:0.0736559 153:0.105045 154:0.133327 155:0.15286 156:0.12192 157:0.0628186 158:-0.0478715 159:0.00840332 160:0.016008 161:0.0145619 162:0.0182278 163:0.0507066 164:0.0399028 165:-0.0218301 166:-0.089554 167:-0.181259 168:-0.224077 169:-0.209421 170:-0.219388 171:-0.216897 172:-0.154681 173:-0.225571 174:-0.294623 175:-0.392982 176:-0.529894 177:-0.709169 178:-0.797678 179:-0.705671 180:-0.534798 181:-0.459272 182:-0.344999 183:-0.190514 184:-0.106614 185:0.0190637 186:0.0793085 187:0.128492 188:0.127521 189:0.169694 190:0.163547 191:0.100748 192:0.0216149 193:0.0469647 194:0.168503 195:0.285549 196:0.127988 197:-0.0142393 198:-0.184387 199:-0.325751 200:0.886047 201:0.876071 202:0.863107 203:0.827779 204:0.79648 205:0.774365 206:0.765421 207:0.745848 208:0.686958 209:0.584574 210:0.578872 211:0.592322 212:0.577957 213:0.501487 214:0.441467 215:0.384839 216:0.360243 217:0.319037 218:0.256076 219:0.223778 220:0.221924 221:0.230026 222:0.248014 223:0.282739 224:0.319238 225:0.36134 226:0.399947 227:0.420029 228:0.389405 229:0.453084 230:0.475683 231:0.520848 232:0.561415 233:0.609372 234:0.564969 235:0.394985 236:0.119313 237:-0.0372802 238:-0.211945 239:-0.410756 240:-0.524718 241:-0.628181 242:-0.674712 243:-0.808743 244:-0.800338 245:-0.741715 246:-0.680642 247:-0.596447 248:-0.241488 249:-0.013792 250:0.254231 251:0.498986 252:0.657204 253:0.695784 254:0.63436 255:0.540412 256:0.395062 257:0.247313 258:0.209884 259:0.242117 260:0.175315 261:0.175048 262:0.21148 263:0.237553 264:0.297092 265:0.253922 266:0.150351 267:0.0865548 268:0.0654762 269:0.0159287 270:-0.052255 271:-0.176351 272:-0.599447 273:-1 274:-1 275:-1 276:-1 277:-1 278:-1 279:-1 280:-1 281:-1 282:-1 283:-1 284:-1 285:-1 286:-0.942087 287:-0.730263 288:-0.573696 289:-0.428302 290:-0.280765 291:-0.144176 292:0.00165818 293:0.182084 294:0.383576 295:0.495409 296:0.554245 297:0.667736 298:0.799708 299:0.865095 
-0.08644467994378457 0:-0.718348 1:-0.861379 2:-0.935616 3:-0.886332 4:-0.76618 5:-0.616613 6:-0.492141 7:-0.348142 8:-0.404859 9:-0.428661 10:-0.342518 11:-0.272733 12:-0.116576 13:0.0036749 14:0.15735 15:0.253933 16:0.43088 17:0.70579 18:0.882369 19:0.896152 20:0.874151 21:0.80457 22:0.745282 23:0.693599 24:0.62462 25:0.569913 26:0.520953 27:0.445496 28:0.53119 29:0.0812452 30:-0.202204 31:-0.278826 32:-0.300683 33:-0.112405 34:0.214959 35:0.0802707 36:0.020608 37:-0.278711 38:-0.3869 39:-0.570737 40:-0.396583 41:-0.503931 42:-0.504824 43:-0.39916 44:-0.535803 45:-0.399561 46:-0.220035 47:-0.205673 48:-0.290891 49:0.125639 50:0.349783 51:0.427875 52:0.236194 53:-0.165914 54:-0.649307 55:-0.738887 56:-0.234417 57:0.465524 58:0.91497 59:1 60:0.909029 61:0.688028 62:0.659097 63:0.693807 64:0.217972 65:0.134059 66:-0.0151409 67:0.101001 68:-0.465009 69:-0.472288 70:-0.565905 71:-0.446724 72:-0.313047 73:-0.277331 74:0.0802822 75:0.285638 76:0.202208 77:-0.000239964 78:-0.491262 79:-0.52036 80:-0.590714 81:-0.69493 82:-0.688225 83:-0.614237 84:-0.655272 85:-0.729484 86:-0.665055 87:-0.657274 88:-0.768605 89:-1 90:-1 91:-1 92:-1 93:-1 94:-1 95:-1 96:-0.871283 97:-0.609117 98:-0.800292 99:-0.774429 100:0.164248 101:0.0845201 102:0.0340908 103:4.15442e-05 104:-0.0181998 105:0.0407455 106:0.0520974 107:0.0240548 108:-0.0218261 109:-0.0761992 110:-0.119732 111:-0.120061 112:-0.105232 113:-0.0580135 114:-0.0258694 115:-0.0192652 116:-0.00713072 117:0.0230546 118:0.0763194 119:0.11675 120:0.104966 121:0.0607316 122:0.0233171 123:-0.00875851 124:-0.0628171 125:-0.0103711 126:0.0745943 127:0.0781603 128:0.01543 129:-0.0782426 130:-0.136517 131:-0.164643 132:-0.208961 133:-0.201628 134:-0.186538 135:-0.166061 136:-0.0469031 137:0.0195148 138:0.156969 139:0.282168 140:0.21579 141:0.193843 142:0.118031 143:0.181792 144:0.13749 145:0.204307 146:0.322069 147:0.385355 148:0.38614 149:0.471532 150:0.582438 151:0.690677 152:0.658122 153:0.617023 154:0.487943 155:0.336734 156:0.322926 157:0.0998697 158:-0.0901574 159:-0.0461828 160:-0.0209644 161:-0.00587808 162:-0.0136881 163:0.00737557 164:0.00933021 165:-0.023282 166:-0.0650012 167:-0.144112 168:-0.190962 169:-0.232946 170:-0.242588 171:-0.216429 172:-0.171493 173:-0.217983 174:-0.295138 175:-0.420751 176:-0.583406 177:-0.795731 178:-0.94449 179:-0.913719 180:-0.811346 181:-0.844837 182:-0.862392 183:-0.812866 184:-0.776774 185:-0.683587 186:-0.690405 187:-0.614872 188:-0.538138 189:-0.34374 190:-0.235261 191:-0.22706 192:-0.213896 193:-0.120327 194:0.0120043 195:0.196026 196:0.355778 197:0.446407 198:0.434502 199:0.355954 200:-0.690407 201:-0.564333 202:-0.426212 203:-0.283124 204:-0.127373 205:0.0152035 206:0.167177 207:0.327311 208:0.482126 209:0.627636 210:0.800648 211:0.926315 212:1 213:1 214:1 215:1 216:1 217:0.992491 218:0.954721 219:0.925508 220:0.898508 221:0.870879 222:0.846187 223:0.840482 224:0.842911 225:0.849749 226:0.842904 227:0.828647 228:0.802488 229:0.807533 230:0.796342 231:0.788796 232:0.785059 233:0.781519 234:0.694757 235:0.498116 236:0.241435 237:0.125278 238:0.0142862 239:-0.0896764 240:-0.08812 241:-0.0464624 242:-0.00239114 243:-0.0310318 244:0.025332 245:0.0466704 246:-0.00425174 247:-0.11199 248:-0.0836592 249:-0.237768 250:-0.419352 251:-0.587498 252:-0.628462 253:-0.652695 254:-0.706813 255:-0.772598 256:-0.671588 257:0.00553926 258:0.433367 259:0.805884 260:1 261:1 262:1 263:1 264:1 265:1 266:0.970176 267:0.908036 268:0.898083 269:0.840497 270:0.806628 271:0.761932 272:0.704504 273:0.641453 274:0.622924 275:0.551798 276:0.442897 277:0.479961 278:0.402658 279:0.389642 280:0.367897 281:0.306576 282:0.262239 283:0.153616 284:-0.00735649 285:-0.204095 286:-0.386099 287:-0.438324 288:-0.544373 289:-0.65669 290:-0.766514 291:-0.898243 292:-1 293:-1 294:-1 295:-1 296:-1 297:-1 298:-1 299:-1 
-0.1020477432218583 0:-0.44755 1:-0.546595 2:-0.598838 3:-0.609664 4:-0.609113 5:-0.601284 6:-0.549125 7:-0.406931 8:-0.462039 9:-0.477515 10:-0.454358 11:-0.44021 12:-0.304906 13:-0.221145 14:-0.122603 15:-0.11718 16:-0.0766486 17:0.0374532 18:0.116999 19:0.160222 20:0.21748 21:0.264252 22:0.266235 23:0.197035 24:-0.0298487 25:-0.248062 26:-0.341153 27:-0.325793 28:-0.0704757 29:-0.205742 30:-0.358534 31:-0.428731 32:-0.493609 33:-0.523741 34:-0.424667 35:-0.621131 36:-0.26492 37:-0.563467 38:-1 39:-0.657323 40:0.0327467 41:0.385831 42:-0.211601 43:-0.399476 44:-0.464927 45:-0.165669 46:0.0847461 47:-0.0319592 48:-0.324817 49:-0.226647 50:-0.101686 51:0.0511021 52:0.167921 53:0.0463079 54:-0.0263925 55:-0.0315581 56:0.143711 57:0.198882 58:0.266842 59:0.236503 60:0.256512 61:0.366682 62:0.437629 63:0.447541 64:-0.0298739 65:-0.147112 66:-0.225813 67:-0.102952 68:-0.577128 69:-0.516334 70:-0.614186 71:-0.491921 72:-0.385294 73:-0.376473 74:-0.0432664 75:0.176577 76:0.119949 77:-0.0199708 78:-0.361939 79:-0.26954 80:-0.233696 81:-0.251268 82:-0.0555376 83:0.252267 84:0.257261 85:0.153011 86:0.0794496 87:-0.00568638 88:-0.156295 89:-0.321801 90:-0.295721 91:-0.0903831 92:0.202823 93:0.489117 94:0.525529 95:0.429758 96:0.170941 97:-0.0646316 98:-0.561817 99:-0.72589 100:-0.482271 101:-0.500021 102:-0.477532 103:-0.454445 104:-0.432699 105:-0.338361 106:-0.316694 107:-0.335158 108:-0.369939 109:-0.41755 110:-0.472163 111:-0.481437 112:-0.481712 113:-0.463371 114:-0.451391 115:-0.441961 116:-0.451064 117:-0.479339 118:-0.520279 119:-0.55764 120:-0.609936 121:-0.675536 122:-0.736009 123:-0.798577 124:-0.882391 125:-0.770303 126:-0.652298 127:-0.649072 128:-0.729456 129:-0.855806 130:-0.893454 131:-0.89612 132:-0.974494 133:-1 134:-1 135:-1 136:-1 137:-0.530779 138:0.538889 139:0.753155 140:0.618857 141:0.118467 142:-0.0950757 143:-0.0689501 144:0.0659063 145:0.142425 146:0.209127 147:0.190155 148:0.170089 149:0.195043 150:0.22649 151:0.266334 152:0.264244 153:0.268331 154:0.271798 155:0.248674 156:0.209846 157:0.160234 158:0.0701167 159:0.135796 160:0.16154 161:0.171331 162:0.178936 163:0.209979 164:0.224156 165:0.205511 166:0.182938 167:0.137194 168:0.128964 169:0.104153 170:0.111647 171:0.139014 172:0.182448 173:0.186408 174:0.195175 175:0.14986 176:0.0673923 177:-0.0219992 178:-0.0345431 179:0.0580771 180:0.209034 181:0.383231 182:0.663713 183:0.932139 184:0.986502 185:1 186:1 187:1 188:1 189:1 190:1 191:1 192:1 193:1 194:1 195:1 196:0.970671 197:0.916432 198:0.855224 199:0.77828 200:-0.562324 201:-0.527487 202:-0.488058 203:-0.443178 204:-0.403958 205:-0.375373 206:-0.348698 207:-0.344865 208:-0.362942 209:-0.385658 210:-0.204523 211:-0.0585198 212:0.0643191 213:0.127333 214:0.167263 215:0.198074 216:0.269296 217:0.330019 218:0.380587 219:0.445149 220:0.496117 221:0.52912 222:0.565214 223:0.604704 224:0.64798 225:0.682399 226:0.700448 227:0.71058 228:0.69122 229:0.716487 230:0.695618 231:0.689835 232:0.683142 233:0.691318 234:0.612473 235:0.41737 236:0.139622 237:0.0569091 238:0.0205437 239:-0.0747587 240:-0.0715554 241:-0.0192511 242:0.0282218 243:0.0126986 244:0.0615651 245:0.103367 246:0.0886173 247:0.0382261 248:0.125767 249:0.125552 250:0.145445 251:0.203151 252:0.312182 253:0.402335 254:0.452535 255:0.448027 256:0.38185 257:0.313452 258:0.330341 259:0.429155 260:0.399482 261:0.410528 262:0.45663 263:0.491207 264:0.53836 265:0.517197 266:0.450411 267:0.402127 268:0.398325 269:0.362493 270:0.31437 271:0.220402 272:-0.0126255 273:-0.256266 274:-0.226008 275:-0.227497 276:-0.265405 277:-0.22538 278:-0.221076 279:-0.166146 280:-0.125004 281:-0.126382 282:-0.125084 283:-0.151755 284:-0.204532 285:-0.276669 286:-0.317476 287:-0.222348 288:-0.143081 289:-0.068765 290:-0.0124718 291:-0.02408 292:-0.0304951 293:-0.0424095 294:-0.0659308 295:-0.0908246 296:-0.0661073 297:-0.0292392 298:0.0108615 299:0.0479403 
-0.3872564901280618 0:-0.529445 1:-0.645762 2:-0.68565 3:-0.640726 4:-0.581044 5:-0.465376 6:-0.363951 7:-0.218038 8:-0.211565 9:-0.223449 10:-0.205624 11:-0.217211 12:-0.118324 13:-0.0734728 14:0.0141381 15:0.0400574 16:0.127444 17:0.264907 18:0.333841 19:0.301153 20:0.258991 21:0.212774 22:0.188158 23:0.118784 24:-0.0955149 25:-0.304015 26:-0.370332 27:-0.386518 28:-0.269003 29:-0.30712 30:-0.534413 31:-0.623422 32:-0.271175 33:0.0364239 34:0.202558 35:-0.259952 36:-0.0221799 37:-0.0805397 38:-0.1486 39:-0.422807 40:-0.323437 41:-0.446522 42:-0.450578 43:-0.299467 44:-0.435372 45:-0.350448 46:-0.222939 47:-0.249936 48:-0.570908 49:-0.415525 50:-0.319933 51:-0.156914 52:-0.00256625 53:-0.114497 54:-0.200228 55:-0.217198 56:-0.0961642 57:-0.0332306 58:0.0458174 59:0.0456104 60:0.109324 61:0.238626 62:0.280472 63:0.240921 64:-0.148111 65:-0.21249 66:-0.250686 67:-0.116746 68:-0.616998 69:-0.589962 70:-0.733496 71:-0.584631 72:-0.481327 73:-0.454185 74:-0.12515 75:0.0823178 76:-0.0820273 77:-0.372932 78:-1 79:-1 80:-1 81:-0.976566 82:-0.837103 83:-0.625601 84:-0.410882 85:-0.168363 86:0.130534 87:0.34116 88:0.434205 89:0.464332 90:0.510684 91:0.597561 92:0.6929 93:0.753717 94:0.749033 95:0.702355 96:0.529857 97:0.401167 98:0.0553305 99:-0.0978164 100:-0.656109 101:-0.777562 102:-0.846458 103:-0.894015 104:-0.914025 105:-0.81729 106:-0.789676 107:-0.821939 108:-0.880019 109:-0.944875 110:-1 111:-1 112:-1 113:-1 114:-1 115:-1 116:-1 117:-1 118:-1 119:-1 120:-1 121:-1 122:-1 123:-1 124:-1 125:-0.796964 126:-0.609802 127:-0.547255 128:-0.587589 129:-0.289318 130:0.0110982 131:0.213154 132:0.176772 133:-0.0373778 134:-0.111918 135:-0.0335233 136:0.184205 137:0.241488 138:0.313592 139:0.349198 140:0.202902 141:0.175919 142:0.122544 143:0.157847 144:0.178567 145:0.227782 146:0.299632 147:0.320605 148:0.317949 149:0.360617 150:0.418056 151:0.504541 152:0.558005 153:0.628864 154:0.693287 155:0.733516 156:0.754215 157:0.774726 158:0.785188 159:0.816817 160:0.814347 161:0.804612 162:0.777833 163:0.743894 164:0.72079 165:0.685272 166:0.642835 167:0.57741 168:0.545523 169:0.470432 170:0.448255 171:0.435254 172:0.446828 173:0.455668 174:0.473171 175:0.408906 176:0.28333 177:0.145758 178:0.0795061 179:0.125075 180:0.271693 181:0.435621 182:0.684601 183:0.865742 184:0.812921 185:0.710511 186:0.550702 187:0.363494 188:0.129665 189:-0.000692208 190:-0.150025 191:-0.357706 192:-0.524148 193:-0.592581 194:-0.622752 195:-0.603818 196:-0.494459 197:-0.37472 198:-0.406144 199:-0.523252 200:-0.629078 201:-0.524613 202:-0.415624 203:-0.301045 204:-0.165363 205:-0.0469416 206:0.0363509 207:0.0774563 208:0.0756866 209:0.0352273 210:0.133644 211:0.196816 212:0.230085 213:0.240365 214:0.23005 215:0.214798 216:0.243897 217:0.251556 218:0.244571 219:0.272167 220:0.305366 221:0.317201 222:0.341996 223:0.378193 224:0.413901 225:0.452601 226:0.480472 227:0.482372 228:0.416556 229:0.442507 230:0.439297 231:0.463042 232:0.463612 233:0.536444 234:0.517844 235:0.376197 236:0.145761 237:0.0737143 238:-0.00153184 239:-0.0711653 240:-0.0445503 241:0.00577832 242:0.0543255 243:0.0437645 244:0.0987239 245:0.14827 246:0.134124 247:0.0697126 248:0.126237 249:0.0927973 250:0.0829482 251:0.105994 252:0.181592 253:0.238137 254:0.242934 255:0.163243 256:-0.0395223 257:-0.142617 258:-0.109627 259:-0.0221417 260:-0.0188803 261:0.0230281 262:0.0751714 263:0.109719 264:0.185916 265:0.142287 266:0.0339041 267:-0.0238242 268:-0.0372077 269:-0.073838 270:-0.149386 271:-0.26597 272:-0.606684 273:-0.953747 274:-0.880109 275:-0.829911 276:-0.781873 277:-0.701921 278:-0.624836 279:-0.540946 280:-0.477791 281:-0.43633 282:-0.372407 283:-0.305386 284:-0.231975 285:-0.136617 286:-0.0119887 287:0.197525 288:0.414909 289:0.62891 290:0.808766 291:0.940033 292:1 293:1 294:1 295:1 296:1 297:1 298:1 299:1 
-0.3188495790874687 0:-0.421012 1:-0.406796 2:-0.408726 3:-0.476154 4:-0.567775 5:-0.760616 6:-0.691754 7:-0.591889 8:-0.818335 9:-0.886356 10:-0.910158 11:-0.981319 12:-1 13:-1 14:-1 15:-1 16:-0.111427 17:-0.47865 18:-0.1763 19:-0.0785514 20:-0.052922 21:-0.00848314 22:0.0978121 23:0.20108 24:0.0789528 25:0.0427454 26:0.122194 27:0.172042 28:0.24628 29:-0.0977692 30:-0.289656 31:-0.366153 32:-0.394828 33:-0.190484 34:0.122735 35:-0.0331184 36:-0.142127 37:-0.363612 38:-0.552984 39:-0.770437 40:-0.613885 41:-0.772913 42:-0.581148 43:-0.350402 44:-0.427871 45:-0.284764 46:-0.250522 47:-0.504276 48:-0.932681 49:-0.48901 50:-0.272496 51:-0.0253523 52:0.0229492 53:-0.0568752 54:0.25111 55:0.456014 56:0.533216 57:0.395505 58:0.402313 59:0.355167 60:0.384309 61:0.488642 62:0.617084 63:0.668765 64:0.129613 65:-0.0210047 66:-0.139218 67:-0.00144067 68:-0.476849 69:-0.397014 70:-0.456052 71:-0.397084 72:-0.284321 73:-0.263062 74:0.126651 75:0.384833 76:0.389826 77:0.285378 78:0.0683 79:0.148286 80:0.133794 81:0.0515876 82:0.16651 83:0.432967 84:0.496466 85:0.524924 86:0.57914 87:0.622634 88:0.680807 89:0.714316 90:0.675346 91:0.648817 92:0.691744 93:0.671273 94:0.598134 95:0.572123 96:0.597244 97:0.660052 98:0.527883 99:0.411063 100:-0.753297 101:-0.92375 102:-0.946653 103:-0.868309 104:-0.804419 105:-0.730392 106:-0.766734 107:-0.81176 108:-0.868334 109:-0.912277 110:-0.892271 111:-0.787552 112:-0.673754 113:-0.512066 114:-0.366238 115:0.332173 116:0.573564 117:0.292104 118:0.440442 119:0.423817 120:0.383621 121:0.338475 122:0.310871 123:0.310938 124:0.271221 125:0.324484 126:0.472806 127:0.577638 128:0.638889 129:0.693073 130:0.723439 131:0.735184 132:0.744168 133:0.76103 134:0.728264 135:0.728849 136:0.994221 137:1 138:0.997721 139:0.985429 140:0.934967 141:0.77095 142:0.598094 143:0.503237 144:0.401605 145:0.354893 146:0.324739 147:0.230321 148:0.107247 149:0.0525044 150:0.0275552 151:0.128483 152:0.201614 153:0.200119 154:0.153551 155:0.116742 156:0.0714126 157:0.0333391 158:-0.0698055 159:0.00303998 160:0.0397061 161:0.049226 162:0.0496889 163:0.073751 164:0.0792781 165:0.0462378 166:0.00287926 167:-0.068477 168:-0.0988899 169:-0.130381 170:-0.137183 171:-0.112391 172:-0.069823 173:-0.104845 174:-0.166027 175:-0.276481 176:-0.42433 177:-0.60607 178:-0.715168 179:-0.670044 180:-0.553903 181:-0.529903 182:-0.482114 183:-0.420994 184:-0.435713 185:-0.381507 186:-0.410801 187:-0.391512 188:-0.394414 189:-0.283712 190:-0.255182 191:-0.313725 192:-0.366422 193:-0.354487 194:-0.34937 195:-0.314431 196:-0.217154 197:-0.145433 198:-0.211434 199:-0.372942 200:-0.588461 201:-0.466615 202:-0.361635 203:-0.327036 204:-0.299423 205:-0.316776 206:-0.375983 207:-0.528236 208:-0.708909 209:-0.998572 210:-1 211:-1 212:-1 213:-1 214:-1 215:-0.989227 216:-0.757229 217:-0.614101 218:-0.525399 219:-0.355594 220:-0.207991 221:-0.111752 222:-0.00930164 223:0.0943069 224:0.174275 225:0.247469 226:0.293502 227:0.29669 228:0.208374 229:0.232805 230:0.185573 231:0.160202 232:0.144236 233:0.164366 234:0.0842723 235:-0.124605 236:-0.470134 237:-0.538752 238:-0.594116 239:-0.680344 240:-0.64186 241:-0.544485 242:-0.452819 243:-0.440773 244:-0.321829 245:-0.182999 246:-0.104663 247:-0.070669 248:0.0988549 249:0.140985 250:0.189905 251:0.238436 252:0.309131 253:0.389054 254:0.433055 255:0.420198 256:0.342667 257:0.275778 258:0.312766 259:0.426285 260:0.404934 261:0.423626 262:0.486477 263:0.543987 264:0.609167 265:0.616421 266:0.588593 267:0.568371 268:0.596402 269:0.584551 270:0.578029 271:0.550142 272:0.473776 273:0.415165 274:0.485 275:0.496833 276:0.454237 277:0.555705 278:0.551699 279:0.649335 280:0.752456 281:0.815178 282:0.894885 283:0.935234 284:0.944308 285:0.946385 286:0.961165 287:1 288:1 289:1 290:1 291:1 292:0.997574 293:0.961325 294:0.942458 295:0.911333 296:0.882681 297:0.866256 298:0.856628 299:0.846531 
-0.4810647041625387 0:-0.316345 1:-0.52713 2:-0.661084 3:-0.713416 4:-0.734705 5:-0.736023 6:-0.617711 7:-0.469216 8:-0.527146 9:-0.535288 10:-0.503136 11:-0.486204 12:-0.353317 13:-0.261838 14:-0.146123 15:-0.142473 16:-0.101435 17:0.0126434 18:0.107006 19:0.143495 20:0.189975 21:0.217279 22:0.267498 23:0.269009 24:0.177676 25:0.116488 26:0.172873 27:0.218112 28:0.380151 29:-0.0397972 30:-0.321488 31:-0.439292 32:-0.533095 33:-0.653058 34:-0.789393 35:-0.569603 36:-0.0312418 37:0.307519 38:-0.0317836 39:-0.302087 40:0.264624 41:0.1603 42:-0.183056 43:-0.341975 44:-0.416044 45:-0.135201 46:0.113289 47:0.191144 48:0.0364553 49:-0.0327098 50:-0.0462329 51:0.0287556 52:0.152907 53:0.0590563 54:-0.0558329 55:-0.133362 56:-0.0372688 57:0.0135374 58:0.0887938 59:0.0588199 60:0.0555553 61:0.122633 62:0.0667684 63:-0.168394 64:-0.432426 65:-0.375739 66:-0.0272857 67:0.19334 68:-0.604924 69:-0.444798 70:-0.36473 71:-0.251589 72:-0.239431 73:-0.309641 74:0.0886241 75:0.413934 76:0.501751 77:0.389004 78:0.133647 79:0.136713 80:0.0921593 81:-0.0022016 82:0.145128 83:0.454708 84:0.448493 85:0.369456 86:0.410543 87:0.50701 88:0.605718 89:0.616054 90:0.578446 91:0.515108 92:0.534151 93:0.535 94:0.458539 95:0.255177 96:-0.0864943 97:-0.30879 98:-0.772081 99:-0.818823 100:-0.696674 101:-0.708358 102:-0.681384 103:-0.662535 104:-0.646242 105:-0.538132 106:-0.485166 107:-0.484817 108:-0.498946 109:-0.516638 110:-0.529168 111:-0.493542 112:-0.425826 113:-0.347514 114:-0.279149 115:-0.209675 116:-0.140875 117:-0.0814046 118:-0.0299907 119:0.010122 120:0.0186169 121:0.0125084 122:0.0158333 123:0.0311319 124:0.0347721 125:0.125349 126:0.227683 127:0.240638 128:0.191848 129:0.101599 130:0.025661 131:-0.0153577 132:-0.0968179 133:-0.0962991 134:-0.054111 135:0.107133 136:0.386754 137:0.46086 138:0.360257 139:0.285342 140:0.171853 141:0.106316 142:-0.0279833 143:-0.0818178 144:-0.0449641 145:0.0456101 146:0.130997 147:0.163078 148:0.159899 149:0.181223 150:0.1973 151:0.230224 152:0.232829 153:0.241076 154:0.241883 155:0.19746 156:0.13896 157:0.075725 158:-0.0290229 159:0.0384632 160:0.0767523 161:0.0836452 162:0.0775103 163:0.0738694 164:0.0975356 165:0.113687 166:0.135005 167:0.0474088 168:-0.090693 169:-0.161108 170:-0.17782 171:-0.131097 172:-0.106956 173:-0.161325 174:-0.212244 175:-0.293126 176:-0.403696 177:-0.560302 178:-0.635645 179:-0.559282 180:-0.424957 181:-0.365397 182:-0.259833 183:-0.108249 184:-0.0480259 185:0.0368723 186:0.0515319 187:0.0998662 188:0.121009 189:0.191339 190:0.213001 191:0.179017 192:0.174598 193:0.21906 194:0.253291 195:0.28824 196:0.33519 197:0.388776 198:0.404134 199:0.416992 200:-0.298892 201:-0.203085 202:-0.105051 203:-0.0066719 204:0.0907281 205:0.17468 206:0.243203 207:0.295558 208:0.323039 209:0.337091 210:0.426546 211:0.476903 212:0.457928 213:0.397511 214:0.342205 215:0.293643 216:0.290578 217:0.277558 218:0.25148 219:0.246482 220:0.228792 221:0.211226 222:0.203571 223:0.209006 224:0.225692 225:0.245943 226:0.261423 227:0.232523 228:0.102914 229:0.0821433 230:-0.0210014 231:-0.100053 232:-0.155607 233:-0.0905835 234:-0.0686924 235:0.224206 236:0.364692 237:0.435751 238:0.181465 239:0.0280667 240:0.228536 241:0.36191 242:0.424861 243:0.392167 244:0.426791 245:0.45718 246:0.416609 247:0.350778 248:0.372291 249:0.320296 250:0.285468 251:0.279196 252:0.321689 253:0.341316 254:0.29904 255:0.175186 256:-0.0980121 257:-0.261832 258:-0.270454 259:-0.23568 260:-0.264132 261:-0.190588 262:-0.0985956 263:0.0486146 264:0.404477 265:0.802991 266:0.918456 267:0.873017 268:0.716698 269:0.730887 270:0.775099 271:0.810581 272:0.76306 273:0.68085 274:0.650505 275:0.595297 276:0.497447 277:0.525089 278:0.427928 279:0.415683 280:0.4103 281:0.37229 282:0.353643 283:0.302581 284:0.219721 285:0.108429 286:-0.0154317 287:-0.0455781 288:-0.107411 289:-0.174353 290:-0.242834 291:-0.309774 292:-0.334356 293:-0.341239 294:-0.384643 295:-0.430176 296:-0.41062 297:-0.354157 298:-0.307476 299:-0.275686 
-0.5 0:-0.576764 1:-0.742317 2:-0.775449 3:-0.70207 4:-0.614231 5:-0.513562 6:-0.514758 7:-0.467994 8:-0.626237 9:-0.694101 10:-0.689424 11:-0.698169 12:-0.519637 13:-0.406966 14:-0.29899 15:-0.296 16:-0.2867 17:-0.204415 18:-0.106946 19:-0.0450093 20:0.0242765 21:0.0132497 22:0.035575 23:0.0212761 24:-0.117299 25:-0.16871 26:-0.118108 27:-0.0858192 28:0.0633693 29:-0.24095 30:-0.469924 31:-0.553872 32:-0.555853 33:-0.488846 34:-0.264068 35:-0.67465 36:0.407182 37:0.10865 38:-0.329364 39:-0.417775 40:0.174229 41:-0.0994494 42:-0.22615 43:-0.0735798 44:-0.12479 45:-0.108735 46:-0.0023185 47:0.0174288 48:-0.16249 49:-0.122887 50:-0.109666 51:0.00544289 52:0.140371 53:0.0672824 54:-0.0453461 55:-0.129563 56:0.00122012 57:0.115928 58:0.259603 59:0.232333 60:0.0793306 61:-0.153567 62:-0.64099 63:-0.497801 64:0.463027 65:0.0693773 66:-0.167573 67:0.0496748 68:-0.339507 69:-0.379391 70:-0.555541 71:-0.399251 72:-0.223562 73:-0.178399 74:0.187632 75:0.3979 76:0.381912 77:0.264076 78:-0.0125674 79:0.0180478 80:1.17864e-05 81:-0.0674518 82:0.0882633 83:0.394762 84:0.386782 85:0.411845 86:0.512802 87:0.602513 88:0.59415 89:0.401491 90:0.285751 91:0.24288 92:0.276911 93:0.28595 94:0.196838 95:0.0946469 96:-0.0328665 97:-0.019429 98:-0.260378 99:-0.264173 100:-0.431855 101:-0.477739 102:-0.466194 103:-0.418129 104:-0.346286 105:-0.209129 106:-0.167165 107:-0.189923 108:-0.226095 109:-0.262328 110:-0.281043 111:-0.275745 112:-0.250547 113:-0.201297 114:-0.157509 115:-0.121366 116:-0.0889059 117:-0.0652866 118:-0.0455466 119:-0.0238111 120:-0.0148174 121:-0.0182356 122:-0.0155165 123:0.00200182 124:0.0124724 125:0.118705 126:0.248384 127:0.298534 128:0.291654 129:0.254697 130:0.218246 131:0.204233 132:0.148903 133:0.127311 134:0.0921045 135:-0.0597988 136:0.174697 137:0.162594 138:0.0950786 139:0.0532819 140:-0.0814716 141:-0.14095 142:-0.211693 143:-0.130251 144:-0.064876 145:-0.00521619 146:0.0760164 147:0.0970603 148:0.0771626 149:0.0951469 150:0.123704 151:0.190236 152:0.221626 153:0.256654 154:0.280098 155:0.260551 156:0.24983 157:0.228329 158:0.162575 159:0.22074 160:0.219718 161:0.175435 162:0.125878 163:0.141077 164:0.18753 165:0.0705427 166:-0.0318951 167:-0.11102 168:-0.142114 169:-0.216958 170:-0.224033 171:-0.168299 172:-0.101873 173:-0.124538 174:-0.168339 175:-0.249581 176:-0.363095 177:-0.502164 178:-0.558015 179:-0.464397 180:-0.31321 181:-0.216791 182:-0.0458456 183:0.159863 184:0.239019 185:0.254178 186:0.202862 187:0.209492 188:0.238386 189:0.340707 190:0.370096 191:0.313156 192:0.251155 193:0.236055 194:0.247683 195:0.299357 196:0.35984 197:0.395 198:0.350937 199:0.245899 200:-0.361497 201:-0.288882 202:-0.232376 203:-0.185215 204:-0.131319 205:-0.0950933 206:-0.0573416 207:-0.0381762 208:-0.0437056 209:-0.0591907 210:0.0642389 211:0.133613 212:0.157829 213:0.132491 214:0.0973671 215:0.0500155 216:0.0449627 217:0.0319996 218:0.00156779 219:0.00416583 220:0.0215527 221:0.0347567 222:0.0468043 223:0.0729767 224:0.113564 225:0.170122 226:0.195281 227:0.179289 228:0.0605499 229:0.0667812 230:-0.0130417 231:-0.0409828 232:-0.0460299 233:0.0307559 234:0.0886047 235:0.339284 236:0.494499 237:0.368066 238:0.166117 239:0.166576 240:0.30202 241:0.32566 242:0.346756 243:0.344804 244:0.386761 245:0.418604 246:0.384617 247:0.319552 248:0.338187 249:0.27762 250:0.240365 251:0.244578 252:0.296778 253:0.321288 254:0.279182 255:0.151638 256:-0.129383 257:-0.31575 258:-0.36051 259:-0.378465 260:-0.402624 261:-0.245117 262:0.139569 263:0.59606 264:0.895245 265:0.738173 266:0.605774 267:0.619994 268:0.737772 269:0.72015 270:0.685484 271:0.649855 272:0.591196 273:0.534105 274:0.544613 275:0.49029 276:0.387067 277:0.413377 278:0.344897 279:0.365736 280:0.39772 281:0.382872 282:0.370532 283:0.320197 284:0.257548 285:0.180108 286:0.0985992 287:0.100244 288:0.0696396 289:0.0438243 290:0.0111448 291:-0.0185758 292:-0.0240454 293:-0.0281173 294:-0.0539735 295:-0.069765 296:-0.023681 297:0.0315242 298:0.0775076 299:0.10387 
-0.04665243237140398 0:-0.492441 1:-0.681889 2:-0.749324 3:-0.688539 4:-0.579575 5:-0.650678 6:-0.768816 7:-0.811673 8:-1 9:-0.879406 10:-0.710659 11:-0.571616 12:-0.388737 13:-0.367978 14:-0.321591 15:-0.340541 16:-0.284408 17:-0.073197 18:0.124311 19:0.206315 20:0.220293 21:0.181278 22:0.173321 23:0.136585 24:-0.00722859 25:-0.127746 26:-0.12797 27:-0.10221 28:0.054218 29:-0.263712 30:-0.454293 31:-0.487526 32:-0.460337 33:-0.33972 34:-0.0725377 35:-0.217122 36:-0.174996 37:-0.802132 38:-0.576798 39:-0.0505014 40:-0.0441156 41:-0.452907 42:-0.436658 43:-0.0937885 44:-0.32778 45:-0.227371 46:-0.00115416 47:0.180391 48:0.0207917 49:-0.0229593 50:0.00784237 51:0.158118 52:0.298738 53:0.252134 54:0.18021 55:0.131391 56:0.296076 57:0.319654 58:0.36124 59:0.276858 60:0.265811 61:0.366958 62:0.433293 63:0.420656 64:-0.0867326 65:-0.33012 66:-0.472262 67:-0.461758 68:-0.394012 69:-0.344944 70:-0.568331 71:-0.474563 72:-0.200571 73:-0.219566 74:0.0821243 75:0.296015 76:0.395384 77:0.348931 78:0.124635 79:0.117221 80:0.0786005 81:-0.0100671 82:0.137211 83:0.439894 84:0.41255 85:0.295752 86:0.279718 87:0.277402 88:0.221267 89:0.0610955 90:-0.015891 91:-0.0221937 92:0.0753521 93:0.14978 94:0.175127 95:0.145792 96:0.217667 97:0.337032 98:0.170038 99:0.0579397 100:-0.455336 101:-0.464232 102:-0.419573 103:-0.365413 104:-0.306521 105:-0.156804 106:-0.119972 107:-0.159853 108:-0.241844 109:-0.295226 110:-0.318981 111:-0.291331 112:-0.253486 113:-0.206631 114:-0.170547 115:-0.14043 116:-0.104475 117:-0.0446153 118:0.00622194 119:0.041552 120:0.035316 121:0.0307715 122:0.0285571 123:0.0294229 124:0.0120675 125:0.0987883 126:0.211751 127:0.243561 128:0.212327 129:0.144001 130:0.0966109 131:0.0890556 132:0.0566401 133:0.0496051 134:0.0367268 135:0.0400543 136:0.173249 137:0.128214 138:0.28151 139:0.489471 140:0.301596 141:0.0712288 142:-0.101889 143:-0.0805387 144:-0.0867232 145:-0.0649633 146:-0.000890358 147:0.0295422 148:0.00656089 149:0.0225182 150:0.0484287 151:0.1105 152:0.137027 153:0.165817 154:0.189437 155:0.184805 156:0.158359 157:0.128848 158:0.0591916 159:0.136425 160:0.168385 161:0.179159 162:0.174356 163:0.182386 164:0.180885 165:0.127959 166:0.0624153 167:-0.0209192 168:0.0539744 169:-0.0199626 170:-0.0986325 171:-0.132895 172:-0.0665163 173:-0.115639 174:-0.199818 175:-0.319709 176:-0.429416 177:-0.581246 178:-0.65481 179:-0.5707 180:-0.422775 181:-0.358228 182:-0.24435 183:-0.0895528 184:-0.0246247 185:0.0485096 186:0.060872 187:0.124744 188:0.198823 189:0.339208 190:0.437653 191:0.487872 192:0.543309 193:0.602666 194:0.654286 195:0.713287 196:0.767575 197:0.767696 198:0.724853 199:0.654052 200:-0.348809 201:-0.301698 202:-0.254852 203:-0.218405 204:-0.187327 205:-0.169638 206:-0.14716 207:-0.144286 208:-0.186735 209:-0.210395 210:-0.0559 211:0.0439871 212:0.0907803 213:0.103649 214:0.102926 215:0.0930964 216:0.116374 217:0.118912 218:0.102549 219:0.120258 220:0.140884 221:0.153851 222:0.168785 223:0.19231 224:0.220075 225:0.256172 226:0.287087 227:0.284963 228:0.187626 229:0.208699 230:0.169579 231:0.155002 232:0.114235 233:0.11266 234:0.0319376 235:-0.146725 236:-0.444266 237:-0.247549 238:-0.0155067 239:0.16847 240:0.128201 241:0.0955725 242:0.179277 243:0.29122 244:0.355414 245:0.393593 246:0.39115 247:0.374802 248:0.43422 249:0.417428 250:0.415201 251:0.439304 252:0.495769 253:0.537674 254:0.543183 255:0.491756 256:0.366126 257:0.194286 258:0.116409 259:0.115501 260:0.0528472 261:0.0531161 262:0.0717972 263:0.0725496 264:0.135833 265:0.111065 266:0.209209 267:0.56111 268:0.832786 269:0.736177 270:0.5852 271:0.463063 272:0.547373 273:0.54261 274:0.559523 275:0.498419 276:0.43325 277:0.51766 278:0.491477 279:0.5428 280:0.579097 281:0.577212 282:0.594084 283:0.572889 284:0.509445 285:0.43048 286:0.357573 287:0.35708 288:0.310002 289:0.252661 290:0.18446 291:0.105791 292:0.0509114 293:0.00657011 294:-0.0465692 295:-0.0913054 296:-0.0778429 297:-0.0741476 298:-0.0737172 299:-0.0684595 
-0.3394962287108383 0:-0.585341 1:-0.837077 2:-0.900855 3:-0.721012 4:-0.657764 5:-0.684392 6:-0.688077 7:-0.60382 8:-0.719099 9:-0.69636 10:-0.699006 11:-0.718195 12:-0.618399 13:-0.606332 14:-0.605691 15:-0.750917 16:-0.865047 17:-0.892873 18:-0.842622 19:-0.781476 20:-0.618684 21:-0.96082 22:-0.794442 23:-0.389368 24:-0.286923 25:-0.418905 26:-0.39443 27:-0.0436258 28:0.502007 29:0.0752776 30:-0.481332 31:-0.441273 32:-0.336164 33:-0.170477 34:0.0668287 35:-0.00601838 36:0.0982496 37:-0.147964 38:-0.137103 39:-0.276106 40:-0.0660511 41:-0.0722752 42:-0.119599 43:-0.00199025 44:-0.0206741 45:0.186405 46:0.402108 47:0.61158 48:1 49:1 50:1 51:1 52:0.885275 53:0.696643 54:0.474092 55:0.32241 56:0.433658 57:0.375767 58:0.315689 59:0.091061 60:0.154143 61:0.330363 62:0.464631 63:0.623687 64:0.106415 65:-0.0267279 66:-0.016614 67:0.284045 68:-0.142963 69:0.105301 70:0.171879 71:-0.0528645 72:0.0137163 73:-0.0567131 74:0.262347 75:0.367128 76:0.181513 77:-0.0539874 78:-0.483635 79:-0.469082 80:-0.421336 81:-0.357829 82:-0.113345 83:0.213574 84:0.244057 85:0.186699 86:0.263644 87:0.39151 88:0.473712 89:0.492931 90:0.516632 91:0.48881 92:0.648614 93:0.793487 94:0.819597 95:0.768838 96:0.649027 97:0.660362 98:0.54646 99:0.168872 100:-0.341901 101:-0.574568 102:-0.8223 103:-0.872449 104:-0.872823 105:-0.805144 106:-0.772567 107:-0.768898 108:-0.797931 109:-0.834592 110:-0.830184 111:-0.738717 112:-0.661094 113:-0.567168 114:-0.427662 115:-0.268271 116:-0.109379 117:0.0300562 118:0.165687 119:0.294135 120:0.367546 121:0.399389 122:0.642439 123:0.889565 124:0.949459 125:0.935666 126:0.957295 127:0.919656 128:0.794283 129:0.643444 130:0.589037 131:0.572011 132:0.427899 133:0.330918 134:0.271437 135:0.183239 136:0.229469 137:0.133505 138:0.126187 139:0.0632612 140:-0.314172 141:-0.448289 142:-0.664987 143:-0.709165 144:-0.760057 145:-0.793768 146:-0.824163 147:-0.873128 148:-0.956463 149:-0.937344 150:-0.883938 151:-0.742367 152:-0.60024 153:-0.455045 154:-0.321049 155:-0.21754 156:-0.0961428 157:0.0445667 158:0.158206 159:0.357876 160:0.466673 161:0.627268 162:0.822765 163:0.927721 164:0.994698 165:1 166:1 167:1 168:1 169:1 170:1 171:0.896152 172:0.790316 173:0.691717 174:0.55228 175:0.271045 176:-0.0845723 177:-0.425683 178:-0.662429 179:-0.718265 180:-0.644878 181:-0.634647 182:-0.608185 183:-0.60755 184:-0.742592 185:-0.813686 186:-0.906511 187:-0.830944 188:-0.762686 189:-0.562019 190:-0.479161 191:-0.46264 192:-0.447237 193:-0.404784 194:-0.405653 195:-0.423832 196:-0.383139 197:-0.263695 198:-0.282922 199:-0.417616 200:-0.25636 201:-0.0226132 202:0.210948 203:0.370244 204:0.450473 205:0.486976 206:0.443825 207:0.305315 208:0.0546088 209:-0.184423 210:-0.223936 211:-0.236309 212:-0.327924 213:-0.454586 214:-0.579047 215:-0.732085 216:-0.781359 217:-0.804457 218:-0.804204 219:-0.740136 220:-0.720079 221:-0.608239 222:-0.505418 223:-0.402785 224:-0.315675 225:-0.252771 226:-0.200248 227:-0.198311 228:-0.33228 229:-0.312604 230:-0.261404 231:-0.0439403 232:0.0465078 233:0.261638 234:0.362142 235:0.296151 236:0.155159 237:0.172126 238:0.158136 239:0.129944 240:0.213348 241:0.312455 242:0.376017 243:0.407511 244:0.479831 245:0.528592 246:0.525067 247:0.515523 248:0.585754 249:0.60203 250:0.602261 251:0.617251 252:0.662805 253:0.700823 254:0.711035 255:0.689541 256:0.634402 257:0.473111 258:0.382018 259:0.420641 260:0.383972 261:0.350024 262:0.36867 263:0.399497 264:0.471482 265:0.474135 266:0.399982 267:0.379022 268:0.412133 269:0.421705 270:0.441961 271:0.484065 272:0.483747 273:0.518856 274:0.646468 275:0.661147 276:0.591628 277:0.649822 278:0.581989 279:0.622907 280:0.684517 281:0.740886 282:0.793801 283:0.73745 284:0.607723 285:0.444335 286:0.29221 287:0.22822 288:0.166284 289:0.0888245 290:-0.00434997 291:-0.0818022 292:-0.112739 293:-0.163535 294:-0.233769 295:-0.316082 296:-0.314472 297:-0.263085 298:-0.280315 299:-0.325049 
-0.4498382499026631 0:-0.613457 1:-0.628663 2:-0.574053 3:-0.506309 4:-0.350581 5:-0.419018 6:-0.671887 7:-0.593082 8:-0.83554 9:-0.701201 10:-0.407017 11:-0.196503 12:-0.188966 13:-0.343306 14:-0.328571 15:-0.376173 16:-0.465568 17:-0.653881 18:-0.725265 19:-0.742798 20:-0.707053 21:-0.766052 22:-0.979292 23:-1 24:-1 25:-1 26:-0.986867 27:-0.760552 28:-0.420409 29:-0.464457 30:-0.432009 31:-0.342473 32:-0.280788 33:-0.0205561 34:0.643166 35:0.520675 36:0.000372266 37:-0.334405 38:-0.153144 39:-0.0804751 40:0.0382842 41:-0.236425 42:-0.264452 43:-0.138385 44:-0.18919 45:0.0122458 46:0.169727 47:0.238359 48:0.208518 49:0.25366 50:0.331439 51:0.588892 52:0.830599 53:0.978891 54:0.915806 55:0.776022 56:0.988171 57:1 58:1 59:0.788796 60:0.580741 61:0.526393 62:0.502275 63:0.39492 64:-0.0531781 65:-0.185134 66:-0.295351 67:-0.180532 68:-0.552245 69:-0.434815 70:-0.492554 71:-0.381525 72:-0.232212 73:-0.120641 74:0.374264 75:0.783461 76:0.890069 77:0.859788 78:0.93048 79:0.941418 80:0.780878 81:0.589073 82:0.61603 83:0.698386 84:0.377593 85:0.0702673 86:-0.033977 87:-0.101384 88:-0.196256 89:-0.464006 90:-0.499377 91:-0.281261 92:0.177685 93:0.512472 94:0.61386 95:0.596526 96:0.451252 97:0.637581 98:1 99:1 100:-0.866368 101:-0.965879 102:-0.918464 103:-0.855168 104:-0.784761 105:-0.808022 106:-0.970548 107:-1 108:-0.973964 109:-0.960815 110:-0.914762 111:-0.774981 112:-0.616828 113:-0.48688 114:-0.388274 115:-0.264419 116:-0.121976 117:0.0111383 118:0.119646 119:0.187244 120:0.221563 121:0.26925 122:0.335238 123:0.509184 124:0.674348 125:0.823606 126:0.914223 127:1 128:1 129:0.973912 130:0.912349 131:0.90196 132:0.846599 133:0.751725 134:0.618149 135:0.566793 136:0.772594 137:0.750026 138:0.772659 139:0.754368 140:0.51406 141:0.215621 142:-0.0369037 143:-0.169219 144:-0.301684 145:-0.392652 146:-0.461267 147:-0.564585 148:-0.730373 149:-0.863077 150:-0.994003 151:-1 152:-1 153:-1 154:-1 155:-1 156:-1 157:-1 158:-1 159:-0.622807 160:-0.383134 161:-0.225526 162:-0.0761868 163:0.0850134 164:0.176332 165:0.215109 166:0.324674 167:0.475498 168:0.521549 169:0.51166 170:0.581073 171:0.659652 172:0.730369 173:0.85963 174:1 175:1 176:1 177:1 178:1 179:1 180:0.973977 181:1 182:1 183:0.750494 184:0.277638 185:-0.110411 186:-0.511657 187:-0.785081 188:-1 189:-1 190:-1 191:-1 192:-0.930483 193:-0.937349 194:-1 195:-1 196:-0.823201 197:-0.660999 198:-0.710696 199:-0.755064 200:-0.190421 201:-0.0571226 202:0.0665714 203:0.134336 204:0.188163 205:0.292861 206:0.360735 207:0.230244 208:0.0189329 209:-0.154493 210:-0.150534 211:-0.118486 212:-0.164555 213:-0.278829 214:-0.40103 215:-0.547907 216:-0.580812 217:-0.615844 218:-0.62636 219:-0.557248 220:-0.48057 221:-0.426608 222:-0.356465 223:-0.248589 224:-0.104321 225:-0.0296254 226:0.0575042 227:0.0808412 228:0.00933755 229:0.0804484 230:0.0729619 231:0.0750376 232:0.0582701 233:0.0981192 234:0.0740386 235:-0.116677 236:-0.40639 237:-0.263319 238:-0.165327 239:-0.197042 240:-0.11732 241:0.0342202 242:0.144233 243:0.165189 244:0.266982 245:0.349 246:0.360337 247:0.345932 248:0.404747 249:0.401279 250:0.425039 251:0.479584 252:0.561633 253:0.642609 254:0.696062 255:0.710672 256:0.68753 257:0.593095 258:0.584145 259:0.661709 260:0.59908 261:0.594819 262:0.639079 263:0.670059 264:0.69125 265:0.650873 266:0.555743 267:0.501162 268:0.541032 269:0.504303 270:0.473587 271:0.416533 272:0.301503 273:0.122537 274:0.227361 275:0.26929 276:0.237615 277:0.37826 278:0.444147 279:0.58549 280:0.726487 281:0.826838 282:0.941186 283:0.992348 284:0.976333 285:0.917492 286:0.83741 287:0.719851 288:0.463574 289:0.197182 290:0.0369377 291:-0.107401 292:-0.246971 293:-0.232299 294:-0.256019 295:-0.363984 296:-0.408288 297:-0.357401 298:-0.185208 299:-0.115893 
-0.460917398931691 0:-1 1:-0.885006 2:-0.646605 3:-0.473723 4:-0.445733 5:-0.447559 6:-0.524319 7:-0.523994 8:-0.661721 9:-0.621789 10:-0.507736 11:-0.538037 12:-0.43563 13:-0.406632 14:-0.338123 15:-0.338001 16:-0.312311 17:-0.20198 18:-0.0721415 19:-0.00870324 20:0.0186687 21:-0.00488401 22:0.0420456 23:0.0572853 24:-0.0538921 25:-0.158397 26:-0.163655 27:-0.133306 28:0.0674453 29:-0.211299 30:-0.380422 31:-0.380962 32:-0.313941 33:0.0411977 34:0.618027 35:0.515923 36:0.311458 37:-0.145574 38:-0.521853 39:-0.844939 40:-0.493628 41:-0.404108 42:-0.341518 43:-0.278557 44:-0.502732 45:-0.323985 46:-0.107568 47:-0.120712 48:-0.52203 49:-0.493171 50:-0.382472 51:-0.162384 52:0.019953 53:-0.0484717 54:-0.0975435 55:-0.0921275 56:0.0900174 57:0.229978 58:0.413632 59:0.474981 60:0.542119 61:0.641998 62:0.736944 63:0.789138 64:0.182535 65:-0.0338812 66:-0.211426 67:-0.0674817 68:-0.494881 69:-0.344932 70:-0.352968 71:-0.377378 72:-0.29915 73:-0.258946 74:0.182615 75:0.462086 76:0.412792 77:0.149002 78:-0.347204 79:-0.249654 80:-0.121028 81:-0.0313277 82:0.267667 83:0.689372 84:0.74216 85:0.693416 86:0.761652 87:0.898717 88:1 89:0.961957 90:0.873192 91:0.856266 92:0.909627 93:0.925832 94:0.951966 95:1 96:1 97:1 98:0.804582 99:0.539257 100:0.433415 101:0.407309 102:0.454213 103:0.523854 104:0.577998 105:0.632653 106:0.580318 107:0.477468 108:0.391419 109:0.346515 110:0.326857 111:0.296879 112:0.240454 113:0.233835 114:0.237223 115:0.250376 116:0.285405 117:0.315384 118:0.331842 119:0.34142 120:0.31914 121:0.284987 122:0.247732 123:0.217138 124:0.195456 125:0.247183 126:0.321144 127:0.313744 128:0.255517 129:0.191181 130:0.151966 131:0.198511 132:0.262796 133:0.262314 134:0.305669 135:0.345599 136:0.55002 137:0.49712 138:0.344122 139:0.250776 140:0.0357736 141:-0.0319033 142:-0.135111 143:-0.121186 144:-0.162784 145:-0.104698 146:-0.00598399 147:0.0257346 148:-0.00489074 149:-0.0133403 150:-0.0193387 151:0.0401682 152:0.068846 153:0.0991327 154:0.119662 155:0.105944 156:0.10236 157:0.119665 158:0.131738 159:0.28217 160:0.36026 161:0.386541 162:0.394594 163:0.421476 164:0.409475 165:0.315111 166:0.158068 167:-0.00737516 168:-0.103325 169:-0.177133 170:-0.207246 171:-0.18971 172:-0.155408 173:-0.181006 174:-0.224016 175:-0.317809 176:-0.463011 177:-0.655353 178:-0.759774 179:-0.682542 180:-0.527878 181:-0.472016 182:-0.408322 183:-0.339356 184:-0.34836 185:-0.335843 186:-0.426429 187:-0.475142 188:-0.562196 189:-0.516125 190:-0.534276 191:-0.650626 192:-0.784048 193:-0.836236 194:-0.847644 195:-0.856585 196:-0.797985 197:-0.728244 198:-0.830551 199:-1 200:0.0804592 201:0.272127 202:0.361697 203:0.406054 204:0.440218 205:0.428295 206:0.357829 207:0.226143 208:0.105525 209:-0.00588673 210:0.0457402 211:0.098821 212:0.132576 213:0.124386 214:0.098324 215:0.0654893 216:0.087678 217:0.11682 218:0.136303 219:0.189745 220:0.235083 221:0.272185 222:0.314438 223:0.37868 224:0.429616 225:0.469771 226:0.49574 227:0.502147 228:0.449508 229:0.461289 230:0.402276 231:0.334259 232:0.244687 233:0.206231 234:0.0121969 235:-0.296413 236:-0.839198 237:-1 238:-1 239:-0.678155 240:-0.199748 241:0.16027 242:0.361356 243:0.427678 244:0.474165 245:0.485221 246:0.450683 247:0.402497 248:0.43669 249:0.401761 250:0.384666 251:0.394272 252:0.444834 253:0.489522 254:0.505271 255:0.462673 256:0.334369 257:0.203232 258:0.148601 259:0.149765 260:0.0610169 261:0.0233305 262:-0.0136918 263:-0.0831819 264:-0.0884322 265:-0.198909 266:-0.259404 267:0.148849 268:0.511742 269:0.732262 270:0.875296 271:0.936534 272:0.930579 273:0.884586 274:0.821899 275:0.689407 276:0.50865 277:0.472785 278:0.369846 279:0.37916 280:0.392887 281:0.372902 282:0.379256 283:0.373735 284:0.345295 285:0.282089 286:0.1916 287:0.151812 288:0.0719596 289:0.000265233 290:-0.0856513 291:-0.188582 292:-0.253625 293:-0.281108 294:-0.318371 295:-0.38494 296:-0.408946 297:-0.422344 298:-0.424098 299:-0.415142 
-0.5 0:-0.678268 1:-0.777173 2:-0.805648 3:-0.810685 4:-0.845071 5:-0.92013 6:-0.894262 7:-0.785458 8:-0.9626 9:-1 10:-1 11:-1 12:-0.833676 13:-0.751564 14:-0.646888 15:-0.647886 16:-0.65109 17:-0.569613 18:-0.41959 19:-0.319943 20:-0.17391 21:0.0732446 22:0.372973 23:0.571314 24:0.62039 25:0.545188 26:0.364371 27:0.139424 28:0.0419392 29:-0.310268 30:-0.424499 31:-0.442025 32:-0.431779 33:-0.235591 34:0.210831 35:0.108502 36:-0.0378873 37:-0.415433 38:-0.468985 39:-0.550616 40:-0.345669 41:-0.523146 42:-0.578476 43:-0.403542 44:-0.421945 45:-0.146735 46:0.180206 47:0.329667 48:-0.00424658 49:-0.325122 50:-0.45021 51:-0.250632 52:0.125238 53:0.266199 54:0.181993 55:0.0414944 56:0.143545 57:0.272031 58:0.519441 59:0.609363 60:0.593839 61:0.53702 62:0.420878 63:0.278102 64:-0.113606 65:-0.13273 66:-0.125272 67:0.110182 68:-0.351545 69:-0.284987 70:-0.373261 71:-0.368081 72:-0.250428 73:-0.202662 74:0.236966 75:0.518923 76:0.545622 77:0.430706 78:0.155581 79:0.120978 80:0.0645406 81:-0.00833607 82:0.266233 83:0.807241 84:1 85:1 86:1 87:1 88:0.927756 89:0.695058 90:0.395167 91:0.146333 92:-0.0787065 93:-0.268956 94:-0.409077 95:-0.528811 96:-0.59467 97:-0.421853 98:-0.538305 99:-0.400166 100:0.65221 101:0.566803 102:0.551601 103:0.537602 104:0.52162 105:0.530535 106:0.459237 107:0.370309 108:0.275779 109:0.192822 110:0.107114 111:0.088483 112:0.0873729 113:0.101841 114:0.113347 115:0.137625 116:0.184334 117:0.224222 118:0.256929 119:0.304757 120:0.369894 121:0.466642 122:0.582442 123:0.644631 124:0.605304 125:0.575633 126:0.583051 127:0.371061 128:0.165823 129:0.0150185 130:-0.0865654 131:-0.149628 132:-0.243298 133:-0.254346 134:-0.207835 135:-0.1807 136:-0.12492 137:-0.131476 138:-0.0438181 139:0.0546417 140:-0.116241 141:-0.0969746 142:-0.113642 143:0.0208777 144:0.16542 145:0.39279 146:0.530537 147:0.682099 148:0.718642 149:0.743151 150:0.677784 151:0.538535 152:0.376891 153:0.240495 154:0.114249 155:0.0188407 156:-0.0927553 157:-0.167456 158:-0.239759 159:-0.108073 160:-0.06257 161:-0.064448 162:-0.0681696 163:-0.026837 164:-0.00384643 165:-0.0153547 166:-0.0382714 167:-0.103918 168:-0.143703 169:-0.185266 170:-0.198892 171:-0.17785 172:-0.139629 173:-0.187513 174:-0.261859 175:-0.382238 176:-0.53234 177:-0.718562 178:-0.828048 179:-0.773764 180:-0.64195 181:-0.615022 182:-0.547459 183:-0.452755 184:-0.423736 185:-0.372615 186:-0.441056 187:-0.478816 188:-0.55067 189:-0.504527 190:-0.520768 191:-0.598371 192:-0.677685 193:-0.65991 194:-0.615991 195:-0.541287 196:-0.401999 197:-0.27036 198:-0.286794 199:-0.386328 200:0.0917757 201:0.185465 202:0.246312 203:0.260769 204:0.280018 205:0.302678 206:0.323109 207:0.305421 208:0.246458 209:0.139825 210:0.179228 211:0.175711 212:0.130689 213:0.0598012 214:-0.0116348 215:-0.081742 216:-0.0794967 217:-0.088503 218:-0.117019 219:-0.128489 220:-0.137182 221:-0.16465 222:-0.19551 223:-0.221812 224:-0.26441 225:-0.346528 226:-0.425875 227:-0.250685 228:0.0320982 229:0.545736 230:0.80506 231:0.928361 232:0.966835 233:0.967589 234:0.913739 235:0.766722 236:0.571699 237:0.418378 238:0.297283 239:0.180555 240:0.123507 241:0.0975028 242:0.074564 243:-0.00398289 244:-0.00165114 245:-0.0472415 246:-0.132536 247:-0.377111 248:-0.445537 249:-0.633958 250:-0.688863 251:-0.515439 252:-0.0993795 253:0.315906 254:0.55813 255:0.66303 256:0.655422 257:0.508485 258:0.413148 259:0.410331 260:0.29425 261:0.246055 262:0.246245 263:0.239046 264:0.276341 265:0.229113 266:0.131615 267:0.0848332 268:0.084208 269:0.0625493 270:0.00135407 271:-0.120373 272:-0.460878 273:-0.798238 274:-0.707577 275:-0.651407 276:-0.648081 277:-0.610721 278:-0.584887 279:-0.546783 280:-0.521582 281:-0.51845 282:-0.499012 283:-0.476525 284:-0.449223 285:-0.420126 286:-0.346862 287:-0.129026 288:0.0504788 289:0.216181 290:0.362098 291:0.484716 292:0.590603 293:0.646798 294:0.680308 295:0.704476 296:0.735182 297:0.763735 298:0.788448 299:0.811131 
