svm_type c_svc
kernel_type rbf
gamma 0.0078125
nr_class 2
total_sv 64
rho 0.349337
label 1 0
nr_sv 20 44
SV
0.5 1:-0.0488503 2:-0.134577 3:0.130084 4:0.334774 5:0.524402 6:0.71772 7:0.717744 8:0.782822 9:0.7918 10:0.691504 11:0.723261 12:0.788264 13:0.813422 14:0.851372 15:0.88525 16:0.842849 17:0.846967 18:0.864403 19:0.774898 20:0.73287 21:0.631919 22:-0.154464 23:-0.500331 24:-0.317702 25:-0.228151 26:0.0914119 27:-0.191681 28:-0.384969 29:-0.66767 30:-0.677696 31:-0.58487 32:-0.516989 33:-0.621499 34:-0.816693 35:-1 36:-1 37:-0.668432 38:-0.429764 39:0.247097 40:0.424504 41:0.513065 42:0.460098 43:0.508552 44:0.388328 45:0.305901 46:0.227582 47:0.348918 48:0.393213 49:0.219749 50:0.308725 51:0.390494 52:0.378745 53:0.476969 54:0.395824 55:0.385568 56:0.217756 57:-0.0621103 58:-0.30101 59:-0.0696216 60:-0.303268 61:-0.384751 62:-0.456368 63:-0.405318 64:-0.634738 65:-0.655591 66:-0.6494 67:-0.553283 68:-0.435261 69:-0.724371 70:-0.482403 71:0.0163804 72:0.400291 73:1 74:1 75:1 76:0.19311 77:-0.320128 78:0.294554 79:1 80:0.897725 81:0.417249 82:0.17804 83:0.377607 84:0.657178 85:0.549514 86:0.465009 87:0.469825 88:0.398025 89:0.152862 90:-0.0413416 91:-0.0768091 92:-0.0819593 93:-0.174287 94:-0.280632 95:-0.421455 96:-0.547481 97:-0.684618 98:-0.66613 99:-0.936233 100:-0.726099 101:-0.499793 102:-0.624745 103:-0.693312 104:-0.735616 105:-0.743664 106:-0.69642 107:-0.676766 108:-0.66815 109:-0.641914 110:-0.637394 111:-0.592804 112:-0.476608 113:-0.361504 114:-0.225324 115:-0.097206 116:0.0136318 117:0.146879 118:0.312853 119:0.470796 120:0.570754 121:0.664217 122:0.739186 123:0.79543 124:0.829408 125:0.860054 126:0.881695 127:0.952848 128:0.977746 129:0.987449 130:1 131:1 132:1 133:1 134:1 135:1 136:1 137:0.974338 138:0.415489 139:-0.1219 140:-0.470406 141:-0.698747 142:-0.708857 143:-0.65387 144:-0.522777 145:-0.201432 146:0.087957 147:0.35332 148:0.582234 149:0.70606 150:0.797534 151:0.87809 152:0.920364 153:0.851112 154:0.69949 155:0.532981 156:0.360976 157:0.254899 158:0.243271 159:0.145569 160:0.105472 161:0.110686 162:0.0500071 163:-3.02938e-05 164:-0.000454258 165:-0.018166 166:-0.198727 167:-0.40191 168:-0.625761 169:-0.800596 170:-0.897627 171:-0.974412 172:-1 173:-1 174:-1 175:-1 176:-1 177:-1 178:-1 179:-0.892948 180:-0.627505 181:-0.320434 182:-0.106443 183:0.157425 184:0.305029 185:0.279643 186:0.276896 187:0.308976 188:0.314899 189:0.295673 190:0.316541 191:0.356482 192:0.392909 193:0.424082 194:0.458445 195:0.438225 196:0.413042 197:0.413844 198:0.468539 199:0.454736 200:0.295954 201:-0.61079 202:-0.470398 203:-0.339896 204:-0.217276 205:-0.0455085 206:0.119703 207:0.279841 208:0.426524 209:0.476953 210:0.50478 211:0.550063 212:0.568795 213:0.546873 214:0.509301 215:0.44149 216:0.380341 217:0.355613 218:0.356755 219:0.360938 220:0.37004 221:0.296584 222:0.200365 223:0.0737794 224:0.0194509 225:0.0468888 226:0.0223694 227:0.0131795 228:-0.0500126 229:-0.259449 230:-0.314341 231:-0.491279 232:-0.64456 233:-0.795774 234:-0.879971 235:-1 236:-1 237:-1 238:-0.588822 239:-0.243238 240:0.187284 241:0.490088 242:0.685885 243:0.778889 244:0.856258 245:0.951399 246:0.986521 247:0.965913 248:0.94616 249:0.901139 250:0.831708 251:0.767207 252:0.711049 253:0.684245 254:0.671435 255:0.650346 256:0.658381 257:0.614714 258:0.525325 259:0.479231 260:0.483257 261:0.397653 262:0.171751 263:0.118782 264:0.00828034 265:-0.0440112 266:-0.267162 267:-0.583407 268:-0.748166 269:-0.638999 270:-0.546692 271:-0.760314 272:-0.631424 273:-0.392516 274:0.0194804 275:0.661534 276:1 277:1 278:0.975431 279:0.993931 280:0.906585 281:0.843898 282:0.756863 283:0.700586 284:0.619489 285:0.524312 286:0.461366 287:0.42628 288:0.439567 289:0.429425 290:0.360611 291:0.260732 292:0.154893 293:0.0966031 294:0.0548566 295:-0.0240109 296:-0.101442 297:-0.120215 298:-0.125483 299:-0.120129 300:-0.0913562 301:-0.0352036 302:-0.101925 303:-0.146541 304:-0.167592 305:-0.156529 306:-0.130049 307:-0.0973928 308:-0.0570695 309:-0.00784933 310:0.0540633 311:0.128675 312:0.219299 313:0.258498 314:0.256443 315:0.249355 316:0.249584 317:0.260623 318:0.271141 319:0.281739 320:0.288737 321:0.28984 322:0.262239 323:0.2214 324:0.176757 325:0.103637 326:0.0234908 327:-0.0597163 328:-0.147805 329:-0.235464 330:-0.32112 331:-0.391917 332:-0.4546 333:-0.504583 334:-0.54954 335:-0.603019 336:-0.635325 337:-0.645758 338:-0.645441 339:-0.617026 340:-0.605331 341:-0.614073 342:-0.619194 343:-0.597503 344:-0.566575 345:-0.542965 346:-0.520983 347:-0.49274 348:-0.457004 349:-0.413656 350:-0.336363 351:-0.22249 352:-0.109147 353:-0.0411115 354:0.0239384 355:0.0390885 356:-0.0965559 357:-0.248955 358:-0.401625 359:-0.551541 360:-0.687067 361:-0.805058 362:-0.903896 363:-0.978965 364:-1 365:-1 366:-1 367:-1 368:-1 369:-1 370:-1 371:-1 372:-1 373:-0.935537 374:-0.800504 375:-0.746659 376:-0.790236 377:-0.88506 378:-0.865811 379:-0.774274 380:-0.724018 381:-0.646617 382:-0.585019 383:-0.530474 384:-0.488105 385:-0.434958 386:-0.371856 387:-0.298188 388:-0.3453 389:-0.438337 390:-0.500832 391:-0.540476 392:-0.556698 393:-0.564284 394:-0.575489 395:-0.575439 396:-0.438235 397:-0.335306 398:-0.248104 399:-0.273028 400:-0.413283 401:-0.908515 402:-0.848523 403:-0.785215 404:-0.719549 405:-0.651303 406:-0.578708 407:-0.480432 408:-0.384256 409:-0.294089 410:-0.208989 411:-0.128985 412:-0.0578814 413:0.00413781 414:0.0558865 415:0.102007 416:0.140925 417:0.166455 418:0.178651 419:0.192853 420:0.205943 421:0.283685 422:0.339056 423:0.420122 424:0.468392 425:0.505792 426:0.505666 427:0.47126 428:0.457127 429:0.4119 430:0.353977 431:0.276611 432:0.167712 433:0.00546663 434:-0.188463 435:-0.358677 436:-0.520458 437:-0.635728 438:-0.700872 439:-0.739012 440:-0.71675 441:-0.678313 442:-0.53757 443:-0.379826 444:-0.22398 445:-0.0711957 446:0.076572 447:0.191512 448:0.28179 449:0.370742 450:0.434357 451:0.504024 452:0.573821 453:0.664735 454:0.735838 455:0.78 456:0.83303 457:0.862971 458:0.877397 459:0.880407 460:0.868631 461:0.845564 462:0.810807 463:0.760879 464:0.696739 465:0.619142 466:0.528495 467:0.424917 468:0.310025 469:0.188381 470:0.0611902 471:-0.0613676 472:-0.168547 473:-0.243138 474:-0.260631 475:-0.246379 476:-0.216699 477:-0.181974 478:-0.150396 479:-0.115085 480:-0.0881929 481:-0.0690515 482:-0.0531722 483:-0.0413739 484:-0.0326264 485:-0.0285549 486:-0.0216453 487:-0.00999988 488:0.0153748 489:0.0347328 490:0.0487593 491:0.0544711 492:0.0525525 493:0.0459886 494:0.032794 495:0.00963397 496:-0.0254786 497:-0.0700936 498:-0.139645 499:-0.221683 500:-0.291974 501:-0.728181 502:-0.715728 503:-0.701344 504:-0.684406 505:-0.670156 506:-0.657461 507:-0.640304 508:-0.621311 509:-0.602892 510:-0.579709 511:-0.556963 512:-0.533561 513:-0.512885 514:-0.493194 515:-0.471031 516:-0.448351 517:-0.427683 518:-0.412017 519:-0.403755 520:-0.397699 521:-0.393263 522:-0.390559 523:-0.397143 524:-0.418226 525:-0.43253 526:-0.45851 527:-0.492854 528:-0.519154 529:-0.566857 530:-0.618046 531:-0.660172 532:-0.689943 533:-0.725027 534:-0.763434 535:-0.78995 536:-0.815745 537:-0.83312 538:-0.84671 539:-0.845696 540:-0.832572 541:-0.806163 542:-0.779926 543:-0.758492 544:-0.746469 545:-0.730393 546:-0.726412 547:-0.718423 548:-0.714285 549:-0.726171 550:-0.72843 551:-0.731099 552:-0.736155 553:-0.744519 554:-0.755955 555:-0.770502 556:-0.78779 557:-0.80801 558:-0.830424 559:-0.853556 560:-0.87559 561:-0.895562 562:-0.910403 563:-0.915184 564:-0.910901 565:-0.896865 566:-0.875035 567:-0.852564 568:-0.820731 569:-0.79116 570:-0.752813 571:-0.703912 572:-0.663442 573:-0.596174 574:-0.566644 575:-0.541204 576:-0.519816 577:-0.505648 578:-0.487294 579:-0.486063 580:-0.481463 581:-0.484482 582:-0.494045 583:-0.502988 584:-0.508737 585:-0.519111 586:-0.528552 587:-0.525287 588:-0.535374 589:-0.543711 590:-0.561739 591:-0.571588 592:-0.584842 593:-0.592271 594:-0.606663 595:-0.623977 596:-0.625489 597:-0.638266 598:-0.650629 599:-0.658797 600:-0.66359 
0.3394003698468244 1:-0.679069 2:-0.858036 3:-0.816851 4:-0.773922 5:-0.677802 6:-0.626877 7:-0.601489 8:-0.459671 9:-0.408345 10:-0.510799 11:-0.615095 12:-0.465598 13:-0.379331 14:-0.411202 15:-0.24706 16:-0.131384 17:-0.116958 18:-0.213153 19:-0.494418 20:-0.509654 21:-0.459875 22:-0.674099 23:-0.747108 24:-0.49805 25:-0.353061 26:-0.187702 27:-0.347274 28:-0.246913 29:-0.383069 30:-0.0489171 31:0.592254 32:0.590733 33:-0.154513 34:-0.553272 35:-0.391115 36:-0.0231831 37:0.0398956 38:0.260504 39:0.860032 40:0.785206 41:0.716975 42:0.588155 43:0.684753 44:0.765829 45:0.758248 46:0.68278 47:0.709843 48:0.644034 49:0.369154 50:0.321372 51:0.326788 52:0.242723 53:0.288318 54:0.156877 55:0.198076 56:0.119535 57:-0.046808 58:-0.199843 59:0.0516496 60:-0.192394 61:-0.337446 62:-0.422208 63:-0.248818 64:-0.424875 65:-0.699636 66:-1 67:-1 68:-1 69:-0.561442 70:0.263645 71:0.404563 72:-0.237106 73:-0.368312 74:-0.437696 75:-0.0604721 76:0.229019 77:0.308907 78:0.257877 79:0.0706095 80:0.138949 81:0.142897 82:0.0845096 83:0.264572 84:0.597885 85:0.58765 86:0.463536 87:0.458773 88:0.534738 89:0.527657 90:0.557953 91:0.603577 92:0.655897 93:0.661781 94:0.544261 95:0.341681 96:0.465106 97:0.591086 98:0.763917 99:0.696487 100:0.6275 101:0.47995 102:0.418886 103:0.409504 104:0.361829 105:0.324797 106:0.358727 107:0.372619 108:0.397594 109:0.42291 110:0.45749 111:0.492269 112:0.539896 113:0.531313 114:0.516289 115:0.505036 116:0.471386 117:0.41069 118:0.341158 119:0.25279 120:0.0974649 121:-0.0701073 122:-0.266976 123:-0.40337 124:-0.722951 125:-0.879427 126:-0.861216 127:-0.838232 128:-0.813072 129:-0.853985 130:-0.811364 131:-0.667684 132:-0.610213 133:-0.544827 134:-0.430974 135:-0.407201 136:-0.387653 137:-0.249506 138:-0.242178 139:-0.204472 140:-0.0808459 141:-0.03058 142:0.0316605 143:0.0939345 144:0.172367 145:0.301462 146:0.421084 147:0.557362 148:0.691503 149:0.736974 150:0.772639 151:0.82376 152:0.871841 153:0.830428 154:0.693322 155:0.541447 156:0.384908 157:0.296724 158:0.325724 159:0.290551 160:0.318506 161:0.436739 162:0.506383 163:0.592891 164:0.740982 165:0.964659 166:0.905944 167:0.661862 168:0.402316 169:0.0641234 170:-0.128942 171:-0.197978 172:-0.15171 173:-0.137358 174:-0.228557 175:-0.305296 176:-0.375929 177:-0.469925 178:-0.667486 179:-0.783548 180:-0.745125 181:-0.639156 182:-0.611755 183:-0.47387 184:-0.42628 185:-0.469196 186:-0.458535 187:-0.40726 188:-0.387873 189:-0.421079 190:-0.404537 191:-0.382448 192:-0.383124 193:-0.373593 194:-0.374701 195:-0.39168 196:-0.41556 197:-0.422728 198:-0.336651 199:-0.398363 200:-0.488439 201:0.0500994 202:0.199858 203:0.322831 204:0.383216 205:0.389367 206:0.373579 207:0.362787 208:0.324205 209:0.19367 210:0.0251132 211:0.0184028 212:0.0271692 213:0.0092331 214:-0.0155619 215:-0.0425957 216:-0.0486128 217:-0.0427865 218:-0.0231093 219:0.00929894 220:0.0453882 221:-0.0772959 222:-0.276383 223:-0.542692 224:-0.682869 225:-0.648142 226:-0.689414 227:-0.623433 228:-0.560293 229:-0.644591 230:-0.394102 231:-0.0961928 232:0.227441 233:0.438887 234:0.627045 235:0.709095 236:0.796066 237:0.817204 238:0.768554 239:0.734732 240:0.735613 241:0.763233 242:0.782285 243:0.726528 244:0.654396 245:0.667131 246:0.663473 247:0.556748 248:0.495729 249:0.436645 250:0.350317 251:0.287639 252:0.236673 253:0.230174 254:0.206121 255:0.117005 256:0.0742285 257:0.0287791 258:-0.176803 259:-0.43578 260:-0.41947 261:-0.490567 262:-0.819644 263:-0.837782 264:-1 265:-1 266:-1 267:-0.593974 268:-0.0299668 269:0.160373 270:0.546882 271:0.620527 272:0.686758 273:0.794934 274:0.858636 275:0.866369 276:0.804142 277:0.667547 278:0.679492 279:0.625663 280:0.60621 281:0.604724 282:0.599087 283:0.593007 284:0.561149 285:0.534679 286:0.505795 287:0.494517 288:0.55068 289:0.598729 290:0.585651 291:0.547734 292:0.51995 293:0.484246 294:0.44543 295:0.40287 296:0.358112 297:0.351737 298:0.352592 299:0.35527 300:0.358993 301:0.263517 302:0.198725 303:0.132423 304:0.0662547 305:0.0136393 306:-0.0208334 307:-0.0432045 308:-0.0595163 309:-0.0757613 310:-0.0989382 311:-0.133836 312:-0.177245 313:-0.256199 314:-0.360767 315:-0.458527 316:-0.537124 317:-0.596655 318:-0.656678 319:-0.712909 320:-0.760611 321:-0.784886 322:-0.766694 323:-0.738127 324:-0.699116 325:-0.673025 326:-0.661106 327:-0.660153 328:-0.655706 329:-0.641156 330:-0.603416 331:-0.536891 332:-0.498739 333:-0.502841 334:-0.538694 335:-0.570822 336:-0.568035 337:-0.545359 338:-0.514196 339:-0.457907 340:-0.410782 341:-0.38193 342:-0.35121 343:-0.295878 344:-0.230952 345:-0.171905 346:-0.115063 347:-0.0548009 348:0.0129249 349:0.0868794 350:0.21413 351:0.407413 352:0.603363 353:0.700683 354:0.774986 355:0.776812 356:0.545011 357:0.315758 358:0.107074 359:-0.0788323 360:-0.239078 361:-0.366835 362:-0.465386 363:-0.539299 364:-0.559968 365:-0.56237 366:-0.571195 367:-0.601046 368:-0.649102 369:-0.625402 370:-0.552499 371:-0.50359 372:-0.544873 373:-0.610093 374:-0.629893 375:-0.646453 376:-0.647408 377:-0.643839 378:-0.620854 379:-0.599543 380:-0.612726 381:-0.577909 382:-0.5447 383:-0.514749 384:-0.488574 385:-0.441765 386:-0.385706 387:-0.320871 388:-0.361494 389:-0.434394 390:-0.47877 391:-0.497949 392:-0.492713 393:-0.470923 394:-0.448167 395:-0.407421 396:-0.232058 397:-0.0819499 398:0.0613155 399:0.13574 400:0.103321 401:-0.432191 402:-0.344961 403:-0.258057 404:-0.17543 405:-0.102085 406:-0.035339 407:0.0414779 408:0.110752 409:0.171824 410:0.2265 411:0.278478 412:0.323946 413:0.36178 414:0.392062 415:0.421062 416:0.446254 417:0.450027 418:0.425 419:0.389337 420:0.332394 421:0.320443 422:0.271822 423:0.227594 424:0.125748 425:0.00675634 426:-0.174935 427:-0.40221 428:-0.511702 429:-0.639976 430:-0.715661 431:-0.737485 432:-0.740168 433:-0.771142 434:-0.758331 435:-0.679332 436:-0.607764 437:-0.531814 438:-0.449065 439:-0.374585 440:-0.284192 441:-0.213187 442:-0.0905105 443:0.0277301 444:0.139021 445:0.244229 446:0.344443 447:0.408684 448:0.449418 449:0.493965 450:0.515166 451:0.545701 452:0.580848 453:0.640039 454:0.679139 455:0.688932 456:0.700875 457:0.681704 458:0.637296 459:0.572275 460:0.485745 461:0.382166 462:0.264508 463:0.13245 464:-0.015073 465:-0.17921 466:-0.337122 467:-0.442445 468:-0.495208 469:-0.546535 470:-0.557891 471:-0.552508 472:-0.524867 473:-0.487864 474:-0.437051 475:-0.396455 476:-0.37087 477:-0.359532 478:-0.350971 479:-0.342281 480:-0.337625 481:-0.335742 482:-0.335654 483:-0.337278 484:-0.341435 485:-0.347949 486:-0.34873 487:-0.34106 488:-0.312534 489:-0.288832 490:-0.27037 491:-0.25791 492:-0.249624 493:-0.24419 494:-0.243243 495:-0.246574 496:-0.253918 497:-0.26266 498:-0.282428 499:-0.307738 500:-0.317593 501:-0.647455 502:-0.649818 503:-0.650714 504:-0.649116 505:-0.650787 506:-0.655257 507:-0.656137 508:-0.656613 509:-0.65868 510:-0.657907 511:-0.658978 512:-0.661235 513:-0.666066 514:-0.671473 515:-0.674344 516:-0.674766 517:-0.674836 518:-0.675051 519:-0.679159 520:-0.676301 521:-0.667731 522:-0.650414 523:-0.633291 524:-0.622216 525:-0.595192 526:-0.570515 527:-0.547729 528:-0.509659 529:-0.488766 530:-0.46773 531:-0.441804 532:-0.409255 533:-0.386486 534:-0.368283 535:-0.342855 536:-0.328705 537:-0.313829 538:-0.301946 539:-0.294048 540:-0.282987 541:-0.265425 542:-0.252276 543:-0.238428 544:-0.230559 545:-0.217955 546:-0.218188 547:-0.210168 548:-0.205004 549:-0.211938 550:-0.213434 551:-0.217045 552:-0.225186 553:-0.239349 554:-0.259496 555:-0.285866 556:-0.317891 557:-0.354674 558:-0.394554 559:-0.435407 560:-0.476117 561:-0.515894 562:-0.555053 563:-0.594882 564:-0.632686 565:-0.672012 566:-0.71246 567:-0.750458 568:-0.774467 569:-0.794079 570:-0.796495 571:-0.787641 572:-0.789584 573:-0.763261 574:-0.769131 575:-0.768546 576:-0.766859 577:-0.767654 578:-0.753809 579:-0.75519 580:-0.74528 581:-0.740902 582:-0.740144 583:-0.740315 584:-0.734935 585:-0.735099 586:-0.734854 587:-0.724586 588:-0.724772 589:-0.722225 590:-0.727034 591:-0.72576 592:-0.727591 593:-0.72305 594:-0.724646 595:-0.729584 596:-0.717825 597:-0.71768 598:-0.716245 599:-0.710234 600:-0.702356 
0.5 1:-0.624906 2:-0.715956 3:-0.562853 4:-0.531883 5:-0.479285 6:-0.370751 7:-0.27977 8:-0.078166 9:-0.010767 10:-0.156042 11:-0.297212 12:-0.271115 13:-0.293229 14:-0.372901 15:-0.312953 16:-0.311634 17:-0.315669 18:-0.406569 19:-0.811314 20:-0.940569 21:-0.929254 22:-0.911921 23:-0.883141 24:-0.665275 25:-0.626874 26:-0.571309 27:-0.54498 28:-0.116323 29:0.113798 30:0.682223 31:1 32:0.25708 33:-0.625367 34:-0.651051 35:-0.0889674 36:0.376034 37:0.195604 38:0.207807 39:0.609508 40:0.62545 41:0.734589 42:0.693972 43:0.664318 44:0.569405 45:0.516683 46:0.459393 47:0.516818 48:0.451897 49:0.105569 50:-0.0350143 51:-0.0792299 52:-0.278771 53:-0.220078 54:-0.389739 55:-0.339243 56:-0.385246 57:-0.459679 58:-0.462022 59:-0.149874 60:-0.635817 61:-0.908523 62:-1 63:-1 64:-0.0526857 65:0.924672 66:0.546433 67:0.00458505 68:-0.00999355 69:-0.363906 70:-0.191116 71:-0.152852 72:-0.428318 73:-0.350496 74:-0.324129 75:0.0857044 76:0.317099 77:0.392429 78:0.345926 79:0.109511 80:0.0650493 81:0.0187489 82:-0.014276 83:0.231083 84:0.667493 85:0.776241 86:0.723624 87:0.740769 88:0.819087 89:0.80327 90:0.721036 91:0.628678 92:0.587274 93:0.52709 94:0.371035 95:0.182096 96:0.311915 97:0.425437 98:0.465426 99:0.164744 100:-0.114213 101:0.299711 102:0.317142 103:0.407644 104:0.434987 105:0.421215 106:0.471754 107:0.524082 108:0.572375 109:0.616349 110:0.643817 111:0.670862 112:0.697436 113:0.649916 114:0.601713 115:0.608645 116:0.610965 117:0.582042 118:0.507171 119:0.387621 120:0.219438 121:0.0391017 122:-0.211073 123:-0.414141 124:-0.775939 125:-0.986436 126:-1 127:-0.912689 128:-0.91246 129:-1 130:-0.99326 131:-0.691584 132:-0.501288 133:-0.387957 134:-0.213139 135:-0.118372 136:-0.0322303 137:0.291609 138:0.343065 139:0.272529 140:0.269928 141:0.297949 142:0.41348 143:0.540213 144:0.61009 145:0.642849 146:0.732425 147:0.849962 148:0.967982 149:1 150:1 151:1 152:1 153:0.919579 154:0.778389 155:0.644637 156:0.508316 157:0.440868 158:0.521833 159:0.50502 160:0.451491 161:0.501063 162:0.432709 163:0.309835 164:0.160357 165:0.0879407 166:-0.0278223 167:-0.0782241 168:-0.150046 169:-0.201292 170:-0.169776 171:-0.148444 172:-0.120629 173:-0.109566 174:-0.206435 175:-0.286707 176:-0.366881 177:-0.464575 178:-0.654868 179:-0.762315 180:-0.71286 181:-0.596941 182:-0.556071 183:-0.407252 184:-0.359268 185:-0.417821 186:-0.449778 187:-0.447259 188:-0.447842 189:-0.461708 190:-0.427993 191:-0.395679 192:-0.382199 193:-0.344922 194:-0.322475 195:-0.324479 196:-0.32977 197:-0.321734 198:-0.266365 199:-0.160842 200:-0.0583815 201:-0.120999 202:0.0934827 203:0.25265 204:0.298778 205:0.323357 206:0.371724 207:0.398334 208:0.350945 209:0.174112 210:-0.0251076 211:-0.0398146 212:-0.0421412 213:-0.0535669 214:-0.0622184 215:-0.0894339 216:-0.0909795 217:-0.0756614 218:-0.060639 219:-0.0391207 220:0.0052735 221:-0.111141 222:-0.324146 223:-0.625429 224:-0.816106 225:-0.798525 226:-0.825335 227:-0.719025 228:-0.639514 229:-0.643082 230:-0.150554 231:0.318587 232:0.58875 233:0.782296 234:0.841613 235:0.851819 236:0.837048 237:0.777537 238:0.658686 239:0.545247 240:0.515501 241:0.555209 242:0.594618 243:0.541806 244:0.477897 245:0.52684 246:0.525516 247:0.38291 248:0.305532 249:0.233711 250:0.114343 251:0.00678239 252:-0.0852109 253:-0.109832 254:-0.160784 255:-0.29933 256:-0.356022 257:-0.374857 258:-0.630195 259:-1 260:-1 261:-1 262:-0.93472 263:-0.115303 264:-0.0485622 265:0.386951 266:0.633499 267:0.728436 268:0.758537 269:0.806703 270:0.812552 271:0.711759 272:0.644336 273:0.65724 274:0.608706 275:0.538773 276:0.451358 277:0.31091 278:0.324486 279:0.292763 280:0.275275 281:0.26532 282:0.247564 283:0.228914 284:0.188109 285:0.154335 286:0.124943 287:0.114261 288:0.202178 289:0.290487 290:0.358018 291:0.413385 292:0.472751 293:0.515916 294:0.537161 295:0.551923 296:0.565189 297:0.600296 298:0.651591 299:0.771422 300:0.873168 301:0.380976 302:0.30945 303:0.266316 304:0.225475 305:0.189009 306:0.171132 307:0.170014 308:0.18288 309:0.200021 310:0.21066 311:0.207571 312:0.189518 313:0.100454 314:-0.026748 315:-0.157352 316:-0.284753 317:-0.40502 318:-0.514913 319:-0.611918 320:-0.691595 321:-0.748938 322:-0.755086 323:-0.737371 324:-0.704577 325:-0.691276 326:-0.694437 327:-0.710053 328:-0.705833 329:-0.641767 330:-0.521538 331:-0.412803 332:-0.391672 333:-0.44092 334:-0.484447 335:-0.479854 336:-0.436683 337:-0.383932 338:-0.341645 339:-0.288874 340:-0.240874 341:-0.202284 342:-0.15786 343:-0.100654 344:-0.0454559 345:0.00265117 346:0.0496343 347:0.0983539 348:0.1525 349:0.206583 350:0.300465 351:0.431605 352:0.521277 353:0.480949 354:0.400076 355:0.251009 356:-0.0332821 357:-0.25872 358:-0.41849 359:-0.528858 360:-0.615672 361:-0.676891 362:-0.739146 363:-0.803725 364:-0.780715 365:-0.696183 366:-0.643008 367:-0.637767 368:-0.65388 369:-0.648562 370:-0.625992 371:-0.619076 372:-0.671704 373:-0.725631 374:-0.720631 375:-0.717789 376:-0.708625 377:-0.696397 378:-0.659805 379:-0.629627 380:-0.644185 381:-0.616378 382:-0.589682 383:-0.561543 384:-0.531846 385:-0.47385 386:-0.401889 387:-0.319552 388:-0.344766 389:-0.404149 390:-0.443979 391:-0.46712 392:-0.471176 393:-0.461389 394:-0.455373 395:-0.437736 396:-0.283576 397:-0.156186 398:-0.0546285 399:-0.00666692 400:-0.0355636 401:-0.503291 402:-0.401736 403:-0.296642 404:-0.197877 405:-0.107628 406:-0.0198065 407:0.0789578 408:0.168176 409:0.24495 410:0.312695 411:0.376764 412:0.433223 413:0.480821 414:0.520267 415:0.55802 416:0.591818 417:0.603451 418:0.585127 419:0.552343 420:0.4949 421:0.462515 422:0.391232 423:0.314159 424:0.175571 425:0.0135948 426:-0.209667 427:-0.475158 428:-0.61065 429:-0.752364 430:-0.805279 431:-0.778055 432:-0.7345 433:-0.714377 434:-0.664174 435:-0.559476 436:-0.477892 437:-0.397969 438:-0.31489 439:-0.248073 440:-0.172397 441:-0.117631 442:-0.0112995 443:0.0960243 444:0.202222 445:0.306188 446:0.407634 447:0.473277 448:0.515755 449:0.563289 450:0.585258 451:0.610784 452:0.633167 453:0.670787 454:0.675803 455:0.637982 456:0.588135 457:0.495141 458:0.368057 459:0.214872 460:0.0331611 461:-0.165466 462:-0.337177 463:-0.420622 464:-0.491036 465:-0.516876 466:-0.51158 467:-0.483937 468:-0.451074 469:-0.420791 470:-0.395882 471:-0.375715 472:-0.360746 473:-0.347497 474:-0.325546 475:-0.315092 476:-0.317308 477:-0.331033 478:-0.345818 479:-0.360104 480:-0.378764 481:-0.400767 482:-0.425542 483:-0.452889 484:-0.484407 485:-0.520355 486:-0.551131 487:-0.572382 488:-0.569207 489:-0.571221 490:-0.576981 491:-0.587047 492:-0.599556 493:-0.614504 494:-0.633256 495:-0.654386 496:-0.676371 497:-0.699091 498:-0.716167 499:-0.710535 500:-0.668593 501:-0.639729 502:-0.639518 503:-0.638857 504:-0.63642 505:-0.637247 506:-0.640859 507:-0.641016 508:-0.640745 509:-0.642125 510:-0.640269 511:-0.640012 512:-0.640681 513:-0.643754 514:-0.647163 515:-0.649158 516:-0.65141 517:-0.657077 518:-0.663432 519:-0.671807 520:-0.670856 521:-0.663846 522:-0.646407 523:-0.626522 524:-0.611226 525:-0.578474 526:-0.546294 527:-0.515948 528:-0.468864 529:-0.437934 530:-0.405336 531:-0.373348 532:-0.339107 533:-0.315465 534:-0.298786 535:-0.278188 536:-0.270183 537:-0.263005 538:-0.259333 539:-0.258627 540:-0.253229 541:-0.241004 542:-0.234363 543:-0.227608 544:-0.225794 545:-0.218256 546:-0.22431 547:-0.223411 548:-0.226628 549:-0.244016 550:-0.258566 551:-0.278929 552:-0.307269 553:-0.34357 554:-0.386046 555:-0.432461 556:-0.47908 557:-0.523742 558:-0.566359 559:-0.60636 560:-0.643368 561:-0.678227 562:-0.708351 563:-0.730795 564:-0.738099 565:-0.73501 566:-0.727555 567:-0.72457 568:-0.719312 569:-0.72246 570:-0.723402 571:-0.718444 572:-0.725075 573:-0.703707 574:-0.712391 575:-0.714448 576:-0.714155 577:-0.715752 578:-0.703534 579:-0.706013 580:-0.697943 581:-0.695113 582:-0.696025 583:-0.697292 584:-0.693083 585:-0.693888 586:-0.693377 587:-0.681465 588:-0.680112 589:-0.676712 590:-0.681394 591:-0.679226 592:-0.680143 593:-0.675108 594:-0.676365 595:-0.680418 596:-0.667957 597:-0.666475 598:-0.662696 599:-0.661567 600:-0.6666 
0.2389254951111904 1:-0.67502 2:-0.846416 3:-0.73978 4:-0.585451 5:-0.402993 6:-0.237244 7:-0.172072 8:-0.0946376 9:-0.0665076 10:-0.219912 11:-0.364597 12:-0.349702 13:-0.351766 14:-0.42063 15:-0.284307 16:-0.219561 17:-0.329556 18:-0.547659 19:-0.90124 20:-0.917889 21:-0.836804 22:-0.882593 23:-0.921937 24:-0.811196 25:-0.710198 26:-0.418943 27:-0.429302 28:-0.499483 29:-0.661857 30:-0.542319 31:-0.0296837 32:0.818724 33:1 34:1 35:0.391548 36:-0.438787 37:-0.75814 38:-0.672684 39:0.0833064 40:0.531045 41:0.83603 42:0.801576 43:0.716543 44:0.520055 45:0.419013 46:0.473304 47:0.744908 48:0.895519 49:0.84398 50:0.740835 51:0.54763 52:0.381669 53:0.483719 54:0.560711 55:0.74708 56:0.735649 57:0.49563 58:0.0916775 59:0.25215 60:0.0867514 61:-0.0405059 62:-0.166061 63:0.0478424 64:-0.163114 65:-0.358822 66:-0.467613 67:-0.472979 68:-0.449239 69:-0.822352 70:-0.694952 71:-0.745319 72:-0.857426 73:-0.640528 74:-0.381055 75:0.510207 76:0.978938 77:1 78:0.696777 79:0.294375 80:0.12941 81:-0.027255 82:-0.213721 83:-0.147325 84:0.185472 85:0.406715 86:0.496175 87:0.5812 88:0.644648 89:0.575698 90:0.554478 91:0.608716 92:0.685695 93:0.722098 94:0.611021 95:0.379579 96:0.466538 97:0.488266 98:0.508335 99:0.286634 100:0.22268 101:0.837123 102:0.622593 103:0.574111 104:0.574002 105:0.569742 106:0.604567 107:0.618896 108:0.601836 109:0.608344 110:0.630006 111:0.674084 112:0.763099 113:0.813878 114:0.835758 115:0.839998 116:0.791171 117:0.678445 118:0.565831 119:0.463674 120:0.291649 121:0.117826 122:-0.0996137 123:-0.287526 124:-0.622575 125:-0.768751 126:-0.797415 127:-0.865675 128:-0.924259 129:-0.980444 130:-1 131:-0.883901 132:-0.751011 133:-0.674444 134:-0.612412 135:-0.595975 136:-0.591898 137:-0.443688 138:-0.407491 139:-0.404038 140:-0.271368 141:-0.149135 142:0.00264774 143:0.0693658 144:0.0703741 145:0.118437 146:0.212493 147:0.352241 148:0.510693 149:0.610189 150:0.711852 151:0.801402 152:0.854958 153:0.820292 154:0.706189 155:0.569595 156:0.406738 157:0.280973 158:0.241126 159:0.138516 160:0.13263 161:0.206265 162:0.236681 163:0.297178 164:0.434519 165:0.632935 166:0.658954 167:0.634487 168:0.588373 169:0.537529 170:0.551499 171:0.525865 172:0.42037 173:0.241374 174:-0.0200506 175:-0.230401 176:-0.425378 177:-0.571024 178:-0.785402 179:-0.884486 180:-0.768739 181:-0.571714 182:-0.498499 183:-0.370692 184:-0.354741 185:-0.428167 186:-0.454392 187:-0.448361 188:-0.465497 189:-0.528451 190:-0.535027 191:-0.526732 192:-0.532279 193:-0.533324 194:-0.543854 195:-0.569489 196:-0.564687 197:-0.51746 198:-0.369429 199:-0.391931 200:-0.446243 201:0.339499 202:0.424044 203:0.52778 204:0.588321 205:0.617811 206:0.597112 207:0.536659 208:0.440982 209:0.24251 210:0.0331685 211:-0.0135472 212:0.0137011 213:0.0428197 214:0.062623 215:0.0511973 216:0.0347626 217:0.0192268 218:0.0135393 219:0.0247206 220:0.0556622 221:-0.0418817 222:-0.190346 223:-0.394814 224:-0.499115 225:-0.45939 226:-0.49349 227:-0.505007 228:-0.595727 229:-0.831309 230:-0.74729 231:-0.710534 232:-0.482069 233:-0.0723711 234:0.312551 235:0.439221 236:0.583349 237:0.584758 238:0.559072 239:0.503775 240:0.502678 241:0.56161 242:0.612348 243:0.580815 244:0.536183 245:0.599916 246:0.635666 247:0.575417 248:0.580731 249:0.592453 250:0.577423 251:0.564362 252:0.563895 253:0.603158 254:0.639144 255:0.642507 256:0.652511 257:0.592293 258:0.470121 259:0.383647 260:0.384001 261:0.301334 262:0.0538381 263:-0.0253232 264:-0.178135 265:-0.222773 266:-0.425878 267:-0.703891 268:-0.8265 269:-0.759938 270:-0.695826 271:-0.881885 272:-0.671442 273:-0.419129 274:-0.246417 275:-0.15776 276:0.366634 277:0.510706 278:0.641589 279:0.603477 280:0.567451 281:0.578262 282:0.60869 283:0.601279 284:0.573138 285:0.553053 286:0.510061 287:0.464795 288:0.474079 289:0.487322 290:0.468191 291:0.435345 292:0.407522 293:0.375914 294:0.345586 295:0.319839 296:0.303835 297:0.323666 298:0.34654 299:0.358222 300:0.365291 301:0.365845 302:0.296884 303:0.232588 304:0.182542 305:0.151559 306:0.139365 307:0.136548 308:0.134169 309:0.132855 310:0.122899 311:0.0988109 312:0.0550411 313:-0.0513906 314:-0.191116 315:-0.32402 316:-0.438438 317:-0.532676 318:-0.640709 319:-0.722799 320:-0.790732 321:-0.833517 322:-0.829097 323:-0.808875 324:-0.777214 325:-0.751648 326:-0.720101 327:-0.692204 328:-0.673379 329:-0.661199 330:-0.654858 331:-0.62702 332:-0.567141 333:-0.461558 334:-0.369156 335:-0.347966 336:-0.386752 337:-0.442625 338:-0.481532 339:-0.469489 340:-0.443961 341:-0.418947 342:-0.386815 343:-0.341298 344:-0.302241 345:-0.273774 346:-0.240865 347:-0.19204 348:-0.123954 349:-0.0396683 350:0.0992398 351:0.300313 352:0.512237 353:0.662169 354:0.836188 355:0.985392 356:0.897296 357:0.796484 358:0.681749 359:0.556162 360:0.426519 361:0.304485 362:0.187058 363:0.0643689 364:-0.0437709 365:-0.146792 366:-0.243524 367:-0.330514 368:-0.414213 369:-0.47485 370:-0.499407 371:-0.529007 372:-0.60395 373:-0.661511 374:-0.641182 375:-0.587697 376:-0.513258 377:-0.453847 378:-0.414664 379:-0.389709 380:-0.398473 381:-0.370129 382:-0.352108 383:-0.343104 384:-0.333171 385:-0.287792 386:-0.218658 387:-0.133386 388:-0.185568 389:-0.279554 390:-0.336971 391:-0.363241 392:-0.35915 393:-0.331682 394:-0.298508 395:-0.246877 396:-0.0733951 397:0.0769187 398:0.216193 399:0.290809 400:0.254261 401:-0.161841 402:-0.0896766 403:-0.0187502 404:0.0497763 405:0.112818 406:0.170401 407:0.233053 408:0.287131 409:0.332095 410:0.371068 411:0.408318 412:0.443717 413:0.478379 414:0.512927 415:0.55166 416:0.589549 417:0.607943 418:0.594838 419:0.570469 420:0.526753 421:0.514257 422:0.480174 423:0.454601 424:0.391106 425:0.311349 426:0.182225 427:0.00129734 428:-0.120296 429:-0.269764 430:-0.394577 431:-0.495949 432:-0.58467 433:-0.675853 434:-0.725472 435:-0.703843 436:-0.677349 437:-0.640131 438:-0.589722 439:-0.551139 440:-0.497514 441:-0.458138 442:-0.34886 443:-0.236936 444:-0.131202 445:-0.0318391 446:0.0620714 447:0.126444 448:0.172452 449:0.222869 450:0.256702 451:0.303595 452:0.355044 453:0.429278 454:0.491097 455:0.53389 456:0.58749 457:0.622265 458:0.643563 459:0.656121 460:0.659412 461:0.657552 462:0.648982 463:0.627449 464:0.589714 465:0.535246 466:0.465311 467:0.380733 468:0.279797 469:0.161972 470:0.0295669 471:-0.100737 472:-0.213902 473:-0.291523 474:-0.318762 475:-0.342182 476:-0.343612 477:-0.342423 478:-0.32858 479:-0.312367 480:-0.302593 481:-0.295658 482:-0.28851 483:-0.283011 484:-0.280703 485:-0.279921 486:-0.274737 487:-0.263859 488:-0.236397 489:-0.216127 490:-0.201436 491:-0.192579 492:-0.187529 493:-0.185004 494:-0.186929 495:-0.192513 496:-0.20041 497:-0.206792 498:-0.222312 499:-0.23828 500:-0.237467 501:-0.687388 502:-0.690184 503:-0.691255 504:-0.690681 505:-0.693301 506:-0.698463 507:-0.700336 508:-0.701066 509:-0.703109 510:-0.702208 511:-0.703313 512:-0.706776 513:-0.714035 514:-0.723011 515:-0.730754 516:-0.736692 517:-0.741749 518:-0.74868 519:-0.756978 520:-0.757105 521:-0.752024 522:-0.737633 523:-0.721646 524:-0.710595 525:-0.683204 526:-0.656304 527:-0.631361 528:-0.590488 529:-0.567936 530:-0.546893 531:-0.518896 532:-0.486774 533:-0.466403 534:-0.449332 535:-0.424034 536:-0.404867 537:-0.385917 538:-0.372333 539:-0.362976 540:-0.351986 541:-0.336654 542:-0.327326 543:-0.318057 544:-0.313674 545:-0.302675 546:-0.303168 547:-0.294914 548:-0.288184 549:-0.292266 550:-0.288102 551:-0.283612 552:-0.280575 553:-0.279502 554:-0.280066 555:-0.282466 556:-0.286651 557:-0.292991 558:-0.301877 559:-0.313672 560:-0.329495 561:-0.349429 562:-0.375251 563:-0.408762 564:-0.443239 565:-0.47915 566:-0.51749 567:-0.559676 568:-0.596309 569:-0.638424 570:-0.674861 571:-0.701446 572:-0.734284 573:-0.731449 574:-0.750485 575:-0.755756 576:-0.752557 577:-0.750098 578:-0.732672 579:-0.731214 580:-0.721031 581:-0.718218 582:-0.719598 583:-0.72127 584:-0.716991 585:-0.717893 586:-0.71813 587:-0.70769 588:-0.707584 589:-0.704571 590:-0.708764 591:-0.706485 592:-0.707313 593:-0.701689 594:-0.702178 595:-0.705914 596:-0.693834 597:-0.694166 598:-0.694326 599:-0.690319 600:-0.685168 
0.5 1:-0.296888 2:-0.652616 3:-0.722175 4:-0.650584 5:-0.412261 6:-0.198431 7:-0.175768 8:-0.150281 9:-0.195973 10:-0.287654 11:-0.411859 12:-0.402553 13:-0.393251 14:-0.410866 15:-0.275199 16:-0.27357 17:-0.341156 18:-0.478496 19:-0.755163 20:-0.862074 21:-1 22:-1 23:-0.927226 24:-0.741502 25:-0.622687 26:-0.326859 27:0.0311274 28:1 29:1 30:1 31:0.30284 32:-0.939937 33:-0.850858 34:-0.288516 35:0.213992 36:0.428776 37:0.18661 38:0.236235 39:0.643557 40:0.565723 41:0.595285 42:0.453015 43:0.40021 44:0.170122 45:0.0946645 46:0.0254304 47:0.171449 48:0.149798 49:-0.306967 50:-0.421386 51:-0.39493 52:-0.566078 53:-0.453674 54:-0.714054 55:-0.802038 56:-1 57:-0.866794 58:-1 59:-1 60:-0.677303 61:1 62:1 63:0.950115 64:0.144166 65:-0.120085 66:-0.0122721 67:0.0264623 68:0.231512 69:-0.251529 70:-0.218787 71:-0.186188 72:-0.342777 73:-0.157184 74:-0.0860448 75:0.353777 76:0.482857 77:0.460467 78:0.373484 79:0.252953 80:0.341938 81:0.326797 82:0.215011 83:0.363889 84:0.662908 85:0.602188 86:0.491419 87:0.502526 88:0.519565 89:0.373555 90:0.293336 91:0.285421 92:0.229888 93:0.17757 94:0.13008 95:0.103392 96:0.337009 97:0.313646 98:0.0610657 99:-0.440606 100:-0.196382 101:0.599835 102:0.515132 103:0.477019 104:0.454014 105:0.454547 106:0.530424 107:0.624661 108:0.712494 109:0.790916 110:0.840973 111:0.843908 112:0.86316 113:0.852989 114:0.801329 115:0.747241 116:0.644497 117:0.535342 118:0.51552 119:0.463141 120:0.249915 121:-0.00478866 122:-0.248916 123:-0.442345 124:-0.803476 125:-1 126:-0.963176 127:-0.885846 128:-0.839852 129:-0.763689 130:-0.676879 131:-0.521207 132:-0.401971 133:-0.260064 134:-0.0887843 135:-0.0136483 136:0.0690243 137:0.334522 138:0.361936 139:0.343513 140:0.39618 141:0.507442 142:0.666436 143:0.861077 144:0.96775 145:0.908901 146:0.904529 147:0.939687 148:0.975912 149:0.915488 150:0.863574 151:0.878481 152:0.947199 153:1 154:1 155:1 156:1 157:1 158:0.804737 159:0.278041 160:0.238119 161:-0.0161534 162:-0.219553 163:-0.199879 164:-0.101752 165:-0.000550124 166:-0.00434245 167:-0.0379297 168:-0.114281 169:-0.195424 170:-0.190033 171:-0.180501 172:-0.156717 173:-0.150965 174:-0.253689 175:-0.350813 176:-0.446096 177:-0.560616 178:-0.765459 179:-0.883529 180:-0.838522 181:-0.715111 182:-0.666478 183:-0.508112 184:-0.440414 185:-0.463106 186:-0.434432 187:-0.343955 188:-0.309079 189:-0.361537 190:-0.346285 191:-0.315616 192:-0.332038 193:-0.360798 194:-0.403297 195:-0.445101 196:-0.33376 197:-0.152416 198:-0.0559611 199:-0.161842 200:-0.250867 201:0.0235067 202:0.141165 203:0.284066 204:0.394735 205:0.456934 206:0.430365 207:0.372025 208:0.304955 209:0.145337 210:-0.0131257 211:-0.0420296 212:-0.0356296 213:-0.0131587 214:-0.0273303 215:-0.100178 216:-0.139565 217:-0.12977 218:-0.113957 219:-0.116995 220:-0.119359 221:-0.274966 222:-0.501366 223:-0.80108 224:-1 225:-1 226:-0.960782 227:-0.817943 228:-0.664892 229:-0.272021 230:0.294312 231:0.515525 232:0.782871 233:0.947947 234:1 235:1 236:1 237:0.990723 238:0.882097 239:0.75251 240:0.668254 241:0.649721 242:0.635934 243:0.53173 244:0.394645 245:0.39224 246:0.34562 247:0.124933 248:0.0109857 249:-0.0841901 250:-0.246494 251:-0.391457 252:-0.526688 253:-0.584971 254:-0.695298 255:-0.916992 256:-1 257:-1 258:-1 259:-0.502455 260:-0.0767317 261:0.200733 262:0.302685 263:0.493358 264:0.650248 265:0.738017 266:0.739683 267:0.699665 268:0.674245 269:0.724227 270:0.725805 271:0.603923 272:0.534585 273:0.547291 274:0.493223 275:0.442767 276:0.367373 277:0.241451 278:0.25339 279:0.210205 280:0.179007 281:0.157007 282:0.135289 283:0.116418 284:0.0771438 285:0.0290541 286:-0.0103004 287:0.0109913 288:0.179158 289:0.354739 290:0.496003 291:0.597289 292:0.703702 293:0.768127 294:0.785972 295:0.804107 296:0.839371 297:0.872507 298:0.8508 299:0.832033 300:0.845227 301:0.648983 302:0.561789 303:0.464618 304:0.380981 305:0.33376 306:0.319718 307:0.31758 308:0.315191 309:0.306731 310:0.295614 311:0.273092 312:0.230906 313:0.113018 314:-0.0369448 315:-0.178877 316:-0.306439 317:-0.427798 318:-0.545512 319:-0.650357 320:-0.726858 321:-0.782142 322:-0.790468 323:-0.775187 324:-0.7505 325:-0.743167 326:-0.743052 327:-0.734308 328:-0.670132 329:-0.498043 330:-0.326853 331:-0.285999 332:-0.372141 333:-0.449725 334:-0.451848 335:-0.413813 336:-0.363554 337:-0.310725 338:-0.264833 339:-0.207431 340:-0.158288 341:-0.122937 342:-0.0913005 343:-0.0559709 344:-0.032666 345:-0.0248784 346:-0.0287347 347:-0.0389513 348:-0.0522379 349:-0.0777962 350:-0.0874504 351:-0.092264 352:-0.142626 353:-0.262996 354:-0.386895 355:-0.536662 356:-0.715567 357:-0.800577 358:-0.845719 359:-0.941404 360:-0.958181 361:-0.860939 362:-0.744247 363:-0.706714 364:-0.704093 365:-0.710448 366:-0.703838 367:-0.679866 368:-0.657178 369:-0.631601 370:-0.613442 371:-0.61417 372:-0.657804 373:-0.682997 374:-0.643255 375:-0.611932 376:-0.585796 377:-0.569043 378:-0.542487 379:-0.513336 380:-0.512615 381:-0.463839 382:-0.41571 383:-0.370364 384:-0.327552 385:-0.263579 386:-0.182173 387:-0.0732928 388:-0.108238 389:-0.201227 390:-0.2584 391:-0.284966 392:-0.295987 393:-0.305555 394:-0.332933 395:-0.346515 396:-0.180039 397:0.00991005 398:0.166237 399:0.195685 400:0.0960875 401:-0.411908 402:-0.314123 403:-0.213845 404:-0.112862 405:-0.0168572 406:0.0711184 407:0.163388 408:0.247119 409:0.321504 410:0.391403 411:0.458038 412:0.517612 413:0.572288 414:0.620402 415:0.662518 416:0.692736 417:0.6943 418:0.661029 419:0.609715 420:0.523951 421:0.452044 422:0.343869 423:0.240294 424:0.0746811 425:-0.115874 426:-0.360261 427:-0.642781 428:-0.773067 429:-0.857963 430:-0.840146 431:-0.780399 432:-0.705254 433:-0.653603 434:-0.57521 435:-0.450192 436:-0.347638 437:-0.246703 438:-0.141906 439:-0.0502395 440:0.0461663 441:0.11689 442:0.223561 443:0.326705 444:0.426988 445:0.521044 446:0.607311 447:0.647969 448:0.658764 449:0.668465 450:0.641303 451:0.608442 452:0.564596 453:0.524902 454:0.442057 455:0.310674 456:0.159798 457:-0.0383649 458:-0.241648 459:-0.360929 460:-0.448613 461:-0.498984 462:-0.518556 463:-0.516889 464:-0.492072 465:-0.465404 466:-0.442747 467:-0.423949 468:-0.409001 469:-0.398327 470:-0.39344 471:-0.391171 472:-0.391949 473:-0.392288 474:-0.379987 475:-0.377255 476:-0.387096 477:-0.407344 478:-0.426776 479:-0.445334 480:-0.469725 481:-0.499321 482:-0.532656 483:-0.569624 484:-0.611301 485:-0.658683 486:-0.701314 487:-0.730871 488:-0.729294 489:-0.728718 490:-0.728526 491:-0.729786 492:-0.731092 493:-0.732349 494:-0.733615 495:-0.732964 496:-0.726995 497:-0.717836 498:-0.709363 499:-0.693214 500:-0.646015 501:-0.666178 502:-0.665145 503:-0.662194 504:-0.657185 505:-0.655812 506:-0.657799 507:-0.657317 508:-0.657319 509:-0.659993 510:-0.660313 511:-0.662367 512:-0.665881 513:-0.672905 514:-0.680984 515:-0.687318 516:-0.691361 517:-0.697185 518:-0.704702 519:-0.716968 520:-0.717153 521:-0.708657 522:-0.689397 523:-0.667983 524:-0.651353 525:-0.617145 526:-0.583642 527:-0.552216 528:-0.506462 529:-0.484166 530:-0.463347 531:-0.43555 532:-0.400337 533:-0.377616 534:-0.363564 535:-0.343661 536:-0.333873 537:-0.322748 538:-0.314232 539:-0.308701 540:-0.300266 541:-0.28727 542:-0.281629 543:-0.279025 544:-0.28541 545:-0.289111 546:-0.309344 547:-0.326127 548:-0.348743 549:-0.386607 550:-0.419578 551:-0.455131 552:-0.493819 553:-0.535521 554:-0.578344 555:-0.621166 556:-0.663455 557:-0.705153 558:-0.739221 559:-0.757138 560:-0.774387 561:-0.779218 562:-0.774938 563:-0.770553 564:-0.764132 565:-0.756901 566:-0.751792 567:-0.753424 568:-0.751486 569:-0.755946 570:-0.756358 571:-0.750107 572:-0.755455 573:-0.731936 574:-0.738399 575:-0.737211 576:-0.733777 577:-0.732357 578:-0.716817 579:-0.716193 580:-0.705004 581:-0.699764 582:-0.69928 583:-0.700111 584:-0.696489 585:-0.699071 586:-0.702224 587:-0.696992 588:-0.703557 589:-0.706555 590:-0.716325 591:-0.719388 592:-0.723618 593:-0.718241 594:-0.715077 595:-0.713511 596:-0.702274 597:-0.711585 598:-0.720668 599:-0.720183 600:-0.714564 
0.2288878009548514 1:-0.481651 2:-0.637333 3:-0.634493 4:-0.522158 5:-0.377314 6:-0.285353 7:-0.272128 8:-0.142119 9:-0.0964651 10:-0.229259 11:-0.317198 12:-0.199913 13:-0.0895036 14:-0.047146 15:0.0744967 16:0.0746766 17:0.0959085 18:0.0939186 19:-0.107196 20:-0.186537 21:-0.2863 22:-0.685778 23:-0.888501 24:-0.88526 25:-0.864575 26:-0.847947 27:-0.859147 28:-0.934853 29:-0.881015 30:-0.817996 31:-0.72604 32:-0.65947 33:-0.733006 34:-0.695471 35:-0.0192717 36:1 37:1 38:0.969998 39:0.294173 40:-0.929484 41:-0.936053 42:-0.344247 43:0.34138 44:0.70057 45:0.900973 46:0.910551 47:0.866087 48:0.796299 49:0.698959 50:0.74723 51:0.72227 52:0.679663 53:0.703143 54:0.523759 55:0.399385 56:0.308693 57:0.295224 58:0.229329 59:0.585104 60:0.629593 61:0.341607 62:-0.0633163 63:0.0508466 64:-0.157434 65:-0.273843 66:-0.343647 67:-0.383703 68:-0.358704 69:-0.727146 70:-0.637352 71:-0.777684 72:-0.851411 73:-0.663581 74:-0.51446 75:0.0655174 76:0.613024 77:0.878383 78:0.619638 79:0.231229 80:0.0742192 81:-0.056022 82:-0.16194 83:0.0421166 84:0.524396 85:0.720986 86:0.638803 87:0.584893 88:0.630027 89:0.629884 90:0.711188 91:0.81639 92:0.89276 93:0.883593 94:0.724862 95:0.483693 96:0.589148 97:0.639259 98:0.69898 99:0.510851 100:0.389758 101:0.690781 102:0.685026 103:0.728758 104:0.754712 105:0.743782 106:0.769653 107:0.799458 108:0.815377 109:0.811839 110:0.788675 111:0.758912 112:0.776079 113:0.777409 114:0.7802 115:0.791437 116:0.773103 117:0.729332 118:0.693614 119:0.645068 120:0.546902 121:0.472985 122:0.386327 123:0.338352 124:0.225163 125:0.161034 126:0.128517 127:0.0315659 128:-0.0982548 129:-0.282921 130:-0.519082 131:-0.664684 132:-0.847823 133:-1 134:-1 135:-1 136:-1 137:-0.965375 138:-0.878008 139:-0.819044 140:-0.660303 141:-0.523926 142:-0.387198 143:-0.29709 144:-0.206334 145:-0.025965 146:0.113217 147:0.228835 148:0.309496 149:0.334721 150:0.400086 151:0.510677 152:0.62455 153:0.674195 154:0.616301 155:0.493844 156:0.32971 157:0.226148 158:0.229794 159:0.161693 160:0.15171 161:0.19631 162:0.175778 163:0.211869 164:0.332793 165:0.515376 166:0.536732 167:0.514003 168:0.480241 169:0.429953 170:0.414062 171:0.417116 172:0.282129 173:0.138754 174:-0.0831081 175:-0.301254 176:-0.456281 177:-0.534872 178:-0.67991 179:-0.744174 180:-0.661811 181:-0.528037 182:-0.480715 183:-0.346049 184:-0.303669 185:-0.372089 186:-0.396991 187:-0.401106 188:-0.432287 189:-0.502392 190:-0.519798 191:-0.549819 192:-0.621209 193:-0.676219 194:-0.711868 195:-0.747699 196:-0.773052 197:-0.774258 198:-0.642506 199:-0.689526 200:-0.743931 201:0.0188825 202:0.171672 203:0.294651 204:0.368911 205:0.435956 206:0.493631 207:0.53658 208:0.534649 209:0.415636 210:0.30717 211:0.298926 212:0.302348 213:0.305225 214:0.304103 215:0.27446 216:0.258939 217:0.269058 218:0.280358 219:0.28713 220:0.299244 221:0.223009 222:0.12467 223:-0.00521372 224:-0.0581205 225:-0.0142952 226:-0.0329201 227:-0.0366451 228:-0.106276 229:-0.315381 230:-0.341904 231:-0.515407 232:-0.660245 233:-0.796873 234:-0.79427 235:-0.739148 236:-0.5495 237:-0.340444 238:0.011551 239:0.159671 240:0.379904 241:0.528045 242:0.625234 243:0.617502 244:0.603189 245:0.699713 246:0.75396 247:0.719658 248:0.715582 249:0.710474 250:0.691546 251:0.690505 252:0.705591 253:0.739989 254:0.770212 255:0.778054 256:0.788488 257:0.705215 258:0.561892 259:0.433769 260:0.359353 261:0.207094 262:-0.106606 263:-0.202539 264:-0.351437 265:-0.359149 266:-0.542137 267:-0.817626 268:-0.944216 269:-0.855855 270:-0.719303 271:-0.75143 272:-0.310561 273:-0.0578784 274:-0.056772 275:0.222902 276:0.593088 277:0.696008 278:0.756477 279:0.679513 280:0.696199 281:0.750535 282:0.779687 283:0.779536 284:0.746039 285:0.699594 286:0.645005 287:0.614828 288:0.633652 289:0.647512 290:0.61014 291:0.544414 292:0.480648 293:0.406661 294:0.339195 295:0.276451 296:0.221794 297:0.207676 298:0.2082 299:0.219227 300:0.234078 301:0.526544 302:0.472507 303:0.414045 304:0.365586 305:0.328505 306:0.301307 307:0.281567 308:0.269473 309:0.261302 310:0.249909 311:0.234558 312:0.216753 313:0.14094 314:0.0351882 315:-0.0642436 316:-0.149325 317:-0.209895 318:-0.261411 319:-0.308813 320:-0.364697 321:-0.423807 322:-0.469247 323:-0.508417 324:-0.546977 325:-0.591879 326:-0.626839 327:-0.651332 328:-0.663952 329:-0.660526 330:-0.65075 331:-0.637606 332:-0.636929 333:-0.650231 334:-0.669221 335:-0.658835 336:-0.598233 337:-0.511758 338:-0.451351 339:-0.43538 340:-0.496264 341:-0.561789 342:-0.593723 343:-0.570268 344:-0.518335 345:-0.465751 346:-0.413815 347:-0.361676 348:-0.304952 349:-0.234303 350:-0.112739 351:0.0697795 352:0.271776 353:0.423859 354:0.582222 355:0.691757 356:0.593723 357:0.501614 358:0.419904 359:0.33692 360:0.247019 361:0.150219 362:0.0420118 363:-0.0774743 364:-0.168991 365:-0.243498 366:-0.305899 367:-0.360447 368:-0.417471 369:-0.449169 370:-0.45287 371:-0.471318 372:-0.538888 373:-0.601184 374:-0.612762 375:-0.626715 376:-0.611645 377:-0.563507 378:-0.517589 379:-0.485276 380:-0.494358 381:-0.466126 382:-0.44212 383:-0.417605 384:-0.386329 385:-0.32202 386:-0.243437 387:-0.158901 388:-0.208815 389:-0.295558 390:-0.342529 391:-0.356626 392:-0.341825 393:-0.306822 394:-0.267941 395:-0.207913 396:-0.0299986 397:0.124068 398:0.266942 399:0.348118 400:0.31388 401:-0.468662 402:-0.398735 403:-0.328866 404:-0.26186 405:-0.199039 406:-0.137245 407:-0.0604647 408:0.0107849 409:0.0744334 410:0.133972 411:0.192659 412:0.247786 413:0.301504 414:0.354342 415:0.411238 416:0.470187 417:0.517233 418:0.545205 419:0.57051 420:0.58364 421:0.625118 422:0.647534 423:0.671746 424:0.670108 425:0.648809 426:0.59209 427:0.499081 428:0.428929 429:0.339897 430:0.252788 431:0.160016 432:0.0437607 433:-0.12199 434:-0.299592 435:-0.422294 436:-0.518075 437:-0.567584 438:-0.582051 439:-0.589577 440:-0.553297 441:-0.518545 442:-0.40437 443:-0.284524 444:-0.16864 445:-0.0557787 446:0.0528354 447:0.130147 448:0.183715 449:0.237058 450:0.270866 451:0.317847 452:0.3719 453:0.450996 454:0.518453 455:0.565648 456:0.622335 457:0.658951 458:0.681225 459:0.692819 460:0.690975 461:0.677688 462:0.650586 463:0.603223 464:0.538968 465:0.460743 466:0.371536 467:0.271577 468:0.160255 469:0.0352932 470:-0.0998784 471:-0.216585 472:-0.287513 473:-0.331733 474:-0.341423 475:-0.333068 476:-0.314185 477:-0.301187 478:-0.276644 479:-0.253713 480:-0.234201 481:-0.215222 482:-0.196778 483:-0.180134 484:-0.165876 485:-0.155561 486:-0.14255 487:-0.123466 488:-0.0881716 489:-0.0584215 490:-0.0334462 491:-0.0139053 492:0.00190378 493:0.0145461 494:0.0237932 495:0.0291616 496:0.0309718 497:0.0330924 498:0.0180063 499:-0.00239953 500:-0.0091094 501:-0.681557 502:-0.684012 503:-0.685288 504:-0.685037 505:-0.687904 506:-0.693248 507:-0.695475 508:-0.696991 509:-0.69961 510:-0.698223 511:-0.697256 512:-0.696978 513:-0.698997 514:-0.701615 515:-0.702198 516:-0.700931 517:-0.699321 518:-0.698846 519:-0.704688 520:-0.708253 521:-0.712284 522:-0.712116 523:-0.714503 524:-0.726829 525:-0.725046 526:-0.723865 527:-0.722705 528:-0.700678 529:-0.690723 530:-0.680473 531:-0.65612 532:-0.618752 533:-0.588101 534:-0.562449 535:-0.529684 536:-0.505373 537:-0.482444 538:-0.46559 539:-0.451149 540:-0.433429 541:-0.412982 542:-0.398863 543:-0.387257 544:-0.382628 545:-0.372053 546:-0.372162 547:-0.362731 548:-0.353524 549:-0.354879 550:-0.347124 551:-0.338779 552:-0.331914 553:-0.327595 554:-0.325271 555:-0.32486 556:-0.326072 557:-0.330062 558:-0.338024 559:-0.350706 560:-0.368657 561:-0.391817 562:-0.42004 563:-0.454052 564:-0.485965 565:-0.516773 566:-0.548807 567:-0.585246 568:-0.618112 569:-0.657624 570:-0.691636 571:-0.716677 572:-0.744354 573:-0.736687 574:-0.751304 575:-0.750529 576:-0.74449 577:-0.743068 578:-0.728921 579:-0.731135 580:-0.723096 581:-0.720858 582:-0.722387 583:-0.724369 584:-0.720534 585:-0.721856 586:-0.722477 587:-0.71228 588:-0.712087 589:-0.708909 590:-0.712893 591:-0.710152 592:-0.709931 593:-0.702735 594:-0.701527 595:-0.703648 596:-0.689668 597:-0.68757 598:-0.684784 599:-0.67738 600:-0.669042 
0.5 1:0.473042 2:0.191842 3:0.313912 4:0.477242 5:0.584908 6:0.726086 7:0.729019 8:0.829086 9:0.895532 10:0.848273 11:0.937561 12:0.873684 13:0.781067 14:0.749301 15:0.745936 16:0.724905 17:0.789569 18:0.770779 19:0.447155 20:0.171269 21:-0.0211973 22:-0.473661 23:-0.65804 24:-0.529959 25:-0.5389 26:-0.488762 27:-0.679667 28:-0.851046 29:-0.918454 30:-1 31:-1 32:-0.573856 33:-0.267091 34:-0.0740204 35:-0.0486465 36:-0.250633 37:-0.395498 38:-0.280288 39:0.283318 40:0.387346 41:0.387414 42:0.230089 43:0.266461 44:0.16502 45:0.238333 46:0.244652 47:0.302361 48:0.171506 49:-0.235611 50:-0.298081 51:-0.388515 52:-0.724536 53:-0.592521 54:-0.561838 55:-0.430782 56:-0.658947 57:-0.93394 58:-0.911474 59:-0.585378 60:-0.910747 61:-0.774704 62:-0.506217 63:0.0156846 64:0.511774 65:1 66:1 67:0.471342 68:0.185395 69:-0.770672 70:-0.756381 71:-0.215044 72:-0.158894 73:-0.0576168 74:-0.10208 75:0.269708 76:0.384825 77:0.38593 78:0.351828 79:0.237007 80:0.266138 81:0.163101 82:-0.0269917 83:0.00955563 84:0.173864 85:0.097185 86:-0.00978247 87:0.0365056 88:0.106696 89:0.0511982 90:-0.0407093 91:-0.0226054 92:-0.00265949 93:-0.139186 94:-0.332123 95:-0.474616 96:-0.480495 97:-0.435718 98:-0.2468 99:-0.505873 100:-0.550805 101:-0.737081 102:-0.869158 103:-0.91624 104:-0.938404 105:-0.936993 106:-0.82371 107:-0.71662 108:-0.62653 109:-0.505053 110:-0.385561 111:-0.255942 112:-0.102355 113:0.0336202 114:0.16657 115:0.292374 116:0.431631 117:0.582506 118:0.743799 119:0.884244 120:0.916784 121:0.954631 122:0.989967 123:1 124:1 125:0.968382 126:0.948828 127:0.981344 128:0.959461 129:0.864562 130:0.737232 131:0.660525 132:0.535533 133:0.269134 134:0.103234 135:0.0473943 136:0.0697202 137:0.295987 138:0.285881 139:0.286055 140:0.393828 141:0.522242 142:0.649462 143:0.791037 144:0.904335 145:0.91006 146:0.914791 147:0.923013 148:0.953586 149:0.915713 150:0.827442 151:0.698874 152:0.570672 153:0.420392 154:0.221436 155:-0.0319896 156:-0.317728 157:-0.547621 158:-0.739176 159:-0.997667 160:-1 161:-1 162:-1 163:-1 164:-1 165:-1 166:-0.886105 167:-0.689365 168:-0.58095 169:-0.490462 170:-0.303868 171:-0.145102 172:-0.00691152 173:0.0857621 174:0.0335882 175:-0.0302654 176:-0.0849941 177:-0.143146 178:-0.319157 179:-0.420331 180:-0.383295 181:-0.268249 182:-0.17301 183:0.0379998 184:0.149712 185:0.114617 186:0.0966164 187:0.0911945 188:0.0257772 189:-0.0365056 190:-0.00183487 191:0.0847446 192:0.173983 193:0.254051 194:0.315201 195:0.308651 196:0.298424 197:0.339794 198:0.377719 199:0.358201 200:0.319653 201:-0.310983 202:-0.130209 203:0.0439065 204:0.183605 205:0.352129 206:0.479868 207:0.568259 208:0.577162 209:0.501466 210:0.333863 211:0.23785 212:0.19415 213:0.164596 214:0.114828 215:0.0603723 216:0.0486082 217:0.0438297 218:0.0487498 219:0.0701494 220:0.104573 221:0.0152535 222:-0.122293 223:-0.314964 224:-0.415398 225:-0.38629 226:-0.431498 227:-0.445344 228:-0.525595 229:-0.808507 230:-0.815165 231:-0.768052 232:-0.492028 233:-0.119591 234:0.248312 235:0.525438 236:0.791351 237:0.897418 238:0.908846 239:0.86881 240:0.861779 241:0.884697 242:0.884674 243:0.820695 244:0.760037 245:0.752632 246:0.702356 247:0.545755 248:0.466427 249:0.427848 250:0.35007 251:0.280582 252:0.230102 253:0.231991 254:0.220086 255:0.138646 256:0.092769 257:0.0560887 258:-0.12882 259:-0.37842 260:-0.3714 261:-0.409026 262:-0.624558 263:-0.516 264:-0.501702 265:-0.305224 266:-0.134637 267:0.102401 268:0.360465 269:0.581062 270:0.700598 271:0.686058 272:0.666793 273:0.701508 274:0.708941 275:0.740159 276:0.697485 277:0.560661 278:0.603176 279:0.593265 280:0.58791 281:0.576409 282:0.555732 283:0.530911 284:0.460798 285:0.39238 286:0.329871 287:0.280411 288:0.281627 289:0.271049 290:0.246419 291:0.215469 292:0.195805 293:0.2177 294:0.224438 295:0.184119 296:0.141219 297:0.153318 298:0.17808 299:0.209947 300:0.232435 301:0.0105271 302:-0.0299444 303:-0.064959 304:-0.0750807 305:-0.0576224 306:-0.0229302 307:0.0268837 308:0.0927321 309:0.176036 310:0.278448 311:0.396766 312:0.516599 313:0.543339 314:0.50772 315:0.460296 316:0.420092 317:0.391502 318:0.355764 319:0.307779 320:0.242929 321:0.165152 322:0.0729202 323:-0.0166365 324:-0.101716 325:-0.203485 326:-0.298972 327:-0.382751 328:-0.452019 329:-0.504767 330:-0.555062 331:-0.591011 332:-0.600937 333:-0.579823 334:-0.548667 335:-0.534761 336:-0.537668 337:-0.544301 338:-0.542613 339:-0.506829 340:-0.474508 341:-0.459508 342:-0.450122 343:-0.428008 344:-0.404752 345:-0.390935 346:-0.383629 347:-0.383085 348:-0.393861 349:-0.41705 350:-0.431978 351:-0.46716 352:-0.569489 353:-0.714352 354:-0.827554 355:-0.907348 356:-0.962205 357:-0.99501 358:-1 359:-1 360:-1 361:-1 362:-1 363:-1 364:-0.949258 365:-0.874447 366:-0.793953 367:-0.732514 368:-0.732158 369:-0.784319 370:-0.830661 371:-0.81827 372:-0.82694 373:-0.825451 374:-0.769705 375:-0.73482 376:-0.71179 377:-0.696492 378:-0.659781 379:-0.62285 380:-0.623507 381:-0.583745 382:-0.556384 383:-0.542846 384:-0.541065 385:-0.524508 386:-0.501342 387:-0.470489 388:-0.520397 389:-0.597561 390:-0.657838 391:-0.697424 392:-0.716338 393:-0.734797 394:-0.768762 395:-0.799433 396:-0.668459 397:-0.564483 398:-0.468231 399:-0.510812 400:-0.674585 401:-0.766693 402:-0.678141 403:-0.585253 404:-0.491625 405:-0.397845 406:-0.30564 407:-0.199553 408:-0.106678 409:-0.0270423 410:0.0388703 411:0.0928825 412:0.133759 413:0.165339 414:0.187654 415:0.207323 416:0.226867 417:0.233695 418:0.213995 419:0.199124 420:0.190877 421:0.252767 422:0.28384 423:0.323612 424:0.310166 425:0.272612 426:0.17433 427:0.017821 428:-0.0886984 429:-0.238992 430:-0.382857 431:-0.50124 432:-0.596848 433:-0.693035 434:-0.728318 435:-0.665316 436:-0.582205 437:-0.483607 438:-0.370662 439:-0.265988 440:-0.144816 441:-0.0406737 442:0.106354 443:0.246238 444:0.380725 445:0.508899 446:0.628095 447:0.699419 448:0.741048 449:0.789089 450:0.8071 451:0.827482 452:0.846116 453:0.882863 454:0.890156 455:0.862953 456:0.837321 457:0.780538 458:0.703026 459:0.609942 460:0.500354 461:0.383513 462:0.269113 463:0.159266 464:0.053432 465:-0.0467877 466:-0.12797 467:-0.180185 468:-0.202855 469:-0.207898 470:-0.204771 471:-0.194257 472:-0.180789 473:-0.165078 474:-0.137677 475:-0.11356 476:-0.096216 477:-0.0863403 478:-0.07699 479:-0.0655054 480:-0.0566307 481:-0.0510185 482:-0.0480511 483:-0.0470217 484:-0.0494667 485:-0.0562514 486:-0.0600811 487:-0.0592495 488:-0.0441894 489:-0.0361501 490:-0.0333322 491:-0.0359061 492:-0.0422787 493:-0.0487173 494:-0.0577068 495:-0.0724389 496:-0.0940563 497:-0.118224 498:-0.158607 499:-0.202462 500:-0.231982 501:-0.683026 502:-0.667788 503:-0.650544 504:-0.630754 505:-0.613762 506:-0.599189 507:-0.580445 508:-0.560693 509:-0.542261 510:-0.520531 511:-0.500775 512:-0.481277 513:-0.466211 514:-0.453889 515:-0.440492 516:-0.428446 517:-0.420733 518:-0.420344 519:-0.428814 520:-0.440174 521:-0.454482 522:-0.471241 523:-0.497157 524:-0.536549 525:-0.565969 526:-0.601091 527:-0.639624 528:-0.661282 529:-0.696091 530:-0.731313 531:-0.750826 532:-0.754091 533:-0.757219 534:-0.759818 535:-0.750058 536:-0.742985 537:-0.737593 538:-0.739718 539:-0.740995 540:-0.741797 541:-0.736855 542:-0.734924 543:-0.737068 544:-0.747272 545:-0.752174 546:-0.767597 547:-0.778024 548:-0.791893 549:-0.822817 550:-0.842945 551:-0.862484 552:-0.882675 553:-0.901635 554:-0.916363 555:-0.920707 556:-0.913197 557:-0.897392 558:-0.874525 559:-0.845469 560:-0.811562 561:-0.774854 562:-0.737358 563:-0.699834 564:-0.657414 565:-0.612853 566:-0.575829 567:-0.553723 568:-0.535209 569:-0.527783 570:-0.523964 571:-0.521388 572:-0.532706 573:-0.522589 574:-0.541168 575:-0.554256 576:-0.563095 577:-0.572706 578:-0.569299 579:-0.577666 580:-0.576815 581:-0.580218 582:-0.587948 583:-0.595539 584:-0.598861 585:-0.607143 586:-0.614425 587:-0.609428 588:-0.615405 589:-0.618482 590:-0.629909 591:-0.634614 592:-0.643613 593:-0.647438 594:-0.658491 595:-0.67278 596:-0.670746 597:-0.680799 598:-0.68997 599:-0.694556 600:-0.697769 
0.308616753152122 1:-0.287777 2:-0.34756 3:-0.306368 4:-0.243805 5:-0.19391 6:-0.149984 7:-0.149058 8:-0.0587799 9:-0.0655529 10:-0.207969 11:-0.291901 12:-0.180129 13:-0.101299 14:-0.102319 15:0.0284552 16:0.0568627 17:0.0519603 18:0.0174411 19:-0.20031 20:-0.287327 21:-0.409668 22:-0.755662 23:-0.871264 24:-0.729867 25:-0.60737 26:-0.358583 27:-0.457589 28:-0.568386 29:-0.728328 30:-0.718029 31:-0.472829 32:0.0291809 33:0.167983 34:0.304849 35:0.293488 36:0.0944153 37:-0.234123 38:-0.153434 39:0.491164 40:0.756754 41:1 42:0.935537 43:0.868567 44:0.786312 45:0.739212 46:0.803782 47:0.966539 48:0.970055 49:0.699582 50:0.413012 51:0.199341 52:-0.000471792 53:0.123808 54:0.145375 55:0.298711 56:0.251969 57:0.0507084 58:-0.172324 59:0.0398001 60:-0.227642 61:-0.358726 62:-0.415418 63:-0.283568 64:-0.46035 65:-0.583565 66:-0.646535 67:-0.618196 68:-0.677261 69:-1 70:-0.917638 71:-0.837949 72:-0.795498 73:-0.410762 74:-0.157544 75:0.386221 76:0.519391 77:0.419329 78:0.289344 79:0.248804 80:0.498272 81:0.609306 82:0.54459 83:0.705553 84:1 85:0.850634 86:0.675156 87:0.682092 88:0.767799 89:0.718861 90:0.65233 91:0.550708 92:0.453704 93:0.342689 94:0.197433 95:0.0264986 96:0.0960372 97:0.131025 98:0.217103 99:-0.0310313 100:-0.121882 101:-0.0186027 102:0.00019162 103:0.0608346 104:0.118264 105:0.160575 106:0.233689 107:0.263708 108:0.29913 109:0.32138 110:0.309366 111:0.300757 112:0.337095 113:0.355863 114:0.381479 115:0.419416 116:0.419698 117:0.404422 118:0.388062 119:0.352574 120:0.241663 121:0.117015 122:-0.0394241 123:-0.153056 124:-0.394951 125:-0.493196 126:-0.482895 127:-0.486181 128:-0.52119 129:-0.631925 130:-0.711074 131:-0.643683 132:-0.636581 133:-0.701219 134:-0.73574 135:-0.793888 136:-0.801543 137:-0.749127 138:-0.724437 139:-0.668997 140:-0.449874 141:-0.258577 142:-0.0256088 143:0.149848 144:0.227039 145:0.294952 146:0.400898 147:0.552525 148:0.709961 149:0.762487 150:0.780257 151:0.799321 152:0.813237 153:0.741154 154:0.593727 155:0.435006 156:0.272323 157:0.171226 158:0.166771 159:0.101036 160:0.110779 161:0.201285 162:0.261253 163:0.353041 164:0.517601 165:0.73058 166:0.758689 167:0.724334 168:0.676551 169:0.592363 170:0.557956 171:0.40362 172:0.271759 173:0.111083 174:-0.124872 175:-0.292046 176:-0.408122 177:-0.540438 178:-0.797504 179:-0.945141 180:-0.903846 181:-0.78468 182:-0.756115 183:-0.611658 184:-0.558404 185:-0.600271 186:-0.619931 187:-0.604284 188:-0.58227 189:-0.583924 190:-0.52303 191:-0.464581 192:-0.441467 193:-0.423948 194:-0.38466 195:-0.335914 196:-0.273115 197:-0.20674 198:-0.0909735 199:-0.118904 200:-0.177457 201:0.0921002 202:0.23178 203:0.338512 204:0.391508 205:0.425151 206:0.43014 207:0.408768 208:0.377285 209:0.263736 210:0.0974869 211:0.0587729 212:0.0718136 213:0.0887491 214:0.083503 215:0.0546992 216:0.0574605 217:0.0876099 218:0.113712 219:0.129497 220:0.150963 221:0.0589419 222:-0.0762142 223:-0.28013 224:-0.40088 225:-0.381503 226:-0.421338 227:-0.423889 228:-0.491627 229:-0.721976 230:-0.616419 231:-0.582363 232:-0.418901 233:-0.165849 234:0.135712 235:0.340443 236:0.53269 237:0.616108 238:0.674619 239:0.690325 240:0.739596 241:0.806549 242:0.855452 243:0.819788 244:0.745975 245:0.728883 246:0.692884 247:0.568662 248:0.517613 249:0.500074 250:0.46009 251:0.428588 252:0.42022 253:0.458059 254:0.484521 255:0.465273 256:0.464601 257:0.415387 258:0.265137 259:0.110506 260:0.0975349 261:-0.000680052 262:-0.286133 263:-0.325886 264:-0.441215 265:-0.432941 266:-0.632184 267:-0.944454 268:-0.998913 269:-0.684854 270:-0.359872 271:-0.265745 272:-0.0245653 273:0.0734172 274:0.255113 275:0.602158 276:0.8197 277:0.87383 278:1 279:1 280:1 281:1 282:1 283:0.995404 284:0.947152 285:0.897493 286:0.839298 287:0.759801 288:0.710943 289:0.688468 290:0.646903 291:0.594608 292:0.550353 293:0.482989 294:0.401393 295:0.331906 296:0.283338 297:0.278989 298:0.283567 299:0.284382 300:0.279552 301:-0.256009 302:-0.209427 303:-0.192172 304:-0.181062 305:-0.168424 306:-0.151898 307:-0.134588 308:-0.12037 309:-0.113448 310:-0.114304 311:-0.123053 312:-0.137657 313:-0.188194 314:-0.266136 315:-0.342158 316:-0.407817 317:-0.452676 318:-0.49978 319:-0.547754 320:-0.595874 321:-0.638506 322:-0.658223 323:-0.663363 324:-0.658297 325:-0.659778 326:-0.657164 327:-0.657285 328:-0.661167 329:-0.667276 330:-0.685838 331:-0.695425 332:-0.692619 333:-0.671147 334:-0.648702 335:-0.642966 336:-0.650635 337:-0.673232 338:-0.68654 339:-0.658235 340:-0.622833 341:-0.589786 342:-0.549877 343:-0.491262 344:-0.435077 345:-0.389384 346:-0.341042 347:-0.284072 348:-0.219776 349:-0.153136 350:-0.0516891 351:0.0872243 352:0.21922 353:0.292638 354:0.380861 355:0.437886 356:0.317179 357:0.191524 358:0.0663047 359:-0.0625044 360:-0.187309 361:-0.299185 362:-0.398652 363:-0.493242 364:-0.550151 365:-0.595807 366:-0.639665 367:-0.67881 368:-0.719947 369:-0.739421 370:-0.74403 371:-0.760665 372:-0.827763 373:-0.871659 374:-0.8561 375:-0.850724 376:-0.849591 377:-0.858757 378:-0.839999 379:-0.817373 380:-0.822443 381:-0.766225 382:-0.712421 383:-0.668792 384:-0.638782 385:-0.59519 386:-0.546398 387:-0.489165 388:-0.510157 389:-0.562704 390:-0.601452 391:-0.625675 392:-0.635514 393:-0.641032 394:-0.655489 395:-0.657841 396:-0.503804 397:-0.379587 398:-0.269774 399:-0.281936 400:-0.418324 401:-0.439282 402:-0.36984 403:-0.303101 404:-0.241671 405:-0.186885 406:-0.136597 407:-0.0749171 408:-0.0195436 409:0.0287965 410:0.070956 411:0.109562 412:0.142819 413:0.172701 414:0.198737 415:0.22533 416:0.249059 417:0.260427 418:0.250317 419:0.231461 420:0.195209 421:0.221982 422:0.214422 423:0.21851 424:0.165364 425:0.0986544 426:-0.0225067 427:-0.191855 428:-0.281481 429:-0.405695 430:-0.500474 431:-0.570928 432:-0.638347 433:-0.728265 434:-0.776667 435:-0.746944 436:-0.710998 437:-0.65771 438:-0.586367 439:-0.521917 440:-0.437101 441:-0.365263 442:-0.228814 443:-0.0936731 444:0.0290963 445:0.139447 446:0.239463 447:0.302499 448:0.343058 449:0.388308 450:0.413083 451:0.447374 452:0.485494 453:0.547128 454:0.592373 455:0.613699 456:0.642925 457:0.650214 458:0.640368 459:0.617049 460:0.578811 461:0.528942 462:0.468641 463:0.395423 464:0.309586 465:0.210444 466:0.0979835 467:-0.0273537 468:-0.158535 469:-0.284361 470:-0.396244 471:-0.481739 472:-0.53739 473:-0.569831 474:-0.547896 475:-0.515412 476:-0.482867 477:-0.453538 478:-0.424049 479:-0.389051 480:-0.356296 481:-0.324876 482:-0.297127 483:-0.272951 484:-0.252009 485:-0.233721 486:-0.21119 487:-0.185865 488:-0.147017 489:-0.115801 490:-0.0897556 491:-0.0684663 492:-0.049502 493:-0.0318431 494:-0.0192405 495:-0.00875518 496:1.01371e-05 497:0.0112425 498:0.0079631 499:0.00020905 500:0.00483574 501:-0.995851 502:-0.997271 503:-0.99833 504:-0.999 505:-0.124545 506:1 507:1 508:1 509:1 510:-0.454618 511:-1 512:-0.99952 513:-0.99963 514:-1 515:-1 516:-0.997712 517:-0.995073 518:-0.993108 519:-0.999721 520:-0.99909 521:-0.99708 522:-0.988025 523:-0.979106 524:-0.978686 525:-0.963947 526:-0.948635 527:-0.939355 528:-0.909796 529:-0.893571 530:-0.88515 531:-0.861073 532:-0.824818 533:-0.796656 534:-0.774797 535:-0.744089 536:-0.718868 537:-0.695784 538:-0.682016 539:-0.670167 540:-0.659469 541:-0.644868 542:-0.634953 543:-0.628402 544:-0.628316 545:-0.621491 546:-0.625097 547:-0.622687 548:-0.622733 549:-0.636348 550:-0.639209 551:-0.641306 552:-0.645022 553:-0.65099 554:-0.658704 555:-0.668384 556:-0.68003 557:-0.694108 558:-0.711055 559:-0.730576 560:-0.751754 561:-0.774606 562:-0.799037 563:-0.824662 564:-0.849254 565:-0.87269 566:-0.896397 567:-0.925987 568:-0.951339 569:-0.98445 570:-0.521683 571:0.997055 572:0.98929 573:0.989579 574:0.993385 575:0.981723 576:0.982095 577:0.987477 578:0.987467 579:1 580:1 581:-0.371079 582:-0.99626 583:-0.99586 584:-0.987427 585:-0.98512 586:-0.982188 587:-0.971731 588:-0.968349 589:-0.962061 590:-0.961593 591:-0.958887 592:-0.959813 593:-0.954324 594:-0.955381 595:-0.961861 596:-0.951042 597:-0.954577 598:-0.957287 599:-0.954153 600:-0.947435 
0.5 1:-0.146041 2:-0.172108 3:0.0513609 4:0.203422 5:0.128611 6:-0.0851621 7:-0.283555 8:-0.260894 9:-0.273368 10:-0.393349 11:-0.511301 12:-0.447082 13:-0.460037 14:-0.603617 15:-0.475531 16:-0.341738 17:-0.285151 18:-0.352449 19:-0.653116 20:-0.704349 21:-0.664119 22:-0.815912 23:-0.891006 24:-0.768837 25:-0.650017 26:-0.485068 27:-0.603459 28:-0.730292 29:-0.78483 30:-0.732081 31:-0.622076 32:-0.517522 33:-0.280077 34:0.122806 35:0.630062 36:0.857863 37:0.20618 38:-0.162793 39:-0.0152261 40:0.191514 41:0.529163 42:0.663832 43:0.785653 44:0.84963 45:0.806927 46:0.748942 47:0.845917 48:0.908642 49:0.832775 50:0.71982 51:0.515126 52:0.320861 53:0.341991 54:0.23088 55:0.247708 56:0.162677 57:0.0232953 58:-0.148247 59:0.102865 60:-0.061438 61:-0.152984 62:-0.262668 63:-0.113346 64:-0.290586 65:-0.426832 66:-0.548627 67:-0.587214 68:-0.6126 69:-0.889727 70:-1 71:-1 72:-0.851644 73:-0.515836 74:-0.274594 75:0.3378 76:0.644646 77:0.748178 78:0.634373 79:0.323619 80:0.10063 81:-0.142678 82:-0.226106 83:0.0157797 84:0.438567 85:0.530411 86:0.42174 87:0.330668 88:0.270733 89:0.1819 90:0.180477 91:0.30736 92:0.458946 93:0.54524 94:0.449854 95:0.207701 96:0.201509 97:0.122497 98:0.109709 99:-0.185338 100:-0.212268 101:0.734601 102:0.651525 103:0.738288 104:0.801222 105:0.754274 106:0.692285 107:0.662484 108:0.653681 109:0.65522 110:0.646303 111:0.628209 112:0.640765 113:0.617552 114:0.598367 115:0.606622 116:0.606261 117:0.571878 118:0.521863 119:0.454188 120:0.32981 121:0.213735 122:0.0732227 123:-0.027052 124:-0.239749 125:-0.333559 126:-0.347674 127:-0.352621 128:-0.376995 129:-0.443902 130:-0.535512 131:-0.622207 132:-0.738318 133:-0.788971 134:-0.761084 135:-0.853245 136:-0.968516 137:-1 138:-0.966247 139:-0.946551 140:-0.773647 141:-0.65255 142:-0.449186 143:-0.275647 144:-0.140344 145:0.0383703 146:0.195451 147:0.35822 148:0.52085 149:0.611384 150:0.694278 151:0.770062 152:0.80461 153:0.750272 154:0.618913 155:0.467411 156:0.299439 157:0.19285 158:0.177975 159:0.0984512 160:0.10757 161:0.186847 162:0.220671 163:0.273633 164:0.403771 165:0.59678 166:0.632646 167:0.644409 168:0.644471 169:0.527271 170:0.525144 171:0.479014 172:0.33804 173:0.180167 174:-0.0210472 175:-0.247404 176:-0.408727 177:-0.499757 178:-0.676618 179:-0.782939 180:-0.738695 181:-0.624136 182:-0.592599 183:-0.452048 184:-0.396673 185:-0.434766 186:-0.441984 187:-0.426814 188:-0.419252 189:-0.435428 190:-0.389451 191:-0.341223 192:-0.328464 193:-0.328117 194:-0.349094 195:-0.377232 196:-0.373196 197:-0.324571 198:-0.172144 199:-0.146725 200:-0.152601 201:0.475915 202:0.546966 203:0.608087 204:0.661122 205:0.739189 206:0.786738 207:0.715622 208:0.519891 209:0.232883 210:-0.0330769 211:-0.102705 212:-0.0965232 213:-0.0732135 214:-0.0505771 215:-0.048585 216:-0.0132837 217:0.0396351 218:0.0906658 219:0.136131 220:0.191125 221:0.135217 222:0.0394147 223:-0.104619 224:-0.177894 225:-0.150088 226:-0.180822 227:-0.199611 228:-0.284117 229:-0.529458 230:-0.555919 231:-0.674329 232:-0.707903 233:-0.704376 234:-0.404127 235:-0.115881 236:0.10378 237:0.173239 238:0.393914 239:0.478397 240:0.596895 241:0.711595 242:0.794554 243:0.792282 244:0.782998 245:0.809916 246:0.790845 247:0.68607 248:0.623439 249:0.576829 250:0.514599 251:0.465997 252:0.437355 253:0.455958 254:0.466278 255:0.441875 256:0.459838 257:0.439355 258:0.308636 259:0.184357 260:0.192816 261:0.121846 262:-0.119326 263:-0.151864 264:-0.258794 265:-0.267348 266:-0.469 267:-0.783689 268:-0.912308 269:-0.684632 270:-0.469195 271:-0.397297 272:-0.0982683 273:0.0651319 274:-0.00467603 275:0.373512 276:0.477143 277:0.492353 278:0.642862 279:0.680698 280:0.694605 281:0.711189 282:0.705576 283:0.688487 284:0.643406 285:0.598619 286:0.540517 287:0.474307 288:0.462595 289:0.462174 290:0.43506 291:0.39237 292:0.356875 293:0.320432 294:0.289746 295:0.254757 296:0.231585 297:0.258607 298:0.303243 299:0.348197 300:0.380631 301:0.293099 302:0.314008 303:0.339102 304:0.362086 305:0.363631 306:0.339206 307:0.307932 308:0.279407 309:0.252799 310:0.225619 311:0.192595 312:0.150228 313:0.0441871 314:-0.0999486 315:-0.235786 316:-0.346059 317:-0.430008 318:-0.507642 319:-0.579356 320:-0.646699 321:-0.696597 322:-0.708513 323:-0.709175 324:-0.699683 325:-0.693941 326:-0.683572 327:-0.676862 328:-0.673372 329:-0.666862 330:-0.664162 331:-0.659935 332:-0.67115 333:-0.665182 334:-0.634349 335:-0.592127 336:-0.552434 337:-0.535966 338:-0.550544 339:-0.555093 340:-0.552589 341:-0.546969 342:-0.525641 343:-0.475642 344:-0.417721 345:-0.368565 346:-0.32211 347:-0.26845 348:-0.202529 349:-0.124926 350:-0.000410697 351:0.173904 352:0.348303 353:0.454854 354:0.564557 355:0.630484 356:0.49558 357:0.363138 358:0.235381 359:0.110489 360:-0.00713448 361:-0.110391 362:-0.203206 363:-0.295464 364:-0.355917 365:-0.407656 366:-0.460848 367:-0.515658 368:-0.571729 369:-0.597404 370:-0.628361 371:-0.664026 372:-0.738812 373:-0.789986 374:-0.765909 375:-0.748987 376:-0.728498 377:-0.704644 378:-0.661254 379:-0.630939 380:-0.652392 381:-0.641369 382:-0.635197 383:-0.626773 384:-0.617518 385:-0.582959 386:-0.540599 387:-0.500151 388:-0.548275 389:-0.624135 390:-0.678865 391:-0.710962 392:-0.720809 393:-0.720702 394:-0.727504 395:-0.729589 396:-0.581271 397:-0.474535 398:-0.388898 399:-0.439415 400:-0.609074 401:-0.154183 402:-0.0829405 403:-0.0174861 404:0.0456438 405:0.106984 406:0.166808 407:0.231356 408:0.280298 409:0.315322 410:0.343701 411:0.369557 412:0.391149 413:0.410514 414:0.426724 415:0.445845 416:0.468231 417:0.478589 418:0.469725 419:0.459209 420:0.436596 421:0.459133 422:0.464957 423:0.481629 424:0.462442 425:0.42788 426:0.350219 427:0.22756 428:0.147908 429:0.040806 430:-0.0580021 431:-0.154168 432:-0.265111 433:-0.417061 434:-0.53375 435:-0.568141 436:-0.590767 437:-0.591987 438:-0.56132 439:-0.526895 440:-0.464964 441:-0.411718 442:-0.287859 443:-0.160166 444:-0.0369764 445:0.0788866 446:0.184413 447:0.252185 448:0.29548 449:0.340937 450:0.365941 451:0.401595 452:0.440734 453:0.50241 454:0.548047 455:0.570987 456:0.603235 457:0.616194 458:0.613633 459:0.601152 460:0.577914 461:0.547728 462:0.511103 463:0.463167 464:0.400875 465:0.326346 466:0.240233 467:0.141477 468:0.0326137 469:-0.0793287 470:-0.192945 471:-0.280437 472:-0.337875 473:-0.373939 474:-0.38235 475:-0.37079 476:-0.364369 477:-0.35861 478:-0.345812 479:-0.328904 480:-0.314965 481:-0.301854 482:-0.289199 483:-0.279133 484:-0.272207 485:-0.268539 486:-0.260993 487:-0.248356 488:-0.219994 489:-0.198653 490:-0.182134 491:-0.171161 492:-0.164096 493:-0.159982 494:-0.159829 495:-0.164005 496:-0.170741 497:-0.175367 498:-0.188305 499:-0.199145 500:-0.190347 501:0.991177 502:0.981052 503:0.979671 504:0.988139 505:0.982306 506:0.967771 507:0.969069 508:0.969947 509:0.969946 510:0.975798 511:0.974757 512:0.981036 513:0.975799 514:0.967264 515:0.96789 516:0.968521 517:0.968433 518:0.961675 519:0.962632 520:0.956099 521:0.959982 522:0.966229 523:0.972609 524:0.978386 525:0.756735 526:-0.926846 527:-1 528:-0.971408 529:-0.957577 530:-0.95491 531:-0.93347 532:-0.897278 533:-0.870077 534:-0.851761 535:-0.823172 536:-0.796019 537:-0.769853 538:-0.751708 539:-0.732982 540:-0.714561 541:-0.691715 542:-0.67362 543:-0.659926 544:-0.653539 545:-0.640757 546:-0.63829 547:-0.629757 548:-0.624114 549:-0.63306 550:-0.632362 551:-0.63202 552:-0.633817 553:-0.63849 554:-0.645618 555:-0.655016 556:-0.666017 557:-0.678818 558:-0.694104 559:-0.711462 560:-0.730859 561:-0.752105 562:-0.775231 563:-0.799949 564:-0.824015 565:-0.847839 566:-0.873269 567:-0.906138 568:-0.93573 569:-0.970967 570:-0.999919 571:0.372149 572:0.997237 573:0.993567 574:0.989467 575:0.97412 576:0.974786 577:0.979863 578:0.978237 579:0.988354 580:0.98594 581:0.991306 582:0.988578 583:1 584:1 585:0.998651 586:1 587:0.828643 588:-0.880282 589:-0.999406 590:-1 591:-0.998416 592:-1 593:-0.994713 594:-0.995069 595:-1 596:-0.986528 597:-0.987439 598:-0.987867 599:-0.983173 600:-0.975628 
0.3305901031389393 1:-0.180462 2:-0.322312 3:-0.327649 4:-0.256292 5:-0.153221 6:-0.0832538 7:-0.131257 8:-0.126172 9:-0.177029 10:-0.332925 11:-0.470749 12:-0.404426 13:-0.369935 14:-0.425011 15:-0.288435 16:-0.200854 17:-0.152405 18:-0.133737 19:-0.337497 20:-0.399509 21:-0.465211 22:-0.74686 23:-0.878796 24:-0.834046 25:-0.833679 26:-0.822405 27:-0.839993 28:-0.898247 29:-0.851337 30:-0.820806 31:-0.731957 32:-0.557246 33:-0.441443 34:-0.246208 35:0.343871 36:0.793543 37:0.387531 38:0.1768 39:0.14011 40:-0.00113968 41:0.136437 42:0.235524 43:0.479388 44:0.638974 45:0.811383 46:0.859245 47:0.919345 48:0.863428 49:0.655553 50:0.655314 51:0.718295 52:0.815594 53:0.926807 54:0.852093 55:0.724471 56:0.45734 57:0.227848 58:0.0718454 59:0.401667 60:0.393286 61:0.150347 62:-0.14737 63:-0.00952362 64:-0.222306 65:-0.357731 66:-0.439451 67:-0.448417 68:-0.400321 69:-0.726649 70:-0.654303 71:-0.678783 72:-0.818036 73:-0.878235 74:-0.765656 75:-0.530763 76:-0.270278 77:0.0268965 78:0.489173 79:0.598437 80:0.645499 81:0.537207 82:0.33864 83:0.403768 84:0.643615 85:0.650332 86:0.595933 87:0.595017 88:0.562584 89:0.33042 90:0.208028 91:0.247029 92:0.350251 93:0.439017 94:0.408616 95:0.257759 96:0.385029 97:0.41571 98:0.420495 99:0.111386 100:-0.0325915 101:0.950393 102:0.894943 103:0.920478 104:0.937537 105:0.901191 106:0.886513 107:0.907114 108:0.890454 109:0.878372 110:0.864085 111:0.843791 112:0.859433 113:0.849463 114:0.834811 115:0.831841 116:0.80421 117:0.75019 118:0.709121 119:0.644336 120:0.509485 121:0.393509 122:0.272934 123:0.196715 124:0.016738 125:-0.0933901 126:-0.148539 127:-0.210926 128:-0.302266 129:-0.448358 130:-0.591155 131:-0.658625 132:-0.729491 133:-0.761503 134:-0.681811 135:-0.668096 136:-0.803833 137:-0.894569 138:-0.946123 139:-0.906068 140:-0.730517 141:-0.661211 142:-0.529541 143:-0.432125 144:-0.340681 145:-0.126645 146:0.073424 147:0.252321 148:0.386687 149:0.42649 150:0.485049 151:0.591901 152:0.700275 153:0.72012 154:0.637156 155:0.506598 156:0.348884 157:0.2401 158:0.231234 159:0.143984 160:0.12023 161:0.150817 162:0.133166 163:0.142032 164:0.231656 165:0.379741 166:0.38069 167:0.341372 168:0.289568 169:0.232383 170:0.274555 171:0.296024 172:0.26638 173:0.280286 174:0.197626 175:0.101744 176:-0.0373464 177:-0.24499 178:-0.618208 179:-0.840001 180:-0.836027 181:-0.734492 182:-0.712481 183:-0.565188 184:-0.507794 185:-0.524102 186:-0.498707 187:-0.452506 188:-0.442052 189:-0.487382 190:-0.492471 191:-0.489558 192:-0.51271 193:-0.516671 194:-0.507197 195:-0.50631 196:-0.522438 197:-0.534885 198:-0.433996 199:-0.471305 200:-0.502312 201:0.373799 202:0.448357 203:0.502135 204:0.514381 205:0.522028 206:0.518797 207:0.50135 208:0.451624 209:0.348557 210:0.24435 211:0.23078 212:0.22474 213:0.218573 214:0.232496 215:0.224277 216:0.231133 217:0.245343 218:0.260394 219:0.273749 220:0.292972 221:0.214865 222:0.102793 223:-0.0493186 224:-0.126166 225:-0.109487 226:-0.16104 227:-0.19188 228:-0.27568 229:-0.50633 230:-0.532808 231:-0.682453 232:-0.774743 233:-0.824712 234:-0.698519 235:-0.486446 236:-0.241035 237:-0.209745 238:-0.0481813 239:0.131008 240:0.356466 241:0.538079 242:0.665465 243:0.684709 244:0.685939 245:0.764561 246:0.808044 247:0.76576 248:0.740985 249:0.705704 250:0.653324 251:0.630875 252:0.635859 253:0.665669 254:0.686644 255:0.683294 256:0.694638 257:0.637783 258:0.519205 259:0.433602 260:0.418804 261:0.328021 262:0.0999083 263:0.055597 264:-0.0449472 265:-0.0602673 266:-0.238897 267:-0.523692 268:-0.672992 269:-0.595601 270:-0.592603 271:-0.945943 272:-1 273:-1 274:-1 275:-0.787082 276:-0.59257 277:-0.313204 278:0.22026 279:0.467695 280:0.631788 281:0.781948 282:0.91419 283:1 284:1 285:1 286:1 287:1 288:1 289:1 290:0.941303 291:0.850727 292:0.764108 293:0.648857 294:0.530606 295:0.435053 296:0.364583 297:0.33509 298:0.321396 299:0.310554 300:0.289961 301:0.718673 302:0.673956 303:0.622507 304:0.576585 305:0.536513 306:0.500232 307:0.468493 308:0.439859 309:0.413375 310:0.386869 311:0.355751 312:0.318012 313:0.206182 314:0.0613953 315:-0.0714255 316:-0.180189 317:-0.259179 318:-0.324478 319:-0.382945 320:-0.445431 321:-0.504244 322:-0.541009 323:-0.562976 324:-0.578521 325:-0.600961 326:-0.616037 327:-0.627095 328:-0.632283 329:-0.627613 330:-0.627339 331:-0.624742 332:-0.630496 333:-0.631217 334:-0.625259 335:-0.590603 336:-0.546793 337:-0.516695 338:-0.513285 339:-0.510479 340:-0.524791 341:-0.545517 342:-0.554102 343:-0.529276 344:-0.487557 345:-0.445141 346:-0.399376 347:-0.348423 348:-0.291507 349:-0.226843 350:-0.115237 351:0.0597919 352:0.261803 353:0.419675 354:0.591623 355:0.722088 356:0.630093 357:0.525381 358:0.430508 359:0.341244 360:0.255461 361:0.173261 362:0.087334 363:-0.00394301 364:-0.0739073 365:-0.136873 366:-0.19728 367:-0.255954 368:-0.319536 369:-0.359908 370:-0.382835 371:-0.406716 372:-0.465346 373:-0.527556 374:-0.515504 375:-0.515306 376:-0.507352 377:-0.488676 378:-0.457414 379:-0.42371 380:-0.420363 381:-0.378291 382:-0.343025 383:-0.315664 384:-0.295394 385:-0.249906 386:-0.186814 387:-0.11336 388:-0.185244 389:-0.30318 390:-0.386426 391:-0.436245 392:-0.455847 393:-0.455085 394:-0.449141 395:-0.422507 396:-0.2581 397:-0.123584 398:-0.00766178 399:0.00819443 400:-0.10217 401:-0.281202 402:-0.212391 403:-0.150012 404:-0.0936024 405:-0.0435054 406:0.00309789 407:0.0611053 408:0.11367 409:0.162061 410:0.209455 411:0.257517 412:0.302694 413:0.343761 414:0.385584 415:0.432863 416:0.484152 417:0.525814 418:0.547962 419:0.566453 420:0.571315 421:0.604185 422:0.616967 423:0.634491 424:0.61933 425:0.584063 426:0.507704 427:0.390697 428:0.304614 429:0.195844 430:0.0921192 431:-0.0116927 432:-0.132767 433:-0.295334 434:-0.452301 435:-0.530581 436:-0.587139 437:-0.624579 438:-0.638137 439:-0.643425 440:-0.610467 441:-0.57658 442:-0.458961 443:-0.333422 444:-0.212827 445:-0.0975711 446:0.0130833 447:0.0918296 448:0.146311 449:0.198287 450:0.228435 451:0.270399 452:0.318724 453:0.389823 454:0.448249 455:0.487106 456:0.536127 457:0.565983 458:0.583735 459:0.59372 460:0.594495 461:0.588996 462:0.575725 463:0.550003 464:0.512618 465:0.464501 466:0.406243 467:0.336059 468:0.250448 469:0.153983 470:0.0408855 471:-0.082619 472:-0.211725 473:-0.324224 474:-0.375502 475:-0.423237 476:-0.470098 477:-0.506506 478:-0.51031 479:-0.500921 480:-0.486668 481:-0.468188 482:-0.44629 483:-0.42239 484:-0.398315 485:-0.374081 486:-0.343112 487:-0.304358 488:-0.248016 489:-0.199196 490:-0.157554 491:-0.122287 492:-0.0914749 493:-0.0640506 494:-0.0416792 495:-0.024056 496:-0.00953958 497:0.00733623 498:0.00963737 499:0.00694934 500:0.0155199 501:-0.988943 502:-0.989047 503:-0.989199 504:-0.989228 505:-0.990099 506:-0.991975 507:-0.993118 508:-0.993297 509:-0.994879 510:-0.993414 511:-0.991838 512:-0.992837 513:-0.995082 514:-0.997701 515:-0.999857 516:-1 517:-1 518:-1 519:0.458318 520:1 521:1 522:1 523:1 524:0.999277 525:-0.272448 526:-1 527:-0.996061 528:-0.970189 529:-0.956889 530:-0.95379 531:-0.932896 532:-0.899032 533:-0.875525 534:-0.861723 535:-0.840843 536:-0.81908 537:-0.797005 538:-0.782256 539:-0.76606 540:-0.749031 541:-0.726479 542:-0.707891 543:-0.693766 544:-0.687202 545:-0.674252 546:-0.671395 547:-0.66172 548:-0.653685 549:-0.659312 550:-0.65438 551:-0.649181 552:-0.64573 553:-0.64467 554:-0.645291 555:-0.647442 556:-0.650824 557:-0.656447 558:-0.664484 559:-0.674796 560:-0.687438 561:-0.702302 562:-0.719981 563:-0.740633 564:-0.760983 565:-0.781902 566:-0.805126 567:-0.835212 568:-0.861907 569:-0.89621 570:-0.927089 571:-0.951062 572:-0.98778 573:-0.99207 574:0.457474 575:0.978449 576:0.960127 577:0.953762 578:0.950901 579:0.964577 580:0.966633 581:0.976783 582:0.978958 583:0.994737 584:0.998512 585:1 586:-0.0941507 587:-1 588:-0.997959 589:-0.992358 590:-0.991477 591:-0.988165 592:-0.988031 593:-0.981306 594:-0.980942 595:-0.98585 596:-0.972384 597:-0.972624 598:-0.97157 599:-0.964712 600:-0.954912 
0.4927922942608863 1:-0.0878277 2:-0.231832 3:-0.175621 4:-0.0406015 5:0.0126366 6:0.0355105 7:-0.064748 8:-0.0352075 9:-0.0346574 10:-0.214483 11:-0.416899 12:-0.4311 13:-0.453622 14:-0.530868 15:-0.367733 16:-0.26503 17:-0.265324 18:-0.434661 19:-0.890024 20:-1 21:-0.968038 22:-0.958154 23:-0.949398 24:-0.834447 25:-0.823108 26:-0.895521 27:-0.777796 28:-0.689725 29:-0.582025 30:-0.223737 31:0.492466 32:0.844413 33:0.185296 34:-0.348281 35:-0.608602 36:-0.463209 37:-0.147703 38:0.239979 39:1 40:0.939281 41:0.841612 42:0.644219 43:0.693317 44:0.768576 45:0.777584 46:0.673095 47:0.645829 48:0.533198 49:0.138497 50:0.0679032 51:0.14637 52:0.0983576 53:0.191421 54:-0.0126139 55:-0.0756271 56:-0.190214 57:-0.330159 58:-0.411628 59:-0.114298 60:-0.322772 61:-0.366352 62:-0.407527 63:-0.41955 64:-0.890927 65:-0.963656 66:-0.710388 67:-0.363923 68:0.0870683 69:-0.138952 70:-0.046512 71:-0.106595 72:-0.398084 73:-0.312571 74:-0.303397 75:0.136908 76:0.410342 77:0.431101 78:0.178662 79:-0.294573 80:-0.311339 81:-0.214862 82:-0.110379 83:0.251122 84:0.753125 85:0.772852 86:0.573427 87:0.454475 88:0.432668 89:0.371187 90:0.359272 91:0.390024 92:0.391183 93:0.305722 94:0.10171 95:-0.129442 96:-0.219499 97:-0.440269 98:-0.456936 99:-0.599624 100:-0.307036 101:0.223646 102:0.29875 103:0.406395 104:0.498285 105:0.556078 106:0.615933 107:0.650968 108:0.671745 109:0.686791 110:0.69608 111:0.690621 112:0.70189 113:0.678923 114:0.655659 115:0.645946 116:0.613691 117:0.552767 118:0.485132 119:0.390417 120:0.249286 121:0.138147 122:0.0337091 123:-0.0198117 124:-0.213101 125:-0.324423 126:-0.356015 127:-0.387769 128:-0.462104 129:-0.602414 130:-0.70643 131:-0.651744 132:-0.600522 133:-0.507232 134:-0.372625 135:-0.35049 136:-0.341757 137:-0.171219 138:-0.1144 139:-0.0693337 140:0.0336841 141:0.0822431 142:0.145182 143:0.19584 144:0.220969 145:0.288804 146:0.388681 147:0.503192 148:0.611495 149:0.628078 150:0.639089 151:0.688474 152:0.72889 153:0.662655 154:0.514658 155:0.37394 156:0.247891 157:0.194618 158:0.240365 159:0.217756 160:0.253192 161:0.360392 162:0.408334 163:0.430231 164:0.512567 165:0.6175 166:0.465439 167:0.26844 168:0.00607957 169:-0.21105 170:-0.27364 171:-0.287901 172:-0.254158 173:-0.225414 174:-0.324474 175:-0.409962 176:-0.473248 177:-0.556831 178:-0.745064 179:-0.839064 180:-0.775212 181:-0.643124 182:-0.584256 183:-0.42503 184:-0.374555 185:-0.435722 186:-0.449721 187:-0.409626 188:-0.375723 189:-0.383034 190:-0.337817 191:-0.279882 192:-0.234432 193:-0.18485 194:-0.156026 195:-0.127896 196:-0.0832937 197:-0.019106 198:0.0805406 199:0.0430703 200:-0.0676301 201:0.307129 202:0.471458 203:0.588966 204:0.638181 205:0.676059 206:0.680503 207:0.639908 208:0.541783 209:0.339613 210:0.117704 211:0.0300087 212:0.00881776 213:0.0162985 214:0.0060644 215:-0.0400737 216:-0.0598601 217:-0.0587982 218:-0.0380658 219:0.00559944 220:0.0497096 221:-0.0589487 222:-0.224117 223:-0.446192 224:-0.577488 225:-0.563657 226:-0.614242 227:-0.609627 228:-0.646199 229:-0.862252 230:-0.71715 231:-0.466998 232:-0.089891 233:0.188887 234:0.401214 235:0.525258 236:0.630449 237:0.66964 238:0.683832 239:0.689229 240:0.742853 241:0.79698 242:0.822374 243:0.770959 244:0.713523 245:0.723494 246:0.711641 247:0.614783 248:0.563124 249:0.508879 250:0.414752 251:0.318257 252:0.240542 253:0.2078 254:0.148668 255:0.0179517 256:-0.0500604 257:-0.0886757 258:-0.307957 259:-0.601502 260:-0.563523 261:-0.623482 262:-1 263:-1 264:-0.923001 265:-0.462786 266:-0.213845 267:-0.142858 268:0.0666424 269:0.403592 270:0.584251 271:0.572378 272:0.589456 273:0.644114 274:0.614519 275:0.560944 276:0.485445 277:0.366025 278:0.392782 279:0.362836 280:0.349379 281:0.360786 282:0.371814 283:0.379045 284:0.360619 285:0.352605 286:0.349349 287:0.365907 288:0.446455 289:0.517688 290:0.546648 291:0.553064 292:0.567881 293:0.567713 294:0.557251 295:0.564455 296:0.60387 297:0.674861 298:0.761302 299:0.813456 300:0.803315 301:0.15236 302:0.182814 303:0.19734 304:0.215404 305:0.231518 306:0.241101 307:0.243774 308:0.244592 309:0.245502 310:0.239063 311:0.216743 312:0.176914 313:0.0676 314:-0.0751319 315:-0.207757 316:-0.319018 317:-0.410103 318:-0.501459 319:-0.58432 320:-0.663448 321:-0.726153 322:-0.750765 323:-0.761433 324:-0.761691 325:-0.771388 326:-0.784522 327:-0.795459 328:-0.800396 329:-0.788555 330:-0.757599 331:-0.693205 332:-0.632169 333:-0.598181 334:-0.609073 335:-0.652563 336:-0.680909 337:-0.67305 338:-0.639508 339:-0.572247 340:-0.516963 341:-0.483314 342:-0.4519 343:-0.398018 344:-0.334917 345:-0.27716 346:-0.223535 347:-0.1693 348:-0.110844 349:-0.0510364 350:0.0516201 351:0.206584 352:0.358824 353:0.426939 354:0.469442 355:0.438957 356:0.221912 357:0.0215428 358:-0.147603 359:-0.288124 360:-0.398271 361:-0.475222 362:-0.524938 363:-0.5681 364:-0.579945 365:-0.584941 366:-0.584911 367:-0.569718 368:-0.546695 369:-0.516936 370:-0.508776 371:-0.528619 372:-0.603233 373:-0.674734 374:-0.690288 375:-0.703351 376:-0.701603 377:-0.70213 378:-0.696744 379:-0.709665 380:-0.768436 381:-0.77098 382:-0.763601 383:-0.746898 384:-0.728172 385:-0.689279 386:-0.651368 387:-0.618243 388:-0.650565 389:-0.707786 390:-0.754536 391:-0.785777 392:-0.801527 393:-0.815628 394:-0.845099 395:-0.86588 396:-0.713525 397:-0.603805 398:-0.503657 399:-0.527997 400:-0.660146 401:-0.467969 402:-0.35256 403:-0.243034 404:-0.142441 405:-0.0506845 406:0.033963 407:0.123698 408:0.201415 409:0.266825 410:0.32385 411:0.375207 412:0.419247 413:0.458745 414:0.49305 415:0.525581 416:0.553539 417:0.559976 418:0.538406 419:0.511508 420:0.464153 421:0.448722 422:0.404558 423:0.367331 424:0.282656 425:0.178618 426:0.0193592 427:-0.189813 428:-0.312528 429:-0.46314 430:-0.578763 431:-0.642674 432:-0.678591 433:-0.734157 434:-0.748646 435:-0.691957 436:-0.639081 437:-0.57431 438:-0.495686 439:-0.422771 440:-0.328042 441:-0.248249 442:-0.114278 443:0.0144684 444:0.134969 445:0.247696 446:0.353865 447:0.423058 448:0.467758 449:0.51483 450:0.535572 451:0.561672 452:0.589089 453:0.636599 454:0.658474 455:0.645552 456:0.630309 457:0.583022 458:0.510229 459:0.416858 460:0.304835 461:0.17836 462:0.0371515 463:-0.116667 464:-0.263358 465:-0.377856 466:-0.460489 467:-0.527105 468:-0.573062 469:-0.596493 470:-0.602815 471:-0.59693 472:-0.585996 473:-0.570635 474:-0.540479 475:-0.521185 476:-0.516081 477:-0.523567 478:-0.530288 479:-0.535203 480:-0.54415 481:-0.555268 482:-0.567599 483:-0.582206 484:-0.600585 485:-0.622533 486:-0.637913 487:-0.641342 488:-0.61894 489:-0.602602 490:-0.591662 491:-0.587717 492:-0.590124 493:-0.598526 494:-0.612496 495:-0.629301 496:-0.645084 497:-0.654729 498:-0.651407 499:-0.629024 500:-0.582987 501:-0.994015 502:-0.994555 503:-0.995002 504:-0.99513 505:-0.996066 506:-0.997856 507:-0.998547 508:-0.998437 509:-1 510:-0.99891 511:-0.998092 512:-1 513:0.0337252 514:1 515:1 516:1 517:0.99895 518:0.991218 519:0.993639 520:0.989097 521:0.995064 522:0.697601 523:-1 524:-1 525:-0.984121 526:-0.965303 527:-0.950496 528:-0.913223 529:-0.888004 530:-0.871207 531:-0.841807 532:-0.804593 533:-0.781483 534:-0.769251 535:-0.749213 536:-0.734262 537:-0.722893 538:-0.720736 539:-0.718276 540:-0.714005 541:-0.702033 542:-0.691371 543:-0.682511 544:-0.679254 545:-0.66851 546:-0.667085 547:-0.658717 548:-0.65248 549:-0.660898 550:-0.660476 551:-0.662802 552:-0.670256 553:-0.683774 554:-0.702935 555:-0.727626 556:-0.756449 557:-0.788036 558:-0.82086 559:-0.853623 560:-0.885818 561:-0.917733 562:-0.9502 563:-0.981816 564:-0.0977588 565:0.973654 566:0.948995 567:0.931523 568:0.924142 569:0.926952 570:0.937901 571:0.954322 572:0.971919 573:0.989074 574:1 575:0.991268 576:0.993362 577:1 578:1 579:-0.702743 580:-0.99597 581:-0.991127 582:-0.989887 583:-0.991795 584:-0.985334 585:-0.98435 586:-0.98247 587:-0.973392 588:-0.971555 589:-0.966504 590:-0.966863 591:-0.964971 592:-0.96709 593:-0.96356 594:-0.966941 595:-0.976894 596:-0.971324 597:-0.981681 598:-0.99332 599:-1 600:-1 
0.1335282466055598 1:-0.166795 2:-0.281729 3:-0.268531 4:-0.214954 5:-0.142672 6:-0.0647549 7:-0.0939768 8:-0.074453 9:-0.116192 10:-0.157458 11:-0.206402 12:-0.179137 13:-0.22138 14:-0.334879 15:-0.264967 16:-0.19369 17:-0.13184 18:-0.1416 19:-0.348298 20:-0.366324 21:-0.369223 22:-0.650311 23:-0.782433 24:-0.673374 25:-0.63953 26:-0.580428 27:-0.758868 28:-0.952746 29:-0.928721 30:-0.867299 31:-0.803219 32:-0.737623 33:-0.648463 34:-0.449016 35:0.151855 36:0.984817 37:0.862912 38:0.805676 39:0.69472 40:-0.0429808 41:-0.23407 42:0.0324634 43:0.552999 44:0.901437 45:1 46:0.93901 47:0.922764 48:0.868013 49:0.722655 50:0.731233 51:0.747467 52:0.782139 53:0.878965 54:0.780241 55:0.63533 56:0.410956 57:0.242211 58:0.0984627 59:0.385274 60:0.28762 61:0.0771489 62:-0.150994 63:0.00770883 64:-0.20453 65:-0.294609 66:-0.336025 67:-0.369424 68:-0.349071 69:-0.718581 70:-0.711065 71:-0.908957 72:-0.932488 73:-0.592429 74:-0.37898 75:0.0992535 76:0.348339 77:0.426381 78:0.353049 79:0.0841054 80:0.108304 81:0.128682 82:0.0939177 83:0.305134 84:0.662891 85:0.577993 86:0.298645 87:0.207712 88:0.264074 89:0.317451 90:0.446246 91:0.591422 92:0.630686 93:0.529336 94:0.301094 95:0.0653368 96:0.101774 97:0.11788 98:0.216311 99:0.0218635 100:-0.0232791 101:0.176519 102:0.170521 103:0.196371 104:0.237204 105:0.254389 106:0.300951 107:0.328022 108:0.36182 109:0.407007 110:0.461929 111:0.519108 112:0.606322 113:0.656924 114:0.689557 115:0.697554 116:0.670263 117:0.623357 118:0.572835 119:0.505578 120:0.37802 121:0.270213 122:0.151178 123:0.0872449 124:-0.0615411 125:-0.109064 126:-0.0998966 127:-0.094236 128:-0.106608 129:-0.146995 130:-0.167816 131:-0.19454 132:-0.293548 133:-0.407252 134:-0.492007 135:-0.682584 136:-0.893225 137:-0.982021 138:-1 139:-1 140:-0.864615 141:-0.800679 142:-0.629327 143:-0.478869 144:-0.370149 145:-0.159445 146:0.0227932 147:0.185657 148:0.308791 149:0.334298 150:0.364069 151:0.45983 152:0.557363 153:0.57292 154:0.502768 155:0.399858 156:0.278991 157:0.223258 158:0.263613 159:0.21215 160:0.202714 161:0.254828 162:0.250758 163:0.268821 164:0.36795 165:0.537119 166:0.54023 167:0.488163 168:0.437538 169:0.360193 170:0.355948 171:0.34589 172:0.331726 173:0.238161 174:0.0259122 175:-0.158254 176:-0.319986 177:-0.473613 178:-0.677328 179:-0.784224 180:-0.73781 181:-0.613656 182:-0.561495 183:-0.412546 184:-0.370961 185:-0.422632 186:-0.426219 187:-0.404935 188:-0.433562 189:-0.484304 190:-0.448212 191:-0.391719 192:-0.365985 193:-0.342542 194:-0.329762 195:-0.340486 196:-0.335315 197:-0.301505 198:-0.17969 199:-0.191422 200:-0.216763 201:0.291326 202:0.392891 203:0.451495 204:0.45943 205:0.477364 206:0.498619 207:0.501241 208:0.464952 209:0.341691 210:0.203695 211:0.18412 212:0.208016 213:0.239759 214:0.259482 215:0.245618 216:0.251362 217:0.26432 218:0.281139 219:0.295181 220:0.309792 221:0.229181 222:0.115911 223:-0.0560752 224:-0.151286 225:-0.133278 226:-0.176726 227:-0.202173 228:-0.29036 229:-0.541115 230:-0.575054 231:-0.737834 232:-0.79403 233:-0.787526 234:-0.645108 235:-0.549452 236:-0.445653 237:-0.325268 238:-0.0340585 239:0.166533 240:0.359767 241:0.515986 242:0.636713 243:0.662673 244:0.665689 245:0.737942 246:0.769904 247:0.729768 248:0.737924 249:0.741726 250:0.710491 251:0.690441 252:0.693309 253:0.73016 254:0.753298 255:0.744454 256:0.740913 257:0.665235 258:0.534917 259:0.434347 260:0.397413 261:0.28822 262:0.0374243 263:-0.0179346 264:-0.130968 265:-0.144841 266:-0.331859 267:-0.635018 268:-0.819841 269:-0.75696 270:-0.692627 271:-0.85735 272:-0.649488 273:-0.339535 274:-0.399003 275:-0.183063 276:0.153116 277:0.398067 278:0.608905 279:0.651093 280:0.623123 281:0.641871 282:0.673572 283:0.699549 284:0.679978 285:0.651795 286:0.614995 287:0.561725 288:0.558765 289:0.564127 290:0.538685 291:0.495834 292:0.458019 293:0.407805 294:0.358098 295:0.316963 296:0.283408 297:0.286514 298:0.298005 299:0.307504 300:0.314615 301:0.0231295 302:0.0457643 303:0.042564 304:0.0357988 305:0.0344443 306:0.0397709 307:0.0460592 308:0.0477458 309:0.0439255 310:0.0435262 311:0.036816 312:0.0164933 313:-0.0624888 314:-0.178304 315:-0.292352 316:-0.389174 317:-0.455052 318:-0.510305 319:-0.558467 320:-0.604683 321:-0.645364 322:-0.65831 323:-0.665133 324:-0.666019 325:-0.672112 326:-0.675449 327:-0.684473 328:-0.69788 329:-0.708521 330:-0.720111 331:-0.728749 332:-0.750353 333:-0.76936 334:-0.777459 335:-0.765756 336:-0.719811 337:-0.655128 338:-0.619002 339:-0.597826 340:-0.616691 341:-0.657492 342:-0.677221 343:-0.643577 344:-0.582411 345:-0.52624 346:-0.475725 347:-0.423691 348:-0.366667 349:-0.300668 350:-0.189208 351:-0.018759 352:0.174483 353:0.33072 354:0.500355 355:0.626303 356:0.540198 357:0.445638 358:0.353612 359:0.256412 360:0.153019 361:0.0514213 362:-0.0484958 363:-0.152117 364:-0.231771 365:-0.29917 366:-0.356496 367:-0.408193 368:-0.46618 369:-0.500205 370:-0.520873 371:-0.560934 372:-0.644947 373:-0.689907 374:-0.665055 375:-0.647686 376:-0.636761 377:-0.636712 378:-0.61845 379:-0.602214 380:-0.621067 381:-0.58817 382:-0.553636 383:-0.520677 384:-0.492462 385:-0.448873 386:-0.408694 387:-0.371074 388:-0.432709 389:-0.514651 390:-0.563424 391:-0.583854 392:-0.582139 393:-0.573539 394:-0.576434 395:-0.570567 396:-0.420464 397:-0.301236 398:-0.195026 399:-0.198343 400:-0.316812 401:-0.278029 402:-0.206265 403:-0.141584 404:-0.0842132 405:-0.0328883 406:0.0160464 407:0.0763523 408:0.131105 409:0.179186 410:0.224666 411:0.270501 412:0.31499 413:0.360339 414:0.406711 415:0.458448 416:0.512647 417:0.555985 418:0.581578 419:0.605779 420:0.61589 421:0.646235 422:0.656246 423:0.662393 424:0.639352 425:0.598696 426:0.519265 427:0.399197 428:0.307965 429:0.193492 430:0.0822577 431:-0.0304002 432:-0.153496 433:-0.309657 434:-0.454137 435:-0.538077 436:-0.614684 437:-0.651086 438:-0.653426 439:-0.64657 440:-0.607821 441:-0.572215 442:-0.452094 443:-0.322724 444:-0.198674 445:-0.0814957 446:0.0282211 447:0.106538 448:0.163334 449:0.220247 450:0.255396 451:0.301305 452:0.35261 453:0.427362 454:0.488955 455:0.53002 456:0.581235 457:0.614922 458:0.636574 459:0.648797 460:0.649444 461:0.641121 462:0.623423 463:0.591764 464:0.54543 465:0.485026 466:0.410327 467:0.320872 468:0.215433 469:0.0949574 470:-0.0393072 471:-0.170167 472:-0.283762 473:-0.347255 474:-0.381305 475:-0.40373 476:-0.412684 477:-0.410041 478:-0.39749 479:-0.377653 480:-0.362681 481:-0.350439 482:-0.338728 483:-0.327784 484:-0.319458 485:-0.314534 486:-0.305406 487:-0.290695 488:-0.257747 489:-0.231251 490:-0.210177 491:-0.195294 492:-0.184937 493:-0.178655 494:-0.176969 495:-0.179145 496:-0.1845 497:-0.189724 498:-0.206206 499:-0.224677 500:-0.227563 501:-0.985954 502:-0.986322 503:-0.986001 504:-0.985195 505:-0.985111 506:-0.985852 507:-0.985155 508:-0.983577 509:-0.983804 510:-0.981765 511:-0.980329 512:-0.981865 513:-0.984882 514:-0.988661 515:-0.99187 516:-0.992841 517:-0.993297 518:-0.992954 519:-1 520:-1 521:-1 522:-0.99376 523:-0.99031 524:-0.996422 525:-0.987932 526:-0.978432 527:-0.975398 528:-0.952284 529:-0.943787 530:-0.947052 531:-0.932548 532:-0.902683 533:-0.87992 534:-0.862672 535:-0.833028 536:-0.803768 537:-0.77647 538:-0.758227 539:-0.739462 540:-0.719924 541:-0.695466 542:-0.676725 543:-0.663921 544:-0.659101 545:-0.647841 546:-0.646243 547:-0.637277 548:-0.629279 549:-0.633789 550:-0.626816 551:-0.619108 552:-0.612997 553:-0.608781 554:-0.606253 555:-0.605821 556:-0.607714 557:-0.612815 558:-0.622083 559:-0.635646 560:-0.653104 561:-0.673983 562:-0.698 563:-0.724812 564:-0.750839 565:-0.776612 566:-0.803431 567:-0.835676 568:-0.864099 569:-0.899172 570:-0.928454 571:-0.948285 572:-0.978898 573:-0.97293 574:-0.994634 575:-1 576:-1 577:-1 578:-0.982646 579:-0.985 580:-0.973444 581:-0.969802 582:-0.969638 583:-0.972265 584:-0.966703 585:-0.967016 586:-0.966891 587:-0.959409 588:-0.958382 589:-0.95377 590:-0.954628 591:-0.952997 592:-0.954991 593:-0.950606 594:-0.952399 595:-0.958937 596:-0.947428 597:-0.949794 598:-0.951293 599:-0.947289 600:-0.940485 
