svm_type c_svc
kernel_type rbf
gamma 0.0078125
nr_class 2
total_sv 21
rho -0.616806
label 0 1
nr_sv 14 7
SV
0.0008532314879084776 0:-0.0491508 1:-0.134782 2:0.105271 3:0.315757 4:0.50121 5:0.702689 6:0.715609 7:0.780522 8:0.770561 9:0.668048 10:0.716521 11:0.758272 12:0.784136 13:0.827926 14:0.850111 15:0.763775 16:0.748884 17:0.814074 18:0.828762 19:0.756178 20:0.629198 21:0.383168 22:0.192779 23:0.109478 24:-0.0527002 25:-0.147421 26:-0.0982723 27:-0.0934487 28:-0.0192089 29:-0.320725 30:-0.477669 31:-0.516613 32:-0.561013 33:-0.691643 34:-1 35:-1 36:-0.376399 37:-0.127606 38:0.235278 39:0.356902 40:0.657114 41:0.767371 42:0.521752 43:0.375601 44:0.232018 45:0.287281 46:0.3645 47:0.467237 48:0.600409 49:0.628434 50:0.751978 51:0.87822 52:0.855018 53:0.700522 54:0.413276 55:0.133087 56:0.0620528 57:-0.0723548 58:-0.125222 59:-0.221229 60:-0.254946 61:-0.220186 62:-0.364165 63:-0.517612 64:-0.656215 65:-0.650891 66:-0.554303 67:-0.436402 68:-0.879419 69:-0.68883 70:-0.22104 71:0.399643 72:1 73:1 74:1 75:0.241764 76:-0.308857 77:0.293704 78:1 79:0.897032 80:0.418013 81:0.176795 82:0.376802 83:0.671266 84:0.546987 85:0.462383 86:0.483958 87:0.424484 88:0.247648 89:0.0284709 90:-0.0493478 91:-0.0796045 92:-0.14424 93:-0.18519 94:-0.254011 95:-0.470435 96:-0.664588 97:-0.666005 98:-0.936963 99:-0.726555 100:-0.385417 101:-0.513598 102:-0.609711 103:-0.670215 104:-0.679943 105:-0.621911 106:-0.611387 107:-0.614579 108:-0.601746 109:-0.606965 110:-0.559904 111:-0.449111 112:-0.3353 113:-0.198198 114:-0.0839417 115:0.0140497 116:0.147173 117:0.313065 118:0.470867 119:0.622831 120:0.703137 121:0.748302 122:0.784498 123:0.830137 124:0.85422 125:0.878142 126:0.955045 127:0.979433 128:0.988941 129:1 130:1 131:1 132:1 133:1 134:1 135:1 136:1 137:0.509348 138:0.0500781 139:-0.339174 140:-1 141:-1 142:-0.884893 143:-0.499864 144:-0.165282 145:0.134622 146:0.405502 147:0.581495 148:0.703506 149:0.826485 150:0.914389 151:0.970452 152:0.967066 153:0.977595 154:0.970192 155:0.932255 156:0.878729 157:0.807879 158:0.696371 159:0.606274 160:0.493345 161:0.376796 162:0.258597 163:0.151306 164:0.00257075 165:-0.197231 166:-0.395127 167:-0.618295 168:-0.787293 169:-0.895729 170:-0.973866 171:-1 172:-1 173:-1 174:-1 175:-1 176:-1 177:-1 178:-0.896673 179:-0.630856 180:-0.323277 181:-0.131742 182:0.0656032 183:0.236165 184:0.241362 185:0.269868 186:0.27247 187:0.304734 188:0.325138 189:0.383545 190:0.404706 191:0.377441 192:0.368483 193:0.402667 194:0.399381 195:0.400902 196:0.435398 197:0.485672 198:0.461007 199:0.258488 200:-0.735771 201:-0.567445 202:-0.418849 203:-0.277696 204:-0.0902486 205:0.0800347 206:0.249309 207:0.392976 208:0.471185 209:0.512495 210:0.581241 211:0.600316 212:0.556527 213:0.454157 214:0.351359 215:0.232644 216:0.177969 217:0.132406 218:0.0789541 219:0.0685994 220:0.0566627 221:0.0413866 222:0.0343229 223:0.0432411 224:0.0513846 225:0.0545361 226:0.0408502 227:-0.0252605 228:-0.238782 229:-0.295806 230:-0.476507 231:-0.624999 232:-0.783616 233:-0.868512 234:-1 235:-1 236:-1 237:-0.592928 238:-0.246488 239:0.0956931 240:0.383341 241:0.597153 242:0.742906 243:0.848869 244:0.946543 245:0.984827 246:0.966117 247:0.943257 248:0.901124 249:0.83125 250:0.765114 251:0.709809 252:0.682956 253:0.670119 254:0.648825 255:0.591577 256:0.480467 257:0.340648 258:0.285354 259:0.29485 260:0.18332 261:0.116679 262:0.0739659 263:0.00196006 264:-0.0495735 265:-0.271841 266:-0.583671 267:-0.778786 268:-0.892077 269:-0.921719 270:-1 271:-1 272:-0.968055 273:-0.273553 274:0.615144 275:1 276:1 277:1 278:1 279:1 280:1 281:0.919823 282:0.888891 283:0.814256 284:0.696603 285:0.611845 286:0.553436 287:0.537705 288:0.46807 289:0.374606 290:0.265018 291:0.141939 292:0.0835549 293:0.0423139 294:-0.0367224 295:-0.1146 296:-0.13331 297:-0.13854 298:-0.133241 299:-0.104601 
0.2765650327120309 0:0.472771 1:0.19164 2:0.294318 3:0.462546 4:0.564942 5:0.711812 6:0.72733 7:0.827253 8:0.885516 9:0.837464 10:0.936831 11:0.856517 12:0.748075 13:0.711775 14:0.669298 15:0.587459 16:0.655557 17:0.659455 18:0.362877 19:0.0273953 20:-0.167543 21:-0.234026 22:-0.199949 23:-0.269046 24:-0.595708 25:-0.885086 26:-0.926579 27:-0.870262 28:-0.759991 29:-1 30:-1 31:-0.574114 32:-0.150402 33:0.557302 34:1 35:0.394411 36:0.154413 37:0.101484 38:0.273495 39:0.316403 40:0.515953 41:0.417131 42:0.141317 43:0.149396 44:0.156357 45:0.30807 46:0.306882 47:0.135627 48:-0.186969 49:-0.257887 50:-0.497467 51:-0.658982 52:-0.610413 53:-0.655576 54:-0.705902 55:-0.840238 56:-0.926752 57:-0.909945 58:-0.915303 59:-0.901358 60:-0.728193 61:-0.300987 62:0.204206 63:1 64:1 65:1 66:0.47119 67:0.185157 68:-0.929191 69:-1 70:-0.507377 71:-0.159085 72:-0.0576934 73:-0.101936 74:0.269738 75:0.441483 76:0.409397 77:0.351714 78:0.21604 79:0.266237 80:0.164052 81:-0.0285974 82:0.00791393 83:0.18244 84:0.0940603 85:-0.0128411 86:0.0453906 87:0.126722 88:0.136779 89:0.0282311 90:0.00576463 91:-0.000750127 92:-0.108662 93:-0.244568 94:-0.323655 95:-0.392901 96:-0.401354 97:-0.24822 98:-0.507323 99:-0.552045 100:-0.677235 101:-0.828677 102:-0.8938 103:-0.923771 104:-0.922012 105:-0.780138 106:-0.658105 107:-0.564349 108:-0.446904 109:-0.330449 110:-0.195862 111:-0.0553348 112:0.07583 113:0.207212 114:0.311144 115:0.431956 116:0.582637 117:0.743762 118:0.883976 119:0.979982 120:1 121:1 122:1 123:1 124:0.967434 125:0.947151 126:0.981964 127:0.959222 128:0.860489 129:0.711433 130:0.605646 131:0.456721 132:0.116688 133:-0.104551 134:-0.106367 135:-0.0110824 136:0.230062 137:0.354672 138:0.545617 139:0.753003 140:0.929327 141:0.987453 142:0.999582 143:1 144:1 145:1 146:1 147:0.955312 148:0.918209 149:0.860536 150:0.72051 151:0.601154 152:0.507038 153:0.423412 154:0.246076 155:-0.0293303 156:-0.320708 157:-0.618685 158:-0.994251 159:-1 160:-1 161:-1 162:-1 163:-1 164:-1 165:-0.886988 166:-0.687315 167:-0.574889 168:-0.457533 169:-0.290398 170:-0.142206 171:-0.0078426 172:0.118395 173:0.143286 174:0.112056 175:0.00622355 176:-0.143645 177:-0.319561 178:-0.423446 179:-0.386323 180:-0.270932 181:-0.199606 182:-0.0663185 183:0.0658228 184:0.0677773 185:0.0876404 186:0.0406105 187:-0.0097162 188:-0.0428322 189:0.0469793 190:0.12155 191:0.147942 192:0.181256 193:0.243115 194:0.254828 195:0.275128 196:0.35974 197:0.393485 198:0.363924 199:0.283745 200:-0.413733 201:-0.206228 202:-0.0174861 203:0.137181 204:0.317412 205:0.448714 206:0.542253 207:0.54524 208:0.497673 209:0.33795 210:0.257361 211:0.188947 212:0.121912 213:0.00679604 214:-0.0991788 215:-0.197533 216:-0.255074 217:-0.330981 218:-0.381849 219:-0.374595 220:-0.375063 221:-0.389156 222:-0.406455 223:-0.407833 224:-0.407326 225:-0.413949 226:-0.430534 227:-0.513508 228:-0.803394 229:-0.81019 230:-0.761471 231:-0.464771 232:-0.0662344 233:0.363554 234:0.672252 235:0.852854 236:0.897746 237:0.908914 238:0.868772 239:0.846503 240:0.860808 241:0.85314 242:0.79189 243:0.746888 244:0.72267 245:0.658315 246:0.543688 247:0.433343 248:0.425109 249:0.346237 250:0.272245 251:0.225028 252:0.227232 253:0.215449 254:0.133512 255:-0.0858538 256:-0.537888 257:-0.796381 258:-0.867002 259:-0.934487 260:-0.893493 261:-0.721047 262:-0.584005 263:-0.503932 264:-0.30761 265:-0.137533 266:0.105263 267:0.352479 268:0.519742 269:0.618092 270:0.708392 271:0.724988 272:0.67143 273:0.620668 274:0.703878 275:0.678604 276:0.557564 277:0.620079 278:0.595038 279:0.662831 280:0.707075 281:0.69746 282:0.697901 283:0.633935 284:0.5473 285:0.464208 286:0.39199 287:0.366505 288:0.303059 289:0.257281 290:0.218207 291:0.181727 292:0.204098 293:0.211508 294:0.171106 295:0.127806 296:0.13999 297:0.164804 298:0.196622 299:0.218927 
0.1407635636722339 0:0.620183 1:0.571474 2:0.592864 3:0.625804 4:0.597946 5:0.705472 6:0.712554 7:0.815531 8:0.893029 9:0.816667 10:0.802438 11:0.782058 12:0.754104 13:0.71234 14:0.666481 15:0.558541 16:0.516284 17:0.558464 18:0.564599 19:0.496735 20:0.414699 21:0.334579 22:0.263597 23:0.137081 24:-0.12809 25:-0.37503 26:-0.491839 27:-0.532997 28:-0.565179 29:-0.772031 30:-0.793941 31:-0.777611 32:-0.776688 33:-0.975973 34:-0.93342 35:-0.286806 36:0.52985 37:0.433196 38:0.0503224 39:-0.51008 40:-0.478298 41:-0.428014 42:-0.173328 43:0.0585436 44:0.0510628 45:0.195418 46:0.327628 47:0.39493 48:0.359786 49:0.300085 50:0.350383 51:0.487236 52:0.553057 53:0.440274 54:0.189216 55:-0.0737572 56:-0.146408 57:-0.359687 58:-0.520402 59:-0.598168 60:-0.478814 61:-0.303011 62:-0.557402 63:-0.867979 64:-0.877295 65:-0.815943 66:-0.679364 67:-0.602295 68:-1 69:-0.847439 70:-0.557126 71:-0.166973 72:0.259685 73:0.214122 74:0.258364 75:-0.314926 76:-1 77:-1 78:-0.605027 79:0.485753 80:1 81:1 82:1 83:1 84:0.58636 85:0.353169 86:0.407655 87:0.522945 88:0.539539 89:0.376026 90:0.199709 91:0.0691778 92:0.0537208 93:0.0720038 94:0.0566086 95:-0.0401155 96:-0.236085 97:-0.310454 98:-0.667833 99:-0.660817 100:-0.757728 101:-0.730199 102:-0.653653 103:-0.597931 104:-0.528769 105:-0.362973 106:-0.251698 107:-0.174031 108:-0.105948 109:0.00313285 110:0.118965 111:0.246627 112:0.373306 113:0.505621 114:0.623016 115:0.721137 116:0.803236 117:0.882376 118:0.931215 119:0.956059 120:0.915354 121:0.856414 122:0.79657 123:0.733892 124:0.650828 125:0.621498 126:0.668769 127:0.680917 128:0.677782 129:0.691202 130:0.678101 131:0.658692 132:0.572752 133:0.47817 134:0.397207 135:0.298739 136:0.331558 137:0.248458 138:0.32741 139:0.422869 140:0.384098 141:0.424372 142:0.45318 143:0.539621 144:0.57959 145:0.632645 146:0.716228 147:0.746319 148:0.748468 149:0.79306 150:0.844018 151:0.887445 152:0.876745 153:0.865201 154:0.838355 155:0.77896 156:0.67659 157:0.513504 158:0.303247 159:0.219291 160:0.117418 161:-0.0227313 162:-0.197606 163:-0.311533 164:-0.431381 165:-0.585931 166:-0.729244 167:-0.897427 168:-1 169:-1 170:-0.937165 171:-0.738246 172:-0.57972 173:-0.586823 174:-0.625226 175:-0.665553 176:-0.684608 177:-0.739971 178:-0.734019 179:-0.570878 180:-0.335708 181:-0.190813 182:-0.0290746 183:0.118157 184:0.130457 185:0.163369 186:0.156608 187:0.198525 188:0.225238 189:0.286387 190:0.313137 191:0.27075 192:0.239269 193:0.249925 194:0.265724 195:0.282521 196:0.309005 197:0.335513 198:0.308863 199:0.252077 200:-0.45021 201:-0.334954 202:-0.190346 203:-0.0396599 204:0.0923689 205:0.18865 206:0.263498 207:0.29908 208:0.293148 209:0.209054 210:0.216094 211:0.218397 212:0.198399 213:0.148705 214:0.0970484 215:0.0477367 216:0.0587887 217:0.0504551 218:0.0152236 219:0.0101931 220:0.0072746 221:-0.00373057 222:-0.0190149 223:-0.032676 224:-0.0468438 225:-0.0657847 226:-0.102681 227:-0.20343 228:-0.475858 229:-0.532764 230:-0.691891 231:-0.837578 232:-0.993792 233:-0.928172 234:-0.808197 235:-0.68537 236:-0.697717 237:-0.462486 238:-0.134394 239:0.133354 240:0.382483 241:0.574841 242:0.690444 243:0.789429 244:0.920242 245:1 246:1 247:1 248:1 249:1 250:1 251:1 252:1 253:1 254:1 255:1 256:1 257:0.785003 258:0.580676 259:0.478543 260:0.276198 261:0.160783 262:0.0714161 263:-0.0501889 264:-0.106084 265:-0.321014 266:-0.635762 267:-0.846158 268:-0.982305 269:-1 270:-0.993341 271:-0.930729 272:-1 273:-0.594762 274:-0.122651 275:0.264767 276:0.474254 277:0.672898 278:0.653359 279:0.709659 280:0.78927 281:0.77867 282:0.810511 283:0.81246 284:0.772734 285:0.721579 286:0.678375 287:0.670123 288:0.616908 289:0.561538 290:0.481789 291:0.385921 292:0.313826 293:0.260604 294:0.212637 295:0.168741 296:0.163828 297:0.171202 298:0.187171 299:0.209923 
0.2906437411526307 0:0.668739 1:0.757392 2:0.906512 3:1 4:1 5:0.995997 6:0.761519 7:0.799374 8:1 9:1 10:1 11:0.944116 12:0.898174 13:0.924749 14:1 15:1 16:1 17:1 18:0.880934 19:0.700869 20:0.55502 21:0.354151 22:0.177888 23:0.0332012 24:-0.294663 25:-0.636967 26:-0.853089 27:-0.883286 28:-0.696524 29:-0.718445 30:-0.816957 31:-0.861903 32:-1 33:-0.897402 34:0.117586 35:1 36:0.968515 37:0.284766 38:-0.224277 39:-0.463604 40:-0.0158373 41:0.288453 42:0.286553 43:0.239749 44:0.03584 45:0.0166871 46:0.0728881 47:0.08815 48:-0.0504308 49:0.0185906 50:0.0660582 51:0.104384 52:0.0200374 53:-0.278832 54:-0.486033 55:-0.598746 56:-0.59292 57:-0.487863 58:-0.573685 59:-0.838857 60:-0.941049 61:-0.820532 62:-0.888108 63:-0.80308 64:-0.592975 65:-0.298806 66:0.0513251 67:1 68:1 69:1 70:0.126225 71:-0.85701 72:-1 73:-0.767623 74:-0.0792512 75:0.465222 76:0.575049 77:0.50391 78:0.184996 79:-0.00719295 80:-0.166926 81:-0.261173 82:-0.119963 83:0.0691527 84:-0.0856256 85:-0.265119 86:-0.198823 87:-0.0472399 88:0.0365239 89:-0.0926085 90:-0.275528 91:-0.451792 92:-0.476933 93:-0.383675 94:-0.319716 95:-0.404047 96:-0.63546 97:-0.670137 98:-0.989868 99:-0.793171 100:-0.803498 101:-1 102:-0.980302 103:-0.880489 104:-0.733585 105:-0.529106 106:-0.448421 107:-0.403862 108:-0.323647 109:-0.223781 110:-0.106501 111:0.0261386 112:0.146051 113:0.278603 114:0.406407 115:0.523645 116:0.629719 117:0.73391 118:0.819639 119:0.864923 120:0.847994 121:0.819794 122:0.81554 123:0.828069 124:0.787284 125:0.767874 126:0.842113 127:0.878455 128:0.900395 129:0.862463 130:0.739595 131:0.637841 132:0.501852 133:0.483334 134:0.329092 135:0.130196 136:0.180815 137:0.248294 138:0.401719 139:0.52594 140:0.536936 141:0.596529 142:0.644757 143:0.699183 144:0.716573 145:0.779452 146:0.876529 147:0.912632 148:0.911873 149:0.927655 150:0.94452 151:0.925504 152:0.858488 153:0.777011 154:0.647084 155:0.466137 156:0.264917 157:-0.00698864 158:-0.41424 159:-0.57266 160:-0.699049 161:-0.821034 162:-0.932895 163:-0.948255 164:-0.964725 165:-1 166:-1 167:-1 168:-0.929136 169:-0.803775 170:-0.643749 171:-0.477998 172:-0.339535 173:-0.318322 174:-0.29171 175:-0.280211 176:-0.312635 177:-0.384592 178:-0.428611 179:-0.364947 180:-0.232261 181:-0.119994 182:0.0894281 183:0.29746 184:0.334038 185:0.373473 186:0.377428 187:0.411954 188:0.433261 189:0.480269 190:0.479104 191:0.427286 192:0.396512 193:0.401492 194:0.401053 195:0.415081 196:0.446501 197:0.471946 198:0.480817 199:0.442982 200:-0.750281 201:-0.616132 202:-0.496412 203:-0.393566 204:-0.207535 205:-0.00217564 206:0.136265 207:0.200409 208:0.215947 209:0.186866 210:0.257767 211:0.283461 212:0.280927 213:0.237455 214:0.184304 215:0.122465 216:0.109071 217:0.0877316 218:0.0554422 219:0.0590601 220:0.0447773 221:0.0209135 222:0.00949908 223:0.00633577 224:-0.0100706 225:-0.0384944 226:-0.0820389 227:-0.189131 228:-0.463236 229:-0.538293 230:-0.755486 231:-0.95694 232:-1 233:-0.696619 234:-0.32363 235:-0.194695 236:-0.151455 237:0.210517 238:0.430898 239:0.535478 240:0.602681 241:0.669531 242:0.709824 243:0.741846 244:0.779514 245:0.797669 246:0.78854 247:0.77729 248:0.775226 249:0.73548 250:0.700026 251:0.6954 252:0.713206 253:0.722468 254:0.712835 255:0.641853 256:0.447681 257:0.144246 258:-0.0559623 259:-0.193099 260:-0.363322 261:-0.45233 262:-0.545621 263:-0.674572 264:-0.665428 265:-0.788127 266:-0.913873 267:-0.713035 268:-0.188994 269:0.323473 270:0.516127 271:0.774918 272:0.898795 273:1 274:1 275:0.857464 276:0.672095 277:0.671406 278:0.594119 279:0.617931 280:0.634037 281:0.604872 282:0.597921 283:0.553109 284:0.491843 285:0.427251 286:0.365928 287:0.362943 288:0.322608 289:0.280737 290:0.239197 291:0.202234 292:0.192838 293:0.181892 294:0.168971 295:0.155873 296:0.174 297:0.215333 298:0.251411 299:0.282519 
0.4011438069437169 0:-0.529445 1:-0.645762 2:-0.68565 3:-0.640726 4:-0.581044 5:-0.465376 6:-0.363951 7:-0.218038 8:-0.211565 9:-0.223449 10:-0.205624 11:-0.217211 12:-0.118324 13:-0.0734728 14:0.0141381 15:0.0400574 16:0.127444 17:0.264907 18:0.333841 19:0.301153 20:0.258991 21:0.212774 22:0.188158 23:0.118784 24:-0.0955149 25:-0.304015 26:-0.370332 27:-0.386518 28:-0.269003 29:-0.30712 30:-0.534413 31:-0.623422 32:-0.271175 33:0.0364239 34:0.202558 35:-0.259952 36:-0.0221799 37:-0.0805397 38:-0.1486 39:-0.422807 40:-0.323437 41:-0.446522 42:-0.450578 43:-0.299467 44:-0.435372 45:-0.350448 46:-0.222939 47:-0.249936 48:-0.570908 49:-0.415525 50:-0.319933 51:-0.156914 52:-0.00256625 53:-0.114497 54:-0.200228 55:-0.217198 56:-0.0961642 57:-0.0332306 58:0.0458174 59:0.0456104 60:0.109324 61:0.238626 62:0.280472 63:0.240921 64:-0.148111 65:-0.21249 66:-0.250686 67:-0.116746 68:-0.616998 69:-0.589962 70:-0.733496 71:-0.584631 72:-0.481327 73:-0.454185 74:-0.12515 75:0.0823178 76:-0.0820273 77:-0.372932 78:-1 79:-1 80:-1 81:-0.976566 82:-0.837103 83:-0.625601 84:-0.410882 85:-0.168363 86:0.130534 87:0.34116 88:0.434205 89:0.464332 90:0.510684 91:0.597561 92:0.6929 93:0.753717 94:0.749033 95:0.702355 96:0.529857 97:0.401167 98:0.0553305 99:-0.0978164 100:-0.656109 101:-0.777562 102:-0.846458 103:-0.894015 104:-0.914025 105:-0.81729 106:-0.789676 107:-0.821939 108:-0.880019 109:-0.944875 110:-1 111:-1 112:-1 113:-1 114:-1 115:-1 116:-1 117:-1 118:-1 119:-1 120:-1 121:-1 122:-1 123:-1 124:-1 125:-0.796964 126:-0.609802 127:-0.547255 128:-0.587589 129:-0.289318 130:0.0110982 131:0.213154 132:0.176772 133:-0.0373778 134:-0.111918 135:-0.0335233 136:0.184205 137:0.241488 138:0.313592 139:0.349198 140:0.202902 141:0.175919 142:0.122544 143:0.157847 144:0.178567 145:0.227782 146:0.299632 147:0.320605 148:0.317949 149:0.360617 150:0.418056 151:0.504541 152:0.558005 153:0.628864 154:0.693287 155:0.733516 156:0.754215 157:0.774726 158:0.785188 159:0.816817 160:0.814347 161:0.804612 162:0.777833 163:0.743894 164:0.72079 165:0.685272 166:0.642835 167:0.57741 168:0.545523 169:0.470432 170:0.448255 171:0.435254 172:0.446828 173:0.455668 174:0.473171 175:0.408906 176:0.28333 177:0.145758 178:0.0795061 179:0.125075 180:0.271693 181:0.435621 182:0.684601 183:0.865742 184:0.812921 185:0.710511 186:0.550702 187:0.363494 188:0.129665 189:-0.000692208 190:-0.150025 191:-0.357706 192:-0.524148 193:-0.592581 194:-0.622752 195:-0.603818 196:-0.494459 197:-0.37472 198:-0.406144 199:-0.523252 200:-0.629078 201:-0.524613 202:-0.415624 203:-0.301045 204:-0.165363 205:-0.0469416 206:0.0363509 207:0.0774563 208:0.0756866 209:0.0352273 210:0.133644 211:0.196816 212:0.230085 213:0.240365 214:0.23005 215:0.214798 216:0.243897 217:0.251556 218:0.244571 219:0.272167 220:0.305366 221:0.317201 222:0.341996 223:0.378193 224:0.413901 225:0.452601 226:0.480472 227:0.482372 228:0.416556 229:0.442507 230:0.439297 231:0.463042 232:0.463612 233:0.536444 234:0.517844 235:0.376197 236:0.145761 237:0.0737143 238:-0.00153184 239:-0.0711653 240:-0.0445503 241:0.00577832 242:0.0543255 243:0.0437645 244:0.0987239 245:0.14827 246:0.134124 247:0.0697126 248:0.126237 249:0.0927973 250:0.0829482 251:0.105994 252:0.181592 253:0.238137 254:0.242934 255:0.163243 256:-0.0395223 257:-0.142617 258:-0.109627 259:-0.0221417 260:-0.0188803 261:0.0230281 262:0.0751714 263:0.109719 264:0.185916 265:0.142287 266:0.0339041 267:-0.0238242 268:-0.0372077 269:-0.073838 270:-0.149386 271:-0.26597 272:-0.606684 273:-0.953747 274:-0.880109 275:-0.829911 276:-0.781873 277:-0.701921 278:-0.624836 279:-0.540946 280:-0.477791 281:-0.43633 282:-0.372407 283:-0.305386 284:-0.231975 285:-0.136617 286:-0.0119887 287:0.197525 288:0.414909 289:0.62891 290:0.808766 291:0.940033 292:1 293:1 294:1 295:1 296:1 297:1 298:1 299:1 
1.487351115508029 0:-0.49885 1:-0.607591 2:-0.632464 3:-0.571761 4:-0.501985 5:-0.443285 6:-0.367134 7:-0.218637 8:-0.233841 9:-0.225122 10:-0.166219 11:-0.187255 12:-0.0690193 13:0.0292971 14:0.145342 15:0.170309 16:0.252801 17:0.405422 18:0.456883 19:0.43626 20:0.433741 21:0.421183 22:0.454639 23:0.44716 24:0.339304 25:0.205486 26:0.0906052 27:-0.0095945 28:0.05196 29:-0.250368 30:-0.445016 31:-0.496919 32:-0.505397 33:-0.433451 34:-0.212003 35:-0.326789 36:-0.0329097 37:-0.294356 38:-0.366819 39:-0.354734 40:0.0109254 41:-0.184903 42:-0.543476 43:-0.421146 44:-0.36044 45:-0.120711 46:-0.0523282 47:-0.157647 48:-0.490741 49:-0.340788 50:-0.241986 51:-0.0561743 52:0.113451 53:0.0692954 54:0.0261457 55:0.0403959 56:0.238273 57:0.304979 58:0.385411 59:0.352485 60:0.375386 61:0.489006 62:0.603966 63:0.660322 64:0.119494 65:-0.0298682 66:-0.146185 67:-0.0160013 68:-0.497659 69:-0.412445 70:-0.462677 71:-0.396263 72:-0.299328 73:-0.295803 74:0.0622196 75:0.29566 76:0.259184 77:0.127711 78:-0.177156 79:-0.126976 80:-0.152021 81:-0.230406 82:-0.0746803 83:0.190221 84:0.144503 85:-0.0236754 86:-0.0617391 87:-0.0709638 88:-0.106821 89:-0.110371 90:0.0215814 91:0.170698 92:0.357308 93:0.419258 94:0.370096 95:0.221757 96:-0.0447672 97:-0.160839 98:-0.525352 99:-0.537677 100:-0.293412 101:-0.386412 102:-0.427325 103:-0.451036 104:-0.458012 105:-0.381351 106:-0.377144 107:-0.425965 108:-0.500967 109:-0.582243 110:-0.637457 111:-0.623338 112:-0.611196 113:-0.596862 114:-0.60418 115:-0.608134 116:-0.600603 117:-0.601448 118:-0.607602 119:-0.635657 120:-0.682739 121:-0.736472 122:-0.774546 123:-0.807667 124:-0.84818 125:-0.67903 126:-0.513003 127:-0.462757 128:-0.509467 129:-0.606305 130:-0.641463 131:-0.629269 132:-0.673488 133:-0.694584 134:-0.716928 135:-0.722037 136:-0.588332 137:0.107119 138:0.760091 139:0.798878 140:0.310989 141:0.0180721 142:-0.108362 143:-0.00802804 144:0.112242 145:0.211936 146:0.25867 147:0.225066 148:0.168787 149:0.157708 150:0.165582 151:0.214466 152:0.231193 153:0.253087 154:0.257114 155:0.228719 156:0.18587 157:0.133046 158:0.0422906 159:0.112803 160:0.149671 161:0.177461 162:0.202699 163:0.244304 164:0.260919 165:0.239352 166:0.212053 167:0.160736 168:0.149517 169:0.12138 170:0.127125 171:0.147352 172:0.183375 173:0.184631 174:0.187308 175:0.130231 176:0.0220403 177:-0.100503 178:-0.148177 179:-0.0735152 180:0.0649898 181:0.204222 182:0.432558 183:0.641442 184:0.660024 185:0.662007 186:0.654272 187:0.6682 188:0.677667 189:0.699647 190:0.680953 191:0.610263 192:0.527001 193:0.508281 194:0.508028 195:0.532348 196:0.561456 197:0.581818 198:0.563651 199:0.528978 200:-0.770907 201:-0.72253 202:-0.682719 203:-0.647199 204:-0.601597 205:-0.571809 206:-0.547538 207:-0.538916 208:-0.582696 209:-0.638431 210:-0.431284 211:-0.242655 212:-0.0842444 213:-0.000711406 214:0.0422582 215:0.0908269 216:0.188777 217:0.266507 218:0.312693 219:0.38444 220:0.447981 221:0.50365 222:0.551758 223:0.597808 224:0.641846 225:0.685128 226:0.711106 227:0.714145 228:0.679315 229:0.701881 230:0.698508 231:0.708619 232:0.719748 233:0.717892 234:0.630478 235:0.431878 236:0.177311 237:0.0674743 238:-0.046204 239:-0.15988 240:-0.118533 241:-0.0504978 242:0.0130415 243:0.0111155 244:0.0643612 245:0.110246 246:0.0982245 247:0.043742 248:0.119943 249:0.107426 250:0.117565 251:0.170887 252:0.281058 253:0.377171 254:0.430304 255:0.423894 256:0.345746 257:0.262215 258:0.273943 259:0.369582 260:0.34802 261:0.363769 262:0.417028 263:0.46005 264:0.5206 265:0.506361 266:0.446556 267:0.405494 268:0.406242 269:0.370194 270:0.321923 271:0.24515 272:0.0410345 273:-0.169074 274:-0.131892 275:-0.122844 276:-0.157873 277:-0.108597 278:-0.109912 279:-0.0698237 280:-0.0323514 281:-0.0251654 282:-0.0114094 283:-0.0261633 284:-0.0640201 285:-0.118883 286:-0.157654 287:-0.0817473 288:-0.0413529 289:-0.0153927 290:-0.0076949 291:-0.0141483 292:0.00313529 293:0.0212271 294:0.0103822 295:-0.00874226 296:0.0207591 297:0.0654446 298:0.110867 299:0.150219 
0.2443748816824895 0:-0.469269 1:-0.585721 2:-0.614202 3:-0.556963 4:-0.494684 5:-0.468136 6:-0.452094 7:-0.380739 8:-0.4284 9:-0.396105 10:-0.288742 11:-0.178002 12:-0.0526553 13:0.029137 14:0.121263 15:0.137261 16:0.24292 17:0.42431 18:0.51398 19:0.461024 20:0.457873 21:0.456513 22:0.481526 23:0.438258 24:0.299581 25:0.157337 26:0.0903026 27:0.0178644 28:0.0868276 29:-0.262578 30:-0.461424 31:-0.516242 32:-0.521468 33:-0.464801 34:-0.237035 35:-0.353329 36:-0.291367 37:-0.569427 38:-0.542492 39:-0.726307 40:-0.624266 41:-0.280838 42:-0.0602777 43:0.0201848 44:-0.32639 45:-0.45796 46:-0.280112 47:-0.0890503 48:-0.107008 49:-0.147267 50:-0.160419 51:-0.0460769 52:0.144202 53:0.139868 54:0.115531 55:0.0756006 56:0.232906 57:0.296163 58:0.401888 59:0.392801 60:0.43071 61:0.552097 62:0.686124 63:0.771234 64:0.212487 65:0.0464862 66:-0.101833 67:0.0272436 68:-0.454999 69:-0.362417 70:-0.401629 71:-0.365799 72:-0.262094 73:-0.250121 74:0.135926 75:0.380835 76:0.367712 77:0.254347 78:0.00452237 79:0.0691878 80:0.058785 81:-0.013595 82:0.133824 83:0.395399 84:0.285924 85:0.10686 86:0.130955 87:0.226906 88:0.324403 89:0.246504 90:0.159421 91:0.0870331 92:0.0894149 93:-0.00882627 94:-0.142326 95:-0.331385 96:-0.517615 97:-0.503729 98:-0.776107 99:-0.64222 100:-0.382896 101:-0.427653 102:-0.426188 103:-0.416591 104:-0.401633 105:-0.320828 106:-0.307101 107:-0.33796 108:-0.388955 109:-0.463175 110:-0.51937 111:-0.519806 112:-0.511389 113:-0.491275 114:-0.480537 115:-0.473038 116:-0.46011 117:-0.45999 118:-0.471602 119:-0.500402 120:-0.535087 121:-0.570141 122:-0.595157 123:-0.646459 124:-0.704348 125:-0.573992 126:-0.428525 127:-0.384918 128:-0.432289 129:-0.531571 130:-0.587409 131:-0.592421 132:-0.642462 133:-0.635446 134:-0.611035 135:-0.587639 136:-0.590396 137:-0.590153 138:-0.253546 139:0.205246 140:0.612406 141:0.687218 142:0.458127 143:0.210241 144:-0.00843625 145:0.00598603 146:0.122424 147:0.217061 148:0.232179 149:0.207708 150:0.18335 151:0.199117 152:0.2132 153:0.2432 154:0.260019 155:0.232675 156:0.178411 157:0.113234 158:0.0081564 159:0.0746058 160:0.108279 161:0.123092 162:0.131955 163:0.164565 164:0.181367 165:0.163342 166:0.140424 167:0.104039 168:0.111615 169:0.106051 170:0.129696 171:0.158746 172:0.204169 173:0.217062 174:0.235535 175:0.191918 176:0.100927 177:0.00263976 178:-0.0329583 179:0.0380744 180:0.171861 181:0.326455 182:0.592599 183:0.824597 184:0.837378 185:0.830005 186:0.834221 187:0.858674 188:0.883388 189:0.902751 190:0.906161 191:0.882694 192:0.876887 193:0.864252 194:0.857609 195:0.872058 196:0.905683 197:0.904631 198:0.881314 199:0.832174 200:-0.73988 201:-0.708976 202:-0.677808 203:-0.649441 204:-0.623671 205:-0.60108 206:-0.58386 207:-0.58141 208:-0.598714 209:-0.624629 210:-0.39631 211:-0.213821 212:-0.0683161 213:0.0177007 214:0.0760093 215:0.123589 216:0.220282 217:0.293461 218:0.33819 219:0.407773 220:0.464078 221:0.506609 222:0.545042 223:0.58009 224:0.615456 225:0.64924 226:0.668361 227:0.672908 228:0.646737 229:0.675032 230:0.668551 231:0.684052 232:0.698329 233:0.714112 234:0.651519 235:0.476519 236:0.232995 237:0.125185 238:0.0391619 239:-0.0454852 240:-0.0484388 241:-0.0302706 242:0.0176644 243:0.00984045 244:0.0652002 245:0.120168 246:0.0968383 247:0.0180759 248:0.0852685 249:0.0735515 250:0.101667 251:0.174903 252:0.289508 253:0.380802 254:0.429041 255:0.419905 256:0.342265 257:0.274885 258:0.297635 259:0.400556 260:0.382112 261:0.403351 262:0.463158 263:0.507314 264:0.559295 265:0.546331 266:0.496312 267:0.464086 268:0.47912 269:0.455763 270:0.421726 271:0.357308 272:0.191263 273:0.0228829 274:0.0530979 275:0.0426013 276:-0.0129495 277:0.0254083 278:-0.00242828 279:0.0267159 280:0.0407421 281:0.0106766 282:0.00356311 283:-0.0305842 284:-0.0925649 285:-0.168292 286:-0.24094 287:-0.202867 288:-0.206459 289:-0.228562 290:-0.250179 291:-0.282267 292:-0.288426 293:-0.246219 294:-0.231379 295:-0.229372 296:-0.21637 297:-0.188151 298:-0.161242 299:-0.144589 
0.1268305824454097 0:-0.619134 1:-0.820331 2:-0.91588 3:-0.888318 4:-0.812511 5:-0.765096 6:-0.696661 7:-0.600651 8:-0.734487 9:-0.743791 10:-0.695879 11:-0.639608 12:-0.531432 13:-0.449273 14:-0.319927 15:-0.257539 16:-0.138821 17:0.0584806 18:0.218033 19:0.302621 20:0.367355 21:0.407335 22:0.4683 23:0.458362 24:0.324689 25:0.166614 26:0.0821938 27:0.0650726 28:0.193961 29:-0.141695 30:-0.347587 31:-0.400408 32:-0.404679 33:-0.256704 34:0.0859769 35:-0.0491491 36:-0.104691 37:-0.433542 38:-0.575069 39:-0.809241 40:-0.682982 41:-0.875346 42:-1 43:-0.639176 44:-0.103242 45:-0.0282278 46:-0.235864 47:-0.665596 48:-0.661638 49:-0.149361 50:0.0975906 51:0.260125 52:0.238528 53:0.163569 54:0.136878 55:0.138379 56:0.339798 57:0.427818 58:0.549563 59:0.493294 60:0.441056 61:0.501933 62:0.593088 63:0.656195 64:0.104148 65:-0.0575329 66:-0.173067 67:-0.0287259 68:-0.482081 69:-0.369267 70:-0.384994 71:-0.492184 72:-0.484061 73:-0.480333 74:0.147756 75:0.245307 76:0.0409321 77:0.116929 78:0.2154 79:0.295313 80:0.147849 81:0.0505129 82:0.266372 83:0.662256 84:0.646525 85:0.473008 86:0.40112 87:0.382673 88:0.347949 89:0.297662 90:0.292693 91:0.324504 92:0.399868 93:0.37384 94:0.261427 95:0.0682431 96:-0.16318 97:-0.168207 98:-0.408853 99:-0.348297 100:-0.095917 101:-0.159831 102:-0.187592 103:-0.202294 104:-0.201369 105:-0.116578 106:-0.103675 107:-0.137244 108:-0.192494 109:-0.242354 110:-0.273639 111:-0.266478 112:-0.257123 113:-0.224322 114:-0.197362 115:-0.184616 116:-0.162661 117:-0.13597 118:-0.108449 119:-0.0939294 120:-0.115749 121:-0.146976 122:-0.165726 123:-0.182066 124:-0.21084 125:-0.112087 126:0.014782 127:0.061038 128:0.0428344 129:-0.00505383 130:-0.0188855 131:-0.00567864 132:-0.0222218 133:-0.00505877 134:-0.00090933 135:0.0185894 136:0.164042 137:0.197984 138:0.279393 139:0.330928 140:0.192684 141:0.246111 142:0.225043 143:0.30132 144:0.41765 145:0.310105 146:0.225306 147:0.119231 148:0.0871785 149:0.0665366 150:0.0391125 151:0.0413459 152:0.0451163 153:0.0362629 154:0.0233174 155:-0.00620708 156:-0.0218175 157:-0.0410822 158:-0.105803 159:-0.000879343 160:0.0502878 161:0.0814344 162:0.108208 163:0.148401 164:0.160716 165:0.133515 166:0.0998357 167:0.040797 168:0.00990439 169:-0.0363895 170:-0.058766 171:-0.0693143 172:-0.026969 173:-0.0127843 174:0.0427106 175:-0.102348 176:-0.345843 177:-0.618486 178:-0.680595 179:-0.649918 180:-0.57531 181:-0.558247 182:-0.476148 183:-0.334768 184:-0.256653 185:-0.131571 186:-0.0945753 187:-0.0187854 188:0.0332512 189:0.159912 190:0.225447 191:0.230309 192:0.246632 193:0.297853 194:0.327761 195:0.352449 196:0.434052 197:0.509631 198:0.529674 199:0.519931 200:-0.751949 201:-0.687115 202:-0.633149 203:-0.57873 204:-0.495112 205:-0.43838 206:-0.371381 207:-0.301459 208:-0.260232 209:-0.212834 210:0.0190318 211:0.197813 212:0.306165 213:0.359247 214:0.397832 215:0.426713 216:0.480476 217:0.517806 218:0.522278 219:0.53967 220:0.524445 221:0.507905 222:0.511609 223:0.523546 224:0.538845 225:0.554946 226:0.559566 227:0.543565 228:0.471364 229:0.471296 230:0.434982 231:0.419342 232:0.393307 233:0.380578 234:0.248906 235:-0.0107147 236:-0.411308 237:-0.507201 238:-0.613004 239:-0.736858 240:-0.727281 241:-0.602161 242:-0.384446 243:-0.184931 244:0.193029 245:0.265302 246:0.193645 247:0.0635669 248:0.187606 249:0.2366 250:0.292526 251:0.361576 252:0.484948 253:0.594494 254:0.668057 255:0.697146 256:0.686405 257:0.57936 258:0.528917 259:0.57879 260:0.49024 261:0.457477 262:0.47701 263:0.476325 264:0.482135 265:0.410836 266:0.290041 267:0.19151 268:0.14254 269:0.0681123 270:-0.0565879 271:-0.204695 272:-0.293978 273:0.076746 274:0.588605 275:0.498919 276:0.287234 277:0.336617 278:0.394536 279:0.487615 280:0.545206 281:0.553759 282:0.57647 283:0.551806 284:0.496462 285:0.440161 286:0.3824 287:0.380697 288:0.335522 289:0.277171 290:0.214036 291:0.131504 292:0.0353526 293:-0.0444517 294:-0.132349 295:-0.213657 296:-0.208671 297:-0.188818 298:-0.171972 299:-0.16821 
0.3406460226505992 0:-1 1:-0.885006 2:-0.646605 3:-0.473723 4:-0.445733 5:-0.447559 6:-0.524319 7:-0.523994 8:-0.661721 9:-0.621789 10:-0.507736 11:-0.538037 12:-0.43563 13:-0.406632 14:-0.338123 15:-0.338001 16:-0.312311 17:-0.20198 18:-0.0721415 19:-0.00870324 20:0.0186687 21:-0.00488401 22:0.0420456 23:0.0572853 24:-0.0538921 25:-0.158397 26:-0.163655 27:-0.133306 28:0.0674453 29:-0.211299 30:-0.380422 31:-0.380962 32:-0.313941 33:0.0411977 34:0.618027 35:0.515923 36:0.311458 37:-0.145574 38:-0.521853 39:-0.844939 40:-0.493628 41:-0.404108 42:-0.341518 43:-0.278557 44:-0.502732 45:-0.323985 46:-0.107568 47:-0.120712 48:-0.52203 49:-0.493171 50:-0.382472 51:-0.162384 52:0.019953 53:-0.0484717 54:-0.0975435 55:-0.0921275 56:0.0900174 57:0.229978 58:0.413632 59:0.474981 60:0.542119 61:0.641998 62:0.736944 63:0.789138 64:0.182535 65:-0.0338812 66:-0.211426 67:-0.0674817 68:-0.494881 69:-0.344932 70:-0.352968 71:-0.377378 72:-0.29915 73:-0.258946 74:0.182615 75:0.462086 76:0.412792 77:0.149002 78:-0.347204 79:-0.249654 80:-0.121028 81:-0.0313277 82:0.267667 83:0.689372 84:0.74216 85:0.693416 86:0.761652 87:0.898717 88:1 89:0.961957 90:0.873192 91:0.856266 92:0.909627 93:0.925832 94:0.951966 95:1 96:1 97:1 98:0.804582 99:0.539257 100:0.433415 101:0.407309 102:0.454213 103:0.523854 104:0.577998 105:0.632653 106:0.580318 107:0.477468 108:0.391419 109:0.346515 110:0.326857 111:0.296879 112:0.240454 113:0.233835 114:0.237223 115:0.250376 116:0.285405 117:0.315384 118:0.331842 119:0.34142 120:0.31914 121:0.284987 122:0.247732 123:0.217138 124:0.195456 125:0.247183 126:0.321144 127:0.313744 128:0.255517 129:0.191181 130:0.151966 131:0.198511 132:0.262796 133:0.262314 134:0.305669 135:0.345599 136:0.55002 137:0.49712 138:0.344122 139:0.250776 140:0.0357736 141:-0.0319033 142:-0.135111 143:-0.121186 144:-0.162784 145:-0.104698 146:-0.00598399 147:0.0257346 148:-0.00489074 149:-0.0133403 150:-0.0193387 151:0.0401682 152:0.068846 153:0.0991327 154:0.119662 155:0.105944 156:0.10236 157:0.119665 158:0.131738 159:0.28217 160:0.36026 161:0.386541 162:0.394594 163:0.421476 164:0.409475 165:0.315111 166:0.158068 167:-0.00737516 168:-0.103325 169:-0.177133 170:-0.207246 171:-0.18971 172:-0.155408 173:-0.181006 174:-0.224016 175:-0.317809 176:-0.463011 177:-0.655353 178:-0.759774 179:-0.682542 180:-0.527878 181:-0.472016 182:-0.408322 183:-0.339356 184:-0.34836 185:-0.335843 186:-0.426429 187:-0.475142 188:-0.562196 189:-0.516125 190:-0.534276 191:-0.650626 192:-0.784048 193:-0.836236 194:-0.847644 195:-0.856585 196:-0.797985 197:-0.728244 198:-0.830551 199:-1 200:0.0804592 201:0.272127 202:0.361697 203:0.406054 204:0.440218 205:0.428295 206:0.357829 207:0.226143 208:0.105525 209:-0.00588673 210:0.0457402 211:0.098821 212:0.132576 213:0.124386 214:0.098324 215:0.0654893 216:0.087678 217:0.11682 218:0.136303 219:0.189745 220:0.235083 221:0.272185 222:0.314438 223:0.37868 224:0.429616 225:0.469771 226:0.49574 227:0.502147 228:0.449508 229:0.461289 230:0.402276 231:0.334259 232:0.244687 233:0.206231 234:0.0121969 235:-0.296413 236:-0.839198 237:-1 238:-1 239:-0.678155 240:-0.199748 241:0.16027 242:0.361356 243:0.427678 244:0.474165 245:0.485221 246:0.450683 247:0.402497 248:0.43669 249:0.401761 250:0.384666 251:0.394272 252:0.444834 253:0.489522 254:0.505271 255:0.462673 256:0.334369 257:0.203232 258:0.148601 259:0.149765 260:0.0610169 261:0.0233305 262:-0.0136918 263:-0.0831819 264:-0.0884322 265:-0.198909 266:-0.259404 267:0.148849 268:0.511742 269:0.732262 270:0.875296 271:0.936534 272:0.930579 273:0.884586 274:0.821899 275:0.689407 276:0.50865 277:0.472785 278:0.369846 279:0.37916 280:0.392887 281:0.372902 282:0.379256 283:0.373735 284:0.345295 285:0.282089 286:0.1916 287:0.151812 288:0.0719596 289:0.000265233 290:-0.0856513 291:-0.188582 292:-0.253625 293:-0.281108 294:-0.318371 295:-0.38494 296:-0.408946 297:-0.422344 298:-0.424098 299:-0.415142 
0.8660586415727201 0:-0.786072 1:-0.897994 2:-0.901511 3:-0.839738 4:-0.784267 5:-0.760069 6:-0.755678 7:-0.699222 8:-0.837894 9:-0.838067 10:-0.799987 11:-0.781709 12:-0.647614 13:-0.635489 14:-0.577349 15:-0.551651 16:-0.437331 17:-0.217934 18:-0.0750852 19:-0.0263152 20:0.00681438 21:0.0166899 22:0.0911173 23:0.15824 24:0.0889153 25:-0.0352253 26:-0.0836983 27:-0.0981811 28:0.053896 29:-0.215966 30:-0.37867 31:-0.388587 32:-0.357072 33:-0.128272 34:0.311011 35:0.298184 36:0.40125 37:0.161476 38:0.0127057 39:-0.311613 40:-0.476227 41:-1 42:-0.619073 43:-0.330006 44:-0.40384 45:-0.336716 46:-0.326671 47:-0.397889 48:-0.562202 49:-0.26604 50:-0.17699 51:-0.111099 52:-0.0196123 53:-0.00209548 54:0.0425855 55:0.0516346 56:0.201835 57:0.230544 58:0.293898 59:0.297812 60:0.39851 61:0.587041 62:0.782643 63:0.904518 64:0.30795 65:0.135499 66:-0.0534063 67:0.00183251 68:-0.596359 69:-0.621799 70:-0.653462 71:-0.463972 72:-0.312697 73:-0.274791 74:0.111876 75:0.365082 76:0.426176 77:0.4353 78:0.295048 79:0.300978 80:0.181092 81:-0.0117008 82:0.110221 83:0.49835 84:0.654569 85:0.705103 86:0.791762 87:0.873894 88:0.926666 89:1 90:1 91:1 92:1 93:0.91165 94:0.803069 95:0.714751 96:0.542359 97:0.442931 98:0.162526 99:0.0448642 100:0.659925 101:0.563398 102:0.443642 103:0.367253 104:0.349192 105:0.42046 106:0.414414 107:0.330442 108:0.256466 109:0.206017 110:0.178214 111:0.177327 112:0.181401 113:0.188468 114:0.185606 115:0.182562 116:0.192666 117:0.208101 118:0.19071 119:0.167775 120:0.117738 121:0.0655788 122:0.0336059 123:0.0246643 124:0.0154464 125:0.0920458 126:0.178664 127:0.187394 128:0.156132 129:0.126161 130:0.126997 131:0.147722 132:0.141524 133:0.199986 134:0.276994 135:0.28014 136:0.543892 137:0.628438 138:0.724017 139:0.731008 140:0.494439 141:0.116216 142:0.0182143 143:0.0165095 144:-0.0132479 145:-0.035557 146:-0.0552554 147:-0.0852175 148:-0.0977397 149:-0.0800055 150:-0.0716674 151:-0.0362013 152:-0.0320325 153:-0.0115202 154:0.0230534 155:0.0114422 156:-0.0172413 157:-0.0419491 158:-0.0901426 159:0.0602667 160:0.156136 161:0.24024 162:0.304704 163:0.356903 164:0.383971 165:0.37554 166:0.346603 167:0.235021 168:0.106384 169:-0.0432871 170:-0.100315 171:-0.112817 172:-0.0883473 173:-0.147593 174:-0.24044 175:-0.367992 176:-0.506495 177:-0.687615 178:-0.813415 179:-0.792693 180:-0.704266 181:-0.729961 182:-0.720388 183:-0.635958 184:-0.615899 185:-0.578488 186:-0.664709 187:-0.693701 188:-0.723184 189:-0.598017 190:-0.5754 191:-0.675316 192:-0.802995 193:-0.839053 194:-0.784004 195:-0.687202 196:-0.549752 197:-0.441781 198:-0.503679 199:-0.646092 200:-0.653715 201:-0.574941 202:-0.485876 203:-0.398785 204:-0.312533 205:-0.252461 206:-0.216833 207:-0.194012 208:-0.186348 209:-0.171592 210:0.014384 211:0.137729 212:0.239925 213:0.279711 214:0.302094 215:0.330255 216:0.401306 217:0.456267 218:0.47978 219:0.514566 220:0.542474 221:0.565172 222:0.59074 223:0.613759 224:0.632355 225:0.648214 226:0.649653 227:0.63302 228:0.5715 229:0.568393 230:0.522188 231:0.487164 232:0.438311 233:0.393559 234:0.247297 235:0.0109201 236:-0.438897 237:-0.586405 238:-0.775208 239:-1 240:-1 241:-0.657977 242:-0.186417 243:0.0883615 244:0.338487 245:0.4935 246:0.5262 247:0.477809 248:0.511406 249:0.503091 250:0.51064 251:0.538809 252:0.598739 253:0.646273 254:0.658999 255:0.628504 256:0.547377 257:0.406942 258:0.345833 259:0.36442 260:0.28142 261:0.236093 262:0.216795 263:0.176333 264:0.155609 265:0.00400932 266:-0.238326 267:-0.345872 268:-0.268392 269:-0.0144674 270:0.355796 271:0.583831 272:0.749789 273:0.886224 274:0.932556 275:0.822644 276:0.638522 277:0.630345 278:0.514584 279:0.485881 280:0.431535 281:0.324548 282:0.249144 283:0.159713 284:0.0608324 285:-0.0371419 286:-0.108375 287:-0.0700576 288:-0.0662885 289:-0.0933524 290:-0.155193 291:-0.228863 292:-0.251228 293:-0.243335 294:-0.261745 295:-0.313297 296:-0.31973 297:-0.312632 298:-0.297181 299:-0.286841 
1.350468367357999 0:-0.678268 1:-0.777173 2:-0.805648 3:-0.810685 4:-0.845071 5:-0.92013 6:-0.894262 7:-0.785458 8:-0.9626 9:-1 10:-1 11:-1 12:-0.833676 13:-0.751564 14:-0.646888 15:-0.647886 16:-0.65109 17:-0.569613 18:-0.41959 19:-0.319943 20:-0.17391 21:0.0732446 22:0.372973 23:0.571314 24:0.62039 25:0.545188 26:0.364371 27:0.139424 28:0.0419392 29:-0.310268 30:-0.424499 31:-0.442025 32:-0.431779 33:-0.235591 34:0.210831 35:0.108502 36:-0.0378873 37:-0.415433 38:-0.468985 39:-0.550616 40:-0.345669 41:-0.523146 42:-0.578476 43:-0.403542 44:-0.421945 45:-0.146735 46:0.180206 47:0.329667 48:-0.00424658 49:-0.325122 50:-0.45021 51:-0.250632 52:0.125238 53:0.266199 54:0.181993 55:0.0414944 56:0.143545 57:0.272031 58:0.519441 59:0.609363 60:0.593839 61:0.53702 62:0.420878 63:0.278102 64:-0.113606 65:-0.13273 66:-0.125272 67:0.110182 68:-0.351545 69:-0.284987 70:-0.373261 71:-0.368081 72:-0.250428 73:-0.202662 74:0.236966 75:0.518923 76:0.545622 77:0.430706 78:0.155581 79:0.120978 80:0.0645406 81:-0.00833607 82:0.266233 83:0.807241 84:1 85:1 86:1 87:1 88:0.927756 89:0.695058 90:0.395167 91:0.146333 92:-0.0787065 93:-0.268956 94:-0.409077 95:-0.528811 96:-0.59467 97:-0.421853 98:-0.538305 99:-0.400166 100:0.65221 101:0.566803 102:0.551601 103:0.537602 104:0.52162 105:0.530535 106:0.459237 107:0.370309 108:0.275779 109:0.192822 110:0.107114 111:0.088483 112:0.0873729 113:0.101841 114:0.113347 115:0.137625 116:0.184334 117:0.224222 118:0.256929 119:0.304757 120:0.369894 121:0.466642 122:0.582442 123:0.644631 124:0.605304 125:0.575633 126:0.583051 127:0.371061 128:0.165823 129:0.0150185 130:-0.0865654 131:-0.149628 132:-0.243298 133:-0.254346 134:-0.207835 135:-0.1807 136:-0.12492 137:-0.131476 138:-0.0438181 139:0.0546417 140:-0.116241 141:-0.0969746 142:-0.113642 143:0.0208777 144:0.16542 145:0.39279 146:0.530537 147:0.682099 148:0.718642 149:0.743151 150:0.677784 151:0.538535 152:0.376891 153:0.240495 154:0.114249 155:0.0188407 156:-0.0927553 157:-0.167456 158:-0.239759 159:-0.108073 160:-0.06257 161:-0.064448 162:-0.0681696 163:-0.026837 164:-0.00384643 165:-0.0153547 166:-0.0382714 167:-0.103918 168:-0.143703 169:-0.185266 170:-0.198892 171:-0.17785 172:-0.139629 173:-0.187513 174:-0.261859 175:-0.382238 176:-0.53234 177:-0.718562 178:-0.828048 179:-0.773764 180:-0.64195 181:-0.615022 182:-0.547459 183:-0.452755 184:-0.423736 185:-0.372615 186:-0.441056 187:-0.478816 188:-0.55067 189:-0.504527 190:-0.520768 191:-0.598371 192:-0.677685 193:-0.65991 194:-0.615991 195:-0.541287 196:-0.401999 197:-0.27036 198:-0.286794 199:-0.386328 200:0.0917757 201:0.185465 202:0.246312 203:0.260769 204:0.280018 205:0.302678 206:0.323109 207:0.305421 208:0.246458 209:0.139825 210:0.179228 211:0.175711 212:0.130689 213:0.0598012 214:-0.0116348 215:-0.081742 216:-0.0794967 217:-0.088503 218:-0.117019 219:-0.128489 220:-0.137182 221:-0.16465 222:-0.19551 223:-0.221812 224:-0.26441 225:-0.346528 226:-0.425875 227:-0.250685 228:0.0320982 229:0.545736 230:0.80506 231:0.928361 232:0.966835 233:0.967589 234:0.913739 235:0.766722 236:0.571699 237:0.418378 238:0.297283 239:0.180555 240:0.123507 241:0.0975028 242:0.074564 243:-0.00398289 244:-0.00165114 245:-0.0472415 246:-0.132536 247:-0.377111 248:-0.445537 249:-0.633958 250:-0.688863 251:-0.515439 252:-0.0993795 253:0.315906 254:0.55813 255:0.66303 256:0.655422 257:0.508485 258:0.413148 259:0.410331 260:0.29425 261:0.246055 262:0.246245 263:0.239046 264:0.276341 265:0.229113 266:0.131615 267:0.0848332 268:0.084208 269:0.0625493 270:0.00135407 271:-0.120373 272:-0.460878 273:-0.798238 274:-0.707577 275:-0.651407 276:-0.648081 277:-0.610721 278:-0.584887 279:-0.546783 280:-0.521582 281:-0.51845 282:-0.499012 283:-0.476525 284:-0.449223 285:-0.420126 286:-0.346862 287:-0.129026 288:0.0504788 289:0.216181 290:0.362098 291:0.484716 292:0.590603 293:0.646798 294:0.680308 295:0.704476 296:0.735182 297:0.763735 298:0.788448 299:0.811131 
0.3745799516908255 0:-0.833867 1:-0.84309 2:-0.780146 3:-0.671883 4:-0.622521 5:-0.671492 6:-0.767733 7:-0.719128 8:-0.801419 9:-0.709159 10:-0.660187 11:-0.68239 12:-0.539661 13:-0.437321 14:-0.315967 15:-0.350076 16:-0.326472 17:-0.176343 18:0.00809425 19:0.0940776 20:0.169784 21:0.190769 22:0.222041 23:0.198043 24:0.019671 25:-0.036224 26:0.0770393 27:0.224256 28:0.512213 29:0.270247 30:-0.0371798 31:-0.165037 32:-0.246837 33:-0.16957 34:-0.157929 35:0.00150215 36:0.235587 37:0.0113442 38:-0.0706376 39:-0.246933 40:-0.0833567 41:-0.191178 42:-0.29027 43:-0.243036 44:-0.445472 45:-0.419902 46:-0.312183 47:-0.313651 48:-0.501392 49:-0.283484 50:-0.198943 51:-0.103364 52:-0.0285629 53:-0.177034 54:-0.193089 55:-0.0890046 56:0.202919 57:0.435188 58:0.5846 59:0.609558 60:0.565039 61:0.409311 62:0.221126 63:0.280113 64:-0.0438997 65:-0.100923 66:-0.159281 67:0.0452251 68:-0.480257 69:-0.413607 70:-0.379594 71:-0.281452 72:-0.114213 73:-0.068621 74:0.362369 75:0.533944 76:0.37153 77:0.0742875 78:-0.329873 79:-0.193262 80:-0.0661153 81:-0.0215968 82:0.199186 83:0.543589 84:0.499389 85:0.390545 86:0.419895 87:0.517125 88:0.604629 89:0.600587 90:0.504575 91:0.397971 92:0.335443 93:0.290874 94:0.283088 95:0.318219 96:0.248775 97:0.23381 98:-0.0382095 99:-0.117937 100:0.00431098 101:-0.0765384 102:-0.0795655 103:-0.0531065 104:-0.0193836 105:0.058196 106:0.0382184 107:-0.0472067 108:-0.132709 109:-0.18867 110:-0.221483 111:-0.240796 112:-0.243207 113:-0.20892 114:-0.163125 115:-0.122319 116:-0.0937709 117:-0.0748251 118:-0.0603324 119:-0.0414526 120:-0.033008 121:-0.0264752 122:-0.0139638 123:-0.000620143 124:-0.00177266 125:0.120479 126:0.305997 127:0.450342 128:0.576576 129:0.616319 130:0.665744 131:0.722238 132:0.75864 133:0.797115 134:0.434337 135:0.174362 136:0.168177 137:0.123122 138:-0.0380499 139:-0.086784 140:-0.427256 141:-0.453315 142:-0.508309 143:-0.379677 144:-0.297657 145:-0.211999 146:-0.112388 147:-0.0487743 148:-0.0248069 149:0.0104534 150:0.034387 151:0.08462 152:0.109218 153:0.161396 154:0.238975 155:0.330096 156:0.440016 157:0.492363 158:0.494988 159:0.621051 160:0.721375 161:0.777986 162:0.711558 163:0.587225 164:0.405654 165:0.206613 166:0.125074 167:-0.0709671 168:-0.210157 169:-0.298447 170:-0.321294 171:-0.297155 172:-0.227849 173:-0.265613 174:-0.353178 175:-0.503094 176:-0.678732 177:-0.889194 178:-1 179:-0.915648 180:-0.75291 181:-0.721456 182:-0.686961 183:-0.613151 184:-0.591638 185:-0.521586 186:-0.557312 187:-0.54189 188:-0.5383 189:-0.401818 190:-0.349684 191:-0.380656 192:-0.425217 193:-0.409212 194:-0.37611 195:-0.297166 196:-0.13846 197:-0.0157626 198:-0.0381013 199:-0.136358 200:-0.0903322 201:0.00448003 202:0.0992421 203:0.169567 204:0.228148 205:0.272431 206:0.300464 207:0.300964 208:0.283652 209:0.281587 210:0.350325 211:0.386167 212:0.418881 213:0.406586 214:0.374611 215:0.32268 216:0.323631 217:0.320418 218:0.299255 219:0.300614 220:0.279409 221:0.2743 222:0.287004 223:0.312069 224:0.334856 225:0.353361 226:0.356132 227:0.317835 228:0.173991 229:0.110978 230:-0.0921132 231:-0.337933 232:-0.603794 233:-0.663189 234:-0.508233 235:-0.104974 236:0.0860591 237:0.153852 238:0.426075 239:0.503151 240:0.506091 241:0.473178 242:0.42691 243:0.384903 244:0.426814 245:0.461977 246:0.448309 247:0.413946 248:0.450376 249:0.418856 250:0.401097 251:0.406904 252:0.441737 253:0.46229 254:0.44214 255:0.344685 256:0.108684 257:-0.116391 258:-0.199343 259:-0.291185 260:-0.439096 261:-0.498482 262:-0.532409 263:-0.442055 264:0.0330433 265:0.48773 266:0.552963 267:0.701366 268:0.905535 269:0.956026 270:0.912572 271:0.842743 272:0.698356 273:0.500641 274:0.396692 275:0.266832 276:0.0812019 277:0.0270289 278:-0.0570122 279:-0.0536055 280:-0.0371246 281:-0.0342899 282:-0.0284158 283:-0.0505621 284:-0.09628 285:-0.154716 286:-0.208172 287:-0.17269 288:-0.189376 289:-0.217682 290:-0.24717 291:-0.260091 292:-0.228144 293:-0.186274 294:-0.185292 295:-0.208649 296:-0.171296 297:-0.117748 298:-0.0621386 299:-0.0163505 
1.879527764112306 0:-0.489183 1:-0.481766 2:-0.361417 3:-0.254844 4:-0.304201 5:-0.484172 6:-0.577942 7:-0.575229 8:-0.738641 9:-0.72481 10:-0.670372 11:-0.613262 12:-0.458004 13:-0.415606 14:-0.381405 15:-0.430164 16:-0.409487 17:-0.263541 18:-0.0753561 19:0.0180994 20:0.166818 21:0.34915 22:0.597662 23:0.814037 24:0.92198 25:0.887503 26:0.726352 27:0.501422 28:0.644294 29:0.148425 30:-0.208451 31:-0.36577 32:-0.264408 33:0.0200651 34:0.473741 35:0.350758 36:0.139901 37:-0.168915 38:-0.22966 39:-0.360915 40:-0.212787 41:-0.473162 42:-0.561681 43:-0.406318 44:-0.504758 45:-0.416775 46:-0.326951 47:-0.427335 48:-0.866295 49:-0.643497 50:-0.45371 51:-0.0996294 52:0.237861 53:0.378416 54:0.410766 55:0.288677 56:0.350703 57:0.300728 58:0.310467 59:0.112786 60:-0.182271 61:0.110348 62:0.642891 63:0.99157 64:0.398976 65:0.120269 66:-0.100738 67:0.0128017 68:-0.422755 69:-0.255045 70:-0.244533 71:-0.289761 72:-0.243135 73:-0.300601 74:-0.00591839 75:0.174609 76:0.101576 77:-0.0176693 78:-0.273593 79:-0.11896 80:-0.0825967 81:-0.159367 82:-0.0279143 83:0.218107 84:0.169442 85:0.0461414 86:0.0485244 87:0.12993 88:0.258612 89:0.368371 90:0.477732 91:0.422753 92:0.377143 93:0.317425 94:0.239963 95:0.0766502 96:-0.147931 97:-0.204892 98:-0.485477 99:-0.384856 100:-0.732776 101:-0.772112 102:-0.663006 103:-0.546926 104:-0.477222 105:-0.42386 106:-0.404446 107:-0.406312 108:-0.425426 109:-0.493161 110:-0.505575 111:-0.444344 112:-0.376276 113:-0.302615 114:-0.253301 115:-0.193199 116:-0.112974 117:-0.0233749 118:0.0678661 119:0.188647 120:0.282687 121:0.386552 122:0.527834 123:0.694618 124:0.760697 125:0.776152 126:0.810793 127:0.794042 128:0.795098 129:0.634818 130:0.35118 131:0.0708594 132:-0.0114532 133:-0.10805 134:-0.196157 135:-0.237542 136:-0.16597 137:-0.158814 138:-0.0641279 139:0.00481398 140:-0.245872 141:-0.274738 142:-0.351246 143:-0.286737 144:-0.23582 145:-0.154899 146:-0.0741905 147:-0.0577115 148:-0.0723459 149:-0.0212305 150:0.0785314 151:0.292854 152:0.474979 153:0.648782 154:0.782212 155:0.837213 156:0.879457 157:0.927451 158:0.930998 159:0.670643 160:0.32528 161:0.154254 162:0.0882526 163:0.0261654 164:-0.0231867 165:-0.083175 166:-0.131684 167:-0.201123 168:-0.218045 169:-0.230518 170:-0.229435 171:-0.201873 172:-0.159673 173:-0.204402 174:-0.274848 175:-0.385266 176:-0.523978 177:-0.688551 178:-0.766165 179:-0.698446 180:-0.57634 181:-0.560783 182:-0.509691 183:-0.407899 184:-0.364177 185:-0.282488 186:-0.27485 187:-0.235696 188:-0.220399 189:-0.124549 190:-0.110512 191:-0.183856 192:-0.206228 193:-0.148587 194:-0.0873313 195:-0.0475436 196:0.0394454 197:0.129744 198:0.134241 199:0.0988815 200:0.406016 201:0.510099 202:0.587998 203:0.630367 204:0.661404 205:0.659821 206:0.721918 207:0.743329 208:0.677132 209:0.523415 210:0.471236 211:0.428782 212:0.368293 213:0.264352 214:0.190496 215:0.116697 216:0.0830572 217:0.0307354 218:-0.0241918 219:-0.0600057 220:-0.0791568 221:-0.100342 222:-0.122882 223:-0.138488 224:-0.145363 225:-0.16586 226:-0.195833 227:-0.265477 228:-0.52952 229:-0.48756 230:-0.400447 231:-0.0593128 232:0.434296 233:0.694167 234:0.840482 235:0.838687 236:0.668266 237:0.535626 238:0.44441 239:0.379335 240:0.373871 241:0.382951 242:0.388499 243:0.363328 244:0.385471 245:0.400989 246:0.357149 247:0.279159 248:0.292542 249:0.229593 250:0.192374 251:0.172737 252:0.196835 253:0.189318 254:0.0985519 255:-0.14226 256:-0.648895 257:-0.954029 258:-1 259:-0.899496 260:-0.504212 261:0.0159476 262:0.463211 263:0.652914 264:0.873479 265:0.952362 266:0.942532 267:0.880956 268:0.871395 269:0.805991 270:0.748272 271:0.652211 272:0.475126 273:0.265688 274:0.19766 275:0.10052 276:-0.0201488 277:-0.0272042 278:-0.073621 279:-0.0575731 280:-0.0446547 281:-0.0530666 282:-0.0549319 283:-0.0888304 284:-0.149067 285:-0.235647 286:-0.328366 287:-0.276958 288:-0.271677 289:-0.285242 290:-0.314027 291:-0.349181 292:-0.350315 293:-0.331066 294:-0.337614 295:-0.333593 296:-0.263345 297:-0.199536 298:-0.152704 299:-0.122011 
0.126740976295064 0:-0.666258 1:-0.673298 2:-0.559877 3:-0.404827 4:-0.359726 5:-0.511814 6:-0.620359 7:-0.604547 8:-0.743504 9:-0.731626 10:-0.649616 11:-0.609037 12:-0.487048 13:-0.478465 14:-0.496569 15:-0.470891 16:-0.426988 17:-0.291127 18:-0.122394 19:-0.0100461 20:0.00261101 21:-0.0146005 22:0.0569272 23:0.155603 24:0.219623 25:0.365963 26:0.583659 27:0.690905 28:0.8001 29:0.260041 30:-0.166625 31:-0.37938 32:-0.491069 33:-0.470908 34:0.0669158 35:0.205769 36:0.314615 37:0.130234 38:-0.105749 39:-0.461826 40:-0.331162 41:-0.393767 42:-0.353457 43:-0.284602 44:-0.475261 45:-0.404885 46:-0.264943 47:-0.318255 48:-0.795662 49:-0.639418 50:-0.512238 51:-0.228854 52:0.206918 53:0.379062 54:0.548306 55:0.582387 56:0.811116 57:0.860412 58:0.771385 59:0.455872 60:0.135159 61:-0.0691327 62:-0.0393396 63:0.680024 64:0.473449 65:0.291325 66:0.0381989 67:0.106835 68:-0.43834 69:-0.355872 70:-0.349089 71:-0.300344 72:-0.212096 73:-0.247179 74:0.0441624 75:0.169789 76:0.037215 77:-0.112607 78:-0.410689 79:-0.214108 80:-0.117246 81:-0.106962 82:0.0967527 83:0.450518 84:0.460014 85:0.357196 86:0.329693 87:0.359174 88:0.382771 89:0.343815 90:0.311927 91:0.275298 92:0.290904 93:0.310871 94:0.325687 95:0.351015 96:0.295891 97:0.329592 98:0.130035 99:0.0274606 100:-0.0992512 101:-0.233893 102:-0.238657 103:-0.180678 104:-0.105592 105:-0.0128961 106:-0.071747 107:-0.144266 108:-0.208751 109:-0.268617 110:-0.299285 111:-0.283697 112:-0.265538 113:-0.231192 114:-0.201151 115:-0.1799 116:-0.138521 117:-0.088166 118:-0.035465 119:0.0109161 120:0.0294486 121:0.0470552 122:0.0851347 123:0.145358 124:0.203615 125:0.380514 126:0.591773 127:0.676692 128:0.622503 129:0.624634 130:0.578881 131:0.562461 132:0.501178 133:0.315758 134:0.0956101 135:-0.0238262 136:-0.0209177 137:-0.130711 138:-0.196818 139:-0.203649 140:-0.489359 141:-0.399043 142:-0.353959 143:-0.284337 144:-0.252541 145:-0.188994 146:-0.0877056 147:-0.00791079 148:-0.0173644 149:0.0211402 150:0.116691 151:0.296144 152:0.45677 153:0.58412 154:0.714889 155:0.801612 156:0.831334 157:0.810811 158:0.760508 159:0.737279 160:0.648024 161:0.470885 162:0.26497 163:0.15914 164:0.078552 165:-0.0165517 166:-0.101077 167:-0.190427 168:-0.234612 169:-0.254269 170:-0.236662 171:-0.188649 172:-0.13921 173:-0.185866 174:-0.267791 175:-0.393503 176:-0.533594 177:-0.70114 178:-0.783958 179:-0.706115 180:-0.56766 181:-0.551309 182:-0.50269 183:-0.413611 184:-0.395643 185:-0.352143 186:-0.392837 187:-0.364133 188:-0.352208 189:-0.245456 190:-0.212713 191:-0.254679 192:-0.290326 193:-0.264748 194:-0.236569 195:-0.183032 196:-0.0827351 197:0.0148204 198:0.000748549 199:-0.0893472 200:0.241643 201:0.314858 202:0.377867 203:0.413604 204:0.445662 205:0.479398 206:0.48688 207:0.486926 208:0.450075 209:0.379294 210:0.389313 211:0.406547 212:0.384395 213:0.314265 214:0.262369 215:0.203018 216:0.201482 217:0.188553 218:0.155981 219:0.148217 220:0.145688 221:0.143073 222:0.153399 223:0.178299 224:0.191196 225:0.201833 226:0.182555 227:0.12843 228:-0.0116943 229:-0.0691297 230:-0.186166 231:-0.291346 232:-0.374008 233:-0.223341 234:0.133369 235:0.347469 236:0.443287 237:0.545648 238:0.593351 239:0.469209 240:0.421634 241:0.430127 242:0.438025 243:0.405442 244:0.408233 245:0.416625 246:0.381723 247:0.303168 248:0.30598 249:0.242918 250:0.199999 251:0.187159 252:0.226402 253:0.262517 254:0.197443 255:0.0162846 256:-0.362364 257:-0.686973 258:-0.809118 259:-0.853716 260:-0.778203 261:-0.55398 262:-0.150501 263:0.298085 264:0.615163 265:0.75806 266:0.960568 267:0.954401 268:0.931288 269:0.834233 270:0.761523 271:0.664933 272:0.488405 273:0.242128 274:0.124354 275:-0.0152888 276:-0.152964 277:-0.179327 278:-0.224832 279:-0.208124 280:-0.196536 281:-0.199683 282:-0.192356 283:-0.21785 284:-0.281756 285:-0.369953 286:-0.438722 287:-0.365192 288:-0.324145 289:-0.291419 290:-0.280794 291:-0.276562 292:-0.244726 293:-0.207748 294:-0.203091 295:-0.179665 296:-0.101177 297:-0.0396123 298:-0.00234616 299:0.0236372 
-1.984597971532833 0:-0.057327 1:-0.128868 2:-0.133376 3:-0.0908342 4:-0.0576049 5:0.0580679 6:0.0450312 7:0.0335006 8:-0.143722 9:-0.275439 10:-0.215809 11:-0.153088 12:-0.0233382 13:0.0349542 14:0.0426067 15:-0.0739878 16:-0.201867 17:-0.297281 18:-0.0615811 19:0.106072 20:0.202758 21:0.20429 22:0.198631 23:0.213488 24:0.134229 25:0.0700811 26:0.0493047 27:0.0276164 28:0.157471 29:-0.159859 30:-0.350895 31:-0.376524 32:-0.361817 33:-0.17193 34:0.186097 35:0.124282 36:0.173238 37:0.0465266 38:0.105588 39:0.0318618 40:-0.00980843 41:-0.473601 42:-0.891647 43:-1 44:-1 45:-0.523051 46:-0.0205641 47:0.231044 48:0.338767 49:0.117036 50:-0.0817982 51:-0.127206 52:0.0926872 53:0.162229 54:0.126796 55:-0.00732368 56:-0.0755144 57:-0.232159 58:-0.210585 59:-0.111731 60:0.160241 61:0.411411 62:0.578585 63:0.650673 64:0.103782 65:-0.0726874 66:-0.203225 67:-0.103429 68:-0.590186 69:-0.553338 70:-0.728674 71:-0.602151 72:-0.52493 73:-0.535616 74:-0.27285 75:-0.091153 76:-0.225798 77:-0.440166 78:-0.984921 79:-0.87116 80:-0.783866 81:-0.72643 82:-0.579592 83:-0.473533 84:-0.475445 85:-0.445963 86:-0.200468 87:0.0193213 88:0.0634325 89:-0.0511368 90:-0.101423 91:-0.106096 92:-0.0349585 93:0.010715 94:0.000604989 95:-0.0520024 96:-0.136147 97:-0.0928315 98:-0.314952 99:-0.264801 100:-0.315926 101:-0.351877 102:-0.338093 103:-0.310041 104:-0.268708 105:-0.127225 106:-0.0513032 107:-0.0411829 108:-0.0662209 109:-0.0989203 110:-0.127127 111:-0.0922576 112:-0.0388807 113:0.0209607 114:0.0232295 115:-0.00991463 116:-0.0272094 117:-0.00323852 118:0.0328449 119:0.113184 120:0.123254 121:0.068415 122:0.0627825 123:0.100557 124:0.100787 125:0.163442 126:0.247421 127:0.256039 128:0.212037 129:0.143113 130:0.0931866 131:0.0814998 132:0.0498701 133:0.0580921 134:0.0689241 135:0.114254 136:0.379954 137:0.586394 138:0.824053 139:0.943376 140:1 141:0.877941 142:0.664906 143:0.4148 144:0.278406 145:0.145218 146:0.0759168 147:0.0343094 148:0.0233825 149:0.0398772 150:0.0554428 151:0.102077 152:0.126799 153:0.147428 154:0.149468 155:0.105278 156:0.0275914 157:-0.0691433 158:-0.193206 159:-0.112598 160:-0.0819079 161:-0.0725143 162:-0.0493547 163:0.000943463 164:0.0155857 165:-0.0235757 166:-0.0615873 167:-0.124319 168:-0.14806 169:-0.176671 170:-0.176475 171:-0.137068 172:-0.0763004 173:-0.0905498 174:-0.126731 175:-0.219953 176:-0.358395 177:-0.531636 178:-0.603855 179:-0.49495 180:-0.314499 181:-0.209315 182:-0.124339 183:-0.0635868 184:-0.0422695 185:0.0621167 186:0.147433 187:0.165903 188:0.114637 189:0.1219 190:0.106934 191:0.0932632 192:0.0824557 193:0.100716 194:0.114484 195:0.155872 196:0.217563 197:0.270974 198:0.235164 199:0.124213 200:1 201:1 202:0.971394 203:0.913204 204:0.864133 205:0.826706 206:0.787752 207:0.723553 208:0.614274 209:0.448357 210:0.386984 211:0.337169 212:0.287179 213:0.206451 214:0.123268 215:0.00257689 216:-0.0464236 217:-0.0563425 218:-0.0523044 219:-0.00731967 220:0.0180578 221:0.0306678 222:0.0803633 223:0.153753 224:0.22412 225:0.286555 226:0.338206 227:0.376009 228:0.351157 229:0.422272 230:0.44308 231:0.488171 232:0.531292 233:0.580178 234:0.52653 235:0.341369 236:0.0343526 237:-0.134253 238:-0.348967 239:-0.639099 240:-0.852062 241:-1 242:-1 243:-1 244:-0.63908 245:-0.224195 246:0.0635522 247:0.215944 248:0.458492 249:0.538611 250:0.543004 251:0.512361 252:0.562302 253:0.616287 254:0.639394 255:0.614887 256:0.530261 257:0.446876 258:0.490962 259:0.637937 260:0.610892 261:0.618342 262:0.693481 263:0.761368 264:0.813287 265:0.816268 266:0.763373 267:0.685451 268:0.64924 269:0.570111 270:0.481032 271:0.347785 272:0.0795123 273:-0.231376 274:-0.284702 275:-0.362786 276:-0.470367 277:-0.517892 278:-0.569924 279:-0.586546 280:-0.599086 281:-0.633293 282:-0.677055 283:-0.679242 284:-0.686171 285:-0.732638 286:-0.797146 287:-0.721129 288:-0.68626 289:-0.662729 290:-0.647359 291:-0.634541 292:-0.582725 293:-0.519987 294:-0.515411 295:-0.542925 296:-0.488066 297:-0.417104 298:-0.348051 299:-0.294101 
-2 0:-0.627224 1:-0.606232 2:-0.552926 3:-0.539463 4:-0.544489 5:-0.566681 6:-0.549679 7:-0.449494 8:-0.481686 9:-0.435679 10:-0.323779 11:-0.20042 12:0.00268393 13:0.148207 14:0.302633 15:0.374741 16:0.547626 17:0.826436 18:1 19:1 20:1 21:1 22:1 23:1 24:1 25:1 26:0.971452 27:0.905383 28:1 29:0.432933 30:0.083788 31:-0.0370985 32:-0.0985778 33:0.188247 34:0.616612 35:0.471962 36:0.34411 37:0.046985 38:-0.0997955 39:-0.301496 40:-0.164432 41:-0.262638 42:-0.299387 43:-0.175266 44:-0.261221 45:-0.153484 46:-0.0189783 47:0.0052002 48:-0.0951301 49:0.020036 50:0.099939 51:0.234896 52:0.344485 53:0.221043 54:0.0373302 55:-0.14664 56:-0.242365 57:-0.441798 58:-0.499464 59:-0.587472 60:-0.471015 61:-0.0515163 62:0.412812 63:0.806029 64:0.424757 65:0.302885 66:0.105483 67:0.258496 68:-0.355455 69:-0.383969 70:-0.537452 71:-0.467375 72:-0.349935 73:-0.303186 74:0.113809 75:0.392425 76:0.397011 77:0.272994 78:-0.0212754 79:-0.00233578 80:-0.0386052 81:-0.1245 82:0.0149663 83:0.302591 84:0.29163 85:0.180199 86:0.190319 87:0.236964 88:0.254627 89:0.180234 90:0.145963 91:0.131786 92:0.161906 93:0.173693 94:0.143649 95:0.0535713 96:-0.100323 97:-0.119652 98:-0.42603 99:-0.451107 100:-0.145258 101:-0.0574933 102:0.0305415 103:0.0956596 104:0.0977891 105:0.133534 106:0.128869 107:0.0909054 108:0.05043 109:0.010002 110:-0.013699 111:-0.00218836 112:0.0120285 113:0.0371247 114:0.0585208 115:0.0763215 116:0.095577 117:0.111129 118:0.115333 119:0.0990962 120:0.0433983 121:-0.0223206 122:-0.0782232 123:-0.12325 124:-0.181197 125:-0.11206 126:-0.00404024 127:0.020328 128:-0.0292683 129:-0.111273 130:-0.163031 131:-0.165187 132:-0.199539 133:-0.217664 134:-0.213639 135:-0.172255 136:-0.106569 137:-0.124222 138:0.0292925 139:0.135025 140:-0.0502461 141:-0.0130402 142:-0.0137763 143:0.063389 144:0.11123 145:0.175835 146:0.26733 147:0.309385 148:0.337108 149:0.40685 150:0.494679 151:0.597054 152:0.661764 153:0.692478 154:0.703074 155:0.668948 156:0.615883 157:0.551669 158:0.409457 159:0.379826 160:0.378335 161:0.324339 162:0.241376 163:0.180334 164:0.120294 165:0.0548244 166:-0.00614269 167:-0.089179 168:-0.143676 169:-0.193894 170:-0.208729 171:-0.185024 172:-0.139658 173:-0.183575 174:-0.260003 175:-0.388938 176:-0.555364 177:-0.769037 178:-0.911552 179:-0.887714 180:-0.787411 181:-0.821854 182:-0.858846 183:-0.845394 184:-0.857797 185:-0.825458 186:-0.913053 187:-0.917875 188:-0.943756 189:-0.823267 190:-0.809488 191:-0.901539 192:-1 193:-1 194:-0.982522 195:-0.940915 196:-0.807873 197:-0.670514 198:-0.72678 199:-0.897843 200:-0.26405 201:-0.154049 202:-0.0541569 203:0.0181685 204:0.101317 205:0.184375 206:0.260922 207:0.330624 208:0.377933 209:0.414889 210:0.538941 211:0.619966 212:0.672384 213:0.665347 214:0.675399 215:0.710631 216:0.769045 217:0.824209 218:0.841113 219:0.867981 220:0.894909 221:0.911564 222:0.935499 223:0.958943 224:0.979444 225:0.999925 226:1 227:1 228:1 229:1 230:1 231:1 232:1 233:1 234:0.91532 235:0.709647 236:0.484184 237:0.347584 238:0.198386 239:0.0804427 240:0.0747937 241:0.0865154 242:0.0937992 243:0.0530539 244:0.0760038 245:0.0922137 246:0.0456456 247:-0.0567726 248:-0.025412 249:-0.097426 250:-0.147565 251:-0.168017 252:-0.12215 253:-0.102771 254:-0.161437 255:-0.372332 256:-0.831619 257:-1 258:-0.820567 259:-0.590823 260:-0.268654 261:-0.0299693 262:0.144211 263:0.318034 264:0.505637 265:0.603857 266:0.663052 267:0.718736 268:0.77819 269:0.773686 270:0.742554 271:0.681353 272:0.566776 273:0.432386 274:0.403872 275:0.326113 276:0.206748 277:0.206746 278:0.132045 279:0.130293 280:0.119873 281:0.0632643 282:0.0099637 283:-0.0634303 284:-0.162778 285:-0.28342 286:-0.404502 287:-0.398676 288:-0.422559 289:-0.452215 290:-0.487599 291:-0.541088 292:-0.558661 293:-0.548783 294:-0.584304 295:-0.632053 296:-0.617391 297:-0.594367 298:-0.584635 299:-0.592416 
-1.683481304367913 0:-0.665428 1:-0.671718 2:-0.600049 3:-0.518503 4:-0.503249 5:-0.519312 6:-0.500882 7:-0.340746 8:-0.332191 9:-0.319811 10:-0.262019 11:-0.219891 12:-0.0878195 13:0.000226145 14:0.0840185 15:0.0891572 16:0.161511 17:0.382994 18:0.602856 19:0.692508 20:0.746664 21:0.738254 22:0.706491 23:0.639085 24:0.514647 25:0.412261 26:0.405115 27:0.301478 28:0.436121 29:-0.0371569 30:-0.308341 31:-0.357134 32:-0.350494 33:-0.202755 34:0.143537 35:0.0760847 36:0.0705012 37:-0.20481 38:-0.311846 39:-0.47511 40:-0.282623 41:-0.330047 42:-0.32229 43:-0.177645 44:-0.237389 45:-0.0596429 46:0.196535 47:0.319672 48:0.183369 49:-0.00568829 50:-0.14729 51:-0.209426 52:-0.29343 53:-0.702037 54:-0.830248 55:-0.459841 56:0.0269261 57:0.387397 58:0.699592 59:0.71137 60:0.578577 61:0.535525 62:0.592922 63:0.62621 64:0.0821802 65:-0.0859865 66:-0.209629 67:-0.129965 68:-0.630718 69:-0.566825 70:-0.647256 71:-0.515581 72:-0.426791 73:-0.443749 74:-0.145434 75:0.0282244 76:-0.0866177 77:-0.235389 78:-0.598764 79:-0.495376 80:-0.50942 81:-0.560021 82:-0.536818 83:-0.461341 84:-0.451834 85:-0.453267 86:-0.34705 87:-0.263313 88:-0.224576 89:-0.243203 90:-0.147493 91:-0.0674946 92:0.0234578 93:0.0729281 94:0.0954981 95:0.101572 96:0.109741 97:0.260313 98:0.181724 99:0.19824 100:0.404499 101:0.343316 102:0.344876 103:0.356551 104:0.349516 105:0.370969 106:0.318635 107:0.249938 108:0.184783 109:0.12958 110:0.0828503 111:0.0659301 112:0.0619575 113:0.0789889 114:0.106698 115:0.111469 116:0.104535 117:0.101907 118:0.110045 119:0.124887 120:0.109858 121:0.0523662 122:-0.00420034 123:-0.0447561 124:-0.0955988 125:-0.0393452 126:0.0342496 127:0.0752342 128:0.0310379 129:-0.0390192 130:-0.107082 131:-0.133735 132:-0.147601 133:-0.13755 134:-0.129432 135:-0.0914019 136:0.0601847 137:0.139863 138:0.268248 139:0.35468 140:0.24224 141:0.231371 142:0.182296 143:0.222246 144:0.266389 145:0.353603 146:0.473218 147:0.533905 148:0.56392 149:0.582364 150:0.587468 151:0.624369 152:0.639377 153:0.591244 154:0.512781 155:0.43517 156:0.274523 157:0.0958246 158:-0.0566628 159:0.006868 160:0.0109081 161:0.0100426 162:0.0150519 163:0.0479112 164:0.0515982 165:0.00757901 166:-0.0536623 167:-0.135313 168:-0.173434 169:-0.211473 170:-0.237771 171:-0.220614 172:-0.149358 173:-0.233369 174:-0.29494 175:-0.408338 176:-0.586518 177:-0.810039 178:-0.909009 179:-0.796215 180:-0.71612 181:-0.754637 182:-0.679933 183:-0.552586 184:-0.538729 185:-0.461381 186:-0.486823 187:-0.436002 188:-0.350019 189:-0.167066 190:-0.0898169 191:-0.125952 192:-0.181182 193:-0.154647 194:-0.103516 195:-0.0304872 196:0.0721131 197:0.143013 198:0.0919389 199:-0.026604 200:-0.205933 201:-0.143778 202:-0.0904676 203:-0.0382003 204:0.0116993 205:0.0339027 206:0.0533833 207:0.0633658 208:0.049554 209:0.0430596 210:0.194896 211:0.312457 212:0.392653 213:0.417293 214:0.454485 215:0.505379 216:0.569452 217:0.610706 218:0.615828 219:0.632808 220:0.651934 221:0.673386 222:0.694641 223:0.705676 224:0.718785 225:0.742369 226:0.754441 227:0.743542 228:0.683803 229:0.689668 230:0.695593 231:0.714648 232:0.70871 233:0.715948 234:0.646558 235:0.468746 236:0.22486 237:0.119094 238:0.0179923 239:-0.0573201 240:-0.033059 241:0.012952 242:0.0451745 243:0.0146996 244:0.04023 245:0.0404692 246:-0.0437865 247:-0.230546 248:-0.276519 249:-0.447441 250:-0.580975 251:-0.651241 252:-0.590732 253:-0.500647 254:-0.3986 255:-0.259264 256:-0.156767 257:0.171567 258:0.533539 259:0.831926 260:0.794983 261:0.714479 262:0.680413 263:0.642379 264:0.623741 265:0.562948 266:0.465299 267:0.374032 268:0.327738 269:0.258229 270:0.194561 271:0.098587 272:-0.2207 273:-0.534933 274:-0.551681 275:-0.535254 276:-0.531346 277:-0.511994 278:-0.560924 279:-0.566642 280:-0.497352 281:-0.498133 282:-0.533418 283:-0.574361 284:-0.615851 285:-0.686781 286:-0.728552 287:-0.623088 288:-0.563994 289:-0.497193 290:-0.417876 291:-0.34164 292:-0.236353 293:-0.138054 294:-0.0743692 295:-0.0206482 296:0.0639672 297:0.137997 298:0.197005 299:0.247795 
-0.9878507867432087 0:-0.100779 1:-0.1651 2:-0.169529 3:-0.131916 4:-0.114183 5:-0.076293 6:-0.116867 7:-0.0726148 8:-0.149471 9:-0.20943 10:-0.170914 11:-0.117788 12:0.0256657 13:0.142138 14:0.253814 15:0.290855 16:0.347932 17:0.444887 18:0.468476 19:0.385266 20:0.3155 21:0.241789 22:0.225542 23:0.223823 24:0.106655 25:0.00746236 26:-0.000828329 27:-0.00306796 28:0.111417 29:-0.197698 30:-0.368831 31:-0.374626 32:-0.342273 33:-0.127978 34:0.263308 35:0.199196 36:0.213046 37:0.0575508 38:0.0682833 39:-0.0146527 40:0.141874 41:-0.0866988 42:-0.376744 43:-0.39682 44:-0.653113 45:-0.733262 46:-0.627964 47:-0.478507 48:-0.368714 49:0.051426 50:0.1641 51:0.368614 52:0.421521 53:0.207804 54:-0.0363491 55:0.0049992 56:0.21484 57:0.243657 58:0.208982 59:0.090514 60:0.104231 61:0.239292 62:0.322702 63:0.347153 64:-0.0780983 65:-0.194172 66:-0.278195 67:-0.201535 68:-0.693633 69:-0.669849 70:-0.809754 71:-0.615561 72:-0.515886 73:-0.550652 74:-0.297524 75:-0.0837728 76:-0.140594 77:-0.281255 78:-0.739943 79:-0.657845 80:-0.656708 81:-0.715907 82:-0.694679 83:-0.687828 84:-0.708087 85:-0.635842 86:-0.36623 87:-0.133976 88:-0.0330267 89:-0.117213 90:-0.199615 91:-0.249378 92:-0.210371 93:-0.19802 94:-0.284403 95:-0.520169 96:-1 97:-1 98:-0.87919 99:0.2296 100:-0.283412 101:-0.207202 102:-0.140559 103:-0.0784435 104:-0.0191125 105:0.0388868 106:0.0588896 107:0.0421978 108:-0.0027719 109:-0.0826021 110:-0.101475 111:-0.0814641 112:-0.0535125 113:-0.00560778 114:0.0333337 115:0.0640324 116:0.0811981 117:0.0920178 118:0.11476 119:0.120042 120:0.0765395 121:0.0327725 122:0.0181167 123:0.00847458 124:-0.0101916 125:0.0694107 126:0.175321 127:0.20155 128:0.166927 129:0.106051 130:0.0652885 131:0.0623643 132:0.0355479 133:0.0480148 134:0.0678095 135:0.118908 136:0.352645 137:0.501903 138:0.683718 139:0.81398 140:0.876199 141:0.796075 142:0.624709 143:0.512651 144:0.431853 145:0.388194 146:0.341372 147:0.306823 148:0.203913 149:0.0613009 150:0.00269725 151:0.0484544 152:0.0736559 153:0.105045 154:0.133327 155:0.15286 156:0.12192 157:0.0628186 158:-0.0478715 159:0.00840332 160:0.016008 161:0.0145619 162:0.0182278 163:0.0507066 164:0.0399028 165:-0.0218301 166:-0.089554 167:-0.181259 168:-0.224077 169:-0.209421 170:-0.219388 171:-0.216897 172:-0.154681 173:-0.225571 174:-0.294623 175:-0.392982 176:-0.529894 177:-0.709169 178:-0.797678 179:-0.705671 180:-0.534798 181:-0.459272 182:-0.344999 183:-0.190514 184:-0.106614 185:0.0190637 186:0.0793085 187:0.128492 188:0.127521 189:0.169694 190:0.163547 191:0.100748 192:0.0216149 193:0.0469647 194:0.168503 195:0.285549 196:0.127988 197:-0.0142393 198:-0.184387 199:-0.325751 200:0.886047 201:0.876071 202:0.863107 203:0.827779 204:0.79648 205:0.774365 206:0.765421 207:0.745848 208:0.686958 209:0.584574 210:0.578872 211:0.592322 212:0.577957 213:0.501487 214:0.441467 215:0.384839 216:0.360243 217:0.319037 218:0.256076 219:0.223778 220:0.221924 221:0.230026 222:0.248014 223:0.282739 224:0.319238 225:0.36134 226:0.399947 227:0.420029 228:0.389405 229:0.453084 230:0.475683 231:0.520848 232:0.561415 233:0.609372 234:0.564969 235:0.394985 236:0.119313 237:-0.0372802 238:-0.211945 239:-0.410756 240:-0.524718 241:-0.628181 242:-0.674712 243:-0.808743 244:-0.800338 245:-0.741715 246:-0.680642 247:-0.596447 248:-0.241488 249:-0.013792 250:0.254231 251:0.498986 252:0.657204 253:0.695784 254:0.63436 255:0.540412 256:0.395062 257:0.247313 258:0.209884 259:0.242117 260:0.175315 261:0.175048 262:0.21148 263:0.237553 264:0.297092 265:0.253922 266:0.150351 267:0.0865548 268:0.0654762 269:0.0159287 270:-0.052255 271:-0.176351 272:-0.599447 273:-1 274:-1 275:-1 276:-1 277:-1 278:-1 279:-1 280:-1 281:-1 282:-1 283:-1 284:-1 285:-1 286:-0.942087 287:-0.730263 288:-0.573696 289:-0.428302 290:-0.280765 291:-0.144176 292:0.00165818 293:0.182084 294:0.383576 295:0.495409 296:0.554245 297:0.667736 298:0.799708 299:0.865095 
-0.5757874286025328 0:-0.307722 1:-0.443876 2:-0.476464 3:-0.399545 4:-0.296499 5:-0.158633 6:-0.0980456 7:-0.0254225 8:-0.118829 9:-0.222442 10:-0.205307 11:-0.14685 12:-0.00354292 13:0.11536 14:0.238392 15:0.311141 16:0.4713 17:0.694172 18:0.758809 19:0.635398 20:0.520774 21:0.416521 22:0.382719 23:0.289497 24:0.0771625 25:0.119034 26:0.223575 27:0.296262 28:0.473761 29:0.0848839 30:-0.190776 31:-0.265692 32:-0.282803 33:-0.0397687 34:0.376454 35:0.274532 36:0.191621 37:-0.107058 38:-0.229253 39:-0.35964 40:-0.114997 41:-0.0719875 42:-0.0556493 43:0.0751563 44:-0.0510199 45:-0.0212405 46:-0.0186471 47:-0.176704 48:-0.737554 49:-1 50:-0.844286 51:-0.217314 52:0.0853395 53:0.110097 54:0.0328752 55:0.00130827 56:0.15041 57:0.221345 58:0.320092 59:0.312618 60:0.420181 61:0.611852 62:0.840183 63:0.939931 64:0.282634 65:0.0115714 66:-0.179794 67:-0.132285 68:-0.609161 69:-0.535682 70:-0.578712 71:-0.465225 72:-0.364697 73:-0.384772 74:-0.0977846 75:0.0636174 76:-0.0484703 77:-0.201972 78:-0.509095 79:-0.359886 80:-0.321452 81:-0.394825 82:-0.23789 83:0.104716 84:0.159546 85:0.0869723 86:0.0534934 87:0.0810034 88:0.0745349 89:0.00588242 90:-0.0814717 91:-0.204743 92:-0.23378 93:-0.234462 94:-0.223833 95:-0.269397 96:-0.385247 97:-0.402813 98:-0.742865 99:-0.732853 100:-0.648573 101:-0.625905 102:-0.567542 103:-0.517671 104:-0.436053 105:-0.285905 106:-0.222391 107:-0.228817 108:-0.261558 109:-0.261343 110:-0.24978 111:-0.203788 112:-0.168752 113:-0.122731 114:-0.0888162 115:-0.042216 116:0.0165823 117:0.054781 118:0.0762016 119:0.0776572 120:0.0621023 121:0.0341938 122:0.00292117 123:-0.0602121 124:-0.156798 125:-0.0221758 126:0.116225 127:0.156212 128:0.109492 129:0.0345801 130:-0.0018593 131:-0.00566644 132:-0.0362139 133:-0.0186593 134:-0.00419512 135:0.0255387 136:0.176842 137:0.230701 138:0.339232 139:0.443859 140:0.421459 141:0.51015 142:0.554766 143:0.615079 144:0.613469 145:0.650826 146:0.721827 147:0.695688 148:0.624866 149:0.53599 150:0.478022 151:0.469469 152:0.330246 153:0.205677 154:0.119407 155:0.0455905 156:-0.0186887 157:-0.0707513 158:-0.174204 159:-0.0901206 160:-0.0393765 161:-0.0116588 162:0.015208 163:0.0545953 164:0.0627313 165:0.0214029 166:-0.0228324 167:-0.0942038 168:-0.121116 169:-0.148104 170:-0.151248 171:-0.127445 172:-0.0895245 173:-0.150451 174:-0.239213 175:-0.373994 176:-0.493695 177:-0.669676 178:-0.821119 179:-0.750136 180:-0.595189 181:-0.585411 182:-0.579849 183:-0.563626 184:-0.549205 185:-0.498696 186:-0.554182 187:-0.58573 188:-0.636622 189:-0.498924 190:-0.413878 191:-0.391795 192:-0.459105 193:-0.445363 194:-0.392525 195:-0.32059 196:-0.193869 197:-0.0674721 198:-0.0550354 199:-0.096182 200:0.544475 201:0.591762 202:0.643255 203:0.689478 204:0.743374 205:0.793002 206:0.81981 207:0.838432 208:0.838272 209:0.817302 210:0.831365 211:0.836482 212:0.801276 213:0.724034 214:0.66225 215:0.633701 216:0.64588 217:0.616456 218:0.542371 219:0.470734 220:0.41803 221:0.376462 222:0.355784 223:0.384642 224:0.433895 225:0.458053 226:0.485396 227:0.505429 228:0.477899 229:0.528607 230:0.543369 231:0.577337 232:0.608596 233:0.640974 234:0.582114 235:0.404263 236:0.158343 237:0.0607928 238:-0.0571764 239:-0.176945 240:-0.203957 241:-0.221346 242:-0.244999 243:-0.375237 244:-0.466041 245:-0.550762 246:-0.71194 247:-1 248:-1 249:-0.983155 250:-0.849244 251:-0.594747 252:-0.0903605 253:0.314818 254:0.518895 255:0.723538 256:0.999497 257:1 258:0.930966 259:0.92111 260:0.766505 261:0.687362 262:0.700868 263:0.720344 264:0.742312 265:0.714988 266:0.64355 267:0.568494 268:0.539937 269:0.474379 270:0.405001 271:0.304877 272:0.0815588 273:-0.16007 274:-0.147753 275:-0.160049 276:-0.203857 277:-0.156854 278:-0.14175 279:-0.125904 280:-0.133378 281:-0.136797 282:-0.131599 283:-0.147884 284:-0.24531 285:-0.374261 286:-0.493302 287:-0.464026 288:-0.476614 289:-0.526487 290:-0.583689 291:-0.657189 292:-0.647675 293:-0.626442 294:-0.672188 295:-0.72694 296:-0.71206 297:-0.680307 298:-0.648637 299:-0.626927 
-0.2385233750212282 0:-0.718348 1:-0.861379 2:-0.935616 3:-0.886332 4:-0.76618 5:-0.616613 6:-0.492141 7:-0.348142 8:-0.404859 9:-0.428661 10:-0.342518 11:-0.272733 12:-0.116576 13:0.0036749 14:0.15735 15:0.253933 16:0.43088 17:0.70579 18:0.882369 19:0.896152 20:0.874151 21:0.80457 22:0.745282 23:0.693599 24:0.62462 25:0.569913 26:0.520953 27:0.445496 28:0.53119 29:0.0812452 30:-0.202204 31:-0.278826 32:-0.300683 33:-0.112405 34:0.214959 35:0.0802707 36:0.020608 37:-0.278711 38:-0.3869 39:-0.570737 40:-0.396583 41:-0.503931 42:-0.504824 43:-0.39916 44:-0.535803 45:-0.399561 46:-0.220035 47:-0.205673 48:-0.290891 49:0.125639 50:0.349783 51:0.427875 52:0.236194 53:-0.165914 54:-0.649307 55:-0.738887 56:-0.234417 57:0.465524 58:0.91497 59:1 60:0.909029 61:0.688028 62:0.659097 63:0.693807 64:0.217972 65:0.134059 66:-0.0151409 67:0.101001 68:-0.465009 69:-0.472288 70:-0.565905 71:-0.446724 72:-0.313047 73:-0.277331 74:0.0802822 75:0.285638 76:0.202208 77:-0.000239964 78:-0.491262 79:-0.52036 80:-0.590714 81:-0.69493 82:-0.688225 83:-0.614237 84:-0.655272 85:-0.729484 86:-0.665055 87:-0.657274 88:-0.768605 89:-1 90:-1 91:-1 92:-1 93:-1 94:-1 95:-1 96:-0.871283 97:-0.609117 98:-0.800292 99:-0.774429 100:0.164248 101:0.0845201 102:0.0340908 103:4.15442e-05 104:-0.0181998 105:0.0407455 106:0.0520974 107:0.0240548 108:-0.0218261 109:-0.0761992 110:-0.119732 111:-0.120061 112:-0.105232 113:-0.0580135 114:-0.0258694 115:-0.0192652 116:-0.00713072 117:0.0230546 118:0.0763194 119:0.11675 120:0.104966 121:0.0607316 122:0.0233171 123:-0.00875851 124:-0.0628171 125:-0.0103711 126:0.0745943 127:0.0781603 128:0.01543 129:-0.0782426 130:-0.136517 131:-0.164643 132:-0.208961 133:-0.201628 134:-0.186538 135:-0.166061 136:-0.0469031 137:0.0195148 138:0.156969 139:0.282168 140:0.21579 141:0.193843 142:0.118031 143:0.181792 144:0.13749 145:0.204307 146:0.322069 147:0.385355 148:0.38614 149:0.471532 150:0.582438 151:0.690677 152:0.658122 153:0.617023 154:0.487943 155:0.336734 156:0.322926 157:0.0998697 158:-0.0901574 159:-0.0461828 160:-0.0209644 161:-0.00587808 162:-0.0136881 163:0.00737557 164:0.00933021 165:-0.023282 166:-0.0650012 167:-0.144112 168:-0.190962 169:-0.232946 170:-0.242588 171:-0.216429 172:-0.171493 173:-0.217983 174:-0.295138 175:-0.420751 176:-0.583406 177:-0.795731 178:-0.94449 179:-0.913719 180:-0.811346 181:-0.844837 182:-0.862392 183:-0.812866 184:-0.776774 185:-0.683587 186:-0.690405 187:-0.614872 188:-0.538138 189:-0.34374 190:-0.235261 191:-0.22706 192:-0.213896 193:-0.120327 194:0.0120043 195:0.196026 196:0.355778 197:0.446407 198:0.434502 199:0.355954 200:-0.690407 201:-0.564333 202:-0.426212 203:-0.283124 204:-0.127373 205:0.0152035 206:0.167177 207:0.327311 208:0.482126 209:0.627636 210:0.800648 211:0.926315 212:1 213:1 214:1 215:1 216:1 217:0.992491 218:0.954721 219:0.925508 220:0.898508 221:0.870879 222:0.846187 223:0.840482 224:0.842911 225:0.849749 226:0.842904 227:0.828647 228:0.802488 229:0.807533 230:0.796342 231:0.788796 232:0.785059 233:0.781519 234:0.694757 235:0.498116 236:0.241435 237:0.125278 238:0.0142862 239:-0.0896764 240:-0.08812 241:-0.0464624 242:-0.00239114 243:-0.0310318 244:0.025332 245:0.0466704 246:-0.00425174 247:-0.11199 248:-0.0836592 249:-0.237768 250:-0.419352 251:-0.587498 252:-0.628462 253:-0.652695 254:-0.706813 255:-0.772598 256:-0.671588 257:0.00553926 258:0.433367 259:0.805884 260:1 261:1 262:1 263:1 264:1 265:1 266:0.970176 267:0.908036 268:0.898083 269:0.840497 270:0.806628 271:0.761932 272:0.704504 273:0.641453 274:0.622924 275:0.551798 276:0.442897 277:0.479961 278:0.402658 279:0.389642 280:0.367897 281:0.306576 282:0.262239 283:0.153616 284:-0.00735649 285:-0.204095 286:-0.386099 287:-0.438324 288:-0.544373 289:-0.65669 290:-0.766514 291:-0.898243 292:-1 293:-1 294:-1 295:-1 296:-1 297:-1 298:-1 299:-1 
-0.4363068130162464 0:-0.1372 1:-0.252929 2:-0.292603 3:-0.283133 4:-0.249048 5:-0.161944 6:-0.0985325 7:0.0174647 8:0.00416081 9:-0.0392748 10:0.00178697 11:0.0109046 12:0.0658922 13:0.0706131 14:0.125784 15:0.124675 16:0.272456 17:0.540847 18:0.756312 19:0.755125 20:0.742891 21:0.672641 22:0.592563 23:0.471966 24:0.3982 25:0.334475 26:0.294082 27:0.332009 28:0.557498 29:0.142801 30:-0.119493 31:-0.211568 32:-0.255853 33:-0.0641721 34:0.294954 35:0.180513 36:0.144652 37:-0.123139 38:-0.219429 39:-0.410999 40:-0.240431 41:-0.327206 42:-0.33585 43:-0.190429 44:-0.294144 45:-0.200839 46:-0.0961942 47:-0.066656 48:-0.209635 49:-0.0945867 50:-0.0790769 51:-0.0734105 52:-0.21243 53:-0.666372 54:-0.909273 55:-0.633748 56:-0.109342 57:0.319727 58:0.739151 59:0.950305 60:1 61:1 62:1 63:0.911448 64:0.207714 65:-0.00900467 66:-0.158799 67:-0.0328768 68:-0.512132 69:-0.43257 70:-0.52354 71:-0.457596 72:-0.378597 73:-0.385151 74:-0.0528376 75:0.201275 76:0.201477 77:0.113582 78:-0.163107 79:-0.104175 80:-0.162958 81:-0.285926 82:-0.214143 83:-0.0306771 84:-0.0594617 85:-0.118543 86:-0.0600706 87:0.00781653 88:0.0298779 89:-0.0389647 90:-0.0213985 91:0.0100272 92:0.0792803 93:0.124479 94:0.120613 95:0.0681851 96:-0.0626684 97:-0.0980067 98:-0.41067 99:-0.441879 100:-0.546309 101:-0.514792 102:-0.443314 103:-0.367708 104:-0.310795 105:-0.194486 106:-0.150943 107:-0.150808 108:-0.159516 109:-0.161994 110:-0.143709 111:-0.0784856 112:-0.0248679 113:0.0290069 114:0.0515638 115:0.0672791 116:0.109448 117:0.156713 118:0.20156 119:0.216118 120:0.188313 121:0.135516 122:0.0996284 123:0.0778059 124:0.00599966 125:0.0341017 126:0.0999191 127:0.109898 128:0.0726886 129:0.019256 130:-0.0267092 131:-0.074686 132:-0.118304 133:-0.10568 134:-0.0959565 135:-0.0709162 136:0.0681251 137:0.119844 138:0.220182 139:0.295212 140:0.182884 141:0.207891 142:0.197665 143:0.255878 144:0.306608 145:0.389773 146:0.50414 147:0.580367 148:0.63746 149:0.70645 150:0.753787 151:0.784516 152:0.733642 153:0.672704 154:0.540602 155:0.458275 156:0.429618 157:0.248386 158:0.0289139 159:0.0331132 160:0.0209772 161:0.000982918 162:-0.00532064 163:0.0142653 164:0.00170193 165:-0.0401723 166:-0.0828991 167:-0.133637 168:-0.147915 169:-0.162481 170:-0.16251 171:-0.13604 172:-0.0946156 173:-0.133725 174:-0.199026 175:-0.312864 176:-0.461988 177:-0.647619 178:-0.760242 179:-0.717553 180:-0.620274 181:-0.638029 182:-0.649239 183:-0.604216 184:-0.588176 185:-0.505709 186:-0.521112 187:-0.477483 188:-0.465885 189:-0.355393 190:-0.32877 191:-0.384659 192:-0.433658 193:-0.407677 194:-0.363011 195:-0.303138 196:-0.195231 197:-0.107595 198:-0.143283 199:-0.250972 200:0.471779 201:0.501922 202:0.544181 203:0.595836 204:0.665756 205:0.739353 206:0.758265 207:0.755239 208:0.712515 209:0.702436 210:0.757608 211:0.776758 212:0.771742 213:0.715243 214:0.693417 215:0.694798 216:0.706656 217:0.704129 218:0.660438 219:0.64521 220:0.633437 221:0.618563 222:0.619926 223:0.632144 224:0.639403 225:0.658691 226:0.693721 227:0.705452 228:0.681462 229:0.698484 230:0.701376 231:0.73993 232:0.773757 233:0.805592 234:0.755413 235:0.595462 236:0.387088 237:0.283748 238:0.181881 239:0.0804596 240:0.0630957 241:0.0767115 242:0.0791454 243:0.022295 244:0.0119136 245:-0.00856457 246:-0.104385 247:-0.303783 248:-0.349332 249:-0.597162 250:-0.819828 251:-1 252:-1 253:-1 254:-1 255:-1 256:-1 257:-0.517359 258:-0.0235174 259:0.185731 260:0.342907 261:0.535256 262:0.660588 263:0.762937 264:0.827855 265:0.835228 266:0.79388 267:0.718481 268:0.697876 269:0.641495 270:0.588072 271:0.504286 272:0.343432 273:0.166763 274:0.16343 275:0.125161 276:0.0483494 277:0.0709778 278:0.0259372 279:0.037542 280:0.0423919 281:0.00571073 282:-0.0166319 283:-0.0769794 284:-0.176893 285:-0.305019 286:-0.430131 287:-0.406894 288:-0.418076 289:-0.434082 290:-0.468221 291:-0.516298 292:-0.516974 293:-0.496405 294:-0.520405 295:-0.563745 296:-0.55087 297:-0.537544 298:-0.537844 299:-0.555967 
