svm_type c_svc
kernel_type rbf
gamma 0.0078125
nr_class 2
total_sv 21
rho -0.155283
label 0 1
nr_sv 14 7
SV
0.1959781830213569 0:-0.678646 1:-0.857144 2:-0.866683 3:-0.823854 4:-0.758689 5:-0.701059 6:-0.600776 7:-0.45922 8:-0.550689 9:-0.624957 10:-0.653653 11:-0.667599 12:-0.590248 13:-0.625996 14:-0.632216 15:-0.705846 16:-0.840298 17:-0.981373 18:-0.984854 19:-0.863688 20:-0.709172 21:-0.627096 22:-0.426101 23:-0.216817 24:-0.27642 25:-0.507196 26:-0.366935 27:0.131485 28:0.815569 29:1 30:1 31:0.590904 32:-0.0195746 33:-0.248584 34:0.279939 35:0.817099 36:1 37:0.927842 38:0.870089 39:0.760677 40:0.889725 41:0.965505 42:0.801827 43:0.761761 44:0.747963 45:0.818872 46:0.820043 47:0.84684 48:0.864544 49:0.651403 50:0.654072 51:0.692949 52:0.600736 53:0.367285 54:0.160817 55:0.0271298 56:0.0818927 57:0.0682772 58:0.0623711 59:-0.0950424 60:-0.195333 61:-0.162902 62:-0.150161 63:-0.236762 64:-0.698152 65:-1 66:-1 67:-1 68:-0.700841 69:0.161614 70:0.262562 71:-0.236626 72:-0.368005 73:-0.437219 74:-0.060182 75:0.279571 76:0.3313 77:0.258013 78:0.0450212 79:0.139165 80:0.143866 81:0.0832043 82:0.263591 83:0.611327 84:0.585106 85:0.460853 86:0.472704 87:0.563808 88:0.653439 89:0.673947 90:0.653827 91:0.662587 92:0.724963 93:0.751799 94:0.73258 95:0.718217 96:0.691069 97:0.763206 98:0.69832 99:0.629094 100:0.828037 101:0.841502 102:0.806978 103:0.714486 104:0.670885 105:0.706877 106:0.663909 107:0.635825 108:0.594606 109:0.591923 110:0.611145 111:0.619729 112:0.593652 113:0.569403 114:0.527523 115:0.472627 116:0.411908 117:0.342362 118:0.253841 119:0.134741 120:-0.0476613 121:-0.262715 122:-0.481607 123:-0.723267 124:-0.982428 125:-0.949637 126:-0.839361 127:-0.81418 128:-0.903899 129:-0.973203 130:-0.925609 131:-0.876099 132:-0.864029 133:-0.761252 134:-0.633751 135:-0.508161 136:-0.390046 137:-0.284175 138:-0.04745 139:0.154164 140:0.0566845 141:0.0842342 142:0.0910598 143:0.231201 144:0.362293 145:0.483558 146:0.618644 147:0.691691 148:0.73556 149:0.800741 150:0.855226 151:0.918995 152:0.944735 153:0.970043 154:0.980423 155:0.965244 156:0.939938 157:0.925806 158:0.908271 159:0.912959 160:0.928356 161:0.971087 162:1 163:1 164:1 165:0.90343 166:0.673749 167:0.421538 168:0.133648 169:-0.113124 170:-0.196628 171:-0.15374 172:-0.112465 173:-0.147686 174:-0.204414 175:-0.314853 176:-0.471436 177:-0.669013 178:-0.788604 179:-0.750099 180:-0.643958 181:-0.649228 182:-0.634066 183:-0.568093 184:-0.54813 185:-0.475014 186:-0.491588 187:-0.461245 188:-0.470375 189:-0.379834 190:-0.365805 191:-0.435801 192:-0.508632 193:-0.523425 194:-0.524529 195:-0.506573 196:-0.417315 197:-0.33151 198:-0.398184 199:-0.567347 200:-0.0262647 201:0.143652 202:0.27343 203:0.342822 204:0.35469 205:0.339058 206:0.332802 207:0.289691 208:0.180727 209:0.0165498 210:0.025366 211:0.0016078 212:-0.0585733 213:-0.144719 214:-0.224476 215:-0.327227 216:-0.37885 217:-0.442415 218:-0.481295 219:-0.475957 220:-0.519091 221:-0.596127 222:-0.665369 223:-0.685392 224:-0.684213 225:-0.679362 226:-0.612615 227:-0.548053 228:-0.63358 229:-0.376543 230:-0.0690718 231:0.295975 232:0.529472 233:0.780209 234:0.876814 235:0.861223 236:0.821806 237:0.772472 238:0.738561 239:0.71051 240:0.71829 241:0.725693 242:0.68589 243:0.639016 244:0.630501 245:0.617709 246:0.558926 247:0.469187 248:0.438594 249:0.351474 250:0.284604 251:0.236994 252:0.230592 253:0.206492 254:0.11691 255:-0.102433 256:-0.580825 257:-0.873754 258:-0.939459 259:-1 260:-1 261:-0.925127 262:-0.917575 263:-1 264:-1 265:-1 266:-0.593345 267:-0.047151 268:0.0313658 269:0.42619 270:0.628601 271:0.748898 272:0.808126 273:0.810955 274:0.843189 275:0.788566 276:0.662202 277:0.695029 278:0.625264 279:0.679762 280:0.735601 281:0.742784 282:0.764979 283:0.744835 284:0.704624 285:0.657604 286:0.62461 287:0.653789 288:0.63997 289:0.600637 290:0.552453 291:0.503357 292:0.47016 293:0.432017 294:0.38946 295:0.344373 296:0.338154 297:0.33914 298:0.341852 299:0.345502 
0.0608451544884866 0:-0.697274 1:-0.794549 2:-0.858821 3:-0.750027 4:-0.608602 5:-0.567773 6:-0.496952 7:-0.380481 8:-0.427462 9:-0.462601 10:-0.488807 11:-0.550555 12:-0.475811 13:-0.478972 14:-0.502803 15:-0.664716 16:-0.836187 17:-0.931377 18:-0.966923 19:-1 20:-1 21:-0.977578 22:-0.78827 23:-0.604893 24:-0.537904 25:-0.450587 26:-0.498165 27:-0.44705 28:-0.0885415 29:-0.0595428 30:0.329297 31:1 32:1 33:1 34:0.0332083 35:-0.449357 36:0.182296 37:0.611463 38:1 39:1 40:1 41:0.814399 42:0.579431 43:0.661323 44:0.798668 45:0.990413 46:1 47:1 48:0.95711 49:0.635768 50:0.62177 51:0.723056 52:0.711956 53:0.481683 54:0.102259 55:-0.166605 56:-0.180355 57:-0.18639 58:-0.14832 59:-0.182786 60:-0.156736 61:-0.0584565 62:-0.0996135 63:-0.273645 64:-0.77797 65:-0.858624 66:-0.750256 67:-0.774624 68:-0.822926 69:0.0158934 70:0.266594 71:-0.139058 72:-0.219228 73:-0.28802 74:0.0604242 75:0.31941 76:0.354315 77:0.308675 78:0.126182 79:0.184392 80:0.141427 81:0.0452003 82:0.232842 83:0.614867 84:0.595321 85:0.489477 86:0.537876 87:0.652657 88:0.763952 89:0.796767 90:0.780636 91:0.814426 92:0.902168 93:0.923895 94:0.891988 95:0.888384 96:0.794085 97:0.718926 98:0.507068 99:0.360666 100:1 101:1 102:0.938023 103:0.897372 104:0.867514 105:0.914972 106:0.860787 107:0.78198 108:0.714252 109:0.675259 110:0.655442 111:0.631373 112:0.60198 113:0.596773 114:0.569995 115:0.525902 116:0.466291 117:0.377932 118:0.260871 119:0.131437 120:-0.0436708 121:-0.26666 122:-0.491446 123:-0.694965 124:-0.920418 125:-0.935739 126:-0.886366 127:-0.86045 128:-0.883087 129:-0.932931 130:-0.95113 131:-1 132:-1 133:-0.867531 134:-0.692636 135:-0.539474 136:-0.451568 137:-0.364652 138:-0.106574 139:0.177658 140:0.171006 141:0.187258 142:0.122651 143:0.190015 144:0.2879 145:0.422482 146:0.583628 147:0.67592 148:0.741125 149:0.840878 150:0.931865 151:1 152:1 153:1 154:1 155:1 156:1 157:1 158:1 159:1 160:1 161:1 162:0.969026 163:0.938613 164:0.935029 165:0.872124 166:0.718195 167:0.319521 168:0.0974682 169:-0.156953 170:-0.249379 171:-0.216075 172:-0.160664 173:-0.201306 174:-0.264146 175:-0.369059 176:-0.51485 177:-0.704838 178:-0.821451 179:-0.776552 180:-0.661878 181:-0.660964 182:-0.650166 183:-0.591196 184:-0.564296 185:-0.495784 186:-0.538893 187:-0.527322 188:-0.540052 189:-0.442093 190:-0.428411 191:-0.504925 192:-0.583918 193:-0.59267 194:-0.569064 195:-0.508809 196:-0.396726 197:-0.288462 198:-0.322321 199:-0.446388 200:-0.170897 201:-0.0411285 202:0.046647 203:0.0976592 204:0.171847 205:0.237804 206:0.275849 207:0.245964 208:0.212917 209:0.153684 210:0.185026 211:0.161283 212:0.133018 213:0.0653176 214:-0.0161036 215:-0.104582 216:-0.149871 217:-0.249176 218:-0.376627 219:-0.44173 220:-0.488832 221:-0.539578 222:-0.595357 223:-0.607443 224:-0.575955 225:-0.549787 226:-0.565981 227:-0.676687 228:-0.918921 229:-0.69715 230:-0.521979 231:-0.108596 232:0.318572 233:0.60072 234:0.792236 235:0.813633 236:0.792609 237:0.759859 238:0.731295 239:0.717547 240:0.743755 241:0.769945 242:0.738282 243:0.709436 244:0.710749 245:0.695594 246:0.635723 247:0.555773 248:0.524048 249:0.432551 250:0.35331 251:0.294608 252:0.273447 253:0.241599 254:0.161201 255:-0.0260731 256:-0.428386 257:-0.682742 258:-0.74451 259:-0.785398 260:-0.797901 261:-0.748604 262:-0.753862 263:-0.819094 264:-0.816943 265:-0.849008 266:-0.673231 267:-0.125419 268:0.164639 269:0.441956 270:0.693151 271:0.687808 272:0.65027 273:0.586614 274:0.641941 275:0.630104 276:0.541945 277:0.590874 278:0.526917 279:0.570766 280:0.614356 281:0.618208 282:0.645011 283:0.638802 284:0.614439 285:0.578205 286:0.54602 287:0.568207 288:0.556329 289:0.540811 290:0.517933 291:0.488814 292:0.463204 293:0.430978 294:0.403364 295:0.387886 296:0.409659 297:0.436764 298:0.467454 299:0.489912 
0.04065342025037078 0:0.472771 1:0.19164 2:0.294318 3:0.462546 4:0.564942 5:0.711812 6:0.72733 7:0.827253 8:0.885516 9:0.837464 10:0.936831 11:0.856517 12:0.748075 13:0.711775 14:0.669298 15:0.587459 16:0.655557 17:0.659455 18:0.362877 19:0.0273953 20:-0.167543 21:-0.234026 22:-0.199949 23:-0.269046 24:-0.595708 25:-0.885086 26:-0.926579 27:-0.870262 28:-0.759991 29:-1 30:-1 31:-0.574114 32:-0.150402 33:0.557302 34:1 35:0.394411 36:0.154413 37:0.101484 38:0.273495 39:0.316403 40:0.515953 41:0.417131 42:0.141317 43:0.149396 44:0.156357 45:0.30807 46:0.306882 47:0.135627 48:-0.186969 49:-0.257887 50:-0.497467 51:-0.658982 52:-0.610413 53:-0.655576 54:-0.705902 55:-0.840238 56:-0.926752 57:-0.909945 58:-0.915303 59:-0.901358 60:-0.728193 61:-0.300987 62:0.204206 63:1 64:1 65:1 66:0.47119 67:0.185157 68:-0.929191 69:-1 70:-0.507377 71:-0.159085 72:-0.0576934 73:-0.101936 74:0.269738 75:0.441483 76:0.409397 77:0.351714 78:0.21604 79:0.266237 80:0.164052 81:-0.0285974 82:0.00791393 83:0.18244 84:0.0940603 85:-0.0128411 86:0.0453906 87:0.126722 88:0.136779 89:0.0282311 90:0.00576463 91:-0.000750127 92:-0.108662 93:-0.244568 94:-0.323655 95:-0.392901 96:-0.401354 97:-0.24822 98:-0.507323 99:-0.552045 100:-0.677235 101:-0.828677 102:-0.8938 103:-0.923771 104:-0.922012 105:-0.780138 106:-0.658105 107:-0.564349 108:-0.446904 109:-0.330449 110:-0.195862 111:-0.0553348 112:0.07583 113:0.207212 114:0.311144 115:0.431956 116:0.582637 117:0.743762 118:0.883976 119:0.979982 120:1 121:1 122:1 123:1 124:0.967434 125:0.947151 126:0.981964 127:0.959222 128:0.860489 129:0.711433 130:0.605646 131:0.456721 132:0.116688 133:-0.104551 134:-0.106367 135:-0.0110824 136:0.230062 137:0.354672 138:0.545617 139:0.753003 140:0.929327 141:0.987453 142:0.999582 143:1 144:1 145:1 146:1 147:0.955312 148:0.918209 149:0.860536 150:0.72051 151:0.601154 152:0.507038 153:0.423412 154:0.246076 155:-0.0293303 156:-0.320708 157:-0.618685 158:-0.994251 159:-1 160:-1 161:-1 162:-1 163:-1 164:-1 165:-0.886988 166:-0.687315 167:-0.574889 168:-0.457533 169:-0.290398 170:-0.142206 171:-0.0078426 172:0.118395 173:0.143286 174:0.112056 175:0.00622355 176:-0.143645 177:-0.319561 178:-0.423446 179:-0.386323 180:-0.270932 181:-0.199606 182:-0.0663185 183:0.0658228 184:0.0677773 185:0.0876404 186:0.0406105 187:-0.0097162 188:-0.0428322 189:0.0469793 190:0.12155 191:0.147942 192:0.181256 193:0.243115 194:0.254828 195:0.275128 196:0.35974 197:0.393485 198:0.363924 199:0.283745 200:-0.413733 201:-0.206228 202:-0.0174861 203:0.137181 204:0.317412 205:0.448714 206:0.542253 207:0.54524 208:0.497673 209:0.33795 210:0.257361 211:0.188947 212:0.121912 213:0.00679604 214:-0.0991788 215:-0.197533 216:-0.255074 217:-0.330981 218:-0.381849 219:-0.374595 220:-0.375063 221:-0.389156 222:-0.406455 223:-0.407833 224:-0.407326 225:-0.413949 226:-0.430534 227:-0.513508 228:-0.803394 229:-0.81019 230:-0.761471 231:-0.464771 232:-0.0662344 233:0.363554 234:0.672252 235:0.852854 236:0.897746 237:0.908914 238:0.868772 239:0.846503 240:0.860808 241:0.85314 242:0.79189 243:0.746888 244:0.72267 245:0.658315 246:0.543688 247:0.433343 248:0.425109 249:0.346237 250:0.272245 251:0.225028 252:0.227232 253:0.215449 254:0.133512 255:-0.0858538 256:-0.537888 257:-0.796381 258:-0.867002 259:-0.934487 260:-0.893493 261:-0.721047 262:-0.584005 263:-0.503932 264:-0.30761 265:-0.137533 266:0.105263 267:0.352479 268:0.519742 269:0.618092 270:0.708392 271:0.724988 272:0.67143 273:0.620668 274:0.703878 275:0.678604 276:0.557564 277:0.620079 278:0.595038 279:0.662831 280:0.707075 281:0.69746 282:0.697901 283:0.633935 284:0.5473 285:0.464208 286:0.39199 287:0.366505 288:0.303059 289:0.257281 290:0.218207 291:0.181727 292:0.204098 293:0.211508 294:0.171106 295:0.127806 296:0.13999 297:0.164804 298:0.196622 299:0.218927 
0.1726128732231236 0:0.668739 1:0.757392 2:0.906512 3:1 4:1 5:0.995997 6:0.761519 7:0.799374 8:1 9:1 10:1 11:0.944116 12:0.898174 13:0.924749 14:1 15:1 16:1 17:1 18:0.880934 19:0.700869 20:0.55502 21:0.354151 22:0.177888 23:0.0332012 24:-0.294663 25:-0.636967 26:-0.853089 27:-0.883286 28:-0.696524 29:-0.718445 30:-0.816957 31:-0.861903 32:-1 33:-0.897402 34:0.117586 35:1 36:0.968515 37:0.284766 38:-0.224277 39:-0.463604 40:-0.0158373 41:0.288453 42:0.286553 43:0.239749 44:0.03584 45:0.0166871 46:0.0728881 47:0.08815 48:-0.0504308 49:0.0185906 50:0.0660582 51:0.104384 52:0.0200374 53:-0.278832 54:-0.486033 55:-0.598746 56:-0.59292 57:-0.487863 58:-0.573685 59:-0.838857 60:-0.941049 61:-0.820532 62:-0.888108 63:-0.80308 64:-0.592975 65:-0.298806 66:0.0513251 67:1 68:1 69:1 70:0.126225 71:-0.85701 72:-1 73:-0.767623 74:-0.0792512 75:0.465222 76:0.575049 77:0.50391 78:0.184996 79:-0.00719295 80:-0.166926 81:-0.261173 82:-0.119963 83:0.0691527 84:-0.0856256 85:-0.265119 86:-0.198823 87:-0.0472399 88:0.0365239 89:-0.0926085 90:-0.275528 91:-0.451792 92:-0.476933 93:-0.383675 94:-0.319716 95:-0.404047 96:-0.63546 97:-0.670137 98:-0.989868 99:-0.793171 100:-0.803498 101:-1 102:-0.980302 103:-0.880489 104:-0.733585 105:-0.529106 106:-0.448421 107:-0.403862 108:-0.323647 109:-0.223781 110:-0.106501 111:0.0261386 112:0.146051 113:0.278603 114:0.406407 115:0.523645 116:0.629719 117:0.73391 118:0.819639 119:0.864923 120:0.847994 121:0.819794 122:0.81554 123:0.828069 124:0.787284 125:0.767874 126:0.842113 127:0.878455 128:0.900395 129:0.862463 130:0.739595 131:0.637841 132:0.501852 133:0.483334 134:0.329092 135:0.130196 136:0.180815 137:0.248294 138:0.401719 139:0.52594 140:0.536936 141:0.596529 142:0.644757 143:0.699183 144:0.716573 145:0.779452 146:0.876529 147:0.912632 148:0.911873 149:0.927655 150:0.94452 151:0.925504 152:0.858488 153:0.777011 154:0.647084 155:0.466137 156:0.264917 157:-0.00698864 158:-0.41424 159:-0.57266 160:-0.699049 161:-0.821034 162:-0.932895 163:-0.948255 164:-0.964725 165:-1 166:-1 167:-1 168:-0.929136 169:-0.803775 170:-0.643749 171:-0.477998 172:-0.339535 173:-0.318322 174:-0.29171 175:-0.280211 176:-0.312635 177:-0.384592 178:-0.428611 179:-0.364947 180:-0.232261 181:-0.119994 182:0.0894281 183:0.29746 184:0.334038 185:0.373473 186:0.377428 187:0.411954 188:0.433261 189:0.480269 190:0.479104 191:0.427286 192:0.396512 193:0.401492 194:0.401053 195:0.415081 196:0.446501 197:0.471946 198:0.480817 199:0.442982 200:-0.750281 201:-0.616132 202:-0.496412 203:-0.393566 204:-0.207535 205:-0.00217564 206:0.136265 207:0.200409 208:0.215947 209:0.186866 210:0.257767 211:0.283461 212:0.280927 213:0.237455 214:0.184304 215:0.122465 216:0.109071 217:0.0877316 218:0.0554422 219:0.0590601 220:0.0447773 221:0.0209135 222:0.00949908 223:0.00633577 224:-0.0100706 225:-0.0384944 226:-0.0820389 227:-0.189131 228:-0.463236 229:-0.538293 230:-0.755486 231:-0.95694 232:-1 233:-0.696619 234:-0.32363 235:-0.194695 236:-0.151455 237:0.210517 238:0.430898 239:0.535478 240:0.602681 241:0.669531 242:0.709824 243:0.741846 244:0.779514 245:0.797669 246:0.78854 247:0.77729 248:0.775226 249:0.73548 250:0.700026 251:0.6954 252:0.713206 253:0.722468 254:0.712835 255:0.641853 256:0.447681 257:0.144246 258:-0.0559623 259:-0.193099 260:-0.363322 261:-0.45233 262:-0.545621 263:-0.674572 264:-0.665428 265:-0.788127 266:-0.913873 267:-0.713035 268:-0.188994 269:0.323473 270:0.516127 271:0.774918 272:0.898795 273:1 274:1 275:0.857464 276:0.672095 277:0.671406 278:0.594119 279:0.617931 280:0.634037 281:0.604872 282:0.597921 283:0.553109 284:0.491843 285:0.427251 286:0.365928 287:0.362943 288:0.322608 289:0.280737 290:0.239197 291:0.202234 292:0.192838 293:0.181892 294:0.168971 295:0.155873 296:0.174 297:0.215333 298:0.251411 299:0.282519 
0.2234970198404042 0:0.632953 1:0.432117 2:0.429957 3:0.462298 4:0.489564 5:0.708943 6:0.725676 7:0.692429 8:0.593482 9:0.363503 10:0.187471 11:-0.00623507 12:-0.0886292 13:-0.189416 14:-0.230848 15:-0.316598 16:-0.375558 17:-0.289687 18:-0.162396 19:-0.196055 20:-0.303987 21:-0.487986 22:-0.497963 23:-0.479742 24:-0.689515 25:-0.917291 26:-0.891059 27:-0.860822 28:-0.706138 29:-0.414865 30:-0.238991 31:-0.324639 32:-0.425158 33:-0.349706 34:0.184021 35:0.411343 36:0.419967 37:0.227893 38:0.175318 39:0.0344306 40:0.189959 41:0.105025 42:-0.0578493 43:-0.0390716 44:-0.167163 45:-0.107568 46:-0.0489618 47:-0.148364 48:-0.611322 49:-0.652914 50:-0.720145 51:-0.668101 52:-0.608008 53:-0.842164 54:-0.82182 55:-0.754342 56:-0.821894 57:-0.908741 58:-0.988628 59:-1 60:-0.825575 61:-0.545272 62:-0.639523 63:-0.651305 64:0.0418623 65:0.895029 66:1 67:0.932413 68:-0.396666 69:-0.890855 70:-1 71:-0.497912 72:-0.247416 73:-0.202302 74:0.17785 75:0.351686 76:0.176449 77:-0.1081 78:-0.519062 79:-0.359596 80:-0.346017 81:-0.463744 82:-0.436974 83:-0.255146 84:-0.116164 85:-0.0462876 86:0.0374154 87:0.0657862 88:-0.0131045 89:-0.185768 90:-0.213251 91:-0.231229 92:-0.204062 93:-0.143873 94:-0.122739 95:-0.183036 96:-0.310499 97:-0.321298 98:-0.671241 99:-0.693084 100:-0.423326 101:-0.247645 102:-0.0735079 103:0.0654692 104:0.207949 105:0.391188 106:0.511405 107:0.609428 108:0.687106 109:0.768297 110:0.852679 111:0.92542 112:0.969235 113:0.99731 114:1 115:1 116:1 117:0.99394 118:0.975736 119:0.941191 120:0.888014 121:0.833623 122:0.812729 123:0.816565 124:0.793623 125:0.752891 126:0.758154 127:0.696064 128:0.591468 129:0.520908 130:0.364529 131:0.123187 132:0.0293313 133:0.0270265 134:0.0645842 135:0.0947227 136:0.284706 137:0.397384 138:0.551218 139:0.668942 140:0.7099 141:0.746301 142:0.75314 143:0.742061 144:0.712569 145:0.719527 146:0.770542 147:0.757466 148:0.707368 149:0.663806 150:0.603449 151:0.552056 152:0.44989 153:0.336373 154:0.200859 155:-0.0290151 156:-0.323499 157:-0.60375 158:-0.89655 159:-0.842096 160:-0.848682 161:-0.890801 162:-0.907215 163:-0.762699 164:-0.628667 165:-0.650767 166:-0.659811 167:-0.666767 168:-0.643214 169:-0.541739 170:-0.413729 171:-0.26664 172:-0.134907 173:-0.0984615 174:-0.074679 175:-0.104897 176:-0.1933 177:-0.317395 178:-0.366466 179:-0.275109 180:-0.132402 181:-0.0272633 182:0.127586 183:0.280245 184:0.305291 185:0.3197 186:0.27178 187:0.243457 188:0.223003 189:0.288789 190:0.316575 191:0.26765 192:0.184534 193:0.125987 194:0.103401 195:0.13908 196:0.220197 197:0.267271 198:0.232147 199:0.113478 200:0.0617701 201:0.1151 202:0.139343 203:0.154719 204:0.169552 205:0.132647 206:0.0211229 207:-0.151615 208:-0.368446 209:-0.61039 210:-0.576831 211:-0.521453 212:-0.458694 213:-0.462538 214:-0.501025 215:-0.556402 216:-0.550748 217:-0.588768 218:-0.647329 219:-0.688817 220:-0.77231 221:-0.872866 222:-0.962609 223:-1 224:-1 225:-1 226:-1 227:-1 228:-0.996655 229:-0.496583 230:-0.162003 231:0.0989581 232:0.50716 233:0.826499 234:1 235:1 236:1 237:1 238:1 239:1 240:1 241:0.996098 242:0.934616 243:0.889305 244:0.866006 245:0.82967 246:0.764367 247:0.699506 248:0.665522 249:0.586509 250:0.534449 251:0.505229 252:0.50115 253:0.474382 254:0.389113 255:0.194055 256:-0.233572 257:-0.613039 258:-0.791715 259:-0.9266 260:-0.999993 261:-1 262:-1 263:-0.836344 264:-0.604796 265:-0.426784 266:-0.10013 267:0.165208 268:0.381212 269:0.503633 270:0.5656 271:0.556852 272:0.436359 273:0.299027 274:0.331571 275:0.325026 276:0.270144 277:0.342942 278:0.334879 279:0.421551 280:0.512161 281:0.547792 282:0.589826 283:0.577366 284:0.542974 285:0.499347 286:0.46352 287:0.487123 288:0.480308 289:0.475496 290:0.466171 291:0.453086 292:0.454757 293:0.438789 294:0.406495 295:0.378467 296:0.382216 297:0.395635 298:0.403076 299:0.411389 
0.7161628562440779 0:-0.665428 1:-0.671718 2:-0.600049 3:-0.518503 4:-0.503249 5:-0.519312 6:-0.500882 7:-0.340746 8:-0.332191 9:-0.319811 10:-0.262019 11:-0.219891 12:-0.0878195 13:0.000226145 14:0.0840185 15:0.0891572 16:0.161511 17:0.382994 18:0.602856 19:0.692508 20:0.746664 21:0.738254 22:0.706491 23:0.639085 24:0.514647 25:0.412261 26:0.405115 27:0.301478 28:0.436121 29:-0.0371569 30:-0.308341 31:-0.357134 32:-0.350494 33:-0.202755 34:0.143537 35:0.0760847 36:0.0705012 37:-0.20481 38:-0.311846 39:-0.47511 40:-0.282623 41:-0.330047 42:-0.32229 43:-0.177645 44:-0.237389 45:-0.0596429 46:0.196535 47:0.319672 48:0.183369 49:-0.00568829 50:-0.14729 51:-0.209426 52:-0.29343 53:-0.702037 54:-0.830248 55:-0.459841 56:0.0269261 57:0.387397 58:0.699592 59:0.71137 60:0.578577 61:0.535525 62:0.592922 63:0.62621 64:0.0821802 65:-0.0859865 66:-0.209629 67:-0.129965 68:-0.630718 69:-0.566825 70:-0.647256 71:-0.515581 72:-0.426791 73:-0.443749 74:-0.145434 75:0.0282244 76:-0.0866177 77:-0.235389 78:-0.598764 79:-0.495376 80:-0.50942 81:-0.560021 82:-0.536818 83:-0.461341 84:-0.451834 85:-0.453267 86:-0.34705 87:-0.263313 88:-0.224576 89:-0.243203 90:-0.147493 91:-0.0674946 92:0.0234578 93:0.0729281 94:0.0954981 95:0.101572 96:0.109741 97:0.260313 98:0.181724 99:0.19824 100:0.404499 101:0.343316 102:0.344876 103:0.356551 104:0.349516 105:0.370969 106:0.318635 107:0.249938 108:0.184783 109:0.12958 110:0.0828503 111:0.0659301 112:0.0619575 113:0.0789889 114:0.106698 115:0.111469 116:0.104535 117:0.101907 118:0.110045 119:0.124887 120:0.109858 121:0.0523662 122:-0.00420034 123:-0.0447561 124:-0.0955988 125:-0.0393452 126:0.0342496 127:0.0752342 128:0.0310379 129:-0.0390192 130:-0.107082 131:-0.133735 132:-0.147601 133:-0.13755 134:-0.129432 135:-0.0914019 136:0.0601847 137:0.139863 138:0.268248 139:0.35468 140:0.24224 141:0.231371 142:0.182296 143:0.222246 144:0.266389 145:0.353603 146:0.473218 147:0.533905 148:0.56392 149:0.582364 150:0.587468 151:0.624369 152:0.639377 153:0.591244 154:0.512781 155:0.43517 156:0.274523 157:0.0958246 158:-0.0566628 159:0.006868 160:0.0109081 161:0.0100426 162:0.0150519 163:0.0479112 164:0.0515982 165:0.00757901 166:-0.0536623 167:-0.135313 168:-0.173434 169:-0.211473 170:-0.237771 171:-0.220614 172:-0.149358 173:-0.233369 174:-0.29494 175:-0.408338 176:-0.586518 177:-0.810039 178:-0.909009 179:-0.796215 180:-0.71612 181:-0.754637 182:-0.679933 183:-0.552586 184:-0.538729 185:-0.461381 186:-0.486823 187:-0.436002 188:-0.350019 189:-0.167066 190:-0.0898169 191:-0.125952 192:-0.181182 193:-0.154647 194:-0.103516 195:-0.0304872 196:0.0721131 197:0.143013 198:0.0919389 199:-0.026604 200:-0.205933 201:-0.143778 202:-0.0904676 203:-0.0382003 204:0.0116993 205:0.0339027 206:0.0533833 207:0.0633658 208:0.049554 209:0.0430596 210:0.194896 211:0.312457 212:0.392653 213:0.417293 214:0.454485 215:0.505379 216:0.569452 217:0.610706 218:0.615828 219:0.632808 220:0.651934 221:0.673386 222:0.694641 223:0.705676 224:0.718785 225:0.742369 226:0.754441 227:0.743542 228:0.683803 229:0.689668 230:0.695593 231:0.714648 232:0.70871 233:0.715948 234:0.646558 235:0.468746 236:0.22486 237:0.119094 238:0.0179923 239:-0.0573201 240:-0.033059 241:0.012952 242:0.0451745 243:0.0146996 244:0.04023 245:0.0404692 246:-0.0437865 247:-0.230546 248:-0.276519 249:-0.447441 250:-0.580975 251:-0.651241 252:-0.590732 253:-0.500647 254:-0.3986 255:-0.259264 256:-0.156767 257:0.171567 258:0.533539 259:0.831926 260:0.794983 261:0.714479 262:0.680413 263:0.642379 264:0.623741 265:0.562948 266:0.465299 267:0.374032 268:0.327738 269:0.258229 270:0.194561 271:0.098587 272:-0.2207 273:-0.534933 274:-0.551681 275:-0.535254 276:-0.531346 277:-0.511994 278:-0.560924 279:-0.566642 280:-0.497352 281:-0.498133 282:-0.533418 283:-0.574361 284:-0.615851 285:-0.686781 286:-0.728552 287:-0.623088 288:-0.563994 289:-0.497193 290:-0.417876 291:-0.34164 292:-0.236353 293:-0.138054 294:-0.0743692 295:-0.0206482 296:0.0639672 297:0.137997 298:0.197005 299:0.247795 
0.6861373859576688 0:-0.100779 1:-0.1651 2:-0.169529 3:-0.131916 4:-0.114183 5:-0.076293 6:-0.116867 7:-0.0726148 8:-0.149471 9:-0.20943 10:-0.170914 11:-0.117788 12:0.0256657 13:0.142138 14:0.253814 15:0.290855 16:0.347932 17:0.444887 18:0.468476 19:0.385266 20:0.3155 21:0.241789 22:0.225542 23:0.223823 24:0.106655 25:0.00746236 26:-0.000828329 27:-0.00306796 28:0.111417 29:-0.197698 30:-0.368831 31:-0.374626 32:-0.342273 33:-0.127978 34:0.263308 35:0.199196 36:0.213046 37:0.0575508 38:0.0682833 39:-0.0146527 40:0.141874 41:-0.0866988 42:-0.376744 43:-0.39682 44:-0.653113 45:-0.733262 46:-0.627964 47:-0.478507 48:-0.368714 49:0.051426 50:0.1641 51:0.368614 52:0.421521 53:0.207804 54:-0.0363491 55:0.0049992 56:0.21484 57:0.243657 58:0.208982 59:0.090514 60:0.104231 61:0.239292 62:0.322702 63:0.347153 64:-0.0780983 65:-0.194172 66:-0.278195 67:-0.201535 68:-0.693633 69:-0.669849 70:-0.809754 71:-0.615561 72:-0.515886 73:-0.550652 74:-0.297524 75:-0.0837728 76:-0.140594 77:-0.281255 78:-0.739943 79:-0.657845 80:-0.656708 81:-0.715907 82:-0.694679 83:-0.687828 84:-0.708087 85:-0.635842 86:-0.36623 87:-0.133976 88:-0.0330267 89:-0.117213 90:-0.199615 91:-0.249378 92:-0.210371 93:-0.19802 94:-0.284403 95:-0.520169 96:-1 97:-1 98:-0.87919 99:0.2296 100:-0.283412 101:-0.207202 102:-0.140559 103:-0.0784435 104:-0.0191125 105:0.0388868 106:0.0588896 107:0.0421978 108:-0.0027719 109:-0.0826021 110:-0.101475 111:-0.0814641 112:-0.0535125 113:-0.00560778 114:0.0333337 115:0.0640324 116:0.0811981 117:0.0920178 118:0.11476 119:0.120042 120:0.0765395 121:0.0327725 122:0.0181167 123:0.00847458 124:-0.0101916 125:0.0694107 126:0.175321 127:0.20155 128:0.166927 129:0.106051 130:0.0652885 131:0.0623643 132:0.0355479 133:0.0480148 134:0.0678095 135:0.118908 136:0.352645 137:0.501903 138:0.683718 139:0.81398 140:0.876199 141:0.796075 142:0.624709 143:0.512651 144:0.431853 145:0.388194 146:0.341372 147:0.306823 148:0.203913 149:0.0613009 150:0.00269725 151:0.0484544 152:0.0736559 153:0.105045 154:0.133327 155:0.15286 156:0.12192 157:0.0628186 158:-0.0478715 159:0.00840332 160:0.016008 161:0.0145619 162:0.0182278 163:0.0507066 164:0.0399028 165:-0.0218301 166:-0.089554 167:-0.181259 168:-0.224077 169:-0.209421 170:-0.219388 171:-0.216897 172:-0.154681 173:-0.225571 174:-0.294623 175:-0.392982 176:-0.529894 177:-0.709169 178:-0.797678 179:-0.705671 180:-0.534798 181:-0.459272 182:-0.344999 183:-0.190514 184:-0.106614 185:0.0190637 186:0.0793085 187:0.128492 188:0.127521 189:0.169694 190:0.163547 191:0.100748 192:0.0216149 193:0.0469647 194:0.168503 195:0.285549 196:0.127988 197:-0.0142393 198:-0.184387 199:-0.325751 200:0.886047 201:0.876071 202:0.863107 203:0.827779 204:0.79648 205:0.774365 206:0.765421 207:0.745848 208:0.686958 209:0.584574 210:0.578872 211:0.592322 212:0.577957 213:0.501487 214:0.441467 215:0.384839 216:0.360243 217:0.319037 218:0.256076 219:0.223778 220:0.221924 221:0.230026 222:0.248014 223:0.282739 224:0.319238 225:0.36134 226:0.399947 227:0.420029 228:0.389405 229:0.453084 230:0.475683 231:0.520848 232:0.561415 233:0.609372 234:0.564969 235:0.394985 236:0.119313 237:-0.0372802 238:-0.211945 239:-0.410756 240:-0.524718 241:-0.628181 242:-0.674712 243:-0.808743 244:-0.800338 245:-0.741715 246:-0.680642 247:-0.596447 248:-0.241488 249:-0.013792 250:0.254231 251:0.498986 252:0.657204 253:0.695784 254:0.63436 255:0.540412 256:0.395062 257:0.247313 258:0.209884 259:0.242117 260:0.175315 261:0.175048 262:0.21148 263:0.237553 264:0.297092 265:0.253922 266:0.150351 267:0.0865548 268:0.0654762 269:0.0159287 270:-0.052255 271:-0.176351 272:-0.599447 273:-1 274:-1 275:-1 276:-1 277:-1 278:-1 279:-1 280:-1 281:-1 282:-1 283:-1 284:-1 285:-1 286:-0.942087 287:-0.730263 288:-0.573696 289:-0.428302 290:-0.280765 291:-0.144176 292:0.00165818 293:0.182084 294:0.383576 295:0.495409 296:0.554245 297:0.667736 298:0.799708 299:0.865095 
0.1114533621199398 0:-0.350204 1:-0.44985 2:-0.467111 3:-0.408742 4:-0.349763 5:-0.272811 6:-0.227993 7:-0.145311 8:-0.211763 9:-0.239357 10:-0.191405 11:-0.171556 12:-0.0974835 13:-0.055664 14:0.00976669 15:0.00717129 16:0.105539 17:0.322774 18:0.520638 19:0.622917 20:0.718946 21:0.764389 22:0.774541 23:0.72701 24:0.548934 25:0.389482 26:0.309106 27:0.323416 28:0.423283 29:-0.0106952 30:-0.245918 31:-0.315149 32:-0.340079 33:-0.169623 34:0.179359 35:0.0902049 36:0.089531 37:-0.165774 38:-0.251093 39:-0.433952 40:-0.249651 41:-0.310317 42:-0.313278 43:-0.15837 44:-0.189465 45:0.0538913 46:0.232387 47:0.0947948 48:-0.528657 49:-0.769918 50:-1 51:-1 52:-0.667208 53:0.455617 54:1 55:1 56:1 57:0.780663 58:0.646392 59:0.484372 60:0.434907 61:0.524063 62:0.696362 63:0.732203 64:0.101479 65:-0.137859 66:-0.272617 67:-0.207383 68:-0.666729 69:-0.59974 70:-0.679496 71:-0.519444 72:-0.407683 73:-0.403008 74:-0.126947 75:0.026606 76:-0.125521 77:-0.340776 78:-0.832873 79:-0.72724 80:-0.710092 81:-0.749763 82:-0.660048 83:-0.518835 84:-0.504898 85:-0.586984 86:-0.551304 87:-0.527165 88:-0.510658 89:-0.542268 90:-0.416243 91:-0.377328 92:-0.355992 93:-0.364633 94:-0.352565 95:-0.404784 96:-0.504386 97:-0.47754 98:-0.817099 99:-0.819587 100:-0.211135 101:-0.238844 102:-0.218554 103:-0.183303 104:-0.153221 105:-0.0561132 106:-0.0295152 107:-0.0442213 108:-0.0780387 109:-0.120307 110:-0.131841 111:-0.104045 112:-0.0719665 113:-0.0460088 114:-0.0321337 115:-0.0258782 116:-0.00914364 117:0.00953237 118:0.0322543 119:0.0545259 120:0.0497094 121:0.0377652 122:-0.00883384 123:-0.0550718 124:-0.047132 125:-0.0018777 126:0.0521079 127:0.0906735 128:0.0457281 129:-0.0444863 130:-0.0860951 131:-0.0974642 132:-0.145632 133:-0.126754 134:-0.106773 135:-0.0722684 136:0.0753021 137:0.145288 138:0.269616 139:0.381345 140:0.340529 141:0.395194 142:0.390919 143:0.446552 144:0.516803 145:0.633049 146:0.759985 147:0.7856 148:0.814196 149:0.805199 150:0.580232 151:0.413007 152:0.246321 153:0.152164 154:0.0712546 155:-0.0262272 156:-0.106846 157:-0.150953 158:-0.221949 159:-0.116524 160:-0.0691006 161:-0.0501492 162:-0.0165948 163:0.0320079 164:0.0457952 165:0.00366405 166:-0.0467985 167:-0.129831 168:-0.164594 169:-0.192168 170:-0.190792 171:-0.167349 172:-0.130245 173:-0.186392 174:-0.275039 175:-0.407402 176:-0.564714 177:-0.756189 178:-0.869375 179:-0.815262 180:-0.68287 181:-0.658425 182:-0.596952 183:-0.499884 184:-0.46846 185:-0.410951 186:-0.424959 187:-0.364618 188:-0.303942 189:-0.168386 190:-0.115818 191:-0.165996 192:-0.202919 193:-0.168811 194:-0.0865662 195:0.0132245 196:0.139114 197:0.212252 198:0.203088 199:0.15427 200:0.41846 201:0.446196 202:0.486602 203:0.533678 204:0.570971 205:0.599264 206:0.621431 207:0.613576 208:0.574673 209:0.526308 210:0.574176 211:0.615605 212:0.636047 213:0.590827 214:0.555241 215:0.539855 216:0.579364 217:0.612278 218:0.597258 219:0.59646 220:0.597772 221:0.60936 222:0.633284 223:0.659229 224:0.666114 225:0.700318 226:0.72975 227:0.707183 228:0.677001 229:0.710436 230:0.703383 231:0.709874 232:0.714216 233:0.725078 234:0.654078 235:0.472498 236:0.217299 237:0.0991378 238:-0.0218195 239:-0.142378 240:-0.163566 241:-0.143792 242:-0.125343 243:-0.193909 244:-0.209078 245:-0.264918 246:-0.43314 247:-0.778223 248:-0.832332 249:-1 250:-1 251:-0.81792 252:-0.436986 253:0.115485 254:0.440192 255:0.663741 256:0.91827 257:0.992655 258:1 259:0.98029 260:0.810952 261:0.723818 262:0.734116 263:0.745459 264:0.755741 265:0.727961 266:0.661111 267:0.593736 268:0.577337 269:0.52438 270:0.472669 271:0.399504 272:0.22705 273:0.0401534 274:0.0241088 275:-0.0344093 276:-0.131439 277:-0.119208 278:-0.149304 279:-0.126749 280:-0.12521 281:-0.173145 282:-0.229132 283:-0.293349 284:-0.382137 285:-0.509269 286:-0.63444 287:-0.616079 288:-0.636753 289:-0.662311 290:-0.693879 291:-0.743555 292:-0.753945 293:-0.740423 294:-0.776072 295:-0.827778 296:-0.805877 297:-0.760492 298:-0.718884 299:-0.688294 
2 0:-0.64293 1:-0.729572 2:-0.745501 3:-0.694082 4:-0.66145 5:-0.706378 6:-0.700854 7:-0.618519 8:-0.731947 9:-0.722885 10:-0.66901 11:-0.622558 12:-0.46313 13:-0.413752 14:-0.265027 15:-0.195542 16:-0.083741 17:0.0966698 18:0.175821 19:0.196349 20:0.24342 21:0.28 22:0.304452 23:0.28676 24:0.176184 25:0.0849437 26:0.0593694 27:0.0688973 28:0.222249 29:-0.100568 30:-0.300614 31:-0.347455 32:-0.345859 33:-0.190978 34:0.0291068 35:-0.265978 36:-1 37:-1 38:-0.100158 39:-0.379338 40:-0.310624 41:-0.203334 42:-0.0780465 43:-0.219183 44:-0.413422 45:-0.237864 46:-0.00918723 47:0.0491767 48:-0.0462842 49:0.00856196 50:0.0433878 51:0.134208 52:0.218651 53:0.160881 54:0.109565 55:0.0809965 56:0.226821 57:0.262141 58:0.306478 59:0.242648 60:0.262998 61:0.463617 62:0.593612 63:0.554303 64:-0.192623 65:-0.911571 66:-0.465958 67:-0.0190333 68:-0.411558 69:-0.755666 70:-0.562998 71:-0.324927 72:-0.200877 73:-0.300999 74:0.0715671 75:0.385394 76:0.439026 77:0.32855 78:0.0525506 79:0.0918325 80:0.0433421 81:-0.070459 82:0.0702101 83:0.422742 84:0.465642 85:0.377829 86:0.330483 87:0.283674 88:0.241092 89:0.180611 90:0.243724 91:0.30286 92:0.330441 93:0.277187 94:0.150479 95:-0.000652053 96:-0.206018 97:-0.212604 98:-0.484495 99:-0.503555 100:-0.283587 101:-0.336143 102:-0.335409 103:-0.319763 104:-0.297532 105:-0.220185 106:-0.225063 107:-0.25444 108:-0.27825 109:-0.311658 110:-0.328578 111:-0.321672 112:-0.322153 113:-0.302213 114:-0.273331 115:-0.25284 116:-0.223796 117:-0.189985 118:-0.161729 119:-0.1477 120:-0.154708 121:-0.161393 122:-0.150196 123:-0.127293 124:-0.121816 125:-0.00690086 126:0.131382 127:0.197103 128:0.195691 129:0.158344 130:0.12701 131:0.126785 132:0.0969307 133:0.083285 134:0.0430411 135:0.00586107 136:0.0125273 137:0.0758657 138:0.316129 139:0.366888 140:0.0448235 141:-0.047549 142:-0.127142 143:-0.132184 144:-0.130939 145:-0.0623012 146:0.0301042 147:0.0615547 148:0.0712662 149:0.0970179 150:0.11478 151:0.153527 152:0.153934 153:0.168339 154:0.181467 155:0.168826 156:0.145568 157:0.118089 158:0.0452808 159:0.117469 160:0.142879 161:0.16791 162:0.167438 163:0.187415 164:0.185401 165:0.113323 166:0.0848096 167:0.0451399 168:0.0226733 169:-0.0853327 170:-0.13271 171:-0.10336 172:-0.0564501 173:-0.12323 174:-0.16175 175:-0.245377 176:-0.365334 177:-0.515786 178:-0.576179 179:-0.50043 180:-0.361917 181:-0.286354 182:-0.140489 183:0.0424505 184:0.121017 185:0.197511 186:0.187265 187:0.206477 188:0.235955 189:0.336875 190:0.404474 191:0.405824 192:0.393853 193:0.4222 194:0.469418 195:0.524924 196:0.582977 197:0.602622 198:0.571206 199:0.523332 200:-0.708903 201:-0.654152 202:-0.612274 203:-0.566619 204:-0.49688 205:-0.439684 206:-0.382957 207:-0.345091 208:-0.337276 209:-0.330788 210:-0.12764 211:0.029906 212:0.148604 213:0.199064 214:0.213836 215:0.214772 216:0.249522 217:0.26176 218:0.251544 219:0.269974 220:0.278422 221:0.27951 222:0.297957 223:0.324242 224:0.348325 225:0.368095 226:0.37783 227:0.375716 228:0.295309 229:0.301619 230:0.231138 231:0.183574 232:0.109187 233:0.0756255 234:-0.0465567 235:-0.286213 236:-0.497095 237:-0.101447 238:0.316126 239:0.165504 240:-0.0697606 241:0.0115989 242:0.202734 243:0.240876 244:0.302319 245:0.367634 246:0.381084 247:0.361102 248:0.419859 249:0.411322 250:0.415107 251:0.440589 252:0.499178 253:0.538962 254:0.547635 255:0.505813 256:0.39267 257:0.226093 258:0.152494 259:0.159302 260:0.0844894 261:0.0562167 262:0.0366148 263:-0.0256716 264:-0.0167339 265:0.0426803 266:0.566313 267:0.906392 268:0.921769 269:0.537371 270:0.549175 271:0.569006 272:0.514418 273:0.359255 274:0.361615 275:0.344183 276:0.278477 277:0.324499 278:0.282863 279:0.327959 280:0.376351 281:0.386982 282:0.399334 283:0.350033 284:0.260445 285:0.140449 286:0.0175233 287:0.0204378 288:0.011767 289:-0.0108476 290:-0.0640026 291:-0.129656 292:-0.122702 293:-0.0934456 294:-0.0868011 295:-0.0903398 296:-0.0525974 297:-0.00391597 298:0.0469417 299:0.0941456 
1.604485227806156 0:-0.619134 1:-0.820331 2:-0.91588 3:-0.888318 4:-0.812511 5:-0.765096 6:-0.696661 7:-0.600651 8:-0.734487 9:-0.743791 10:-0.695879 11:-0.639608 12:-0.531432 13:-0.449273 14:-0.319927 15:-0.257539 16:-0.138821 17:0.0584806 18:0.218033 19:0.302621 20:0.367355 21:0.407335 22:0.4683 23:0.458362 24:0.324689 25:0.166614 26:0.0821938 27:0.0650726 28:0.193961 29:-0.141695 30:-0.347587 31:-0.400408 32:-0.404679 33:-0.256704 34:0.0859769 35:-0.0491491 36:-0.104691 37:-0.433542 38:-0.575069 39:-0.809241 40:-0.682982 41:-0.875346 42:-1 43:-0.639176 44:-0.103242 45:-0.0282278 46:-0.235864 47:-0.665596 48:-0.661638 49:-0.149361 50:0.0975906 51:0.260125 52:0.238528 53:0.163569 54:0.136878 55:0.138379 56:0.339798 57:0.427818 58:0.549563 59:0.493294 60:0.441056 61:0.501933 62:0.593088 63:0.656195 64:0.104148 65:-0.0575329 66:-0.173067 67:-0.0287259 68:-0.482081 69:-0.369267 70:-0.384994 71:-0.492184 72:-0.484061 73:-0.480333 74:0.147756 75:0.245307 76:0.0409321 77:0.116929 78:0.2154 79:0.295313 80:0.147849 81:0.0505129 82:0.266372 83:0.662256 84:0.646525 85:0.473008 86:0.40112 87:0.382673 88:0.347949 89:0.297662 90:0.292693 91:0.324504 92:0.399868 93:0.37384 94:0.261427 95:0.0682431 96:-0.16318 97:-0.168207 98:-0.408853 99:-0.348297 100:-0.095917 101:-0.159831 102:-0.187592 103:-0.202294 104:-0.201369 105:-0.116578 106:-0.103675 107:-0.137244 108:-0.192494 109:-0.242354 110:-0.273639 111:-0.266478 112:-0.257123 113:-0.224322 114:-0.197362 115:-0.184616 116:-0.162661 117:-0.13597 118:-0.108449 119:-0.0939294 120:-0.115749 121:-0.146976 122:-0.165726 123:-0.182066 124:-0.21084 125:-0.112087 126:0.014782 127:0.061038 128:0.0428344 129:-0.00505383 130:-0.0188855 131:-0.00567864 132:-0.0222218 133:-0.00505877 134:-0.00090933 135:0.0185894 136:0.164042 137:0.197984 138:0.279393 139:0.330928 140:0.192684 141:0.246111 142:0.225043 143:0.30132 144:0.41765 145:0.310105 146:0.225306 147:0.119231 148:0.0871785 149:0.0665366 150:0.0391125 151:0.0413459 152:0.0451163 153:0.0362629 154:0.0233174 155:-0.00620708 156:-0.0218175 157:-0.0410822 158:-0.105803 159:-0.000879343 160:0.0502878 161:0.0814344 162:0.108208 163:0.148401 164:0.160716 165:0.133515 166:0.0998357 167:0.040797 168:0.00990439 169:-0.0363895 170:-0.058766 171:-0.0693143 172:-0.026969 173:-0.0127843 174:0.0427106 175:-0.102348 176:-0.345843 177:-0.618486 178:-0.680595 179:-0.649918 180:-0.57531 181:-0.558247 182:-0.476148 183:-0.334768 184:-0.256653 185:-0.131571 186:-0.0945753 187:-0.0187854 188:0.0332512 189:0.159912 190:0.225447 191:0.230309 192:0.246632 193:0.297853 194:0.327761 195:0.352449 196:0.434052 197:0.509631 198:0.529674 199:0.519931 200:-0.751949 201:-0.687115 202:-0.633149 203:-0.57873 204:-0.495112 205:-0.43838 206:-0.371381 207:-0.301459 208:-0.260232 209:-0.212834 210:0.0190318 211:0.197813 212:0.306165 213:0.359247 214:0.397832 215:0.426713 216:0.480476 217:0.517806 218:0.522278 219:0.53967 220:0.524445 221:0.507905 222:0.511609 223:0.523546 224:0.538845 225:0.554946 226:0.559566 227:0.543565 228:0.471364 229:0.471296 230:0.434982 231:0.419342 232:0.393307 233:0.380578 234:0.248906 235:-0.0107147 236:-0.411308 237:-0.507201 238:-0.613004 239:-0.736858 240:-0.727281 241:-0.602161 242:-0.384446 243:-0.184931 244:0.193029 245:0.265302 246:0.193645 247:0.0635669 248:0.187606 249:0.2366 250:0.292526 251:0.361576 252:0.484948 253:0.594494 254:0.668057 255:0.697146 256:0.686405 257:0.57936 258:0.528917 259:0.57879 260:0.49024 261:0.457477 262:0.47701 263:0.476325 264:0.482135 265:0.410836 266:0.290041 267:0.19151 268:0.14254 269:0.0681123 270:-0.0565879 271:-0.204695 272:-0.293978 273:0.076746 274:0.588605 275:0.498919 276:0.287234 277:0.336617 278:0.394536 279:0.487615 280:0.545206 281:0.553759 282:0.57647 283:0.551806 284:0.496462 285:0.440161 286:0.3824 287:0.380697 288:0.335522 289:0.277171 290:0.214036 291:0.131504 292:0.0353526 293:-0.0444517 294:-0.132349 295:-0.213657 296:-0.208671 297:-0.188818 298:-0.171972 299:-0.16821 
2 0:-0.756176 1:-0.826099 2:-0.817192 3:-0.731405 4:-0.67776 5:-0.71812 6:-0.733412 7:-0.678486 8:-0.80222 9:-0.822145 10:-0.820126 11:-0.84502 12:-0.67215 13:-0.570988 14:-0.446679 15:-0.409721 16:-0.372245 17:-0.336593 18:-0.360057 19:-0.399193 20:-0.293925 21:-0.148942 22:0.0940177 23:0.203086 24:0.100743 25:-0.0647935 26:-0.18503 27:-0.202445 28:-0.00370965 29:-0.192354 30:-0.306642 31:-0.323478 32:-0.324487 33:-0.153788 34:0.188416 35:0.0270011 36:-0.0497503 37:-0.345837 38:-0.663973 39:-0.811357 40:-0.286108 41:0.0713988 42:-0.336868 43:-0.420368 44:-0.308357 45:-0.14994 46:-0.170568 47:-0.38589 48:-0.405375 49:-0.114507 50:-0.00409889 51:0.0861756 52:0.219214 53:0.181683 54:0.13623 55:0.103793 56:0.272793 57:0.335621 58:0.434767 59:0.399484 60:0.378404 61:0.451739 62:0.518385 63:0.518377 64:0.0442001 65:-0.0702727 66:-0.166641 67:-0.102104 68:-0.778961 69:-0.866934 70:-0.46171 71:-0.33165 72:-0.280483 73:-0.377664 74:0.140723 75:0.560709 76:0.595893 77:0.181461 78:-0.224684 79:-0.059635 80:0.106149 81:0.11376 82:0.290652 83:0.638484 84:0.609256 85:0.46328 86:0.434107 87:0.464741 88:0.488084 89:0.438575 90:0.356804 91:0.290777 92:0.283248 93:0.312191 94:0.325986 95:0.311484 96:0.189246 97:0.0780181 98:-0.310505 99:-0.42253 100:-0.330276 101:-0.349743 102:-0.311895 103:-0.271515 104:-0.252304 105:-0.158077 106:-0.144118 107:-0.179636 108:-0.216648 109:-0.269057 110:-0.308311 111:-0.30712 112:-0.305649 113:-0.285296 114:-0.268436 115:-0.250771 116:-0.232928 117:-0.221461 118:-0.217134 119:-0.220593 120:-0.235544 121:-0.245423 122:-0.232435 123:-0.205239 124:-0.202151 125:-0.0865276 126:0.0427135 127:0.0985318 128:0.0979319 129:0.0742441 130:0.0682124 131:0.0947113 132:0.092204 133:0.11026 134:0.107935 135:0.110007 136:0.253273 137:0.286529 138:0.315286 139:0.348071 140:0.244072 141:0.32841 142:0.184393 143:0.101416 144:0.067902 145:0.11432 146:0.138563 147:0.103203 148:0.0828328 149:0.0809087 150:0.078979 151:0.107521 152:0.112718 153:0.11329 154:0.108351 155:0.0816463 156:0.0469106 157:0.0109132 158:-0.0644381 159:0.0327313 160:0.0745848 161:0.0917317 162:0.100041 163:0.124557 164:0.128685 165:0.0976369 166:0.0644504 167:-0.00640026 168:-0.0722558 169:-0.118106 170:-0.0174644 171:0.0175561 172:0.0174129 173:-0.0798587 174:-0.113427 175:-0.189025 176:-0.327575 177:-0.552948 178:-0.631054 179:-0.542605 180:-0.380664 181:-0.299579 182:-0.158052 183:0.00764678 184:0.0577761 185:0.126512 186:0.155881 187:0.234079 188:0.308549 189:0.398534 190:0.436211 191:0.413615 192:0.382988 193:0.411529 194:0.461629 195:0.537387 196:0.605235 197:0.636765 198:0.617705 199:0.566016 200:-0.465935 201:-0.449602 202:-0.425236 203:-0.396674 204:-0.356961 205:-0.344351 206:-0.334783 207:-0.333309 208:-0.329983 209:-0.346016 210:-0.158478 211:-0.0147741 212:0.0805624 213:0.11504 214:0.12924 215:0.142146 216:0.205843 217:0.255589 218:0.280375 219:0.294384 220:0.291439 221:0.279366 222:0.270488 223:0.270316 224:0.299598 225:0.342367 226:0.378298 227:0.370965 228:0.297972 229:0.332538 230:0.302361 231:0.272246 232:0.231405 233:0.230125 234:0.124109 235:-0.104124 236:-0.4777 237:-0.539162 238:-0.500137 239:-0.312837 240:0.071533 241:0.17719 242:0.101469 243:0.0131286 244:0.132753 245:0.246753 246:0.25991 247:0.220401 248:0.308787 249:0.315994 250:0.343459 251:0.400343 252:0.493729 253:0.569565 254:0.607161 255:0.590914 256:0.512683 257:0.38501 258:0.343043 259:0.39596 260:0.316104 261:0.284537 262:0.28811 263:0.287846 264:0.320937 265:0.244825 266:0.0849554 267:0.00568593 268:0.122743 269:0.373333 270:0.83846 271:0.892259 272:0.688023 273:0.187089 274:0.269219 275:0.396404 276:0.414068 277:0.43835 278:0.376615 279:0.434455 280:0.500121 281:0.505348 282:0.511061 283:0.476878 284:0.420146 285:0.358243 286:0.295413 287:0.296932 288:0.256424 289:0.210313 290:0.173063 291:0.131832 292:0.0985779 293:0.0657838 294:0.0142858 295:-0.0423233 296:-0.0479819 297:-0.0349521 298:-0.0113373 299:0.0193341 
1.525190902034945 0:-0.568302 1:-0.75307 2:-0.869329 3:-0.86371 4:-0.753378 5:-0.647156 6:-0.518887 7:-0.376273 8:-0.50759 9:-0.600054 10:-0.637555 11:-0.677624 12:-0.553088 13:-0.466597 14:-0.349793 15:-0.311558 16:-0.254115 17:-0.0999018 18:0.0335451 19:0.0658788 20:0.0965193 21:0.0904503 22:0.118021 23:0.109399 24:-0.0236832 25:-0.142172 26:-0.148243 27:-0.108095 28:0.0878873 29:-0.201715 30:-0.40522 31:-0.46361 32:-0.510181 33:-0.578368 34:-0.561798 35:0.284683 36:0.232918 37:-0.250779 38:-0.455081 39:-0.108895 40:0.140774 41:-0.112599 42:-0.412274 43:-0.221356 44:-0.258769 45:-0.111865 46:-0.000414296 47:-0.0272917 48:-0.294344 49:-0.237811 50:-0.20053 51:-0.0765038 52:0.0672932 53:0.0303981 54:-0.0105746 55:-0.0337459 56:0.1071 57:0.15525 58:0.294569 59:0.291844 60:0.288369 61:0.310812 62:-0.145734 63:-0.384825 64:-0.337451 65:0.205656 66:-0.106416 67:-0.0589435 68:-0.479471 69:-0.134367 70:-0.208193 71:-0.362117 72:-0.379431 73:-0.359252 74:0.0704945 75:0.389567 76:0.407334 77:0.243257 78:-0.0664264 79:-0.0201371 80:-0.0133033 81:-0.0503993 82:0.140521 83:0.50458 84:0.529324 85:0.427411 86:0.411254 87:0.432021 88:0.463999 89:0.397653 90:0.311656 91:0.238679 92:0.256671 93:0.283002 94:0.273586 95:0.214409 96:0.0611905 97:0.00710101 98:-0.302592 99:-0.335427 100:-0.401917 101:-0.441694 102:-0.462987 103:-0.477324 104:-0.465409 105:-0.341448 106:-0.29375 107:-0.29687 108:-0.311256 109:-0.323618 110:-0.324303 111:-0.292682 112:-0.276479 113:-0.239771 114:-0.204778 115:-0.168413 116:-0.115896 117:-0.0701311 118:-0.0410742 119:-0.0344765 120:-0.0421096 121:-0.0576649 122:-0.0624324 123:-0.0564654 124:-0.0559397 125:0.0409254 126:0.156627 127:0.18571 128:0.16076 129:0.100862 130:0.0530491 131:0.0451371 132:0.0123183 133:0.0354011 134:0.0884908 135:0.257101 136:0.367801 137:0.224951 138:0.12824 139:0.26754 140:0.083739 141:-0.00956077 142:-0.116912 143:-0.0472973 144:-0.0104876 145:0.0423444 146:0.11554 147:0.133756 148:0.113926 149:0.12997 150:0.157472 151:0.21298 152:0.232482 153:0.256139 154:0.266876 155:0.237224 156:0.18778 157:0.126088 158:0.035682 159:0.0912833 160:0.10065 161:0.0871636 162:0.0839587 163:0.146501 164:0.217444 165:0.279347 166:0.122886 167:-0.0398402 168:-0.10832 169:-0.078941 170:-0.112427 171:-0.118876 172:-0.0858195 173:-0.0917804 174:-0.119435 175:-0.195678 176:-0.310605 177:-0.463012 178:-0.539713 179:-0.469419 180:-0.323685 181:-0.224007 182:-0.0671228 183:0.0967774 184:0.11301 185:0.132141 186:0.104838 187:0.127515 188:0.144894 189:0.225811 190:0.255567 191:0.222817 192:0.190281 193:0.20978 194:0.24304 195:0.297347 196:0.367864 197:0.427444 198:0.421123 199:0.374906 200:-0.412158 201:-0.338487 202:-0.281587 203:-0.236545 204:-0.181634 205:-0.16603 206:-0.15937 207:-0.169007 208:-0.194904 209:-0.217885 210:-0.056056 211:0.0558179 212:0.104653 213:0.0914311 214:0.0537548 215:0.00524624 216:0.0362493 217:0.0335631 218:0.0111714 219:0.0214981 220:0.0296499 221:0.0362963 222:0.0521771 223:0.0848978 224:0.122198 225:0.165216 226:0.200935 227:0.198288 228:0.0873126 229:0.100659 230:0.0368708 231:0.00363983 232:0.0147937 233:0.210782 234:0.461129 235:0.565242 236:0.383147 237:0.198522 238:0.00437733 239:0.092617 240:0.18418 241:0.25395 242:0.290457 243:0.290996 244:0.339298 245:0.373767 246:0.353109 247:0.28884 248:0.322665 249:0.289144 250:0.268717 251:0.274373 252:0.331698 253:0.377876 254:0.367257 255:0.267563 256:0.0268084 257:-0.154026 258:-0.190222 259:-0.18062 260:-0.213384 261:-0.179833 262:-0.0535393 263:0.288089 264:0.711724 265:0.88244 266:0.725595 267:0.534099 268:0.453371 269:0.539214 270:0.560533 271:0.515499 272:0.361814 273:0.225049 274:0.271078 275:0.259913 276:0.183238 277:0.217051 278:0.191643 279:0.249296 280:0.301598 281:0.289692 282:0.288479 283:0.255933 284:0.20444 285:0.124501 286:0.0508429 287:0.0696631 288:0.0493192 289:0.0353494 290:0.0386065 291:0.05156 292:0.0696125 293:0.0762656 294:0.055592 295:0.0252355 296:0.0489071 297:0.0860631 298:0.122635 299:0.149964 
0.1264242268530943 0:-0.660223 1:-0.831868 2:-0.903477 3:-0.84643 4:-0.796459 5:-0.826153 6:-0.754527 7:-0.561432 8:-0.680762 9:-0.733478 10:-0.614886 11:-0.512799 12:-0.376289 13:-0.335529 14:-0.324799 15:-0.406034 16:-0.518389 17:-0.652961 18:-0.899059 19:-0.994204 20:-0.921253 21:-0.84513 22:-0.847794 23:-0.704521 24:-0.541229 25:-0.867322 26:-0.763629 27:-0.530949 28:-0.227227 29:-0.424493 30:-0.583117 31:-0.582575 32:-0.452332 33:-0.120046 34:0.2552 35:0.21802 36:0.157806 37:-0.402932 38:-0.63898 39:-0.541964 40:-0.0506364 41:-0.128786 42:-0.497971 43:-0.363129 44:-0.193501 45:0.0796778 46:0.194116 47:0.312707 48:0.552838 49:0.589209 50:0.714572 51:0.881742 52:0.857631 53:0.806431 54:0.759752 55:0.680273 56:0.7996 57:0.723789 58:0.742784 59:0.513964 60:0.363011 61:0.353318 62:0.380429 63:0.423509 64:-0.0840297 65:-0.108803 66:-0.176458 67:-0.0580003 68:-0.438722 69:-0.405153 70:-0.456097 71:-0.334073 72:-0.243447 73:-0.196702 74:0.258103 75:0.59448 76:0.599379 77:0.517237 78:0.348957 79:0.472265 80:0.582541 81:0.412696 82:0.454128 83:0.537264 84:0.295029 85:0.0439149 86:0.160601 87:0.193565 88:0.0394941 89:-0.209313 90:-0.19029 91:0.0178344 92:0.383289 93:0.454413 94:0.424924 95:0.605156 96:0.824956 97:0.896571 98:0.907567 99:0.790446 100:-0.104609 101:-0.177502 102:-0.211701 103:-0.239878 104:-0.251337 105:-0.219613 106:-0.258482 107:-0.341167 108:-0.409246 109:-0.559058 110:-0.635637 111:-0.681223 112:-0.676529 113:-0.682865 114:-0.625278 115:-0.602754 116:-0.527833 117:-0.48374 118:-0.414996 119:-0.314405 120:-0.230491 121:-0.114752 122:0.0897329 123:0.472085 124:0.588517 125:0.597844 126:0.713686 127:0.774921 128:0.767546 129:0.75611 130:0.712203 131:0.719781 132:0.76075 133:0.800843 134:0.713176 135:0.601226 136:0.802975 137:0.903535 138:1 139:1 140:0.832567 141:0.474526 142:0.0539845 143:-0.19106 144:-0.323942 145:-0.417679 146:-0.52691 147:-0.695559 148:-0.866934 149:-0.956845 150:-0.998803 151:-0.901288 152:-0.798416 153:-0.795366 154:-0.837939 155:-0.88842 156:-0.896524 157:-0.836554 158:-0.80937 159:-0.435119 160:-0.194845 161:-0.0305319 162:0.0808567 163:0.206143 164:0.446082 165:0.510771 166:0.483992 167:0.52928 168:0.593963 169:0.584863 170:0.573515 171:0.549559 172:0.556039 173:0.557936 174:0.656359 175:0.739062 176:0.705586 177:0.689009 178:0.742389 179:0.885589 180:1 181:0.994381 182:0.89739 183:0.630074 184:0.188243 185:-0.115257 186:-0.364787 187:-0.573776 188:-0.781491 189:-0.748561 190:-0.78042 191:-0.844292 192:-0.84765 193:-0.881047 194:-0.952733 195:-0.962913 196:-1 197:-1 198:-1 199:-0.75597 200:-0.817969 201:-0.725069 202:-0.630647 203:-0.537289 204:-0.443126 205:-0.378358 206:-0.290765 207:-0.246732 208:-0.225887 209:-0.0940532 210:0.0467986 211:0.126383 212:0.12579 213:0.0702966 214:-0.00343885 215:-0.134565 216:-0.195686 217:-0.277746 218:-0.31392 219:-0.309279 220:-0.291089 221:-0.274089 222:-0.212689 223:-0.0943961 224:0.0285906 225:0.10345 226:0.154282 227:0.153783 228:0.0794611 229:0.107733 230:0.0643266 231:0.0604311 232:0.0785985 233:0.103165 234:0.0173203 235:-0.139775 236:-0.415718 237:-0.399364 238:-0.384616 239:-0.356566 240:-0.235311 241:-0.103775 242:0.0403469 243:0.131333 244:0.274161 245:0.371472 246:0.405511 247:0.422305 248:0.49075 249:0.479792 250:0.496695 251:0.545498 252:0.588522 253:0.633891 254:0.689759 255:0.72486 256:0.715625 257:0.611291 258:0.572407 259:0.626478 260:0.500531 261:0.443348 262:0.458155 263:0.476842 264:0.474352 265:0.462794 266:0.433456 267:0.369595 268:0.374161 269:0.349504 270:0.30148 271:0.203431 272:-0.0349987 273:-0.196534 274:-0.0741418 275:0.0898448 276:0.150268 277:0.311687 278:0.359171 279:0.453788 280:0.572801 281:0.737473 282:0.94848 283:1 284:1 285:1 286:1 287:0.867379 288:0.639363 289:0.425229 290:0.281696 291:0.225189 292:0.152928 293:0.0538489 294:-0.00348803 295:-0.0213918 296:-0.0542639 297:-0.0513399 298:-0.0681477 299:-0.0885667 
0.4684082237896726 0:-0.613457 1:-0.628663 2:-0.574053 3:-0.506309 4:-0.350581 5:-0.419018 6:-0.671887 7:-0.593082 8:-0.83554 9:-0.701201 10:-0.407017 11:-0.196503 12:-0.188966 13:-0.343306 14:-0.328571 15:-0.376173 16:-0.465568 17:-0.653881 18:-0.725265 19:-0.742798 20:-0.707053 21:-0.766052 22:-0.979292 23:-1 24:-1 25:-1 26:-0.986867 27:-0.760552 28:-0.420409 29:-0.464457 30:-0.432009 31:-0.342473 32:-0.280788 33:-0.0205561 34:0.643166 35:0.520675 36:0.000372266 37:-0.334405 38:-0.153144 39:-0.0804751 40:0.0382842 41:-0.236425 42:-0.264452 43:-0.138385 44:-0.18919 45:0.0122458 46:0.169727 47:0.238359 48:0.208518 49:0.25366 50:0.331439 51:0.588892 52:0.830599 53:0.978891 54:0.915806 55:0.776022 56:0.988171 57:1 58:1 59:0.788796 60:0.580741 61:0.526393 62:0.502275 63:0.39492 64:-0.0531781 65:-0.185134 66:-0.295351 67:-0.180532 68:-0.552245 69:-0.434815 70:-0.492554 71:-0.381525 72:-0.232212 73:-0.120641 74:0.374264 75:0.783461 76:0.890069 77:0.859788 78:0.93048 79:0.941418 80:0.780878 81:0.589073 82:0.61603 83:0.698386 84:0.377593 85:0.0702673 86:-0.033977 87:-0.101384 88:-0.196256 89:-0.464006 90:-0.499377 91:-0.281261 92:0.177685 93:0.512472 94:0.61386 95:0.596526 96:0.451252 97:0.637581 98:1 99:1 100:-0.866368 101:-0.965879 102:-0.918464 103:-0.855168 104:-0.784761 105:-0.808022 106:-0.970548 107:-1 108:-0.973964 109:-0.960815 110:-0.914762 111:-0.774981 112:-0.616828 113:-0.48688 114:-0.388274 115:-0.264419 116:-0.121976 117:0.0111383 118:0.119646 119:0.187244 120:0.221563 121:0.26925 122:0.335238 123:0.509184 124:0.674348 125:0.823606 126:0.914223 127:1 128:1 129:0.973912 130:0.912349 131:0.90196 132:0.846599 133:0.751725 134:0.618149 135:0.566793 136:0.772594 137:0.750026 138:0.772659 139:0.754368 140:0.51406 141:0.215621 142:-0.0369037 143:-0.169219 144:-0.301684 145:-0.392652 146:-0.461267 147:-0.564585 148:-0.730373 149:-0.863077 150:-0.994003 151:-1 152:-1 153:-1 154:-1 155:-1 156:-1 157:-1 158:-1 159:-0.622807 160:-0.383134 161:-0.225526 162:-0.0761868 163:0.0850134 164:0.176332 165:0.215109 166:0.324674 167:0.475498 168:0.521549 169:0.51166 170:0.581073 171:0.659652 172:0.730369 173:0.85963 174:1 175:1 176:1 177:1 178:1 179:1 180:0.973977 181:1 182:1 183:0.750494 184:0.277638 185:-0.110411 186:-0.511657 187:-0.785081 188:-1 189:-1 190:-1 191:-1 192:-0.930483 193:-0.937349 194:-1 195:-1 196:-0.823201 197:-0.660999 198:-0.710696 199:-0.755064 200:-0.190421 201:-0.0571226 202:0.0665714 203:0.134336 204:0.188163 205:0.292861 206:0.360735 207:0.230244 208:0.0189329 209:-0.154493 210:-0.150534 211:-0.118486 212:-0.164555 213:-0.278829 214:-0.40103 215:-0.547907 216:-0.580812 217:-0.615844 218:-0.62636 219:-0.557248 220:-0.48057 221:-0.426608 222:-0.356465 223:-0.248589 224:-0.104321 225:-0.0296254 226:0.0575042 227:0.0808412 228:0.00933755 229:0.0804484 230:0.0729619 231:0.0750376 232:0.0582701 233:0.0981192 234:0.0740386 235:-0.116677 236:-0.40639 237:-0.263319 238:-0.165327 239:-0.197042 240:-0.11732 241:0.0342202 242:0.144233 243:0.165189 244:0.266982 245:0.349 246:0.360337 247:0.345932 248:0.404747 249:0.401279 250:0.425039 251:0.479584 252:0.561633 253:0.642609 254:0.696062 255:0.710672 256:0.68753 257:0.593095 258:0.584145 259:0.661709 260:0.59908 261:0.594819 262:0.639079 263:0.670059 264:0.69125 265:0.650873 266:0.555743 267:0.501162 268:0.541032 269:0.504303 270:0.473587 271:0.416533 272:0.301503 273:0.122537 274:0.227361 275:0.26929 276:0.237615 277:0.37826 278:0.444147 279:0.58549 280:0.726487 281:0.826838 282:0.941186 283:0.992348 284:0.976333 285:0.917492 286:0.83741 287:0.719851 288:0.463574 289:0.197182 290:0.0369377 291:-0.107401 292:-0.246971 293:-0.232299 294:-0.256019 295:-0.363984 296:-0.408288 297:-0.357401 298:-0.185208 299:-0.115893 
-0.9895246995550909 0:-0.402866 1:-0.570574 2:-0.650121 3:-0.640115 4:-0.633456 5:-0.629189 6:-0.593924 7:-0.510079 8:-0.617292 9:-0.631526 10:-0.590944 11:-0.556417 12:-0.398889 13:-0.302603 14:-0.202572 15:-0.168365 16:-0.0577589 17:0.128043 18:0.262328 19:0.290345 20:0.286862 21:0.288415 22:0.326942 23:0.316461 24:0.176187 25:0.0447806 26:0.0426243 27:0.0363952 28:0.160518 29:-0.178039 30:-0.377916 31:-0.425993 32:-0.430981 33:-0.321559 34:-0.0406071 35:-0.152637 36:-0.141727 37:-0.439279 38:-0.555626 39:-0.742246 40:-0.588195 41:-0.75065 42:-0.58338 43:-0.478511 44:-0.584533 45:-0.16807 46:0.0495892 47:-0.0328612 48:-0.767891 49:-0.545775 50:-0.266919 51:0.179409 52:0.253223 53:0.118626 54:-0.0155027 55:0.0284983 56:0.242914 57:0.330493 58:0.416331 59:0.375944 60:0.389788 61:0.511948 62:0.639303 63:0.705712 64:0.15416 65:-0.00390007 66:-0.129356 67:0.00177668 68:-0.491367 69:-0.421643 70:-0.489589 71:-0.407364 72:-0.28913 73:-0.265948 74:0.107149 75:0.341309 76:0.311783 77:0.183751 78:-0.12104 79:-0.0692877 80:-0.0781063 81:-0.135758 82:0.0131215 83:0.295188 84:0.290038 85:0.175986 86:0.161151 87:0.208056 88:0.226531 89:0.158891 90:0.138882 91:0.157063 92:0.209996 93:0.192733 94:0.079935 95:-0.111856 96:-0.391317 97:-0.463994 98:-0.834569 99:-0.80222 100:-0.452389 101:-0.465818 102:-0.439684 103:-0.411798 104:-0.377374 105:-0.283721 106:-0.267726 107:-0.298932 108:-0.351958 109:-0.416795 110:-0.461972 111:-0.464948 112:-0.465183 113:-0.44853 114:-0.434239 115:-0.426385 116:-0.417863 117:-0.402396 118:-0.388819 119:-0.381332 120:-0.424767 121:-0.479852 122:-0.530487 123:-0.575486 124:-0.62999 125:-0.507839 126:-0.36806 127:-0.326029 128:-0.370157 129:-0.464715 130:-0.506652 131:-0.506128 132:-0.555527 133:-0.554827 134:-0.5378 135:-0.510834 136:-0.494061 137:-0.49061 138:-0.400328 139:-0.335531 140:-0.677282 141:-0.591759 142:-0.356441 143:0.0811041 144:0.333969 145:0.375054 146:0.268641 147:0.139264 148:0.0417677 149:0.109635 150:0.183852 151:0.275659 152:0.248661 153:0.225418 154:0.197226 155:0.174219 156:0.143998 157:0.108162 158:0.0248918 159:0.0935475 160:0.119048 161:0.126217 162:0.132022 163:0.160773 164:0.169749 165:0.145904 166:0.121935 167:0.0776153 168:0.0788562 169:0.0721476 170:0.100545 171:0.143259 172:0.198316 173:0.216684 174:0.234157 175:0.192446 176:0.103026 177:0.00106019 178:-0.0267195 179:0.0527633 180:0.193567 181:0.345085 182:0.595689 183:0.817759 184:0.861974 185:0.878668 186:0.881785 187:0.877057 188:0.879148 189:0.895462 190:0.902588 191:0.879108 192:0.861913 193:0.855567 194:0.855043 195:0.875567 196:0.892176 197:0.89864 198:0.901807 199:0.910425 200:-0.661682 201:-0.654422 202:-0.642354 203:-0.626259 204:-0.612168 205:-0.601606 206:-0.586624 207:-0.582471 208:-0.601611 209:-0.623936 210:-0.400558 211:-0.219356 212:-0.0723879 213:0.0113223 214:0.0673149 215:0.117251 216:0.214639 217:0.280309 218:0.324584 219:0.388495 220:0.437463 221:0.468789 222:0.499872 223:0.539581 224:0.581661 225:0.620428 226:0.638893 227:0.638176 228:0.603531 229:0.638342 230:0.642147 231:0.660145 232:0.674662 233:0.694557 234:0.632462 235:0.460557 236:0.220649 237:0.122649 238:0.0255157 239:-0.061081 240:-0.0571712 241:-0.0189424 242:0.028448 243:0.0315846 244:0.085754 245:0.0968836 246:0.0946139 247:0.0450579 248:0.115222 249:0.101583 250:0.11093 251:0.152171 252:0.260537 253:0.361067 254:0.425315 255:0.423909 256:0.352779 257:0.285406 258:0.307037 259:0.41211 260:0.393587 261:0.417256 262:0.474859 263:0.520906 264:0.576352 265:0.562358 266:0.50352 267:0.457188 268:0.458099 269:0.422544 270:0.376919 271:0.298802 272:0.0979775 273:-0.112221 274:-0.0797366 275:-0.0822886 276:-0.127893 277:-0.0925063 278:-0.0993293 279:-0.052489 280:-0.0184592 281:-0.0359028 282:-0.0404891 283:-0.0628619 284:-0.125337 285:-0.218749 286:-0.311717 287:-0.284335 288:-0.265155 289:-0.239219 290:-0.224312 291:-0.243085 292:-0.244197 293:-0.246139 294:-0.255684 295:-0.25961 296:-0.193107 297:-0.113385 298:-0.0651188 299:-0.0586243 
-1.592476824299045 0:-0.529445 1:-0.645762 2:-0.68565 3:-0.640726 4:-0.581044 5:-0.465376 6:-0.363951 7:-0.218038 8:-0.211565 9:-0.223449 10:-0.205624 11:-0.217211 12:-0.118324 13:-0.0734728 14:0.0141381 15:0.0400574 16:0.127444 17:0.264907 18:0.333841 19:0.301153 20:0.258991 21:0.212774 22:0.188158 23:0.118784 24:-0.0955149 25:-0.304015 26:-0.370332 27:-0.386518 28:-0.269003 29:-0.30712 30:-0.534413 31:-0.623422 32:-0.271175 33:0.0364239 34:0.202558 35:-0.259952 36:-0.0221799 37:-0.0805397 38:-0.1486 39:-0.422807 40:-0.323437 41:-0.446522 42:-0.450578 43:-0.299467 44:-0.435372 45:-0.350448 46:-0.222939 47:-0.249936 48:-0.570908 49:-0.415525 50:-0.319933 51:-0.156914 52:-0.00256625 53:-0.114497 54:-0.200228 55:-0.217198 56:-0.0961642 57:-0.0332306 58:0.0458174 59:0.0456104 60:0.109324 61:0.238626 62:0.280472 63:0.240921 64:-0.148111 65:-0.21249 66:-0.250686 67:-0.116746 68:-0.616998 69:-0.589962 70:-0.733496 71:-0.584631 72:-0.481327 73:-0.454185 74:-0.12515 75:0.0823178 76:-0.0820273 77:-0.372932 78:-1 79:-1 80:-1 81:-0.976566 82:-0.837103 83:-0.625601 84:-0.410882 85:-0.168363 86:0.130534 87:0.34116 88:0.434205 89:0.464332 90:0.510684 91:0.597561 92:0.6929 93:0.753717 94:0.749033 95:0.702355 96:0.529857 97:0.401167 98:0.0553305 99:-0.0978164 100:-0.656109 101:-0.777562 102:-0.846458 103:-0.894015 104:-0.914025 105:-0.81729 106:-0.789676 107:-0.821939 108:-0.880019 109:-0.944875 110:-1 111:-1 112:-1 113:-1 114:-1 115:-1 116:-1 117:-1 118:-1 119:-1 120:-1 121:-1 122:-1 123:-1 124:-1 125:-0.796964 126:-0.609802 127:-0.547255 128:-0.587589 129:-0.289318 130:0.0110982 131:0.213154 132:0.176772 133:-0.0373778 134:-0.111918 135:-0.0335233 136:0.184205 137:0.241488 138:0.313592 139:0.349198 140:0.202902 141:0.175919 142:0.122544 143:0.157847 144:0.178567 145:0.227782 146:0.299632 147:0.320605 148:0.317949 149:0.360617 150:0.418056 151:0.504541 152:0.558005 153:0.628864 154:0.693287 155:0.733516 156:0.754215 157:0.774726 158:0.785188 159:0.816817 160:0.814347 161:0.804612 162:0.777833 163:0.743894 164:0.72079 165:0.685272 166:0.642835 167:0.57741 168:0.545523 169:0.470432 170:0.448255 171:0.435254 172:0.446828 173:0.455668 174:0.473171 175:0.408906 176:0.28333 177:0.145758 178:0.0795061 179:0.125075 180:0.271693 181:0.435621 182:0.684601 183:0.865742 184:0.812921 185:0.710511 186:0.550702 187:0.363494 188:0.129665 189:-0.000692208 190:-0.150025 191:-0.357706 192:-0.524148 193:-0.592581 194:-0.622752 195:-0.603818 196:-0.494459 197:-0.37472 198:-0.406144 199:-0.523252 200:-0.629078 201:-0.524613 202:-0.415624 203:-0.301045 204:-0.165363 205:-0.0469416 206:0.0363509 207:0.0774563 208:0.0756866 209:0.0352273 210:0.133644 211:0.196816 212:0.230085 213:0.240365 214:0.23005 215:0.214798 216:0.243897 217:0.251556 218:0.244571 219:0.272167 220:0.305366 221:0.317201 222:0.341996 223:0.378193 224:0.413901 225:0.452601 226:0.480472 227:0.482372 228:0.416556 229:0.442507 230:0.439297 231:0.463042 232:0.463612 233:0.536444 234:0.517844 235:0.376197 236:0.145761 237:0.0737143 238:-0.00153184 239:-0.0711653 240:-0.0445503 241:0.00577832 242:0.0543255 243:0.0437645 244:0.0987239 245:0.14827 246:0.134124 247:0.0697126 248:0.126237 249:0.0927973 250:0.0829482 251:0.105994 252:0.181592 253:0.238137 254:0.242934 255:0.163243 256:-0.0395223 257:-0.142617 258:-0.109627 259:-0.0221417 260:-0.0188803 261:0.0230281 262:0.0751714 263:0.109719 264:0.185916 265:0.142287 266:0.0339041 267:-0.0238242 268:-0.0372077 269:-0.073838 270:-0.149386 271:-0.26597 272:-0.606684 273:-0.953747 274:-0.880109 275:-0.829911 276:-0.781873 277:-0.701921 278:-0.624836 279:-0.540946 280:-0.477791 281:-0.43633 282:-0.372407 283:-0.305386 284:-0.231975 285:-0.136617 286:-0.0119887 287:0.197525 288:0.414909 289:0.62891 290:0.808766 291:0.940033 292:1 293:1 294:1 295:1 296:1 297:1 298:1 299:1 
-2 0:-0.421012 1:-0.406796 2:-0.408726 3:-0.476154 4:-0.567775 5:-0.760616 6:-0.691754 7:-0.591889 8:-0.818335 9:-0.886356 10:-0.910158 11:-0.981319 12:-1 13:-1 14:-1 15:-1 16:-0.111427 17:-0.47865 18:-0.1763 19:-0.0785514 20:-0.052922 21:-0.00848314 22:0.0978121 23:0.20108 24:0.0789528 25:0.0427454 26:0.122194 27:0.172042 28:0.24628 29:-0.0977692 30:-0.289656 31:-0.366153 32:-0.394828 33:-0.190484 34:0.122735 35:-0.0331184 36:-0.142127 37:-0.363612 38:-0.552984 39:-0.770437 40:-0.613885 41:-0.772913 42:-0.581148 43:-0.350402 44:-0.427871 45:-0.284764 46:-0.250522 47:-0.504276 48:-0.932681 49:-0.48901 50:-0.272496 51:-0.0253523 52:0.0229492 53:-0.0568752 54:0.25111 55:0.456014 56:0.533216 57:0.395505 58:0.402313 59:0.355167 60:0.384309 61:0.488642 62:0.617084 63:0.668765 64:0.129613 65:-0.0210047 66:-0.139218 67:-0.00144067 68:-0.476849 69:-0.397014 70:-0.456052 71:-0.397084 72:-0.284321 73:-0.263062 74:0.126651 75:0.384833 76:0.389826 77:0.285378 78:0.0683 79:0.148286 80:0.133794 81:0.0515876 82:0.16651 83:0.432967 84:0.496466 85:0.524924 86:0.57914 87:0.622634 88:0.680807 89:0.714316 90:0.675346 91:0.648817 92:0.691744 93:0.671273 94:0.598134 95:0.572123 96:0.597244 97:0.660052 98:0.527883 99:0.411063 100:-0.753297 101:-0.92375 102:-0.946653 103:-0.868309 104:-0.804419 105:-0.730392 106:-0.766734 107:-0.81176 108:-0.868334 109:-0.912277 110:-0.892271 111:-0.787552 112:-0.673754 113:-0.512066 114:-0.366238 115:0.332173 116:0.573564 117:0.292104 118:0.440442 119:0.423817 120:0.383621 121:0.338475 122:0.310871 123:0.310938 124:0.271221 125:0.324484 126:0.472806 127:0.577638 128:0.638889 129:0.693073 130:0.723439 131:0.735184 132:0.744168 133:0.76103 134:0.728264 135:0.728849 136:0.994221 137:1 138:0.997721 139:0.985429 140:0.934967 141:0.77095 142:0.598094 143:0.503237 144:0.401605 145:0.354893 146:0.324739 147:0.230321 148:0.107247 149:0.0525044 150:0.0275552 151:0.128483 152:0.201614 153:0.200119 154:0.153551 155:0.116742 156:0.0714126 157:0.0333391 158:-0.0698055 159:0.00303998 160:0.0397061 161:0.049226 162:0.0496889 163:0.073751 164:0.0792781 165:0.0462378 166:0.00287926 167:-0.068477 168:-0.0988899 169:-0.130381 170:-0.137183 171:-0.112391 172:-0.069823 173:-0.104845 174:-0.166027 175:-0.276481 176:-0.42433 177:-0.60607 178:-0.715168 179:-0.670044 180:-0.553903 181:-0.529903 182:-0.482114 183:-0.420994 184:-0.435713 185:-0.381507 186:-0.410801 187:-0.391512 188:-0.394414 189:-0.283712 190:-0.255182 191:-0.313725 192:-0.366422 193:-0.354487 194:-0.34937 195:-0.314431 196:-0.217154 197:-0.145433 198:-0.211434 199:-0.372942 200:-0.588461 201:-0.466615 202:-0.361635 203:-0.327036 204:-0.299423 205:-0.316776 206:-0.375983 207:-0.528236 208:-0.708909 209:-0.998572 210:-1 211:-1 212:-1 213:-1 214:-1 215:-0.989227 216:-0.757229 217:-0.614101 218:-0.525399 219:-0.355594 220:-0.207991 221:-0.111752 222:-0.00930164 223:0.0943069 224:0.174275 225:0.247469 226:0.293502 227:0.29669 228:0.208374 229:0.232805 230:0.185573 231:0.160202 232:0.144236 233:0.164366 234:0.0842723 235:-0.124605 236:-0.470134 237:-0.538752 238:-0.594116 239:-0.680344 240:-0.64186 241:-0.544485 242:-0.452819 243:-0.440773 244:-0.321829 245:-0.182999 246:-0.104663 247:-0.070669 248:0.0988549 249:0.140985 250:0.189905 251:0.238436 252:0.309131 253:0.389054 254:0.433055 255:0.420198 256:0.342667 257:0.275778 258:0.312766 259:0.426285 260:0.404934 261:0.423626 262:0.486477 263:0.543987 264:0.609167 265:0.616421 266:0.588593 267:0.568371 268:0.596402 269:0.584551 270:0.578029 271:0.550142 272:0.473776 273:0.415165 274:0.485 275:0.496833 276:0.454237 277:0.555705 278:0.551699 279:0.649335 280:0.752456 281:0.815178 282:0.894885 283:0.935234 284:0.944308 285:0.946385 286:0.961165 287:1 288:1 289:1 290:1 291:1 292:0.997574 293:0.961325 294:0.942458 295:0.911333 296:0.882681 297:0.866256 298:0.856628 299:0.846531 
-0.3622522848234129 0:-0.49885 1:-0.607591 2:-0.632464 3:-0.571761 4:-0.501985 5:-0.443285 6:-0.367134 7:-0.218637 8:-0.233841 9:-0.225122 10:-0.166219 11:-0.187255 12:-0.0690193 13:0.0292971 14:0.145342 15:0.170309 16:0.252801 17:0.405422 18:0.456883 19:0.43626 20:0.433741 21:0.421183 22:0.454639 23:0.44716 24:0.339304 25:0.205486 26:0.0906052 27:-0.0095945 28:0.05196 29:-0.250368 30:-0.445016 31:-0.496919 32:-0.505397 33:-0.433451 34:-0.212003 35:-0.326789 36:-0.0329097 37:-0.294356 38:-0.366819 39:-0.354734 40:0.0109254 41:-0.184903 42:-0.543476 43:-0.421146 44:-0.36044 45:-0.120711 46:-0.0523282 47:-0.157647 48:-0.490741 49:-0.340788 50:-0.241986 51:-0.0561743 52:0.113451 53:0.0692954 54:0.0261457 55:0.0403959 56:0.238273 57:0.304979 58:0.385411 59:0.352485 60:0.375386 61:0.489006 62:0.603966 63:0.660322 64:0.119494 65:-0.0298682 66:-0.146185 67:-0.0160013 68:-0.497659 69:-0.412445 70:-0.462677 71:-0.396263 72:-0.299328 73:-0.295803 74:0.0622196 75:0.29566 76:0.259184 77:0.127711 78:-0.177156 79:-0.126976 80:-0.152021 81:-0.230406 82:-0.0746803 83:0.190221 84:0.144503 85:-0.0236754 86:-0.0617391 87:-0.0709638 88:-0.106821 89:-0.110371 90:0.0215814 91:0.170698 92:0.357308 93:0.419258 94:0.370096 95:0.221757 96:-0.0447672 97:-0.160839 98:-0.525352 99:-0.537677 100:-0.293412 101:-0.386412 102:-0.427325 103:-0.451036 104:-0.458012 105:-0.381351 106:-0.377144 107:-0.425965 108:-0.500967 109:-0.582243 110:-0.637457 111:-0.623338 112:-0.611196 113:-0.596862 114:-0.60418 115:-0.608134 116:-0.600603 117:-0.601448 118:-0.607602 119:-0.635657 120:-0.682739 121:-0.736472 122:-0.774546 123:-0.807667 124:-0.84818 125:-0.67903 126:-0.513003 127:-0.462757 128:-0.509467 129:-0.606305 130:-0.641463 131:-0.629269 132:-0.673488 133:-0.694584 134:-0.716928 135:-0.722037 136:-0.588332 137:0.107119 138:0.760091 139:0.798878 140:0.310989 141:0.0180721 142:-0.108362 143:-0.00802804 144:0.112242 145:0.211936 146:0.25867 147:0.225066 148:0.168787 149:0.157708 150:0.165582 151:0.214466 152:0.231193 153:0.253087 154:0.257114 155:0.228719 156:0.18587 157:0.133046 158:0.0422906 159:0.112803 160:0.149671 161:0.177461 162:0.202699 163:0.244304 164:0.260919 165:0.239352 166:0.212053 167:0.160736 168:0.149517 169:0.12138 170:0.127125 171:0.147352 172:0.183375 173:0.184631 174:0.187308 175:0.130231 176:0.0220403 177:-0.100503 178:-0.148177 179:-0.0735152 180:0.0649898 181:0.204222 182:0.432558 183:0.641442 184:0.660024 185:0.662007 186:0.654272 187:0.6682 188:0.677667 189:0.699647 190:0.680953 191:0.610263 192:0.527001 193:0.508281 194:0.508028 195:0.532348 196:0.561456 197:0.581818 198:0.563651 199:0.528978 200:-0.770907 201:-0.72253 202:-0.682719 203:-0.647199 204:-0.601597 205:-0.571809 206:-0.547538 207:-0.538916 208:-0.582696 209:-0.638431 210:-0.431284 211:-0.242655 212:-0.0842444 213:-0.000711406 214:0.0422582 215:0.0908269 216:0.188777 217:0.266507 218:0.312693 219:0.38444 220:0.447981 221:0.50365 222:0.551758 223:0.597808 224:0.641846 225:0.685128 226:0.711106 227:0.714145 228:0.679315 229:0.701881 230:0.698508 231:0.708619 232:0.719748 233:0.717892 234:0.630478 235:0.431878 236:0.177311 237:0.0674743 238:-0.046204 239:-0.15988 240:-0.118533 241:-0.0504978 242:0.0130415 243:0.0111155 244:0.0643612 245:0.110246 246:0.0982245 247:0.043742 248:0.119943 249:0.107426 250:0.117565 251:0.170887 252:0.281058 253:0.377171 254:0.430304 255:0.423894 256:0.345746 257:0.262215 258:0.273943 259:0.369582 260:0.34802 261:0.363769 262:0.417028 263:0.46005 264:0.5206 265:0.506361 266:0.446556 267:0.405494 268:0.406242 269:0.370194 270:0.321923 271:0.24515 272:0.0410345 273:-0.169074 274:-0.131892 275:-0.122844 276:-0.157873 277:-0.108597 278:-0.109912 279:-0.0698237 280:-0.0323514 281:-0.0251654 282:-0.0114094 283:-0.0261633 284:-0.0640201 285:-0.118883 286:-0.157654 287:-0.0817473 288:-0.0413529 289:-0.0153927 290:-0.0076949 291:-0.0141483 292:0.00313529 293:0.0212271 294:0.0103822 295:-0.00874226 296:0.0207591 297:0.0654446 298:0.110867 299:0.150219 
-2 0:-0.532235 1:-0.650143 2:-0.688863 3:-0.641537 4:-0.578603 5:-0.547885 6:-0.512151 7:-0.425838 8:-0.540112 9:-0.561653 10:-0.511167 11:-0.452904 12:-0.323518 13:-0.266595 14:-0.203553 15:-0.201121 16:-0.143389 17:0.0099563 18:0.180518 19:0.247113 20:0.294674 21:0.307491 22:0.31037 23:0.278194 24:0.149195 25:0.0018612 26:-0.0562275 27:-0.0967004 28:-0.0130824 29:-0.317626 30:-0.506932 31:-0.560138 32:-0.545057 33:-0.467214 34:-0.189987 35:-0.321499 36:-0.136915 37:-0.278617 38:-0.495788 39:-0.383299 40:0.0339427 41:-0.013544 42:-0.485854 43:-0.458939 44:-0.510515 45:-0.144939 46:-0.00915565 47:-0.101005 48:-0.497729 49:-0.305784 50:-0.167208 51:0.0210856 52:0.127402 53:0.0589975 54:0.0281013 55:0.0468833 56:0.211855 57:0.25852 58:0.330287 59:0.31262 60:0.353142 61:0.482849 62:0.595048 63:0.64544 64:0.115779 65:-0.0233642 66:-0.141988 67:-0.0117132 68:-0.495464 69:-0.413929 70:-0.456125 71:-0.380716 72:-0.263007 73:-0.247317 74:0.131829 75:0.355218 76:0.303263 77:0.169469 78:-0.108466 79:-0.0160227 80:0.012572 81:-0.0387744 82:0.106609 83:0.365104 84:0.296517 85:0.148519 86:0.138686 87:0.197422 88:0.248604 89:0.256405 90:0.290337 91:0.319982 92:0.373116 93:0.377988 94:0.285192 95:0.109371 96:-0.16078 97:-0.276876 98:-0.657767 99:-0.656426 100:-0.426396 101:-0.477166 102:-0.472867 103:-0.457069 104:-0.436093 105:-0.347578 106:-0.333265 107:-0.369299 108:-0.414325 109:-0.473469 110:-0.520183 111:-0.535878 112:-0.544823 113:-0.535988 114:-0.533072 115:-0.535222 116:-0.537572 117:-0.556637 118:-0.575134 119:-0.601053 120:-0.643216 121:-0.692774 122:-0.731313 123:-0.766725 124:-0.814817 125:-0.665186 126:-0.508427 127:-0.459036 128:-0.498631 129:-0.581524 130:-0.610404 131:-0.588855 132:-0.620289 133:-0.597942 134:-0.558634 135:-0.528016 136:-0.332023 137:0.0106199 138:0.526787 139:0.669149 140:0.468045 141:0.0246923 142:-0.141805 143:-0.0626083 144:0.0605004 145:0.161455 146:0.209206 147:0.186217 148:0.137825 149:0.150667 150:0.168412 151:0.211044 152:0.2099 153:0.216355 154:0.216545 155:0.189453 156:0.146836 157:0.09536 158:9.13286e-05 159:0.0768938 160:0.108122 161:0.119815 162:0.128677 163:0.154464 164:0.16007 165:0.132116 166:0.0989373 167:0.0430574 168:0.0313993 169:0.021954 170:0.0484451 171:0.0951542 172:0.156436 173:0.173644 174:0.190324 175:0.147386 176:0.058224 177:-0.0350519 178:-0.0498462 179:0.0377328 180:0.171339 181:0.315908 182:0.555458 183:0.763335 184:0.779972 185:0.79412 186:0.821423 187:0.858426 188:0.880368 189:0.883627 190:0.849788 191:0.798365 192:0.771638 193:0.795324 194:0.810808 195:0.831372 196:0.834318 197:0.823817 198:0.801895 199:0.776098 200:-0.794459 201:-0.769148 202:-0.743197 203:-0.71816 204:-0.698842 205:-0.677028 206:-0.649019 207:-0.625336 208:-0.621316 209:-0.618786 210:-0.368422 211:-0.168941 212:-0.0165012 213:0.0711946 214:0.137703 215:0.195256 216:0.294596 217:0.375955 218:0.416081 219:0.469927 220:0.50817 221:0.520605 222:0.545816 223:0.57238 224:0.593063 225:0.615759 226:0.630235 227:0.630247 228:0.584714 229:0.600551 230:0.58775 231:0.596672 232:0.609723 233:0.631137 234:0.563677 235:0.384687 236:0.132907 237:0.0516868 238:-0.00995963 239:-0.111978 240:-0.114283 241:-0.0609754 242:0.00747272 243:0.00302318 244:0.0581019 245:0.103731 246:0.0911434 247:0.0354734 248:0.119026 249:0.108127 250:0.122743 251:0.172681 252:0.282931 253:0.378331 254:0.432681 255:0.427139 256:0.353182 257:0.286255 258:0.310118 259:0.415928 260:0.400071 261:0.4247 262:0.485946 263:0.536012 264:0.593247 265:0.582795 266:0.526649 267:0.483653 268:0.489972 269:0.462195 270:0.427564 271:0.360228 272:0.187296 273:0.0043081 274:0.0349656 275:0.0297491 276:-0.0224227 277:0.0295656 278:0.0236669 279:0.0776827 280:0.118183 281:0.11151 282:0.106069 283:0.0712493 284:0.0144441 285:-0.0652561 286:-0.14717 287:-0.123227 288:-0.132567 289:-0.13941 290:-0.167341 291:-0.199639 292:-0.194228 293:-0.190849 294:-0.228368 295:-0.280891 296:-0.279015 297:-0.249882 298:-0.210968 299:-0.168433 
-1.365097483454205 0:-0.468442 1:-0.592811 2:-0.653953 3:-0.648386 4:-0.639917 5:-0.625631 6:-0.557193 7:-0.433088 8:-0.50754 9:-0.525944 10:-0.503833 11:-0.482367 12:-0.344272 13:-0.262875 14:-0.151932 15:-0.107128 16:-0.0116643 17:0.160034 18:0.273687 19:0.301912 20:0.372192 21:0.417801 22:0.456409 23:0.441282 24:0.356641 25:0.279836 26:0.258797 27:0.227558 28:0.309065 29:-0.0917767 30:-0.347055 31:-0.437704 32:-0.454899 33:-0.327692 34:-0.0181419 35:-0.129342 36:-0.143603 37:-0.469661 38:-0.589567 39:-0.690435 40:-0.345324 41:-0.65233 42:-0.394902 43:-0.128131 44:-0.259271 45:-0.432242 46:-0.354851 47:-0.204924 48:-0.205314 49:-0.128784 50:-0.189719 51:-0.060518 52:0.103698 53:0.0829157 54:0.0611207 55:0.0439345 56:0.21347 57:0.276842 58:0.372683 59:0.342581 60:0.365716 61:0.478421 62:0.585886 63:0.632562 64:0.105508 65:-0.0321515 66:-0.137571 67:0.00850297 68:-0.47042 69:-0.393017 70:-0.457202 71:-0.40046 72:-0.298976 73:-0.286812 74:0.0815857 75:0.310235 76:0.266862 77:0.137812 78:-0.145431 79:-0.0717765 80:-0.0826494 81:-0.15599 82:-0.00167834 83:0.295826 84:0.306405 85:0.236071 86:0.241598 87:0.302653 88:0.319232 89:0.241788 90:0.219231 91:0.179584 92:0.14252 93:0.103679 94:0.0731682 95:0.0354334 96:-0.14821 97:-0.250359 98:-0.667491 99:-0.715976 100:-0.259716 101:-0.278592 102:-0.26237 103:-0.253537 104:-0.254833 105:-0.187239 106:-0.183899 107:-0.215954 108:-0.257286 109:-0.307173 110:-0.357189 111:-0.359203 112:-0.358648 113:-0.345083 114:-0.335824 115:-0.324764 116:-0.309482 117:-0.309582 118:-0.33448 119:-0.350365 120:-0.393719 121:-0.446407 122:-0.491851 123:-0.533854 124:-0.592408 125:-0.482707 126:-0.356602 127:-0.327181 128:-0.377343 129:-0.471109 130:-0.524926 131:-0.541022 132:-0.603977 133:-0.608628 134:-0.590244 135:-0.559946 136:-0.541411 137:-0.528433 138:-0.424153 139:-0.19294 140:-0.0133182 141:0.51434 142:0.532633 143:0.338103 144:0.0902828 145:-0.0294361 146:0.0934485 147:0.192948 148:0.225571 149:0.222103 150:0.170506 151:0.189049 152:0.192532 153:0.209248 154:0.215462 155:0.186251 156:0.135183 157:0.073912 158:-0.027414 159:0.0484634 160:0.0890944 161:0.110367 162:0.123545 163:0.153114 164:0.155456 165:0.119606 166:0.0820473 167:0.0225154 168:-0.00108072 169:-0.0237588 170:-0.0148958 171:0.0181796 172:0.070947 173:0.0773832 174:0.0850605 175:0.0426914 176:-0.0417551 177:-0.135487 178:-0.160768 179:-0.0739625 180:0.0737651 181:0.2281 182:0.491492 183:0.740885 184:0.791311 185:0.816125 186:0.807002 187:0.813762 188:0.826496 189:0.85779 190:0.877673 191:0.867128 192:0.859485 193:0.862327 194:0.875537 195:0.915658 196:0.947352 197:0.957532 198:0.966806 199:0.976256 200:-0.93904 201:-0.931076 202:-0.927257 203:-0.926772 204:-0.924925 205:-0.939996 206:-0.954658 207:-0.964174 208:-0.981068 209:-1 210:-0.708122 211:-0.480178 212:-0.297135 213:-0.185263 214:-0.114264 215:-0.0578706 216:0.0519716 217:0.140609 218:0.206891 219:0.291507 220:0.361141 221:0.411365 222:0.456493 223:0.5226 224:0.580694 225:0.631358 226:0.662651 227:0.671995 228:0.657765 229:0.693794 230:0.703542 231:0.724504 232:0.747434 233:0.763678 234:0.695654 235:0.518936 236:0.289392 237:0.171968 238:0.0630365 239:-0.031583 240:-0.0303112 241:0.000729193 242:0.00776497 243:-0.0222966 244:0.039964 245:0.107201 246:0.10104 247:0.0386149 248:0.107242 249:0.0938827 250:0.119745 251:0.179645 252:0.288355 253:0.378824 254:0.430797 255:0.426198 256:0.358495 257:0.295051 258:0.31618 259:0.420484 260:0.398567 261:0.421505 262:0.48783 263:0.543286 264:0.607955 265:0.612581 266:0.574802 267:0.540536 268:0.552817 269:0.516479 270:0.477005 271:0.40778 272:0.243845 273:0.0702665 274:0.0927308 275:0.0748661 276:0.015616 277:0.0527958 278:0.0293937 279:0.0708025 280:0.102749 281:0.0928857 282:0.0824914 283:0.0494939 284:-0.0148927 285:-0.115199 286:-0.204128 287:-0.157503 288:-0.142054 289:-0.136047 290:-0.148647 291:-0.174703 292:-0.175737 293:-0.162926 294:-0.171133 295:-0.185491 296:-0.147738 297:-0.103668 298:-0.072739 299:-0.0739154 
-1.622497543497543 0:-0.451703 1:-0.609951 2:-0.678489 3:-0.645694 4:-0.58026 5:-0.533962 6:-0.502579 7:-0.428078 8:-0.545197 9:-0.577055 10:-0.560981 11:-0.537614 12:-0.371796 13:-0.28607 14:-0.225388 15:-0.266784 16:-0.265382 17:-0.114843 18:0.0560885 19:0.175969 20:0.298588 21:0.394172 22:0.413923 23:0.371334 24:0.225822 25:0.114313 26:0.092367 27:0.0862771 28:0.225923 29:-0.108343 30:-0.334681 31:-0.3919 32:-0.396945 33:-0.246418 34:0.0681788 35:-0.0456915 36:-0.0655717 37:-0.372136 38:-0.448182 39:-0.611892 40:-0.379427 41:-0.385983 42:-0.495324 43:-0.264381 44:-0.274442 45:-0.157676 46:-0.199257 47:-0.293131 48:-0.521873 49:-0.202976 50:-0.137986 51:-0.0457824 52:0.0769504 53:0.0403644 54:0.0371437 55:0.0319355 56:0.204083 57:0.268349 58:0.364103 59:0.351967 60:0.388052 61:0.504414 62:0.605222 63:0.661661 64:0.129258 65:-0.0175406 66:-0.136014 67:-0.00512941 68:-0.482363 69:-0.399726 70:-0.463849 71:-0.405856 72:-0.296589 73:-0.278307 74:0.101336 75:0.340514 76:0.319387 77:0.192612 78:-0.11269 79:-0.0834467 80:-0.0895518 81:-0.148177 82:0.00421543 83:0.297391 84:0.301028 85:0.242121 86:0.298919 87:0.348482 88:0.345216 89:0.200815 90:0.0766468 91:0.0272486 92:0.117208 93:0.158877 94:0.120894 95:-0.00221811 96:-0.235121 97:-0.319964 98:-0.711607 99:-0.765908 100:-0.378859 101:-0.413749 102:-0.400219 103:-0.386582 104:-0.380883 105:-0.298042 106:-0.276845 107:-0.303406 108:-0.349835 109:-0.408083 110:-0.451393 111:-0.44931 112:-0.443142 113:-0.418516 114:-0.393519 115:-0.381221 116:-0.375642 117:-0.378624 118:-0.398625 119:-0.424149 120:-0.46114 121:-0.489851 122:-0.53332 123:-0.576278 124:-0.634548 125:-0.517893 126:-0.385773 127:-0.352546 128:-0.402214 129:-0.495405 130:-0.546805 131:-0.551886 132:-0.60043 133:-0.590186 134:-0.560117 135:-0.526381 136:-0.495762 137:-0.467007 138:-0.337575 139:-0.220141 140:-0.310172 141:0.0799845 142:0.343087 143:0.375154 144:0.257906 145:0.121523 146:0.0919085 147:0.117555 148:0.14423 149:0.208832 150:0.213912 151:0.216807 152:0.19423 153:0.194674 154:0.206548 155:0.182733 156:0.142132 157:0.0914665 158:-0.0022801 159:0.0709209 160:0.100681 161:0.112066 162:0.120814 163:0.150434 164:0.159386 165:0.131935 166:0.0995001 167:0.0457705 168:0.037899 169:0.0253851 170:0.0467657 171:0.0878931 172:0.143551 173:0.154793 174:0.16359 175:0.114881 176:0.020695 177:-0.0856646 178:-0.117708 179:-0.0371626 180:0.109653 181:0.269751 182:0.532906 183:0.761202 184:0.772346 185:0.773677 186:0.774224 187:0.804639 188:0.829724 189:0.867555 190:0.89436 191:0.89774 192:0.890915 193:0.900073 194:0.924647 195:0.972118 196:1 197:1 198:1 199:1 200:-0.867616 201:-0.856285 202:-0.850807 203:-0.848911 204:-0.842956 205:-0.832047 206:-0.816449 207:-0.810424 208:-0.829551 209:-0.853589 210:-0.579164 211:-0.366635 212:-0.200654 213:-0.101944 214:-0.0375693 215:0.0174739 216:0.122508 217:0.199925 218:0.251502 219:0.327085 220:0.387461 221:0.414714 222:0.462819 223:0.514443 224:0.562944 225:0.606194 226:0.631276 227:0.643626 228:0.619768 229:0.646352 230:0.647719 231:0.670135 232:0.692845 233:0.717901 234:0.658372 235:0.484288 236:0.243212 237:0.139719 238:0.0414753 239:-0.0545897 240:-0.0526751 241:-0.00686266 242:0.0368029 243:0.0127364 244:0.0610994 245:0.11429 246:0.110716 247:0.0483079 248:0.112431 249:0.0897378 250:0.1025 251:0.164024 252:0.281836 253:0.380541 254:0.428096 255:0.420812 256:0.3486 257:0.283894 258:0.304544 259:0.409626 260:0.392278 261:0.414232 262:0.472845 263:0.517438 264:0.571667 265:0.560791 266:0.510251 267:0.477693 268:0.491976 269:0.468328 270:0.438381 271:0.375163 272:0.211366 273:0.0454668 274:0.0832424 275:0.0743421 276:0.0107879 277:0.0474718 278:0.0267863 279:0.0807545 280:0.11086 281:0.10047 282:0.103616 283:0.0711518 284:0.0202548 285:-0.0524889 286:-0.123707 287:-0.105184 288:-0.135904 289:-0.14347 290:-0.138353 291:-0.155375 292:-0.159276 293:-0.16443 294:-0.201645 295:-0.243308 296:-0.229199 297:-0.202093 298:-0.172324 299:-0.145835 
