svm_type c_svc
kernel_type rbf
gamma 0.00012207
nr_class 2
total_sv 37
rho 0.383687
label 0 1
nr_sv 18 19
SV
14.77349045528943 1:-0.399647 2:-0.469175 3:-0.358985 4:-0.231302 5:-0.205225 6:-0.251845 7:-0.366775 8:-0.332096 9:-0.430809 10:-0.645432 11:-0.901627 12:-1 13:-1 14:-0.999896 15:-0.782558 16:-0.639461 17:-0.522322 18:-0.422511 19:-0.614194 20:-0.510194 21:-0.413933 22:-0.522706 23:-0.131263 24:1 25:1 26:0.618873 27:0.15898 28:0.323174 29:-0.108618 30:-0.0387468 31:0.194266 32:0.273364 33:0.0944705 34:0.0891571 35:0.0800903 36:-0.0736219 37:-0.319307 38:-0.302145 39:-0.101581 40:-0.40953 41:-0.637043 42:-0.677972 43:-0.416365 44:-0.638267 45:-0.710094 46:-1 47:-1 48:-1 49:-0.710829 50:0.327511 51:0.0499425 52:-0.439386 53:-0.252493 54:-0.123343 55:0.127319 56:0.0614014 57:-0.197658 58:-0.259669 59:0.184028 60:0.333115 61:0.323705 62:0.0871203 63:0.411178 64:0.354212 65:0.180277 66:0.00925705 67:-0.119997 68:-0.00423681 69:-0.40146 70:-0.32362 71:-0.310998 72:-0.523531 73:-0.429305 74:-0.416951 75:-0.0843045 76:0.0153037 77:-0.0704311 78:0.170032 79:0.368001 80:0.450099 81:0.284658 82:0.134233 83:0.349008 84:0.77535 85:0.690488 86:0.429442 87:0.428318 88:0.568997 89:0.579814 90:0.541228 91:0.500161 92:0.498924 93:0.464511 94:0.348897 95:0.173903 96:0.296882 97:0.426538 98:0.584478 99:0.387274 100:0.181048 101:0.313766 102:0.357536 103:0.415391 104:0.50159 105:0.546672 106:0.587626 107:0.613354 108:0.585015 109:0.580253 110:0.57114 111:0.553852 112:0.520129 113:0.43294 114:0.366877 115:0.295984 116:0.162987 117:-0.062712 118:-0.311939 119:-0.471424 120:-0.572819 121:-0.732627 122:-0.948552 123:-0.713371 124:-0.911083 125:-0.90888 126:-0.585972 127:-0.313763 128:-0.0820679 129:0.0690803 130:0.212945 131:0.316931 132:0.371723 133:0.45084 134:0.586673 135:0.63381 136:0.618702 137:0.821995 138:0.766384 139:0.691267 140:0.649923 141:0.675397 142:0.770907 143:0.922921 144:1 145:1 146:1 147:1 148:0.868395 149:0.498686 150:0.158503 151:0.111344 152:0.136293 153:0.138487 154:0.0528601 155:-0.0484617 156:-0.166708 157:-0.236917 158:-0.24479 159:-0.345135 160:-0.302638 161:-0.247494 162:-0.252327 163:-0.228676 164:-0.112001 165:0.018195 166:0.00956774 167:-0.0306035 168:-0.0959476 169:-0.161372 170:-0.140737 171:-0.112535 172:-0.0727982 173:-0.0592415 174:-0.173484 175:-0.27571 176:-0.34266 177:-0.461627 178:-0.641282 179:-0.721965 180:-0.672055 181:-0.570269 182:-0.536777 183:-0.360886 184:-0.239971 185:-0.222127 186:-0.232249 187:-0.24453 188:-0.262894 189:-0.295453 190:-0.259732 191:-0.194869 192:-0.142866 193:-0.118969 194:-0.119717 195:-0.137002 196:-0.137858 197:-0.131834 198:-0.0716855 199:-0.152409 200:-0.260694 201:0.110597 202:0.316034 203:0.416676 204:0.395351 205:0.357793 206:0.24555 207:0.0839878 208:-0.137955 209:-0.48812 210:-0.765201 211:-0.763701 212:-0.766764 213:-0.739159 214:-0.734657 215:-0.752405 216:-0.724337 217:-0.702546 218:-0.725303 219:-0.70275 220:-0.635325 221:-0.802589 222:-1 223:-1 224:-0.493819 225:0.0454864 226:0.36889 227:0.575984 228:0.722383 229:0.797931 230:0.915757 231:1 232:1 233:1 234:0.912016 235:0.804709 236:0.695561 237:0.443802 238:0.206562 239:-0.0510744 240:-0.230935 241:-0.328396 242:-0.39077 243:-0.624325 244:-1 245:-1 246:-1 247:-0.979491 248:-0.539789 249:-0.326016 250:-0.0312977 251:0.123417 252:0.255663 253:0.365704 254:0.427945 255:0.427527 256:0.467958 257:0.459238 258:0.365141 259:0.318663 260:0.396909 261:0.397164 262:0.269239 263:0.318528 264:0.33504 265:0.395443 266:0.360156 267:0.272446 268:0.250057 269:0.35521 270:0.407986 271:0.300563 272:0.293973 273:0.325129 274:0.291849 275:0.392699 276:0.527438 277:0.523562 278:0.620394 279:0.610831 280:0.631986 281:0.677043 282:0.703032 283:0.714173 284:0.686256 285:0.679311 286:0.711363 287:0.769408 288:0.863222 289:0.949628 290:0.974252 291:0.954222 292:0.944792 293:0.898392 294:0.834844 295:0.785469 296:0.740543 297:0.725041 298:0.731711 299:0.759553 300:0.79811 301:0.234313 302:0.24544 303:0.255054 304:0.277682 305:0.298421 306:0.306747 307:0.30363 308:0.298996 309:0.281348 310:0.243232 311:0.176129 312:0.058462 313:-0.141507 314:-0.35576 315:-0.53513 316:-0.667033 317:-0.727763 318:-0.750854 319:-0.77004 320:-0.795523 321:-0.82175 322:-0.829026 323:-0.790689 324:-0.668002 325:-0.581639 326:-0.574925 327:-0.584219 328:-0.548126 329:-0.470065 330:-0.383541 331:-0.299776 332:-0.233568 333:-0.16024 334:-0.0851012 335:-0.0261971 336:0.00951384 337:0.0188244 338:0.0129412 339:-0.00320477 340:-0.0636493 341:-0.179568 342:-0.314818 343:-0.424212 344:-0.49798 345:-0.561202 346:-0.613061 347:-0.659945 348:-0.698388 349:-0.705639 350:-0.645741 351:-0.612345 352:-0.641798 353:-0.681323 354:-0.671445 355:-0.653666 356:-0.680501 357:-0.724679 358:-0.752745 359:-0.761483 360:-0.750783 361:-0.728679 362:-0.716117 363:-0.722597 364:-0.702491 365:-0.685045 366:-0.67418 367:-0.667518 368:-0.667873 369:-0.656295 370:-0.641496 371:-0.637344 372:-0.676788 373:-0.696271 374:-0.656093 375:-0.631591 376:-0.592519 377:-0.607518 378:-0.604668 379:-0.569041 380:-0.576173 381:-0.573584 382:-0.594755 383:-0.604938 384:-0.57868 385:-0.499439 386:-0.406643 387:-0.310888 388:-0.318902 389:-0.361184 390:-0.378563 391:-0.371639 392:-0.327207 393:-0.258834 394:-0.184127 395:-0.0813316 396:0.154722 397:0.399767 398:0.661604 399:0.904924 400:1 401:-0.452141 402:-0.261194 403:-0.0807111 404:0.0799016 405:0.220826 406:0.343663 407:0.451817 408:0.538116 409:0.596847 410:0.640704 411:0.676182 412:0.687591 413:0.676426 414:0.642949 415:0.593255 416:0.523768 417:0.408339 418:0.234124 419:0.00360667 420:-0.289912 421:-0.4937 422:-0.744323 423:-0.882492 424:-1 425:-1 426:-1 427:-0.989862 428:-0.797157 429:-0.645971 430:-0.465733 431:-0.281954 432:-0.124693 433:-0.00968871 434:0.0989302 435:0.227018 436:0.328624 437:0.405629 438:0.470982 439:0.512948 440:0.529942 441:0.476726 442:0.403566 443:0.307 444:0.185099 445:0.0397679 446:-0.131599 447:-0.291653 448:-0.394528 449:-0.460194 450:-0.497298 451:-0.48668 452:-0.45788 453:-0.42127 454:-0.397576 455:-0.392904 456:-0.393737 457:-0.409137 458:-0.433992 459:-0.463905 460:-0.495897 461:-0.528686 462:-0.561531 463:-0.594589 464:-0.628301 465:-0.663352 466:-0.703106 467:-0.746679 468:-0.792145 469:-0.83917 470:-0.887495 471:-0.93223 472:-0.971008 473:-1 474:-1 475:-1 476:-1 477:-1 478:-0.984559 479:-0.970681 480:-0.965542 481:-0.961718 482:-0.958883 483:-0.958165 484:-0.964474 485:-0.977395 486:-0.981198 487:-0.967507 488:-0.922433 489:-0.885825 490:-0.856396 491:-0.836729 492:-0.824275 493:-0.819867 494:-0.823586 495:-0.834442 496:-0.85147 497:-0.872825 498:-0.890893 499:-0.899452 500:-0.879499 501:-0.98491 502:-0.985099 503:-0.985066 504:-0.984515 505:-0.984926 506:-0.986244 507:-0.986805 508:-0.986276 509:-0.988121 510:-0.988252 511:-0.989841 512:-0.995421 513:0.704069 514:0.994923 515:0.993478 516:0.998059 517:0.077688 518:-0.977504 519:-0.958584 520:-0.931942 521:-0.90177 522:-0.859824 523:-0.823569 524:-0.798721 525:-0.758982 526:-0.725988 527:-0.704032 528:-0.673512 529:-0.66571 530:-0.664587 531:-0.653072 532:-0.631643 533:-0.620223 534:-0.617561 535:-0.607848 536:-0.604114 537:-0.603814 538:-0.615499 539:-0.636724 540:-0.666791 541:-0.701812 542:-0.74688 543:-0.796939 544:-0.851466 545:-0.89708 546:-0.948577 547:-0.988245 548:0.968568 549:0.973157 550:0.971837 551:0.979055 552:0.985119 553:0.987852 554:0.988301 555:0.988159 556:0.987881 557:0.987454 558:0.986555 559:0.986418 560:0.987265 561:0.989914 562:0.9925 563:0.987886 564:0.992827 565:1 566:1 567:1 568:1 569:1 570:0.999577 571:1 572:0.998047 573:0.991628 574:0.979638 575:0.952381 576:0.932703 577:0.92873 578:0.926136 579:0.937904 580:0.941205 581:0.956206 582:0.964837 583:0.984177 584:0.985498 585:0.97921 586:0.972542 587:0.999422 588:0.993397 589:0.983951 590:0.950906 591:0.945935 592:0.935623 593:0.929708 594:0.917347 595:0.910644 596:0.904674 597:0.895907 598:0.884631 599:0.874951 600:0.86059 
6.104998405502821 1:-0.441155 2:-0.570639 3:-0.567193 4:-0.503355 5:-0.42528 6:-0.389379 7:-0.391146 8:-0.270738 9:-0.207336 10:-0.25088 11:-0.268609 12:-0.101542 13:0.0422485 14:0.160488 15:0.387706 16:0.519144 17:0.649585 18:0.772947 19:0.778818 20:0.832955 21:0.875128 22:0.141331 23:-0.200165 24:0.140101 25:0.333051 26:0.907783 27:0.359424 28:0.112425 29:-0.393283 30:-0.404817 31:-0.257354 32:-0.174921 33:-0.307717 34:-0.349478 35:-0.29299 36:-0.269624 37:-0.317025 38:-0.34271 39:-0.142714 40:-0.203744 41:-0.211012 42:-0.185922 43:0.0352563 44:-0.0251321 45:0.0546305 46:0.093519 47:0.236212 48:0.217504 49:-0.267334 50:-0.407501 51:-0.434077 52:-0.705474 53:-0.639135 54:-0.686261 55:-0.420353 56:-0.0258226 57:0.215065 58:0.209827 59:0.591785 60:0.780595 61:0.555395 62:0.184375 63:0.344768 64:0.0918655 65:-0.117601 66:-0.213012 67:-0.252505 68:-0.121903 69:-0.452611 70:-0.34404 71:-0.321375 72:-0.518327 73:-0.408752 74:-0.392153 75:-0.050538 76:0.13067 77:0.0928333 78:-0.0358216 79:-0.351474 80:-0.302273 81:-0.298534 82:-0.364693 83:-0.263805 84:-0.0795913 85:-0.0958477 86:-0.183433 87:-0.18249 88:-0.182117 89:-0.284635 90:-0.442789 91:-0.478815 92:-0.514118 93:-0.539777 94:-0.527024 95:-0.549781 96:-0.485771 97:-0.470533 98:-0.333535 99:-0.532886 100:-0.426455 101:-0.127739 102:-0.190709 103:-0.178631 104:-0.151576 105:-0.131692 106:-0.055855 107:-0.0232489 108:-0.0258028 109:-0.033761 110:-0.0548378 111:-0.0723742 112:-0.0473808 113:-0.0350764 114:-0.0127012 115:0.0199534 116:0.0544596 117:0.0751971 118:0.0882291 119:0.0943274 120:0.0554695 121:0.0324799 122:0.00748583 123:0.0335365 124:-0.0434367 125:-0.0250046 126:0.035382 127:0.0897733 128:0.0987484 129:0.0731802 130:0.0614684 131:0.0660639 132:0.0513147 133:0.0432297 134:0.055545 135:-0.0277285 136:-0.106701 137:-0.0062918 138:-0.0741481 139:-0.147736 140:-0.129269 141:-0.127397 142:-0.0330367 143:0.0515428 144:0.128319 145:0.240273 146:0.372328 147:0.511479 148:0.651199 149:0.670323 150:0.687441 151:0.722627 152:0.687252 153:0.534487 154:0.39178 155:0.232592 156:-0.0234083 157:-0.220479 158:-0.357542 159:-0.475538 160:-0.395926 161:-0.308911 162:-0.276165 163:-0.24344 164:-0.139517 165:-0.0118778 166:-0.0158966 167:-0.0542473 168:-0.128298 169:-0.200977 170:-0.198169 171:-0.194796 172:-0.168794 173:-0.151375 174:-0.2476 175:-0.339813 176:-0.423059 177:-0.521474 178:-0.714923 179:-0.827395 180:-0.778651 181:-0.657822 182:-0.605335 183:-0.4342 184:-0.336119 185:-0.329272 186:-0.28562 187:-0.242506 188:-0.2207 189:-0.232558 190:-0.183751 191:-0.120206 192:-0.0686631 193:-0.0164389 194:0.0247289 195:0.0463457 196:0.0538579 197:0.0671482 198:0.125239 199:0.0982948 200:0.0606936 201:-0.0157996 202:0.059316 203:0.147435 204:0.231502 205:0.323683 206:0.415138 207:0.513159 208:0.617286 209:0.645481 210:0.697061 211:0.78141 212:0.839607 213:0.8806 214:0.9159 215:0.916758 216:0.918034 217:0.926931 218:0.943807 219:0.949796 220:0.932933 221:0.902383 222:0.894249 223:0.890736 224:0.898665 225:0.896293 226:0.885524 227:0.876564 228:0.87033 229:0.85527 230:0.863414 231:0.862166 232:0.823905 233:0.814801 234:0.756688 235:0.690289 236:0.61898 237:0.440735 238:0.304896 239:0.176711 240:0.145808 241:0.180113 242:0.206704 243:0.110659 244:-0.0574613 245:-0.0108332 246:-0.0102546 247:-0.265684 248:-0.392733 249:-0.518835 250:-0.703275 251:-0.835522 252:-0.834548 253:-0.665988 254:-0.425744 255:-0.250366 256:0.0486035 257:0.267271 258:0.291306 259:0.392179 260:0.604127 261:0.70065 262:0.705329 263:0.730343 264:0.73812 265:0.744386 266:0.712527 267:0.629382 268:0.559233 269:0.587762 270:0.57832 271:0.421885 272:0.33491 273:0.275463 274:0.0383524 275:-0.116031 276:-0.225133 277:-0.339877 278:-0.322035 279:-0.319426 280:-0.325636 281:-0.343169 282:-0.374384 283:-0.402942 284:-0.433827 285:-0.477025 286:-0.55067 287:-0.629768 288:-0.57868 289:-0.555732 290:-0.552548 291:-0.5626 292:-0.594166 293:-0.591004 294:-0.571064 295:-0.60166 296:-0.654919 297:-0.645573 298:-0.629904 299:-0.607438 300:-0.59512 301:-0.189413 302:-0.210271 303:-0.253513 304:-0.292458 305:-0.320252 306:-0.333964 307:-0.340214 308:-0.34949 309:-0.360391 310:-0.374928 311:-0.395684 312:-0.419338 313:-0.452991 314:-0.498184 315:-0.538975 316:-0.56177 317:-0.559032 318:-0.548801 319:-0.531272 320:-0.509697 321:-0.472409 322:-0.418013 323:-0.356726 324:-0.288609 325:-0.231661 326:-0.172616 327:-0.114087 328:-0.0511121 329:0.0148779 330:0.081932 331:0.15074 332:0.216952 333:0.279052 334:0.339191 335:0.3947 336:0.450029 337:0.498638 338:0.534451 339:0.567974 340:0.592885 341:0.599311 342:0.587838 343:0.581189 344:0.570851 345:0.546042 346:0.514967 347:0.460842 348:0.412957 349:0.322848 350:0.271523 351:0.231042 352:0.178017 353:0.0581846 354:0.000108194 355:-0.0666121 356:-0.157545 357:-0.22266 358:-0.254773 359:-0.270753 360:-0.278852 361:-0.266222 362:-0.252252 363:-0.255589 364:-0.239746 365:-0.225681 366:-0.215649 367:-0.209309 368:-0.218675 369:-0.213427 370:-0.20312 371:-0.204689 372:-0.244093 373:-0.277215 374:-0.266135 375:-0.259727 376:-0.245371 377:-0.232806 378:-0.231352 379:-0.227055 380:-0.246706 381:-0.228361 382:-0.211378 383:-0.196047 384:-0.183427 385:-0.153235 386:-0.11478 387:-0.0732622 388:-0.177143 389:-0.311064 390:-0.402394 391:-0.464478 392:-0.502695 393:-0.52866 394:-0.555334 395:-0.568575 396:-0.430444 397:-0.321935 398:-0.227767 399:-0.247858 400:-0.388076 401:-0.382777 402:-0.383994 403:-0.386063 404:-0.383768 405:-0.381839 406:-0.377617 407:-0.348582 408:-0.31994 409:-0.290135 410:-0.258665 411:-0.222287 412:-0.184972 413:-0.144075 414:-0.100294 415:-0.0482465 416:0.0112126 417:0.0712392 418:0.127224 419:0.190715 420:0.257921 421:0.388835 422:0.496858 423:0.608793 424:0.694824 425:0.767001 426:0.812095 427:0.840516 428:0.867608 429:0.89554 430:0.923135 431:0.950133 432:0.97651 433:0.998704 434:1 435:1 436:1 437:1 438:1 439:1 440:1 441:0.96664 442:0.938307 443:0.922292 444:0.930542 445:0.955368 446:0.993038 447:0.99502 448:0.979488 449:0.973498 450:0.939182 451:0.905142 452:0.874293 453:0.8735 454:0.863117 455:0.833851 456:0.833377 457:0.815828 458:0.789564 459:0.775163 460:0.764586 461:0.772411 462:0.784234 463:0.795184 464:0.801253 465:0.804071 466:0.805462 467:0.807478 468:0.807094 469:0.808123 470:0.799998 471:0.789115 472:0.776294 473:0.761198 474:0.749063 475:0.732969 476:0.716344 477:0.698278 478:0.673118 479:0.648323 480:0.623107 481:0.600298 482:0.578961 483:0.561005 484:0.545054 485:0.530891 486:0.521946 487:0.514421 488:0.517281 489:0.520573 490:0.525367 491:0.531281 492:0.540315 493:0.554968 494:0.570525 495:0.587959 496:0.605052 497:0.628503 498:0.623232 499:0.604068 500:0.58891 501:0.603441 502:0.598221 503:0.600117 504:0.609561 505:0.606195 506:0.59435 507:0.59534 508:0.596544 509:0.597739 510:0.604783 511:0.607014 512:0.615571 513:0.6151 514:0.612929 515:0.618954 516:0.626649 517:0.634852 518:0.638702 519:0.648273 520:0.652524 521:0.665966 522:0.680058 523:0.693402 524:0.703652 525:0.730954 526:0.745904 527:0.773924 528:0.804096 529:0.807728 530:0.850902 531:0.876491 532:0.895804 533:0.908713 534:0.932532 535:0.963413 536:0.968652 537:0.980344 538:0.390811 539:-0.762191 540:-1 541:-0.988098 542:-0.983223 543:-0.985032 544:-0.997848 545:-0.335211 546:0.795807 547:0.948062 548:0.913522 549:0.86358 550:0.813 551:0.759985 552:0.718465 553:0.683399 554:0.661179 555:0.64257 556:0.635193 557:0.630204 558:0.628417 559:0.629324 560:0.63162 561:0.639054 562:0.644963 563:0.643727 564:0.650126 565:0.658076 566:0.659485 567:0.659955 568:0.660378 569:0.660256 570:0.660933 571:0.665629 572:0.668717 573:0.676123 574:0.673161 575:0.656267 576:0.649746 577:0.646984 578:0.642023 579:0.643815 580:0.637874 581:0.637171 582:0.629257 583:0.632288 584:0.627476 585:0.620447 586:0.615661 587:0.639234 588:0.634355 589:0.627898 590:0.601539 591:0.599591 592:0.594723 593:0.595126 594:0.58867 595:0.585927 596:0.589261 597:0.589956 598:0.589748 599:0.589343 600:0.580862 
11.39949596195446 1:-0.363707 2:-0.452814 3:-0.377253 4:-0.274272 5:-0.19839 6:-0.153159 7:-0.179196 8:-0.0788276 9:-0.0621447 10:-0.0962311 11:-0.120727 12:0.0370046 13:0.17556 14:0.285287 15:0.487164 16:0.612387 17:0.736328 18:0.876123 19:0.787068 20:0.736155 21:0.687835 22:-0.0450892 23:-0.378961 24:-0.146599 25:-0.0100757 26:0.414672 27:-0.0552278 28:-0.285084 29:-0.606451 30:-0.617025 31:-0.512888 32:-0.400385 33:-0.454795 34:-0.491817 35:-0.387786 36:-0.341891 37:-0.366317 38:-0.31633 39:0.0766572 40:0.0812561 41:0.0752631 42:-0.0347722 43:-0.0265437 44:-0.368842 45:-0.500331 46:-0.612167 47:-0.428652 48:-0.445268 49:-0.873629 50:-0.508367 51:-0.103352 52:0.111107 53:0.250953 54:0.157198 55:0.25357 56:0.26729 57:0.190146 58:0.0444817 59:0.345108 60:0.33012 61:0.192 62:-0.00921422 63:0.304259 64:0.257747 65:0.147413 66:0.00084209 67:-0.158774 68:-0.0974656 69:-0.488959 70:-0.418371 71:-0.426087 72:-0.602536 73:-0.517006 74:-0.546848 75:-0.319358 76:-0.183739 77:-0.251902 78:-0.330742 79:-0.659146 80:-0.593083 81:-0.587806 82:-0.624409 83:-0.525105 84:-0.402935 85:-0.439493 86:-0.535325 87:-0.437698 88:-0.297689 89:-0.264844 90:-0.330304 91:-0.32747 92:-0.282984 93:-0.147868 94:-0.160255 95:-0.286866 96:-0.277738 97:-0.314825 98:-0.300888 99:-0.68812 100:-0.639547 101:0.0715172 102:-0.0445754 103:-0.0527801 104:-0.0440236 105:-0.0479313 106:0.00367439 107:0.0285142 108:0.0115612 109:-0.00102818 110:-0.0339612 111:-0.089224 112:-0.0854297 113:-0.0647073 114:-0.025254 115:0.0132821 116:0.039476 117:0.0725816 118:0.124118 119:0.154071 120:0.116409 121:0.0976539 122:0.0665198 123:0.0682254 124:-0.0264504 125:-0.0131254 126:0.059862 127:0.118661 128:0.154293 129:0.153843 130:0.148427 131:0.165545 132:0.186859 133:0.206923 134:0.227271 135:0.176068 136:0.13123 137:0.311992 138:0.311903 139:0.308727 140:0.363503 141:0.432714 142:0.501154 143:0.519399 144:0.514398 145:0.505317 146:0.542835 147:0.552555 148:0.544654 149:0.523125 150:0.437625 151:0.356022 152:0.271507 153:0.128325 154:-0.0427934 155:-0.206794 156:-0.376774 157:-0.491861 158:-0.529719 159:-0.615246 160:-0.528584 161:-0.444343 162:-0.403779 163:-0.351386 164:-0.230529 165:-0.0947792 166:-0.0890512 167:-0.137367 168:-0.231044 169:-0.30866 170:-0.296034 171:-0.263405 172:-0.19627 173:-0.14748 174:-0.214747 175:-0.258224 176:-0.27459 177:-0.286661 178:-0.395444 179:-0.450046 180:-0.389462 181:-0.253578 182:-0.128827 183:0.0734914 184:0.151239 185:0.117331 186:0.146636 187:0.2219 188:0.257914 189:0.231898 190:0.234195 191:0.256797 192:0.276447 193:0.289736 194:0.288439 195:0.272593 196:0.275841 197:0.297456 198:0.348437 199:0.337223 200:0.335838 201:-0.0867052 202:-0.0525256 203:-0.0249692 204:-0.00933925 205:0.024016 206:0.0718696 207:0.122001 208:0.157388 209:0.150866 210:0.132422 211:0.270592 212:0.409911 213:0.498601 214:0.554321 215:0.564401 216:0.573375 217:0.593352 218:0.61197 219:0.61419 220:0.620127 221:0.57503 222:0.520369 223:0.454696 224:0.448412 225:0.482021 226:0.476511 227:0.488877 228:0.488933 229:0.42346 230:0.445182 231:0.439873 232:0.426786 233:0.436033 234:0.436368 235:0.384974 236:0.29257 237:0.0523424 238:-0.0596699 239:-0.188272 240:-0.208765 241:-0.169906 242:-0.13992 243:-0.289576 244:-0.560727 245:-0.485834 246:-0.418991 247:-0.623231 248:-0.582105 249:-0.442063 250:-0.37503 251:-0.147398 252:0.139652 253:0.423606 254:0.641452 255:0.795574 256:0.916976 257:0.905953 258:0.8814 259:0.959494 260:1 261:0.967116 262:0.900233 263:0.928262 264:0.967235 265:0.986993 266:0.982156 267:0.924078 268:0.8527 269:0.848579 270:0.805825 271:0.665245 272:0.569721 273:0.540958 274:0.394124 275:0.248408 276:0.0904311 277:-0.085537 278:-0.122015 279:-0.175195 280:-0.197155 281:-0.214015 282:-0.270916 283:-0.32325 284:-0.378906 285:-0.472945 286:-0.59532 287:-0.691439 288:-0.641677 289:-0.644565 290:-0.693055 291:-0.745742 292:-0.787495 293:-0.75898 294:-0.739329 295:-0.77148 296:-0.820655 297:-0.781253 298:-0.699223 299:-0.605774 300:-0.581971 301:0.0495793 302:0.0313607 303:0.00395574 304:-0.0169168 305:-0.0283582 306:-0.0309391 307:-0.028215 308:-0.0218492 309:-0.0133842 310:0.00378296 311:0.025233 312:0.0578033 313:0.0548335 314:0.0302957 315:0.0206251 316:0.0391735 317:0.0905171 318:0.161679 319:0.244289 320:0.337417 321:0.436968 322:0.512848 323:0.581408 324:0.648441 325:0.68208 326:0.701114 327:0.712224 328:0.71635 329:0.716236 330:0.711466 331:0.704953 332:0.70042 333:0.697791 334:0.697145 335:0.699532 336:0.701743 337:0.703994 338:0.698125 339:0.690429 340:0.67255 341:0.616062 342:0.524841 343:0.39667 344:0.236689 345:0.0639881 346:-0.0952854 347:-0.219946 348:-0.308618 349:-0.373176 350:-0.382121 351:-0.332752 352:-0.246318 353:-0.172931 354:-0.0631099 355:0.0545136 356:0.0708914 357:0.100407 358:0.142647 359:0.188928 360:0.24556 361:0.313208 362:0.387936 363:0.465251 364:0.555608 365:0.648445 366:0.743394 367:0.827248 368:0.858803 369:0.888513 370:0.912641 371:0.934426 372:0.95739 373:0.984011 374:1 375:1 376:1 377:0.981607 378:0.857811 379:0.747762 380:0.642519 381:0.549381 382:0.459111 383:0.37727 384:0.30479 385:0.248119 386:0.198549 387:0.159546 388:-0.0377201 389:-0.234186 390:-0.361261 391:-0.446942 392:-0.498405 393:-0.523737 394:-0.547967 395:-0.559302 396:-0.423715 397:-0.317884 398:-0.230783 399:-0.270123 400:-0.432517 401:-0.0462302 402:-0.0311524 403:-0.0159043 404:-0.000316527 405:0.0156137 406:0.0350205 407:0.0718183 408:0.109339 409:0.147404 410:0.188281 411:0.235623 412:0.286906 413:0.342346 414:0.401306 415:0.468139 416:0.540699 417:0.605334 418:0.653677 419:0.700241 420:0.738058 421:0.788965 422:0.823057 423:0.852826 424:0.870767 425:0.873938 426:0.859728 427:0.829414 428:0.812199 429:0.802234 430:0.802887 431:0.810619 432:0.824002 433:0.835142 434:0.830097 435:0.837169 436:0.841718 437:0.846816 438:0.861071 439:0.882192 440:0.907562 441:0.902619 442:0.899367 443:0.893988 444:0.893224 445:0.889609 446:0.88283 447:0.832637 448:0.765672 449:0.721569 450:0.663957 451:0.637199 452:0.639925 453:0.688605 454:0.735068 455:0.767407 456:0.816799 457:0.849005 458:0.872168 459:0.891697 460:0.905948 461:0.919787 462:0.93256 463:0.940232 464:0.943012 465:0.943487 466:0.943905 467:0.942679 468:0.938982 469:0.934501 470:0.92242 471:0.911963 472:0.905312 473:0.903309 474:0.905809 475:0.911421 476:0.919711 477:0.929693 478:0.930239 479:0.926833 480:0.92138 481:0.914894 482:0.90763 483:0.898522 484:0.886162 485:0.869884 486:0.852441 487:0.831441 488:0.8137 489:0.795345 490:0.774708 491:0.751519 492:0.729294 493:0.71044 494:0.688243 495:0.660285 496:0.623573 497:0.583916 498:0.510816 499:0.423168 500:0.335225 501:-0.449189 502:-0.448946 503:-0.445713 504:-0.439391 505:-0.437641 506:-0.439164 507:-0.435136 508:-0.429603 509:-0.424276 510:-0.413677 511:-0.402832 512:-0.389192 513:-0.377689 514:-0.36524 515:-0.346713 516:-0.323698 517:-0.29737 518:-0.270422 519:-0.243417 520:-0.212962 521:-0.178104 522:-0.141349 523:-0.109834 524:-0.088042 525:-0.0555212 526:-0.0359684 527:-0.0177867 528:0.00520726 529:0.00251837 530:0.0115286 531:0.0161015 532:0.021603 533:0.0193029 534:0.0184815 535:0.0259445 536:0.0195597 537:0.0156368 538:0.0106006 539:-0.00407361 540:-0.0191603 541:-0.0373078 542:-0.071909 543:-0.118091 544:-0.18063 545:-0.240492 546:-0.306116 547:-0.350286 548:-0.383087 549:-0.418267 550:-0.435911 551:-0.443395 552:-0.443543 553:-0.439311 554:-0.430567 555:-0.417219 556:-0.399243 557:-0.377666 558:-0.353586 559:-0.326826 560:-0.296398 561:-0.263219 562:-0.229536 563:-0.19872 564:-0.164094 565:-0.129392 566:-0.10041 567:-0.0783421 568:-0.0579769 569:-0.0452878 570:-0.0343576 571:-0.0218105 572:-0.0193932 573:-0.00490151 574:-0.0153593 575:-0.0343792 576:-0.0529872 577:-0.0755514 578:-0.0956044 579:-0.122894 580:-0.148017 581:-0.173699 582:-0.204158 583:-0.229198 584:-0.250542 585:-0.2737 586:-0.293783 587:-0.296257 588:-0.313202 589:-0.326981 590:-0.34996 591:-0.360164 592:-0.372183 593:-0.377031 594:-0.387718 595:-0.399437 596:-0.397052 597:-0.404074 598:-0.410423 599:-0.41284 600:-0.415851 
32 1:-0.665402 2:-0.672067 3:-0.556855 4:-0.476652 5:-0.433829 6:-0.452473 7:-0.501004 8:-0.340548 9:-0.209484 10:-0.226663 11:-0.232101 12:-0.0714519 13:0.0571896 14:0.133251 15:0.300789 16:0.396485 17:0.491834 18:0.607424 19:0.619299 20:0.686849 21:0.731051 22:0.0309523 23:-0.292468 24:-0.0188088 25:0.0977162 26:0.531735 27:0.103854 28:-0.150036 29:-0.514993 30:-0.545227 31:-0.453644 32:-0.361994 33:-0.44371 34:-0.530464 35:-0.46113 36:-0.427723 37:-0.443282 38:-0.486555 39:-0.290911 40:-0.329809 41:-0.325134 42:-0.264895 43:-0.0327684 44:-0.1629 45:-0.114872 46:-0.0782485 47:0.208527 48:0.28847 49:-0.0286751 50:-0.13148 51:-0.174711 52:-0.406232 53:-0.364945 54:-0.599107 55:-0.525708 56:-0.318653 57:-0.0937041 58:0.0343912 59:0.469144 60:0.529346 61:0.30077 62:0.0103405 63:0.299747 64:0.224981 65:0.0785942 66:-0.0880992 67:-0.211043 68:-0.13165 69:-0.498342 70:-0.377685 71:-0.329911 72:-0.516822 73:-0.427818 74:-0.445009 75:-0.146776 76:-0.0135906 77:-0.103446 78:-0.237198 79:-0.556631 80:-0.496975 81:-0.511021 82:-0.557854 83:-0.534607 84:-0.463571 85:-0.44892 86:-0.450581 87:-0.351926 88:-0.275827 89:-0.282436 90:-0.292535 91:-0.17064 92:-0.0686645 93:-0.0116273 94:-0.0520684 95:-0.149886 96:-0.0586958 97:0.0458341 98:0.262604 99:0.182798 100:0.199125 101:0.13766 102:0.0350508 103:0.0499844 104:0.0787713 105:0.071461 106:0.0929256 107:0.0895137 108:0.0697323 109:0.0592308 110:0.036373 111:0.00383693 112:0.01421 113:0.0211917 114:0.0432019 115:0.0911028 116:0.111109 117:0.103957 118:0.101056 119:0.109005 120:0.0875798 121:0.0830591 122:0.0452134 123:0.0469366 124:-0.0471209 125:-0.0419915 126:0.00420987 127:0.0308339 128:0.0718018 129:0.0520552 130:0.0422693 131:0.036983 132:0.0224155 133:0.0440974 134:0.0707043 135:0.0216927 136:-0.0101006 137:0.139904 138:0.102108 139:0.050854 140:0.0729937 141:0.082092 142:0.127763 143:0.159379 144:0.159188 145:0.205881 146:0.293155 147:0.414312 148:0.530711 149:0.56454 150:0.563323 151:0.576876 152:0.592332 153:0.543897 154:0.366132 155:0.176249 156:0.010376 157:-0.149065 158:-0.24686 159:-0.363556 160:-0.30717 161:-0.248482 162:-0.23023 163:-0.194181 164:-0.0908951 165:0.0291952 166:0.00504656 167:-0.0646372 168:-0.151575 169:-0.228244 170:-0.230127 171:-0.243733 172:-0.222902 173:-0.176848 174:-0.309549 175:-0.387917 176:-0.464865 177:-0.58935 178:-0.812994 179:-0.908191 180:-0.795216 181:-0.714898 182:-0.718798 183:-0.519095 184:-0.415747 185:-0.463461 186:-0.447704 187:-0.404904 188:-0.366228 189:-0.313376 190:-0.20356 191:-0.117236 192:-0.0865623 193:-0.0746987 194:-0.0416136 195:-0.0119626 196:0.0208535 197:0.0591909 198:0.13246 199:0.0897687 200:0.0265896 201:-0.132566 202:-0.086733 203:-0.0416042 204:-0.00178505 205:0.0375139 206:0.0575605 207:0.0686657 208:0.0795762 209:0.0462469 210:0.0314107 211:0.164126 212:0.294923 213:0.392554 214:0.46766 215:0.520557 216:0.583462 217:0.631244 218:0.669252 219:0.695011 220:0.704002 221:0.680572 222:0.669871 223:0.651565 224:0.653258 225:0.672562 226:0.684055 227:0.702544 228:0.693727 229:0.631486 230:0.638704 231:0.641017 232:0.617577 233:0.600392 234:0.561204 235:0.491999 236:0.408827 237:0.21076 238:0.107814 239:0.00718598 240:0.0374431 241:0.134763 242:0.221996 243:0.171896 244:0.0588656 245:0.136917 246:0.155313 247:-0.0493398 248:-0.16937 249:-0.28119 250:-0.4501 251:-0.57406 252:-0.651581 253:-0.59142 254:-0.501815 255:-0.400288 256:-0.0611159 257:0.257823 258:0.420604 259:0.655074 260:0.848166 261:0.847453 262:0.730097 263:0.693575 264:0.64218 265:0.623526 266:0.562496 267:0.45517 268:0.374915 269:0.408986 270:0.403391 271:0.24472 272:0.189229 273:0.0990623 274:-0.19228 275:-0.380667 276:-0.458516 277:-0.533914 278:-0.520624 279:-0.564506 280:-0.589026 281:-0.53906 282:-0.543413 283:-0.582589 284:-0.622654 285:-0.657497 286:-0.718517 287:-0.755385 288:-0.6526 289:-0.581713 290:-0.509361 291:-0.427827 292:-0.343392 293:-0.235056 294:-0.137033 295:-0.0733961 296:-0.0196145 297:0.0650246 298:0.139123 299:0.198233 300:0.249143 301:0.05539 302:0.0123463 303:-0.0310296 304:-0.0696146 305:-0.101508 306:-0.12615 307:-0.146433 308:-0.160319 309:-0.165732 310:-0.168731 311:-0.173316 312:-0.176988 313:-0.20604 314:-0.256179 315:-0.29968 316:-0.323557 317:-0.317872 318:-0.297239 319:-0.26298 320:-0.216921 321:-0.154421 322:-0.0768992 323:0.00844341 324:0.10173 325:0.176529 326:0.24993 327:0.326495 328:0.394643 329:0.453063 330:0.499731 331:0.542383 332:0.580792 333:0.611252 334:0.633038 335:0.649252 336:0.664944 337:0.680368 338:0.6846 339:0.687569 340:0.691857 341:0.681339 342:0.668795 343:0.664872 344:0.663909 345:0.664602 346:0.667956 347:0.676359 348:0.680631 349:0.663438 350:0.67465 351:0.704272 352:0.661138 353:0.482539 354:0.326749 355:0.189518 356:-0.00469109 357:-0.119218 358:-0.170832 359:-0.186925 360:-0.18033 361:-0.166442 362:-0.156729 363:-0.156343 364:-0.140888 365:-0.128021 366:-0.120436 367:-0.120114 368:-0.14612 369:-0.162422 370:-0.170593 371:-0.184365 372:-0.232151 373:-0.276954 374:-0.278098 375:-0.291281 376:-0.29927 377:-0.308639 378:-0.323478 379:-0.337512 380:-0.380173 381:-0.379973 382:-0.384491 383:-0.399088 384:-0.423994 385:-0.433439 386:-0.436539 387:-0.437486 388:-0.524818 389:-0.62672 390:-0.701637 391:-0.753501 392:-0.78633 393:-0.815063 394:-0.85349 395:-0.880531 396:-0.730578 397:-0.609177 398:-0.495189 399:-0.512908 400:-0.632199 401:-0.548673 402:-0.504336 403:-0.464567 404:-0.427649 405:-0.394848 406:-0.363642 407:-0.313541 408:-0.266272 409:-0.222584 410:-0.178543 411:-0.131618 412:-0.0842544 413:-0.0342916 414:0.0183589 415:0.0803868 416:0.15271 417:0.223478 418:0.286392 419:0.355086 420:0.422887 421:0.540094 422:0.63302 423:0.724989 424:0.792069 425:0.839967 426:0.8623 427:0.861987 428:0.859707 429:0.857626 430:0.86061 431:0.863922 432:0.868544 433:0.871036 434:0.855465 435:0.850453 436:0.844508 437:0.838229 438:0.83894 439:0.844061 440:0.851314 441:0.827345 442:0.812951 443:0.809487 444:0.826339 445:0.857055 446:0.899563 447:0.910528 448:0.907004 449:0.920484 450:0.906167 451:0.893444 452:0.878499 453:0.883725 454:0.857201 455:0.804609 456:0.783979 457:0.757858 458:0.73965 459:0.741149 460:0.758523 461:0.780361 462:0.799167 463:0.809935 464:0.812577 465:0.809801 466:0.804062 467:0.794382 468:0.779567 469:0.761473 470:0.732656 471:0.700759 472:0.666949 473:0.631939 474:0.595255 475:0.555152 476:0.513933 477:0.468884 478:0.414688 479:0.357707 480:0.301132 481:0.245432 482:0.187544 483:0.129997 484:0.0718259 485:0.0122367 486:-0.0425773 487:-0.0898484 488:-0.118177 489:-0.149077 490:-0.181368 491:-0.215689 492:-0.250776 493:-0.286777 494:-0.325937 495:-0.368708 496:-0.414196 497:-0.461347 498:-0.514437 499:-0.564154 500:-0.591225 501:0.130112 502:0.127254 503:0.129284 504:0.136706 505:0.135102 506:0.127641 507:0.12988 508:0.133002 509:0.135839 510:0.144154 511:0.149688 512:0.159688 513:0.163707 514:0.166741 515:0.176798 516:0.189495 517:0.204125 518:0.216801 519:0.23252 520:0.247189 521:0.269397 522:0.296405 523:0.323209 524:0.346401 525:0.386107 526:0.415751 527:0.454756 528:0.494846 529:0.504543 530:0.540229 531:0.562232 532:0.578497 533:0.585564 534:0.597658 535:0.615139 536:0.611021 537:0.613634 538:0.622611 539:0.617982 540:0.621647 541:0.630123 542:0.627748 543:0.631899 544:0.632084 545:0.633733 546:0.61441 547:0.60353 548:0.580665 549:0.541778 550:0.493788 551:0.436795 552:0.375043 553:0.314975 554:0.266691 555:0.233823 556:0.213479 557:0.202811 558:0.199732 559:0.202919 560:0.211167 561:0.222236 562:0.231452 563:0.233186 564:0.238725 565:0.244042 566:0.244114 567:0.241263 568:0.238495 569:0.232059 570:0.227191 571:0.228311 572:0.225486 573:0.233822 574:0.227203 575:0.212216 576:0.205553 577:0.20214 578:0.202336 579:0.20162 580:0.198389 581:0.19877 582:0.194163 583:0.196143 584:0.194879 585:0.191307 586:0.190126 587:0.21218 588:0.211905 589:0.210765 590:0.19302 591:0.19375 592:0.191581 593:0.195284 594:0.191908 595:0.189496 596:0.195214 597:0.19461 598:0.193044 599:0.192565 600:0.18664 
24.51673460089058 1:-0.758036 2:-0.775066 3:-0.628302 4:-0.480836 5:-0.386702 6:-0.38932 7:-0.335315 8:-0.106204 9:0.0575258 10:-0.0135732 11:-0.1298 12:-0.117028 13:-0.0753212 14:0.00300795 15:0.247576 16:0.388622 17:0.494794 18:0.578926 19:0.532566 20:0.548271 21:0.546784 22:-0.0819806 23:-0.357379 24:-0.0793612 25:0.0479457 26:0.478272 27:0.0587153 28:-0.165082 29:-0.550085 30:-0.562172 31:-0.423024 32:-0.295689 33:-0.378894 34:-0.3908 35:-0.249381 36:-0.175669 37:-0.294903 38:-0.406506 39:-0.336575 40:-0.507871 41:-0.551587 42:-0.481393 43:-0.359533 44:-0.939073 45:-0.506411 46:-0.0439834 47:0.266845 48:0.154755 49:-0.289822 50:-0.32563 51:-0.199481 52:-0.249381 53:-0.0408417 54:-0.119034 55:-0.0148804 56:0.00491256 57:-0.027232 58:-0.0853673 59:0.264039 60:0.218696 61:0.115569 62:-0.0593143 63:0.214434 64:0.111987 65:-0.0609648 66:-0.260582 67:-0.36235 68:-0.277886 69:-0.577256 70:-0.486844 71:-0.510826 72:-0.651565 73:-0.509396 74:-0.472979 75:-0.176803 76:-0.0378248 77:-0.102263 78:-0.185052 79:-0.460815 80:-0.37955 81:-0.391905 82:-0.489902 83:-0.411377 84:-0.168498 85:-0.0716352 86:-0.130829 87:-0.129993 88:-0.0788656 89:-0.054525 90:-0.076794 91:-0.103046 92:-0.180523 93:-0.197654 94:-0.17457 95:-0.248396 96:-0.24697 97:-0.349394 98:-0.30938 99:-0.637167 100:-0.608323 101:-0.229434 102:-0.316475 103:-0.285773 104:-0.22429 105:-0.207538 106:-0.152667 107:-0.110477 108:-0.103846 109:-0.0701202 110:-0.0375472 111:-0.0295341 112:-0.0176883 113:-0.00803094 114:0.0296651 115:0.0815447 116:0.126562 117:0.138978 118:0.150633 119:0.169248 120:0.127492 121:0.102745 122:0.0828568 123:0.102554 124:0.00884676 125:-0.0144291 126:0.00297604 127:0.0122194 128:-0.00464936 129:-0.0373038 130:-0.023481 131:0.052046 132:0.12415 133:0.219425 134:0.339545 135:0.372207 136:0.389366 137:0.610908 138:0.52162 139:0.424745 140:0.4487 141:0.540265 142:0.580783 143:0.437462 144:0.285036 145:0.231702 146:0.147247 147:0.152222 148:0.151979 149:0.0609468 150:0.017191 151:0.027403 152:0.0203933 153:-0.0459345 154:-0.137516 155:-0.221578 156:-0.33123 157:-0.409408 158:-0.439265 159:-0.52395 160:-0.453346 161:-0.378178 162:-0.346811 163:-0.304445 164:-0.200656 165:-0.0748231 166:-0.0666487 167:-0.0782241 168:-0.105155 169:-0.140322 170:-0.117201 171:-0.0947486 172:-0.0374912 173:0.00707012 174:-0.0671499 175:-0.136108 176:-0.190185 177:-0.234622 178:-0.374727 179:-0.448877 180:-0.400305 181:-0.290879 182:-0.204217 183:0.0160863 184:0.163373 185:0.163232 186:0.163166 187:0.179713 188:0.18275 189:0.166639 190:0.186858 191:0.215168 192:0.258964 193:0.325069 194:0.379805 195:0.395646 196:0.40394 197:0.444498 198:0.503708 199:0.506564 200:0.484971 201:-0.0840046 202:-0.0702821 203:-0.0622196 204:-0.0729142 205:-0.083705 206:-0.101879 207:-0.122461 208:-0.191264 209:-0.314212 210:-0.389408 211:-0.218056 212:-0.044485 213:0.0979127 214:0.206433 215:0.263644 216:0.339429 217:0.417425 218:0.485868 219:0.53871 220:0.57277 221:0.552068 222:0.532919 223:0.506183 224:0.519265 225:0.562373 226:0.576184 227:0.586257 228:0.572719 229:0.51786 230:0.531071 231:0.499091 232:0.440552 233:0.403198 234:0.350376 235:0.245906 236:0.0826474 237:-0.283481 238:-0.481338 239:-0.720108 240:-0.77026 241:-0.675721 242:-0.516862 243:-0.529279 244:-0.478365 245:-0.153721 246:0.149421 247:0.270981 248:0.396093 249:0.507002 250:0.516369 251:0.52747 252:0.57879 253:0.653469 254:0.714878 255:0.760693 256:0.8274 257:0.802272 258:0.749222 259:0.782793 260:0.817155 261:0.770689 262:0.668075 263:0.689276 264:0.697156 265:0.718297 266:0.692636 267:0.60977 268:0.535976 269:0.56752 270:0.562368 271:0.408817 272:0.333046 273:0.286194 274:0.0647685 275:-0.0602798 276:-0.122292 277:-0.209007 278:-0.166857 279:-0.146222 280:-0.117878 281:-0.0861407 282:-0.0649957 283:-0.0554471 284:-0.0821612 285:-0.13201 286:-0.204001 287:-0.26915 288:-0.22357 289:-0.220454 290:-0.276762 291:-0.332706 292:-0.377066 293:-0.387026 294:-0.396369 295:-0.456423 296:-0.500181 297:-0.474611 298:-0.455245 299:-0.399206 300:-0.341461 301:0.215749 302:0.119416 303:0.0445392 304:-0.00470953 305:-0.0355728 306:-0.0549559 307:-0.05511 308:-0.0385552 309:-0.00776325 310:0.025992 311:0.0530982 312:0.0751378 313:0.0486842 314:-0.00152374 315:-0.0362656 316:-0.043904 317:-0.0193729 318:0.023375 319:0.0836971 320:0.159881 321:0.251651 322:0.340075 323:0.43528 324:0.538066 325:0.612428 326:0.674086 327:0.727282 328:0.766092 329:0.795676 330:0.815286 331:0.828192 332:0.839091 333:0.844869 334:0.846424 335:0.844276 336:0.827411 337:0.784596 338:0.691822 339:0.550048 340:0.365127 341:0.1453 342:-0.0527301 343:-0.190235 344:-0.287659 345:-0.341013 346:-0.342398 347:-0.311634 348:-0.265023 349:-0.199592 350:-0.0815525 351:0.105318 352:0.332627 353:0.53613 354:0.774551 355:1 356:1 357:1 358:1 359:1 360:1 361:1 362:1 363:1 364:1 365:1 366:1 367:0.98639 368:0.926793 369:0.876764 370:0.827777 371:0.773275 372:0.709196 373:0.647848 374:0.593969 375:0.533765 376:0.483838 377:0.427253 378:0.318283 379:0.231829 380:0.145107 381:0.091189 382:0.0399765 383:-0.0107428 384:-0.058019 385:-0.082376 386:-0.0967286 387:-0.10741 388:-0.248914 389:-0.397828 390:-0.496463 391:-0.565834 392:-0.615711 393:-0.656097 394:-0.697359 395:-0.724093 396:-0.593672 397:-0.502977 398:-0.431857 399:-0.506047 400:-0.705847 401:0.018204 402:0.0417848 403:0.0637543 404:0.0842436 405:0.102536 406:0.120344 407:0.151269 408:0.177796 409:0.199221 410:0.222703 411:0.252429 412:0.284436 413:0.320756 414:0.362123 415:0.412943 416:0.474012 417:0.531976 418:0.579056 419:0.632027 420:0.680034 421:0.749764 422:0.803633 423:0.853443 424:0.887389 425:0.899585 426:0.886505 427:0.849421 428:0.815837 429:0.786041 430:0.769413 431:0.76599 432:0.773411 433:0.784678 434:0.791078 435:0.818364 436:0.847166 437:0.875792 438:0.904785 439:0.926246 440:0.930744 441:0.879709 442:0.812887 443:0.741284 444:0.704015 445:0.694863 446:0.70995 447:0.725177 448:0.73818 449:0.771474 450:0.781719 451:0.801602 452:0.830572 453:0.891793 454:0.935898 455:0.95487 456:0.988043 457:1 458:0.999543 459:0.994103 460:0.982133 461:0.969602 462:0.95801 463:0.944104 464:0.928262 465:0.914052 466:0.904378 467:0.899426 468:0.900033 469:0.906098 470:0.906721 471:0.907168 472:0.908521 473:0.911493 474:0.914277 475:0.91406 476:0.911201 477:0.906871 478:0.891878 479:0.874213 480:0.856416 481:0.83995 482:0.826359 483:0.815552 484:0.80584 485:0.796009 486:0.787719 487:0.776946 488:0.770854 489:0.764478 490:0.755758 491:0.745468 492:0.736748 493:0.731157 494:0.723227 495:0.709445 496:0.689335 497:0.669099 498:0.609772 499:0.531673 500:0.45795 501:-0.486755 502:-0.482011 503:-0.475278 504:-0.466349 505:-0.462092 506:-0.461078 507:-0.45489 508:-0.447457 509:-0.440962 510:-0.430288 511:-0.42056 512:-0.40858 513:-0.398936 514:-0.389041 515:-0.374339 516:-0.356085 517:-0.33492 518:-0.312804 519:-0.290633 520:-0.26397 521:-0.231155 522:-0.193162 523:-0.156908 524:-0.127447 525:-0.0843904 526:-0.0516367 527:-0.0206515 528:0.0131174 529:0.0200508 530:0.0375103 531:0.0475583 532:0.0554072 533:0.0524722 534:0.0477534 535:0.0471701 536:0.026887 537:0.00151124 538:-0.0359397 539:-0.0956467 540:-0.164836 541:-0.2345 542:-0.300838 543:-0.347687 544:-0.379453 545:-0.393437 546:-0.405755 547:-0.400281 548:-0.389337 549:-0.382674 550:-0.362569 551:-0.339032 552:-0.313314 553:-0.286694 554:-0.259672 555:-0.232194 556:-0.203765 557:-0.17509 558:-0.146818 559:-0.118986 560:-0.0918848 561:-0.0674879 562:-0.0472035 563:-0.0339676 564:-0.0189071 565:-0.0053991 566:0.00132176 567:0.000792371 568:-0.00169622 569:-0.0113934 570:-0.0221537 571:-0.0311946 572:-0.0506856 573:-0.0570772 574:-0.0873471 575:-0.121168 576:-0.148728 577:-0.175582 578:-0.194288 579:-0.218086 580:-0.235873 581:-0.252832 582:-0.272714 583:-0.288219 584:-0.301627 585:-0.318352 586:-0.332641 587:-0.330072 588:-0.342098 589:-0.351883 590:-0.371442 591:-0.379056 592:-0.389164 593:-0.393021 594:-0.403192 595:-0.414717 596:-0.411949 597:-0.418752 598:-0.424897 599:-0.427095 600:-0.429499 
32 1:-0.64161 2:-0.728549 3:-0.696923 4:-0.645722 5:-0.583042 6:-0.629625 7:-0.69926 8:-0.616796 9:-0.570455 10:-0.599405 11:-0.627462 12:-0.42355 13:-0.266686 14:-0.224391 15:0.0359783 16:0.209578 17:0.345119 18:0.437907 19:0.322821 20:0.308419 21:0.322495 22:-0.20359 23:-0.452232 24:-0.213882 25:-0.0924993 26:0.280333 27:-0.0949643 28:-0.284359 29:-0.584394 30:-0.571958 31:-0.442772 32:-0.346824 33:-0.435305 34:-0.518426 35:-0.509882 36:-0.604816 37:-0.988998 38:-1 39:-0.0760894 40:-0.234222 41:-0.340109 42:-0.173458 43:0.129229 44:-0.194752 45:-0.261109 46:-0.222692 47:0.0526844 48:0.116134 49:-0.151558 50:-0.113384 51:-0.0494859 52:-0.153318 53:0.0143277 54:0.0166474 55:0.166142 56:0.173439 57:0.0860221 58:-0.0550084 59:0.213934 60:0.112837 61:0.0431769 62:-0.0320949 63:0.303381 64:0.17433 65:-0.192863 66:-0.91045 67:-0.465252 68:-0.018289 69:-0.295159 70:-0.541538 71:-0.259735 72:-0.324559 73:-0.200473 74:-0.300759 75:0.0721832 76:0.331639 77:0.415972 78:0.329643 79:0.0793755 80:0.0929598 81:0.043711 82:-0.0675276 83:0.0730753 84:0.4132 85:0.470117 86:0.38227 87:0.319708 88:0.261696 89:0.148576 90:0.101856 91:0.208686 92:0.300203 93:0.284162 94:0.12807 95:-0.107225 96:-0.145765 97:-0.251437 98:-0.210831 99:-0.48273 100:-0.502051 101:-0.418768 102:-0.488693 103:-0.479808 104:-0.457337 105:-0.440248 106:-0.376185 107:-0.35741 108:-0.359533 109:-0.352121 110:-0.365643 111:-0.37628 112:-0.353214 113:-0.346762 114:-0.323905 115:-0.282039 116:-0.251459 117:-0.222476 118:-0.188748 119:-0.160524 120:-0.173949 121:-0.173026 122:-0.164846 123:-0.0887212 124:-0.126762 125:-0.0639986 126:0.0378179 127:0.130525 128:0.196224 129:0.215084 130:0.226383 131:0.24264 132:0.24901 133:0.249817 134:0.253248 135:0.173579 136:0.0830878 137:0.102586 138:0.0538476 139:0.0950362 140:0.0867921 141:-0.0389274 142:-0.0590662 143:-0.0739305 144:-0.174231 145:-0.17015 146:-0.101964 147:-0.00888136 148:0.0615834 149:0.0810943 150:0.107132 151:0.148249 152:0.151938 153:0.0936802 154:0.00431499 155:-0.08028 156:-0.176199 157:-0.234179 158:-0.230306 159:-0.293225 160:-0.229611 161:-0.148659 162:-0.107931 163:-0.0709952 164:0.0325437 165:0.162969 166:0.11336 167:0.0750943 168:0.0284758 169:-0.0427749 170:-0.104807 171:-0.137302 172:-0.104025 173:-0.085366 174:-0.208785 175:-0.270573 176:-0.315462 177:-0.366808 178:-0.517427 179:-0.574834 180:-0.499132 181:-0.360855 182:-0.259901 183:-0.0311709 184:0.126209 185:0.163124 186:0.203405 187:0.227223 188:0.22304 189:0.213811 190:0.271228 191:0.355267 192:0.41911 193:0.44628 194:0.475122 195:0.500272 196:0.525372 197:0.557561 198:0.582545 199:0.562624 200:0.545665 201:-0.615414 202:-0.582171 203:-0.555701 204:-0.527837 205:-0.474527 206:-0.421694 207:-0.37867 208:-0.344779 209:-0.349386 210:-0.348529 211:-0.160308 212:0.0258193 213:0.167606 214:0.265943 215:0.308663 216:0.351993 217:0.394389 218:0.431475 219:0.459887 220:0.482102 221:0.432562 222:0.369724 223:0.296264 224:0.280133 225:0.317955 226:0.317051 227:0.332258 228:0.331812 229:0.249989 230:0.257514 231:0.186084 232:0.11094 233:0.0329161 234:-0.0275803 235:-0.142739 236:-0.323863 237:-0.514544 238:-0.115194 239:0.301897 240:0.235296 241:0.102121 242:0.218893 243:0.304764 244:0.269979 245:0.367661 246:0.438258 247:0.371228 248:0.385212 249:0.40925 250:0.400751 251:0.407464 252:0.429665 253:0.488194 254:0.527787 255:0.535777 256:0.57302 257:0.554432 258:0.446618 259:0.365266 260:0.375222 261:0.310623 262:0.0998641 263:0.0687275 264:-0.0341309 265:-0.0247281 266:0.0342843 267:0.550056 268:0.891844 269:0.917876 270:0.624883 271:0.539763 272:0.538143 273:0.583569 274:0.488335 275:0.416406 276:0.360592 277:0.261761 278:0.291293 279:0.263132 280:0.250313 281:0.252977 282:0.252453 283:0.242253 284:0.18718 285:0.113906 286:0.0146387 287:-0.0867462 288:-0.0657098 289:-0.0365894 290:-0.0429786 291:-0.0892271 292:-0.142193 293:-0.132623 294:-0.102612 295:-0.0955781 296:-0.098908 297:-0.0607803 298:-0.0117764 299:0.0393286 300:0.0867015 301:-0.546051 302:-0.573571 303:-0.621178 304:-0.664592 305:-0.690137 306:-0.700689 307:-0.70767 308:-0.721825 309:-0.741843 310:-0.767168 311:-0.801549 312:-0.842532 313:-0.863682 314:-0.893685 315:-0.918061 316:-0.930958 317:-0.919379 318:-0.907274 319:-0.899017 320:-0.892932 321:-0.879699 322:-0.837345 323:-0.79797 324:-0.762032 325:-0.739743 326:-0.719675 327:-0.707489 328:-0.700431 329:-0.692655 330:-0.689824 331:-0.683288 332:-0.68649 333:-0.688403 334:-0.694456 335:-0.710034 336:-0.729592 337:-0.785985 338:-0.820964 339:-0.803199 340:-0.802595 341:-0.829632 342:-0.842768 343:-0.827159 344:-0.81439 345:-0.81776 346:-0.823065 347:-0.822262 348:-0.820043 349:-0.817519 350:-0.808484 351:-0.803421 352:-0.817959 353:-0.832861 354:-0.822604 355:-0.816797 356:-0.831312 357:-0.841488 358:-0.840621 359:-0.84499 360:-0.85182 361:-0.852554 362:-0.846366 363:-0.849539 364:-0.827514 365:-0.821576 366:-0.874329 367:-0.889056 368:-0.883683 369:-0.86298 370:-0.868532 371:-0.861827 372:-0.908557 373:-0.953522 374:-0.947701 375:-0.952717 376:-0.953203 377:-0.954658 378:-0.919081 379:-0.894963 380:-0.920032 381:-0.895423 382:-0.879117 383:-0.872117 384:-0.870658 385:-0.844427 386:-0.809654 387:-0.773043 388:-0.782435 389:-0.817804 390:-0.85231 391:-0.873804 392:-0.878593 393:-0.883115 394:-0.900327 395:-0.910767 396:-0.751762 397:-0.636751 398:-0.539931 399:-0.591727 400:-0.761302 401:-0.685924 402:-0.681755 403:-0.678825 404:-0.676104 405:-0.674105 406:-0.668067 407:-0.634112 408:-0.601025 409:-0.570319 410:-0.539271 411:-0.507062 412:-0.475866 413:-0.443124 414:-0.409959 415:-0.375025 416:-0.338256 417:-0.306466 418:-0.283057 419:-0.264008 420:-0.251613 421:-0.125592 422:-0.0409462 423:0.0670535 424:0.114269 425:0.157708 426:0.156981 427:0.123903 428:0.150663 429:0.154681 430:0.167701 431:0.177898 432:0.16737 433:0.119271 434:0.0569275 435:0.0167366 436:-0.0438905 437:-0.0905822 438:-0.0912564 439:-0.0656213 440:-0.0256468 441:-0.043996 442:-0.00655291 443:0.0486478 444:0.11705 445:0.183524 446:0.251148 447:0.289192 448:0.309251 449:0.335451 450:0.342708 451:0.362473 452:0.388038 453:0.435515 454:0.466416 455:0.476596 456:0.496734 457:0.500447 458:0.491498 459:0.475415 460:0.451612 461:0.423377 462:0.38905 463:0.345998 464:0.293075 465:0.234737 466:0.185922 467:0.197197 468:0.225664 469:0.253585 470:0.256346 471:0.244529 472:0.242187 473:0.245896 474:0.255259 475:0.257472 476:0.256146 477:0.251704 478:0.2443 479:0.237445 480:0.228919 481:0.220424 482:0.212998 483:0.206654 484:0.198549 485:0.188399 486:0.180818 487:0.175047 488:0.180577 489:0.18431 490:0.185755 491:0.183526 492:0.178363 493:0.174231 494:0.16915 495:0.162943 496:0.155616 497:0.151403 498:0.13012 499:0.104366 500:0.0925894 501:0.820539 502:0.817328 503:0.822123 504:0.835392 505:0.834067 506:0.823269 507:0.826949 508:0.830585 509:0.833658 510:0.842668 511:0.845631 512:0.855961 513:0.856021 514:0.853527 515:0.860434 516:0.868226 517:0.876299 518:0.878514 519:0.887346 520:0.888521 521:0.897884 522:0.90642 523:0.911572 524:0.912376 525:0.928133 526:0.927327 527:0.939697 528:0.947762 529:0.927119 530:0.946966 531:0.946221 532:0.938065 533:0.926417 534:0.927158 535:0.936578 536:0.923621 537:0.923814 538:0.93284 539:0.923502 540:0.924782 541:0.933869 542:0.930582 543:0.936613 544:0.940786 545:0.948231 546:0.93568 547:0.937895 548:0.939695 549:0.94068 550:0.942288 551:0.943959 552:0.945548 553:0.946874 554:0.947662 555:0.948019 556:0.948027 557:0.947834 558:0.947216 559:0.946654 560:0.946395 561:0.946688 562:0.944427 563:0.933759 564:0.932874 565:0.934877 566:0.93257 567:0.928048 568:0.923135 569:0.919481 570:0.920136 571:0.926588 572:0.93331 573:0.941119 574:0.94361 575:0.928105 576:0.924077 577:0.924715 578:0.91952 579:0.924837 580:0.91836 581:0.919138 582:0.911909 583:0.917819 584:0.91274 585:0.905878 586:0.901473 587:0.92897 588:0.924158 589:0.916352 590:0.885617 591:0.88281 592:0.876764 593:0.875571 594:0.866731 595:0.862645 596:0.861675 597:0.85947 598:0.85556 599:0.849988 600:0.83414 
30.51730951106261 1:-0.490257 2:-0.641364 3:-0.666299 4:-0.6522 5:-0.610148 6:-0.638478 7:-0.707312 8:-0.613841 9:-0.589927 10:-0.663323 11:-0.750593 12:-0.556916 13:-0.383856 14:-0.291327 15:-0.0550802 16:0.0931659 17:0.197688 18:0.263533 19:0.16116 20:0.174973 21:0.212992 22:-0.267603 23:-0.485573 24:-0.250356 25:-0.119857 26:0.264851 27:-0.0693858 28:-0.282771 29:-0.608244 30:-0.631848 31:-0.526693 32:-0.440161 33:-0.516418 34:-0.778467 35:-0.648607 36:-0.253543 37:-0.367884 38:-0.430693 39:-0.192175 40:0.0269462 41:-0.0357041 42:-0.214698 43:-0.10772 44:-0.244274 45:-0.154264 46:-0.129583 47:0.0422356 48:0.0486662 49:-0.309392 50:-0.284296 51:-0.190312 52:-0.287389 53:-0.0742093 54:-0.0516689 55:0.12827 56:0.129122 57:0.0335166 58:-0.105393 59:0.182655 60:0.118185 61:0.0623703 62:-0.0814111 63:0.189378 64:0.013396 65:-0.256697 66:-0.359457 67:-0.249295 68:0.192874 69:-0.330443 70:-0.269359 71:-0.211538 72:-0.257991 73:-0.164067 74:-0.247847 75:0.0307896 76:0.258977 77:0.369204 78:0.363959 79:0.141049 80:0.118069 81:0.0457246 82:-0.046543 83:0.111228 84:0.449476 85:0.515364 86:0.469377 87:0.503136 88:0.534707 89:0.44556 90:0.366003 91:0.362255 92:0.404058 93:0.421199 94:0.321684 95:0.116725 96:0.144315 97:0.0987393 98:0.0434272 99:-0.361681 100:-0.507529 101:-0.666804 102:-0.691035 103:-0.654608 104:-0.615095 105:-0.580255 106:-0.491211 107:-0.444677 108:-0.432268 109:-0.427184 110:-0.445563 111:-0.465505 112:-0.432109 113:-0.40076 114:-0.351164 115:-0.290242 116:-0.231346 117:-0.173947 118:-0.128427 119:-0.0867345 120:-0.080098 121:-0.0488801 122:-0.0257451 123:0.0439468 124:0.017278 125:0.0815577 126:0.172088 127:0.244645 128:0.278574 129:0.272066 130:0.257565 131:0.246445 132:0.245753 133:0.268432 134:0.263827 135:0.246155 136:0.281854 137:0.326548 138:0.131846 139:-0.0487566 140:-0.0186615 141:-0.0648166 142:-0.0980707 143:-0.146656 144:-0.19397 145:-0.135722 146:-0.0640184 147:0.0255911 148:0.0975662 149:0.0980046 150:0.115067 151:0.162809 152:0.185952 153:0.157466 154:0.0788252 155:-0.00753849 156:-0.11184 157:-0.179897 158:-0.18456 159:-0.251761 160:-0.191413 161:-0.10825 162:-0.0835718 163:-0.059639 164:0.0179553 165:0.104238 166:0.0621238 167:0.0243434 168:-0.00203074 169:-0.144305 170:-0.173859 171:-0.175629 172:-0.120868 173:-0.109324 174:-0.217271 175:-0.302042 176:-0.349672 177:-0.393722 178:-0.537693 179:-0.596047 180:-0.511281 181:-0.364966 182:-0.269788 183:-0.0547714 184:0.0882782 185:0.103115 186:0.138381 187:0.192944 188:0.207965 189:0.173182 190:0.183992 191:0.23902 192:0.295563 193:0.3419 194:0.385305 195:0.408352 196:0.43123 197:0.450121 198:0.482589 199:0.473724 200:0.469364 201:-0.312913 202:-0.286661 203:-0.26105 204:-0.248064 205:-0.242054 206:-0.233548 207:-0.231255 208:-0.233425 209:-0.286347 210:-0.337427 211:-0.187675 212:-0.0615642 213:0.031618 214:0.0933843 215:0.122882 216:0.165362 217:0.213312 218:0.265762 219:0.307229 220:0.342373 221:0.283998 222:0.208166 223:0.108061 224:0.0763046 225:0.138837 226:0.158689 227:0.192039 228:0.166159 229:0.0497528 230:0.0861619 231:0.057806 232:0.0351239 233:0.026274 234:0.220782 235:0.367987 236:0.506596 237:0.305408 238:0.143866 239:0.00122191 240:0.167995 241:0.308082 242:0.407075 243:0.37674 244:0.307329 245:0.388285 246:0.429287 247:0.328967 248:0.312328 249:0.30597 250:0.265081 251:0.250336 252:0.261249 253:0.327714 254:0.375457 255:0.37425 256:0.394389 257:0.382403 258:0.274344 259:0.190852 260:0.241393 261:0.207743 262:0.0228331 263:0.0805067 264:0.13295 265:0.31081 266:0.606243 267:0.804886 268:0.895214 269:0.785128 270:0.725788 271:0.616013 272:0.64916 273:0.714142 274:0.71079 275:0.640365 276:0.567813 277:0.459379 278:0.497741 279:0.443821 280:0.40623 281:0.385231 282:0.378824 283:0.374564 284:0.345136 285:0.282523 286:0.202886 287:0.122837 288:0.128708 289:0.12848 290:0.0971492 291:0.0405221 292:-0.0191681 293:-0.0642806 294:-0.096165 295:-0.151848 296:-0.216089 297:-0.230302 298:-0.204412 299:-0.164779 300:-0.11793 301:-0.479493 302:-0.507561 303:-0.560412 304:-0.61182 305:-0.645496 306:-0.661613 307:-0.671927 308:-0.687371 309:-0.710535 310:-0.7422 311:-0.786626 312:-0.837072 313:-0.86631 314:-0.899676 315:-0.930306 316:-0.951112 317:-0.948177 318:-0.945222 319:-0.944967 320:-0.946448 321:-0.940859 322:-0.904253 323:-0.869245 324:-0.835997 325:-0.814705 326:-0.794151 327:-0.779726 328:-0.771173 329:-0.763297 330:-0.763214 331:-0.759319 332:-0.766441 333:-0.773661 334:-0.801553 335:-0.821294 336:-0.824849 337:-0.829641 338:-0.840604 339:-0.827827 340:-0.819198 341:-0.837532 342:-0.859195 343:-0.858725 344:-0.846872 345:-0.846246 346:-0.850576 347:-0.853183 348:-0.857366 349:-0.864631 350:-0.870336 351:-0.885532 352:-0.923406 353:-0.955086 354:-0.958616 355:-0.962555 356:-0.969617 357:-0.972553 358:-0.961847 359:-0.956001 360:-0.952175 361:-0.944774 362:-0.937767 363:-0.943777 364:-0.924783 365:-0.915345 366:-0.919593 367:-0.915722 368:-0.897926 369:-0.879474 370:-0.856962 371:-0.853663 372:-0.893059 373:-0.938414 374:-0.928378 375:-0.938823 376:-0.944394 377:-0.94882 378:-0.911295 379:-0.885829 380:-0.91047 381:-0.885431 382:-0.867762 383:-0.857337 384:-0.854491 385:-0.825933 386:-0.785479 387:-0.736824 388:-0.733277 389:-0.760989 390:-0.789941 391:-0.808965 392:-0.812456 393:-0.811216 394:-0.815776 395:-0.80916 396:-0.637808 397:-0.50579 398:-0.399354 399:-0.434103 400:-0.594827 401:-0.4204 402:-0.42298 403:-0.42618 404:-0.429825 405:-0.434485 406:-0.438373 407:-0.419691 408:-0.401081 409:-0.385169 410:-0.369045 411:-0.351164 412:-0.337117 413:-0.323614 414:-0.312279 415:-0.301384 416:-0.289944 417:-0.28507 418:-0.293269 419:-0.304131 420:-0.322545 421:-0.227056 422:-0.171668 423:-0.0834219 424:-0.0614524 425:-0.0373118 426:-0.0594851 427:-0.11529 428:-0.094903 429:-0.103887 430:-0.0986736 431:-0.0912681 432:-0.0999739 433:-0.146872 434:-0.169176 435:-0.142877 436:-0.119569 437:-0.0944609 438:-0.0799034 439:-0.0824571 440:-0.0629762 441:-0.0573194 442:0.00213222 443:0.0667764 444:0.133845 445:0.199948 446:0.26368 447:0.295309 448:0.306943 449:0.322769 450:0.316617 451:0.322589 452:0.334258 453:0.366181 454:0.383643 455:0.381486 456:0.385514 457:0.372958 458:0.351038 459:0.323226 460:0.289659 461:0.254652 462:0.218452 463:0.181851 464:0.149024 465:0.122908 466:0.124195 467:0.137623 468:0.162384 469:0.178117 470:0.182696 471:0.183836 472:0.194588 473:0.208819 474:0.230857 475:0.244349 476:0.252562 477:0.257781 478:0.260586 479:0.262306 480:0.262654 481:0.262366 482:0.262313 483:0.264379 484:0.267865 485:0.269534 486:0.275558 487:0.284696 488:0.303978 489:0.321534 490:0.338301 491:0.352895 492:0.367977 493:0.386047 494:0.403884 495:0.420524 496:0.436123 497:0.455461 498:0.450632 499:0.437166 500:0.433434 501:0.969835 502:0.966487 503:0.971814 504:0.986381 505:0.985319 506:0.974094 507:0.978209 508:0.982263 509:0.986051 510:0.996232 511:1 512:-0.107682 513:-0.999878 514:-0.996612 515:-0.992778 516:-0.986898 517:-0.980783 518:-0.974465 519:-0.976305 520:-0.971721 521:-0.967518 522:-0.958955 523:-0.955044 524:-0.962937 525:-0.959495 526:-0.957584 527:-0.963666 528:-0.951176 529:-0.953992 530:-0.969447 531:-0.968405 532:-0.954999 533:-0.952126 534:-0.958578 535:-0.95688 536:-0.956651 537:-0.955108 538:-0.961138 539:-0.962203 540:-0.963788 541:-0.957381 542:-0.951151 543:-0.948664 544:-0.953063 545:-0.949063 546:-0.95212 547:-0.949197 548:-0.947579 549:-0.961415 550:-0.961729 551:-0.960258 552:-0.959185 553:-0.959469 554:-0.960006 555:-0.960673 556:-0.96104 557:-0.961232 558:-0.961289 559:-0.961158 560:-0.961073 561:-0.960914 562:-0.960618 563:-0.959623 564:-0.957463 565:-0.954 566:-0.952117 567:-0.958242 568:-0.961639 569:-0.969361 570:-0.972262 571:-0.967863 572:-0.978115 573:-0.955847 574:-0.966864 575:-0.966838 576:-0.967055 577:-0.971151 578:-0.958935 579:-0.965884 580:-0.958952 581:-0.959555 582:-0.963483 583:-0.970369 584:-0.969463 585:-0.974772 586:-0.979761 587:-0.977611 588:-0.982442 589:-0.983458 590:-0.989267 591:-0.992715 592:-0.99969 593:-0.61444 594:0.758663 595:1 596:1 597:1 598:0.998181 599:0.994087 600:0.978671 
32 1:-0.530246 2:-0.725416 3:-0.772854 4:-0.750886 5:-0.638589 6:-0.587008 7:-0.592687 8:-0.496738 9:-0.458679 10:-0.522317 11:-0.576725 12:-0.410984 13:-0.296996 14:-0.251212 15:-0.0450046 16:0.0873405 17:0.195824 18:0.277904 19:0.225788 20:0.287974 21:0.357133 22:-0.184284 23:-0.430036 24:-0.175717 25:-0.0657858 26:0.289337 27:-0.0848581 28:-0.27653 29:-0.578424 30:-0.552607 31:-0.414108 32:-0.319677 33:-0.471039 34:-0.590652 35:-0.579006 36:-0.622975 37:-0.639755 38:-0.791484 39:-0.141464 40:0.111836 41:-0.30345 42:-0.293695 43:-0.00763834 44:-0.0648101 45:-0.122123 46:-0.256516 47:0.0483421 48:0.122188 49:-0.192501 50:-0.209826 51:-0.13389 52:-0.208068 53:-0.00341662 54:-0.001013 55:0.135121 56:0.148484 57:0.0854092 58:-0.0379582 59:0.266525 60:0.221381 61:0.110106 62:-0.089289 63:0.115144 64:-0.0582197 65:-0.256398 66:-0.417328 67:-0.333529 68:-0.0305672 69:-0.12174 70:-0.196033 71:-0.287532 72:-0.432279 73:-0.242891 74:-0.186102 75:0.115669 76:0.289609 77:0.335142 78:0.336848 79:0.159827 80:0.164788 81:0.0778432 82:-0.0305565 83:0.112862 84:0.467785 85:0.518226 86:0.448388 87:0.439791 88:0.466942 89:0.378292 90:0.290521 91:0.2579 92:0.257298 93:0.248761 94:0.171767 95:0.0470091 96:0.0904009 97:0.0277117 98:-0.0468531 99:-0.480807 100:-0.630783 101:-0.562629 102:-0.603912 103:-0.573648 104:-0.531526 105:-0.512682 106:-0.43523 107:-0.396084 108:-0.380048 109:-0.370869 110:-0.383324 111:-0.392152 112:-0.352451 113:-0.329117 114:-0.287787 115:-0.238246 116:-0.186306 117:-0.145552 118:-0.11447 119:-0.0858691 120:-0.10094 121:-0.110096 122:-0.120185 123:-0.0748529 124:-0.148822 125:-0.124766 126:-0.0499542 127:0.0242318 128:0.0698433 129:0.0779081 130:0.0846083 131:0.103534 132:0.106781 133:0.11692 134:0.149106 135:0.114867 136:0.0879377 137:0.233907 138:0.148776 139:0.173819 140:0.205621 141:0.0706693 142:0.00291461 143:-0.0606972 144:-0.0852369 145:-0.0709165 146:-0.0420397 147:0.0360395 148:0.0936543 149:0.078657 150:0.096157 151:0.143776 152:0.164754 153:0.117047 154:0.0260999 155:-0.0661331 156:-0.171523 157:-0.237346 158:-0.241079 159:-0.308917 160:-0.244325 161:-0.164293 162:-0.139678 163:-0.105436 164:-0.00636461 165:0.108384 166:0.0735222 167:0.0280065 168:-0.0217451 169:-0.0517295 170:-0.104993 171:-0.148639 172:-0.147577 173:-0.121598 174:-0.210538 175:-0.314074 176:-0.384238 177:-0.453469 178:-0.610722 179:-0.684388 180:-0.604605 181:-0.447406 182:-0.33663 183:-0.106657 184:0.0360229 185:0.0509839 186:0.0793518 187:0.123714 188:0.150156 189:0.155918 190:0.215724 191:0.28767 192:0.338639 193:0.3738 194:0.405191 195:0.426031 196:0.469899 197:0.532598 198:0.597757 199:0.608827 200:0.600578 201:-0.565706 202:-0.514748 203:-0.459358 204:-0.407435 205:-0.36991 206:-0.330355 207:-0.297599 208:-0.26668 209:-0.268173 210:-0.275756 211:-0.0936883 212:0.0818231 213:0.189555 214:0.261605 215:0.295475 216:0.341376 217:0.395309 218:0.448686 219:0.479703 220:0.498066 221:0.444549 222:0.386331 223:0.306764 224:0.275219 225:0.314766 226:0.321367 227:0.341351 228:0.331383 229:0.245853 230:0.264283 231:0.204619 232:0.127488 233:0.0710192 234:0.0475836 235:-0.0197012 236:-0.088172 237:-0.204771 238:0.04408 239:0.127422 240:0.212149 241:0.222674 242:0.327056 243:0.337135 244:0.309887 245:0.401104 246:0.4425 247:0.352058 248:0.346071 249:0.356121 250:0.324944 251:0.319816 252:0.340764 253:0.400666 254:0.448668 255:0.458512 256:0.502229 257:0.490008 258:0.384891 259:0.303476 260:0.326617 261:0.260992 262:0.0659892 263:0.0803345 264:0.0921591 265:0.215324 266:0.260349 267:0.530386 268:0.734411 269:0.868916 270:0.764397 271:0.598082 272:0.574194 273:0.645213 274:0.673844 275:0.621778 276:0.535546 277:0.408267 278:0.449081 279:0.410971 280:0.380896 281:0.359605 282:0.336417 283:0.314911 284:0.285255 285:0.247099 286:0.190916 287:0.126371 288:0.129387 289:0.109989 290:0.0563967 291:-0.0133266 292:-0.0791662 293:-0.12298 294:-0.158128 295:-0.227519 296:-0.301718 297:-0.317894 298:-0.296872 299:-0.265061 300:-0.231887 301:-0.241633 302:-0.313332 303:-0.398957 304:-0.475877 305:-0.525372 306:-0.552809 307:-0.569159 308:-0.588247 309:-0.611991 310:-0.640895 311:-0.679318 312:-0.725326 313:-0.761069 314:-0.80545 315:-0.847088 316:-0.877023 317:-0.881533 318:-0.883862 319:-0.884656 320:-0.885039 321:-0.876355 322:-0.838552 323:-0.801942 324:-0.765702 325:-0.743893 326:-0.723658 327:-0.710221 328:-0.70053 329:-0.689299 330:-0.681718 331:-0.671086 332:-0.670609 333:-0.675329 334:-0.684863 335:-0.702802 336:-0.723047 337:-0.745074 338:-0.772964 339:-0.74994 340:-0.745055 341:-0.772396 342:-0.794097 343:-0.788658 344:-0.771482 345:-0.772331 346:-0.780821 347:-0.779694 348:-0.777941 349:-0.776793 350:-0.769993 351:-0.764207 352:-0.775842 353:-0.788403 354:-0.774612 355:-0.765489 356:-0.78184 357:-0.792025 358:-0.788488 359:-0.786976 360:-0.78804 361:-0.786648 362:-0.78819 363:-0.801527 364:-0.789862 365:-0.784695 366:-0.793994 367:-0.796547 368:-0.789677 369:-0.753726 370:-0.738294 371:-0.74078 372:-0.796668 373:-0.836572 374:-0.816682 375:-0.815282 376:-0.812516 377:-0.810059 378:-0.773433 379:-0.744044 380:-0.758038 381:-0.728295 382:-0.703614 383:-0.685636 384:-0.671399 385:-0.633229 386:-0.583383 387:-0.527251 388:-0.548275 389:-0.602175 390:-0.644372 391:-0.670152 392:-0.677879 393:-0.676276 394:-0.677309 395:-0.659128 396:-0.486528 397:-0.348477 398:-0.231783 399:-0.237732 400:-0.367664 401:-0.566152 402:-0.58002 403:-0.592345 404:-0.602513 405:-0.611708 406:-0.619748 407:-0.600884 408:-0.581318 409:-0.563722 410:-0.545683 411:-0.525715 412:-0.50715 413:-0.489213 414:-0.473312 415:-0.455411 416:-0.437963 417:-0.42445 418:-0.416147 419:-0.413175 420:-0.415722 421:-0.287229 422:-0.206097 423:-0.0939438 424:-0.0509097 425:-0.00850159 426:-0.0119254 427:-0.0491009 428:-0.0114737 429:-0.000881868 430:0.0200486 431:0.03853 432:0.0396674 433:-0.000684434 434:-0.0466579 435:-0.0633308 436:-0.0891081 437:-0.105819 438:-0.101626 439:-0.0892024 440:-0.0661247 441:-0.0667961 442:-0.0172617 443:0.0414688 444:0.109444 445:0.175667 446:0.239555 447:0.27213 448:0.285261 449:0.303336 450:0.300448 451:0.310659 452:0.327408 453:0.363984 454:0.387066 455:0.390864 456:0.403495 457:0.401517 458:0.389558 459:0.370994 460:0.347225 461:0.317664 462:0.286298 463:0.252509 464:0.217204 465:0.186263 466:0.16044 467:0.161161 468:0.172221 469:0.194307 470:0.200823 471:0.204598 472:0.20527 473:0.214773 474:0.233444 475:0.247116 476:0.253635 477:0.256793 478:0.25786 479:0.259272 480:0.260001 481:0.258904 482:0.258655 483:0.25994 484:0.261095 485:0.263807 486:0.272552 487:0.283454 488:0.306272 489:0.326656 490:0.344007 491:0.360422 492:0.377296 493:0.396559 494:0.416527 495:0.434486 496:0.450404 497:0.470782 498:0.465925 499:0.451775 500:0.445922 501:0.396927 502:0.39736 503:0.403659 504:0.416172 505:0.417165 506:0.410432 507:0.414805 508:0.419173 509:0.422778 510:0.431654 511:0.435839 512:0.444986 513:0.445876 514:0.444435 515:0.450158 516:0.456655 517:0.463125 518:0.464853 519:0.469785 520:0.470137 521:0.47694 522:0.484286 523:0.488441 524:0.487441 525:0.501205 526:0.502387 527:0.512486 528:0.52399 529:0.510051 530:0.524711 531:0.526972 532:0.526224 533:0.519983 534:0.520881 535:0.529983 536:0.519947 537:0.517861 538:0.522699 539:0.513257 540:0.512514 541:0.518889 542:0.516968 543:0.52164 544:0.522617 545:0.527927 546:0.516814 547:0.518693 548:0.520231 549:0.518338 550:0.519888 551:0.521736 552:0.523264 553:0.524154 554:0.524752 555:0.525145 556:0.525372 557:0.525598 558:0.525704 559:0.525813 560:0.526054 561:0.5265 562:0.5253 563:0.517491 564:0.517584 565:0.520325 566:0.518744 567:0.515682 568:0.513384 569:0.509145 570:0.509253 571:0.514956 572:0.519264 573:0.530777 574:0.530242 575:0.518878 576:0.516727 577:0.517572 578:0.517223 579:0.521183 580:0.51879 581:0.519944 582:0.513868 583:0.517486 584:0.513903 585:0.507783 586:0.503629 587:0.525774 588:0.520687 589:0.513819 590:0.487618 591:0.484015 592:0.477265 593:0.475688 594:0.466909 595:0.460786 596:0.460863 597:0.456826 598:0.451165 599:0.445447 600:0.432567 
32 1:-0.557581 2:-0.640076 3:-0.660076 4:-0.706462 5:-0.692353 6:-0.746186 7:-0.828383 8:-0.673072 9:-0.558798 10:-0.528596 11:-0.601973 12:-0.45882 13:-0.349283 14:-0.295647 15:-0.0617915 16:0.10858 17:0.251336 18:0.353189 19:0.290416 20:0.331789 21:0.358189 22:-0.19607 23:-0.443991 24:-0.199921 25:-0.0875166 26:0.292861 27:-0.0620205 28:-0.235935 29:-0.565777 30:-0.56754 31:-0.463718 32:-0.377701 33:-0.473559 34:-0.560241 35:-0.52222 36:-0.557575 37:-0.59286 38:-0.813802 39:-0.546467 40:0.00146692 41:-0.281662 42:-0.375057 43:-0.121873 44:-0.0381269 45:0.0127081 46:-0.200291 47:-0.0286402 48:0.0376188 49:-0.168975 50:-0.119324 51:-0.0383505 52:-0.124066 53:0.0469268 54:0.0249894 55:0.138471 56:0.136736 57:0.0597926 58:-0.0658163 59:0.193038 60:0.063483 61:-0.0451084 62:-0.146954 63:0.135887 64:0.074383 65:-0.0409041 66:-0.296926 67:-0.531929 68:-0.152688 69:-0.344948 70:-0.199271 71:-0.321397 72:-0.457179 73:-0.120034 74:-0.0901955 75:0.250697 76:0.201351 77:0.182701 78:0.14223 79:0.0704821 80:0.164742 81:0.146719 82:0.0164475 83:0.115291 84:0.377366 85:0.379641 86:0.324529 87:0.373287 88:0.473063 89:0.473865 90:0.442749 91:0.394372 92:0.333616 93:0.246532 94:0.0857464 95:-0.0687847 96:-0.0357737 97:-0.0634429 98:-0.0984897 99:-0.46969 100:-0.54204 101:-0.435304 102:-0.488882 103:-0.463565 104:-0.423707 105:-0.442815 106:-0.403328 107:-0.400919 108:-0.424352 109:-0.441936 110:-0.468854 111:-0.48058 112:-0.44352 113:-0.414631 114:-0.380409 115:-0.33595 116:-0.291136 117:-0.244537 118:-0.204832 119:-0.172972 120:-0.168424 121:-0.151273 122:-0.132677 123:-0.0693415 124:-0.127172 125:-0.0873191 126:0.00866551 127:0.092052 128:0.138885 129:0.149828 130:0.158971 131:0.181912 132:0.185499 133:0.187546 134:0.202164 135:0.153856 136:0.11772 137:0.280445 138:0.205244 139:0.172522 140:0.269634 141:0.122158 142:0.0389803 143:-0.0404194 144:-0.0526803 145:-0.0467953 146:-0.0596337 147:-0.00118627 148:0.0561388 149:0.0614926 150:0.0901202 151:0.14976 152:0.184504 153:0.139972 154:0.0468796 155:-0.0518638 156:-0.160455 157:-0.233296 158:-0.249073 159:-0.328388 160:-0.273514 161:-0.203868 162:-0.189165 163:-0.159949 164:-0.0610398 165:0.0776163 166:0.0604652 167:-0.00849152 168:0.0479741 169:0.0213307 170:0.00591207 171:-0.0870583 172:-0.0892786 173:-0.038951 174:-0.13459 175:-0.232256 176:-0.345094 177:-0.403755 178:-0.55712 179:-0.626302 180:-0.553468 181:-0.413749 182:-0.320769 183:-0.117748 184:0.0123138 185:0.0321731 186:0.0777277 187:0.135813 188:0.16634 189:0.173017 190:0.214684 191:0.255987 192:0.304536 193:0.337193 194:0.364408 195:0.403566 196:0.453424 197:0.515475 198:0.555999 199:0.552965 200:0.541618 201:-0.492482 202:-0.454932 203:-0.402123 204:-0.34184 205:-0.295002 206:-0.251733 207:-0.221085 208:-0.204611 209:-0.22245 210:-0.23342 211:-0.0397411 212:0.133102 213:0.255955 214:0.316581 215:0.334818 216:0.36116 217:0.402044 218:0.441627 219:0.472134 220:0.484853 221:0.432134 222:0.370049 223:0.287672 224:0.262835 225:0.299383 226:0.304353 227:0.326552 228:0.318074 229:0.237141 230:0.257791 231:0.214906 232:0.157317 233:0.111307 234:0.0695811 235:-0.026574 236:-0.163288 237:-0.461828 238:-0.197234 239:-0.0182487 240:0.199277 241:0.215956 242:0.2754 243:0.247315 244:0.267795 245:0.407912 246:0.466332 247:0.378293 248:0.379015 249:0.400875 250:0.380592 251:0.380687 252:0.401724 253:0.461425 254:0.506313 255:0.511552 256:0.547906 257:0.521216 258:0.410924 259:0.312423 260:0.324534 261:0.264981 262:0.086015 263:0.103391 264:0.0737804 265:0.142365 266:0.180158 267:0.269862 268:0.619057 269:0.839279 270:0.830947 271:0.583094 272:0.484737 273:0.565996 274:0.607496 275:0.601323 276:0.496939 277:0.393686 278:0.436032 279:0.416604 280:0.389347 281:0.370696 282:0.343701 283:0.322878 284:0.282061 285:0.241614 286:0.170898 287:0.0959207 288:0.0917147 289:0.0886612 290:0.0574666 291:0.0110396 292:-0.0427371 293:-0.0831399 294:-0.11601 295:-0.144614 296:-0.175697 297:-0.152694 298:-0.118389 299:-0.0925397 300:-0.0809466 301:-0.16949 302:-0.232254 303:-0.313401 304:-0.391543 305:-0.4564 306:-0.503171 307:-0.542003 308:-0.576169 309:-0.609194 310:-0.643126 311:-0.68632 312:-0.738038 313:-0.777904 314:-0.824301 315:-0.865295 316:-0.89303 317:-0.892216 318:-0.889542 319:-0.887504 320:-0.884725 321:-0.875513 322:-0.837637 323:-0.801572 324:-0.766409 325:-0.744648 326:-0.725188 327:-0.711283 328:-0.700524 329:-0.690159 330:-0.685969 331:-0.67979 332:-0.683747 333:-0.687936 334:-0.695456 335:-0.711722 336:-0.7284 337:-0.747597 338:-0.780745 339:-0.776098 340:-0.772082 341:-0.800394 342:-0.826108 343:-0.825536 344:-0.803225 345:-0.799083 346:-0.806494 347:-0.81117 348:-0.812948 349:-0.812794 350:-0.804995 351:-0.800595 352:-0.814624 353:-0.829533 354:-0.81924 355:-0.814146 356:-0.830329 357:-0.840538 358:-0.836817 359:-0.840318 360:-0.846731 361:-0.849211 362:-0.849479 363:-0.858453 364:-0.836878 365:-0.817879 366:-0.824094 367:-0.851236 368:-0.845613 369:-0.824683 370:-0.797734 371:-0.810084 372:-0.86613 373:-0.899316 374:-0.871644 375:-0.866431 376:-0.875872 377:-0.889404 378:-0.8634 379:-0.838042 380:-0.854997 381:-0.822808 382:-0.797894 383:-0.785677 384:-0.781208 385:-0.754747 386:-0.71612 387:-0.66871 388:-0.673143 389:-0.702438 390:-0.729976 391:-0.746826 392:-0.751931 393:-0.754053 394:-0.765111 395:-0.761832 396:-0.595245 397:-0.464147 398:-0.355017 399:-0.378859 400:-0.523727 401:-0.6822 402:-0.682577 403:-0.68323 404:-0.684019 405:-0.683316 406:-0.682291 407:-0.65495 408:-0.627636 409:-0.603607 410:-0.580296 411:-0.553933 412:-0.529457 413:-0.503935 414:-0.481588 415:-0.4586 416:-0.434664 417:-0.418686 418:-0.409712 419:-0.401836 420:-0.406193 421:-0.279755 422:-0.19645 423:-0.091 424:-0.0492938 425:-0.00577341 426:-0.0141241 427:-0.0537869 428:-0.0166313 429:-0.0096252 430:0.0106233 431:0.0319211 432:0.0324134 433:-0.00353347 434:-0.0478209 435:-0.0685476 436:-0.104436 437:-0.144467 438:-0.147504 439:-0.148611 440:-0.12709 441:-0.128415 442:-0.0792366 443:-0.0262228 444:0.0449649 445:0.115307 446:0.183831 447:0.220574 448:0.238535 449:0.261202 450:0.263917 451:0.279448 452:0.300966 453:0.341916 454:0.368943 455:0.376872 456:0.391787 457:0.391388 458:0.381742 459:0.362121 460:0.33651 461:0.308096 462:0.276725 463:0.24274 464:0.205856 465:0.166145 466:0.136349 467:0.115904 468:0.121873 469:0.137437 470:0.157118 471:0.154065 472:0.150025 473:0.147098 474:0.166563 475:0.179494 476:0.185014 477:0.185105 478:0.183954 479:0.185285 480:0.183623 481:0.181926 482:0.181193 483:0.17948 484:0.178573 485:0.17819 486:0.181335 487:0.188383 488:0.208121 489:0.223479 490:0.237587 491:0.250133 492:0.261476 493:0.274514 494:0.286559 495:0.297424 496:0.308436 497:0.324791 498:0.321652 499:0.310129 500:0.307659 501:0.377867 502:0.378109 503:0.384117 504:0.396299 505:0.397465 506:0.391249 507:0.396253 508:0.401756 509:0.406551 510:0.416678 511:0.422028 512:0.43224 513:0.434025 514:0.433766 515:0.44061 516:0.448268 517:0.455953 518:0.458926 519:0.465003 520:0.466371 521:0.47383 522:0.481591 523:0.485787 524:0.484565 525:0.49799 526:0.498085 527:0.506989 528:0.517588 529:0.502124 530:0.515266 531:0.515993 532:0.513814 533:0.506561 534:0.506589 535:0.51509 536:0.505023 537:0.502691 538:0.50667 539:0.497938 540:0.495656 541:0.501878 542:0.499322 543:0.503796 544:0.503901 545:0.50868 546:0.497719 547:0.500082 548:0.501856 549:0.499815 550:0.50112 551:0.502615 552:0.503663 553:0.504096 554:0.504296 555:0.504403 556:0.504345 557:0.504484 558:0.504807 559:0.505427 560:0.506554 561:0.508293 562:0.508902 563:0.503077 564:0.505019 565:0.508723 566:0.508 567:0.506517 568:0.500967 569:0.494841 570:0.490986 571:0.496544 572:0.499017 573:0.508645 574:0.505754 575:0.492722 576:0.489934 577:0.489734 578:0.488889 579:0.492091 580:0.489218 581:0.490288 582:0.484499 583:0.488221 584:0.485399 585:0.479915 586:0.475997 587:0.498185 588:0.493524 589:0.487021 590:0.461831 591:0.458989 592:0.452858 593:0.452025 594:0.444062 595:0.438323 596:0.439043 597:0.43546 598:0.430622 599:0.425887 600:0.414175 
12.66214083701161 1:-0.516579 2:-0.714117 3:-0.831411 4:-0.754537 5:-0.62832 6:-0.741897 7:-0.839096 8:-0.662138 9:-0.563744 10:-0.636793 11:-0.796857 12:-0.597036 13:-0.494224 14:-0.522077 15:-0.294256 16:-0.219561 17:-0.228082 18:-0.259526 19:-0.518209 20:0.28422 21:0.138543 22:-0.0947797 23:-0.459858 24:-0.0928769 25:-0.0116103 26:0.339474 27:-0.0857154 28:-0.350393 29:-0.643878 30:-0.618819 31:-0.535549 32:-0.533579 33:-0.595626 34:-0.485904 35:-0.423676 36:-0.151306 37:-0.401512 38:-0.400295 39:-0.173159 40:-0.362408 41:-0.378871 42:-0.359404 43:-0.201528 44:-0.523358 45:-0.58089 46:-0.591753 47:-0.347972 48:-0.270981 49:-0.636838 50:-0.578405 51:-0.383195 52:-0.432879 53:-0.187129 54:-0.155614 55:0.0412609 56:0.0621533 57:-0.00892837 58:-0.121241 59:0.195356 60:0.201381 61:0.142069 62:0.00791162 63:0.425668 64:0.302351 65:0.0535166 66:-0.0903017 67:-0.143446 68:0.0465526 69:-0.316703 70:-0.219366 71:-0.204388 72:-0.431135 73:-0.328567 74:-0.318473 75:0.04381 76:0.236765 77:0.260539 78:0.1912 79:-0.0251505 80:0.0375847 81:0.0619057 82:0.0214088 83:0.188899 84:0.556448 85:0.666556 86:0.63475 87:0.60591 88:0.623476 89:0.563011 90:0.546807 91:0.519875 92:0.519097 93:0.524466 94:0.421239 95:0.20259 96:0.282402 97:0.338423 98:0.435755 99:0.243249 100:0.150372 101:-0.33857 102:-0.464672 103:-0.483002 104:-0.492726 105:-0.524907 106:-0.470266 107:-0.456416 108:-0.455268 109:-0.465127 110:-0.462818 111:-0.442505 112:-0.335102 113:-0.225041 114:-0.0583347 115:0.128058 116:0.260141 117:0.323793 118:0.391115 119:0.393379 120:0.401361 121:0.225472 122:0.199055 123:0.185476 124:0.158377 125:0.177262 126:0.22733 127:0.269605 128:0.267531 129:0.257908 130:0.268098 131:0.271166 132:0.298869 133:0.263577 134:0.241957 135:0.13604 136:0.097213 137:0.218337 138:0.216264 139:0.195899 140:0.238767 141:0.320694 142:0.445616 143:0.545298 144:0.560281 145:0.532331 146:0.548433 147:0.57286 148:0.599611 149:0.559402 150:0.509418 151:0.501065 152:0.487197 153:0.378935 154:0.221436 155:0.0606261 156:-0.108824 157:-0.222772 158:-0.273215 159:-0.381794 160:-0.337121 161:-0.278057 162:-0.269671 163:-0.217046 164:-0.0601648 165:0.0943464 166:0.0795152 167:0.0168839 168:-0.0656046 169:-0.144227 170:-0.135897 171:-0.123688 172:-0.0910327 173:-0.07588 174:-0.170209 175:-0.249955 176:-0.318171 177:-0.3904 178:-0.564478 179:-0.662904 180:-0.620144 181:-0.508256 182:-0.457817 183:-0.308131 184:-0.256226 185:-0.319558 186:-0.351502 187:-0.350772 188:-0.366903 189:-0.398483 190:-0.365158 191:-0.340368 192:-0.348325 193:-0.347521 194:-0.346913 195:-0.361108 196:-0.37111 197:-0.363099 198:-0.257014 199:-0.275485 200:-0.332948 201:-0.561847 202:-0.411824 203:-0.278416 204:-0.205417 205:-0.133402 206:-0.133962 207:-0.170242 208:-0.306625 209:-0.566626 210:-0.898153 211:-1 212:-1 213:-1 214:-1 215:-1 216:-0.999834 217:-0.856095 218:-0.619664 219:-0.0237131 220:0.299585 221:0.262036 222:0.353569 223:0.296978 224:0.298704 225:0.327469 226:0.303495 227:0.293144 228:0.230904 229:0.071385 230:0.0556755 231:-0.0239356 232:0.0262602 233:0.412412 234:0.618742 235:0.418041 236:0.39734 237:0.144666 238:-0.000479728 239:-0.165174 240:-0.201268 241:-0.147393 242:-0.108471 243:-0.209239 244:-0.391612 245:-0.269735 246:-0.179866 247:-0.349845 248:-0.345858 249:-0.302822 250:-0.29838 251:-0.235296 252:-0.143781 253:0.0177442 254:0.156481 255:0.238719 256:0.372333 257:0.454581 258:0.435702 259:0.455505 260:0.543816 261:0.55356 262:0.470936 263:0.525175 264:0.547468 265:0.597508 266:0.610821 267:0.583935 268:0.574017 269:0.651316 270:0.681554 271:0.586719 272:0.542638 273:0.57991 274:0.564819 275:0.560475 276:0.536672 277:0.462268 278:0.532557 279:0.535438 280:0.556868 281:0.593962 282:0.633535 283:0.676446 284:0.686061 285:0.697208 286:0.716049 287:0.751955 288:0.826925 289:0.898122 290:0.919708 291:0.92547 292:0.942549 293:0.917787 294:0.869709 295:0.833558 296:0.809315 297:0.795401 298:0.786437 299:0.789675 300:0.802767 301:-0.155982 302:-0.252623 303:-0.364122 304:-0.444569 305:-0.487451 306:-0.515309 307:-0.536189 308:-0.542139 309:-0.536161 310:-0.527709 311:-0.533731 312:-0.548139 313:-0.573359 314:-0.633613 315:-0.699103 316:-0.761694 317:-0.810538 318:-0.86182 319:-0.918433 320:-0.921123 321:-0.91925 322:-0.862091 323:-0.821441 324:-0.771707 325:-0.740116 326:-0.717978 327:-0.708593 328:-0.709261 329:-0.712506 330:-0.716628 331:-0.718668 332:-0.740079 333:-0.772222 334:-0.774011 335:-0.783012 336:-0.769446 337:-0.772809 338:-0.781324 339:-0.766885 340:-0.778792 341:-0.810718 342:-0.838666 343:-0.842768 344:-0.845932 345:-0.865258 346:-0.88698 347:-0.900069 348:-0.907208 349:-0.909342 350:-0.906293 351:-0.904532 352:-0.901195 353:-0.872024 354:-0.805497 355:-0.733972 356:-0.705625 357:-0.697091 358:-0.703832 359:-0.73613 360:-0.77659 361:-0.81492 362:-0.855105 363:-0.880718 364:-0.836705 365:-0.787999 366:-0.757097 367:-0.7388 368:-0.727803 369:-0.704088 370:-0.680777 371:-0.678523 372:-0.729749 373:-0.772798 374:-0.757503 375:-0.749955 376:-0.742743 377:-0.734798 378:-0.697183 379:-0.661365 380:-0.663907 381:-0.617642 382:-0.575653 383:-0.542734 384:-0.518731 385:-0.47023 386:-0.412046 387:-0.354002 388:-0.409364 389:-0.498435 390:-0.557732 391:-0.596506 392:-0.619869 393:-0.634727 394:-0.655913 395:-0.671648 396:-0.538 397:-0.441467 398:-0.364436 399:-0.407684 400:-0.57247 401:-0.735689 402:-0.618781 403:-0.498306 404:-0.375252 405:-0.255384 406:-0.141406 407:-0.0198851 408:0.0826363 409:0.161693 410:0.214417 411:0.239938 412:0.224309 413:0.179926 414:0.105852 415:0.0101353 416:-0.122508 417:-0.290563 418:-0.471839 419:-0.580912 420:-0.56978 421:-0.429344 422:-0.300863 423:-0.138506 424:-0.0513401 425:0.0243036 426:0.0373495 427:1.9742e-05 428:0.015167 429:-0.0227887 430:-0.0627304 431:-0.115123 432:-0.174673 433:-0.206577 434:-0.165414 435:-0.130488 436:-0.10676 437:-0.0974601 438:-0.0992757 439:-0.128193 440:-0.166116 441:-0.240712 442:-0.266012 443:-0.290158 444:-0.316491 445:-0.34914 446:-0.386137 447:-0.44307 448:-0.51102 449:-0.581726 450:-0.659809 451:-0.712076 452:-0.754656 453:-0.791183 454:-0.826388 455:-0.860886 456:-0.887442 457:-0.908641 458:-0.922922 459:-0.930971 460:-0.93478 461:-0.93597 462:-0.931855 463:-0.926593 464:-0.924828 465:-0.927293 466:-0.93003 467:-0.930934 468:-0.931611 469:-0.933341 470:-0.935666 471:-0.936745 472:-0.937188 473:-0.93219 474:-0.907478 475:-0.892856 476:-0.890804 477:-0.899203 478:-0.89891 479:-0.89336 480:-0.890679 481:-0.889748 482:-0.890167 483:-0.891665 484:-0.89494 485:-0.900692 486:-0.898691 487:-0.883139 488:-0.838812 489:-0.802669 490:-0.773883 491:-0.752753 492:-0.737479 493:-0.726798 494:-0.72221 495:-0.722335 496:-0.724428 497:-0.727459 498:-0.72987 499:-0.726346 500:-0.696555 501:0.376189 502:0.381287 503:0.391517 504:0.407457 505:0.412446 506:0.410339 507:0.420225 508:0.431315 509:0.443435 510:0.462326 511:0.477386 512:0.496929 513:0.506229 514:0.509832 515:0.517 516:0.522273 517:0.526676 518:0.525369 519:0.52645 520:0.518775 521:0.522133 522:0.525552 523:0.527121 524:0.522598 525:0.532367 526:0.528838 527:0.534411 528:0.542044 529:0.524634 530:0.536122 531:0.534972 532:0.530093 533:0.520066 534:0.516191 535:0.525153 536:0.514735 537:0.513027 538:0.516478 539:0.506136 540:0.50242 541:0.501366 542:0.488453 543:0.479945 544:0.467501 545:0.458877 546:0.433521 547:0.421237 548:0.408778 549:0.391485 550:0.378444 551:0.365636 552:0.351069 553:0.335575 554:0.320941 555:0.307683 556:0.297852 557:0.29217 558:0.291797 559:0.297285 560:0.307281 561:0.319952 562:0.333723 563:0.33818 564:0.337853 565:0.333949 566:0.326241 567:0.320053 568:0.319165 569:0.317286 570:0.317636 571:0.322663 572:0.322584 573:0.332191 574:0.326543 575:0.312162 576:0.306635 577:0.303309 578:0.301342 579:0.300657 580:0.297335 581:0.297174 582:0.291791 583:0.295509 584:0.296121 585:0.294932 586:0.297133 587:0.324503 588:0.328639 589:0.332306 590:0.317702 591:0.323191 592:0.326182 593:0.335026 594:0.337213 595:0.34185 596:0.354349 597:0.362882 598:0.371015 599:0.378015 600:0.37795 
32 1:-0.449761 2:-0.5833 3:-0.598363 4:-0.580831 5:-0.530116 6:-0.541046 7:-0.594972 8:-0.459254 9:-0.375041 10:-0.403073 11:-0.448036 12:-0.347498 13:-0.259305 14:-0.20896 15:0.0154667 16:0.167811 17:0.295846 18:0.387781 19:0.304454 20:0.299707 21:0.278611 22:-0.249892 23:-0.479622 24:-0.22685 25:-0.108452 26:0.230316 27:-0.152984 28:-0.351033 29:-0.625519 30:-0.620951 31:-0.511566 32:-0.418218 33:-0.485275 34:-0.541868 35:-0.462133 36:-0.436918 37:-0.468808 38:-0.537685 39:-0.381932 40:-0.4119 41:-0.517437 42:-0.500846 43:0.0235923 44:-0.146205 45:-0.249439 46:-0.370512 47:-0.00266481 48:0.114466 49:-0.304179 50:-0.215248 51:-0.0712548 52:-0.0888697 53:0.0892834 54:0.0914343 55:0.229324 56:0.232372 57:0.153741 58:0.00504042 59:0.298305 60:0.266569 61:0.169485 62:-0.0369888 63:0.210514 64:0.083839 65:-0.032723 66:-0.123082 67:-0.202201 68:-0.084083 69:-0.460818 70:-0.372049 71:-0.386904 72:-0.683678 73:-0.449351 74:-0.217443 75:0.262432 76:0.340472 77:0.264207 78:0.418587 79:0.253732 80:0.204061 81:0.0607771 82:0.112367 83:0.405791 84:0.867114 85:0.780665 86:0.598724 87:0.534257 88:0.527834 89:0.429546 90:0.361499 91:0.394422 92:0.44828 93:0.45105 94:0.299763 95:0.0422377 96:0.0197397 97:-0.0319299 98:0.00339881 99:-0.300112 100:-0.364007 101:-0.494833 102:-0.539976 103:-0.508377 104:-0.466185 105:-0.445783 106:-0.389754 107:-0.375424 108:-0.380398 109:-0.376196 110:-0.385029 111:-0.38501 112:-0.352917 113:-0.332372 114:-0.300904 115:-0.250199 116:-0.204396 117:-0.164589 118:-0.130668 119:-0.107736 120:-0.126339 121:-0.140587 122:-0.15309 123:-0.103742 124:-0.168506 125:-0.129329 126:-0.0439584 127:0.0298982 128:0.0720849 129:0.076943 130:0.0876152 131:0.109379 132:0.116953 133:0.12173 134:0.152817 135:0.112082 136:0.0726759 137:0.203897 138:0.132074 139:0.0510231 140:0.0544643 141:0.021491 142:0.0416554 143:0.155346 144:0.099389 145:0.0550418 146:0.056685 147:0.137926 148:0.196389 149:0.153714 150:0.150473 151:0.181159 152:0.188014 153:0.121587 154:0.0155784 155:-0.0886507 156:-0.208074 157:-0.286506 158:-0.305593 159:-0.381815 160:-0.310106 161:-0.22593 162:-0.19645 163:-0.161417 164:-0.0575579 165:0.0748772 166:0.0781389 167:0.0425924 168:-0.0211231 169:-0.0939194 170:-0.0783123 171:-0.0637322 172:-0.0854927 173:-0.0597112 174:-0.122036 175:-0.214561 176:-0.302387 177:-0.39517 178:-0.554668 179:-0.657417 180:-0.615507 181:-0.500513 182:-0.393756 183:-0.175746 184:-0.0549881 185:-0.0705924 186:-0.0538565 187:-0.0052016 188:0.0350771 189:0.0600363 190:0.144054 191:0.238795 192:0.292073 193:0.311808 194:0.310269 195:0.339832 196:0.396649 197:0.479835 198:0.546565 199:0.561788 200:0.566474 201:-0.596535 202:-0.572361 203:-0.547118 204:-0.525995 205:-0.484077 206:-0.431787 207:-0.384993 208:-0.356544 209:-0.346167 210:-0.329057 211:-0.136945 212:0.050247 213:0.189566 214:0.282306 215:0.317685 216:0.361192 217:0.408784 218:0.449197 219:0.481192 220:0.503518 221:0.455862 222:0.400986 223:0.329103 224:0.308426 225:0.346104 226:0.351012 227:0.369879 228:0.357524 229:0.272732 230:0.288815 231:0.257962 232:0.217746 233:0.188931 234:0.15931 235:0.0761603 236:-0.0547018 237:-0.342133 238:-0.382737 239:-0.424333 240:-0.301835 241:-0.0820431 242:0.142202 243:0.266163 244:0.22931 245:0.322563 246:0.36799 247:0.338194 248:0.389981 249:0.414079 250:0.422428 251:0.451121 252:0.499488 253:0.574632 254:0.635818 255:0.665846 256:0.706782 257:0.668303 258:0.578074 259:0.543266 260:0.555482 261:0.489065 262:0.305928 263:0.308569 264:0.288523 265:0.337709 266:0.283475 267:0.169456 268:0.128226 269:0.253367 270:0.338199 271:0.264225 272:0.365036 273:0.575595 274:0.808865 275:0.780657 276:0.604107 277:0.434112 278:0.62068 279:0.627359 280:0.608788 281:0.56807 282:0.563241 283:0.559893 284:0.524966 285:0.447664 286:0.349193 287:0.240892 288:0.197136 289:0.167547 290:0.119052 291:0.0577616 292:-0.012712 293:-0.0727034 294:-0.122486 295:-0.181227 296:-0.234376 297:-0.217636 298:-0.208726 299:-0.211554 300:-0.232706 301:-0.419424 302:-0.457564 303:-0.516609 304:-0.571815 305:-0.607107 306:-0.626673 307:-0.640229 308:-0.655299 309:-0.671864 310:-0.693716 311:-0.725544 312:-0.770527 313:-0.802597 314:-0.842827 315:-0.879213 316:-0.903792 317:-0.903213 318:-0.900274 319:-0.899528 320:-0.900345 321:-0.895843 322:-0.861594 323:-0.828193 324:-0.794671 325:-0.77434 326:-0.755958 327:-0.745848 328:-0.739646 329:-0.732369 330:-0.730509 331:-0.725306 332:-0.729811 333:-0.732981 334:-0.738537 335:-0.750303 336:-0.76039 337:-0.771872 338:-0.788328 339:-0.782926 340:-0.793294 341:-0.827871 342:-0.858482 343:-0.846932 344:-0.835471 345:-0.840427 346:-0.854884 347:-0.856198 348:-0.858674 349:-0.866292 350:-0.867881 351:-0.874632 352:-0.898129 353:-0.915994 354:-0.906214 355:-0.897922 356:-0.900154 357:-0.898342 358:-0.883528 359:-0.873388 360:-0.866828 361:-0.858197 362:-0.852207 363:-0.86019 364:-0.839165 365:-0.819756 366:-0.80999 367:-0.808013 368:-0.811 369:-0.803108 370:-0.792048 371:-0.804732 372:-0.895849 373:-0.959175 374:-0.943056 375:-0.930595 376:-0.936329 377:-0.9449 378:-0.899824 379:-0.865653 380:-0.882043 381:-0.851956 382:-0.815609 383:-0.782417 384:-0.752669 385:-0.707344 386:-0.653499 387:-0.594658 388:-0.606054 389:-0.650126 390:-0.685617 391:-0.704194 392:-0.703646 393:-0.695252 394:-0.692521 395:-0.680527 396:-0.513444 397:-0.380216 398:-0.260922 399:-0.260328 400:-0.375034 401:-0.810908 402:-0.80727 403:-0.806133 404:-0.807024 405:-0.808452 406:-0.808355 407:-0.779842 408:-0.751281 409:-0.724964 410:-0.699673 411:-0.673944 412:-0.650239 413:-0.626331 414:-0.603587 415:-0.582016 416:-0.560211 417:-0.542553 418:-0.534461 419:-0.528773 420:-0.528352 421:-0.389697 422:-0.298456 423:-0.173455 424:-0.124196 425:-0.073176 426:-0.0708668 427:-0.10308 428:-0.0577321 429:-0.0423592 430:-0.0155677 431:0.0106686 432:0.0203037 433:-0.00592845 434:-0.0431588 435:-0.0524038 436:-0.0791407 437:-0.111507 438:-0.139566 439:-0.177621 440:-0.201319 441:-0.236746 442:-0.200493 443:-0.136701 444:-0.065267 445:0.00323406 446:0.0638677 447:0.1034 448:0.125484 449:0.150454 450:0.158776 451:0.181676 452:0.211292 453:0.260401 454:0.297507 455:0.31748 456:0.345634 457:0.358368 458:0.36209 459:0.359855 460:0.351572 461:0.340972 462:0.327395 463:0.307751 464:0.285033 465:0.260487 466:0.2333 467:0.20514 468:0.176453 469:0.149034 470:0.120271 471:0.0961172 472:0.0867885 473:0.0937345 474:0.118236 475:0.142056 476:0.150884 477:0.154805 478:0.161534 479:0.172783 480:0.182643 481:0.190428 482:0.198226 483:0.208385 484:0.220335 485:0.229392 486:0.241924 487:0.256681 488:0.279012 489:0.29848 490:0.316458 491:0.331954 492:0.347263 493:0.36472 494:0.38049 495:0.394318 496:0.407666 497:0.426381 498:0.419888 499:0.400754 500:0.386029 501:0.446003 502:0.445631 503:0.451382 504:0.463701 505:0.463988 506:0.456663 507:0.461001 508:0.465593 509:0.469294 510:0.478289 511:0.482319 512:0.491694 513:0.492468 514:0.490947 515:0.496865 516:0.503558 517:0.510244 518:0.512136 519:0.517625 520:0.518191 521:0.525548 522:0.533277 523:0.5378 524:0.537148 525:0.551174 526:0.552143 527:0.562643 528:0.574152 529:0.55991 530:0.575816 531:0.578224 532:0.577172 533:0.571181 534:0.572786 535:0.582641 536:0.573168 537:0.571983 538:0.578279 539:0.572499 540:0.574811 541:0.582375 542:0.579254 543:0.580506 544:0.579489 545:0.582716 546:0.569567 547:0.569032 548:0.56832 549:0.564921 550:0.564999 551:0.565588 552:0.566124 553:0.566584 554:0.567007 555:0.567535 556:0.568404 557:0.569561 558:0.570929 559:0.572511 560:0.574223 561:0.576266 562:0.57658 563:0.570161 564:0.571675 565:0.575305 566:0.573589 567:0.570971 568:0.569835 569:0.567918 570:0.567433 571:0.571817 572:0.575815 573:0.584747 574:0.58151 575:0.566895 576:0.56321 577:0.563112 578:0.561292 579:0.565162 580:0.562547 581:0.564724 582:0.559162 583:0.563758 584:0.561106 585:0.556103 586:0.553125 587:0.577242 588:0.573249 589:0.567038 590:0.540944 591:0.537722 592:0.531404 593:0.53038 594:0.522331 595:0.517023 596:0.517433 597:0.513839 598:0.508631 599:0.502988 600:0.489582 
32 1:-0.526197 2:-0.776585 3:-0.837714 4:-0.799882 5:-0.7006 6:-0.689347 7:-0.70508 8:-0.525991 9:-0.435699 10:-0.471334 11:-0.539209 12:-0.412032 13:-0.309288 14:-0.279933 15:-0.0383367 16:0.128637 17:0.263049 18:0.365205 19:0.317808 20:0.371335 21:0.39487 22:-0.171314 23:-0.429327 24:-0.188713 25:-0.0707685 26:0.306499 27:-0.057204 28:-0.25307 29:-0.575388 30:-0.576279 31:-0.47061 32:-0.398708 33:-0.495486 34:-0.588751 35:-0.53888 36:-0.541363 37:-0.578086 38:-0.728662 39:-0.643337 40:-0.0881394 41:-0.0597951 42:-0.225505 43:-0.0505661 44:-0.0547285 45:0.0297415 46:-0.217045 47:-0.0866358 48:-0.0260827 49:-0.192942 50:-0.151753 51:-0.0960652 52:-0.237894 53:-0.061841 54:-0.0835852 55:0.0580462 56:0.0846173 57:0.011362 58:-0.115406 59:0.15258 60:0.0403719 61:-0.0229902 62:-0.123219 63:0.169499 64:0.0883837 65:-0.0365 66:-0.140041 67:-0.291936 68:-0.356531 69:-0.453306 70:-0.177993 71:-0.0376829 72:-0.435368 73:-0.325751 74:-0.234763 75:0.267436 76:0.3801 77:0.279714 78:0.194578 79:0.0987343 80:0.225027 81:0.18475 82:0.0304862 83:0.122475 84:0.362169 85:0.365454 86:0.29008 87:0.324867 88:0.405635 89:0.386411 90:0.373831 91:0.370309 92:0.391023 93:0.381682 94:0.264424 95:0.0248087 96:-0.000299902 97:-0.0791338 98:0.00294655 99:-0.211894 100:-0.175566 101:-0.206284 102:-0.294931 103:-0.307239 104:-0.306953 105:-0.298352 106:-0.232918 107:-0.199317 108:-0.201989 109:-0.205116 110:-0.222916 111:-0.234387 112:-0.198261 113:-0.170372 114:-0.130422 115:-0.0859382 116:-0.0503586 117:-0.0242038 118:0.00165226 119:0.0230343 120:0.00459324 121:-0.00150068 122:-0.0161425 123:0.0155257 124:-0.0602958 125:-0.0385863 126:0.0286408 127:0.0911824 128:0.119301 129:0.113464 130:0.117929 131:0.137876 132:0.142754 133:0.141554 134:0.149422 135:0.0854575 136:0.0217638 137:0.124449 138:0.0565313 139:0.00517585 140:0.0950049 141:0.0514185 142:-0.0105751 143:-0.083533 144:-0.108963 145:-0.0562341 146:-0.0347319 147:0.0337406 148:0.103063 149:0.121737 150:0.139004 151:0.183729 152:0.201493 153:0.157357 154:0.0657022 155:-0.0295665 156:-0.135635 157:-0.207297 158:-0.219549 159:-0.298571 160:-0.241746 161:-0.164713 162:-0.142927 163:-0.101793 164:0.00177775 165:0.12409 166:0.11845 167:0.0464553 168:-0.0787637 169:-0.112136 170:-0.0944746 171:-0.100937 172:-0.117076 173:-0.110203 174:-0.194685 175:-0.257854 176:-0.328295 177:-0.408758 178:-0.560024 179:-0.616043 180:-0.528169 181:-0.383635 182:-0.281941 183:-0.0620644 184:0.0812853 185:0.117115 186:0.174121 187:0.251564 188:0.304549 189:0.299797 190:0.325792 191:0.362558 192:0.398095 193:0.415764 194:0.426594 195:0.424568 196:0.430124 197:0.442903 198:0.465279 199:0.435601 200:0.39711 201:-0.546821 202:-0.563035 203:-0.56056 204:-0.547781 205:-0.524183 206:-0.500753 207:-0.489248 208:-0.486362 209:-0.50878 210:-0.526142 211:-0.322365 212:-0.107604 213:0.0624675 214:0.18935 215:0.247512 216:0.308448 217:0.368822 218:0.422814 219:0.46506 220:0.495231 221:0.452483 222:0.397971 223:0.32404 224:0.305748 225:0.345835 226:0.350025 227:0.360457 228:0.346729 229:0.261854 230:0.280831 231:0.23377 232:0.177598 233:0.134387 234:0.118767 235:0.0482461 236:-0.067855 237:-0.289398 238:-0.112914 239:0.116884 240:0.259103 241:0.29182 242:0.306197 243:0.30464 244:0.298722 245:0.431404 246:0.471956 247:0.376552 248:0.366368 249:0.375361 250:0.355909 251:0.354351 252:0.370328 253:0.425565 254:0.470703 255:0.47915 256:0.515691 257:0.486142 258:0.368784 259:0.277159 260:0.312167 261:0.27553 262:0.11092 263:0.128418 264:0.117262 265:0.209617 266:0.227744 267:0.262464 268:0.437754 269:0.783551 270:0.892572 271:0.787252 272:0.584807 273:0.617451 274:0.713463 275:0.757142 276:0.667136 277:0.501945 278:0.500987 279:0.460547 280:0.429794 281:0.390822 282:0.330306 283:0.281382 284:0.225856 285:0.188706 286:0.122132 287:0.0428823 288:0.0263516 289:0.00451862 290:-0.0349653 291:-0.058554 292:-0.099693 293:-0.130865 294:-0.156774 295:-0.184051 296:-0.203282 297:-0.152998 298:-0.108035 299:-0.0746373 300:-0.058484 301:-0.317964 302:-0.368427 303:-0.439012 304:-0.505782 305:-0.549126 306:-0.572355 307:-0.58653 308:-0.599562 309:-0.615914 310:-0.638767 311:-0.673665 312:-0.719183 313:-0.755899 314:-0.803069 315:-0.844814 316:-0.873795 317:-0.877176 318:-0.877003 319:-0.877014 320:-0.876914 321:-0.869598 322:-0.834004 323:-0.799929 324:-0.767633 325:-0.748159 326:-0.729622 327:-0.7169 328:-0.707801 329:-0.697793 330:-0.693525 331:-0.687506 332:-0.692208 333:-0.697106 334:-0.706804 335:-0.723034 336:-0.738214 337:-0.757925 338:-0.784589 339:-0.786322 340:-0.778726 341:-0.795679 342:-0.814849 343:-0.811765 344:-0.792086 345:-0.786461 346:-0.795554 347:-0.803145 348:-0.807507 349:-0.807855 350:-0.80202 351:-0.801531 352:-0.822682 353:-0.845264 354:-0.842416 355:-0.843423 356:-0.85966 357:-0.870664 358:-0.868011 359:-0.870375 360:-0.875418 361:-0.875604 362:-0.873873 363:-0.881626 364:-0.859729 365:-0.840085 366:-0.831738 367:-0.841386 368:-0.864727 369:-0.84606 370:-0.815223 371:-0.801585 372:-0.865453 373:-0.91892 374:-0.903587 375:-0.88919 376:-0.888436 377:-0.89492 378:-0.86675 379:-0.836212 380:-0.85016 381:-0.813911 382:-0.78923 383:-0.773634 384:-0.767598 385:-0.740813 386:-0.703732 387:-0.65942 388:-0.667201 389:-0.702204 390:-0.731618 391:-0.748229 392:-0.748494 393:-0.742383 394:-0.741253 395:-0.730821 396:-0.562742 397:-0.432587 398:-0.315782 399:-0.320011 400:-0.434024 401:-0.753502 402:-0.756494 403:-0.761422 404:-0.768028 405:-0.775844 406:-0.783134 407:-0.762938 408:-0.743419 409:-0.726792 410:-0.711369 411:-0.695798 412:-0.682009 413:-0.66738 414:-0.652994 415:-0.638631 416:-0.623999 417:-0.613103 418:-0.61023 419:-0.609874 420:-0.614495 421:-0.471122 422:-0.377938 423:-0.248375 424:-0.197324 425:-0.14357 426:-0.141292 427:-0.175993 428:-0.128129 429:-0.112647 430:-0.0849545 431:-0.0600809 432:-0.054534 433:-0.0889875 434:-0.130699 435:-0.141142 436:-0.168637 437:-0.195057 438:-0.198114 439:-0.196548 440:-0.165798 441:-0.161548 442:-0.104523 443:-0.0430498 444:0.0297574 445:0.102894 446:0.17255 447:0.209703 448:0.227162 449:0.248228 450:0.249923 451:0.264255 452:0.284138 453:0.322653 454:0.346987 455:0.352356 456:0.365653 457:0.362178 458:0.348704 459:0.327679 460:0.300013 461:0.27112 462:0.242127 463:0.20848 464:0.173628 465:0.139139 466:0.10971 467:0.0887891 468:0.0778732 469:0.0964014 470:0.116477 471:0.138553 472:0.141146 473:0.14827 474:0.167225 475:0.188478 476:0.200991 477:0.207708 478:0.208858 479:0.211282 480:0.212458 481:0.212627 482:0.209464 483:0.206711 484:0.203687 485:0.200551 486:0.201847 487:0.206595 488:0.220887 489:0.231795 490:0.240878 491:0.248193 492:0.255381 493:0.263912 494:0.270042 495:0.274975 496:0.280065 497:0.2916 498:0.28489 499:0.270645 500:0.266273 501:-0.403979 502:-0.402957 503:-0.399208 504:-0.39259 505:-0.391602 506:-0.394715 507:-0.392624 508:-0.389879 509:-0.388232 510:-0.382534 511:-0.378677 512:-0.373969 513:-0.373319 514:-0.373875 515:-0.370928 516:-0.366379 517:-0.36159 518:-0.358534 519:-0.35873 520:-0.357144 521:-0.352757 522:-0.345356 523:-0.341731 524:-0.346679 525:-0.338434 526:-0.336206 527:-0.334598 528:-0.32147 529:-0.328053 530:-0.329829 531:-0.327946 532:-0.320148 533:-0.320352 534:-0.322285 535:-0.314632 536:-0.314725 537:-0.31194 538:-0.312206 539:-0.316126 540:-0.318322 541:-0.312526 542:-0.310284 543:-0.306739 544:-0.309283 545:-0.305307 546:-0.311913 547:-0.309303 548:-0.307818 549:-0.316915 550:-0.316931 551:-0.315741 552:-0.314839 553:-0.314875 554:-0.31511 555:-0.315446 556:-0.315768 557:-0.315948 558:-0.315942 559:-0.315538 560:-0.314932 561:-0.314051 562:-0.313731 563:-0.316252 564:-0.314957 565:-0.312214 566:-0.312269 567:-0.315906 568:-0.315965 569:-0.32337 570:-0.327174 571:-0.324243 572:-0.327763 573:-0.310264 574:-0.317431 575:-0.323926 576:-0.325561 577:-0.327745 578:-0.321037 579:-0.3236 580:-0.321037 581:-0.321017 582:-0.326086 583:-0.328608 584:-0.329629 585:-0.335759 586:-0.34104 587:-0.331073 588:-0.337279 589:-0.342092 590:-0.357802 591:-0.362372 592:-0.370192 593:-0.372012 594:-0.380471 595:-0.390834 596:-0.387785 597:-0.394515 598:-0.400857 599:-0.403656 600:-0.407235 
