svm_type c_svc
kernel_type rbf
gamma 0.0078125
nr_class 2
total_sv 56
rho -0.605708
label 0 1
nr_sv 39 17
SV
0.125389984685109 1:-0.0488503 2:-0.134577 3:0.130084 4:0.334774 5:0.524402 6:0.71772 7:0.717744 8:0.782822 9:0.7918 10:0.691504 11:0.723261 12:0.788264 13:0.813422 14:0.851372 15:0.88525 16:0.842849 17:0.846967 18:0.864403 19:0.774898 20:0.73287 21:0.631919 22:-0.154464 23:-0.500331 24:-0.317702 25:-0.228151 26:0.0914119 27:-0.191681 28:-0.384969 29:-0.66767 30:-0.677696 31:-0.58487 32:-0.516989 33:-0.621499 34:-0.816693 35:-1 36:-1 37:-0.668432 38:-0.429764 39:0.247097 40:0.424504 41:0.513065 42:0.460098 43:0.508552 44:0.388328 45:0.305901 46:0.227582 47:0.348918 48:0.393213 49:0.219749 50:0.308725 51:0.390494 52:0.378745 53:0.476969 54:0.395824 55:0.385568 56:0.217756 57:-0.0621103 58:-0.30101 59:-0.0696216 60:-0.303268 61:-0.384751 62:-0.456368 63:-0.405318 64:-0.634738 65:-0.655591 66:-0.6494 67:-0.553283 68:-0.435261 69:-0.724371 70:-0.482403 71:0.0163804 72:0.400291 73:1 74:1 75:1 76:0.19311 77:-0.320128 78:0.294554 79:1 80:0.897725 81:0.417249 82:0.17804 83:0.377607 84:0.657178 85:0.549514 86:0.465009 87:0.469825 88:0.398025 89:0.152862 90:-0.0413416 91:-0.0768091 92:-0.0819593 93:-0.174287 94:-0.280632 95:-0.421455 96:-0.547481 97:-0.684618 98:-0.66613 99:-0.936233 100:-0.726099 101:-0.499793 102:-0.624745 103:-0.693312 104:-0.735616 105:-0.743664 106:-0.69642 107:-0.676766 108:-0.66815 109:-0.641914 110:-0.637394 111:-0.592804 112:-0.476608 113:-0.361504 114:-0.225324 115:-0.097206 116:0.0136318 117:0.146879 118:0.312853 119:0.470796 120:0.570754 121:0.664217 122:0.739186 123:0.79543 124:0.829408 125:0.860054 126:0.881695 127:0.952848 128:0.977746 129:0.987449 130:1 131:1 132:1 133:1 134:1 135:1 136:1 137:0.974338 138:0.415489 139:-0.1219 140:-0.470406 141:-0.698747 142:-0.708857 143:-0.65387 144:-0.522777 145:-0.201432 146:0.087957 147:0.35332 148:0.582234 149:0.70606 150:0.797534 151:0.87809 152:0.920364 153:0.851112 154:0.69949 155:0.532981 156:0.360976 157:0.254899 158:0.243271 159:0.145569 160:0.105472 161:0.110686 162:0.0500071 163:-3.02938e-05 164:-0.000454258 165:-0.018166 166:-0.198727 167:-0.40191 168:-0.625761 169:-0.800596 170:-0.897627 171:-0.974412 172:-1 173:-1 174:-1 175:-1 176:-1 177:-1 178:-1 179:-0.892948 180:-0.627505 181:-0.320434 182:-0.106443 183:0.157425 184:0.305029 185:0.279643 186:0.276896 187:0.308976 188:0.314899 189:0.295673 190:0.316541 191:0.356482 192:0.392909 193:0.424082 194:0.458445 195:0.438225 196:0.413042 197:0.413844 198:0.468539 199:0.454736 200:0.295954 201:-0.61079 202:-0.470398 203:-0.339896 204:-0.217276 205:-0.0455085 206:0.119703 207:0.279841 208:0.426524 209:0.476953 210:0.50478 211:0.550063 212:0.568795 213:0.546873 214:0.509301 215:0.44149 216:0.380341 217:0.355613 218:0.356755 219:0.360938 220:0.37004 221:0.296584 222:0.200365 223:0.0737794 224:0.0194509 225:0.0468888 226:0.0223694 227:0.0131795 228:-0.0500126 229:-0.259449 230:-0.314341 231:-0.491279 232:-0.64456 233:-0.795774 234:-0.879971 235:-1 236:-1 237:-1 238:-0.588822 239:-0.243238 240:0.187284 241:0.490088 242:0.685885 243:0.778889 244:0.856258 245:0.951399 246:0.986521 247:0.965913 248:0.94616 249:0.901139 250:0.831708 251:0.767207 252:0.711049 253:0.684245 254:0.671435 255:0.650346 256:0.658381 257:0.614714 258:0.525325 259:0.479231 260:0.483257 261:0.397653 262:0.171751 263:0.118782 264:0.00828034 265:-0.0440112 266:-0.267162 267:-0.583407 268:-0.748166 269:-0.638999 270:-0.546692 271:-0.760314 272:-0.631424 273:-0.392516 274:0.0194804 275:0.661534 276:1 277:1 278:0.975431 279:0.993931 280:0.906585 281:0.843898 282:0.756863 283:0.700586 284:0.619489 285:0.524312 286:0.461366 287:0.42628 288:0.439567 289:0.429425 290:0.360611 291:0.260732 292:0.154893 293:0.0966031 294:0.0548566 295:-0.0240109 296:-0.101442 297:-0.120215 298:-0.125483 299:-0.120129 300:-0.0913562 301:-0.0352036 302:-0.101925 303:-0.146541 304:-0.167592 305:-0.156529 306:-0.130049 307:-0.0973928 308:-0.0570695 309:-0.00784933 310:0.0540633 311:0.128675 312:0.219299 313:0.258498 314:0.256443 315:0.249355 316:0.249584 317:0.260623 318:0.271141 319:0.281739 320:0.288737 321:0.28984 322:0.262239 323:0.2214 324:0.176757 325:0.103637 326:0.0234908 327:-0.0597163 328:-0.147805 329:-0.235464 330:-0.32112 331:-0.391917 332:-0.4546 333:-0.504583 334:-0.54954 335:-0.603019 336:-0.635325 337:-0.645758 338:-0.645441 339:-0.617026 340:-0.605331 341:-0.614073 342:-0.619194 343:-0.597503 344:-0.566575 345:-0.542965 346:-0.520983 347:-0.49274 348:-0.457004 349:-0.413656 350:-0.336363 351:-0.22249 352:-0.109147 353:-0.0411115 354:0.0239384 355:0.0390885 356:-0.0965559 357:-0.248955 358:-0.401625 359:-0.551541 360:-0.687067 361:-0.805058 362:-0.903896 363:-0.978965 364:-1 365:-1 366:-1 367:-1 368:-1 369:-1 370:-1 371:-1 372:-1 373:-0.935537 374:-0.800504 375:-0.746659 376:-0.790236 377:-0.88506 378:-0.865811 379:-0.774274 380:-0.724018 381:-0.646617 382:-0.585019 383:-0.530474 384:-0.488105 385:-0.434958 386:-0.371856 387:-0.298188 388:-0.3453 389:-0.438337 390:-0.500832 391:-0.540476 392:-0.556698 393:-0.564284 394:-0.575489 395:-0.575439 396:-0.438235 397:-0.335306 398:-0.248104 399:-0.273028 400:-0.413283 401:-0.908515 402:-0.848523 403:-0.785215 404:-0.719549 405:-0.651303 406:-0.578708 407:-0.480432 408:-0.384256 409:-0.294089 410:-0.208989 411:-0.128985 412:-0.0578814 413:0.00413781 414:0.0558865 415:0.102007 416:0.140925 417:0.166455 418:0.178651 419:0.192853 420:0.205943 421:0.283685 422:0.339056 423:0.420122 424:0.468392 425:0.505792 426:0.505666 427:0.47126 428:0.457127 429:0.4119 430:0.353977 431:0.276611 432:0.167712 433:0.00546663 434:-0.188463 435:-0.358677 436:-0.520458 437:-0.635728 438:-0.700872 439:-0.739012 440:-0.71675 441:-0.678313 442:-0.53757 443:-0.379826 444:-0.22398 445:-0.0711957 446:0.076572 447:0.191512 448:0.28179 449:0.370742 450:0.434357 451:0.504024 452:0.573821 453:0.664735 454:0.735838 455:0.78 456:0.83303 457:0.862971 458:0.877397 459:0.880407 460:0.868631 461:0.845564 462:0.810807 463:0.760879 464:0.696739 465:0.619142 466:0.528495 467:0.424917 468:0.310025 469:0.188381 470:0.0611902 471:-0.0613676 472:-0.168547 473:-0.243138 474:-0.260631 475:-0.246379 476:-0.216699 477:-0.181974 478:-0.150396 479:-0.115085 480:-0.0881929 481:-0.0690515 482:-0.0531722 483:-0.0413739 484:-0.0326264 485:-0.0285549 486:-0.0216453 487:-0.00999988 488:0.0153748 489:0.0347328 490:0.0487593 491:0.0544711 492:0.0525525 493:0.0459886 494:0.032794 495:0.00963397 496:-0.0254786 497:-0.0700936 498:-0.139645 499:-0.221683 500:-0.291974 501:-0.728181 502:-0.715728 503:-0.701344 504:-0.684406 505:-0.670156 506:-0.657461 507:-0.640304 508:-0.621311 509:-0.602892 510:-0.579709 511:-0.556963 512:-0.533561 513:-0.512885 514:-0.493194 515:-0.471031 516:-0.448351 517:-0.427683 518:-0.412017 519:-0.403755 520:-0.397699 521:-0.393263 522:-0.390559 523:-0.397143 524:-0.418226 525:-0.43253 526:-0.45851 527:-0.492854 528:-0.519154 529:-0.566857 530:-0.618046 531:-0.660172 532:-0.689943 533:-0.725027 534:-0.763434 535:-0.78995 536:-0.815745 537:-0.83312 538:-0.84671 539:-0.845696 540:-0.832572 541:-0.806163 542:-0.779926 543:-0.758492 544:-0.746469 545:-0.730393 546:-0.726412 547:-0.718423 548:-0.714285 549:-0.726171 550:-0.72843 551:-0.731099 552:-0.736155 553:-0.744519 554:-0.755955 555:-0.770502 556:-0.78779 557:-0.80801 558:-0.830424 559:-0.853556 560:-0.87559 561:-0.895562 562:-0.910403 563:-0.915184 564:-0.910901 565:-0.896865 566:-0.875035 567:-0.852564 568:-0.820731 569:-0.79116 570:-0.752813 571:-0.703912 572:-0.663442 573:-0.596174 574:-0.566644 575:-0.541204 576:-0.519816 577:-0.505648 578:-0.487294 579:-0.486063 580:-0.481463 581:-0.484482 582:-0.494045 583:-0.502988 584:-0.508737 585:-0.519111 586:-0.528552 587:-0.525287 588:-0.535374 589:-0.543711 590:-0.561739 591:-0.571588 592:-0.584842 593:-0.592271 594:-0.606663 595:-0.623977 596:-0.625489 597:-0.638266 598:-0.650629 599:-0.658797 600:-0.66359 
0.2639775512762036 1:-0.67502 2:-0.846416 3:-0.73978 4:-0.585451 5:-0.402993 6:-0.237244 7:-0.172072 8:-0.0946376 9:-0.0665076 10:-0.219912 11:-0.364597 12:-0.349702 13:-0.351766 14:-0.42063 15:-0.284307 16:-0.219561 17:-0.329556 18:-0.547659 19:-0.90124 20:-0.917889 21:-0.836804 22:-0.882593 23:-0.921937 24:-0.811196 25:-0.710198 26:-0.418943 27:-0.429302 28:-0.499483 29:-0.661857 30:-0.542319 31:-0.0296837 32:0.818724 33:1 34:1 35:0.391548 36:-0.438787 37:-0.75814 38:-0.672684 39:0.0833064 40:0.531045 41:0.83603 42:0.801576 43:0.716543 44:0.520055 45:0.419013 46:0.473304 47:0.744908 48:0.895519 49:0.84398 50:0.740835 51:0.54763 52:0.381669 53:0.483719 54:0.560711 55:0.74708 56:0.735649 57:0.49563 58:0.0916775 59:0.25215 60:0.0867514 61:-0.0405059 62:-0.166061 63:0.0478424 64:-0.163114 65:-0.358822 66:-0.467613 67:-0.472979 68:-0.449239 69:-0.822352 70:-0.694952 71:-0.745319 72:-0.857426 73:-0.640528 74:-0.381055 75:0.510207 76:0.978938 77:1 78:0.696777 79:0.294375 80:0.12941 81:-0.027255 82:-0.213721 83:-0.147325 84:0.185472 85:0.406715 86:0.496175 87:0.5812 88:0.644648 89:0.575698 90:0.554478 91:0.608716 92:0.685695 93:0.722098 94:0.611021 95:0.379579 96:0.466538 97:0.488266 98:0.508335 99:0.286634 100:0.22268 101:0.837123 102:0.622593 103:0.574111 104:0.574002 105:0.569742 106:0.604567 107:0.618896 108:0.601836 109:0.608344 110:0.630006 111:0.674084 112:0.763099 113:0.813878 114:0.835758 115:0.839998 116:0.791171 117:0.678445 118:0.565831 119:0.463674 120:0.291649 121:0.117826 122:-0.0996137 123:-0.287526 124:-0.622575 125:-0.768751 126:-0.797415 127:-0.865675 128:-0.924259 129:-0.980444 130:-1 131:-0.883901 132:-0.751011 133:-0.674444 134:-0.612412 135:-0.595975 136:-0.591898 137:-0.443688 138:-0.407491 139:-0.404038 140:-0.271368 141:-0.149135 142:0.00264774 143:0.0693658 144:0.0703741 145:0.118437 146:0.212493 147:0.352241 148:0.510693 149:0.610189 150:0.711852 151:0.801402 152:0.854958 153:0.820292 154:0.706189 155:0.569595 156:0.406738 157:0.280973 158:0.241126 159:0.138516 160:0.13263 161:0.206265 162:0.236681 163:0.297178 164:0.434519 165:0.632935 166:0.658954 167:0.634487 168:0.588373 169:0.537529 170:0.551499 171:0.525865 172:0.42037 173:0.241374 174:-0.0200506 175:-0.230401 176:-0.425378 177:-0.571024 178:-0.785402 179:-0.884486 180:-0.768739 181:-0.571714 182:-0.498499 183:-0.370692 184:-0.354741 185:-0.428167 186:-0.454392 187:-0.448361 188:-0.465497 189:-0.528451 190:-0.535027 191:-0.526732 192:-0.532279 193:-0.533324 194:-0.543854 195:-0.569489 196:-0.564687 197:-0.51746 198:-0.369429 199:-0.391931 200:-0.446243 201:0.339499 202:0.424044 203:0.52778 204:0.588321 205:0.617811 206:0.597112 207:0.536659 208:0.440982 209:0.24251 210:0.0331685 211:-0.0135472 212:0.0137011 213:0.0428197 214:0.062623 215:0.0511973 216:0.0347626 217:0.0192268 218:0.0135393 219:0.0247206 220:0.0556622 221:-0.0418817 222:-0.190346 223:-0.394814 224:-0.499115 225:-0.45939 226:-0.49349 227:-0.505007 228:-0.595727 229:-0.831309 230:-0.74729 231:-0.710534 232:-0.482069 233:-0.0723711 234:0.312551 235:0.439221 236:0.583349 237:0.584758 238:0.559072 239:0.503775 240:0.502678 241:0.56161 242:0.612348 243:0.580815 244:0.536183 245:0.599916 246:0.635666 247:0.575417 248:0.580731 249:0.592453 250:0.577423 251:0.564362 252:0.563895 253:0.603158 254:0.639144 255:0.642507 256:0.652511 257:0.592293 258:0.470121 259:0.383647 260:0.384001 261:0.301334 262:0.0538381 263:-0.0253232 264:-0.178135 265:-0.222773 266:-0.425878 267:-0.703891 268:-0.8265 269:-0.759938 270:-0.695826 271:-0.881885 272:-0.671442 273:-0.419129 274:-0.246417 275:-0.15776 276:0.366634 277:0.510706 278:0.641589 279:0.603477 280:0.567451 281:0.578262 282:0.60869 283:0.601279 284:0.573138 285:0.553053 286:0.510061 287:0.464795 288:0.474079 289:0.487322 290:0.468191 291:0.435345 292:0.407522 293:0.375914 294:0.345586 295:0.319839 296:0.303835 297:0.323666 298:0.34654 299:0.358222 300:0.365291 301:0.365845 302:0.296884 303:0.232588 304:0.182542 305:0.151559 306:0.139365 307:0.136548 308:0.134169 309:0.132855 310:0.122899 311:0.0988109 312:0.0550411 313:-0.0513906 314:-0.191116 315:-0.32402 316:-0.438438 317:-0.532676 318:-0.640709 319:-0.722799 320:-0.790732 321:-0.833517 322:-0.829097 323:-0.808875 324:-0.777214 325:-0.751648 326:-0.720101 327:-0.692204 328:-0.673379 329:-0.661199 330:-0.654858 331:-0.62702 332:-0.567141 333:-0.461558 334:-0.369156 335:-0.347966 336:-0.386752 337:-0.442625 338:-0.481532 339:-0.469489 340:-0.443961 341:-0.418947 342:-0.386815 343:-0.341298 344:-0.302241 345:-0.273774 346:-0.240865 347:-0.19204 348:-0.123954 349:-0.0396683 350:0.0992398 351:0.300313 352:0.512237 353:0.662169 354:0.836188 355:0.985392 356:0.897296 357:0.796484 358:0.681749 359:0.556162 360:0.426519 361:0.304485 362:0.187058 363:0.0643689 364:-0.0437709 365:-0.146792 366:-0.243524 367:-0.330514 368:-0.414213 369:-0.47485 370:-0.499407 371:-0.529007 372:-0.60395 373:-0.661511 374:-0.641182 375:-0.587697 376:-0.513258 377:-0.453847 378:-0.414664 379:-0.389709 380:-0.398473 381:-0.370129 382:-0.352108 383:-0.343104 384:-0.333171 385:-0.287792 386:-0.218658 387:-0.133386 388:-0.185568 389:-0.279554 390:-0.336971 391:-0.363241 392:-0.35915 393:-0.331682 394:-0.298508 395:-0.246877 396:-0.0733951 397:0.0769187 398:0.216193 399:0.290809 400:0.254261 401:-0.161841 402:-0.0896766 403:-0.0187502 404:0.0497763 405:0.112818 406:0.170401 407:0.233053 408:0.287131 409:0.332095 410:0.371068 411:0.408318 412:0.443717 413:0.478379 414:0.512927 415:0.55166 416:0.589549 417:0.607943 418:0.594838 419:0.570469 420:0.526753 421:0.514257 422:0.480174 423:0.454601 424:0.391106 425:0.311349 426:0.182225 427:0.00129734 428:-0.120296 429:-0.269764 430:-0.394577 431:-0.495949 432:-0.58467 433:-0.675853 434:-0.725472 435:-0.703843 436:-0.677349 437:-0.640131 438:-0.589722 439:-0.551139 440:-0.497514 441:-0.458138 442:-0.34886 443:-0.236936 444:-0.131202 445:-0.0318391 446:0.0620714 447:0.126444 448:0.172452 449:0.222869 450:0.256702 451:0.303595 452:0.355044 453:0.429278 454:0.491097 455:0.53389 456:0.58749 457:0.622265 458:0.643563 459:0.656121 460:0.659412 461:0.657552 462:0.648982 463:0.627449 464:0.589714 465:0.535246 466:0.465311 467:0.380733 468:0.279797 469:0.161972 470:0.0295669 471:-0.100737 472:-0.213902 473:-0.291523 474:-0.318762 475:-0.342182 476:-0.343612 477:-0.342423 478:-0.32858 479:-0.312367 480:-0.302593 481:-0.295658 482:-0.28851 483:-0.283011 484:-0.280703 485:-0.279921 486:-0.274737 487:-0.263859 488:-0.236397 489:-0.216127 490:-0.201436 491:-0.192579 492:-0.187529 493:-0.185004 494:-0.186929 495:-0.192513 496:-0.20041 497:-0.206792 498:-0.222312 499:-0.23828 500:-0.237467 501:-0.687388 502:-0.690184 503:-0.691255 504:-0.690681 505:-0.693301 506:-0.698463 507:-0.700336 508:-0.701066 509:-0.703109 510:-0.702208 511:-0.703313 512:-0.706776 513:-0.714035 514:-0.723011 515:-0.730754 516:-0.736692 517:-0.741749 518:-0.74868 519:-0.756978 520:-0.757105 521:-0.752024 522:-0.737633 523:-0.721646 524:-0.710595 525:-0.683204 526:-0.656304 527:-0.631361 528:-0.590488 529:-0.567936 530:-0.546893 531:-0.518896 532:-0.486774 533:-0.466403 534:-0.449332 535:-0.424034 536:-0.404867 537:-0.385917 538:-0.372333 539:-0.362976 540:-0.351986 541:-0.336654 542:-0.327326 543:-0.318057 544:-0.313674 545:-0.302675 546:-0.303168 547:-0.294914 548:-0.288184 549:-0.292266 550:-0.288102 551:-0.283612 552:-0.280575 553:-0.279502 554:-0.280066 555:-0.282466 556:-0.286651 557:-0.292991 558:-0.301877 559:-0.313672 560:-0.329495 561:-0.349429 562:-0.375251 563:-0.408762 564:-0.443239 565:-0.47915 566:-0.51749 567:-0.559676 568:-0.596309 569:-0.638424 570:-0.674861 571:-0.701446 572:-0.734284 573:-0.731449 574:-0.750485 575:-0.755756 576:-0.752557 577:-0.750098 578:-0.732672 579:-0.731214 580:-0.721031 581:-0.718218 582:-0.719598 583:-0.72127 584:-0.716991 585:-0.717893 586:-0.71813 587:-0.70769 588:-0.707584 589:-0.704571 590:-0.708764 591:-0.706485 592:-0.707313 593:-0.701689 594:-0.702178 595:-0.705914 596:-0.693834 597:-0.694166 598:-0.694326 599:-0.690319 600:-0.685168 
0.1819074840456446 1:-0.296888 2:-0.652616 3:-0.722175 4:-0.650584 5:-0.412261 6:-0.198431 7:-0.175768 8:-0.150281 9:-0.195973 10:-0.287654 11:-0.411859 12:-0.402553 13:-0.393251 14:-0.410866 15:-0.275199 16:-0.27357 17:-0.341156 18:-0.478496 19:-0.755163 20:-0.862074 21:-1 22:-1 23:-0.927226 24:-0.741502 25:-0.622687 26:-0.326859 27:0.0311274 28:1 29:1 30:1 31:0.30284 32:-0.939937 33:-0.850858 34:-0.288516 35:0.213992 36:0.428776 37:0.18661 38:0.236235 39:0.643557 40:0.565723 41:0.595285 42:0.453015 43:0.40021 44:0.170122 45:0.0946645 46:0.0254304 47:0.171449 48:0.149798 49:-0.306967 50:-0.421386 51:-0.39493 52:-0.566078 53:-0.453674 54:-0.714054 55:-0.802038 56:-1 57:-0.866794 58:-1 59:-1 60:-0.677303 61:1 62:1 63:0.950115 64:0.144166 65:-0.120085 66:-0.0122721 67:0.0264623 68:0.231512 69:-0.251529 70:-0.218787 71:-0.186188 72:-0.342777 73:-0.157184 74:-0.0860448 75:0.353777 76:0.482857 77:0.460467 78:0.373484 79:0.252953 80:0.341938 81:0.326797 82:0.215011 83:0.363889 84:0.662908 85:0.602188 86:0.491419 87:0.502526 88:0.519565 89:0.373555 90:0.293336 91:0.285421 92:0.229888 93:0.17757 94:0.13008 95:0.103392 96:0.337009 97:0.313646 98:0.0610657 99:-0.440606 100:-0.196382 101:0.599835 102:0.515132 103:0.477019 104:0.454014 105:0.454547 106:0.530424 107:0.624661 108:0.712494 109:0.790916 110:0.840973 111:0.843908 112:0.86316 113:0.852989 114:0.801329 115:0.747241 116:0.644497 117:0.535342 118:0.51552 119:0.463141 120:0.249915 121:-0.00478866 122:-0.248916 123:-0.442345 124:-0.803476 125:-1 126:-0.963176 127:-0.885846 128:-0.839852 129:-0.763689 130:-0.676879 131:-0.521207 132:-0.401971 133:-0.260064 134:-0.0887843 135:-0.0136483 136:0.0690243 137:0.334522 138:0.361936 139:0.343513 140:0.39618 141:0.507442 142:0.666436 143:0.861077 144:0.96775 145:0.908901 146:0.904529 147:0.939687 148:0.975912 149:0.915488 150:0.863574 151:0.878481 152:0.947199 153:1 154:1 155:1 156:1 157:1 158:0.804737 159:0.278041 160:0.238119 161:-0.0161534 162:-0.219553 163:-0.199879 164:-0.101752 165:-0.000550124 166:-0.00434245 167:-0.0379297 168:-0.114281 169:-0.195424 170:-0.190033 171:-0.180501 172:-0.156717 173:-0.150965 174:-0.253689 175:-0.350813 176:-0.446096 177:-0.560616 178:-0.765459 179:-0.883529 180:-0.838522 181:-0.715111 182:-0.666478 183:-0.508112 184:-0.440414 185:-0.463106 186:-0.434432 187:-0.343955 188:-0.309079 189:-0.361537 190:-0.346285 191:-0.315616 192:-0.332038 193:-0.360798 194:-0.403297 195:-0.445101 196:-0.33376 197:-0.152416 198:-0.0559611 199:-0.161842 200:-0.250867 201:0.0235067 202:0.141165 203:0.284066 204:0.394735 205:0.456934 206:0.430365 207:0.372025 208:0.304955 209:0.145337 210:-0.0131257 211:-0.0420296 212:-0.0356296 213:-0.0131587 214:-0.0273303 215:-0.100178 216:-0.139565 217:-0.12977 218:-0.113957 219:-0.116995 220:-0.119359 221:-0.274966 222:-0.501366 223:-0.80108 224:-1 225:-1 226:-0.960782 227:-0.817943 228:-0.664892 229:-0.272021 230:0.294312 231:0.515525 232:0.782871 233:0.947947 234:1 235:1 236:1 237:0.990723 238:0.882097 239:0.75251 240:0.668254 241:0.649721 242:0.635934 243:0.53173 244:0.394645 245:0.39224 246:0.34562 247:0.124933 248:0.0109857 249:-0.0841901 250:-0.246494 251:-0.391457 252:-0.526688 253:-0.584971 254:-0.695298 255:-0.916992 256:-1 257:-1 258:-1 259:-0.502455 260:-0.0767317 261:0.200733 262:0.302685 263:0.493358 264:0.650248 265:0.738017 266:0.739683 267:0.699665 268:0.674245 269:0.724227 270:0.725805 271:0.603923 272:0.534585 273:0.547291 274:0.493223 275:0.442767 276:0.367373 277:0.241451 278:0.25339 279:0.210205 280:0.179007 281:0.157007 282:0.135289 283:0.116418 284:0.0771438 285:0.0290541 286:-0.0103004 287:0.0109913 288:0.179158 289:0.354739 290:0.496003 291:0.597289 292:0.703702 293:0.768127 294:0.785972 295:0.804107 296:0.839371 297:0.872507 298:0.8508 299:0.832033 300:0.845227 301:0.648983 302:0.561789 303:0.464618 304:0.380981 305:0.33376 306:0.319718 307:0.31758 308:0.315191 309:0.306731 310:0.295614 311:0.273092 312:0.230906 313:0.113018 314:-0.0369448 315:-0.178877 316:-0.306439 317:-0.427798 318:-0.545512 319:-0.650357 320:-0.726858 321:-0.782142 322:-0.790468 323:-0.775187 324:-0.7505 325:-0.743167 326:-0.743052 327:-0.734308 328:-0.670132 329:-0.498043 330:-0.326853 331:-0.285999 332:-0.372141 333:-0.449725 334:-0.451848 335:-0.413813 336:-0.363554 337:-0.310725 338:-0.264833 339:-0.207431 340:-0.158288 341:-0.122937 342:-0.0913005 343:-0.0559709 344:-0.032666 345:-0.0248784 346:-0.0287347 347:-0.0389513 348:-0.0522379 349:-0.0777962 350:-0.0874504 351:-0.092264 352:-0.142626 353:-0.262996 354:-0.386895 355:-0.536662 356:-0.715567 357:-0.800577 358:-0.845719 359:-0.941404 360:-0.958181 361:-0.860939 362:-0.744247 363:-0.706714 364:-0.704093 365:-0.710448 366:-0.703838 367:-0.679866 368:-0.657178 369:-0.631601 370:-0.613442 371:-0.61417 372:-0.657804 373:-0.682997 374:-0.643255 375:-0.611932 376:-0.585796 377:-0.569043 378:-0.542487 379:-0.513336 380:-0.512615 381:-0.463839 382:-0.41571 383:-0.370364 384:-0.327552 385:-0.263579 386:-0.182173 387:-0.0732928 388:-0.108238 389:-0.201227 390:-0.2584 391:-0.284966 392:-0.295987 393:-0.305555 394:-0.332933 395:-0.346515 396:-0.180039 397:0.00991005 398:0.166237 399:0.195685 400:0.0960875 401:-0.411908 402:-0.314123 403:-0.213845 404:-0.112862 405:-0.0168572 406:0.0711184 407:0.163388 408:0.247119 409:0.321504 410:0.391403 411:0.458038 412:0.517612 413:0.572288 414:0.620402 415:0.662518 416:0.692736 417:0.6943 418:0.661029 419:0.609715 420:0.523951 421:0.452044 422:0.343869 423:0.240294 424:0.0746811 425:-0.115874 426:-0.360261 427:-0.642781 428:-0.773067 429:-0.857963 430:-0.840146 431:-0.780399 432:-0.705254 433:-0.653603 434:-0.57521 435:-0.450192 436:-0.347638 437:-0.246703 438:-0.141906 439:-0.0502395 440:0.0461663 441:0.11689 442:0.223561 443:0.326705 444:0.426988 445:0.521044 446:0.607311 447:0.647969 448:0.658764 449:0.668465 450:0.641303 451:0.608442 452:0.564596 453:0.524902 454:0.442057 455:0.310674 456:0.159798 457:-0.0383649 458:-0.241648 459:-0.360929 460:-0.448613 461:-0.498984 462:-0.518556 463:-0.516889 464:-0.492072 465:-0.465404 466:-0.442747 467:-0.423949 468:-0.409001 469:-0.398327 470:-0.39344 471:-0.391171 472:-0.391949 473:-0.392288 474:-0.379987 475:-0.377255 476:-0.387096 477:-0.407344 478:-0.426776 479:-0.445334 480:-0.469725 481:-0.499321 482:-0.532656 483:-0.569624 484:-0.611301 485:-0.658683 486:-0.701314 487:-0.730871 488:-0.729294 489:-0.728718 490:-0.728526 491:-0.729786 492:-0.731092 493:-0.732349 494:-0.733615 495:-0.732964 496:-0.726995 497:-0.717836 498:-0.709363 499:-0.693214 500:-0.646015 501:-0.666178 502:-0.665145 503:-0.662194 504:-0.657185 505:-0.655812 506:-0.657799 507:-0.657317 508:-0.657319 509:-0.659993 510:-0.660313 511:-0.662367 512:-0.665881 513:-0.672905 514:-0.680984 515:-0.687318 516:-0.691361 517:-0.697185 518:-0.704702 519:-0.716968 520:-0.717153 521:-0.708657 522:-0.689397 523:-0.667983 524:-0.651353 525:-0.617145 526:-0.583642 527:-0.552216 528:-0.506462 529:-0.484166 530:-0.463347 531:-0.43555 532:-0.400337 533:-0.377616 534:-0.363564 535:-0.343661 536:-0.333873 537:-0.322748 538:-0.314232 539:-0.308701 540:-0.300266 541:-0.28727 542:-0.281629 543:-0.279025 544:-0.28541 545:-0.289111 546:-0.309344 547:-0.326127 548:-0.348743 549:-0.386607 550:-0.419578 551:-0.455131 552:-0.493819 553:-0.535521 554:-0.578344 555:-0.621166 556:-0.663455 557:-0.705153 558:-0.739221 559:-0.757138 560:-0.774387 561:-0.779218 562:-0.774938 563:-0.770553 564:-0.764132 565:-0.756901 566:-0.751792 567:-0.753424 568:-0.751486 569:-0.755946 570:-0.756358 571:-0.750107 572:-0.755455 573:-0.731936 574:-0.738399 575:-0.737211 576:-0.733777 577:-0.732357 578:-0.716817 579:-0.716193 580:-0.705004 581:-0.699764 582:-0.69928 583:-0.700111 584:-0.696489 585:-0.699071 586:-0.702224 587:-0.696992 588:-0.703557 589:-0.706555 590:-0.716325 591:-0.719388 592:-0.723618 593:-0.718241 594:-0.715077 595:-0.713511 596:-0.702274 597:-0.711585 598:-0.720668 599:-0.720183 600:-0.714564 
0.01319275675908859 1:-0.287777 2:-0.34756 3:-0.306368 4:-0.243805 5:-0.19391 6:-0.149984 7:-0.149058 8:-0.0587799 9:-0.0655529 10:-0.207969 11:-0.291901 12:-0.180129 13:-0.101299 14:-0.102319 15:0.0284552 16:0.0568627 17:0.0519603 18:0.0174411 19:-0.20031 20:-0.287327 21:-0.409668 22:-0.755662 23:-0.871264 24:-0.729867 25:-0.60737 26:-0.358583 27:-0.457589 28:-0.568386 29:-0.728328 30:-0.718029 31:-0.472829 32:0.0291809 33:0.167983 34:0.304849 35:0.293488 36:0.0944153 37:-0.234123 38:-0.153434 39:0.491164 40:0.756754 41:1 42:0.935537 43:0.868567 44:0.786312 45:0.739212 46:0.803782 47:0.966539 48:0.970055 49:0.699582 50:0.413012 51:0.199341 52:-0.000471792 53:0.123808 54:0.145375 55:0.298711 56:0.251969 57:0.0507084 58:-0.172324 59:0.0398001 60:-0.227642 61:-0.358726 62:-0.415418 63:-0.283568 64:-0.46035 65:-0.583565 66:-0.646535 67:-0.618196 68:-0.677261 69:-1 70:-0.917638 71:-0.837949 72:-0.795498 73:-0.410762 74:-0.157544 75:0.386221 76:0.519391 77:0.419329 78:0.289344 79:0.248804 80:0.498272 81:0.609306 82:0.54459 83:0.705553 84:1 85:0.850634 86:0.675156 87:0.682092 88:0.767799 89:0.718861 90:0.65233 91:0.550708 92:0.453704 93:0.342689 94:0.197433 95:0.0264986 96:0.0960372 97:0.131025 98:0.217103 99:-0.0310313 100:-0.121882 101:-0.0186027 102:0.00019162 103:0.0608346 104:0.118264 105:0.160575 106:0.233689 107:0.263708 108:0.29913 109:0.32138 110:0.309366 111:0.300757 112:0.337095 113:0.355863 114:0.381479 115:0.419416 116:0.419698 117:0.404422 118:0.388062 119:0.352574 120:0.241663 121:0.117015 122:-0.0394241 123:-0.153056 124:-0.394951 125:-0.493196 126:-0.482895 127:-0.486181 128:-0.52119 129:-0.631925 130:-0.711074 131:-0.643683 132:-0.636581 133:-0.701219 134:-0.73574 135:-0.793888 136:-0.801543 137:-0.749127 138:-0.724437 139:-0.668997 140:-0.449874 141:-0.258577 142:-0.0256088 143:0.149848 144:0.227039 145:0.294952 146:0.400898 147:0.552525 148:0.709961 149:0.762487 150:0.780257 151:0.799321 152:0.813237 153:0.741154 154:0.593727 155:0.435006 156:0.272323 157:0.171226 158:0.166771 159:0.101036 160:0.110779 161:0.201285 162:0.261253 163:0.353041 164:0.517601 165:0.73058 166:0.758689 167:0.724334 168:0.676551 169:0.592363 170:0.557956 171:0.40362 172:0.271759 173:0.111083 174:-0.124872 175:-0.292046 176:-0.408122 177:-0.540438 178:-0.797504 179:-0.945141 180:-0.903846 181:-0.78468 182:-0.756115 183:-0.611658 184:-0.558404 185:-0.600271 186:-0.619931 187:-0.604284 188:-0.58227 189:-0.583924 190:-0.52303 191:-0.464581 192:-0.441467 193:-0.423948 194:-0.38466 195:-0.335914 196:-0.273115 197:-0.20674 198:-0.0909735 199:-0.118904 200:-0.177457 201:0.0921002 202:0.23178 203:0.338512 204:0.391508 205:0.425151 206:0.43014 207:0.408768 208:0.377285 209:0.263736 210:0.0974869 211:0.0587729 212:0.0718136 213:0.0887491 214:0.083503 215:0.0546992 216:0.0574605 217:0.0876099 218:0.113712 219:0.129497 220:0.150963 221:0.0589419 222:-0.0762142 223:-0.28013 224:-0.40088 225:-0.381503 226:-0.421338 227:-0.423889 228:-0.491627 229:-0.721976 230:-0.616419 231:-0.582363 232:-0.418901 233:-0.165849 234:0.135712 235:0.340443 236:0.53269 237:0.616108 238:0.674619 239:0.690325 240:0.739596 241:0.806549 242:0.855452 243:0.819788 244:0.745975 245:0.728883 246:0.692884 247:0.568662 248:0.517613 249:0.500074 250:0.46009 251:0.428588 252:0.42022 253:0.458059 254:0.484521 255:0.465273 256:0.464601 257:0.415387 258:0.265137 259:0.110506 260:0.0975349 261:-0.000680052 262:-0.286133 263:-0.325886 264:-0.441215 265:-0.432941 266:-0.632184 267:-0.944454 268:-0.998913 269:-0.684854 270:-0.359872 271:-0.265745 272:-0.0245653 273:0.0734172 274:0.255113 275:0.602158 276:0.8197 277:0.87383 278:1 279:1 280:1 281:1 282:1 283:0.995404 284:0.947152 285:0.897493 286:0.839298 287:0.759801 288:0.710943 289:0.688468 290:0.646903 291:0.594608 292:0.550353 293:0.482989 294:0.401393 295:0.331906 296:0.283338 297:0.278989 298:0.283567 299:0.284382 300:0.279552 301:-0.256009 302:-0.209427 303:-0.192172 304:-0.181062 305:-0.168424 306:-0.151898 307:-0.134588 308:-0.12037 309:-0.113448 310:-0.114304 311:-0.123053 312:-0.137657 313:-0.188194 314:-0.266136 315:-0.342158 316:-0.407817 317:-0.452676 318:-0.49978 319:-0.547754 320:-0.595874 321:-0.638506 322:-0.658223 323:-0.663363 324:-0.658297 325:-0.659778 326:-0.657164 327:-0.657285 328:-0.661167 329:-0.667276 330:-0.685838 331:-0.695425 332:-0.692619 333:-0.671147 334:-0.648702 335:-0.642966 336:-0.650635 337:-0.673232 338:-0.68654 339:-0.658235 340:-0.622833 341:-0.589786 342:-0.549877 343:-0.491262 344:-0.435077 345:-0.389384 346:-0.341042 347:-0.284072 348:-0.219776 349:-0.153136 350:-0.0516891 351:0.0872243 352:0.21922 353:0.292638 354:0.380861 355:0.437886 356:0.317179 357:0.191524 358:0.0663047 359:-0.0625044 360:-0.187309 361:-0.299185 362:-0.398652 363:-0.493242 364:-0.550151 365:-0.595807 366:-0.639665 367:-0.67881 368:-0.719947 369:-0.739421 370:-0.74403 371:-0.760665 372:-0.827763 373:-0.871659 374:-0.8561 375:-0.850724 376:-0.849591 377:-0.858757 378:-0.839999 379:-0.817373 380:-0.822443 381:-0.766225 382:-0.712421 383:-0.668792 384:-0.638782 385:-0.59519 386:-0.546398 387:-0.489165 388:-0.510157 389:-0.562704 390:-0.601452 391:-0.625675 392:-0.635514 393:-0.641032 394:-0.655489 395:-0.657841 396:-0.503804 397:-0.379587 398:-0.269774 399:-0.281936 400:-0.418324 401:-0.439282 402:-0.36984 403:-0.303101 404:-0.241671 405:-0.186885 406:-0.136597 407:-0.0749171 408:-0.0195436 409:0.0287965 410:0.070956 411:0.109562 412:0.142819 413:0.172701 414:0.198737 415:0.22533 416:0.249059 417:0.260427 418:0.250317 419:0.231461 420:0.195209 421:0.221982 422:0.214422 423:0.21851 424:0.165364 425:0.0986544 426:-0.0225067 427:-0.191855 428:-0.281481 429:-0.405695 430:-0.500474 431:-0.570928 432:-0.638347 433:-0.728265 434:-0.776667 435:-0.746944 436:-0.710998 437:-0.65771 438:-0.586367 439:-0.521917 440:-0.437101 441:-0.365263 442:-0.228814 443:-0.0936731 444:0.0290963 445:0.139447 446:0.239463 447:0.302499 448:0.343058 449:0.388308 450:0.413083 451:0.447374 452:0.485494 453:0.547128 454:0.592373 455:0.613699 456:0.642925 457:0.650214 458:0.640368 459:0.617049 460:0.578811 461:0.528942 462:0.468641 463:0.395423 464:0.309586 465:0.210444 466:0.0979835 467:-0.0273537 468:-0.158535 469:-0.284361 470:-0.396244 471:-0.481739 472:-0.53739 473:-0.569831 474:-0.547896 475:-0.515412 476:-0.482867 477:-0.453538 478:-0.424049 479:-0.389051 480:-0.356296 481:-0.324876 482:-0.297127 483:-0.272951 484:-0.252009 485:-0.233721 486:-0.21119 487:-0.185865 488:-0.147017 489:-0.115801 490:-0.0897556 491:-0.0684663 492:-0.049502 493:-0.0318431 494:-0.0192405 495:-0.00875518 496:1.01371e-05 497:0.0112425 498:0.0079631 499:0.00020905 500:0.00483574 501:-0.995851 502:-0.997271 503:-0.99833 504:-0.999 505:-0.124545 506:1 507:1 508:1 509:1 510:-0.454618 511:-1 512:-0.99952 513:-0.99963 514:-1 515:-1 516:-0.997712 517:-0.995073 518:-0.993108 519:-0.999721 520:-0.99909 521:-0.99708 522:-0.988025 523:-0.979106 524:-0.978686 525:-0.963947 526:-0.948635 527:-0.939355 528:-0.909796 529:-0.893571 530:-0.88515 531:-0.861073 532:-0.824818 533:-0.796656 534:-0.774797 535:-0.744089 536:-0.718868 537:-0.695784 538:-0.682016 539:-0.670167 540:-0.659469 541:-0.644868 542:-0.634953 543:-0.628402 544:-0.628316 545:-0.621491 546:-0.625097 547:-0.622687 548:-0.622733 549:-0.636348 550:-0.639209 551:-0.641306 552:-0.645022 553:-0.65099 554:-0.658704 555:-0.668384 556:-0.68003 557:-0.694108 558:-0.711055 559:-0.730576 560:-0.751754 561:-0.774606 562:-0.799037 563:-0.824662 564:-0.849254 565:-0.87269 566:-0.896397 567:-0.925987 568:-0.951339 569:-0.98445 570:-0.521683 571:0.997055 572:0.98929 573:0.989579 574:0.993385 575:0.981723 576:0.982095 577:0.987477 578:0.987467 579:1 580:1 581:-0.371079 582:-0.99626 583:-0.99586 584:-0.987427 585:-0.98512 586:-0.982188 587:-0.971731 588:-0.968349 589:-0.962061 590:-0.961593 591:-0.958887 592:-0.959813 593:-0.954324 594:-0.955381 595:-0.961861 596:-0.951042 597:-0.954577 598:-0.957287 599:-0.954153 600:-0.947435 
0.1035062774455019 1:-0.146041 2:-0.172108 3:0.0513609 4:0.203422 5:0.128611 6:-0.0851621 7:-0.283555 8:-0.260894 9:-0.273368 10:-0.393349 11:-0.511301 12:-0.447082 13:-0.460037 14:-0.603617 15:-0.475531 16:-0.341738 17:-0.285151 18:-0.352449 19:-0.653116 20:-0.704349 21:-0.664119 22:-0.815912 23:-0.891006 24:-0.768837 25:-0.650017 26:-0.485068 27:-0.603459 28:-0.730292 29:-0.78483 30:-0.732081 31:-0.622076 32:-0.517522 33:-0.280077 34:0.122806 35:0.630062 36:0.857863 37:0.20618 38:-0.162793 39:-0.0152261 40:0.191514 41:0.529163 42:0.663832 43:0.785653 44:0.84963 45:0.806927 46:0.748942 47:0.845917 48:0.908642 49:0.832775 50:0.71982 51:0.515126 52:0.320861 53:0.341991 54:0.23088 55:0.247708 56:0.162677 57:0.0232953 58:-0.148247 59:0.102865 60:-0.061438 61:-0.152984 62:-0.262668 63:-0.113346 64:-0.290586 65:-0.426832 66:-0.548627 67:-0.587214 68:-0.6126 69:-0.889727 70:-1 71:-1 72:-0.851644 73:-0.515836 74:-0.274594 75:0.3378 76:0.644646 77:0.748178 78:0.634373 79:0.323619 80:0.10063 81:-0.142678 82:-0.226106 83:0.0157797 84:0.438567 85:0.530411 86:0.42174 87:0.330668 88:0.270733 89:0.1819 90:0.180477 91:0.30736 92:0.458946 93:0.54524 94:0.449854 95:0.207701 96:0.201509 97:0.122497 98:0.109709 99:-0.185338 100:-0.212268 101:0.734601 102:0.651525 103:0.738288 104:0.801222 105:0.754274 106:0.692285 107:0.662484 108:0.653681 109:0.65522 110:0.646303 111:0.628209 112:0.640765 113:0.617552 114:0.598367 115:0.606622 116:0.606261 117:0.571878 118:0.521863 119:0.454188 120:0.32981 121:0.213735 122:0.0732227 123:-0.027052 124:-0.239749 125:-0.333559 126:-0.347674 127:-0.352621 128:-0.376995 129:-0.443902 130:-0.535512 131:-0.622207 132:-0.738318 133:-0.788971 134:-0.761084 135:-0.853245 136:-0.968516 137:-1 138:-0.966247 139:-0.946551 140:-0.773647 141:-0.65255 142:-0.449186 143:-0.275647 144:-0.140344 145:0.0383703 146:0.195451 147:0.35822 148:0.52085 149:0.611384 150:0.694278 151:0.770062 152:0.80461 153:0.750272 154:0.618913 155:0.467411 156:0.299439 157:0.19285 158:0.177975 159:0.0984512 160:0.10757 161:0.186847 162:0.220671 163:0.273633 164:0.403771 165:0.59678 166:0.632646 167:0.644409 168:0.644471 169:0.527271 170:0.525144 171:0.479014 172:0.33804 173:0.180167 174:-0.0210472 175:-0.247404 176:-0.408727 177:-0.499757 178:-0.676618 179:-0.782939 180:-0.738695 181:-0.624136 182:-0.592599 183:-0.452048 184:-0.396673 185:-0.434766 186:-0.441984 187:-0.426814 188:-0.419252 189:-0.435428 190:-0.389451 191:-0.341223 192:-0.328464 193:-0.328117 194:-0.349094 195:-0.377232 196:-0.373196 197:-0.324571 198:-0.172144 199:-0.146725 200:-0.152601 201:0.475915 202:0.546966 203:0.608087 204:0.661122 205:0.739189 206:0.786738 207:0.715622 208:0.519891 209:0.232883 210:-0.0330769 211:-0.102705 212:-0.0965232 213:-0.0732135 214:-0.0505771 215:-0.048585 216:-0.0132837 217:0.0396351 218:0.0906658 219:0.136131 220:0.191125 221:0.135217 222:0.0394147 223:-0.104619 224:-0.177894 225:-0.150088 226:-0.180822 227:-0.199611 228:-0.284117 229:-0.529458 230:-0.555919 231:-0.674329 232:-0.707903 233:-0.704376 234:-0.404127 235:-0.115881 236:0.10378 237:0.173239 238:0.393914 239:0.478397 240:0.596895 241:0.711595 242:0.794554 243:0.792282 244:0.782998 245:0.809916 246:0.790845 247:0.68607 248:0.623439 249:0.576829 250:0.514599 251:0.465997 252:0.437355 253:0.455958 254:0.466278 255:0.441875 256:0.459838 257:0.439355 258:0.308636 259:0.184357 260:0.192816 261:0.121846 262:-0.119326 263:-0.151864 264:-0.258794 265:-0.267348 266:-0.469 267:-0.783689 268:-0.912308 269:-0.684632 270:-0.469195 271:-0.397297 272:-0.0982683 273:0.0651319 274:-0.00467603 275:0.373512 276:0.477143 277:0.492353 278:0.642862 279:0.680698 280:0.694605 281:0.711189 282:0.705576 283:0.688487 284:0.643406 285:0.598619 286:0.540517 287:0.474307 288:0.462595 289:0.462174 290:0.43506 291:0.39237 292:0.356875 293:0.320432 294:0.289746 295:0.254757 296:0.231585 297:0.258607 298:0.303243 299:0.348197 300:0.380631 301:0.293099 302:0.314008 303:0.339102 304:0.362086 305:0.363631 306:0.339206 307:0.307932 308:0.279407 309:0.252799 310:0.225619 311:0.192595 312:0.150228 313:0.0441871 314:-0.0999486 315:-0.235786 316:-0.346059 317:-0.430008 318:-0.507642 319:-0.579356 320:-0.646699 321:-0.696597 322:-0.708513 323:-0.709175 324:-0.699683 325:-0.693941 326:-0.683572 327:-0.676862 328:-0.673372 329:-0.666862 330:-0.664162 331:-0.659935 332:-0.67115 333:-0.665182 334:-0.634349 335:-0.592127 336:-0.552434 337:-0.535966 338:-0.550544 339:-0.555093 340:-0.552589 341:-0.546969 342:-0.525641 343:-0.475642 344:-0.417721 345:-0.368565 346:-0.32211 347:-0.26845 348:-0.202529 349:-0.124926 350:-0.000410697 351:0.173904 352:0.348303 353:0.454854 354:0.564557 355:0.630484 356:0.49558 357:0.363138 358:0.235381 359:0.110489 360:-0.00713448 361:-0.110391 362:-0.203206 363:-0.295464 364:-0.355917 365:-0.407656 366:-0.460848 367:-0.515658 368:-0.571729 369:-0.597404 370:-0.628361 371:-0.664026 372:-0.738812 373:-0.789986 374:-0.765909 375:-0.748987 376:-0.728498 377:-0.704644 378:-0.661254 379:-0.630939 380:-0.652392 381:-0.641369 382:-0.635197 383:-0.626773 384:-0.617518 385:-0.582959 386:-0.540599 387:-0.500151 388:-0.548275 389:-0.624135 390:-0.678865 391:-0.710962 392:-0.720809 393:-0.720702 394:-0.727504 395:-0.729589 396:-0.581271 397:-0.474535 398:-0.388898 399:-0.439415 400:-0.609074 401:-0.154183 402:-0.0829405 403:-0.0174861 404:0.0456438 405:0.106984 406:0.166808 407:0.231356 408:0.280298 409:0.315322 410:0.343701 411:0.369557 412:0.391149 413:0.410514 414:0.426724 415:0.445845 416:0.468231 417:0.478589 418:0.469725 419:0.459209 420:0.436596 421:0.459133 422:0.464957 423:0.481629 424:0.462442 425:0.42788 426:0.350219 427:0.22756 428:0.147908 429:0.040806 430:-0.0580021 431:-0.154168 432:-0.265111 433:-0.417061 434:-0.53375 435:-0.568141 436:-0.590767 437:-0.591987 438:-0.56132 439:-0.526895 440:-0.464964 441:-0.411718 442:-0.287859 443:-0.160166 444:-0.0369764 445:0.0788866 446:0.184413 447:0.252185 448:0.29548 449:0.340937 450:0.365941 451:0.401595 452:0.440734 453:0.50241 454:0.548047 455:0.570987 456:0.603235 457:0.616194 458:0.613633 459:0.601152 460:0.577914 461:0.547728 462:0.511103 463:0.463167 464:0.400875 465:0.326346 466:0.240233 467:0.141477 468:0.0326137 469:-0.0793287 470:-0.192945 471:-0.280437 472:-0.337875 473:-0.373939 474:-0.38235 475:-0.37079 476:-0.364369 477:-0.35861 478:-0.345812 479:-0.328904 480:-0.314965 481:-0.301854 482:-0.289199 483:-0.279133 484:-0.272207 485:-0.268539 486:-0.260993 487:-0.248356 488:-0.219994 489:-0.198653 490:-0.182134 491:-0.171161 492:-0.164096 493:-0.159982 494:-0.159829 495:-0.164005 496:-0.170741 497:-0.175367 498:-0.188305 499:-0.199145 500:-0.190347 501:0.991177 502:0.981052 503:0.979671 504:0.988139 505:0.982306 506:0.967771 507:0.969069 508:0.969947 509:0.969946 510:0.975798 511:0.974757 512:0.981036 513:0.975799 514:0.967264 515:0.96789 516:0.968521 517:0.968433 518:0.961675 519:0.962632 520:0.956099 521:0.959982 522:0.966229 523:0.972609 524:0.978386 525:0.756735 526:-0.926846 527:-1 528:-0.971408 529:-0.957577 530:-0.95491 531:-0.93347 532:-0.897278 533:-0.870077 534:-0.851761 535:-0.823172 536:-0.796019 537:-0.769853 538:-0.751708 539:-0.732982 540:-0.714561 541:-0.691715 542:-0.67362 543:-0.659926 544:-0.653539 545:-0.640757 546:-0.63829 547:-0.629757 548:-0.624114 549:-0.63306 550:-0.632362 551:-0.63202 552:-0.633817 553:-0.63849 554:-0.645618 555:-0.655016 556:-0.666017 557:-0.678818 558:-0.694104 559:-0.711462 560:-0.730859 561:-0.752105 562:-0.775231 563:-0.799949 564:-0.824015 565:-0.847839 566:-0.873269 567:-0.906138 568:-0.93573 569:-0.970967 570:-0.999919 571:0.372149 572:0.997237 573:0.993567 574:0.989467 575:0.97412 576:0.974786 577:0.979863 578:0.978237 579:0.988354 580:0.98594 581:0.991306 582:0.988578 583:1 584:1 585:0.998651 586:1 587:0.828643 588:-0.880282 589:-0.999406 590:-1 591:-0.998416 592:-1 593:-0.994713 594:-0.995069 595:-1 596:-0.986528 597:-0.987439 598:-0.987867 599:-0.983173 600:-0.975628 
0.04263715834843401 1:-0.0878277 2:-0.231832 3:-0.175621 4:-0.0406015 5:0.0126366 6:0.0355105 7:-0.064748 8:-0.0352075 9:-0.0346574 10:-0.214483 11:-0.416899 12:-0.4311 13:-0.453622 14:-0.530868 15:-0.367733 16:-0.26503 17:-0.265324 18:-0.434661 19:-0.890024 20:-1 21:-0.968038 22:-0.958154 23:-0.949398 24:-0.834447 25:-0.823108 26:-0.895521 27:-0.777796 28:-0.689725 29:-0.582025 30:-0.223737 31:0.492466 32:0.844413 33:0.185296 34:-0.348281 35:-0.608602 36:-0.463209 37:-0.147703 38:0.239979 39:1 40:0.939281 41:0.841612 42:0.644219 43:0.693317 44:0.768576 45:0.777584 46:0.673095 47:0.645829 48:0.533198 49:0.138497 50:0.0679032 51:0.14637 52:0.0983576 53:0.191421 54:-0.0126139 55:-0.0756271 56:-0.190214 57:-0.330159 58:-0.411628 59:-0.114298 60:-0.322772 61:-0.366352 62:-0.407527 63:-0.41955 64:-0.890927 65:-0.963656 66:-0.710388 67:-0.363923 68:0.0870683 69:-0.138952 70:-0.046512 71:-0.106595 72:-0.398084 73:-0.312571 74:-0.303397 75:0.136908 76:0.410342 77:0.431101 78:0.178662 79:-0.294573 80:-0.311339 81:-0.214862 82:-0.110379 83:0.251122 84:0.753125 85:0.772852 86:0.573427 87:0.454475 88:0.432668 89:0.371187 90:0.359272 91:0.390024 92:0.391183 93:0.305722 94:0.10171 95:-0.129442 96:-0.219499 97:-0.440269 98:-0.456936 99:-0.599624 100:-0.307036 101:0.223646 102:0.29875 103:0.406395 104:0.498285 105:0.556078 106:0.615933 107:0.650968 108:0.671745 109:0.686791 110:0.69608 111:0.690621 112:0.70189 113:0.678923 114:0.655659 115:0.645946 116:0.613691 117:0.552767 118:0.485132 119:0.390417 120:0.249286 121:0.138147 122:0.0337091 123:-0.0198117 124:-0.213101 125:-0.324423 126:-0.356015 127:-0.387769 128:-0.462104 129:-0.602414 130:-0.70643 131:-0.651744 132:-0.600522 133:-0.507232 134:-0.372625 135:-0.35049 136:-0.341757 137:-0.171219 138:-0.1144 139:-0.0693337 140:0.0336841 141:0.0822431 142:0.145182 143:0.19584 144:0.220969 145:0.288804 146:0.388681 147:0.503192 148:0.611495 149:0.628078 150:0.639089 151:0.688474 152:0.72889 153:0.662655 154:0.514658 155:0.37394 156:0.247891 157:0.194618 158:0.240365 159:0.217756 160:0.253192 161:0.360392 162:0.408334 163:0.430231 164:0.512567 165:0.6175 166:0.465439 167:0.26844 168:0.00607957 169:-0.21105 170:-0.27364 171:-0.287901 172:-0.254158 173:-0.225414 174:-0.324474 175:-0.409962 176:-0.473248 177:-0.556831 178:-0.745064 179:-0.839064 180:-0.775212 181:-0.643124 182:-0.584256 183:-0.42503 184:-0.374555 185:-0.435722 186:-0.449721 187:-0.409626 188:-0.375723 189:-0.383034 190:-0.337817 191:-0.279882 192:-0.234432 193:-0.18485 194:-0.156026 195:-0.127896 196:-0.0832937 197:-0.019106 198:0.0805406 199:0.0430703 200:-0.0676301 201:0.307129 202:0.471458 203:0.588966 204:0.638181 205:0.676059 206:0.680503 207:0.639908 208:0.541783 209:0.339613 210:0.117704 211:0.0300087 212:0.00881776 213:0.0162985 214:0.0060644 215:-0.0400737 216:-0.0598601 217:-0.0587982 218:-0.0380658 219:0.00559944 220:0.0497096 221:-0.0589487 222:-0.224117 223:-0.446192 224:-0.577488 225:-0.563657 226:-0.614242 227:-0.609627 228:-0.646199 229:-0.862252 230:-0.71715 231:-0.466998 232:-0.089891 233:0.188887 234:0.401214 235:0.525258 236:0.630449 237:0.66964 238:0.683832 239:0.689229 240:0.742853 241:0.79698 242:0.822374 243:0.770959 244:0.713523 245:0.723494 246:0.711641 247:0.614783 248:0.563124 249:0.508879 250:0.414752 251:0.318257 252:0.240542 253:0.2078 254:0.148668 255:0.0179517 256:-0.0500604 257:-0.0886757 258:-0.307957 259:-0.601502 260:-0.563523 261:-0.623482 262:-1 263:-1 264:-0.923001 265:-0.462786 266:-0.213845 267:-0.142858 268:0.0666424 269:0.403592 270:0.584251 271:0.572378 272:0.589456 273:0.644114 274:0.614519 275:0.560944 276:0.485445 277:0.366025 278:0.392782 279:0.362836 280:0.349379 281:0.360786 282:0.371814 283:0.379045 284:0.360619 285:0.352605 286:0.349349 287:0.365907 288:0.446455 289:0.517688 290:0.546648 291:0.553064 292:0.567881 293:0.567713 294:0.557251 295:0.564455 296:0.60387 297:0.674861 298:0.761302 299:0.813456 300:0.803315 301:0.15236 302:0.182814 303:0.19734 304:0.215404 305:0.231518 306:0.241101 307:0.243774 308:0.244592 309:0.245502 310:0.239063 311:0.216743 312:0.176914 313:0.0676 314:-0.0751319 315:-0.207757 316:-0.319018 317:-0.410103 318:-0.501459 319:-0.58432 320:-0.663448 321:-0.726153 322:-0.750765 323:-0.761433 324:-0.761691 325:-0.771388 326:-0.784522 327:-0.795459 328:-0.800396 329:-0.788555 330:-0.757599 331:-0.693205 332:-0.632169 333:-0.598181 334:-0.609073 335:-0.652563 336:-0.680909 337:-0.67305 338:-0.639508 339:-0.572247 340:-0.516963 341:-0.483314 342:-0.4519 343:-0.398018 344:-0.334917 345:-0.27716 346:-0.223535 347:-0.1693 348:-0.110844 349:-0.0510364 350:0.0516201 351:0.206584 352:0.358824 353:0.426939 354:0.469442 355:0.438957 356:0.221912 357:0.0215428 358:-0.147603 359:-0.288124 360:-0.398271 361:-0.475222 362:-0.524938 363:-0.5681 364:-0.579945 365:-0.584941 366:-0.584911 367:-0.569718 368:-0.546695 369:-0.516936 370:-0.508776 371:-0.528619 372:-0.603233 373:-0.674734 374:-0.690288 375:-0.703351 376:-0.701603 377:-0.70213 378:-0.696744 379:-0.709665 380:-0.768436 381:-0.77098 382:-0.763601 383:-0.746898 384:-0.728172 385:-0.689279 386:-0.651368 387:-0.618243 388:-0.650565 389:-0.707786 390:-0.754536 391:-0.785777 392:-0.801527 393:-0.815628 394:-0.845099 395:-0.86588 396:-0.713525 397:-0.603805 398:-0.503657 399:-0.527997 400:-0.660146 401:-0.467969 402:-0.35256 403:-0.243034 404:-0.142441 405:-0.0506845 406:0.033963 407:0.123698 408:0.201415 409:0.266825 410:0.32385 411:0.375207 412:0.419247 413:0.458745 414:0.49305 415:0.525581 416:0.553539 417:0.559976 418:0.538406 419:0.511508 420:0.464153 421:0.448722 422:0.404558 423:0.367331 424:0.282656 425:0.178618 426:0.0193592 427:-0.189813 428:-0.312528 429:-0.46314 430:-0.578763 431:-0.642674 432:-0.678591 433:-0.734157 434:-0.748646 435:-0.691957 436:-0.639081 437:-0.57431 438:-0.495686 439:-0.422771 440:-0.328042 441:-0.248249 442:-0.114278 443:0.0144684 444:0.134969 445:0.247696 446:0.353865 447:0.423058 448:0.467758 449:0.51483 450:0.535572 451:0.561672 452:0.589089 453:0.636599 454:0.658474 455:0.645552 456:0.630309 457:0.583022 458:0.510229 459:0.416858 460:0.304835 461:0.17836 462:0.0371515 463:-0.116667 464:-0.263358 465:-0.377856 466:-0.460489 467:-0.527105 468:-0.573062 469:-0.596493 470:-0.602815 471:-0.59693 472:-0.585996 473:-0.570635 474:-0.540479 475:-0.521185 476:-0.516081 477:-0.523567 478:-0.530288 479:-0.535203 480:-0.54415 481:-0.555268 482:-0.567599 483:-0.582206 484:-0.600585 485:-0.622533 486:-0.637913 487:-0.641342 488:-0.61894 489:-0.602602 490:-0.591662 491:-0.587717 492:-0.590124 493:-0.598526 494:-0.612496 495:-0.629301 496:-0.645084 497:-0.654729 498:-0.651407 499:-0.629024 500:-0.582987 501:-0.994015 502:-0.994555 503:-0.995002 504:-0.99513 505:-0.996066 506:-0.997856 507:-0.998547 508:-0.998437 509:-1 510:-0.99891 511:-0.998092 512:-1 513:0.0337252 514:1 515:1 516:1 517:0.99895 518:0.991218 519:0.993639 520:0.989097 521:0.995064 522:0.697601 523:-1 524:-1 525:-0.984121 526:-0.965303 527:-0.950496 528:-0.913223 529:-0.888004 530:-0.871207 531:-0.841807 532:-0.804593 533:-0.781483 534:-0.769251 535:-0.749213 536:-0.734262 537:-0.722893 538:-0.720736 539:-0.718276 540:-0.714005 541:-0.702033 542:-0.691371 543:-0.682511 544:-0.679254 545:-0.66851 546:-0.667085 547:-0.658717 548:-0.65248 549:-0.660898 550:-0.660476 551:-0.662802 552:-0.670256 553:-0.683774 554:-0.702935 555:-0.727626 556:-0.756449 557:-0.788036 558:-0.82086 559:-0.853623 560:-0.885818 561:-0.917733 562:-0.9502 563:-0.981816 564:-0.0977588 565:0.973654 566:0.948995 567:0.931523 568:0.924142 569:0.926952 570:0.937901 571:0.954322 572:0.971919 573:0.989074 574:1 575:0.991268 576:0.993362 577:1 578:1 579:-0.702743 580:-0.99597 581:-0.991127 582:-0.989887 583:-0.991795 584:-0.985334 585:-0.98435 586:-0.98247 587:-0.973392 588:-0.971555 589:-0.966504 590:-0.966863 591:-0.964971 592:-0.96709 593:-0.96356 594:-0.966941 595:-0.976894 596:-0.971324 597:-0.981681 598:-0.99332 599:-1 600:-1 
0.1338355635691676 1:-0.166795 2:-0.281729 3:-0.268531 4:-0.214954 5:-0.142672 6:-0.0647549 7:-0.0939768 8:-0.074453 9:-0.116192 10:-0.157458 11:-0.206402 12:-0.179137 13:-0.22138 14:-0.334879 15:-0.264967 16:-0.19369 17:-0.13184 18:-0.1416 19:-0.348298 20:-0.366324 21:-0.369223 22:-0.650311 23:-0.782433 24:-0.673374 25:-0.63953 26:-0.580428 27:-0.758868 28:-0.952746 29:-0.928721 30:-0.867299 31:-0.803219 32:-0.737623 33:-0.648463 34:-0.449016 35:0.151855 36:0.984817 37:0.862912 38:0.805676 39:0.69472 40:-0.0429808 41:-0.23407 42:0.0324634 43:0.552999 44:0.901437 45:1 46:0.93901 47:0.922764 48:0.868013 49:0.722655 50:0.731233 51:0.747467 52:0.782139 53:0.878965 54:0.780241 55:0.63533 56:0.410956 57:0.242211 58:0.0984627 59:0.385274 60:0.28762 61:0.0771489 62:-0.150994 63:0.00770883 64:-0.20453 65:-0.294609 66:-0.336025 67:-0.369424 68:-0.349071 69:-0.718581 70:-0.711065 71:-0.908957 72:-0.932488 73:-0.592429 74:-0.37898 75:0.0992535 76:0.348339 77:0.426381 78:0.353049 79:0.0841054 80:0.108304 81:0.128682 82:0.0939177 83:0.305134 84:0.662891 85:0.577993 86:0.298645 87:0.207712 88:0.264074 89:0.317451 90:0.446246 91:0.591422 92:0.630686 93:0.529336 94:0.301094 95:0.0653368 96:0.101774 97:0.11788 98:0.216311 99:0.0218635 100:-0.0232791 101:0.176519 102:0.170521 103:0.196371 104:0.237204 105:0.254389 106:0.300951 107:0.328022 108:0.36182 109:0.407007 110:0.461929 111:0.519108 112:0.606322 113:0.656924 114:0.689557 115:0.697554 116:0.670263 117:0.623357 118:0.572835 119:0.505578 120:0.37802 121:0.270213 122:0.151178 123:0.0872449 124:-0.0615411 125:-0.109064 126:-0.0998966 127:-0.094236 128:-0.106608 129:-0.146995 130:-0.167816 131:-0.19454 132:-0.293548 133:-0.407252 134:-0.492007 135:-0.682584 136:-0.893225 137:-0.982021 138:-1 139:-1 140:-0.864615 141:-0.800679 142:-0.629327 143:-0.478869 144:-0.370149 145:-0.159445 146:0.0227932 147:0.185657 148:0.308791 149:0.334298 150:0.364069 151:0.45983 152:0.557363 153:0.57292 154:0.502768 155:0.399858 156:0.278991 157:0.223258 158:0.263613 159:0.21215 160:0.202714 161:0.254828 162:0.250758 163:0.268821 164:0.36795 165:0.537119 166:0.54023 167:0.488163 168:0.437538 169:0.360193 170:0.355948 171:0.34589 172:0.331726 173:0.238161 174:0.0259122 175:-0.158254 176:-0.319986 177:-0.473613 178:-0.677328 179:-0.784224 180:-0.73781 181:-0.613656 182:-0.561495 183:-0.412546 184:-0.370961 185:-0.422632 186:-0.426219 187:-0.404935 188:-0.433562 189:-0.484304 190:-0.448212 191:-0.391719 192:-0.365985 193:-0.342542 194:-0.329762 195:-0.340486 196:-0.335315 197:-0.301505 198:-0.17969 199:-0.191422 200:-0.216763 201:0.291326 202:0.392891 203:0.451495 204:0.45943 205:0.477364 206:0.498619 207:0.501241 208:0.464952 209:0.341691 210:0.203695 211:0.18412 212:0.208016 213:0.239759 214:0.259482 215:0.245618 216:0.251362 217:0.26432 218:0.281139 219:0.295181 220:0.309792 221:0.229181 222:0.115911 223:-0.0560752 224:-0.151286 225:-0.133278 226:-0.176726 227:-0.202173 228:-0.29036 229:-0.541115 230:-0.575054 231:-0.737834 232:-0.79403 233:-0.787526 234:-0.645108 235:-0.549452 236:-0.445653 237:-0.325268 238:-0.0340585 239:0.166533 240:0.359767 241:0.515986 242:0.636713 243:0.662673 244:0.665689 245:0.737942 246:0.769904 247:0.729768 248:0.737924 249:0.741726 250:0.710491 251:0.690441 252:0.693309 253:0.73016 254:0.753298 255:0.744454 256:0.740913 257:0.665235 258:0.534917 259:0.434347 260:0.397413 261:0.28822 262:0.0374243 263:-0.0179346 264:-0.130968 265:-0.144841 266:-0.331859 267:-0.635018 268:-0.819841 269:-0.75696 270:-0.692627 271:-0.85735 272:-0.649488 273:-0.339535 274:-0.399003 275:-0.183063 276:0.153116 277:0.398067 278:0.608905 279:0.651093 280:0.623123 281:0.641871 282:0.673572 283:0.699549 284:0.679978 285:0.651795 286:0.614995 287:0.561725 288:0.558765 289:0.564127 290:0.538685 291:0.495834 292:0.458019 293:0.407805 294:0.358098 295:0.316963 296:0.283408 297:0.286514 298:0.298005 299:0.307504 300:0.314615 301:0.0231295 302:0.0457643 303:0.042564 304:0.0357988 305:0.0344443 306:0.0397709 307:0.0460592 308:0.0477458 309:0.0439255 310:0.0435262 311:0.036816 312:0.0164933 313:-0.0624888 314:-0.178304 315:-0.292352 316:-0.389174 317:-0.455052 318:-0.510305 319:-0.558467 320:-0.604683 321:-0.645364 322:-0.65831 323:-0.665133 324:-0.666019 325:-0.672112 326:-0.675449 327:-0.684473 328:-0.69788 329:-0.708521 330:-0.720111 331:-0.728749 332:-0.750353 333:-0.76936 334:-0.777459 335:-0.765756 336:-0.719811 337:-0.655128 338:-0.619002 339:-0.597826 340:-0.616691 341:-0.657492 342:-0.677221 343:-0.643577 344:-0.582411 345:-0.52624 346:-0.475725 347:-0.423691 348:-0.366667 349:-0.300668 350:-0.189208 351:-0.018759 352:0.174483 353:0.33072 354:0.500355 355:0.626303 356:0.540198 357:0.445638 358:0.353612 359:0.256412 360:0.153019 361:0.0514213 362:-0.0484958 363:-0.152117 364:-0.231771 365:-0.29917 366:-0.356496 367:-0.408193 368:-0.46618 369:-0.500205 370:-0.520873 371:-0.560934 372:-0.644947 373:-0.689907 374:-0.665055 375:-0.647686 376:-0.636761 377:-0.636712 378:-0.61845 379:-0.602214 380:-0.621067 381:-0.58817 382:-0.553636 383:-0.520677 384:-0.492462 385:-0.448873 386:-0.408694 387:-0.371074 388:-0.432709 389:-0.514651 390:-0.563424 391:-0.583854 392:-0.582139 393:-0.573539 394:-0.576434 395:-0.570567 396:-0.420464 397:-0.301236 398:-0.195026 399:-0.198343 400:-0.316812 401:-0.278029 402:-0.206265 403:-0.141584 404:-0.0842132 405:-0.0328883 406:0.0160464 407:0.0763523 408:0.131105 409:0.179186 410:0.224666 411:0.270501 412:0.31499 413:0.360339 414:0.406711 415:0.458448 416:0.512647 417:0.555985 418:0.581578 419:0.605779 420:0.61589 421:0.646235 422:0.656246 423:0.662393 424:0.639352 425:0.598696 426:0.519265 427:0.399197 428:0.307965 429:0.193492 430:0.0822577 431:-0.0304002 432:-0.153496 433:-0.309657 434:-0.454137 435:-0.538077 436:-0.614684 437:-0.651086 438:-0.653426 439:-0.64657 440:-0.607821 441:-0.572215 442:-0.452094 443:-0.322724 444:-0.198674 445:-0.0814957 446:0.0282211 447:0.106538 448:0.163334 449:0.220247 450:0.255396 451:0.301305 452:0.35261 453:0.427362 454:0.488955 455:0.53002 456:0.581235 457:0.614922 458:0.636574 459:0.648797 460:0.649444 461:0.641121 462:0.623423 463:0.591764 464:0.54543 465:0.485026 466:0.410327 467:0.320872 468:0.215433 469:0.0949574 470:-0.0393072 471:-0.170167 472:-0.283762 473:-0.347255 474:-0.381305 475:-0.40373 476:-0.412684 477:-0.410041 478:-0.39749 479:-0.377653 480:-0.362681 481:-0.350439 482:-0.338728 483:-0.327784 484:-0.319458 485:-0.314534 486:-0.305406 487:-0.290695 488:-0.257747 489:-0.231251 490:-0.210177 491:-0.195294 492:-0.184937 493:-0.178655 494:-0.176969 495:-0.179145 496:-0.1845 497:-0.189724 498:-0.206206 499:-0.224677 500:-0.227563 501:-0.985954 502:-0.986322 503:-0.986001 504:-0.985195 505:-0.985111 506:-0.985852 507:-0.985155 508:-0.983577 509:-0.983804 510:-0.981765 511:-0.980329 512:-0.981865 513:-0.984882 514:-0.988661 515:-0.99187 516:-0.992841 517:-0.993297 518:-0.992954 519:-1 520:-1 521:-1 522:-0.99376 523:-0.99031 524:-0.996422 525:-0.987932 526:-0.978432 527:-0.975398 528:-0.952284 529:-0.943787 530:-0.947052 531:-0.932548 532:-0.902683 533:-0.87992 534:-0.862672 535:-0.833028 536:-0.803768 537:-0.77647 538:-0.758227 539:-0.739462 540:-0.719924 541:-0.695466 542:-0.676725 543:-0.663921 544:-0.659101 545:-0.647841 546:-0.646243 547:-0.637277 548:-0.629279 549:-0.633789 550:-0.626816 551:-0.619108 552:-0.612997 553:-0.608781 554:-0.606253 555:-0.605821 556:-0.607714 557:-0.612815 558:-0.622083 559:-0.635646 560:-0.653104 561:-0.673983 562:-0.698 563:-0.724812 564:-0.750839 565:-0.776612 566:-0.803431 567:-0.835676 568:-0.864099 569:-0.899172 570:-0.928454 571:-0.948285 572:-0.978898 573:-0.97293 574:-0.994634 575:-1 576:-1 577:-1 578:-0.982646 579:-0.985 580:-0.973444 581:-0.969802 582:-0.969638 583:-0.972265 584:-0.966703 585:-0.967016 586:-0.966891 587:-0.959409 588:-0.958382 589:-0.95377 590:-0.954628 591:-0.952997 592:-0.954991 593:-0.950606 594:-0.952399 595:-0.958937 596:-0.947428 597:-0.949794 598:-0.951293 599:-0.947289 600:-0.940485 
0.3295859377176284 1:-0.167807 2:-0.209312 3:-0.199519 4:-0.189834 5:-0.142802 6:-0.0327524 7:0.0233805 8:0.0635519 9:0.0843076 10:0.00398838 11:-0.0560683 12:-0.0290723 13:-0.0500745 14:-0.0755927 15:0.0133569 16:0.0463094 17:0.052788 18:0.00246886 19:-0.260426 20:-0.420802 21:-0.572165 22:-0.86544 23:-0.996293 24:-1 25:-1 26:-1 27:-1 28:-1 29:-0.89418 30:-0.838792 31:-0.749309 32:-0.6173 33:-0.635342 34:-0.554187 35:0.0328835 36:0.906209 37:0.928471 38:1 39:0.633633 40:-0.331107 41:-0.50849 42:-0.147599 43:0.421877 44:0.747299 45:0.950901 46:1 47:1 48:0.86798 49:0.557269 50:0.497274 51:0.614856 52:0.734448 53:0.882099 54:0.814801 55:0.66966 56:0.388774 57:0.135078 58:-0.0402361 59:0.262527 60:0.225906 61:0.102468 62:-0.140934 63:-0.0570668 64:-0.255951 65:-0.351991 66:-0.408871 67:-0.41796 68:-0.346974 69:-0.669554 70:-0.636319 71:-0.709418 72:-0.921399 73:-0.847225 74:-0.715317 75:-0.345302 76:0.0439303 77:0.304506 78:0.507735 79:0.527459 80:0.488454 81:0.322578 82:0.181347 83:0.31412 84:0.615694 85:0.582558 86:0.457197 87:0.444079 88:0.452582 89:0.325345 90:0.218268 91:0.244608 92:0.374663 93:0.5325 94:0.544782 95:0.41054 96:0.566474 97:0.606842 98:0.577007 99:0.22917 100:0.00575403 101:0.640347 102:0.619586 103:0.662103 104:0.677521 105:0.655711 106:0.668808 107:0.644981 108:0.597861 109:0.576372 110:0.575294 111:0.57949 112:0.614933 113:0.62075 114:0.644959 115:0.689889 116:0.717426 117:0.717108 118:0.719257 119:0.712301 120:0.624921 121:0.561679 122:0.4908 123:0.434674 124:0.305551 125:0.209125 126:0.140413 127:0.0752676 128:-0.0217565 129:-0.174341 130:-0.326525 131:-0.411188 132:-0.491964 133:-0.580822 134:-0.571118 135:-0.582984 136:-0.647269 137:-0.770499 138:-0.939176 139:-0.902415 140:-0.748617 141:-0.700475 142:-0.610039 143:-0.556249 144:-0.46361 145:-0.233907 146:-0.0349249 147:0.130898 148:0.251525 149:0.282936 150:0.333067 151:0.439678 152:0.541359 153:0.560587 154:0.488111 155:0.372567 156:0.223207 157:0.117527 158:0.120665 159:0.0654026 160:0.0900399 161:0.161334 162:0.170838 163:0.205315 164:0.331509 165:0.525277 166:0.556897 167:0.54484 168:0.52292 169:0.475135 170:0.54078 171:0.532063 172:0.525622 173:0.47766 174:0.326163 175:0.162002 176:0.0100257 177:-0.188958 178:-0.508521 179:-0.71501 180:-0.722682 181:-0.647868 182:-0.646704 183:-0.495265 184:-0.412447 185:-0.421722 186:-0.409384 187:-0.382292 188:-0.374763 189:-0.401286 190:-0.371865 191:-0.338793 192:-0.337661 193:-0.345608 194:-0.372362 195:-0.418973 196:-0.448712 197:-0.447993 198:-0.329938 199:-0.339906 200:-0.360694 201:0.29711 202:0.366987 203:0.399478 204:0.40465 205:0.433124 206:0.458474 207:0.413047 208:0.282287 209:0.138053 210:0.0372282 211:0.0851133 212:0.139457 213:0.173909 214:0.180163 215:0.169757 216:0.1962 217:0.239714 218:0.279845 219:0.307301 220:0.325539 221:0.250811 222:0.151293 223:0.0173736 224:-0.0476612 225:-0.0276571 226:-0.0789457 227:-0.111555 228:-0.202642 229:-0.435932 230:-0.482886 231:-0.673871 232:-0.836097 233:-0.92387 234:-0.838068 235:-0.735386 236:-0.575611 237:-0.46998 238:-0.248248 239:0.0139759 240:0.27266 241:0.476637 242:0.612047 243:0.63322 244:0.643625 245:0.745703 246:0.809577 247:0.799098 248:0.809684 249:0.799993 250:0.764102 251:0.754913 252:0.772523 253:0.804238 254:0.824219 255:0.819917 256:0.813093 257:0.721739 258:0.592458 259:0.513141 260:0.491737 261:0.39861 262:0.176847 263:0.123841 264:0.0191383 265:0.00750204 266:-0.145015 267:-0.392108 268:-0.529484 269:-0.466846 270:-0.489395 271:-0.784904 272:-0.735799 273:-0.725579 274:-0.936501 275:-0.579326 276:-0.468887 277:-0.262876 278:0.135669 279:0.405148 280:0.549271 281:0.650208 282:0.704379 283:0.752218 284:0.760199 285:0.747817 286:0.705459 287:0.648106 288:0.633134 289:0.619264 290:0.575445 291:0.515632 292:0.460239 293:0.389307 294:0.321105 295:0.264185 296:0.225871 297:0.235109 298:0.259537 299:0.286223 300:0.305025 301:0.4358 302:0.43316 303:0.413136 304:0.386466 305:0.361612 306:0.345215 307:0.338516 308:0.334308 309:0.336138 310:0.343044 311:0.348944 312:0.35 313:0.275318 314:0.161664 315:0.051593 316:-0.0399 317:-0.107471 318:-0.167105 319:-0.22615 320:-0.30189 321:-0.38316 322:-0.446067 323:-0.503005 324:-0.55284 325:-0.606673 326:-0.645693 327:-0.675692 328:-0.690881 329:-0.691942 330:-0.691227 331:-0.685508 332:-0.690042 333:-0.701194 334:-0.711104 335:-0.695739 336:-0.640967 337:-0.564483 338:-0.507418 339:-0.49126 340:-0.527003 341:-0.579737 342:-0.610962 343:-0.592914 344:-0.546657 345:-0.496196 346:-0.444788 347:-0.391072 348:-0.335482 349:-0.276538 350:-0.176029 351:-0.0138391 352:0.177728 353:0.335462 354:0.511155 355:0.647166 356:0.568546 357:0.477505 358:0.385455 359:0.293707 360:0.205388 361:0.123796 362:0.0409065 363:-0.0550887 364:-0.134273 365:-0.205857 366:-0.274518 367:-0.341524 368:-0.413195 369:-0.460983 370:-0.494838 371:-0.533175 372:-0.627383 373:-0.711887 374:-0.721238 375:-0.728346 376:-0.721086 377:-0.70172 378:-0.659135 379:-0.621223 380:-0.623186 381:-0.585216 382:-0.554714 383:-0.531479 384:-0.513129 385:-0.473246 386:-0.422698 387:-0.364318 388:-0.408915 389:-0.49002 390:-0.54971 391:-0.585651 392:-0.595001 393:-0.585599 394:-0.572467 395:-0.538433 396:-0.358488 397:-0.212441 398:-0.0868652 399:-0.0695483 400:-0.180065 401:-0.151163 402:-0.0965675 403:-0.0475219 404:-0.00304742 405:0.038453 406:0.0794419 407:0.129362 408:0.16833 409:0.201759 410:0.235961 411:0.27321 412:0.309989 413:0.347113 414:0.382942 415:0.423963 416:0.471541 417:0.513008 418:0.541122 419:0.572038 420:0.594101 421:0.641856 422:0.668956 423:0.695613 424:0.696602 425:0.676189 426:0.615598 427:0.511666 428:0.427238 429:0.325108 430:0.22564 431:0.119911 432:-0.00909518 433:-0.182176 434:-0.35476 435:-0.467428 436:-0.562103 437:-0.621779 438:-0.657885 439:-0.672138 440:-0.647051 441:-0.619983 442:-0.504682 443:-0.379796 444:-0.258805 445:-0.141228 446:-0.0280643 447:0.0558088 448:0.117408 449:0.176821 450:0.214359 451:0.263615 452:0.319125 453:0.397124 454:0.46196 455:0.506097 456:0.558667 457:0.589074 458:0.607525 459:0.618951 460:0.622223 461:0.620402 462:0.613013 463:0.594453 464:0.561759 465:0.519014 466:0.467339 467:0.405114 468:0.331502 469:0.245719 470:0.137079 471:0.0206214 472:-0.0914896 473:-0.18873 474:-0.253456 475:-0.297259 476:-0.341949 477:-0.37758 478:-0.389706 479:-0.384279 480:-0.374184 481:-0.361333 482:-0.348756 483:-0.335589 484:-0.321738 485:-0.308547 486:-0.29022 487:-0.266716 488:-0.227964 489:-0.198018 490:-0.173671 491:-0.155251 492:-0.141134 493:-0.130918 494:-0.127263 495:-0.129149 496:-0.134677 497:-0.1397 498:-0.156188 499:-0.173611 500:-0.174067 501:-0.981445 502:-0.981872 503:-0.982154 504:-0.981976 505:-0.982556 506:-0.984073 507:-0.983951 508:-0.982158 509:-0.981358 510:-0.977271 511:-0.972847 512:-0.970393 513:-0.968565 514:-0.967382 515:-0.966067 516:-0.96314 517:-0.960418 518:-0.958285 519:-0.965472 520:-0.969592 521:-0.975798 522:-0.976477 523:-0.981001 524:-0.995964 525:-0.996904 526:-0.995294 527:-0.997031 528:-0.975651 529:-0.965721 530:-0.96553 531:-0.946848 532:-0.914666 533:-0.890835 534:-0.875453 535:-0.852434 536:-0.831902 537:-0.811388 538:-0.797292 539:-0.781532 540:-0.764169 541:-0.740794 542:-0.720905 543:-0.705577 544:-0.698443 545:-0.685078 546:-0.681 547:-0.669336 548:-0.658633 549:-0.661048 550:-0.652381 551:-0.64311 552:-0.635101 553:-0.629012 554:-0.624319 555:-0.6211 556:-0.619279 557:-0.619707 558:-0.623726 559:-0.630959 560:-0.641454 561:-0.655034 562:-0.67203 563:-0.693301 564:-0.716039 565:-0.740017 566:-0.76663 567:-0.800124 568:-0.830508 569:-0.868248 570:-0.902541 571:-0.927172 572:-0.96367 573:-0.96641 574:-0.999339 575:-0.933998 576:0.7496 577:0.990526 578:0.985402 579:0.995169 580:0.993221 581:0.999721 582:0.998689 583:-0.497001 584:-1 585:-1 586:-1 587:-0.993214 588:-0.99322 589:-0.989902 590:-0.99158 591:-0.990918 592:-0.993438 593:-0.989071 594:-0.990285 595:-0.995929 596:-0.982921 597:-0.983713 598:-0.983455 599:-0.977702 600:-0.969045 
0.2652692793323693 1:-0.496837 2:-0.541986 3:-0.417455 4:-0.327096 5:-0.309191 6:-0.340809 7:-0.430515 8:-0.372191 9:-0.325145 10:-0.387448 11:-0.44077 12:-0.353725 13:-0.268024 14:-0.252285 15:-0.0867354 16:-0.00429811 17:0.0155713 18:-0.0420473 19:-0.282212 20:-0.316188 21:-0.381786 22:-0.724309 23:-0.865501 24:-0.793371 25:-0.781234 26:-0.744295 27:-0.784347 28:-0.877964 29:-0.880712 30:-0.863957 31:-0.846748 32:-0.797111 33:-0.69334 34:-0.669072 35:-0.340298 36:0.243551 37:0.396872 38:0.539987 39:0.625804 40:0.0721725 41:0.00183707 42:0.147439 43:0.486174 44:0.713479 45:0.872798 46:0.907366 47:0.972742 48:0.985487 49:0.959287 50:1 51:0.975051 52:1 53:1 54:0.82028 55:0.625093 56:0.399395 57:0.226393 58:0.0521199 59:0.32405 60:0.215826 61:0.00260474 62:-0.216087 63:-0.0994862 64:-0.375215 65:-0.490593 66:-0.485023 67:-0.420907 68:-0.303262 69:-0.675896 70:-0.816641 71:-0.968466 72:-0.914425 73:-0.696696 74:-0.470301 75:0.243477 76:0.736899 77:0.857338 78:0.592364 79:0.158949 80:0.120384 81:0.21046 82:0.262823 83:0.511891 84:0.799664 85:0.548391 86:0.187022 87:0.0680728 88:0.147828 89:0.247702 90:0.410078 91:0.561677 92:0.633469 93:0.597635 94:0.432344 95:0.223365 96:0.342984 97:0.430629 98:0.459725 99:0.0804713 100:-0.213911 101:0.696569 102:0.565412 103:0.57977 104:0.619144 105:0.622834 106:0.639257 107:0.630111 108:0.589406 109:0.557675 110:0.550938 111:0.521009 112:0.524328 113:0.521855 114:0.535644 115:0.56516 116:0.584976 117:0.587983 118:0.589439 119:0.575406 120:0.498185 121:0.432446 122:0.354062 123:0.304456 124:0.161659 125:0.0699217 126:0.0311778 127:0.00922246 128:-0.0319264 129:-0.108251 130:-0.194511 131:-0.229877 132:-0.294824 133:-0.360064 134:-0.365992 135:-0.405547 136:-0.4916 137:-0.592524 138:-0.812826 139:-0.918254 140:-0.775809 141:-0.75275 142:-0.685255 143:-0.661233 144:-0.663999 145:-0.51374 146:-0.389065 147:-0.263961 148:-0.154159 149:-0.0865598 150:0.0370544 151:0.21458 152:0.38681 153:0.461125 154:0.414633 155:0.306704 156:0.175618 157:0.10696 158:0.131265 159:0.0764832 160:0.0863453 161:0.15288 162:0.179489 163:0.227467 164:0.353774 165:0.540257 166:0.567001 167:0.548105 168:0.501737 169:0.413149 170:0.372107 171:0.378358 172:0.299378 173:0.18179 174:-0.0250147 175:-0.213881 176:-0.365019 177:-0.47788 178:-0.668809 179:-0.813591 180:-0.795976 181:-0.68216 182:-0.615429 183:-0.43247 184:-0.360977 185:-0.404607 186:-0.409999 187:-0.37422 188:-0.353433 189:-0.378306 190:-0.36742 191:-0.362556 192:-0.395541 193:-0.434788 194:-0.472911 195:-0.512185 196:-0.516062 197:-0.456739 198:-0.269196 199:-0.232288 200:-0.240462 201:-0.0836224 202:-0.00379464 203:0.0740387 204:0.0957348 205:0.123242 206:0.176137 207:0.230437 208:0.248364 209:0.177161 210:0.0770903 211:0.110621 212:0.17036 213:0.212054 214:0.221132 215:0.204578 216:0.219027 217:0.254047 218:0.289989 219:0.313366 220:0.328599 221:0.248671 222:0.142828 223:0.0101 224:-0.0448428 225:-0.0166738 226:-0.0563453 227:-0.0768652 228:-0.14426 229:-0.355122 230:-0.394684 231:-0.553964 232:-0.670919 233:-0.743712 234:-0.687303 235:-0.641069 236:-0.521855 237:-0.49249 238:-0.260473 239:-0.0452336 240:0.239001 241:0.446541 242:0.581486 243:0.599403 244:0.602096 245:0.706463 246:0.787753 247:0.806918 248:0.851945 249:0.858844 250:0.834256 251:0.813869 252:0.807886 253:0.819162 254:0.82286 255:0.799339 256:0.767942 257:0.657208 258:0.497578 259:0.371749 260:0.33309 261:0.220272 262:-0.0426648 263:-0.0962096 264:-0.210772 265:-0.21146 266:-0.385298 267:-0.667899 268:-0.82412 269:-0.740335 270:-0.590534 271:-0.496494 272:-0.140128 273:-0.0257847 274:-0.110474 275:0.109276 276:0.386325 277:0.521876 278:0.721024 279:0.757829 280:0.752505 281:0.760485 282:0.772603 283:0.782365 284:0.735264 285:0.664333 286:0.586725 287:0.524876 288:0.507789 289:0.482633 290:0.421445 291:0.336477 292:0.273512 293:0.235159 294:0.199173 295:0.148731 296:0.104838 297:0.129016 298:0.191331 299:0.244918 300:0.273525 301:0.440856 302:0.401669 303:0.368789 304:0.340007 305:0.308977 306:0.275905 307:0.242883 308:0.213475 309:0.189619 310:0.16951 311:0.148835 312:0.122349 313:0.0432678 314:-0.0637788 315:-0.16249 316:-0.242877 317:-0.300085 318:-0.352347 319:-0.402961 320:-0.453861 321:-0.510234 322:-0.552815 323:-0.583151 324:-0.60535 325:-0.635305 326:-0.658216 327:-0.677637 328:-0.692986 329:-0.702276 330:-0.714487 331:-0.726209 332:-0.751425 333:-0.772662 334:-0.796035 335:-0.812978 336:-0.799032 337:-0.76383 338:-0.738421 339:-0.715004 340:-0.724503 341:-0.755601 342:-0.767339 343:-0.738095 344:-0.687671 345:-0.639528 346:-0.59187 347:-0.537693 348:-0.474925 349:-0.398081 350:-0.273932 351:-0.0892222 352:0.122305 353:0.297342 354:0.481198 355:0.61816 356:0.541781 357:0.452058 358:0.358683 359:0.258562 360:0.153501 361:0.0471916 362:-0.0597276 363:-0.170213 364:-0.257497 365:-0.3326 366:-0.397189 367:-0.449194 368:-0.494169 369:-0.515205 370:-0.538752 371:-0.581874 372:-0.66749 373:-0.743764 374:-0.741991 375:-0.725656 376:-0.685608 377:-0.640508 378:-0.597852 379:-0.57568 380:-0.594497 381:-0.559273 382:-0.512634 383:-0.463055 384:-0.422634 385:-0.377113 386:-0.340596 387:-0.308958 388:-0.381546 389:-0.47133 390:-0.522351 391:-0.542441 392:-0.540342 393:-0.529252 394:-0.525987 395:-0.511798 396:-0.354762 397:-0.223243 398:-0.103168 399:-0.0909533 400:-0.213628 401:-0.433056 402:-0.37975 403:-0.327564 404:-0.280135 405:-0.237078 406:-0.193079 407:-0.130523 408:-0.0708987 409:-0.016341 410:0.0355377 411:0.0866417 412:0.134255 413:0.180451 414:0.224287 415:0.270991 416:0.320847 417:0.362938 418:0.390686 419:0.4175 420:0.432902 421:0.486284 422:0.511334 423:0.543572 424:0.542779 425:0.52368 426:0.461563 427:0.358763 428:0.289466 429:0.197102 430:0.108259 431:0.0140423 432:-0.101811 433:-0.259255 434:-0.416491 435:-0.518837 436:-0.605193 437:-0.657952 438:-0.679778 439:-0.690242 440:-0.656117 441:-0.620701 442:-0.49572 443:-0.36487 444:-0.239882 445:-0.120166 446:-0.00435168 447:0.083589 448:0.150687 449:0.216215 450:0.259367 451:0.312457 452:0.370228 453:0.450792 454:0.516578 455:0.559006 456:0.606148 457:0.631337 458:0.644812 459:0.648323 460:0.639921 461:0.621376 462:0.592864 463:0.550397 464:0.493271 465:0.423127 466:0.341288 467:0.246392 468:0.137111 469:0.0130887 470:-0.11971 471:-0.223434 472:-0.291033 473:-0.339076 474:-0.358625 475:-0.3624 476:-0.359632 477:-0.354877 478:-0.336808 479:-0.313978 480:-0.294883 481:-0.278353 482:-0.262751 483:-0.24795 484:-0.236331 485:-0.229769 486:-0.220707 487:-0.20642 488:-0.176127 489:-0.153384 490:-0.137727 491:-0.131501 492:-0.131274 493:-0.134725 494:-0.1442 495:-0.160261 496:-0.182762 497:-0.206896 498:-0.239874 499:-0.271478 500:-0.284757 501:0.998859 502:0.989969 503:0.989905 504:0.999204 505:0.992942 506:0.976888 507:0.976777 508:0.977232 509:0.977911 510:0.984983 511:0.985961 512:0.995143 513:0.993082 514:0.987763 515:0.991986 516:0.996254 517:1 518:0.996699 519:1 520:0.993527 521:0.993386 522:0.992007 523:0.989719 524:0.98594 525:1 526:1 527:0.25544 528:-1 529:-0.992089 530:-0.99561 531:-0.98022 532:-0.949507 533:-0.926794 534:-0.911457 535:-0.886669 536:-0.86377 537:-0.841355 538:-0.825292 539:-0.807112 540:-0.790057 541:-0.767308 542:-0.748433 543:-0.733891 544:-0.726199 545:-0.710454 546:-0.702425 547:-0.686094 548:-0.670228 549:-0.667521 550:-0.653859 551:-0.640195 552:-0.629101 553:-0.620897 554:-0.614761 555:-0.610832 556:-0.609732 557:-0.612878 558:-0.620911 559:-0.633486 560:-0.650299 561:-0.671397 562:-0.69632 563:-0.724169 564:-0.751279 565:-0.777837 566:-0.805508 567:-0.839212 568:-0.869036 569:-0.905754 570:-0.935614 571:-0.955084 572:-0.98261 573:-0.973004 574:-0.991594 575:-0.992757 576:-0.990486 577:-0.991425 578:-0.974744 579:-0.976401 580:-0.963358 581:-0.957796 582:-0.956315 583:-0.958305 584:-0.952813 585:-0.953429 586:-0.953736 587:-0.946662 588:-0.94715 589:-0.944345 590:-0.946698 591:-0.945782 592:-0.947608 593:-0.9421 594:-0.941978 595:-0.946 596:-0.931879 597:-0.931916 598:-0.932114 599:-0.927991 600:-0.921531 
0.2177922072625796 1:-0.376868 2:-0.45396 3:-0.44062 4:-0.355754 5:-0.305961 6:-0.318493 7:-0.4358 8:-0.399231 9:-0.465562 10:-0.710388 11:-0.841326 12:-0.751895 13:-0.751809 14:-1 15:-1 16:-1 17:-1 18:-1 19:-1 20:-0.779308 21:-0.335721 22:1 23:1 24:0.494807 25:-0.221624 26:0.916478 27:1 28:0.782339 29:-0.144906 30:-0.175128 31:0.125239 32:0.261283 33:-0.0644447 34:-0.209109 35:-0.191438 36:-0.33914 37:-0.56132 38:-0.836521 39:-1 40:-1 41:-1 42:-1 43:-1 44:-1 45:-0.263942 46:-0.186502 47:-0.138343 48:-0.168259 49:-0.511413 50:-0.435722 51:-0.340596 52:-0.456565 53:-0.146803 54:0.0232379 55:0.280898 56:0.246236 57:0.167602 58:-0.0052149 59:0.207172 60:0.0530547 61:-0.00544126 62:-0.0794346 63:0.30089 64:0.253862 65:0.0120483 66:-0.174667 67:-0.224471 68:-0.095796 69:-0.49446 70:-0.399771 71:-0.258236 72:-0.380404 73:-0.244331 74:-0.220032 75:0.163645 76:0.308233 77:0.287611 78:0.212978 79:0.0271904 80:0.0719672 81:0.0247554 82:-0.0494463 83:0.157396 84:0.513208 85:0.490432 86:0.423064 87:0.486401 88:0.586625 89:0.561037 90:0.534441 91:0.526299 92:0.565304 93:0.575182 94:0.444042 95:0.189352 96:0.192622 97:0.227519 98:0.278751 99:0.0250786 100:0.0545077 101:0.417115 102:0.444222 103:0.507195 104:0.590719 105:0.564961 106:0.563461 107:0.54021 108:0.509188 109:0.441961 110:0.344302 111:0.257225 112:0.244455 113:0.184564 114:0.138148 115:0.138212 116:0.14435 117:0.173009 118:0.169784 119:0.0718611 120:-0.257272 121:-0.542716 122:-0.850676 123:-1 124:-0.917898 125:-0.632313 126:-0.324037 127:-0.0426609 128:0.159508 129:0.212346 130:0.236671 131:0.321868 132:0.429761 133:0.52787 134:0.610833 135:0.614958 136:0.609057 137:0.846235 138:0.81695 139:0.833569 140:0.860869 141:0.939278 142:0.988071 143:0.948805 144:0.74923 145:0.295567 146:0.0690669 147:0.0768408 148:0.122503 149:0.129181 150:0.148001 151:0.183194 152:0.1727 153:0.0696084 154:-0.047958 155:-0.147074 156:-0.274397 157:-0.338702 158:-0.314024 159:-0.36867 160:-0.285357 161:-0.194527 162:-0.176251 163:-0.142041 164:-0.0343093 165:0.0913136 166:0.0780621 167:0.0314032 168:-0.0561231 169:-0.139595 170:-0.143037 171:-0.142643 172:-0.112454 173:-0.0974585 174:-0.192177 175:-0.263248 176:-0.324013 177:-0.404677 178:-0.584098 179:-0.681828 180:-0.63047 181:-0.516203 182:-0.46688 183:-0.309792 184:-0.241661 185:-0.288042 186:-0.312453 187:-0.304919 188:-0.295969 189:-0.306889 190:-0.271814 191:-0.244599 192:-0.234302 193:-0.220283 194:-0.206371 195:-0.210148 196:-0.221819 197:-0.215503 198:-0.114725 199:-0.191274 200:-0.282081 201:0.112139 202:0.252037 203:0.324797 204:0.352479 205:0.345695 206:0.23576 207:0.0676542 208:-0.0982463 209:-0.303492 210:-0.621027 211:-0.727392 212:-0.755404 213:-0.798867 214:-0.869364 215:-0.948544 216:-1 217:-1 218:-1 219:-1 220:-1 221:-1 222:-0.706345 223:-0.356966 224:0.217419 225:0.552317 226:0.700093 227:0.795801 228:0.853446 229:0.869675 230:0.883268 231:0.874913 232:0.800522 233:0.739632 234:0.634814 235:0.47135 236:0.236156 237:-0.208692 238:-0.540972 239:-0.887236 240:-1 241:-1 242:-1 243:-1 244:-0.718471 245:-0.333979 246:0.0529724 247:0.0957797 248:0.150418 249:0.190739 250:0.172067 251:0.157162 252:0.158657 253:0.197769 254:0.229017 255:0.220178 256:0.269116 257:0.307333 258:0.248162 259:0.199945 260:0.288796 261:0.306427 262:0.198066 263:0.2827 264:0.337932 265:0.451488 266:0.484948 267:0.467559 268:0.494164 269:0.624124 270:0.683586 271:0.591118 272:0.545229 273:0.580205 274:0.567979 275:0.554962 276:0.529259 277:0.462412 278:0.533766 279:0.53524 280:0.557021 281:0.598746 282:0.645758 283:0.696534 284:0.712757 285:0.733415 286:0.739333 287:0.75281 288:0.797353 289:0.85781 290:0.889848 291:0.895439 292:0.913612 293:0.892031 294:0.843363 295:0.800444 296:0.758565 297:0.732813 298:0.752991 299:0.788072 300:0.812903 301:0.321737 302:0.334928 303:0.333088 304:0.34034 305:0.346332 306:0.349035 307:0.345186 308:0.343749 309:0.346683 310:0.341683 311:0.335833 312:0.319457 313:0.189914 314:-0.0126789 315:-0.221976 316:-0.426576 317:-0.598291 318:-0.73402 319:-0.822751 320:-0.884896 321:-0.938032 322:-0.825254 323:-0.585116 324:-0.479477 325:-0.52473 326:-0.514517 327:-0.41999 328:-0.315307 329:-0.227317 330:-0.150616 331:-0.064257 332:0.0164435 333:0.0825584 334:0.123207 335:0.14141 336:0.121495 337:0.0577505 338:-0.0621577 339:-0.199616 340:-0.335765 341:-0.465776 342:-0.565282 343:-0.635496 344:-0.665158 345:-0.660254 346:-0.664493 347:-0.687418 348:-0.711415 349:-0.73117 350:-0.736797 351:-0.748783 352:-0.788168 353:-0.825995 354:-0.821562 355:-0.80383 356:-0.813428 357:-0.825766 358:-0.820975 359:-0.826658 360:-0.839971 361:-0.846008 362:-0.845909 363:-0.850049 364:-0.819834 365:-0.800719 366:-0.799653 367:-0.800575 368:-0.804187 369:-0.797144 370:-0.786966 371:-0.787364 372:-0.834063 373:-0.873218 374:-0.855674 375:-0.846018 376:-0.842188 377:-0.849901 378:-0.828621 379:-0.807521 380:-0.823296 381:-0.787679 382:-0.762119 383:-0.740667 384:-0.721412 385:-0.685965 386:-0.64802 387:-0.603847 388:-0.615779 389:-0.645855 390:-0.65982 391:-0.661643 392:-0.647306 393:-0.620962 394:-0.602751 395:-0.582393 396:-0.428725 397:-0.309694 398:-0.186702 399:-0.177692 400:-0.290372 401:-0.26759 402:-0.0753569 403:0.104725 404:0.273056 405:0.427156 406:0.561387 407:0.678488 408:0.773357 409:0.852081 410:0.909536 411:0.945165 412:0.956629 413:0.936524 414:0.887518 415:0.810988 416:0.695712 417:0.513201 418:0.25698 419:-0.073461 420:-0.499468 421:-0.78749 422:-1 423:-1 424:-0.980445 425:-0.843539 426:-0.740505 427:-0.656045 428:-0.441723 429:-0.282367 430:-0.123424 431:0.0237009 432:0.144565 433:0.229057 434:0.299372 435:0.379276 436:0.426805 437:0.445032 438:0.424358 439:0.350959 440:0.21604 441:0.0019732 442:-0.212911 443:-0.405352 444:-0.500951 445:-0.538768 446:-0.518116 447:-0.477883 448:-0.445144 449:-0.421979 450:-0.416708 451:-0.405415 452:-0.399839 453:-0.398085 454:-0.41663 455:-0.453988 456:-0.493544 457:-0.541773 458:-0.592487 459:-0.644125 460:-0.695886 461:-0.746042 462:-0.791442 463:-0.828893 464:-0.86187 465:-0.889505 466:-0.910909 467:-0.927061 468:-0.939537 469:-0.946064 470:-0.945303 471:-0.941005 472:-0.939641 473:-0.93595 474:-0.912935 475:-0.901105 476:-0.902873 477:-0.913476 478:-0.915148 479:-0.911022 480:-0.911188 481:-0.913332 482:-0.915791 483:-0.91845 484:-0.923287 485:-0.93019 486:-0.928682 487:-0.914312 488:-0.873335 489:-0.842423 490:-0.818257 491:-0.801952 492:-0.792085 493:-0.789217 494:-0.794622 495:-0.808395 496:-0.82872 497:-0.855287 498:-0.877824 499:-0.881744 500:-0.852254 501:-1 502:-1 503:-1 504:-1 505:-1 506:-1 507:-0.998111 508:-0.99451 509:-0.990447 510:-0.981011 511:-0.970069 512:-0.961876 513:-0.958359 514:-0.958185 515:-0.957554 516:-0.956565 517:-0.95486 518:-0.949423 519:-0.944633 520:-0.923386 521:-0.888785 522:-0.844491 523:-0.79967 524:-0.768579 525:-0.73032 526:-0.700796 527:-0.682956 528:-0.652447 529:-0.639559 530:-0.629658 531:-0.611319 532:-0.588503 533:-0.580256 534:-0.583135 535:-0.583904 536:-0.600758 537:-0.628783 538:-0.67781 539:-0.736981 540:-0.797506 541:-0.849123 542:-0.898051 543:-0.942075 544:-0.980535 545:-0.994858 546:-1 547:-0.993169 548:-0.988102 549:-1 550:-0.999248 551:-0.997026 552:-0.994899 553:-0.992015 554:-0.987948 555:-0.983637 556:-0.97812 557:-0.972 558:-0.967832 559:-0.965431 560:-0.964009 561:-0.963794 562:-0.963246 563:-0.961206 564:-0.959305 565:-0.957083 566:-0.956156 567:-0.962982 568:-0.965593 569:-0.976836 570:-0.984877 571:-0.98455 572:-0.996214 573:-0.974224 574:-0.984339 575:-0.984407 576:-0.984978 577:-0.98836 578:-0.974325 579:-0.979367 580:-0.971432 581:-0.971661 582:-0.974649 583:-0.980301 584:-0.977737 585:-0.980604 586:-0.981988 587:-0.974997 588:-0.975019 589:-0.97342 590:-0.978793 591:-0.981491 592:-0.987006 593:-0.985911 594:-0.98989 595:-0.997914 596:-0.987109 597:-0.989842 598:-0.994302 599:-0.99271 600:-0.985551 
0.1416486065854832 1:-0.399647 2:-0.469175 3:-0.358985 4:-0.231302 5:-0.205225 6:-0.251845 7:-0.366775 8:-0.332096 9:-0.430809 10:-0.645432 11:-0.901627 12:-1 13:-1 14:-0.999896 15:-0.782558 16:-0.639461 17:-0.522322 18:-0.422511 19:-0.614194 20:-0.510194 21:-0.413933 22:-0.522706 23:-0.131263 24:1 25:1 26:0.618873 27:0.15898 28:0.323174 29:-0.108618 30:-0.0387468 31:0.194266 32:0.273364 33:0.0944705 34:0.0891571 35:0.0800903 36:-0.0736219 37:-0.319307 38:-0.302145 39:-0.101581 40:-0.40953 41:-0.637043 42:-0.677972 43:-0.416365 44:-0.638267 45:-0.710094 46:-1 47:-1 48:-1 49:-0.710829 50:0.327511 51:0.0499425 52:-0.439386 53:-0.252493 54:-0.123343 55:0.127319 56:0.0614014 57:-0.197658 58:-0.259669 59:0.184028 60:0.333115 61:0.323705 62:0.0871203 63:0.411178 64:0.354212 65:0.180277 66:0.00925705 67:-0.119997 68:-0.00423681 69:-0.40146 70:-0.32362 71:-0.310998 72:-0.523531 73:-0.429305 74:-0.416951 75:-0.0843045 76:0.0153037 77:-0.0704311 78:0.170032 79:0.368001 80:0.450099 81:0.284658 82:0.134233 83:0.349008 84:0.77535 85:0.690488 86:0.429442 87:0.428318 88:0.568997 89:0.579814 90:0.541228 91:0.500161 92:0.498924 93:0.464511 94:0.348897 95:0.173903 96:0.296882 97:0.426538 98:0.584478 99:0.387274 100:0.181048 101:0.313766 102:0.357536 103:0.415391 104:0.50159 105:0.546672 106:0.587626 107:0.613354 108:0.585015 109:0.580253 110:0.57114 111:0.553852 112:0.520129 113:0.43294 114:0.366877 115:0.295984 116:0.162987 117:-0.062712 118:-0.311939 119:-0.471424 120:-0.572819 121:-0.732627 122:-0.948552 123:-0.713371 124:-0.911083 125:-0.90888 126:-0.585972 127:-0.313763 128:-0.0820679 129:0.0690803 130:0.212945 131:0.316931 132:0.371723 133:0.45084 134:0.586673 135:0.63381 136:0.618702 137:0.821995 138:0.766384 139:0.691267 140:0.649923 141:0.675397 142:0.770907 143:0.922921 144:1 145:1 146:1 147:1 148:0.868395 149:0.498686 150:0.158503 151:0.111344 152:0.136293 153:0.138487 154:0.0528601 155:-0.0484617 156:-0.166708 157:-0.236917 158:-0.24479 159:-0.345135 160:-0.302638 161:-0.247494 162:-0.252327 163:-0.228676 164:-0.112001 165:0.018195 166:0.00956774 167:-0.0306035 168:-0.0959476 169:-0.161372 170:-0.140737 171:-0.112535 172:-0.0727982 173:-0.0592415 174:-0.173484 175:-0.27571 176:-0.34266 177:-0.461627 178:-0.641282 179:-0.721965 180:-0.672055 181:-0.570269 182:-0.536777 183:-0.360886 184:-0.239971 185:-0.222127 186:-0.232249 187:-0.24453 188:-0.262894 189:-0.295453 190:-0.259732 191:-0.194869 192:-0.142866 193:-0.118969 194:-0.119717 195:-0.137002 196:-0.137858 197:-0.131834 198:-0.0716855 199:-0.152409 200:-0.260694 201:0.110597 202:0.316034 203:0.416676 204:0.395351 205:0.357793 206:0.24555 207:0.0839878 208:-0.137955 209:-0.48812 210:-0.765201 211:-0.763701 212:-0.766764 213:-0.739159 214:-0.734657 215:-0.752405 216:-0.724337 217:-0.702546 218:-0.725303 219:-0.70275 220:-0.635325 221:-0.802589 222:-1 223:-1 224:-0.493819 225:0.0454864 226:0.36889 227:0.575984 228:0.722383 229:0.797931 230:0.915757 231:1 232:1 233:1 234:0.912016 235:0.804709 236:0.695561 237:0.443802 238:0.206562 239:-0.0510744 240:-0.230935 241:-0.328396 242:-0.39077 243:-0.624325 244:-1 245:-1 246:-1 247:-0.979491 248:-0.539789 249:-0.326016 250:-0.0312977 251:0.123417 252:0.255663 253:0.365704 254:0.427945 255:0.427527 256:0.467958 257:0.459238 258:0.365141 259:0.318663 260:0.396909 261:0.397164 262:0.269239 263:0.318528 264:0.33504 265:0.395443 266:0.360156 267:0.272446 268:0.250057 269:0.35521 270:0.407986 271:0.300563 272:0.293973 273:0.325129 274:0.291849 275:0.392699 276:0.527438 277:0.523562 278:0.620394 279:0.610831 280:0.631986 281:0.677043 282:0.703032 283:0.714173 284:0.686256 285:0.679311 286:0.711363 287:0.769408 288:0.863222 289:0.949628 290:0.974252 291:0.954222 292:0.944792 293:0.898392 294:0.834844 295:0.785469 296:0.740543 297:0.725041 298:0.731711 299:0.759553 300:0.79811 301:0.234313 302:0.24544 303:0.255054 304:0.277682 305:0.298421 306:0.306747 307:0.30363 308:0.298996 309:0.281348 310:0.243232 311:0.176129 312:0.058462 313:-0.141507 314:-0.35576 315:-0.53513 316:-0.667033 317:-0.727763 318:-0.750854 319:-0.77004 320:-0.795523 321:-0.82175 322:-0.829026 323:-0.790689 324:-0.668002 325:-0.581639 326:-0.574925 327:-0.584219 328:-0.548126 329:-0.470065 330:-0.383541 331:-0.299776 332:-0.233568 333:-0.16024 334:-0.0851012 335:-0.0261971 336:0.00951384 337:0.0188244 338:0.0129412 339:-0.00320477 340:-0.0636493 341:-0.179568 342:-0.314818 343:-0.424212 344:-0.49798 345:-0.561202 346:-0.613061 347:-0.659945 348:-0.698388 349:-0.705639 350:-0.645741 351:-0.612345 352:-0.641798 353:-0.681323 354:-0.671445 355:-0.653666 356:-0.680501 357:-0.724679 358:-0.752745 359:-0.761483 360:-0.750783 361:-0.728679 362:-0.716117 363:-0.722597 364:-0.702491 365:-0.685045 366:-0.67418 367:-0.667518 368:-0.667873 369:-0.656295 370:-0.641496 371:-0.637344 372:-0.676788 373:-0.696271 374:-0.656093 375:-0.631591 376:-0.592519 377:-0.607518 378:-0.604668 379:-0.569041 380:-0.576173 381:-0.573584 382:-0.594755 383:-0.604938 384:-0.57868 385:-0.499439 386:-0.406643 387:-0.310888 388:-0.318902 389:-0.361184 390:-0.378563 391:-0.371639 392:-0.327207 393:-0.258834 394:-0.184127 395:-0.0813316 396:0.154722 397:0.399767 398:0.661604 399:0.904924 400:1 401:-0.452141 402:-0.261194 403:-0.0807111 404:0.0799016 405:0.220826 406:0.343663 407:0.451817 408:0.538116 409:0.596847 410:0.640704 411:0.676182 412:0.687591 413:0.676426 414:0.642949 415:0.593255 416:0.523768 417:0.408339 418:0.234124 419:0.00360667 420:-0.289912 421:-0.4937 422:-0.744323 423:-0.882492 424:-1 425:-1 426:-1 427:-0.989862 428:-0.797157 429:-0.645971 430:-0.465733 431:-0.281954 432:-0.124693 433:-0.00968871 434:0.0989302 435:0.227018 436:0.328624 437:0.405629 438:0.470982 439:0.512948 440:0.529942 441:0.476726 442:0.403566 443:0.307 444:0.185099 445:0.0397679 446:-0.131599 447:-0.291653 448:-0.394528 449:-0.460194 450:-0.497298 451:-0.48668 452:-0.45788 453:-0.42127 454:-0.397576 455:-0.392904 456:-0.393737 457:-0.409137 458:-0.433992 459:-0.463905 460:-0.495897 461:-0.528686 462:-0.561531 463:-0.594589 464:-0.628301 465:-0.663352 466:-0.703106 467:-0.746679 468:-0.792145 469:-0.83917 470:-0.887495 471:-0.93223 472:-0.971008 473:-1 474:-1 475:-1 476:-1 477:-1 478:-0.984559 479:-0.970681 480:-0.965542 481:-0.961718 482:-0.958883 483:-0.958165 484:-0.964474 485:-0.977395 486:-0.981198 487:-0.967507 488:-0.922433 489:-0.885825 490:-0.856396 491:-0.836729 492:-0.824275 493:-0.819867 494:-0.823586 495:-0.834442 496:-0.85147 497:-0.872825 498:-0.890893 499:-0.899452 500:-0.879499 501:-0.98491 502:-0.985099 503:-0.985066 504:-0.984515 505:-0.984926 506:-0.986244 507:-0.986805 508:-0.986276 509:-0.988121 510:-0.988252 511:-0.989841 512:-0.995421 513:0.704069 514:0.994923 515:0.993478 516:0.998059 517:0.077688 518:-0.977504 519:-0.958584 520:-0.931942 521:-0.90177 522:-0.859824 523:-0.823569 524:-0.798721 525:-0.758982 526:-0.725988 527:-0.704032 528:-0.673512 529:-0.66571 530:-0.664587 531:-0.653072 532:-0.631643 533:-0.620223 534:-0.617561 535:-0.607848 536:-0.604114 537:-0.603814 538:-0.615499 539:-0.636724 540:-0.666791 541:-0.701812 542:-0.74688 543:-0.796939 544:-0.851466 545:-0.89708 546:-0.948577 547:-0.988245 548:0.968568 549:0.973157 550:0.971837 551:0.979055 552:0.985119 553:0.987852 554:0.988301 555:0.988159 556:0.987881 557:0.987454 558:0.986555 559:0.986418 560:0.987265 561:0.989914 562:0.9925 563:0.987886 564:0.992827 565:1 566:1 567:1 568:1 569:1 570:0.999577 571:1 572:0.998047 573:0.991628 574:0.979638 575:0.952381 576:0.932703 577:0.92873 578:0.926136 579:0.937904 580:0.941205 581:0.956206 582:0.964837 583:0.984177 584:0.985498 585:0.97921 586:0.972542 587:0.999422 588:0.993397 589:0.983951 590:0.950906 591:0.945935 592:0.935623 593:0.929708 594:0.917347 595:0.910644 596:0.904674 597:0.895907 598:0.884631 599:0.874951 600:0.86059 
0.04514428180779349 1:0.631989 2:0.430941 3:0.44423 4:0.475106 5:0.511054 6:0.720997 7:0.72485 8:0.691521 9:0.627896 10:0.405341 11:0.203249 12:0.112891 13:0.0530508 14:-0.0351888 15:0.0566679 16:0.124066 17:0.162497 18:0.199846 19:0.0793953 20:0.00072328 21:-0.131364 22:-0.604161 23:-0.777427 24:-0.647719 25:-0.591863 26:-0.513107 27:-0.658168 28:-0.845168 29:-0.900203 30:-0.722017 31:-0.394655 32:-0.325128 33:-0.504518 34:-0.613671 35:-0.437111 36:-0.241763 37:-0.258973 38:-0.197803 39:0.188061 40:0.134404 41:0.0995005 42:0.0260136 43:0.140207 44:-0.0201035 45:-0.0465497 46:-0.112987 47:0.0187015 48:-0.0179914 49:-0.481091 50:-0.568968 51:-0.527887 52:-0.731777 53:-0.591609 54:-0.6951 55:-0.516688 56:-0.582301 57:-0.842205 58:-0.911386 59:-0.634092 60:-1 61:-0.855935 62:-0.658392 63:-0.609722 64:-0.736334 65:0.0419184 66:0.895165 67:1 68:0.932321 69:-0.282097 70:-0.660886 71:-0.612465 72:-0.497853 73:-0.24729 74:-0.202395 75:0.177948 76:0.298677 77:0.156961 78:-0.108117 79:-0.477143 80:-0.359359 81:-0.346115 82:-0.460428 83:-0.433545 84:-0.257958 85:-0.111966 86:-0.0424152 87:0.029269 88:0.0475065 89:-0.0867212 90:-0.23892 91:-0.234133 92:-0.231459 93:-0.230606 94:-0.243109 95:-0.318886 96:-0.301419 97:-0.350018 98:-0.319849 99:-0.669516 100:-0.691588 101:-0.536172 102:-0.42451 103:-0.279541 104:-0.15536 105:-0.0434392 106:0.106632 107:0.246296 108:0.374736 109:0.505309 110:0.618964 111:0.71675 112:0.831563 113:0.893483 114:0.931146 115:0.972128 116:1 117:1 118:0.993899 119:0.975837 120:0.879177 121:0.845356 122:0.824916 123:0.823493 124:0.817946 125:0.805368 126:0.765324 127:0.759852 128:0.698677 129:0.604825 130:0.564222 131:0.453046 132:0.250144 133:0.197708 134:0.211165 135:0.19554 136:0.167866 137:0.344989 138:0.322125 139:0.291574 140:0.327896 141:0.38381 142:0.485008 143:0.602386 144:0.659033 145:0.635722 146:0.646384 147:0.70251 148:0.755989 149:0.707586 150:0.641348 151:0.592039 152:0.524427 153:0.366903 154:0.146193 155:-0.0676506 156:-0.318004 157:-0.550066 158:-0.72954 159:-0.932212 160:-0.891768 161:-0.887792 162:-0.916941 163:-0.92632 164:-0.793529 165:-0.63527 166:-0.649621 167:-0.66186 168:-0.671206 169:-0.663881 170:-0.549564 171:-0.415207 172:-0.265426 173:-0.159679 174:-0.184444 175:-0.192415 176:-0.18511 177:-0.191592 178:-0.315478 179:-0.361627 180:-0.270246 181:-0.127861 182:-0.00173466 183:0.216262 184:0.34843 185:0.343893 186:0.32973 187:0.311749 188:0.261829 189:0.206663 190:0.229993 191:0.274889 192:0.290991 193:0.259324 194:0.211711 195:0.174323 196:0.175794 197:0.204336 198:0.254561 199:0.228479 200:0.15896 201:0.130254 202:0.17057 203:0.191641 204:0.19805 205:0.205015 206:0.167658 207:0.050516 208:-0.120882 209:-0.349024 210:-0.588475 211:-0.564208 212:-0.45174 213:-0.345307 214:-0.298367 215:-0.278932 216:-0.227525 217:-0.168493 218:-0.12209 219:-0.0969378 220:-0.0833176 221:-0.243422 222:-0.484819 223:-0.805768 224:-0.986827 225:-0.946644 226:-1 227:-1 228:-1 229:-0.996376 230:-0.509001 231:-0.184099 232:0.0432642 233:0.420919 234:0.672493 235:0.8247 236:0.933913 237:1 238:1 239:1 240:1 241:1 242:0.995928 243:0.942963 244:0.894409 245:0.879924 246:0.851503 247:0.765257 248:0.716823 249:0.666826 250:0.588554 251:0.53933 252:0.507949 253:0.503693 254:0.476925 255:0.392112 256:0.325988 257:0.222445 258:-0.0240546 259:-0.323221 260:-0.366596 261:-0.48928 262:-0.889804 263:-0.916747 264:-0.835853 265:-0.603874 266:-0.425428 267:-0.103047 268:0.176324 269:0.460928 270:0.6075 271:0.564686 272:0.539731 273:0.54396 274:0.459865 275:0.409895 276:0.362782 277:0.273438 278:0.329578 279:0.333963 280:0.357921 281:0.396577 282:0.418511 283:0.433197 284:0.409677 285:0.387606 286:0.360573 287:0.344733 288:0.392973 289:0.441715 290:0.460228 291:0.460168 292:0.467477 293:0.467096 294:0.450645 295:0.418484 296:0.390885 297:0.394646 298:0.408097 299:0.415662 300:0.424189 301:0.595706 302:0.597936 303:0.601105 304:0.609788 305:0.626657 306:0.656127 307:0.692401 308:0.73197 309:0.774997 310:0.816672 311:0.847564 312:0.865206 313:0.761244 314:0.599576 315:0.44594 316:0.317006 317:0.212595 318:0.122823 319:0.0416944 320:-0.042547 321:-0.12996 322:-0.217434 323:-0.293675 324:-0.350765 325:-0.406626 326:-0.447987 327:-0.474414 328:-0.48946 329:-0.492298 330:-0.474122 331:-0.436852 332:-0.427992 333:-0.447377 334:-0.468096 335:-0.485566 336:-0.489819 337:-0.488861 338:-0.487019 339:-0.462828 340:-0.449147 341:-0.45275 342:-0.456604 343:-0.441613 344:-0.423194 345:-0.415626 346:-0.413809 347:-0.411166 348:-0.40789 349:-0.408934 350:-0.396691 351:-0.380163 352:-0.396814 353:-0.477606 354:-0.54766 355:-0.620538 356:-0.694498 357:-0.735615 358:-0.75714 359:-0.779875 360:-0.801202 361:-0.814709 362:-0.830274 363:-0.870551 364:-0.893652 365:-0.883753 366:-0.817666 367:-0.703613 368:-0.638668 369:-0.643225 370:-0.689894 371:-0.724004 372:-0.783549 373:-0.821708 374:-0.795199 375:-0.777773 376:-0.763936 377:-0.764487 378:-0.751629 379:-0.745092 380:-0.775412 381:-0.755537 382:-0.743883 383:-0.746699 384:-0.757463 385:-0.736336 386:-0.697341 387:-0.648982 388:-0.662167 389:-0.709498 390:-0.752675 391:-0.78197 392:-0.797557 393:-0.813221 394:-0.841188 395:-0.860425 396:-0.709244 397:-0.594882 398:-0.501209 399:-0.556232 400:-0.74163 401:-0.0397714 402:0.00178069 403:0.038465 404:0.0717645 405:0.100968 406:0.125972 407:0.156215 408:0.177904 409:0.192927 410:0.205741 411:0.219683 412:0.233609 413:0.249073 414:0.263463 415:0.280214 416:0.298171 417:0.30397 418:0.28824 419:0.260829 420:0.198828 421:0.193745 422:0.142738 423:0.0954841 424:-0.0222698 425:-0.157619 426:-0.364597 427:-0.636912 428:-0.785778 429:-0.940421 430:-1 431:-1 432:-1 433:-1 434:-0.972166 435:-0.866221 436:-0.768311 437:-0.666783 438:-0.552094 439:-0.442688 440:-0.313671 441:-0.202573 442:-0.041084 443:0.113247 444:0.258209 445:0.393888 446:0.521755 447:0.608211 448:0.667958 449:0.731894 450:0.766427 451:0.804807 452:0.84433 453:0.907155 454:0.941666 455:0.939015 456:0.939033 457:0.903612 458:0.838316 459:0.749464 460:0.638215 461:0.510335 462:0.36709 463:0.213406 464:0.0703176 465:-0.0613165 466:-0.167427 467:-0.236026 468:-0.279129 469:-0.30419 470:-0.316545 471:-0.322272 472:-0.324932 473:-0.326293 474:-0.317178 475:-0.315485 476:-0.322197 477:-0.335409 478:-0.345135 479:-0.351109 480:-0.358922 481:-0.367113 482:-0.375649 483:-0.384285 484:-0.394819 485:-0.407436 486:-0.414687 487:-0.413932 488:-0.392747 489:-0.377794 490:-0.367131 491:-0.361837 492:-0.360545 493:-0.361805 494:-0.366964 495:-0.376645 496:-0.389637 497:-0.403977 498:-0.425182 499:-0.446271 500:-0.44756 501:-0.541087 502:-0.53061 503:-0.518602 504:-0.504375 505:-0.494938 506:-0.489382 507:-0.480143 508:-0.471671 509:-0.466162 510:-0.458673 511:-0.454759 512:-0.45211 513:-0.454514 514:-0.459566 515:-0.4632 516:-0.467099 517:-0.473038 518:-0.482968 519:-0.500201 520:-0.518278 521:-0.538484 522:-0.558752 523:-0.585375 524:-0.622642 525:-0.647348 526:-0.674879 527:-0.706359 528:-0.720988 529:-0.749597 530:-0.78265 531:-0.798357 532:-0.793386 533:-0.788826 534:-0.790578 535:-0.781499 536:-0.774057 537:-0.766966 538:-0.767216 539:-0.765426 540:-0.762109 541:-0.752292 542:-0.745294 543:-0.742174 544:-0.746043 545:-0.742783 546:-0.748484 547:-0.748059 548:-0.749715 549:-0.766187 550:-0.771564 551:-0.775816 552:-0.780942 553:-0.790421 554:-0.798725 555:-0.803678 556:-0.799328 557:-0.786472 558:-0.768113 559:-0.746492 560:-0.722554 561:-0.696539 562:-0.668995 563:-0.640673 564:-0.610018 565:-0.579362 566:-0.55087 567:-0.53083 568:-0.511334 569:-0.499246 570:-0.487092 571:-0.475344 572:-0.476732 573:-0.456614 574:-0.465332 575:-0.473124 576:-0.479298 577:-0.487855 578:-0.485947 579:-0.495783 580:-0.498648 581:-0.505572 582:-0.517122 583:-0.527474 584:-0.53409 585:-0.545687 586:-0.556258 587:-0.553741 588:-0.563306 589:-0.570466 590:-0.586692 591:-0.595215 592:-0.606862 593:-0.611483 594:-0.621464 595:-0.634001 596:-0.631197 597:-0.64027 598:-0.648805 599:-0.652989 600:-0.65512 
