svm_type c_svc
kernel_type rbf
gamma 0.0078125
nr_class 2
total_sv 27
rho -0.964917
label 0 1
nr_sv 18 9
SV
0.0817293245102982 0:0.712778 1:0.583121 2:0.572753 3:0.567832 4:0.560502 5:0.706445 6:0.619812 7:0.462733 8:0.23013 9:-0.0368432 10:-0.151092 11:-0.207002 12:-0.123235 13:-0.116248 14:-0.177287 15:-0.329525 16:-0.485245 17:-0.59561 18:-0.63978 19:-0.645466 20:-0.657336 21:-0.625405 22:-0.458196 23:-0.406783 24:-0.647914 25:-0.917937 26:-1 27:-1 28:-1 29:-0.984917 30:-0.849372 31:-0.632816 32:-0.419964 33:0.186945 34:0.619417 35:0.113642 36:0.0225795 37:-0.0432307 38:0.0725942 39:-0.0325424 40:0.130728 41:0.116659 42:0.00122136 43:0.0247368 44:-0.102999 45:-0.0315443 46:0.126404 47:0.280978 48:0.321249 49:0.255788 50:0.143475 51:-0.0059378 52:-0.252076 53:-0.816544 54:-1 55:-0.868573 56:-0.682833 57:-0.539373 58:-0.539728 59:-0.677381 60:-0.651962 61:-0.506257 62:-0.538133 63:-0.458093 64:-0.409644 65:-0.2774 66:-0.251791 67:0.246622 68:0.0958605 69:0.547368 70:0.630961 71:-0.0833753 72:-0.420227 73:-0.573402 74:-0.348874 75:-0.0847493 76:0.10185 77:0.419287 78:0.749582 79:1 80:0.79699 81:0.366716 82:0.229355 83:0.323549 84:0.284333 85:0.294293 86:0.376281 87:0.357247 88:0.222221 89:-0.0713357 90:-0.253364 91:-0.336147 92:-0.348243 93:-0.301889 94:-0.32293 95:-0.390889 96:-0.475426 97:-0.370248 98:-0.55994 99:-0.49564 100:0.349979 101:0.499346 102:0.59754 103:0.719802 104:0.839864 105:0.966274 106:1 107:1 108:1 109:1 110:1 111:1 112:1 113:1 114:0.966872 115:0.945614 116:0.91282 117:0.871579 118:0.799535 119:0.699109 120:0.576778 121:0.496552 122:0.472317 123:0.443558 124:0.364138 125:0.348723 126:0.429964 127:0.489229 128:0.51789 129:0.604477 130:0.593786 131:0.468111 132:0.278088 133:0.161109 134:0.070786 135:0.065806 136:0.240554 137:0.325252 138:0.457152 139:0.585449 140:0.627723 141:0.675757 142:0.653204 143:0.627917 144:0.604358 145:0.638961 146:0.718433 147:0.755539 148:0.76509 149:0.799938 150:0.823272 151:0.826098 152:0.757727 153:0.680268 154:0.598606 155:0.479702 156:0.320913 157:0.104622 158:-0.207664 159:-0.301228 160:-0.400844 161:-0.512597 162:-0.609989 163:-0.654971 164:-0.740265 165:-0.852074 166:-0.892445 167:-0.822118 168:-0.707013 169:-0.634873 170:-0.623698 171:-0.556826 172:-0.407319 173:-0.379512 174:-0.401695 175:-0.47766 176:-0.568027 177:-0.671499 178:-0.681723 179:-0.543675 180:-0.374435 181:-0.306063 182:-0.209575 183:-0.0830387 184:-0.0298897 185:0.0617041 186:0.0796386 187:0.125915 188:0.157142 189:0.25918 190:0.329368 191:0.351751 192:0.358203 193:0.35903 194:0.32279 195:0.316755 196:0.33901 197:0.351317 198:0.293914 199:0.190929 200:0.463577 201:0.518212 202:0.476562 203:0.409998 204:0.355074 205:0.267826 206:0.120365 207:-0.0730792 208:-0.304629 209:-0.540586 210:-0.507243 211:-0.49519 212:-0.508885 213:-0.561953 214:-0.664095 215:-0.799842 216:-0.852622 217:-0.934493 218:-1 219:-1 220:-1 221:-1 222:-1 223:-0.961206 224:-0.902231 225:-0.848319 226:-0.801953 227:-0.804614 228:-0.891853 229:-0.600814 230:-0.425973 231:-0.200993 232:0.0399024 233:0.306981 234:0.645504 235:0.739766 236:0.784033 237:0.832587 238:0.841784 239:0.849477 240:0.919905 241:1 242:1 243:1 244:1 245:0.972654 246:0.917119 247:0.86259 248:0.829173 249:0.769243 250:0.709966 251:0.667743 252:0.657508 253:0.642977 254:0.588376 255:0.462492 256:0.191094 257:-0.0866153 258:-0.207003 259:-0.261271 260:-0.375407 261:-0.415126 262:-0.459288 263:-0.549755 264:-0.567698 265:-0.788338 266:-1 267:-0.879471 268:-0.616605 269:-0.224447 270:0.0448234 271:0.143874 272:0.205966 273:0.526914 274:0.829697 275:0.888206 276:0.772856 277:0.799273 278:0.734299 279:0.792079 280:0.852624 281:0.858208 282:0.878143 283:0.852402 284:0.804859 285:0.74859 286:0.69109 287:0.640103 288:0.553381 289:0.467456 290:0.386209 291:0.313845 292:0.267518 293:0.218252 294:0.159003 295:0.0884829 296:0.0631231 297:0.0617141 298:0.0763104 299:0.0998918 
0.4020318541028262 0:-0.678646 1:-0.857144 2:-0.866683 3:-0.823854 4:-0.758689 5:-0.701059 6:-0.600776 7:-0.45922 8:-0.550689 9:-0.624957 10:-0.653653 11:-0.667599 12:-0.590248 13:-0.625996 14:-0.632216 15:-0.705846 16:-0.840298 17:-0.981373 18:-0.984854 19:-0.863688 20:-0.709172 21:-0.627096 22:-0.426101 23:-0.216817 24:-0.27642 25:-0.507196 26:-0.366935 27:0.131485 28:0.815569 29:1 30:1 31:0.590904 32:-0.0195746 33:-0.248584 34:0.279939 35:0.817099 36:1 37:0.927842 38:0.870089 39:0.760677 40:0.889725 41:0.965505 42:0.801827 43:0.761761 44:0.747963 45:0.818872 46:0.820043 47:0.84684 48:0.864544 49:0.651403 50:0.654072 51:0.692949 52:0.600736 53:0.367285 54:0.160817 55:0.0271298 56:0.0818927 57:0.0682772 58:0.0623711 59:-0.0950424 60:-0.195333 61:-0.162902 62:-0.150161 63:-0.236762 64:-0.698152 65:-1 66:-1 67:-1 68:-0.700841 69:0.161614 70:0.262562 71:-0.236626 72:-0.368005 73:-0.437219 74:-0.060182 75:0.279571 76:0.3313 77:0.258013 78:0.0450212 79:0.139165 80:0.143866 81:0.0832043 82:0.263591 83:0.611327 84:0.585106 85:0.460853 86:0.472704 87:0.563808 88:0.653439 89:0.673947 90:0.653827 91:0.662587 92:0.724963 93:0.751799 94:0.73258 95:0.718217 96:0.691069 97:0.763206 98:0.69832 99:0.629094 100:0.828037 101:0.841502 102:0.806978 103:0.714486 104:0.670885 105:0.706877 106:0.663909 107:0.635825 108:0.594606 109:0.591923 110:0.611145 111:0.619729 112:0.593652 113:0.569403 114:0.527523 115:0.472627 116:0.411908 117:0.342362 118:0.253841 119:0.134741 120:-0.0476613 121:-0.262715 122:-0.481607 123:-0.723267 124:-0.982428 125:-0.949637 126:-0.839361 127:-0.81418 128:-0.903899 129:-0.973203 130:-0.925609 131:-0.876099 132:-0.864029 133:-0.761252 134:-0.633751 135:-0.508161 136:-0.390046 137:-0.284175 138:-0.04745 139:0.154164 140:0.0566845 141:0.0842342 142:0.0910598 143:0.231201 144:0.362293 145:0.483558 146:0.618644 147:0.691691 148:0.73556 149:0.800741 150:0.855226 151:0.918995 152:0.944735 153:0.970043 154:0.980423 155:0.965244 156:0.939938 157:0.925806 158:0.908271 159:0.912959 160:0.928356 161:0.971087 162:1 163:1 164:1 165:0.90343 166:0.673749 167:0.421538 168:0.133648 169:-0.113124 170:-0.196628 171:-0.15374 172:-0.112465 173:-0.147686 174:-0.204414 175:-0.314853 176:-0.471436 177:-0.669013 178:-0.788604 179:-0.750099 180:-0.643958 181:-0.649228 182:-0.634066 183:-0.568093 184:-0.54813 185:-0.475014 186:-0.491588 187:-0.461245 188:-0.470375 189:-0.379834 190:-0.365805 191:-0.435801 192:-0.508632 193:-0.523425 194:-0.524529 195:-0.506573 196:-0.417315 197:-0.33151 198:-0.398184 199:-0.567347 200:-0.0262647 201:0.143652 202:0.27343 203:0.342822 204:0.35469 205:0.339058 206:0.332802 207:0.289691 208:0.180727 209:0.0165498 210:0.025366 211:0.0016078 212:-0.0585733 213:-0.144719 214:-0.224476 215:-0.327227 216:-0.37885 217:-0.442415 218:-0.481295 219:-0.475957 220:-0.519091 221:-0.596127 222:-0.665369 223:-0.685392 224:-0.684213 225:-0.679362 226:-0.612615 227:-0.548053 228:-0.63358 229:-0.376543 230:-0.0690718 231:0.295975 232:0.529472 233:0.780209 234:0.876814 235:0.861223 236:0.821806 237:0.772472 238:0.738561 239:0.71051 240:0.71829 241:0.725693 242:0.68589 243:0.639016 244:0.630501 245:0.617709 246:0.558926 247:0.469187 248:0.438594 249:0.351474 250:0.284604 251:0.236994 252:0.230592 253:0.206492 254:0.11691 255:-0.102433 256:-0.580825 257:-0.873754 258:-0.939459 259:-1 260:-1 261:-0.925127 262:-0.917575 263:-1 264:-1 265:-1 266:-0.593345 267:-0.047151 268:0.0313658 269:0.42619 270:0.628601 271:0.748898 272:0.808126 273:0.810955 274:0.843189 275:0.788566 276:0.662202 277:0.695029 278:0.625264 279:0.679762 280:0.735601 281:0.742784 282:0.764979 283:0.744835 284:0.704624 285:0.657604 286:0.62461 287:0.653789 288:0.63997 289:0.600637 290:0.552453 291:0.503357 292:0.47016 293:0.432017 294:0.38946 295:0.344373 296:0.338154 297:0.33914 298:0.341852 299:0.345502 
0.4540694460134634 0:-0.697274 1:-0.794549 2:-0.858821 3:-0.750027 4:-0.608602 5:-0.567773 6:-0.496952 7:-0.380481 8:-0.427462 9:-0.462601 10:-0.488807 11:-0.550555 12:-0.475811 13:-0.478972 14:-0.502803 15:-0.664716 16:-0.836187 17:-0.931377 18:-0.966923 19:-1 20:-1 21:-0.977578 22:-0.78827 23:-0.604893 24:-0.537904 25:-0.450587 26:-0.498165 27:-0.44705 28:-0.0885415 29:-0.0595428 30:0.329297 31:1 32:1 33:1 34:0.0332083 35:-0.449357 36:0.182296 37:0.611463 38:1 39:1 40:1 41:0.814399 42:0.579431 43:0.661323 44:0.798668 45:0.990413 46:1 47:1 48:0.95711 49:0.635768 50:0.62177 51:0.723056 52:0.711956 53:0.481683 54:0.102259 55:-0.166605 56:-0.180355 57:-0.18639 58:-0.14832 59:-0.182786 60:-0.156736 61:-0.0584565 62:-0.0996135 63:-0.273645 64:-0.77797 65:-0.858624 66:-0.750256 67:-0.774624 68:-0.822926 69:0.0158934 70:0.266594 71:-0.139058 72:-0.219228 73:-0.28802 74:0.0604242 75:0.31941 76:0.354315 77:0.308675 78:0.126182 79:0.184392 80:0.141427 81:0.0452003 82:0.232842 83:0.614867 84:0.595321 85:0.489477 86:0.537876 87:0.652657 88:0.763952 89:0.796767 90:0.780636 91:0.814426 92:0.902168 93:0.923895 94:0.891988 95:0.888384 96:0.794085 97:0.718926 98:0.507068 99:0.360666 100:1 101:1 102:0.938023 103:0.897372 104:0.867514 105:0.914972 106:0.860787 107:0.78198 108:0.714252 109:0.675259 110:0.655442 111:0.631373 112:0.60198 113:0.596773 114:0.569995 115:0.525902 116:0.466291 117:0.377932 118:0.260871 119:0.131437 120:-0.0436708 121:-0.26666 122:-0.491446 123:-0.694965 124:-0.920418 125:-0.935739 126:-0.886366 127:-0.86045 128:-0.883087 129:-0.932931 130:-0.95113 131:-1 132:-1 133:-0.867531 134:-0.692636 135:-0.539474 136:-0.451568 137:-0.364652 138:-0.106574 139:0.177658 140:0.171006 141:0.187258 142:0.122651 143:0.190015 144:0.2879 145:0.422482 146:0.583628 147:0.67592 148:0.741125 149:0.840878 150:0.931865 151:1 152:1 153:1 154:1 155:1 156:1 157:1 158:1 159:1 160:1 161:1 162:0.969026 163:0.938613 164:0.935029 165:0.872124 166:0.718195 167:0.319521 168:0.0974682 169:-0.156953 170:-0.249379 171:-0.216075 172:-0.160664 173:-0.201306 174:-0.264146 175:-0.369059 176:-0.51485 177:-0.704838 178:-0.821451 179:-0.776552 180:-0.661878 181:-0.660964 182:-0.650166 183:-0.591196 184:-0.564296 185:-0.495784 186:-0.538893 187:-0.527322 188:-0.540052 189:-0.442093 190:-0.428411 191:-0.504925 192:-0.583918 193:-0.59267 194:-0.569064 195:-0.508809 196:-0.396726 197:-0.288462 198:-0.322321 199:-0.446388 200:-0.170897 201:-0.0411285 202:0.046647 203:0.0976592 204:0.171847 205:0.237804 206:0.275849 207:0.245964 208:0.212917 209:0.153684 210:0.185026 211:0.161283 212:0.133018 213:0.0653176 214:-0.0161036 215:-0.104582 216:-0.149871 217:-0.249176 218:-0.376627 219:-0.44173 220:-0.488832 221:-0.539578 222:-0.595357 223:-0.607443 224:-0.575955 225:-0.549787 226:-0.565981 227:-0.676687 228:-0.918921 229:-0.69715 230:-0.521979 231:-0.108596 232:0.318572 233:0.60072 234:0.792236 235:0.813633 236:0.792609 237:0.759859 238:0.731295 239:0.717547 240:0.743755 241:0.769945 242:0.738282 243:0.709436 244:0.710749 245:0.695594 246:0.635723 247:0.555773 248:0.524048 249:0.432551 250:0.35331 251:0.294608 252:0.273447 253:0.241599 254:0.161201 255:-0.0260731 256:-0.428386 257:-0.682742 258:-0.74451 259:-0.785398 260:-0.797901 261:-0.748604 262:-0.753862 263:-0.819094 264:-0.816943 265:-0.849008 266:-0.673231 267:-0.125419 268:0.164639 269:0.441956 270:0.693151 271:0.687808 272:0.65027 273:0.586614 274:0.641941 275:0.630104 276:0.541945 277:0.590874 278:0.526917 279:0.570766 280:0.614356 281:0.618208 282:0.645011 283:0.638802 284:0.614439 285:0.578205 286:0.54602 287:0.568207 288:0.556329 289:0.540811 290:0.517933 291:0.488814 292:0.463204 293:0.430978 294:0.403364 295:0.387886 296:0.409659 297:0.436764 298:0.467454 299:0.489912 
0.1936450020382623 0:-0.057327 1:-0.128868 2:-0.133376 3:-0.0908342 4:-0.0576049 5:0.0580679 6:0.0450312 7:0.0335006 8:-0.143722 9:-0.275439 10:-0.215809 11:-0.153088 12:-0.0233382 13:0.0349542 14:0.0426067 15:-0.0739878 16:-0.201867 17:-0.297281 18:-0.0615811 19:0.106072 20:0.202758 21:0.20429 22:0.198631 23:0.213488 24:0.134229 25:0.0700811 26:0.0493047 27:0.0276164 28:0.157471 29:-0.159859 30:-0.350895 31:-0.376524 32:-0.361817 33:-0.17193 34:0.186097 35:0.124282 36:0.173238 37:0.0465266 38:0.105588 39:0.0318618 40:-0.00980843 41:-0.473601 42:-0.891647 43:-1 44:-1 45:-0.523051 46:-0.0205641 47:0.231044 48:0.338767 49:0.117036 50:-0.0817982 51:-0.127206 52:0.0926872 53:0.162229 54:0.126796 55:-0.00732368 56:-0.0755144 57:-0.232159 58:-0.210585 59:-0.111731 60:0.160241 61:0.411411 62:0.578585 63:0.650673 64:0.103782 65:-0.0726874 66:-0.203225 67:-0.103429 68:-0.590186 69:-0.553338 70:-0.728674 71:-0.602151 72:-0.52493 73:-0.535616 74:-0.27285 75:-0.091153 76:-0.225798 77:-0.440166 78:-0.984921 79:-0.87116 80:-0.783866 81:-0.72643 82:-0.579592 83:-0.473533 84:-0.475445 85:-0.445963 86:-0.200468 87:0.0193213 88:0.0634325 89:-0.0511368 90:-0.101423 91:-0.106096 92:-0.0349585 93:0.010715 94:0.000604989 95:-0.0520024 96:-0.136147 97:-0.0928315 98:-0.314952 99:-0.264801 100:-0.315926 101:-0.351877 102:-0.338093 103:-0.310041 104:-0.268708 105:-0.127225 106:-0.0513032 107:-0.0411829 108:-0.0662209 109:-0.0989203 110:-0.127127 111:-0.0922576 112:-0.0388807 113:0.0209607 114:0.0232295 115:-0.00991463 116:-0.0272094 117:-0.00323852 118:0.0328449 119:0.113184 120:0.123254 121:0.068415 122:0.0627825 123:0.100557 124:0.100787 125:0.163442 126:0.247421 127:0.256039 128:0.212037 129:0.143113 130:0.0931866 131:0.0814998 132:0.0498701 133:0.0580921 134:0.0689241 135:0.114254 136:0.379954 137:0.586394 138:0.824053 139:0.943376 140:1 141:0.877941 142:0.664906 143:0.4148 144:0.278406 145:0.145218 146:0.0759168 147:0.0343094 148:0.0233825 149:0.0398772 150:0.0554428 151:0.102077 152:0.126799 153:0.147428 154:0.149468 155:0.105278 156:0.0275914 157:-0.0691433 158:-0.193206 159:-0.112598 160:-0.0819079 161:-0.0725143 162:-0.0493547 163:0.000943463 164:0.0155857 165:-0.0235757 166:-0.0615873 167:-0.124319 168:-0.14806 169:-0.176671 170:-0.176475 171:-0.137068 172:-0.0763004 173:-0.0905498 174:-0.126731 175:-0.219953 176:-0.358395 177:-0.531636 178:-0.603855 179:-0.49495 180:-0.314499 181:-0.209315 182:-0.124339 183:-0.0635868 184:-0.0422695 185:0.0621167 186:0.147433 187:0.165903 188:0.114637 189:0.1219 190:0.106934 191:0.0932632 192:0.0824557 193:0.100716 194:0.114484 195:0.155872 196:0.217563 197:0.270974 198:0.235164 199:0.124213 200:1 201:1 202:0.971394 203:0.913204 204:0.864133 205:0.826706 206:0.787752 207:0.723553 208:0.614274 209:0.448357 210:0.386984 211:0.337169 212:0.287179 213:0.206451 214:0.123268 215:0.00257689 216:-0.0464236 217:-0.0563425 218:-0.0523044 219:-0.00731967 220:0.0180578 221:0.0306678 222:0.0803633 223:0.153753 224:0.22412 225:0.286555 226:0.338206 227:0.376009 228:0.351157 229:0.422272 230:0.44308 231:0.488171 232:0.531292 233:0.580178 234:0.52653 235:0.341369 236:0.0343526 237:-0.134253 238:-0.348967 239:-0.639099 240:-0.852062 241:-1 242:-1 243:-1 244:-0.63908 245:-0.224195 246:0.0635522 247:0.215944 248:0.458492 249:0.538611 250:0.543004 251:0.512361 252:0.562302 253:0.616287 254:0.639394 255:0.614887 256:0.530261 257:0.446876 258:0.490962 259:0.637937 260:0.610892 261:0.618342 262:0.693481 263:0.761368 264:0.813287 265:0.816268 266:0.763373 267:0.685451 268:0.64924 269:0.570111 270:0.481032 271:0.347785 272:0.0795123 273:-0.231376 274:-0.284702 275:-0.362786 276:-0.470367 277:-0.517892 278:-0.569924 279:-0.586546 280:-0.599086 281:-0.633293 282:-0.677055 283:-0.679242 284:-0.686171 285:-0.732638 286:-0.797146 287:-0.721129 288:-0.68626 289:-0.662729 290:-0.647359 291:-0.634541 292:-0.582725 293:-0.519987 294:-0.515411 295:-0.542925 296:-0.488066 297:-0.417104 298:-0.348051 299:-0.294101 
2 0:-0.627224 1:-0.606232 2:-0.552926 3:-0.539463 4:-0.544489 5:-0.566681 6:-0.549679 7:-0.449494 8:-0.481686 9:-0.435679 10:-0.323779 11:-0.20042 12:0.00268393 13:0.148207 14:0.302633 15:0.374741 16:0.547626 17:0.826436 18:1 19:1 20:1 21:1 22:1 23:1 24:1 25:1 26:0.971452 27:0.905383 28:1 29:0.432933 30:0.083788 31:-0.0370985 32:-0.0985778 33:0.188247 34:0.616612 35:0.471962 36:0.34411 37:0.046985 38:-0.0997955 39:-0.301496 40:-0.164432 41:-0.262638 42:-0.299387 43:-0.175266 44:-0.261221 45:-0.153484 46:-0.0189783 47:0.0052002 48:-0.0951301 49:0.020036 50:0.099939 51:0.234896 52:0.344485 53:0.221043 54:0.0373302 55:-0.14664 56:-0.242365 57:-0.441798 58:-0.499464 59:-0.587472 60:-0.471015 61:-0.0515163 62:0.412812 63:0.806029 64:0.424757 65:0.302885 66:0.105483 67:0.258496 68:-0.355455 69:-0.383969 70:-0.537452 71:-0.467375 72:-0.349935 73:-0.303186 74:0.113809 75:0.392425 76:0.397011 77:0.272994 78:-0.0212754 79:-0.00233578 80:-0.0386052 81:-0.1245 82:0.0149663 83:0.302591 84:0.29163 85:0.180199 86:0.190319 87:0.236964 88:0.254627 89:0.180234 90:0.145963 91:0.131786 92:0.161906 93:0.173693 94:0.143649 95:0.0535713 96:-0.100323 97:-0.119652 98:-0.42603 99:-0.451107 100:-0.145258 101:-0.0574933 102:0.0305415 103:0.0956596 104:0.0977891 105:0.133534 106:0.128869 107:0.0909054 108:0.05043 109:0.010002 110:-0.013699 111:-0.00218836 112:0.0120285 113:0.0371247 114:0.0585208 115:0.0763215 116:0.095577 117:0.111129 118:0.115333 119:0.0990962 120:0.0433983 121:-0.0223206 122:-0.0782232 123:-0.12325 124:-0.181197 125:-0.11206 126:-0.00404024 127:0.020328 128:-0.0292683 129:-0.111273 130:-0.163031 131:-0.165187 132:-0.199539 133:-0.217664 134:-0.213639 135:-0.172255 136:-0.106569 137:-0.124222 138:0.0292925 139:0.135025 140:-0.0502461 141:-0.0130402 142:-0.0137763 143:0.063389 144:0.11123 145:0.175835 146:0.26733 147:0.309385 148:0.337108 149:0.40685 150:0.494679 151:0.597054 152:0.661764 153:0.692478 154:0.703074 155:0.668948 156:0.615883 157:0.551669 158:0.409457 159:0.379826 160:0.378335 161:0.324339 162:0.241376 163:0.180334 164:0.120294 165:0.0548244 166:-0.00614269 167:-0.089179 168:-0.143676 169:-0.193894 170:-0.208729 171:-0.185024 172:-0.139658 173:-0.183575 174:-0.260003 175:-0.388938 176:-0.555364 177:-0.769037 178:-0.911552 179:-0.887714 180:-0.787411 181:-0.821854 182:-0.858846 183:-0.845394 184:-0.857797 185:-0.825458 186:-0.913053 187:-0.917875 188:-0.943756 189:-0.823267 190:-0.809488 191:-0.901539 192:-1 193:-1 194:-0.982522 195:-0.940915 196:-0.807873 197:-0.670514 198:-0.72678 199:-0.897843 200:-0.26405 201:-0.154049 202:-0.0541569 203:0.0181685 204:0.101317 205:0.184375 206:0.260922 207:0.330624 208:0.377933 209:0.414889 210:0.538941 211:0.619966 212:0.672384 213:0.665347 214:0.675399 215:0.710631 216:0.769045 217:0.824209 218:0.841113 219:0.867981 220:0.894909 221:0.911564 222:0.935499 223:0.958943 224:0.979444 225:0.999925 226:1 227:1 228:1 229:1 230:1 231:1 232:1 233:1 234:0.91532 235:0.709647 236:0.484184 237:0.347584 238:0.198386 239:0.0804427 240:0.0747937 241:0.0865154 242:0.0937992 243:0.0530539 244:0.0760038 245:0.0922137 246:0.0456456 247:-0.0567726 248:-0.025412 249:-0.097426 250:-0.147565 251:-0.168017 252:-0.12215 253:-0.102771 254:-0.161437 255:-0.372332 256:-0.831619 257:-1 258:-0.820567 259:-0.590823 260:-0.268654 261:-0.0299693 262:0.144211 263:0.318034 264:0.505637 265:0.603857 266:0.663052 267:0.718736 268:0.77819 269:0.773686 270:0.742554 271:0.681353 272:0.566776 273:0.432386 274:0.403872 275:0.326113 276:0.206748 277:0.206746 278:0.132045 279:0.130293 280:0.119873 281:0.0632643 282:0.0099637 283:-0.0634303 284:-0.162778 285:-0.28342 286:-0.404502 287:-0.398676 288:-0.422559 289:-0.452215 290:-0.487599 291:-0.541088 292:-0.558661 293:-0.548783 294:-0.584304 295:-0.632053 296:-0.617391 297:-0.594367 298:-0.584635 299:-0.592416 
1.276367099744093 0:-0.247371 1:-0.353406 2:-0.374591 3:-0.332587 4:-0.286636 5:-0.209531 6:-0.147071 7:-0.0231974 8:-0.0520866 9:-0.0869332 10:-0.0339031 11:0.0138451 12:0.13724 13:0.258629 14:0.390425 15:0.45599 16:0.613645 17:0.864536 18:0.980617 19:0.947072 20:0.915582 21:0.905127 22:0.91121 23:0.89754 24:0.867302 25:0.820246 26:0.775812 27:0.68743 28:0.75594 29:0.23298 30:-0.0751935 31:-0.163451 32:-0.195361 33:0.0740861 34:0.541362 35:0.52436 36:0.451833 37:0.207034 38:0.112824 39:-0.0257321 40:0.159568 41:0.119209 42:-0.0336132 43:-0.0152266 44:-0.208391 45:-0.21528 46:-0.21574 47:-0.397705 48:-0.955449 49:-0.846124 50:-0.866695 51:-0.913029 52:-1 53:-1 54:-0.522179 55:-0.206545 56:0.150588 57:0.415874 58:0.712171 59:0.81905 60:0.88646 61:0.812938 62:0.794101 63:0.659439 64:0.0354712 65:-0.119299 66:-0.198982 67:-0.0456779 68:-0.505072 69:-0.413215 70:-0.486434 71:-0.421764 72:-0.336355 73:-0.345685 74:-0.0284485 75:0.166426 76:0.0898308 77:-0.0680848 78:-0.438076 79:-0.352391 80:-0.346783 81:-0.386355 82:-0.244581 83:-0.00297179 84:0.00828697 85:-0.0689627 86:-0.0335018 87:0.0310231 88:0.0449 89:-0.020131 90:-0.0104973 91:0.0299209 92:0.114588 93:0.183894 94:0.201059 95:0.159743 96:0.0501743 97:0.047637 98:-0.21118 99:-0.230588 100:0.237214 101:0.249654 102:0.264051 103:0.241516 104:0.222336 105:0.250936 106:0.222506 107:0.172128 108:0.111036 109:0.05536 110:0.025173 111:0.0326771 112:0.035719 113:0.0540926 114:0.0651055 115:0.0721909 116:0.0961423 117:0.114565 118:0.113076 119:0.100987 120:0.0595071 121:0.0110147 122:-0.0250354 123:-0.0576685 124:-0.111269 125:-0.0493211 126:0.0435337 127:0.0568019 128:0.00733703 129:-0.0753714 130:-0.130399 131:-0.140715 132:-0.178397 133:-0.166153 134:-0.148171 135:-0.109189 136:0.0392448 137:0.122267 138:0.277074 139:0.41668 140:0.413598 141:0.477321 142:0.456509 143:0.470231 144:0.469514 145:0.511392 146:0.586842 147:0.617432 148:0.633408 149:0.662296 150:0.667371 151:0.671849 152:0.630953 153:0.60659 154:0.571494 155:0.404921 156:0.199067 157:0.0873443 158:-0.0609047 159:-0.00901086 160:0.000541016 161:-0.0175097 162:-0.0319384 163:-0.00724754 164:-0.00371407 165:-0.0375945 166:-0.0795743 167:-0.153776 168:-0.19003 169:-0.220773 170:-0.230091 171:-0.204826 172:-0.163329 173:-0.214223 174:-0.299018 175:-0.429333 176:-0.590762 177:-0.795743 178:-0.925526 179:-0.884966 180:-0.771319 181:-0.795885 182:-0.82382 183:-0.819167 184:-0.848106 185:-0.809213 186:-0.891997 187:-0.885681 188:-0.902644 189:-0.766846 190:-0.72587 191:-0.782905 192:-0.847329 193:-0.827532 194:-0.803275 195:-0.754626 196:-0.626598 197:-0.500192 198:-0.542383 199:-0.684949 200:0.549969 201:0.628841 202:0.711531 203:0.764832 204:0.838574 205:0.904614 206:0.970942 207:1 208:1 209:1 210:1 211:1 212:0.983592 213:0.926819 214:0.884202 215:0.873454 216:0.89215 217:0.914757 218:0.900312 219:0.892188 220:0.881181 221:0.870168 222:0.86714 223:0.867911 224:0.872 225:0.882201 226:0.882527 227:0.878859 228:0.866124 229:0.865385 230:0.856673 231:0.857765 232:0.857567 233:0.853537 234:0.76687 235:0.564034 236:0.285716 237:0.116935 238:-0.0397277 239:-0.188384 240:-0.236627 241:-0.246491 242:-0.247084 243:-0.33087 244:-0.343322 245:-0.355243 246:-0.447533 247:-0.637265 248:-0.599831 249:-0.698535 250:-0.73454 251:-0.642174 252:-0.402699 253:-0.173253 254:-0.000955339 255:0.0633467 256:0.0484244 257:0.140971 258:0.318856 259:0.555615 260:0.616932 261:0.652551 262:0.721476 263:0.746388 264:0.76432 265:0.735467 266:0.666194 267:0.594148 268:0.573431 269:0.513906 270:0.451952 271:0.354974 272:0.139823 273:-0.0997405 274:-0.117046 275:-0.165429 276:-0.243424 277:-0.238806 278:-0.269254 279:-0.258931 280:-0.267075 281:-0.306218 282:-0.337468 283:-0.378451 284:-0.446809 285:-0.55522 286:-0.665863 287:-0.635069 288:-0.641833 289:-0.642914 290:-0.650958 291:-0.672541 292:-0.660154 293:-0.634026 294:-0.65992 295:-0.707616 296:-0.677498 297:-0.638798 298:-0.607057 299:-0.590622 
0.3899722591277358 0:-0.665428 1:-0.671718 2:-0.600049 3:-0.518503 4:-0.503249 5:-0.519312 6:-0.500882 7:-0.340746 8:-0.332191 9:-0.319811 10:-0.262019 11:-0.219891 12:-0.0878195 13:0.000226145 14:0.0840185 15:0.0891572 16:0.161511 17:0.382994 18:0.602856 19:0.692508 20:0.746664 21:0.738254 22:0.706491 23:0.639085 24:0.514647 25:0.412261 26:0.405115 27:0.301478 28:0.436121 29:-0.0371569 30:-0.308341 31:-0.357134 32:-0.350494 33:-0.202755 34:0.143537 35:0.0760847 36:0.0705012 37:-0.20481 38:-0.311846 39:-0.47511 40:-0.282623 41:-0.330047 42:-0.32229 43:-0.177645 44:-0.237389 45:-0.0596429 46:0.196535 47:0.319672 48:0.183369 49:-0.00568829 50:-0.14729 51:-0.209426 52:-0.29343 53:-0.702037 54:-0.830248 55:-0.459841 56:0.0269261 57:0.387397 58:0.699592 59:0.71137 60:0.578577 61:0.535525 62:0.592922 63:0.62621 64:0.0821802 65:-0.0859865 66:-0.209629 67:-0.129965 68:-0.630718 69:-0.566825 70:-0.647256 71:-0.515581 72:-0.426791 73:-0.443749 74:-0.145434 75:0.0282244 76:-0.0866177 77:-0.235389 78:-0.598764 79:-0.495376 80:-0.50942 81:-0.560021 82:-0.536818 83:-0.461341 84:-0.451834 85:-0.453267 86:-0.34705 87:-0.263313 88:-0.224576 89:-0.243203 90:-0.147493 91:-0.0674946 92:0.0234578 93:0.0729281 94:0.0954981 95:0.101572 96:0.109741 97:0.260313 98:0.181724 99:0.19824 100:0.404499 101:0.343316 102:0.344876 103:0.356551 104:0.349516 105:0.370969 106:0.318635 107:0.249938 108:0.184783 109:0.12958 110:0.0828503 111:0.0659301 112:0.0619575 113:0.0789889 114:0.106698 115:0.111469 116:0.104535 117:0.101907 118:0.110045 119:0.124887 120:0.109858 121:0.0523662 122:-0.00420034 123:-0.0447561 124:-0.0955988 125:-0.0393452 126:0.0342496 127:0.0752342 128:0.0310379 129:-0.0390192 130:-0.107082 131:-0.133735 132:-0.147601 133:-0.13755 134:-0.129432 135:-0.0914019 136:0.0601847 137:0.139863 138:0.268248 139:0.35468 140:0.24224 141:0.231371 142:0.182296 143:0.222246 144:0.266389 145:0.353603 146:0.473218 147:0.533905 148:0.56392 149:0.582364 150:0.587468 151:0.624369 152:0.639377 153:0.591244 154:0.512781 155:0.43517 156:0.274523 157:0.0958246 158:-0.0566628 159:0.006868 160:0.0109081 161:0.0100426 162:0.0150519 163:0.0479112 164:0.0515982 165:0.00757901 166:-0.0536623 167:-0.135313 168:-0.173434 169:-0.211473 170:-0.237771 171:-0.220614 172:-0.149358 173:-0.233369 174:-0.29494 175:-0.408338 176:-0.586518 177:-0.810039 178:-0.909009 179:-0.796215 180:-0.71612 181:-0.754637 182:-0.679933 183:-0.552586 184:-0.538729 185:-0.461381 186:-0.486823 187:-0.436002 188:-0.350019 189:-0.167066 190:-0.0898169 191:-0.125952 192:-0.181182 193:-0.154647 194:-0.103516 195:-0.0304872 196:0.0721131 197:0.143013 198:0.0919389 199:-0.026604 200:-0.205933 201:-0.143778 202:-0.0904676 203:-0.0382003 204:0.0116993 205:0.0339027 206:0.0533833 207:0.0633658 208:0.049554 209:0.0430596 210:0.194896 211:0.312457 212:0.392653 213:0.417293 214:0.454485 215:0.505379 216:0.569452 217:0.610706 218:0.615828 219:0.632808 220:0.651934 221:0.673386 222:0.694641 223:0.705676 224:0.718785 225:0.742369 226:0.754441 227:0.743542 228:0.683803 229:0.689668 230:0.695593 231:0.714648 232:0.70871 233:0.715948 234:0.646558 235:0.468746 236:0.22486 237:0.119094 238:0.0179923 239:-0.0573201 240:-0.033059 241:0.012952 242:0.0451745 243:0.0146996 244:0.04023 245:0.0404692 246:-0.0437865 247:-0.230546 248:-0.276519 249:-0.447441 250:-0.580975 251:-0.651241 252:-0.590732 253:-0.500647 254:-0.3986 255:-0.259264 256:-0.156767 257:0.171567 258:0.533539 259:0.831926 260:0.794983 261:0.714479 262:0.680413 263:0.642379 264:0.623741 265:0.562948 266:0.465299 267:0.374032 268:0.327738 269:0.258229 270:0.194561 271:0.098587 272:-0.2207 273:-0.534933 274:-0.551681 275:-0.535254 276:-0.531346 277:-0.511994 278:-0.560924 279:-0.566642 280:-0.497352 281:-0.498133 282:-0.533418 283:-0.574361 284:-0.615851 285:-0.686781 286:-0.728552 287:-0.623088 288:-0.563994 289:-0.497193 290:-0.417876 291:-0.34164 292:-0.236353 293:-0.138054 294:-0.0743692 295:-0.0206482 296:0.0639672 297:0.137997 298:0.197005 299:0.247795 
0.6379142690322875 0:-0.100779 1:-0.1651 2:-0.169529 3:-0.131916 4:-0.114183 5:-0.076293 6:-0.116867 7:-0.0726148 8:-0.149471 9:-0.20943 10:-0.170914 11:-0.117788 12:0.0256657 13:0.142138 14:0.253814 15:0.290855 16:0.347932 17:0.444887 18:0.468476 19:0.385266 20:0.3155 21:0.241789 22:0.225542 23:0.223823 24:0.106655 25:0.00746236 26:-0.000828329 27:-0.00306796 28:0.111417 29:-0.197698 30:-0.368831 31:-0.374626 32:-0.342273 33:-0.127978 34:0.263308 35:0.199196 36:0.213046 37:0.0575508 38:0.0682833 39:-0.0146527 40:0.141874 41:-0.0866988 42:-0.376744 43:-0.39682 44:-0.653113 45:-0.733262 46:-0.627964 47:-0.478507 48:-0.368714 49:0.051426 50:0.1641 51:0.368614 52:0.421521 53:0.207804 54:-0.0363491 55:0.0049992 56:0.21484 57:0.243657 58:0.208982 59:0.090514 60:0.104231 61:0.239292 62:0.322702 63:0.347153 64:-0.0780983 65:-0.194172 66:-0.278195 67:-0.201535 68:-0.693633 69:-0.669849 70:-0.809754 71:-0.615561 72:-0.515886 73:-0.550652 74:-0.297524 75:-0.0837728 76:-0.140594 77:-0.281255 78:-0.739943 79:-0.657845 80:-0.656708 81:-0.715907 82:-0.694679 83:-0.687828 84:-0.708087 85:-0.635842 86:-0.36623 87:-0.133976 88:-0.0330267 89:-0.117213 90:-0.199615 91:-0.249378 92:-0.210371 93:-0.19802 94:-0.284403 95:-0.520169 96:-1 97:-1 98:-0.87919 99:0.2296 100:-0.283412 101:-0.207202 102:-0.140559 103:-0.0784435 104:-0.0191125 105:0.0388868 106:0.0588896 107:0.0421978 108:-0.0027719 109:-0.0826021 110:-0.101475 111:-0.0814641 112:-0.0535125 113:-0.00560778 114:0.0333337 115:0.0640324 116:0.0811981 117:0.0920178 118:0.11476 119:0.120042 120:0.0765395 121:0.0327725 122:0.0181167 123:0.00847458 124:-0.0101916 125:0.0694107 126:0.175321 127:0.20155 128:0.166927 129:0.106051 130:0.0652885 131:0.0623643 132:0.0355479 133:0.0480148 134:0.0678095 135:0.118908 136:0.352645 137:0.501903 138:0.683718 139:0.81398 140:0.876199 141:0.796075 142:0.624709 143:0.512651 144:0.431853 145:0.388194 146:0.341372 147:0.306823 148:0.203913 149:0.0613009 150:0.00269725 151:0.0484544 152:0.0736559 153:0.105045 154:0.133327 155:0.15286 156:0.12192 157:0.0628186 158:-0.0478715 159:0.00840332 160:0.016008 161:0.0145619 162:0.0182278 163:0.0507066 164:0.0399028 165:-0.0218301 166:-0.089554 167:-0.181259 168:-0.224077 169:-0.209421 170:-0.219388 171:-0.216897 172:-0.154681 173:-0.225571 174:-0.294623 175:-0.392982 176:-0.529894 177:-0.709169 178:-0.797678 179:-0.705671 180:-0.534798 181:-0.459272 182:-0.344999 183:-0.190514 184:-0.106614 185:0.0190637 186:0.0793085 187:0.128492 188:0.127521 189:0.169694 190:0.163547 191:0.100748 192:0.0216149 193:0.0469647 194:0.168503 195:0.285549 196:0.127988 197:-0.0142393 198:-0.184387 199:-0.325751 200:0.886047 201:0.876071 202:0.863107 203:0.827779 204:0.79648 205:0.774365 206:0.765421 207:0.745848 208:0.686958 209:0.584574 210:0.578872 211:0.592322 212:0.577957 213:0.501487 214:0.441467 215:0.384839 216:0.360243 217:0.319037 218:0.256076 219:0.223778 220:0.221924 221:0.230026 222:0.248014 223:0.282739 224:0.319238 225:0.36134 226:0.399947 227:0.420029 228:0.389405 229:0.453084 230:0.475683 231:0.520848 232:0.561415 233:0.609372 234:0.564969 235:0.394985 236:0.119313 237:-0.0372802 238:-0.211945 239:-0.410756 240:-0.524718 241:-0.628181 242:-0.674712 243:-0.808743 244:-0.800338 245:-0.741715 246:-0.680642 247:-0.596447 248:-0.241488 249:-0.013792 250:0.254231 251:0.498986 252:0.657204 253:0.695784 254:0.63436 255:0.540412 256:0.395062 257:0.247313 258:0.209884 259:0.242117 260:0.175315 261:0.175048 262:0.21148 263:0.237553 264:0.297092 265:0.253922 266:0.150351 267:0.0865548 268:0.0654762 269:0.0159287 270:-0.052255 271:-0.176351 272:-0.599447 273:-1 274:-1 275:-1 276:-1 277:-1 278:-1 279:-1 280:-1 281:-1 282:-1 283:-1 284:-1 285:-1 286:-0.942087 287:-0.730263 288:-0.573696 289:-0.428302 290:-0.280765 291:-0.144176 292:0.00165818 293:0.182084 294:0.383576 295:0.495409 296:0.554245 297:0.667736 298:0.799708 299:0.865095 
0.07897033791332222 0:-0.1372 1:-0.252929 2:-0.292603 3:-0.283133 4:-0.249048 5:-0.161944 6:-0.0985325 7:0.0174647 8:0.00416081 9:-0.0392748 10:0.00178697 11:0.0109046 12:0.0658922 13:0.0706131 14:0.125784 15:0.124675 16:0.272456 17:0.540847 18:0.756312 19:0.755125 20:0.742891 21:0.672641 22:0.592563 23:0.471966 24:0.3982 25:0.334475 26:0.294082 27:0.332009 28:0.557498 29:0.142801 30:-0.119493 31:-0.211568 32:-0.255853 33:-0.0641721 34:0.294954 35:0.180513 36:0.144652 37:-0.123139 38:-0.219429 39:-0.410999 40:-0.240431 41:-0.327206 42:-0.33585 43:-0.190429 44:-0.294144 45:-0.200839 46:-0.0961942 47:-0.066656 48:-0.209635 49:-0.0945867 50:-0.0790769 51:-0.0734105 52:-0.21243 53:-0.666372 54:-0.909273 55:-0.633748 56:-0.109342 57:0.319727 58:0.739151 59:0.950305 60:1 61:1 62:1 63:0.911448 64:0.207714 65:-0.00900467 66:-0.158799 67:-0.0328768 68:-0.512132 69:-0.43257 70:-0.52354 71:-0.457596 72:-0.378597 73:-0.385151 74:-0.0528376 75:0.201275 76:0.201477 77:0.113582 78:-0.163107 79:-0.104175 80:-0.162958 81:-0.285926 82:-0.214143 83:-0.0306771 84:-0.0594617 85:-0.118543 86:-0.0600706 87:0.00781653 88:0.0298779 89:-0.0389647 90:-0.0213985 91:0.0100272 92:0.0792803 93:0.124479 94:0.120613 95:0.0681851 96:-0.0626684 97:-0.0980067 98:-0.41067 99:-0.441879 100:-0.546309 101:-0.514792 102:-0.443314 103:-0.367708 104:-0.310795 105:-0.194486 106:-0.150943 107:-0.150808 108:-0.159516 109:-0.161994 110:-0.143709 111:-0.0784856 112:-0.0248679 113:0.0290069 114:0.0515638 115:0.0672791 116:0.109448 117:0.156713 118:0.20156 119:0.216118 120:0.188313 121:0.135516 122:0.0996284 123:0.0778059 124:0.00599966 125:0.0341017 126:0.0999191 127:0.109898 128:0.0726886 129:0.019256 130:-0.0267092 131:-0.074686 132:-0.118304 133:-0.10568 134:-0.0959565 135:-0.0709162 136:0.0681251 137:0.119844 138:0.220182 139:0.295212 140:0.182884 141:0.207891 142:0.197665 143:0.255878 144:0.306608 145:0.389773 146:0.50414 147:0.580367 148:0.63746 149:0.70645 150:0.753787 151:0.784516 152:0.733642 153:0.672704 154:0.540602 155:0.458275 156:0.429618 157:0.248386 158:0.0289139 159:0.0331132 160:0.0209772 161:0.000982918 162:-0.00532064 163:0.0142653 164:0.00170193 165:-0.0401723 166:-0.0828991 167:-0.133637 168:-0.147915 169:-0.162481 170:-0.16251 171:-0.13604 172:-0.0946156 173:-0.133725 174:-0.199026 175:-0.312864 176:-0.461988 177:-0.647619 178:-0.760242 179:-0.717553 180:-0.620274 181:-0.638029 182:-0.649239 183:-0.604216 184:-0.588176 185:-0.505709 186:-0.521112 187:-0.477483 188:-0.465885 189:-0.355393 190:-0.32877 191:-0.384659 192:-0.433658 193:-0.407677 194:-0.363011 195:-0.303138 196:-0.195231 197:-0.107595 198:-0.143283 199:-0.250972 200:0.471779 201:0.501922 202:0.544181 203:0.595836 204:0.665756 205:0.739353 206:0.758265 207:0.755239 208:0.712515 209:0.702436 210:0.757608 211:0.776758 212:0.771742 213:0.715243 214:0.693417 215:0.694798 216:0.706656 217:0.704129 218:0.660438 219:0.64521 220:0.633437 221:0.618563 222:0.619926 223:0.632144 224:0.639403 225:0.658691 226:0.693721 227:0.705452 228:0.681462 229:0.698484 230:0.701376 231:0.73993 232:0.773757 233:0.805592 234:0.755413 235:0.595462 236:0.387088 237:0.283748 238:0.181881 239:0.0804596 240:0.0630957 241:0.0767115 242:0.0791454 243:0.022295 244:0.0119136 245:-0.00856457 246:-0.104385 247:-0.303783 248:-0.349332 249:-0.597162 250:-0.819828 251:-1 252:-1 253:-1 254:-1 255:-1 256:-1 257:-0.517359 258:-0.0235174 259:0.185731 260:0.342907 261:0.535256 262:0.660588 263:0.762937 264:0.827855 265:0.835228 266:0.79388 267:0.718481 268:0.697876 269:0.641495 270:0.588072 271:0.504286 272:0.343432 273:0.166763 274:0.16343 275:0.125161 276:0.0483494 277:0.0709778 278:0.0259372 279:0.037542 280:0.0423919 281:0.00571073 282:-0.0166319 283:-0.0769794 284:-0.176893 285:-0.305019 286:-0.430131 287:-0.406894 288:-0.418076 289:-0.434082 290:-0.468221 291:-0.516298 292:-0.516974 293:-0.496405 294:-0.520405 295:-0.563745 296:-0.55087 297:-0.537544 298:-0.537844 299:-0.555967 
0.3651934226840752 0:-0.421012 1:-0.406796 2:-0.408726 3:-0.476154 4:-0.567775 5:-0.760616 6:-0.691754 7:-0.591889 8:-0.818335 9:-0.886356 10:-0.910158 11:-0.981319 12:-1 13:-1 14:-1 15:-1 16:-0.111427 17:-0.47865 18:-0.1763 19:-0.0785514 20:-0.052922 21:-0.00848314 22:0.0978121 23:0.20108 24:0.0789528 25:0.0427454 26:0.122194 27:0.172042 28:0.24628 29:-0.0977692 30:-0.289656 31:-0.366153 32:-0.394828 33:-0.190484 34:0.122735 35:-0.0331184 36:-0.142127 37:-0.363612 38:-0.552984 39:-0.770437 40:-0.613885 41:-0.772913 42:-0.581148 43:-0.350402 44:-0.427871 45:-0.284764 46:-0.250522 47:-0.504276 48:-0.932681 49:-0.48901 50:-0.272496 51:-0.0253523 52:0.0229492 53:-0.0568752 54:0.25111 55:0.456014 56:0.533216 57:0.395505 58:0.402313 59:0.355167 60:0.384309 61:0.488642 62:0.617084 63:0.668765 64:0.129613 65:-0.0210047 66:-0.139218 67:-0.00144067 68:-0.476849 69:-0.397014 70:-0.456052 71:-0.397084 72:-0.284321 73:-0.263062 74:0.126651 75:0.384833 76:0.389826 77:0.285378 78:0.0683 79:0.148286 80:0.133794 81:0.0515876 82:0.16651 83:0.432967 84:0.496466 85:0.524924 86:0.57914 87:0.622634 88:0.680807 89:0.714316 90:0.675346 91:0.648817 92:0.691744 93:0.671273 94:0.598134 95:0.572123 96:0.597244 97:0.660052 98:0.527883 99:0.411063 100:-0.753297 101:-0.92375 102:-0.946653 103:-0.868309 104:-0.804419 105:-0.730392 106:-0.766734 107:-0.81176 108:-0.868334 109:-0.912277 110:-0.892271 111:-0.787552 112:-0.673754 113:-0.512066 114:-0.366238 115:0.332173 116:0.573564 117:0.292104 118:0.440442 119:0.423817 120:0.383621 121:0.338475 122:0.310871 123:0.310938 124:0.271221 125:0.324484 126:0.472806 127:0.577638 128:0.638889 129:0.693073 130:0.723439 131:0.735184 132:0.744168 133:0.76103 134:0.728264 135:0.728849 136:0.994221 137:1 138:0.997721 139:0.985429 140:0.934967 141:0.77095 142:0.598094 143:0.503237 144:0.401605 145:0.354893 146:0.324739 147:0.230321 148:0.107247 149:0.0525044 150:0.0275552 151:0.128483 152:0.201614 153:0.200119 154:0.153551 155:0.116742 156:0.0714126 157:0.0333391 158:-0.0698055 159:0.00303998 160:0.0397061 161:0.049226 162:0.0496889 163:0.073751 164:0.0792781 165:0.0462378 166:0.00287926 167:-0.068477 168:-0.0988899 169:-0.130381 170:-0.137183 171:-0.112391 172:-0.069823 173:-0.104845 174:-0.166027 175:-0.276481 176:-0.42433 177:-0.60607 178:-0.715168 179:-0.670044 180:-0.553903 181:-0.529903 182:-0.482114 183:-0.420994 184:-0.435713 185:-0.381507 186:-0.410801 187:-0.391512 188:-0.394414 189:-0.283712 190:-0.255182 191:-0.313725 192:-0.366422 193:-0.354487 194:-0.34937 195:-0.314431 196:-0.217154 197:-0.145433 198:-0.211434 199:-0.372942 200:-0.588461 201:-0.466615 202:-0.361635 203:-0.327036 204:-0.299423 205:-0.316776 206:-0.375983 207:-0.528236 208:-0.708909 209:-0.998572 210:-1 211:-1 212:-1 213:-1 214:-1 215:-0.989227 216:-0.757229 217:-0.614101 218:-0.525399 219:-0.355594 220:-0.207991 221:-0.111752 222:-0.00930164 223:0.0943069 224:0.174275 225:0.247469 226:0.293502 227:0.29669 228:0.208374 229:0.232805 230:0.185573 231:0.160202 232:0.144236 233:0.164366 234:0.0842723 235:-0.124605 236:-0.470134 237:-0.538752 238:-0.594116 239:-0.680344 240:-0.64186 241:-0.544485 242:-0.452819 243:-0.440773 244:-0.321829 245:-0.182999 246:-0.104663 247:-0.070669 248:0.0988549 249:0.140985 250:0.189905 251:0.238436 252:0.309131 253:0.389054 254:0.433055 255:0.420198 256:0.342667 257:0.275778 258:0.312766 259:0.426285 260:0.404934 261:0.423626 262:0.486477 263:0.543987 264:0.609167 265:0.616421 266:0.588593 267:0.568371 268:0.596402 269:0.584551 270:0.578029 271:0.550142 272:0.473776 273:0.415165 274:0.485 275:0.496833 276:0.454237 277:0.555705 278:0.551699 279:0.649335 280:0.752456 281:0.815178 282:0.894885 283:0.935234 284:0.944308 285:0.946385 286:0.961165 287:1 288:1 289:1 290:1 291:1 292:0.997574 293:0.961325 294:0.942458 295:0.911333 296:0.882681 297:0.866256 298:0.856628 299:0.846531 
0.3200871261058924 0:-0.491453 1:-0.642275 2:-0.713882 3:-0.700594 4:-0.689735 5:-0.715482 6:-0.708756 7:-0.615439 8:-0.753247 9:-0.791492 10:-0.794909 11:-0.774024 12:-0.597947 13:-0.49071 14:-0.383998 15:-0.370703 16:-0.326073 17:-0.19294 18:-0.0544782 19:0.0228428 20:0.109534 21:0.156004 22:0.22127 23:0.221526 24:0.127979 25:0.0646498 26:0.101969 27:0.0709241 28:0.151426 29:-0.22697 30:-0.40638 31:-0.441138 32:-0.440238 33:-0.628967 34:-0.263423 35:0.386376 36:0.205973 37:-0.130425 38:-0.220348 39:-0.0881258 40:0.034037 41:-0.266535 42:-0.451881 43:-0.269771 44:-0.292341 45:-0.129903 46:-0.0225009 47:-0.0522004 48:-0.319734 49:-0.241363 50:-0.182732 51:-0.0528673 52:0.0970111 53:0.0637413 54:0.0571565 55:0.0313999 56:0.166882 57:0.19269 58:0.258148 59:0.248095 60:0.28575 61:0.383699 62:0.439095 63:0.340639 64:-0.256909 65:-0.360517 66:-0.250044 67:0.19209 68:-0.450035 69:-0.445921 70:-0.503174 71:-0.258329 72:-0.164426 73:-0.248047 74:0.0302144 75:0.309818 76:0.391514 77:0.36286 78:0.116026 79:0.11697 80:0.0453975 81:-0.0493829 82:0.108505 83:0.459492 84:0.510993 85:0.465018 86:0.515997 87:0.562237 88:0.562907 89:0.465422 90:0.402748 91:0.407638 92:0.473205 93:0.497375 94:0.44023 95:0.340114 96:0.166384 97:0.0418633 98:-0.362741 99:-0.508502 100:-0.587677 101:-0.596055 102:-0.557451 103:-0.516528 104:-0.472464 105:-0.363272 106:-0.329646 107:-0.338511 108:-0.361453 109:-0.398129 110:-0.423902 111:-0.403791 112:-0.377654 113:-0.32991 114:-0.281304 115:-0.232539 116:-0.175226 117:-0.129761 118:-0.0881659 119:-0.0510915 120:-0.028161 121:-0.0221907 122:-0.010814 123:0.0159508 124:0.0308273 125:0.132859 126:0.244685 127:0.278554 128:0.253194 129:0.191174 130:0.130275 131:0.121872 132:0.118201 133:0.0952915 134:0.126517 135:0.221493 136:0.266989 137:0.170227 138:0.142368 139:0.233813 140:0.0039167 141:-0.104413 142:-0.221605 143:-0.152751 144:-0.0948545 145:-0.0226653 146:0.065927 147:0.0974859 148:0.0882857 149:0.105221 150:0.130438 151:0.18926 152:0.221809 153:0.254313 154:0.274116 155:0.259239 156:0.225764 157:0.183467 158:0.105415 159:0.171872 160:0.196164 161:0.198885 162:0.180887 163:0.17001 164:0.125127 165:0.0618581 166:0.0334119 167:0.0139348 168:-0.0861137 169:-0.156135 170:-0.171399 171:-0.120357 172:-0.081247 173:-0.132704 174:-0.197876 175:-0.282992 176:-0.392186 177:-0.535936 178:-0.597252 179:-0.512374 180:-0.365769 181:-0.296083 182:-0.166046 183:0.00155507 184:0.0587507 185:0.132744 186:0.151828 187:0.191215 188:0.192259 189:0.246107 190:0.285004 191:0.278255 192:0.281076 193:0.324378 194:0.369137 195:0.423863 196:0.475365 197:0.502867 198:0.483342 199:0.44477 200:-0.381841 201:-0.338157 202:-0.301841 203:-0.274716 204:-0.256037 205:-0.244445 206:-0.230478 207:-0.230014 208:-0.269245 209:-0.315521 210:-0.152743 211:-0.0851999 212:-0.0389489 213:-0.0261305 214:-0.0333617 215:-0.0540534 216:-0.0272207 217:-0.0118532 218:-0.0131466 219:0.0159911 220:0.0314198 221:0.0462768 222:0.068045 223:0.0975057 224:0.144449 225:0.191313 226:0.221173 227:0.193369 228:0.075759 229:0.112437 230:0.0852178 231:0.0891387 232:0.0870036 233:0.331921 234:0.49802 235:0.556619 236:0.303752 237:0.140223 238:-0.00261407 239:0.0730186 240:0.16204 241:0.237178 242:0.271829 243:0.265485 244:0.311108 245:0.34349 246:0.32469 247:0.268493 248:0.301664 249:0.259872 250:0.240884 251:0.255723 252:0.322976 253:0.3712 254:0.369896 255:0.274318 256:0.0555183 257:-0.097027 258:-0.10336 259:-0.0541801 260:-0.0710744 261:-0.0406649 262:0.0338366 263:0.125752 264:0.303379 265:0.596921 266:0.804679 267:0.893155 268:0.751544 269:0.645229 270:0.621605 271:0.697072 272:0.684544 273:0.616019 274:0.584307 275:0.534939 276:0.450127 277:0.507125 278:0.439168 279:0.466026 280:0.493199 281:0.497447 282:0.517345 283:0.497569 284:0.418079 285:0.316686 286:0.212535 287:0.19561 288:0.149337 289:0.0992401 290:0.0353331 291:-0.0384732 292:-0.0781271 293:-0.0886026 294:-0.141183 295:-0.205696 296:-0.220358 297:-0.194788 298:-0.155369 299:-0.108631 
0.2162190964421689 0:-0.316345 1:-0.52713 2:-0.661084 3:-0.713416 4:-0.734705 5:-0.736023 6:-0.617711 7:-0.469216 8:-0.527146 9:-0.535288 10:-0.503136 11:-0.486204 12:-0.353317 13:-0.261838 14:-0.146123 15:-0.142473 16:-0.101435 17:0.0126434 18:0.107006 19:0.143495 20:0.189975 21:0.217279 22:0.267498 23:0.269009 24:0.177676 25:0.116488 26:0.172873 27:0.218112 28:0.380151 29:-0.0397972 30:-0.321488 31:-0.439292 32:-0.533095 33:-0.653058 34:-0.789393 35:-0.569603 36:-0.0312418 37:0.307519 38:-0.0317836 39:-0.302087 40:0.264624 41:0.1603 42:-0.183056 43:-0.341975 44:-0.416044 45:-0.135201 46:0.113289 47:0.191144 48:0.0364553 49:-0.0327098 50:-0.0462329 51:0.0287556 52:0.152907 53:0.0590563 54:-0.0558329 55:-0.133362 56:-0.0372688 57:0.0135374 58:0.0887938 59:0.0588199 60:0.0555553 61:0.122633 62:0.0667684 63:-0.168394 64:-0.432426 65:-0.375739 66:-0.0272857 67:0.19334 68:-0.604924 69:-0.444798 70:-0.36473 71:-0.251589 72:-0.239431 73:-0.309641 74:0.0886241 75:0.413934 76:0.501751 77:0.389004 78:0.133647 79:0.136713 80:0.0921593 81:-0.0022016 82:0.145128 83:0.454708 84:0.448493 85:0.369456 86:0.410543 87:0.50701 88:0.605718 89:0.616054 90:0.578446 91:0.515108 92:0.534151 93:0.535 94:0.458539 95:0.255177 96:-0.0864943 97:-0.30879 98:-0.772081 99:-0.818823 100:-0.696674 101:-0.708358 102:-0.681384 103:-0.662535 104:-0.646242 105:-0.538132 106:-0.485166 107:-0.484817 108:-0.498946 109:-0.516638 110:-0.529168 111:-0.493542 112:-0.425826 113:-0.347514 114:-0.279149 115:-0.209675 116:-0.140875 117:-0.0814046 118:-0.0299907 119:0.010122 120:0.0186169 121:0.0125084 122:0.0158333 123:0.0311319 124:0.0347721 125:0.125349 126:0.227683 127:0.240638 128:0.191848 129:0.101599 130:0.025661 131:-0.0153577 132:-0.0968179 133:-0.0962991 134:-0.054111 135:0.107133 136:0.386754 137:0.46086 138:0.360257 139:0.285342 140:0.171853 141:0.106316 142:-0.0279833 143:-0.0818178 144:-0.0449641 145:0.0456101 146:0.130997 147:0.163078 148:0.159899 149:0.181223 150:0.1973 151:0.230224 152:0.232829 153:0.241076 154:0.241883 155:0.19746 156:0.13896 157:0.075725 158:-0.0290229 159:0.0384632 160:0.0767523 161:0.0836452 162:0.0775103 163:0.0738694 164:0.0975356 165:0.113687 166:0.135005 167:0.0474088 168:-0.090693 169:-0.161108 170:-0.17782 171:-0.131097 172:-0.106956 173:-0.161325 174:-0.212244 175:-0.293126 176:-0.403696 177:-0.560302 178:-0.635645 179:-0.559282 180:-0.424957 181:-0.365397 182:-0.259833 183:-0.108249 184:-0.0480259 185:0.0368723 186:0.0515319 187:0.0998662 188:0.121009 189:0.191339 190:0.213001 191:0.179017 192:0.174598 193:0.21906 194:0.253291 195:0.28824 196:0.33519 197:0.388776 198:0.404134 199:0.416992 200:-0.298892 201:-0.203085 202:-0.105051 203:-0.0066719 204:0.0907281 205:0.17468 206:0.243203 207:0.295558 208:0.323039 209:0.337091 210:0.426546 211:0.476903 212:0.457928 213:0.397511 214:0.342205 215:0.293643 216:0.290578 217:0.277558 218:0.25148 219:0.246482 220:0.228792 221:0.211226 222:0.203571 223:0.209006 224:0.225692 225:0.245943 226:0.261423 227:0.232523 228:0.102914 229:0.0821433 230:-0.0210014 231:-0.100053 232:-0.155607 233:-0.0905835 234:-0.0686924 235:0.224206 236:0.364692 237:0.435751 238:0.181465 239:0.0280667 240:0.228536 241:0.36191 242:0.424861 243:0.392167 244:0.426791 245:0.45718 246:0.416609 247:0.350778 248:0.372291 249:0.320296 250:0.285468 251:0.279196 252:0.321689 253:0.341316 254:0.29904 255:0.175186 256:-0.0980121 257:-0.261832 258:-0.270454 259:-0.23568 260:-0.264132 261:-0.190588 262:-0.0985956 263:0.0486146 264:0.404477 265:0.802991 266:0.918456 267:0.873017 268:0.716698 269:0.730887 270:0.775099 271:0.810581 272:0.76306 273:0.68085 274:0.650505 275:0.595297 276:0.497447 277:0.525089 278:0.427928 279:0.415683 280:0.4103 281:0.37229 282:0.353643 283:0.302581 284:0.219721 285:0.108429 286:-0.0154317 287:-0.0455781 288:-0.107411 289:-0.174353 290:-0.242834 291:-0.309774 292:-0.334356 293:-0.341239 294:-0.384643 295:-0.430176 296:-0.41062 297:-0.354157 298:-0.307476 299:-0.275686 
2 0:-0.576764 1:-0.742317 2:-0.775449 3:-0.70207 4:-0.614231 5:-0.513562 6:-0.514758 7:-0.467994 8:-0.626237 9:-0.694101 10:-0.689424 11:-0.698169 12:-0.519637 13:-0.406966 14:-0.29899 15:-0.296 16:-0.2867 17:-0.204415 18:-0.106946 19:-0.0450093 20:0.0242765 21:0.0132497 22:0.035575 23:0.0212761 24:-0.117299 25:-0.16871 26:-0.118108 27:-0.0858192 28:0.0633693 29:-0.24095 30:-0.469924 31:-0.553872 32:-0.555853 33:-0.488846 34:-0.264068 35:-0.67465 36:0.407182 37:0.10865 38:-0.329364 39:-0.417775 40:0.174229 41:-0.0994494 42:-0.22615 43:-0.0735798 44:-0.12479 45:-0.108735 46:-0.0023185 47:0.0174288 48:-0.16249 49:-0.122887 50:-0.109666 51:0.00544289 52:0.140371 53:0.0672824 54:-0.0453461 55:-0.129563 56:0.00122012 57:0.115928 58:0.259603 59:0.232333 60:0.0793306 61:-0.153567 62:-0.64099 63:-0.497801 64:0.463027 65:0.0693773 66:-0.167573 67:0.0496748 68:-0.339507 69:-0.379391 70:-0.555541 71:-0.399251 72:-0.223562 73:-0.178399 74:0.187632 75:0.3979 76:0.381912 77:0.264076 78:-0.0125674 79:0.0180478 80:1.17864e-05 81:-0.0674518 82:0.0882633 83:0.394762 84:0.386782 85:0.411845 86:0.512802 87:0.602513 88:0.59415 89:0.401491 90:0.285751 91:0.24288 92:0.276911 93:0.28595 94:0.196838 95:0.0946469 96:-0.0328665 97:-0.019429 98:-0.260378 99:-0.264173 100:-0.431855 101:-0.477739 102:-0.466194 103:-0.418129 104:-0.346286 105:-0.209129 106:-0.167165 107:-0.189923 108:-0.226095 109:-0.262328 110:-0.281043 111:-0.275745 112:-0.250547 113:-0.201297 114:-0.157509 115:-0.121366 116:-0.0889059 117:-0.0652866 118:-0.0455466 119:-0.0238111 120:-0.0148174 121:-0.0182356 122:-0.0155165 123:0.00200182 124:0.0124724 125:0.118705 126:0.248384 127:0.298534 128:0.291654 129:0.254697 130:0.218246 131:0.204233 132:0.148903 133:0.127311 134:0.0921045 135:-0.0597988 136:0.174697 137:0.162594 138:0.0950786 139:0.0532819 140:-0.0814716 141:-0.14095 142:-0.211693 143:-0.130251 144:-0.064876 145:-0.00521619 146:0.0760164 147:0.0970603 148:0.0771626 149:0.0951469 150:0.123704 151:0.190236 152:0.221626 153:0.256654 154:0.280098 155:0.260551 156:0.24983 157:0.228329 158:0.162575 159:0.22074 160:0.219718 161:0.175435 162:0.125878 163:0.141077 164:0.18753 165:0.0705427 166:-0.0318951 167:-0.11102 168:-0.142114 169:-0.216958 170:-0.224033 171:-0.168299 172:-0.101873 173:-0.124538 174:-0.168339 175:-0.249581 176:-0.363095 177:-0.502164 178:-0.558015 179:-0.464397 180:-0.31321 181:-0.216791 182:-0.0458456 183:0.159863 184:0.239019 185:0.254178 186:0.202862 187:0.209492 188:0.238386 189:0.340707 190:0.370096 191:0.313156 192:0.251155 193:0.236055 194:0.247683 195:0.299357 196:0.35984 197:0.395 198:0.350937 199:0.245899 200:-0.361497 201:-0.288882 202:-0.232376 203:-0.185215 204:-0.131319 205:-0.0950933 206:-0.0573416 207:-0.0381762 208:-0.0437056 209:-0.0591907 210:0.0642389 211:0.133613 212:0.157829 213:0.132491 214:0.0973671 215:0.0500155 216:0.0449627 217:0.0319996 218:0.00156779 219:0.00416583 220:0.0215527 221:0.0347567 222:0.0468043 223:0.0729767 224:0.113564 225:0.170122 226:0.195281 227:0.179289 228:0.0605499 229:0.0667812 230:-0.0130417 231:-0.0409828 232:-0.0460299 233:0.0307559 234:0.0886047 235:0.339284 236:0.494499 237:0.368066 238:0.166117 239:0.166576 240:0.30202 241:0.32566 242:0.346756 243:0.344804 244:0.386761 245:0.418604 246:0.384617 247:0.319552 248:0.338187 249:0.27762 250:0.240365 251:0.244578 252:0.296778 253:0.321288 254:0.279182 255:0.151638 256:-0.129383 257:-0.31575 258:-0.36051 259:-0.378465 260:-0.402624 261:-0.245117 262:0.139569 263:0.59606 264:0.895245 265:0.738173 266:0.605774 267:0.619994 268:0.737772 269:0.72015 270:0.685484 271:0.649855 272:0.591196 273:0.534105 274:0.544613 275:0.49029 276:0.387067 277:0.413377 278:0.344897 279:0.365736 280:0.39772 281:0.382872 282:0.370532 283:0.320197 284:0.257548 285:0.180108 286:0.0985992 287:0.100244 288:0.0696396 289:0.0438243 290:0.0111448 291:-0.0185758 292:-0.0240454 293:-0.0281173 294:-0.0539735 295:-0.069765 296:-0.023681 297:0.0315242 298:0.0775076 299:0.10387 
2 0:-0.647502 1:-0.806408 2:-0.833404 3:-0.750586 4:-0.673442 5:-0.692744 6:-0.710135 7:-0.673204 8:-0.848284 9:-0.860148 10:-0.782742 11:-0.710142 12:-0.521447 13:-0.431536 14:-0.32206 15:-0.304946 16:-0.247156 17:-0.0503329 18:0.112821 19:0.177579 20:0.209291 21:0.163341 22:0.170615 23:0.154038 24:0.0207967 25:-0.0902376 26:-0.0836499 27:-0.0237078 28:0.167898 29:-0.160897 30:-0.399464 31:-0.479895 32:-0.512778 33:-0.508103 34:-0.36582 35:-0.668948 36:-0.349206 37:0.206195 38:-0.0641551 39:-0.462278 40:-0.234274 41:0.222845 42:-0.0896768 43:-0.178833 44:-0.326664 45:-0.117161 46:0.0403792 47:0.0137934 48:-0.240643 49:-0.167312 50:-0.0814723 51:0.064887 52:0.185538 53:0.108869 54:0.0549528 55:0.0505668 56:0.20325 57:0.225645 58:0.268712 59:0.240775 60:0.313699 61:0.48787 62:0.629513 63:0.537336 64:-0.149487 65:-0.474979 66:-0.69382 67:-0.064484 68:-0.39534 69:-0.409958 70:-0.68868 71:-0.303681 72:-0.17478 73:-0.247254 74:-0.0254803 75:0.270148 76:0.345262 77:0.31118 78:0.0858007 79:0.0736849 80:0.0118202 81:-0.0739108 82:0.105608 83:0.504012 84:0.567894 85:0.510679 86:0.53742 87:0.596306 88:0.622144 89:0.545078 90:0.459646 91:0.448908 92:0.43906 93:0.39146 94:0.296541 95:0.161786 96:-0.0576604 97:-0.128803 98:-0.462789 99:-0.500569 100:-0.455023 101:-0.452614 102:-0.377361 103:-0.303214 104:-0.251389 105:-0.162697 106:-0.140306 107:-0.157875 108:-0.187024 109:-0.236467 110:-0.289607 111:-0.294042 112:-0.275601 113:-0.218554 114:-0.165411 115:-0.128983 116:-0.101019 117:-0.0709224 118:-0.0495223 119:-0.0267652 120:-0.023819 121:-0.0342934 122:-0.0418703 123:-0.0430264 124:-0.0567396 125:0.0482499 126:0.182229 127:0.230779 128:0.213442 129:0.15235 130:0.0985845 131:0.0866331 132:0.0565485 133:0.0602337 134:0.0634878 135:0.0903197 136:0.327396 137:0.555083 138:0.418126 139:0.269153 140:-0.00198921 141:0.0558433 142:-0.105341 143:-0.128078 144:-0.117714 145:-0.0482191 146:0.0209096 147:0.0443329 148:0.0312591 149:0.054799 150:0.0773256 151:0.138611 152:0.165598 153:0.195205 154:0.21182 155:0.196225 156:0.170686 157:0.140765 158:0.0720579 159:0.138307 160:0.158427 161:0.160321 162:0.158785 163:0.178961 164:0.175697 165:0.12752 166:0.0600546 167:0.103551 168:0.0457581 169:-0.0710809 170:-0.126871 171:-0.0641018 172:-0.0497619 173:-0.124775 174:-0.211144 175:-0.295793 176:-0.419683 177:-0.568749 178:-0.626414 179:-0.54137 180:-0.400016 181:-0.3258 182:-0.187619 183:5.07664e-05 184:0.0781284 185:0.144805 186:0.129412 187:0.13216 188:0.126617 189:0.18429 190:0.195678 191:0.155387 192:0.129465 193:0.152772 194:0.186606 195:0.233372 196:0.316402 197:0.388172 198:0.395231 199:0.374066 200:-0.481411 201:-0.416403 202:-0.372924 203:-0.345022 204:-0.313272 205:-0.29198 206:-0.257406 207:-0.231641 208:-0.236358 209:-0.296368 210:-0.133531 211:-0.0103336 212:0.0742557 213:0.0984968 214:0.0990675 215:0.0807162 216:0.0984354 217:0.0994785 218:0.0871973 219:0.104413 220:0.117663 221:0.143149 222:0.175883 223:0.204916 224:0.231015 225:0.263266 226:0.306205 227:0.31492 228:0.23164 229:0.228352 230:0.172133 231:0.140855 232:0.104366 233:0.114408 234:0.0788982 235:0.141115 236:0.20961 237:0.346623 238:0.106648 239:-0.0381084 240:0.000715782 241:0.149621 242:0.22022 243:0.218761 244:0.268866 245:0.314988 246:0.314921 247:0.278134 248:0.331011 249:0.307949 250:0.309958 251:0.34127 252:0.414937 253:0.473568 254:0.494264 255:0.454816 256:0.319286 257:0.168401 258:0.125734 259:0.167138 260:0.113244 261:0.100683 262:0.0905779 263:0.0418188 264:0.109622 265:0.188546 266:0.457646 267:0.756826 268:0.778046 269:0.598178 270:0.427632 271:0.498647 272:0.466214 273:0.374367 274:0.329151 275:0.286105 276:0.20671 277:0.253863 278:0.227785 279:0.2747 280:0.313218 281:0.307887 282:0.31252 283:0.283515 284:0.219741 285:0.138998 286:0.0700484 287:0.10341 288:0.089464 289:0.0717138 290:0.0506383 291:0.0252826 292:0.0268184 293:0.0290746 294:0.00572429 295:-0.0320977 296:-0.0303088 297:-0.0102697 298:0.0203938 299:0.0576819 
2 0:-0.778102 1:-0.901551 2:-0.944621 3:-0.895794 4:-0.849739 5:-0.778122 6:-0.680446 7:-0.570631 8:-0.732138 9:-0.781392 10:-0.789001 11:-0.809463 12:-0.677554 13:-0.573486 14:-0.407933 15:-0.287401 16:-0.193844 17:-0.0235063 18:0.136117 19:0.237789 20:0.292605 21:0.286333 22:0.26912 23:0.247658 24:0.115127 25:-0.00319261 26:-0.0226191 27:-0.0284462 28:0.0979395 29:-0.220709 30:-0.423946 31:-0.466935 32:-0.458133 33:-0.329676 34:-0.0214831 35:-0.115042 36:-0.137173 37:-0.571601 38:-0.643708 39:-0.557948 40:0.0231526 41:-0.412444 42:-0.454939 43:-0.241482 44:-0.260998 45:-0.189009 46:-0.0943853 47:-0.0953506 48:-0.114686 49:0.00885465 50:0.0548184 51:0.126386 52:0.234041 53:0.183855 54:0.133835 55:0.106257 56:0.277348 57:0.337962 58:0.433804 59:0.397849 60:0.391626 61:0.478942 62:0.568496 63:0.616044 64:0.0668925 65:-0.110008 66:-0.24325 67:-0.32669 68:-0.85499 69:-0.720418 70:-0.285705 71:-0.346908 72:-0.316054 73:-0.326166 74:0.213576 75:0.466187 76:0.368156 77:0.1093 78:-0.0666662 79:0.118879 80:0.172372 81:0.0253509 82:0.0954446 83:0.349641 84:0.359641 85:0.344439 86:0.446823 87:0.590464 88:0.712637 89:0.695006 90:0.605999 91:0.54237 92:0.552277 93:0.602747 94:0.619051 95:0.600657 96:0.408856 97:0.249647 98:-0.153683 99:-0.319279 100:-0.144115 101:-0.194147 102:-0.209835 103:-0.217508 104:-0.217481 105:-0.123902 106:-0.100986 107:-0.124965 108:-0.173731 109:-0.219194 110:-0.245074 111:-0.230626 112:-0.207993 113:-0.169906 114:-0.133247 115:-0.0850694 116:-0.0483722 117:-0.0147342 118:0.0147031 119:0.0437501 120:0.0326941 121:0.0051514 122:-0.0186688 123:-0.0232774 124:-0.0489921 125:0.0290017 126:0.138245 127:0.167026 128:0.134381 129:0.0696731 130:0.0187272 131:0.00856887 132:-0.0232995 133:-0.0166162 134:-0.0274874 135:-0.0261192 136:0.0919819 137:0.131845 138:0.309343 139:0.467135 140:0.452828 141:0.222973 142:0.0155276 143:-0.0221017 144:0.00190109 145:-0.000144128 146:0.0391744 147:0.0431182 148:0.0263515 149:0.035934 150:0.0505001 151:0.0983393 152:0.111002 153:0.135509 154:0.153833 155:0.139652 156:0.115346 157:0.0826582 158:0.0073763 159:0.0897566 160:0.120256 161:0.125854 162:0.121273 163:0.137923 164:0.123679 165:0.0721644 166:0.0198151 167:-0.0762688 168:-0.0981127 169:-0.0781521 170:0.0308391 171:0.00396325 172:-0.024722 173:-0.120162 174:-0.158297 175:-0.274456 176:-0.437143 177:-0.632983 178:-0.711627 179:-0.636454 180:-0.495546 181:-0.44522 182:-0.351531 183:-0.22076 184:-0.176699 185:-0.11254 186:-0.11513 187:-0.0670341 188:-0.0338391 189:0.0750319 190:0.127528 191:0.117395 192:0.111449 193:0.157309 194:0.20746 195:0.270557 196:0.346253 197:0.378843 198:0.350137 199:0.312995 200:-0.46289 201:-0.417461 202:-0.370569 203:-0.329165 204:-0.292948 205:-0.264045 206:-0.235759 207:-0.220511 208:-0.229019 209:-0.242009 210:-0.0729315 211:0.0409728 212:0.117628 213:0.140746 214:0.140772 215:0.118443 216:0.149936 217:0.159535 218:0.14621 219:0.162156 220:0.173247 221:0.183448 222:0.20423 223:0.237459 224:0.264486 225:0.289479 226:0.315029 227:0.309204 228:0.216286 229:0.229484 230:0.19492 231:0.193414 232:0.184674 233:0.205278 234:0.121086 235:-0.0697692 236:-0.377287 237:-0.372082 238:-0.116081 239:0.0628697 240:0.177858 241:0.0702008 242:0.08612 243:0.113586 244:0.248233 245:0.321394 246:0.325311 247:0.294 248:0.367708 249:0.372171 250:0.395184 251:0.444869 252:0.525959 253:0.590941 254:0.621375 255:0.603123 256:0.523265 257:0.392738 258:0.343615 259:0.374549 260:0.279969 261:0.247043 262:0.252273 263:0.233069 264:0.245663 265:0.151887 266:-0.00279678 267:0.0293955 268:0.332641 269:0.673795 270:0.840873 271:0.696585 272:0.469943 273:0.271862 274:0.484457 275:0.529107 276:0.457492 277:0.479596 278:0.429926 279:0.489276 280:0.548501 281:0.545984 282:0.555535 283:0.527644 284:0.477884 285:0.414233 286:0.329809 287:0.298818 288:0.225314 289:0.159734 290:0.091883 291:0.0177116 292:-0.0306268 293:-0.0770129 294:-0.141149 295:-0.207626 296:-0.219358 297:-0.208305 298:-0.189823 299:-0.171432 
0.3378517487991174 0:-0.568302 1:-0.75307 2:-0.869329 3:-0.86371 4:-0.753378 5:-0.647156 6:-0.518887 7:-0.376273 8:-0.50759 9:-0.600054 10:-0.637555 11:-0.677624 12:-0.553088 13:-0.466597 14:-0.349793 15:-0.311558 16:-0.254115 17:-0.0999018 18:0.0335451 19:0.0658788 20:0.0965193 21:0.0904503 22:0.118021 23:0.109399 24:-0.0236832 25:-0.142172 26:-0.148243 27:-0.108095 28:0.0878873 29:-0.201715 30:-0.40522 31:-0.46361 32:-0.510181 33:-0.578368 34:-0.561798 35:0.284683 36:0.232918 37:-0.250779 38:-0.455081 39:-0.108895 40:0.140774 41:-0.112599 42:-0.412274 43:-0.221356 44:-0.258769 45:-0.111865 46:-0.000414296 47:-0.0272917 48:-0.294344 49:-0.237811 50:-0.20053 51:-0.0765038 52:0.0672932 53:0.0303981 54:-0.0105746 55:-0.0337459 56:0.1071 57:0.15525 58:0.294569 59:0.291844 60:0.288369 61:0.310812 62:-0.145734 63:-0.384825 64:-0.337451 65:0.205656 66:-0.106416 67:-0.0589435 68:-0.479471 69:-0.134367 70:-0.208193 71:-0.362117 72:-0.379431 73:-0.359252 74:0.0704945 75:0.389567 76:0.407334 77:0.243257 78:-0.0664264 79:-0.0201371 80:-0.0133033 81:-0.0503993 82:0.140521 83:0.50458 84:0.529324 85:0.427411 86:0.411254 87:0.432021 88:0.463999 89:0.397653 90:0.311656 91:0.238679 92:0.256671 93:0.283002 94:0.273586 95:0.214409 96:0.0611905 97:0.00710101 98:-0.302592 99:-0.335427 100:-0.401917 101:-0.441694 102:-0.462987 103:-0.477324 104:-0.465409 105:-0.341448 106:-0.29375 107:-0.29687 108:-0.311256 109:-0.323618 110:-0.324303 111:-0.292682 112:-0.276479 113:-0.239771 114:-0.204778 115:-0.168413 116:-0.115896 117:-0.0701311 118:-0.0410742 119:-0.0344765 120:-0.0421096 121:-0.0576649 122:-0.0624324 123:-0.0564654 124:-0.0559397 125:0.0409254 126:0.156627 127:0.18571 128:0.16076 129:0.100862 130:0.0530491 131:0.0451371 132:0.0123183 133:0.0354011 134:0.0884908 135:0.257101 136:0.367801 137:0.224951 138:0.12824 139:0.26754 140:0.083739 141:-0.00956077 142:-0.116912 143:-0.0472973 144:-0.0104876 145:0.0423444 146:0.11554 147:0.133756 148:0.113926 149:0.12997 150:0.157472 151:0.21298 152:0.232482 153:0.256139 154:0.266876 155:0.237224 156:0.18778 157:0.126088 158:0.035682 159:0.0912833 160:0.10065 161:0.0871636 162:0.0839587 163:0.146501 164:0.217444 165:0.279347 166:0.122886 167:-0.0398402 168:-0.10832 169:-0.078941 170:-0.112427 171:-0.118876 172:-0.0858195 173:-0.0917804 174:-0.119435 175:-0.195678 176:-0.310605 177:-0.463012 178:-0.539713 179:-0.469419 180:-0.323685 181:-0.224007 182:-0.0671228 183:0.0967774 184:0.11301 185:0.132141 186:0.104838 187:0.127515 188:0.144894 189:0.225811 190:0.255567 191:0.222817 192:0.190281 193:0.20978 194:0.24304 195:0.297347 196:0.367864 197:0.427444 198:0.421123 199:0.374906 200:-0.412158 201:-0.338487 202:-0.281587 203:-0.236545 204:-0.181634 205:-0.16603 206:-0.15937 207:-0.169007 208:-0.194904 209:-0.217885 210:-0.056056 211:0.0558179 212:0.104653 213:0.0914311 214:0.0537548 215:0.00524624 216:0.0362493 217:0.0335631 218:0.0111714 219:0.0214981 220:0.0296499 221:0.0362963 222:0.0521771 223:0.0848978 224:0.122198 225:0.165216 226:0.200935 227:0.198288 228:0.0873126 229:0.100659 230:0.0368708 231:0.00363983 232:0.0147937 233:0.210782 234:0.461129 235:0.565242 236:0.383147 237:0.198522 238:0.00437733 239:0.092617 240:0.18418 241:0.25395 242:0.290457 243:0.290996 244:0.339298 245:0.373767 246:0.353109 247:0.28884 248:0.322665 249:0.289144 250:0.268717 251:0.274373 252:0.331698 253:0.377876 254:0.367257 255:0.267563 256:0.0268084 257:-0.154026 258:-0.190222 259:-0.18062 260:-0.213384 261:-0.179833 262:-0.0535393 263:0.288089 264:0.711724 265:0.88244 266:0.725595 267:0.534099 268:0.453371 269:0.539214 270:0.560533 271:0.515499 272:0.361814 273:0.225049 274:0.271078 275:0.259913 276:0.183238 277:0.217051 278:0.191643 279:0.249296 280:0.301598 281:0.289692 282:0.288479 283:0.255933 284:0.20444 285:0.124501 286:0.0508429 287:0.0696631 288:0.0493192 289:0.0353494 290:0.0386065 291:0.05156 292:0.0696125 293:0.0762656 294:0.055592 295:0.0252355 296:0.0489071 297:0.0860631 298:0.122635 299:0.149964 
1.761901251155008 0:-0.423711 1:-0.574269 2:-0.70715 3:-0.722183 4:-0.787073 5:-0.818187 6:-0.811259 7:-0.753866 8:-0.883195 9:-0.906728 10:-0.896021 11:-0.908103 12:-0.797285 13:-0.780074 14:-0.761415 15:-0.870668 16:-0.963718 17:-0.990158 18:-0.86997 19:-0.777743 20:-0.812119 21:-0.931171 22:-0.411359 23:-0.181989 24:-0.374413 25:-0.532213 26:-0.350682 27:-0.0899186 28:0.47708 29:0.197968 30:-0.253028 31:-0.393311 32:-0.283969 33:0.0141033 34:0.344423 35:0.20352 36:0.0969445 37:-0.162104 38:-0.171048 39:-0.291474 40:-0.0347509 41:-0.0877496 42:-0.142213 43:-0.0551321 44:-0.145358 45:0.074024 46:0.286714 47:0.436559 48:0.620699 49:0.671359 50:0.791104 51:0.91295 52:0.932642 53:0.772302 54:0.481451 55:0.297384 56:0.386475 57:0.397903 58:0.483962 59:0.307444 60:0.129847 61:0.181772 62:0.368453 63:0.485915 64:-0.0304362 65:-0.246911 66:-0.247901 67:-0.0349324 68:-0.42294 69:-0.235125 70:-0.0379317 71:-0.155272 72:-0.0482268 73:0.0215865 74:0.470843 75:0.628361 76:0.490237 77:0.159538 78:-0.324553 79:-0.367247 80:-0.439023 81:-0.470829 82:-0.33898 83:-0.0913691 84:0.0376137 85:0.0853371 86:0.203887 87:0.371605 88:0.522133 89:0.556215 90:0.561277 91:0.608664 92:0.709489 93:0.739625 94:0.854327 95:0.895007 96:0.65746 97:0.40475 98:0.307753 99:0.319378 100:-0.43728 101:-0.559202 102:-0.644672 103:-0.677155 104:-0.65953 105:-0.597931 106:-0.595145 107:-0.658851 108:-0.709716 109:-0.772672 110:-0.825972 111:-0.768237 112:-0.699891 113:-0.599547 114:-0.439517 115:-0.253618 116:-0.084858 117:0.0752243 118:0.236649 119:0.381207 120:0.471672 121:0.603594 122:0.81073 123:0.883143 124:0.908312 125:0.905421 126:0.974522 127:0.960783 128:0.895314 129:0.69106 130:0.564408 131:0.608889 132:0.552464 133:0.441259 134:0.358088 135:0.303867 136:0.396921 137:0.246252 138:0.173391 139:0.0810778 140:-0.31343 141:-0.455258 142:-0.607968 143:-0.616949 144:-0.684745 145:-0.736174 146:-0.772899 147:-0.827536 148:-0.89483 149:-0.914148 150:-0.909023 151:-0.798269 152:-0.680575 153:-0.585659 154:-0.516401 155:-0.421083 156:-0.276025 157:-0.126285 158:-0.0389167 159:0.190689 160:0.35514 161:0.534871 162:0.684313 163:0.726477 164:0.761628 165:0.803266 166:0.797896 167:0.790902 168:0.808964 169:0.778649 170:0.908841 171:0.92697 172:0.886527 173:0.906791 174:0.88943 175:0.678873 176:0.315333 177:-0.126324 178:-0.51103 179:-0.702034 180:-0.734008 181:-0.830289 182:-0.897936 183:-0.880244 184:-0.839774 185:-0.75233 186:-0.774926 187:-0.69162 188:-0.594462 189:-0.424512 190:-0.379786 191:-0.385781 192:-0.429403 193:-0.484216 194:-0.476705 195:-0.435612 196:-0.344347 197:-0.201866 198:-0.134625 199:-0.186774 200:-0.214592 201:-0.101557 202:0.00290576 203:0.0702385 204:0.137529 205:0.176298 206:0.138856 207:0.120564 208:-0.0721431 209:-0.26953 210:-0.243551 211:-0.262214 212:-0.352624 213:-0.468531 214:-0.570392 215:-0.729208 216:-0.777401 217:-0.816292 218:-0.812638 219:-0.722955 220:-0.618583 221:-0.490572 222:-0.40559 223:-0.28917 224:-0.21453 225:-0.168351 226:-0.129026 227:-0.12668 228:-0.250948 229:-0.225812 230:-0.208822 231:-0.103191 232:-0.0149121 233:0.111779 234:0.162697 235:0.0852573 236:-0.108266 237:0.00586796 238:0.0629315 239:0.107626 240:0.212045 241:0.340017 242:0.432022 243:0.474227 244:0.54964 245:0.595468 246:0.578469 247:0.561003 248:0.592806 249:0.574266 250:0.572041 251:0.584397 252:0.614486 253:0.617364 254:0.609028 255:0.58958 256:0.519592 257:0.383229 258:0.31972 259:0.354631 260:0.305153 261:0.305496 262:0.367688 263:0.425214 264:0.473499 265:0.461527 266:0.426919 267:0.394203 268:0.441044 269:0.49138 270:0.493462 271:0.525611 272:0.569807 273:0.59469 274:0.675829 275:0.687624 276:0.618499 277:0.676824 278:0.58473 279:0.604603 280:0.641229 281:0.625459 282:0.589868 283:0.49444 284:0.380653 285:0.232558 286:0.115698 287:0.0886743 288:0.00623998 289:-0.0518786 290:-0.0776184 291:-0.118411 292:-0.188562 293:-0.183792 294:-0.145907 295:-0.171307 296:-0.191053 297:-0.136861 298:-0.0722467 299:-0.0853293 
0.05095036188924044 0:-0.59081 1:-0.753216 2:-0.74581 3:-0.563435 4:-0.496048 5:-0.610435 6:-0.746721 7:-0.827999 8:-0.997272 9:-0.857738 10:-0.795074 11:-0.81685 12:-0.684258 13:-0.63231 14:-0.583268 15:-0.641181 16:-0.705123 17:-0.798257 18:-0.794309 19:-0.662723 20:-0.478744 21:-0.389006 22:-0.297416 23:-0.538531 24:-0.51582 25:-0.413273 26:-0.337823 27:-0.331476 28:-0.0554114 29:-0.281074 30:-0.374883 31:-0.428041 32:-0.414392 33:0.0188771 34:0.322871 35:-0.0878811 36:-0.0606296 37:-0.0936817 38:-0.0670021 39:-0.221747 40:-0.064085 41:-0.0558236 42:-0.0368839 43:0.0777843 44:0.00544408 45:0.198037 46:0.347734 47:0.489025 48:0.650093 49:0.587409 50:0.584665 51:0.69078 52:0.767506 53:0.715145 54:0.466636 55:0.190821 56:0.202396 57:0.207027 58:0.304901 59:0.253556 60:0.137967 61:0.410533 62:0.618763 63:0.735188 64:0.199002 65:0.0895664 66:-0.0208946 67:0.2537 68:-0.198996 69:0.00614388 70:0.0658708 71:-0.0335699 72:0.0111126 73:-0.0477633 74:0.245515 75:0.347695 76:0.19117 77:-0.0696056 78:-0.535204 79:-0.439704 80:-0.387052 81:-0.390463 82:-0.156408 83:0.237738 84:0.388091 85:0.431751 86:0.570971 87:0.775815 88:0.798967 89:0.724957 90:0.756126 91:0.729456 92:0.662407 93:0.757726 94:0.81713 95:0.68813 96:0.479849 97:0.524093 98:0.255909 99:0.00553644 100:-0.413195 101:-0.526083 102:-0.621124 103:-0.615745 104:-0.544531 105:-0.392431 106:-0.343974 107:-0.406848 108:-0.542372 109:-0.654134 110:-0.719348 111:-0.705298 112:-0.712935 113:-0.67976 114:-0.611741 115:-0.529614 116:-0.386353 117:-0.199508 118:-0.0262097 119:0.135584 120:0.26637 121:0.366603 122:0.460542 123:0.462055 124:0.705271 125:0.874228 126:0.968367 127:0.93475 128:0.904677 129:0.840412 130:0.817129 131:0.833826 132:0.862743 133:0.83315 134:0.747514 135:0.630837 136:0.738572 137:0.638911 138:0.519072 139:0.333935 140:-0.135763 141:-0.409925 142:-0.730017 143:-0.853312 144:-0.937819 145:-0.951744 146:-0.946751 147:-0.951174 148:-0.988824 149:-0.973456 150:-0.929717 151:-0.794003 152:-0.708043 153:-0.622248 154:-0.497377 155:-0.399469 156:-0.246297 157:-0.0687735 158:0.080804 159:0.35705 160:0.565551 161:0.630224 162:0.688881 163:0.770551 164:0.81714 165:0.83883 166:0.822845 167:0.784736 168:0.805544 169:0.866729 170:0.856614 171:0.783541 172:0.669766 173:0.543915 174:0.356304 175:0.0510454 176:-0.29759 177:-0.639529 178:-0.882189 179:-0.901465 180:-0.789395 181:-0.800072 182:-0.75403 183:-0.665467 184:-0.590327 185:-0.48138 186:-0.508594 187:-0.439926 188:-0.441182 189:-0.327962 190:-0.271006 191:-0.33051 192:-0.420503 193:-0.388266 194:-0.305226 195:-0.24174 196:-0.123744 197:-0.00779803 198:-0.039575 199:-0.0893417 200:-0.66006 201:-0.55003 202:-0.466996 203:-0.41048 204:-0.349045 205:-0.287869 206:-0.242078 207:-0.233577 208:-0.272117 209:-0.38003 210:-0.301817 211:-0.261013 212:-0.223119 213:-0.241494 214:-0.305342 215:-0.400401 216:-0.438917 217:-0.506762 218:-0.54556 219:-0.501368 220:-0.430503 221:-0.351271 222:-0.300678 223:-0.194955 224:-0.0633646 225:0.0220374 226:0.0871159 227:0.118314 228:0.00896749 229:0.0680539 230:0.050766 231:0.0285834 232:0.0464061 233:0.195659 234:0.172873 235:0.0956581 236:-0.0345342 237:-0.00411808 238:-0.00648291 239:-0.0236671 240:0.0360486 241:0.129027 242:0.193709 243:0.215607 244:0.283899 245:0.330808 246:0.337227 247:0.31475 248:0.382473 249:0.375267 250:0.373257 251:0.407156 252:0.488547 253:0.559473 254:0.597959 255:0.601465 256:0.567442 257:0.461238 258:0.430176 259:0.483745 260:0.425254 261:0.477881 262:0.531227 263:0.578497 264:0.652265 265:0.680454 266:0.658545 267:0.605157 268:0.636071 269:0.616338 270:0.645841 271:0.651374 272:0.633432 273:0.636728 274:0.739863 275:0.739914 276:0.634081 277:0.658814 278:0.555394 279:0.576438 280:0.585022 281:0.557259 282:0.549624 283:0.489466 284:0.449641 285:0.427624 286:0.387137 287:0.297599 288:0.197793 289:0.145958 290:0.0544659 291:-0.0457637 292:-0.0748861 293:-0.0795804 294:-0.136697 295:-0.200086 296:-0.19529 297:-0.15498 298:-0.11362 299:-0.0866218 
-1.35445612309413 0:-0.463914 1:-0.651372 2:-0.766064 3:-0.713292 4:-0.578899 5:-0.434463 6:-0.356393 7:-0.345604 8:-0.53729 9:-0.648352 10:-0.676128 11:-0.667286 12:-0.489497 13:-0.365088 14:-0.259758 15:-0.288263 16:-0.327193 17:-0.31136 18:-0.168941 19:-0.0502919 20:0.0436456 21:0.0761079 22:0.116467 23:0.105284 24:-0.007569 25:0.0207544 26:0.178495 27:0.362987 28:0.683908 29:0.302933 30:-0.0368543 31:-0.14807 32:-0.284795 33:-0.389361 34:-0.580579 35:-0.727406 36:0.0247723 37:0.10896 38:0.144162 39:-0.0988479 40:-0.237555 41:-0.564596 42:-0.492927 43:-0.27675 44:-0.359393 45:-0.302215 46:-0.27093 47:-0.435406 48:-1 49:-0.748522 50:-0.483206 51:-0.103221 52:0.188321 53:0.341665 54:0.294 55:0.264426 56:0.478622 57:0.537663 58:0.605788 59:0.376776 60:0.135951 61:0.079005 62:0.136398 63:0.407924 64:0.134409 65:0.0946896 66:-0.0607622 67:0.0389058 68:-0.475622 69:-0.371118 70:-0.354295 71:-0.325368 72:-0.235859 73:-0.247824 74:0.102834 75:0.315628 76:0.298177 77:0.245435 78:0.103406 79:0.26807 80:0.336563 81:0.308001 82:0.483506 83:0.764104 84:0.602758 85:0.391025 86:0.363694 87:0.434154 88:0.529526 89:0.53197 90:0.513955 91:0.507449 92:0.511586 93:0.417558 94:0.309268 95:0.256351 96:0.164937 97:0.163477 98:-0.108551 99:-0.203037 100:0.0283581 101:-0.00608078 102:-0.0492408 103:-0.0723272 104:-0.0613481 105:0.0390203 106:0.0734331 107:0.0386108 108:-0.0271925 109:-0.0874219 110:-0.126279 111:-0.133472 112:-0.128061 113:-0.0820755 114:-0.0486913 115:-0.0362829 116:-0.0204263 117:0.0171034 118:0.0307933 119:0.0453482 120:0.0458448 121:0.0473609 122:0.0555604 123:0.0562464 124:0.0789089 125:0.185234 126:0.40323 127:0.534466 128:0.568286 129:0.612269 130:0.500198 131:0.516814 132:0.528741 133:0.497605 134:0.358357 135:0.189289 136:0.173773 137:0.0597773 138:0.0295572 139:-0.0279126 140:-0.465211 141:-0.557441 142:-0.585011 143:-0.433654 144:-0.341324 145:-0.262473 146:-0.181387 147:-0.163904 148:-0.130974 149:-0.0410933 150:0.0614445 151:0.226518 152:0.421287 153:0.540532 154:0.719463 155:0.798112 156:0.825346 157:0.839154 158:0.79814 159:0.70631 160:0.556696 161:0.390634 162:0.232023 163:0.138698 164:0.0827325 165:0.0278984 166:-0.0446768 167:-0.136914 168:-0.175339 169:-0.197398 170:-0.192492 171:-0.158747 172:-0.111621 173:-0.153579 174:-0.227536 175:-0.346703 176:-0.491326 177:-0.675759 178:-0.789032 179:-0.739591 180:-0.61776 181:-0.609872 182:-0.608772 183:-0.553693 184:-0.532985 185:-0.463713 186:-0.485017 187:-0.436718 188:-0.429408 189:-0.326403 190:-0.289604 191:-0.327767 192:-0.358226 193:-0.303223 194:-0.238747 195:-0.161406 196:-0.0523824 197:0.0414414 198:0.0315525 199:-0.0276538 200:-0.0604943 201:0.00495818 202:0.0714361 203:0.121781 204:0.169933 205:0.199904 206:0.221855 207:0.203035 208:0.145547 209:0.102852 210:0.215135 211:0.287433 212:0.318862 213:0.297232 214:0.267412 215:0.23951 216:0.255844 217:0.258153 218:0.237423 219:0.250106 220:0.265137 221:0.277523 222:0.291823 223:0.308086 224:0.334567 225:0.358771 226:0.340891 227:0.293464 228:0.168345 229:0.122169 230:0.0644057 231:-0.0378527 232:-0.174089 233:-0.196467 234:-0.195869 235:-0.151464 236:-0.0274421 237:0.208123 238:0.351472 239:0.43049 240:0.474489 241:0.487854 242:0.489396 243:0.468531 244:0.489931 245:0.494059 246:0.438085 247:0.343112 248:0.32065 249:0.227919 250:0.164286 251:0.143203 252:0.177916 253:0.196594 254:0.127474 255:-0.0479783 256:-0.445684 257:-0.696649 258:-0.748414 259:-0.70105 260:-0.593829 261:-0.298288 262:0.0501881 263:0.374497 264:0.611963 265:0.750241 266:0.777945 267:0.735907 268:0.713919 269:0.642742 270:0.576401 271:0.464795 272:0.235498 273:-0.0372986 274:-0.094138 275:-0.164283 276:-0.239567 277:-0.222779 278:-0.222964 279:-0.163303 280:-0.114043 281:-0.117885 282:-0.123129 283:-0.138641 284:-0.176139 285:-0.240337 286:-0.296613 287:-0.228157 288:-0.179834 289:-0.151655 290:-0.161616 291:-0.191501 292:-0.173871 293:-0.117683 294:-0.0776463 295:-0.0566678 296:-0.0114091 297:0.0283957 298:0.0633361 299:0.0901411 
-1.665109445273379 0:-1 1:-0.885006 2:-0.646605 3:-0.473723 4:-0.445733 5:-0.447559 6:-0.524319 7:-0.523994 8:-0.661721 9:-0.621789 10:-0.507736 11:-0.538037 12:-0.43563 13:-0.406632 14:-0.338123 15:-0.338001 16:-0.312311 17:-0.20198 18:-0.0721415 19:-0.00870324 20:0.0186687 21:-0.00488401 22:0.0420456 23:0.0572853 24:-0.0538921 25:-0.158397 26:-0.163655 27:-0.133306 28:0.0674453 29:-0.211299 30:-0.380422 31:-0.380962 32:-0.313941 33:0.0411977 34:0.618027 35:0.515923 36:0.311458 37:-0.145574 38:-0.521853 39:-0.844939 40:-0.493628 41:-0.404108 42:-0.341518 43:-0.278557 44:-0.502732 45:-0.323985 46:-0.107568 47:-0.120712 48:-0.52203 49:-0.493171 50:-0.382472 51:-0.162384 52:0.019953 53:-0.0484717 54:-0.0975435 55:-0.0921275 56:0.0900174 57:0.229978 58:0.413632 59:0.474981 60:0.542119 61:0.641998 62:0.736944 63:0.789138 64:0.182535 65:-0.0338812 66:-0.211426 67:-0.0674817 68:-0.494881 69:-0.344932 70:-0.352968 71:-0.377378 72:-0.29915 73:-0.258946 74:0.182615 75:0.462086 76:0.412792 77:0.149002 78:-0.347204 79:-0.249654 80:-0.121028 81:-0.0313277 82:0.267667 83:0.689372 84:0.74216 85:0.693416 86:0.761652 87:0.898717 88:1 89:0.961957 90:0.873192 91:0.856266 92:0.909627 93:0.925832 94:0.951966 95:1 96:1 97:1 98:0.804582 99:0.539257 100:0.433415 101:0.407309 102:0.454213 103:0.523854 104:0.577998 105:0.632653 106:0.580318 107:0.477468 108:0.391419 109:0.346515 110:0.326857 111:0.296879 112:0.240454 113:0.233835 114:0.237223 115:0.250376 116:0.285405 117:0.315384 118:0.331842 119:0.34142 120:0.31914 121:0.284987 122:0.247732 123:0.217138 124:0.195456 125:0.247183 126:0.321144 127:0.313744 128:0.255517 129:0.191181 130:0.151966 131:0.198511 132:0.262796 133:0.262314 134:0.305669 135:0.345599 136:0.55002 137:0.49712 138:0.344122 139:0.250776 140:0.0357736 141:-0.0319033 142:-0.135111 143:-0.121186 144:-0.162784 145:-0.104698 146:-0.00598399 147:0.0257346 148:-0.00489074 149:-0.0133403 150:-0.0193387 151:0.0401682 152:0.068846 153:0.0991327 154:0.119662 155:0.105944 156:0.10236 157:0.119665 158:0.131738 159:0.28217 160:0.36026 161:0.386541 162:0.394594 163:0.421476 164:0.409475 165:0.315111 166:0.158068 167:-0.00737516 168:-0.103325 169:-0.177133 170:-0.207246 171:-0.18971 172:-0.155408 173:-0.181006 174:-0.224016 175:-0.317809 176:-0.463011 177:-0.655353 178:-0.759774 179:-0.682542 180:-0.527878 181:-0.472016 182:-0.408322 183:-0.339356 184:-0.34836 185:-0.335843 186:-0.426429 187:-0.475142 188:-0.562196 189:-0.516125 190:-0.534276 191:-0.650626 192:-0.784048 193:-0.836236 194:-0.847644 195:-0.856585 196:-0.797985 197:-0.728244 198:-0.830551 199:-1 200:0.0804592 201:0.272127 202:0.361697 203:0.406054 204:0.440218 205:0.428295 206:0.357829 207:0.226143 208:0.105525 209:-0.00588673 210:0.0457402 211:0.098821 212:0.132576 213:0.124386 214:0.098324 215:0.0654893 216:0.087678 217:0.11682 218:0.136303 219:0.189745 220:0.235083 221:0.272185 222:0.314438 223:0.37868 224:0.429616 225:0.469771 226:0.49574 227:0.502147 228:0.449508 229:0.461289 230:0.402276 231:0.334259 232:0.244687 233:0.206231 234:0.0121969 235:-0.296413 236:-0.839198 237:-1 238:-1 239:-0.678155 240:-0.199748 241:0.16027 242:0.361356 243:0.427678 244:0.474165 245:0.485221 246:0.450683 247:0.402497 248:0.43669 249:0.401761 250:0.384666 251:0.394272 252:0.444834 253:0.489522 254:0.505271 255:0.462673 256:0.334369 257:0.203232 258:0.148601 259:0.149765 260:0.0610169 261:0.0233305 262:-0.0136918 263:-0.0831819 264:-0.0884322 265:-0.198909 266:-0.259404 267:0.148849 268:0.511742 269:0.732262 270:0.875296 271:0.936534 272:0.930579 273:0.884586 274:0.821899 275:0.689407 276:0.50865 277:0.472785 278:0.369846 279:0.37916 280:0.392887 281:0.372902 282:0.379256 283:0.373735 284:0.345295 285:0.282089 286:0.1916 287:0.151812 288:0.0719596 289:0.000265233 290:-0.0856513 291:-0.188582 292:-0.253625 293:-0.281108 294:-0.318371 295:-0.38494 296:-0.408946 297:-0.422344 298:-0.424098 299:-0.415142 
-2 0:-0.786072 1:-0.897994 2:-0.901511 3:-0.839738 4:-0.784267 5:-0.760069 6:-0.755678 7:-0.699222 8:-0.837894 9:-0.838067 10:-0.799987 11:-0.781709 12:-0.647614 13:-0.635489 14:-0.577349 15:-0.551651 16:-0.437331 17:-0.217934 18:-0.0750852 19:-0.0263152 20:0.00681438 21:0.0166899 22:0.0911173 23:0.15824 24:0.0889153 25:-0.0352253 26:-0.0836983 27:-0.0981811 28:0.053896 29:-0.215966 30:-0.37867 31:-0.388587 32:-0.357072 33:-0.128272 34:0.311011 35:0.298184 36:0.40125 37:0.161476 38:0.0127057 39:-0.311613 40:-0.476227 41:-1 42:-0.619073 43:-0.330006 44:-0.40384 45:-0.336716 46:-0.326671 47:-0.397889 48:-0.562202 49:-0.26604 50:-0.17699 51:-0.111099 52:-0.0196123 53:-0.00209548 54:0.0425855 55:0.0516346 56:0.201835 57:0.230544 58:0.293898 59:0.297812 60:0.39851 61:0.587041 62:0.782643 63:0.904518 64:0.30795 65:0.135499 66:-0.0534063 67:0.00183251 68:-0.596359 69:-0.621799 70:-0.653462 71:-0.463972 72:-0.312697 73:-0.274791 74:0.111876 75:0.365082 76:0.426176 77:0.4353 78:0.295048 79:0.300978 80:0.181092 81:-0.0117008 82:0.110221 83:0.49835 84:0.654569 85:0.705103 86:0.791762 87:0.873894 88:0.926666 89:1 90:1 91:1 92:1 93:0.91165 94:0.803069 95:0.714751 96:0.542359 97:0.442931 98:0.162526 99:0.0448642 100:0.659925 101:0.563398 102:0.443642 103:0.367253 104:0.349192 105:0.42046 106:0.414414 107:0.330442 108:0.256466 109:0.206017 110:0.178214 111:0.177327 112:0.181401 113:0.188468 114:0.185606 115:0.182562 116:0.192666 117:0.208101 118:0.19071 119:0.167775 120:0.117738 121:0.0655788 122:0.0336059 123:0.0246643 124:0.0154464 125:0.0920458 126:0.178664 127:0.187394 128:0.156132 129:0.126161 130:0.126997 131:0.147722 132:0.141524 133:0.199986 134:0.276994 135:0.28014 136:0.543892 137:0.628438 138:0.724017 139:0.731008 140:0.494439 141:0.116216 142:0.0182143 143:0.0165095 144:-0.0132479 145:-0.035557 146:-0.0552554 147:-0.0852175 148:-0.0977397 149:-0.0800055 150:-0.0716674 151:-0.0362013 152:-0.0320325 153:-0.0115202 154:0.0230534 155:0.0114422 156:-0.0172413 157:-0.0419491 158:-0.0901426 159:0.0602667 160:0.156136 161:0.24024 162:0.304704 163:0.356903 164:0.383971 165:0.37554 166:0.346603 167:0.235021 168:0.106384 169:-0.0432871 170:-0.100315 171:-0.112817 172:-0.0883473 173:-0.147593 174:-0.24044 175:-0.367992 176:-0.506495 177:-0.687615 178:-0.813415 179:-0.792693 180:-0.704266 181:-0.729961 182:-0.720388 183:-0.635958 184:-0.615899 185:-0.578488 186:-0.664709 187:-0.693701 188:-0.723184 189:-0.598017 190:-0.5754 191:-0.675316 192:-0.802995 193:-0.839053 194:-0.784004 195:-0.687202 196:-0.549752 197:-0.441781 198:-0.503679 199:-0.646092 200:-0.653715 201:-0.574941 202:-0.485876 203:-0.398785 204:-0.312533 205:-0.252461 206:-0.216833 207:-0.194012 208:-0.186348 209:-0.171592 210:0.014384 211:0.137729 212:0.239925 213:0.279711 214:0.302094 215:0.330255 216:0.401306 217:0.456267 218:0.47978 219:0.514566 220:0.542474 221:0.565172 222:0.59074 223:0.613759 224:0.632355 225:0.648214 226:0.649653 227:0.63302 228:0.5715 229:0.568393 230:0.522188 231:0.487164 232:0.438311 233:0.393559 234:0.247297 235:0.0109201 236:-0.438897 237:-0.586405 238:-0.775208 239:-1 240:-1 241:-0.657977 242:-0.186417 243:0.0883615 244:0.338487 245:0.4935 246:0.5262 247:0.477809 248:0.511406 249:0.503091 250:0.51064 251:0.538809 252:0.598739 253:0.646273 254:0.658999 255:0.628504 256:0.547377 257:0.406942 258:0.345833 259:0.36442 260:0.28142 261:0.236093 262:0.216795 263:0.176333 264:0.155609 265:0.00400932 266:-0.238326 267:-0.345872 268:-0.268392 269:-0.0144674 270:0.355796 271:0.583831 272:0.749789 273:0.886224 274:0.932556 275:0.822644 276:0.638522 277:0.630345 278:0.514584 279:0.485881 280:0.431535 281:0.324548 282:0.249144 283:0.159713 284:0.0608324 285:-0.0371419 286:-0.108375 287:-0.0700576 288:-0.0662885 289:-0.0933524 290:-0.155193 291:-0.228863 292:-0.251228 293:-0.243335 294:-0.261745 295:-0.313297 296:-0.31973 297:-0.312632 298:-0.297181 299:-0.286841 
-2 0:-0.678268 1:-0.777173 2:-0.805648 3:-0.810685 4:-0.845071 5:-0.92013 6:-0.894262 7:-0.785458 8:-0.9626 9:-1 10:-1 11:-1 12:-0.833676 13:-0.751564 14:-0.646888 15:-0.647886 16:-0.65109 17:-0.569613 18:-0.41959 19:-0.319943 20:-0.17391 21:0.0732446 22:0.372973 23:0.571314 24:0.62039 25:0.545188 26:0.364371 27:0.139424 28:0.0419392 29:-0.310268 30:-0.424499 31:-0.442025 32:-0.431779 33:-0.235591 34:0.210831 35:0.108502 36:-0.0378873 37:-0.415433 38:-0.468985 39:-0.550616 40:-0.345669 41:-0.523146 42:-0.578476 43:-0.403542 44:-0.421945 45:-0.146735 46:0.180206 47:0.329667 48:-0.00424658 49:-0.325122 50:-0.45021 51:-0.250632 52:0.125238 53:0.266199 54:0.181993 55:0.0414944 56:0.143545 57:0.272031 58:0.519441 59:0.609363 60:0.593839 61:0.53702 62:0.420878 63:0.278102 64:-0.113606 65:-0.13273 66:-0.125272 67:0.110182 68:-0.351545 69:-0.284987 70:-0.373261 71:-0.368081 72:-0.250428 73:-0.202662 74:0.236966 75:0.518923 76:0.545622 77:0.430706 78:0.155581 79:0.120978 80:0.0645406 81:-0.00833607 82:0.266233 83:0.807241 84:1 85:1 86:1 87:1 88:0.927756 89:0.695058 90:0.395167 91:0.146333 92:-0.0787065 93:-0.268956 94:-0.409077 95:-0.528811 96:-0.59467 97:-0.421853 98:-0.538305 99:-0.400166 100:0.65221 101:0.566803 102:0.551601 103:0.537602 104:0.52162 105:0.530535 106:0.459237 107:0.370309 108:0.275779 109:0.192822 110:0.107114 111:0.088483 112:0.0873729 113:0.101841 114:0.113347 115:0.137625 116:0.184334 117:0.224222 118:0.256929 119:0.304757 120:0.369894 121:0.466642 122:0.582442 123:0.644631 124:0.605304 125:0.575633 126:0.583051 127:0.371061 128:0.165823 129:0.0150185 130:-0.0865654 131:-0.149628 132:-0.243298 133:-0.254346 134:-0.207835 135:-0.1807 136:-0.12492 137:-0.131476 138:-0.0438181 139:0.0546417 140:-0.116241 141:-0.0969746 142:-0.113642 143:0.0208777 144:0.16542 145:0.39279 146:0.530537 147:0.682099 148:0.718642 149:0.743151 150:0.677784 151:0.538535 152:0.376891 153:0.240495 154:0.114249 155:0.0188407 156:-0.0927553 157:-0.167456 158:-0.239759 159:-0.108073 160:-0.06257 161:-0.064448 162:-0.0681696 163:-0.026837 164:-0.00384643 165:-0.0153547 166:-0.0382714 167:-0.103918 168:-0.143703 169:-0.185266 170:-0.198892 171:-0.17785 172:-0.139629 173:-0.187513 174:-0.261859 175:-0.382238 176:-0.53234 177:-0.718562 178:-0.828048 179:-0.773764 180:-0.64195 181:-0.615022 182:-0.547459 183:-0.452755 184:-0.423736 185:-0.372615 186:-0.441056 187:-0.478816 188:-0.55067 189:-0.504527 190:-0.520768 191:-0.598371 192:-0.677685 193:-0.65991 194:-0.615991 195:-0.541287 196:-0.401999 197:-0.27036 198:-0.286794 199:-0.386328 200:0.0917757 201:0.185465 202:0.246312 203:0.260769 204:0.280018 205:0.302678 206:0.323109 207:0.305421 208:0.246458 209:0.139825 210:0.179228 211:0.175711 212:0.130689 213:0.0598012 214:-0.0116348 215:-0.081742 216:-0.0794967 217:-0.088503 218:-0.117019 219:-0.128489 220:-0.137182 221:-0.16465 222:-0.19551 223:-0.221812 224:-0.26441 225:-0.346528 226:-0.425875 227:-0.250685 228:0.0320982 229:0.545736 230:0.80506 231:0.928361 232:0.966835 233:0.967589 234:0.913739 235:0.766722 236:0.571699 237:0.418378 238:0.297283 239:0.180555 240:0.123507 241:0.0975028 242:0.074564 243:-0.00398289 244:-0.00165114 245:-0.0472415 246:-0.132536 247:-0.377111 248:-0.445537 249:-0.633958 250:-0.688863 251:-0.515439 252:-0.0993795 253:0.315906 254:0.55813 255:0.66303 256:0.655422 257:0.508485 258:0.413148 259:0.410331 260:0.29425 261:0.246055 262:0.246245 263:0.239046 264:0.276341 265:0.229113 266:0.131615 267:0.0848332 268:0.084208 269:0.0625493 270:0.00135407 271:-0.120373 272:-0.460878 273:-0.798238 274:-0.707577 275:-0.651407 276:-0.648081 277:-0.610721 278:-0.584887 279:-0.546783 280:-0.521582 281:-0.51845 282:-0.499012 283:-0.476525 284:-0.449223 285:-0.420126 286:-0.346862 287:-0.129026 288:0.0504788 289:0.216181 290:0.362098 291:0.484716 292:0.590603 293:0.646798 294:0.680308 295:0.704476 296:0.735182 297:0.763735 298:0.788448 299:0.811131 
-0.5084266964423276 0:-0.832859 1:-1 2:-1 3:-0.839605 4:-0.7383 5:-0.834309 6:-1 7:-1 8:-0.969022 9:-0.616822 10:-0.405485 11:-0.40827 12:-0.406145 13:-0.47256 14:-0.458275 15:-0.394164 16:-0.161142 17:0.073475 18:0.108795 19:0.0631732 20:0.0708827 21:0.0867402 22:0.16594 23:0.231476 24:0.192117 25:0.143082 26:0.275419 27:0.492376 28:0.875945 29:0.434399 30:0.0131927 31:-0.267174 32:-0.475389 33:-0.605327 34:0.0581216 35:0.532414 36:0.608147 37:0.18526 38:-0.189632 39:-0.525953 40:-0.357479 41:-0.325731 42:-0.318287 43:-0.260426 44:-0.398928 45:-0.324361 46:-0.223427 47:-0.271488 48:-0.562527 49:-0.397976 50:-0.329492 51:-0.203489 52:-0.111541 53:-0.292424 54:-0.282044 55:-0.0304909 56:0.449547 57:0.668868 58:0.660553 59:0.368738 60:0.362087 61:0.0887977 62:0.0959343 63:0.436206 64:0.0665006 65:0.0116737 66:-0.117318 67:-0.0453423 68:-0.533149 69:-0.367464 70:-0.296461 71:-0.268247 72:-0.179281 73:-0.220355 74:0.0482163 75:0.149408 76:0.0479553 77:0.0414237 78:0.0419048 79:0.292986 80:0.253867 81:0.0803754 82:0.20564 83:0.545669 84:0.454751 85:0.307714 86:0.34849 87:0.45996 88:0.522824 89:0.440588 90:0.310186 91:0.184224 92:0.211106 93:0.2323 94:0.269965 95:0.29487 96:0.218043 97:0.149306 98:-0.242043 99:-0.373222 100:0.275922 101:0.143545 102:0.0748198 103:0.0468398 104:0.0312736 105:0.0665567 106:0.00893075 107:-0.11092 108:-0.238783 109:-0.301263 110:-0.28743 111:-0.240748 112:-0.217016 113:-0.1947 114:-0.187526 115:-0.177299 116:-0.107557 117:-0.00463157 118:0.0547563 119:0.0705332 120:0.0722918 121:0.108971 122:0.177964 123:0.249145 124:0.309713 125:0.43499 126:0.622634 127:0.737343 128:0.777087 129:0.756438 130:0.698145 131:0.652003 132:0.539315 133:0.354557 134:0.22574 135:0.0690922 136:0.0441301 137:-0.0434161 138:-0.0578542 139:-0.0987398 140:-0.443795 141:-0.423225 142:-0.486971 143:-0.433531 144:-0.401925 145:-0.337219 146:-0.248991 147:-0.210787 148:-0.228744 149:-0.234854 150:-0.204457 151:-0.0732926 152:0.0129671 153:0.123357 154:0.30817 155:0.550184 156:0.785372 157:0.907276 158:0.935285 159:0.979643 160:0.842534 161:0.510835 162:0.22394 163:0.106978 164:0.0394481 165:-0.0615341 166:-0.121446 167:-0.18985 168:-0.20491 169:-0.211792 170:-0.203814 171:-0.172071 172:-0.131489 173:-0.189073 174:-0.276592 175:-0.419001 176:-0.590091 177:-0.777506 178:-0.883569 179:-0.820874 180:-0.672079 181:-0.617446 182:-0.555351 183:-0.488099 184:-0.480815 185:-0.404938 186:-0.397019 187:-0.318553 188:-0.269067 189:-0.155128 190:-0.133716 191:-0.218925 192:-0.323704 193:-0.342745 194:-0.299153 195:-0.197076 196:-0.0447065 197:0.0707241 198:0.0376622 199:-0.0781578 200:-0.154027 201:-0.0757462 202:0.000749853 203:0.0505966 204:0.0875826 205:0.105734 206:0.133973 207:0.165211 208:0.144374 209:0.0834772 210:0.126471 211:0.156343 212:0.191957 213:0.18016 214:0.146492 215:0.113081 216:0.135222 217:0.142937 218:0.112712 219:0.132462 220:0.157591 221:0.173327 222:0.190725 223:0.224717 224:0.264472 225:0.258441 226:0.242963 227:0.174692 228:-0.0222884 229:-0.11177 230:-0.334575 231:-0.508714 232:-0.545219 233:-0.3748 234:-0.0193692 235:0.202598 236:0.22879 237:0.395159 238:0.485331 239:0.462474 240:0.4443 241:0.451179 242:0.443682 243:0.426126 244:0.456011 245:0.470693 246:0.438881 247:0.390479 248:0.426281 249:0.38784 250:0.384784 251:0.37499 252:0.39637 253:0.405805 254:0.365158 255:0.228715 256:-0.103445 257:-0.45958 258:-0.71075 259:-0.954938 260:-0.942619 261:-0.617246 262:-0.059132 263:0.424018 264:0.651222 265:0.89101 266:0.992339 267:0.912247 268:0.886597 269:0.807818 270:0.738626 271:0.624409 272:0.407394 273:0.11431 274:0.0165734 275:-0.0944415 276:-0.170926 277:-0.102379 278:-0.0992901 279:-0.0698526 280:-0.0550412 281:-0.0687563 282:-0.0735854 283:-0.093159 284:-0.156302 285:-0.237336 286:-0.302059 287:-0.243943 288:-0.22718 289:-0.2217 290:-0.223524 291:-0.21876 292:-0.14514 293:-0.038197 294:0.0271774 295:0.0631077 296:0.117786 297:0.164718 298:0.199625 299:0.214836 
-1.99604147853689 0:-0.833867 1:-0.84309 2:-0.780146 3:-0.671883 4:-0.622521 5:-0.671492 6:-0.767733 7:-0.719128 8:-0.801419 9:-0.709159 10:-0.660187 11:-0.68239 12:-0.539661 13:-0.437321 14:-0.315967 15:-0.350076 16:-0.326472 17:-0.176343 18:0.00809425 19:0.0940776 20:0.169784 21:0.190769 22:0.222041 23:0.198043 24:0.019671 25:-0.036224 26:0.0770393 27:0.224256 28:0.512213 29:0.270247 30:-0.0371798 31:-0.165037 32:-0.246837 33:-0.16957 34:-0.157929 35:0.00150215 36:0.235587 37:0.0113442 38:-0.0706376 39:-0.246933 40:-0.0833567 41:-0.191178 42:-0.29027 43:-0.243036 44:-0.445472 45:-0.419902 46:-0.312183 47:-0.313651 48:-0.501392 49:-0.283484 50:-0.198943 51:-0.103364 52:-0.0285629 53:-0.177034 54:-0.193089 55:-0.0890046 56:0.202919 57:0.435188 58:0.5846 59:0.609558 60:0.565039 61:0.409311 62:0.221126 63:0.280113 64:-0.0438997 65:-0.100923 66:-0.159281 67:0.0452251 68:-0.480257 69:-0.413607 70:-0.379594 71:-0.281452 72:-0.114213 73:-0.068621 74:0.362369 75:0.533944 76:0.37153 77:0.0742875 78:-0.329873 79:-0.193262 80:-0.0661153 81:-0.0215968 82:0.199186 83:0.543589 84:0.499389 85:0.390545 86:0.419895 87:0.517125 88:0.604629 89:0.600587 90:0.504575 91:0.397971 92:0.335443 93:0.290874 94:0.283088 95:0.318219 96:0.248775 97:0.23381 98:-0.0382095 99:-0.117937 100:0.00431098 101:-0.0765384 102:-0.0795655 103:-0.0531065 104:-0.0193836 105:0.058196 106:0.0382184 107:-0.0472067 108:-0.132709 109:-0.18867 110:-0.221483 111:-0.240796 112:-0.243207 113:-0.20892 114:-0.163125 115:-0.122319 116:-0.0937709 117:-0.0748251 118:-0.0603324 119:-0.0414526 120:-0.033008 121:-0.0264752 122:-0.0139638 123:-0.000620143 124:-0.00177266 125:0.120479 126:0.305997 127:0.450342 128:0.576576 129:0.616319 130:0.665744 131:0.722238 132:0.75864 133:0.797115 134:0.434337 135:0.174362 136:0.168177 137:0.123122 138:-0.0380499 139:-0.086784 140:-0.427256 141:-0.453315 142:-0.508309 143:-0.379677 144:-0.297657 145:-0.211999 146:-0.112388 147:-0.0487743 148:-0.0248069 149:0.0104534 150:0.034387 151:0.08462 152:0.109218 153:0.161396 154:0.238975 155:0.330096 156:0.440016 157:0.492363 158:0.494988 159:0.621051 160:0.721375 161:0.777986 162:0.711558 163:0.587225 164:0.405654 165:0.206613 166:0.125074 167:-0.0709671 168:-0.210157 169:-0.298447 170:-0.321294 171:-0.297155 172:-0.227849 173:-0.265613 174:-0.353178 175:-0.503094 176:-0.678732 177:-0.889194 178:-1 179:-0.915648 180:-0.75291 181:-0.721456 182:-0.686961 183:-0.613151 184:-0.591638 185:-0.521586 186:-0.557312 187:-0.54189 188:-0.5383 189:-0.401818 190:-0.349684 191:-0.380656 192:-0.425217 193:-0.409212 194:-0.37611 195:-0.297166 196:-0.13846 197:-0.0157626 198:-0.0381013 199:-0.136358 200:-0.0903322 201:0.00448003 202:0.0992421 203:0.169567 204:0.228148 205:0.272431 206:0.300464 207:0.300964 208:0.283652 209:0.281587 210:0.350325 211:0.386167 212:0.418881 213:0.406586 214:0.374611 215:0.32268 216:0.323631 217:0.320418 218:0.299255 219:0.300614 220:0.279409 221:0.2743 222:0.287004 223:0.312069 224:0.334856 225:0.353361 226:0.356132 227:0.317835 228:0.173991 229:0.110978 230:-0.0921132 231:-0.337933 232:-0.603794 233:-0.663189 234:-0.508233 235:-0.104974 236:0.0860591 237:0.153852 238:0.426075 239:0.503151 240:0.506091 241:0.473178 242:0.42691 243:0.384903 244:0.426814 245:0.461977 246:0.448309 247:0.413946 248:0.450376 249:0.418856 250:0.401097 251:0.406904 252:0.441737 253:0.46229 254:0.44214 255:0.344685 256:0.108684 257:-0.116391 258:-0.199343 259:-0.291185 260:-0.439096 261:-0.498482 262:-0.532409 263:-0.442055 264:0.0330433 265:0.48773 266:0.552963 267:0.701366 268:0.905535 269:0.956026 270:0.912572 271:0.842743 272:0.698356 273:0.500641 274:0.396692 275:0.266832 276:0.0812019 277:0.0270289 278:-0.0570122 279:-0.0536055 280:-0.0371246 281:-0.0342899 282:-0.0284158 283:-0.0505621 284:-0.09628 285:-0.154716 286:-0.208172 287:-0.17269 288:-0.189376 289:-0.217682 290:-0.24717 291:-0.260091 292:-0.228144 293:-0.186274 294:-0.185292 295:-0.208649 296:-0.171296 297:-0.117748 298:-0.0621386 299:-0.0163505 
-1.83958393010094 0:-0.479707 1:-0.663765 2:-0.782276 3:-0.819446 4:-0.801008 5:-0.803376 6:-0.747143 7:-0.628582 8:-0.743165 9:-0.767895 10:-0.778164 11:-0.815356 12:-0.684144 13:-0.595013 14:-0.458487 15:-0.382399 16:-0.229105 17:-0.0829874 18:0.0163305 19:0.0233073 20:0.0466017 21:0.0479508 22:0.100619 23:0.162188 24:0.212381 25:0.348103 26:0.549786 27:0.643607 28:0.837042 29:0.367915 30:0.0150359 31:-0.131644 32:-0.230971 33:-0.196934 34:-0.117942 35:-0.4081 36:0.2394 37:0.225826 38:0.144974 39:-0.11398 40:-0.100612 41:-0.417797 42:-0.64068 43:-0.496504 44:-0.606718 45:-0.477799 46:-0.318808 47:-0.344178 48:-0.652695 49:-0.449599 50:-0.340187 51:-0.181874 52:-0.0228437 53:-0.111152 54:-0.16115 55:-0.144303 56:0.105184 57:0.288719 58:0.50281 59:0.562409 60:0.63662 61:0.761805 62:0.892697 63:0.844392 64:0.0518535 65:-0.274888 66:-0.373103 67:-0.240825 68:-0.560705 69:-0.365089 70:-0.310321 71:-0.330145 72:-0.266643 73:-0.301081 74:0.0361643 75:0.290057 76:0.316854 77:0.294482 78:0.147585 79:0.243929 80:0.207634 81:0.07275 82:0.191449 83:0.480072 84:0.522331 85:0.463924 86:0.511011 87:0.635956 88:0.737887 89:0.746186 90:0.666718 91:0.62059 92:0.638577 93:0.646141 94:0.655227 95:0.654773 96:0.583472 97:0.616114 98:0.438452 99:0.313492 100:-0.0442579 101:-0.098203 102:-0.100753 103:-0.0882113 104:-0.105279 105:-0.0556677 106:-0.0735236 107:-0.128739 108:-0.1831 109:-0.239841 110:-0.285426 111:-0.321082 112:-0.345426 113:-0.329619 114:-0.284095 115:-0.231295 116:-0.165161 117:-0.0910285 118:-0.0478062 119:-0.0324491 120:-0.0174624 121:0.000243111 122:0.041931 123:0.135835 124:0.255661 125:0.440975 126:0.628505 127:0.677503 128:0.671295 129:0.643901 130:0.621916 131:0.631635 132:0.642705 133:0.489122 134:0.28733 135:0.0957785 136:0.203254 137:0.161956 138:0.146547 139:0.131224 140:-0.163082 141:-0.257759 142:-0.389173 143:-0.323461 144:-0.268783 145:-0.19844 146:-0.143948 147:-0.141147 148:-0.172076 149:-0.168914 150:-0.152743 151:-0.0902458 152:-0.0532428 153:-0.0192872 154:0.0104846 155:0.0377624 156:0.0884569 157:0.162278 158:0.243161 159:0.374544 160:0.432713 161:0.460759 162:0.492986 163:0.504012 164:0.470294 165:0.355818 166:0.270749 167:0.197104 168:0.108122 169:0.0132296 170:-0.0411089 171:-0.0571897 172:-0.0488177 173:-0.109274 174:-0.177988 175:-0.277274 176:-0.404318 177:-0.564426 178:-0.657179 179:-0.604029 180:-0.487359 181:-0.451905 182:-0.385382 183:-0.293958 184:-0.309098 185:-0.28432 186:-0.334311 187:-0.309695 188:-0.292116 189:-0.17708 190:-0.144785 191:-0.209765 192:-0.287365 193:-0.307191 194:-0.320097 195:-0.302744 196:-0.221306 197:-0.131985 198:-0.174346 199:-0.296978 200:0.240215 201:0.276852 202:0.321616 203:0.366482 204:0.410277 205:0.415379 206:0.408462 207:0.408814 208:0.389994 209:0.366875 210:0.428448 211:0.451725 212:0.453359 213:0.409249 214:0.35642 215:0.319501 216:0.335042 217:0.308503 218:0.265521 219:0.25443 220:0.238197 221:0.218007 222:0.20499 223:0.203836 224:0.20885 225:0.215823 226:0.216284 227:0.171048 228:0.0160638 229:-0.0131946 230:-0.144962 231:-0.271976 232:-0.446214 233:-0.396655 234:-0.350329 235:-0.311615 236:-0.22977 237:-0.00196773 238:0.108979 239:0.212112 240:0.331747 241:0.429961 242:0.451786 243:0.435566 244:0.464985 245:0.489362 246:0.479563 247:0.448824 248:0.48501 249:0.446398 250:0.433651 251:0.459334 252:0.526904 253:0.576462 254:0.586375 255:0.525178 256:0.379137 257:0.207567 258:0.14825 259:0.140761 260:0.0470276 261:0.0162489 262:-0.0211971 263:-0.0743142 264:-0.056131 265:-0.0925503 266:-0.115622 267:0.0162336 268:0.174541 269:0.283305 270:0.358124 271:0.405747 272:0.381686 273:0.383207 274:0.467288 275:0.44858 276:0.356814 277:0.372131 278:0.283697 279:0.275308 280:0.25302 281:0.192023 282:0.135354 283:0.0428839 284:-0.0687437 285:-0.187935 286:-0.286538 287:-0.254978 288:-0.260725 289:-0.274611 290:-0.29958 291:-0.332095 292:-0.326148 293:-0.29828 294:-0.304469 295:-0.319211 296:-0.275422 297:-0.224651 298:-0.176266 299:-0.135466 
