svm_type c_svc
kernel_type rbf
gamma 0.00012207
nr_class 2
total_sv 25
rho -3.87635
label 0 1
nr_sv 17 8
SV
6.310231288204399 1:-0.322198 2:-0.398497 3:-0.461061 4:-0.468785 5:-0.355647 6:-0.228386 7:-0.215958 8:-0.158784 9:-0.171506 10:-0.301391 11:-0.432754 12:-0.407237 13:-0.384283 14:-0.459465 15:-0.39213 16:-0.354582 17:-0.319457 18:-0.322776 19:-0.517343 20:-0.528566 21:-0.572857 22:-0.858191 23:-0.986446 24:-0.904365 25:-0.824221 26:-0.652634 27:-0.621037 28:-0.695019 29:-0.782579 30:-0.782935 31:-0.757583 32:-0.445265 33:-0.134085 34:0.511035 35:1 36:0.868138 37:-0.106745 38:-0.756912 39:-0.799159 40:-0.230736 41:0.452498 42:0.698981 43:0.764978 44:0.642074 45:0.46109 46:0.402474 47:0.666861 48:0.91003 49:0.987883 50:0.939472 51:0.719636 52:0.518347 53:0.522034 54:0.492523 55:0.615919 56:0.644148 57:0.542796 58:0.218202 59:0.355875 60:0.0915333 61:-0.160655 62:-0.315562 63:-0.169651 64:-0.326284 65:-0.378138 66:-0.394238 67:-0.373747 68:-0.287886 69:-0.688601 70:-0.601728 71:-0.93173 72:-0.954766 73:-0.599327 74:-0.213549 75:0.478261 76:0.647884 77:0.515497 78:0.274445 79:-0.0230971 80:-0.0520108 81:-0.0969985 82:-0.142094 83:0.0675392 84:0.466424 85:0.570426 86:0.546763 87:0.626015 88:0.805586 89:0.89828 90:0.990214 91:0.999456 92:0.978068 93:0.9082 94:0.732511 95:0.510565 96:0.683161 97:0.825725 98:0.9446 99:0.763974 100:0.464258 101:1 102:1 103:1 104:1 105:0.967994 106:0.978191 107:1 108:1 109:1 110:1 111:1 112:1 113:1 114:1 115:1 116:0.969419 117:0.895912 118:0.811254 119:0.717826 120:0.547403 121:0.384326 122:0.199937 123:0.0911713 124:-0.108844 125:-0.258374 126:-0.341939 127:-0.427315 128:-0.555734 129:-0.76985 130:-0.954196 131:-0.964281 132:-0.929693 133:-0.811974 134:-0.730369 135:-0.749936 136:-0.719756 137:-0.55793 138:-0.493563 139:-0.474047 140:-0.367047 141:-0.252474 142:-0.0632472 143:0.0932125 144:0.141955 145:0.147874 146:0.167543 147:0.236895 148:0.337396 149:0.408611 150:0.503051 151:0.617973 152:0.707778 153:0.699902 154:0.61061 155:0.500574 156:0.372625 157:0.288947 158:0.286217 159:0.199473 160:0.179533 161:0.239051 162:0.282472 163:0.358223 164:0.497229 165:0.695713 166:0.710063 167:0.665256 168:0.611879 169:0.545546 170:0.491819 171:0.446179 172:0.266118 173:0.122221 174:-0.0983254 175:-0.279396 176:-0.402126 177:-0.489676 178:-0.648188 179:-0.720014 180:-0.637331 181:-0.507447 182:-0.468768 183:-0.343285 184:-0.320704 185:-0.411268 186:-0.473306 187:-0.504819 188:-0.548761 189:-0.622959 190:-0.643195 191:-0.676327 192:-0.733962 193:-0.735228 194:-0.716104 195:-0.722009 196:-0.740037 197:-0.738467 198:-0.596395 199:-0.616963 200:-0.617341 201:0.188828 202:0.292265 203:0.335122 204:0.340518 205:0.378704 206:0.401323 207:0.385265 208:0.347836 209:0.261012 210:0.169109 211:0.177811 212:0.215763 213:0.231568 214:0.228646 215:0.194456 216:0.182824 217:0.190339 218:0.200874 219:0.203884 220:0.212472 221:0.113484 222:-0.0166038 223:-0.184129 224:-0.28006 225:-0.241549 226:-0.28115 227:-0.311868 228:-0.401109 229:-0.662474 230:-0.719206 231:-0.851552 232:-0.820182 233:-0.71251 234:-0.359747 235:0.000539925 236:0.242489 237:0.300053 238:0.42057 239:0.40911 240:0.448447 241:0.515144 242:0.610095 243:0.612646 244:0.586211 245:0.654358 246:0.690189 247:0.632055 248:0.628653 249:0.631684 250:0.616404 251:0.610292 252:0.609754 253:0.638308 254:0.662679 255:0.657476 256:0.658188 257:0.586608 258:0.446443 259:0.325482 260:0.299597 261:0.192993 262:-0.0812658 263:-0.15221 264:-0.289316 265:-0.301818 266:-0.486553 267:-0.767542 268:-0.922446 269:-0.866497 270:-0.736013 271:-0.708079 272:-0.209958 273:-0.0216171 274:0.059428 275:0.417855 276:0.640489 277:0.632906 278:0.751703 279:0.713656 280:0.735713 281:0.762268 282:0.766741 283:0.766418 284:0.719709 285:0.672096 286:0.625279 287:0.58543 288:0.5851 289:0.578989 290:0.52898 291:0.464585 292:0.416149 293:0.368332 294:0.32125 295:0.270126 296:0.221449 297:0.212782 298:0.220563 299:0.241514 300:0.27161 301:0.780364 302:0.738831 303:0.679538 304:0.617553 305:0.564822 306:0.524775 307:0.493619 308:0.468392 309:0.445956 310:0.423797 311:0.394975 312:0.352681 313:0.231911 314:0.0717723 315:-0.0855208 316:-0.224523 317:-0.333094 318:-0.429116 319:-0.521381 320:-0.604815 321:-0.672082 322:-0.697305 323:-0.713497 324:-0.717615 325:-0.71731 326:-0.703995 327:-0.686838 328:-0.667047 329:-0.646824 330:-0.640162 331:-0.645348 332:-0.656093 333:-0.643695 334:-0.580789 335:-0.508096 336:-0.459712 337:-0.460037 338:-0.507368 339:-0.540376 340:-0.554145 341:-0.545133 342:-0.514545 343:-0.461654 344:-0.412757 345:-0.381078 346:-0.35217 347:-0.308147 348:-0.241266 349:-0.153774 350:-0.0125081 351:0.18732 352:0.3955 353:0.541739 354:0.703326 355:0.83449 356:0.746244 357:0.651978 358:0.548674 359:0.428334 360:0.293782 361:0.154747 362:0.01567 363:-0.122811 364:-0.228695 365:-0.314136 366:-0.383758 367:-0.43813 368:-0.487213 369:-0.512598 370:-0.509679 371:-0.544071 372:-0.632064 373:-0.694191 374:-0.671362 375:-0.635691 376:-0.601606 377:-0.587365 378:-0.566659 379:-0.549302 380:-0.56796 381:-0.542452 382:-0.519492 383:-0.497265 384:-0.474416 385:-0.425824 386:-0.362246 387:-0.284345 388:-0.313218 389:-0.374006 390:-0.40531 391:-0.413167 392:-0.401178 393:-0.373203 394:-0.341616 395:-0.28774 396:-0.104826 397:0.0581547 398:0.215214 399:0.309617 400:0.285851 401:-0.338894 402:-0.260324 403:-0.188846 404:-0.124055 405:-0.0634954 406:-0.0048648 407:0.0649082 408:0.129347 409:0.189586 410:0.249206 411:0.309948 412:0.368349 413:0.426111 414:0.482846 415:0.542543 416:0.603568 417:0.650995 418:0.674316 419:0.688746 420:0.685402 421:0.694681 422:0.683929 423:0.672414 424:0.633913 425:0.575337 426:0.47465 427:0.330546 428:0.220613 429:0.0830669 430:-0.0522951 431:-0.1853 432:-0.323469 433:-0.489317 434:-0.610183 435:-0.638234 436:-0.652245 437:-0.642339 438:-0.605656 439:-0.575658 440:-0.52541 441:-0.488354 442:-0.374575 443:-0.252878 444:-0.136071 445:-0.026387 446:0.0756019 447:0.14462 448:0.192053 449:0.241972 450:0.273842 451:0.319065 452:0.369792 453:0.443216 454:0.503583 455:0.54419 456:0.595818 457:0.629274 458:0.649268 459:0.659407 460:0.657417 461:0.644701 462:0.621181 463:0.581791 464:0.524625 465:0.451209 466:0.364195 467:0.263766 468:0.148326 469:0.0153354 470:-0.128204 471:-0.249574 472:-0.316482 473:-0.360566 474:-0.359936 475:-0.346365 476:-0.33043 477:-0.312713 478:-0.289262 479:-0.265603 480:-0.244993 481:-0.225803 482:-0.209045 483:-0.194282 484:-0.183113 485:-0.175285 486:-0.163356 487:-0.146002 488:-0.113133 489:-0.0871914 490:-0.0671618 491:-0.054304 492:-0.0456636 493:-0.0380382 494:-0.0339994 495:-0.0339943 496:-0.0381509 497:-0.0430263 498:-0.0636494 499:-0.0882052 500:-0.0966477 501:-0.675081 502:-0.677684 503:-0.678622 504:-0.677969 505:-0.680541 506:-0.685853 507:-0.688259 508:-0.690058 509:-0.693195 510:-0.69288 511:-0.693757 512:-0.695501 513:-0.700418 514:-0.707105 515:-0.712938 516:-0.717982 517:-0.723393 518:-0.730086 519:-0.744058 520:-0.752207 521:-0.756561 522:-0.75035 523:-0.744495 524:-0.745951 525:-0.729634 526:-0.712055 527:-0.696117 528:-0.66097 529:-0.640115 530:-0.620347 531:-0.589726 532:-0.551306 533:-0.525204 534:-0.505626 535:-0.477818 536:-0.458439 537:-0.439936 538:-0.42637 539:-0.416124 540:-0.404654 541:-0.389844 542:-0.381516 543:-0.374737 544:-0.373211 545:-0.363759 546:-0.363927 547:-0.35451 548:-0.345952 549:-0.348434 550:-0.342022 551:-0.335239 552:-0.330236 553:-0.327706 554:-0.327405 555:-0.329652 556:-0.334734 557:-0.343243 558:-0.355484 559:-0.371768 560:-0.392409 561:-0.417965 562:-0.449241 563:-0.486153 564:-0.521552 565:-0.555819 566:-0.590691 567:-0.629361 568:-0.663907 569:-0.705251 570:-0.74034 571:-0.764454 572:-0.790115 573:-0.779933 574:-0.792595 575:-0.79268 576:-0.78961 577:-0.788973 578:-0.774879 579:-0.77755 580:-0.769698 581:-0.768132 582:-0.769949 583:-0.772308 584:-0.768166 585:-0.768949 586:-0.768459 587:-0.757277 588:-0.755226 589:-0.74996 590:-0.751379 591:-0.746471 592:-0.74408 593:-0.73537 594:-0.733264 595:-0.73493 596:-0.720311 597:-0.717845 598:-0.714871 599:-0.707627 600:-0.70031 
13.00604278219785 1:-0.296888 2:-0.652616 3:-0.722175 4:-0.650584 5:-0.412261 6:-0.198431 7:-0.175768 8:-0.150281 9:-0.195973 10:-0.287654 11:-0.411859 12:-0.402553 13:-0.393251 14:-0.410866 15:-0.275199 16:-0.27357 17:-0.341156 18:-0.478496 19:-0.755163 20:-0.862074 21:-1 22:-1 23:-0.927226 24:-0.741502 25:-0.622687 26:-0.326859 27:0.0311274 28:1 29:1 30:1 31:0.30284 32:-0.939937 33:-0.850858 34:-0.288516 35:0.213992 36:0.428776 37:0.18661 38:0.236235 39:0.643557 40:0.565723 41:0.595285 42:0.453015 43:0.40021 44:0.170122 45:0.0946645 46:0.0254304 47:0.171449 48:0.149798 49:-0.306967 50:-0.421386 51:-0.39493 52:-0.566078 53:-0.453674 54:-0.714054 55:-0.802038 56:-1 57:-0.866794 58:-1 59:-1 60:-0.677303 61:1 62:1 63:0.950115 64:0.144166 65:-0.120085 66:-0.0122721 67:0.0264623 68:0.231512 69:-0.251529 70:-0.218787 71:-0.186188 72:-0.342777 73:-0.157184 74:-0.0860448 75:0.353777 76:0.482857 77:0.460467 78:0.373484 79:0.252953 80:0.341938 81:0.326797 82:0.215011 83:0.363889 84:0.662908 85:0.602188 86:0.491419 87:0.502526 88:0.519565 89:0.373555 90:0.293336 91:0.285421 92:0.229888 93:0.17757 94:0.13008 95:0.103392 96:0.337009 97:0.313646 98:0.0610657 99:-0.440606 100:-0.196382 101:0.599835 102:0.515132 103:0.477019 104:0.454014 105:0.454547 106:0.530424 107:0.624661 108:0.712494 109:0.790916 110:0.840973 111:0.843908 112:0.86316 113:0.852989 114:0.801329 115:0.747241 116:0.644497 117:0.535342 118:0.51552 119:0.463141 120:0.249915 121:-0.00478866 122:-0.248916 123:-0.442345 124:-0.803476 125:-1 126:-0.963176 127:-0.885846 128:-0.839852 129:-0.763689 130:-0.676879 131:-0.521207 132:-0.401971 133:-0.260064 134:-0.0887843 135:-0.0136483 136:0.0690243 137:0.334522 138:0.361936 139:0.343513 140:0.39618 141:0.507442 142:0.666436 143:0.861077 144:0.96775 145:0.908901 146:0.904529 147:0.939687 148:0.975912 149:0.915488 150:0.863574 151:0.878481 152:0.947199 153:1 154:1 155:1 156:1 157:1 158:0.804737 159:0.278041 160:0.238119 161:-0.0161534 162:-0.219553 163:-0.199879 164:-0.101752 165:-0.000550124 166:-0.00434245 167:-0.0379297 168:-0.114281 169:-0.195424 170:-0.190033 171:-0.180501 172:-0.156717 173:-0.150965 174:-0.253689 175:-0.350813 176:-0.446096 177:-0.560616 178:-0.765459 179:-0.883529 180:-0.838522 181:-0.715111 182:-0.666478 183:-0.508112 184:-0.440414 185:-0.463106 186:-0.434432 187:-0.343955 188:-0.309079 189:-0.361537 190:-0.346285 191:-0.315616 192:-0.332038 193:-0.360798 194:-0.403297 195:-0.445101 196:-0.33376 197:-0.152416 198:-0.0559611 199:-0.161842 200:-0.250867 201:0.0235067 202:0.141165 203:0.284066 204:0.394735 205:0.456934 206:0.430365 207:0.372025 208:0.304955 209:0.145337 210:-0.0131257 211:-0.0420296 212:-0.0356296 213:-0.0131587 214:-0.0273303 215:-0.100178 216:-0.139565 217:-0.12977 218:-0.113957 219:-0.116995 220:-0.119359 221:-0.274966 222:-0.501366 223:-0.80108 224:-1 225:-1 226:-0.960782 227:-0.817943 228:-0.664892 229:-0.272021 230:0.294312 231:0.515525 232:0.782871 233:0.947947 234:1 235:1 236:1 237:0.990723 238:0.882097 239:0.75251 240:0.668254 241:0.649721 242:0.635934 243:0.53173 244:0.394645 245:0.39224 246:0.34562 247:0.124933 248:0.0109857 249:-0.0841901 250:-0.246494 251:-0.391457 252:-0.526688 253:-0.584971 254:-0.695298 255:-0.916992 256:-1 257:-1 258:-1 259:-0.502455 260:-0.0767317 261:0.200733 262:0.302685 263:0.493358 264:0.650248 265:0.738017 266:0.739683 267:0.699665 268:0.674245 269:0.724227 270:0.725805 271:0.603923 272:0.534585 273:0.547291 274:0.493223 275:0.442767 276:0.367373 277:0.241451 278:0.25339 279:0.210205 280:0.179007 281:0.157007 282:0.135289 283:0.116418 284:0.0771438 285:0.0290541 286:-0.0103004 287:0.0109913 288:0.179158 289:0.354739 290:0.496003 291:0.597289 292:0.703702 293:0.768127 294:0.785972 295:0.804107 296:0.839371 297:0.872507 298:0.8508 299:0.832033 300:0.845227 301:0.648983 302:0.561789 303:0.464618 304:0.380981 305:0.33376 306:0.319718 307:0.31758 308:0.315191 309:0.306731 310:0.295614 311:0.273092 312:0.230906 313:0.113018 314:-0.0369448 315:-0.178877 316:-0.306439 317:-0.427798 318:-0.545512 319:-0.650357 320:-0.726858 321:-0.782142 322:-0.790468 323:-0.775187 324:-0.7505 325:-0.743167 326:-0.743052 327:-0.734308 328:-0.670132 329:-0.498043 330:-0.326853 331:-0.285999 332:-0.372141 333:-0.449725 334:-0.451848 335:-0.413813 336:-0.363554 337:-0.310725 338:-0.264833 339:-0.207431 340:-0.158288 341:-0.122937 342:-0.0913005 343:-0.0559709 344:-0.032666 345:-0.0248784 346:-0.0287347 347:-0.0389513 348:-0.0522379 349:-0.0777962 350:-0.0874504 351:-0.092264 352:-0.142626 353:-0.262996 354:-0.386895 355:-0.536662 356:-0.715567 357:-0.800577 358:-0.845719 359:-0.941404 360:-0.958181 361:-0.860939 362:-0.744247 363:-0.706714 364:-0.704093 365:-0.710448 366:-0.703838 367:-0.679866 368:-0.657178 369:-0.631601 370:-0.613442 371:-0.61417 372:-0.657804 373:-0.682997 374:-0.643255 375:-0.611932 376:-0.585796 377:-0.569043 378:-0.542487 379:-0.513336 380:-0.512615 381:-0.463839 382:-0.41571 383:-0.370364 384:-0.327552 385:-0.263579 386:-0.182173 387:-0.0732928 388:-0.108238 389:-0.201227 390:-0.2584 391:-0.284966 392:-0.295987 393:-0.305555 394:-0.332933 395:-0.346515 396:-0.180039 397:0.00991005 398:0.166237 399:0.195685 400:0.0960875 401:-0.411908 402:-0.314123 403:-0.213845 404:-0.112862 405:-0.0168572 406:0.0711184 407:0.163388 408:0.247119 409:0.321504 410:0.391403 411:0.458038 412:0.517612 413:0.572288 414:0.620402 415:0.662518 416:0.692736 417:0.6943 418:0.661029 419:0.609715 420:0.523951 421:0.452044 422:0.343869 423:0.240294 424:0.0746811 425:-0.115874 426:-0.360261 427:-0.642781 428:-0.773067 429:-0.857963 430:-0.840146 431:-0.780399 432:-0.705254 433:-0.653603 434:-0.57521 435:-0.450192 436:-0.347638 437:-0.246703 438:-0.141906 439:-0.0502395 440:0.0461663 441:0.11689 442:0.223561 443:0.326705 444:0.426988 445:0.521044 446:0.607311 447:0.647969 448:0.658764 449:0.668465 450:0.641303 451:0.608442 452:0.564596 453:0.524902 454:0.442057 455:0.310674 456:0.159798 457:-0.0383649 458:-0.241648 459:-0.360929 460:-0.448613 461:-0.498984 462:-0.518556 463:-0.516889 464:-0.492072 465:-0.465404 466:-0.442747 467:-0.423949 468:-0.409001 469:-0.398327 470:-0.39344 471:-0.391171 472:-0.391949 473:-0.392288 474:-0.379987 475:-0.377255 476:-0.387096 477:-0.407344 478:-0.426776 479:-0.445334 480:-0.469725 481:-0.499321 482:-0.532656 483:-0.569624 484:-0.611301 485:-0.658683 486:-0.701314 487:-0.730871 488:-0.729294 489:-0.728718 490:-0.728526 491:-0.729786 492:-0.731092 493:-0.732349 494:-0.733615 495:-0.732964 496:-0.726995 497:-0.717836 498:-0.709363 499:-0.693214 500:-0.646015 501:-0.666178 502:-0.665145 503:-0.662194 504:-0.657185 505:-0.655812 506:-0.657799 507:-0.657317 508:-0.657319 509:-0.659993 510:-0.660313 511:-0.662367 512:-0.665881 513:-0.672905 514:-0.680984 515:-0.687318 516:-0.691361 517:-0.697185 518:-0.704702 519:-0.716968 520:-0.717153 521:-0.708657 522:-0.689397 523:-0.667983 524:-0.651353 525:-0.617145 526:-0.583642 527:-0.552216 528:-0.506462 529:-0.484166 530:-0.463347 531:-0.43555 532:-0.400337 533:-0.377616 534:-0.363564 535:-0.343661 536:-0.333873 537:-0.322748 538:-0.314232 539:-0.308701 540:-0.300266 541:-0.28727 542:-0.281629 543:-0.279025 544:-0.28541 545:-0.289111 546:-0.309344 547:-0.326127 548:-0.348743 549:-0.386607 550:-0.419578 551:-0.455131 552:-0.493819 553:-0.535521 554:-0.578344 555:-0.621166 556:-0.663455 557:-0.705153 558:-0.739221 559:-0.757138 560:-0.774387 561:-0.779218 562:-0.774938 563:-0.770553 564:-0.764132 565:-0.756901 566:-0.751792 567:-0.753424 568:-0.751486 569:-0.755946 570:-0.756358 571:-0.750107 572:-0.755455 573:-0.731936 574:-0.738399 575:-0.737211 576:-0.733777 577:-0.732357 578:-0.716817 579:-0.716193 580:-0.705004 581:-0.699764 582:-0.69928 583:-0.700111 584:-0.696489 585:-0.699071 586:-0.702224 587:-0.696992 588:-0.703557 589:-0.706555 590:-0.716325 591:-0.719388 592:-0.723618 593:-0.718241 594:-0.715077 595:-0.713511 596:-0.702274 597:-0.711585 598:-0.720668 599:-0.720183 600:-0.714564 
36.90788752084209 1:-0.481651 2:-0.637333 3:-0.634493 4:-0.522158 5:-0.377314 6:-0.285353 7:-0.272128 8:-0.142119 9:-0.0964651 10:-0.229259 11:-0.317198 12:-0.199913 13:-0.0895036 14:-0.047146 15:0.0744967 16:0.0746766 17:0.0959085 18:0.0939186 19:-0.107196 20:-0.186537 21:-0.2863 22:-0.685778 23:-0.888501 24:-0.88526 25:-0.864575 26:-0.847947 27:-0.859147 28:-0.934853 29:-0.881015 30:-0.817996 31:-0.72604 32:-0.65947 33:-0.733006 34:-0.695471 35:-0.0192717 36:1 37:1 38:0.969998 39:0.294173 40:-0.929484 41:-0.936053 42:-0.344247 43:0.34138 44:0.70057 45:0.900973 46:0.910551 47:0.866087 48:0.796299 49:0.698959 50:0.74723 51:0.72227 52:0.679663 53:0.703143 54:0.523759 55:0.399385 56:0.308693 57:0.295224 58:0.229329 59:0.585104 60:0.629593 61:0.341607 62:-0.0633163 63:0.0508466 64:-0.157434 65:-0.273843 66:-0.343647 67:-0.383703 68:-0.358704 69:-0.727146 70:-0.637352 71:-0.777684 72:-0.851411 73:-0.663581 74:-0.51446 75:0.0655174 76:0.613024 77:0.878383 78:0.619638 79:0.231229 80:0.0742192 81:-0.056022 82:-0.16194 83:0.0421166 84:0.524396 85:0.720986 86:0.638803 87:0.584893 88:0.630027 89:0.629884 90:0.711188 91:0.81639 92:0.89276 93:0.883593 94:0.724862 95:0.483693 96:0.589148 97:0.639259 98:0.69898 99:0.510851 100:0.389758 101:0.690781 102:0.685026 103:0.728758 104:0.754712 105:0.743782 106:0.769653 107:0.799458 108:0.815377 109:0.811839 110:0.788675 111:0.758912 112:0.776079 113:0.777409 114:0.7802 115:0.791437 116:0.773103 117:0.729332 118:0.693614 119:0.645068 120:0.546902 121:0.472985 122:0.386327 123:0.338352 124:0.225163 125:0.161034 126:0.128517 127:0.0315659 128:-0.0982548 129:-0.282921 130:-0.519082 131:-0.664684 132:-0.847823 133:-1 134:-1 135:-1 136:-1 137:-0.965375 138:-0.878008 139:-0.819044 140:-0.660303 141:-0.523926 142:-0.387198 143:-0.29709 144:-0.206334 145:-0.025965 146:0.113217 147:0.228835 148:0.309496 149:0.334721 150:0.400086 151:0.510677 152:0.62455 153:0.674195 154:0.616301 155:0.493844 156:0.32971 157:0.226148 158:0.229794 159:0.161693 160:0.15171 161:0.19631 162:0.175778 163:0.211869 164:0.332793 165:0.515376 166:0.536732 167:0.514003 168:0.480241 169:0.429953 170:0.414062 171:0.417116 172:0.282129 173:0.138754 174:-0.0831081 175:-0.301254 176:-0.456281 177:-0.534872 178:-0.67991 179:-0.744174 180:-0.661811 181:-0.528037 182:-0.480715 183:-0.346049 184:-0.303669 185:-0.372089 186:-0.396991 187:-0.401106 188:-0.432287 189:-0.502392 190:-0.519798 191:-0.549819 192:-0.621209 193:-0.676219 194:-0.711868 195:-0.747699 196:-0.773052 197:-0.774258 198:-0.642506 199:-0.689526 200:-0.743931 201:0.0188825 202:0.171672 203:0.294651 204:0.368911 205:0.435956 206:0.493631 207:0.53658 208:0.534649 209:0.415636 210:0.30717 211:0.298926 212:0.302348 213:0.305225 214:0.304103 215:0.27446 216:0.258939 217:0.269058 218:0.280358 219:0.28713 220:0.299244 221:0.223009 222:0.12467 223:-0.00521372 224:-0.0581205 225:-0.0142952 226:-0.0329201 227:-0.0366451 228:-0.106276 229:-0.315381 230:-0.341904 231:-0.515407 232:-0.660245 233:-0.796873 234:-0.79427 235:-0.739148 236:-0.5495 237:-0.340444 238:0.011551 239:0.159671 240:0.379904 241:0.528045 242:0.625234 243:0.617502 244:0.603189 245:0.699713 246:0.75396 247:0.719658 248:0.715582 249:0.710474 250:0.691546 251:0.690505 252:0.705591 253:0.739989 254:0.770212 255:0.778054 256:0.788488 257:0.705215 258:0.561892 259:0.433769 260:0.359353 261:0.207094 262:-0.106606 263:-0.202539 264:-0.351437 265:-0.359149 266:-0.542137 267:-0.817626 268:-0.944216 269:-0.855855 270:-0.719303 271:-0.75143 272:-0.310561 273:-0.0578784 274:-0.056772 275:0.222902 276:0.593088 277:0.696008 278:0.756477 279:0.679513 280:0.696199 281:0.750535 282:0.779687 283:0.779536 284:0.746039 285:0.699594 286:0.645005 287:0.614828 288:0.633652 289:0.647512 290:0.61014 291:0.544414 292:0.480648 293:0.406661 294:0.339195 295:0.276451 296:0.221794 297:0.207676 298:0.2082 299:0.219227 300:0.234078 301:0.526544 302:0.472507 303:0.414045 304:0.365586 305:0.328505 306:0.301307 307:0.281567 308:0.269473 309:0.261302 310:0.249909 311:0.234558 312:0.216753 313:0.14094 314:0.0351882 315:-0.0642436 316:-0.149325 317:-0.209895 318:-0.261411 319:-0.308813 320:-0.364697 321:-0.423807 322:-0.469247 323:-0.508417 324:-0.546977 325:-0.591879 326:-0.626839 327:-0.651332 328:-0.663952 329:-0.660526 330:-0.65075 331:-0.637606 332:-0.636929 333:-0.650231 334:-0.669221 335:-0.658835 336:-0.598233 337:-0.511758 338:-0.451351 339:-0.43538 340:-0.496264 341:-0.561789 342:-0.593723 343:-0.570268 344:-0.518335 345:-0.465751 346:-0.413815 347:-0.361676 348:-0.304952 349:-0.234303 350:-0.112739 351:0.0697795 352:0.271776 353:0.423859 354:0.582222 355:0.691757 356:0.593723 357:0.501614 358:0.419904 359:0.33692 360:0.247019 361:0.150219 362:0.0420118 363:-0.0774743 364:-0.168991 365:-0.243498 366:-0.305899 367:-0.360447 368:-0.417471 369:-0.449169 370:-0.45287 371:-0.471318 372:-0.538888 373:-0.601184 374:-0.612762 375:-0.626715 376:-0.611645 377:-0.563507 378:-0.517589 379:-0.485276 380:-0.494358 381:-0.466126 382:-0.44212 383:-0.417605 384:-0.386329 385:-0.32202 386:-0.243437 387:-0.158901 388:-0.208815 389:-0.295558 390:-0.342529 391:-0.356626 392:-0.341825 393:-0.306822 394:-0.267941 395:-0.207913 396:-0.0299986 397:0.124068 398:0.266942 399:0.348118 400:0.31388 401:-0.468662 402:-0.398735 403:-0.328866 404:-0.26186 405:-0.199039 406:-0.137245 407:-0.0604647 408:0.0107849 409:0.0744334 410:0.133972 411:0.192659 412:0.247786 413:0.301504 414:0.354342 415:0.411238 416:0.470187 417:0.517233 418:0.545205 419:0.57051 420:0.58364 421:0.625118 422:0.647534 423:0.671746 424:0.670108 425:0.648809 426:0.59209 427:0.499081 428:0.428929 429:0.339897 430:0.252788 431:0.160016 432:0.0437607 433:-0.12199 434:-0.299592 435:-0.422294 436:-0.518075 437:-0.567584 438:-0.582051 439:-0.589577 440:-0.553297 441:-0.518545 442:-0.40437 443:-0.284524 444:-0.16864 445:-0.0557787 446:0.0528354 447:0.130147 448:0.183715 449:0.237058 450:0.270866 451:0.317847 452:0.3719 453:0.450996 454:0.518453 455:0.565648 456:0.622335 457:0.658951 458:0.681225 459:0.692819 460:0.690975 461:0.677688 462:0.650586 463:0.603223 464:0.538968 465:0.460743 466:0.371536 467:0.271577 468:0.160255 469:0.0352932 470:-0.0998784 471:-0.216585 472:-0.287513 473:-0.331733 474:-0.341423 475:-0.333068 476:-0.314185 477:-0.301187 478:-0.276644 479:-0.253713 480:-0.234201 481:-0.215222 482:-0.196778 483:-0.180134 484:-0.165876 485:-0.155561 486:-0.14255 487:-0.123466 488:-0.0881716 489:-0.0584215 490:-0.0334462 491:-0.0139053 492:0.00190378 493:0.0145461 494:0.0237932 495:0.0291616 496:0.0309718 497:0.0330924 498:0.0180063 499:-0.00239953 500:-0.0091094 501:-0.681557 502:-0.684012 503:-0.685288 504:-0.685037 505:-0.687904 506:-0.693248 507:-0.695475 508:-0.696991 509:-0.69961 510:-0.698223 511:-0.697256 512:-0.696978 513:-0.698997 514:-0.701615 515:-0.702198 516:-0.700931 517:-0.699321 518:-0.698846 519:-0.704688 520:-0.708253 521:-0.712284 522:-0.712116 523:-0.714503 524:-0.726829 525:-0.725046 526:-0.723865 527:-0.722705 528:-0.700678 529:-0.690723 530:-0.680473 531:-0.65612 532:-0.618752 533:-0.588101 534:-0.562449 535:-0.529684 536:-0.505373 537:-0.482444 538:-0.46559 539:-0.451149 540:-0.433429 541:-0.412982 542:-0.398863 543:-0.387257 544:-0.382628 545:-0.372053 546:-0.372162 547:-0.362731 548:-0.353524 549:-0.354879 550:-0.347124 551:-0.338779 552:-0.331914 553:-0.327595 554:-0.325271 555:-0.32486 556:-0.326072 557:-0.330062 558:-0.338024 559:-0.350706 560:-0.368657 561:-0.391817 562:-0.42004 563:-0.454052 564:-0.485965 565:-0.516773 566:-0.548807 567:-0.585246 568:-0.618112 569:-0.657624 570:-0.691636 571:-0.716677 572:-0.744354 573:-0.736687 574:-0.751304 575:-0.750529 576:-0.74449 577:-0.743068 578:-0.728921 579:-0.731135 580:-0.723096 581:-0.720858 582:-0.722387 583:-0.724369 584:-0.720534 585:-0.721856 586:-0.722477 587:-0.71228 588:-0.712087 589:-0.708909 590:-0.712893 591:-0.710152 592:-0.709931 593:-0.702735 594:-0.701527 595:-0.703648 596:-0.689668 597:-0.68757 598:-0.684784 599:-0.67738 600:-0.669042 
28.74603342967012 1:-0.625918 2:-0.6053 3:-0.509729 4:-0.495779 5:-0.471944 6:-0.496456 7:-0.548479 8:-0.448144 9:-0.343895 10:-0.333066 11:-0.290954 12:-0.0528798 13:0.13722 14:0.263473 15:0.46961 16:0.587792 17:0.728424 18:0.876467 19:0.900739 20:0.926314 21:0.941603 22:0.168445 23:-0.172608 24:0.186813 25:0.3794 26:1 27:0.441885 28:0.216655 29:-0.321844 30:-0.320043 31:-0.139271 32:-0.0396364 33:-0.224724 34:-0.296188 35:-0.234229 36:-0.212884 37:-0.301033 38:-0.320173 39:-0.083726 40:-0.172296 41:-0.219034 42:-0.219353 43:-0.0170621 44:-0.159088 45:-0.134436 46:-0.157601 47:0.0379291 48:0.0796897 49:-0.18874 50:-0.11356 51:-0.0207556 52:-0.087986 53:0.0998094 54:0.0524093 55:0.10707 56:-0.0379005 57:-0.333849 58:-0.572824 59:-0.3162 60:-0.633429 61:-0.565353 62:-0.35337 63:0.167525 64:0.362275 65:0.422412 66:0.301519 67:0.104605 68:0.257369 69:-0.245222 70:-0.216688 71:-0.241155 72:-0.468493 73:-0.350939 74:-0.304468 75:0.112289 76:0.336105 77:0.371828 78:0.270903 79:0.00362568 80:-0.00502643 81:-0.0417646 82:-0.124822 83:0.0141498 84:0.289599 85:0.291464 86:0.180206 87:0.177001 88:0.211896 89:0.15709 90:0.097178 91:0.109865 92:0.125917 93:0.118032 94:0.033417 95:-0.115463 96:-0.102898 97:-0.155715 98:-0.121589 99:-0.428487 100:-0.453297 101:-0.307152 102:-0.273895 103:-0.194581 104:-0.127628 105:-0.127157 106:-0.0950187 107:-0.0658935 108:-0.0649461 109:-0.0593764 110:-0.0717379 111:-0.0844092 112:-0.0492472 113:-0.0253922 114:0.00421416 115:0.0451636 116:0.0776222 117:0.0967356 118:0.112085 119:0.116128 120:0.0643717 121:0.0198077 122:-0.0274471 123:-0.0216848 124:-0.124148 125:-0.121877 126:-0.0642197 127:-0.00662352 128:0.0175073 129:-0.00625721 130:-0.0238718 131:-0.0113988 132:-0.00457186 133:0.000937803 134:0.00540871 135:-0.0510893 136:-0.0847706 137:-0.00719067 138:-0.116698 139:-0.147379 140:-0.1017 141:-0.103787 142:-0.0399722 143:0.00837751 144:0.00734326 145:0.0572116 146:0.122511 147:0.21592 148:0.305981 149:0.340348 150:0.397179 151:0.492128 152:0.5665 153:0.56445 154:0.452689 155:0.323788 156:0.174511 157:0.0785977 158:0.0665547 159:-0.0485552 160:-0.0503493 161:0.0252824 162:0.0101565 163:-0.0136142 164:0.0247763 165:0.097161 166:0.0527991 167:-0.0170832 168:-0.105797 169:-0.200227 170:-0.212893 171:-0.214914 172:-0.187532 173:-0.167786 174:-0.265023 175:-0.358176 176:-0.448248 177:-0.559589 178:-0.773785 179:-0.913031 180:-0.889291 181:-0.789028 182:-0.788317 183:-0.685552 184:-0.688348 185:-0.773207 186:-0.814858 187:-0.812495 188:-0.816612 189:-0.857056 190:-0.832417 191:-0.816696 192:-0.836265 193:-0.828795 194:-0.81131 195:-0.810574 196:-0.819346 197:-0.812752 198:-0.676624 199:-0.730436 200:-0.808092 201:-0.199612 202:-0.109327 203:-0.0199262 204:0.0395282 205:0.111571 206:0.191084 207:0.259367 208:0.331328 209:0.352789 210:0.37699 211:0.481151 212:0.563037 213:0.628493 214:0.677509 215:0.699623 216:0.734954 217:0.769104 218:0.806097 219:0.832799 220:0.841225 221:0.835419 222:0.844815 223:0.860286 224:0.893891 225:0.915712 226:0.930843 227:0.938931 228:0.941174 229:0.936393 230:0.938347 231:0.934242 232:0.892257 233:0.88683 234:0.832726 235:0.748686 236:0.654378 237:0.485462 238:0.350238 239:0.201214 240:0.17405 241:0.23527 242:0.289322 243:0.223682 244:0.106235 245:0.178814 246:0.209871 247:0.0505611 248:0.005391 249:-0.0202149 250:-0.0907968 251:-0.134289 252:-0.160268 253:-0.115114 254:-0.105114 255:-0.170309 256:-0.161487 257:-0.1177 258:-0.258671 259:-0.358192 260:-0.145205 261:0.0471672 262:0.0190474 263:0.173253 264:0.312035 265:0.500778 266:0.599138 267:0.647877 268:0.708611 269:0.794498 270:0.817355 271:0.704507 272:0.623575 273:0.619453 274:0.546058 275:0.455195 276:0.344974 277:0.191758 278:0.176915 279:0.114727 280:0.0639686 281:0.0188682 282:-0.0409979 283:-0.105062 284:-0.178397 285:-0.262509 286:-0.365451 287:-0.470331 288:-0.454257 289:-0.455444 290:-0.475646 291:-0.507166 292:-0.553878 293:-0.566337 294:-0.555982 295:-0.591262 296:-0.638936 297:-0.62412 298:-0.600985 299:-0.591186 300:-0.598959 301:-0.53843 302:-0.508629 303:-0.51333 304:-0.522315 305:-0.528728 306:-0.525568 307:-0.522611 308:-0.525433 309:-0.531265 310:-0.540372 311:-0.557506 312:-0.574196 313:-0.59092 314:-0.621196 315:-0.649834 316:-0.666942 317:-0.658283 318:-0.646135 319:-0.629988 320:-0.611523 321:-0.584249 322:-0.532965 323:-0.479816 324:-0.418277 325:-0.36805 326:-0.316141 327:-0.261055 328:-0.206556 329:-0.143231 330:-0.081152 331:-0.0152787 332:0.0458922 333:0.107793 334:0.166511 335:0.218989 336:0.266954 337:0.314121 338:0.352827 339:0.3792 340:0.403879 341:0.413198 342:0.411454 343:0.416566 344:0.421029 345:0.424583 346:0.429905 347:0.441511 348:0.472648 349:0.513566 350:0.622427 351:0.798442 352:0.958535 353:1 354:1 355:0.937633 356:0.632844 357:0.357869 358:0.117451 359:-0.0618102 360:-0.209325 361:-0.310425 362:-0.370796 363:-0.413281 364:-0.404258 365:-0.38644 366:-0.359201 367:-0.333865 368:-0.319064 369:-0.296397 370:-0.268792 371:-0.25724 372:-0.282329 373:-0.29774 374:-0.263754 375:-0.231413 376:-0.186196 377:-0.140054 378:-0.111401 379:-0.0837457 380:-0.0748702 381:-0.0346398 382:0.00702272 383:0.0502751 384:0.0963824 385:0.162058 386:0.237462 387:0.322149 388:0.199166 389:0.0368648 390:-0.0576608 391:-0.107108 392:-0.119642 393:-0.103624 394:-0.0778071 395:-0.029506 396:0.122811 397:0.256558 398:0.379202 399:0.445853 400:0.388651 401:-0.620838 402:-0.610438 403:-0.603483 404:-0.596292 405:-0.589778 406:-0.582815 407:-0.548962 408:-0.516777 409:-0.485415 410:-0.453977 411:-0.420577 412:-0.388575 413:-0.354918 414:-0.320775 415:-0.281254 416:-0.23541 417:-0.190646 418:-0.148529 419:-0.100945 420:-0.0509414 421:0.0995073 422:0.216444 423:0.3519 424:0.446252 425:0.533436 426:0.590965 427:0.624993 428:0.681413 429:0.724802 430:0.770685 431:0.813991 432:0.85124 433:0.881678 434:0.886621 435:0.899536 436:0.906933 437:0.906655 438:0.909492 439:0.919006 440:0.924401 441:0.890638 442:0.866688 443:0.854975 444:0.865159 445:0.888059 446:0.921063 447:0.920171 448:0.903415 449:0.90607 450:0.888844 451:0.885816 452:0.893592 453:0.937493 454:0.959834 455:0.95594 456:0.960279 457:0.93784 458:0.90145 459:0.856086 460:0.811137 461:0.777706 462:0.75162 463:0.727687 464:0.705458 465:0.687996 466:0.684826 467:0.689859 468:0.701934 469:0.717885 470:0.727316 471:0.733326 472:0.737509 473:0.741222 474:0.745367 475:0.748935 476:0.749818 477:0.749851 478:0.741927 479:0.730447 480:0.719905 481:0.708421 482:0.699219 483:0.691888 484:0.684664 485:0.679512 486:0.676412 487:0.673987 488:0.678354 489:0.683815 490:0.691861 491:0.700807 492:0.715149 493:0.736088 494:0.760491 495:0.788577 496:0.817848 497:0.857113 498:0.864703 499:0.854714 500:0.845341 501:0.796546 502:0.78861 503:0.78853 504:0.796628 505:0.791144 506:0.776692 507:0.776565 508:0.776536 509:0.776233 510:0.782211 511:0.782576 512:0.790251 513:0.787846 514:0.783231 515:0.787826 516:0.793273 517:0.799552 518:0.800306 519:0.807783 520:0.808961 521:0.818769 522:0.830016 523:0.839094 524:0.846542 525:0.871059 526:0.881679 527:0.908222 528:0.93331 529:0.932872 530:0.974744 531:0.997162 532:0.0482971 533:-0.992117 534:-0.976068 535:-0.95178 536:-0.930106 537:-0.911507 538:-0.902649 539:-0.8968 540:-0.889821 541:-0.875612 542:-0.866088 543:-0.861789 544:-0.866201 545:-0.863371 546:-0.869729 547:-0.871587 548:-0.875544 549:-0.898407 550:-0.910861 551:-0.926818 552:-0.948094 553:-0.972781 554:0.181974 555:0.987852 556:0.952381 557:0.91882 558:0.886463 559:0.863948 560:0.844533 561:0.831694 562:0.820588 563:0.804073 564:0.800682 565:0.800911 566:0.798447 567:0.797458 568:0.798798 569:0.802226 570:0.807232 571:0.816805 572:0.826184 573:0.837877 574:0.840933 575:0.827742 576:0.825383 577:0.827285 578:0.82449 579:0.830621 580:0.826279 581:0.828018 582:0.821977 583:0.82838 584:0.825 585:0.819999 586:0.817624 587:0.846059 588:0.843231 589:0.83793 590:0.810667 591:0.810717 592:0.807812 593:0.80999 594:0.804863 595:0.804505 596:0.808102 597:0.810364 598:0.811175 599:0.810684 600:0.800401 
42.88207816647197 1:-0.246774 2:-0.353131 3:-0.336928 4:-0.29545 5:-0.226809 6:-0.155394 7:-0.146076 8:-0.0219241 9:0.0453665 10:-0.0096577 11:-0.00871215 12:0.134711 13:0.253188 14:0.358514 15:0.535848 16:0.640872 17:0.767602 18:0.898259 19:0.885696 20:0.884034 21:0.870775 22:0.118269 23:-0.209185 24:0.127988 25:0.301866 26:0.856169 27:0.324828 28:0.0841169 29:-0.405416 30:-0.415805 31:-0.26674 32:-0.166924 33:-0.308878 34:-0.364753 35:-0.270716 36:-0.185434 37:-0.246055 38:-0.215918 39:0.121281 40:0.0744067 41:0.0667632 42:0.0302409 43:0.151623 44:-0.00135174 45:-0.0870369 46:-0.209504 47:-0.117325 48:-0.187038 49:-0.682839 50:-0.703411 51:-0.620815 52:-0.90925 53:-0.879632 54:-0.808492 55:-0.29886 56:-0.0887499 57:0.0164557 58:0.0557451 59:0.477927 60:0.626598 61:0.555847 62:0.183144 63:0.449581 64:0.251077 65:0.0327326 66:-0.120756 67:-0.199973 68:-0.0469326 69:-0.382692 70:-0.24247 71:-0.200107 72:-0.422931 73:-0.337396 74:-0.346976 75:-0.0299183 76:0.11902 77:0.0698237 78:-0.070178 79:-0.401081 80:-0.354662 81:-0.349214 82:-0.38542 83:-0.244061 84:-0.0116587 85:0.00928966 86:-0.0679943 87:-0.0435022 88:0.0108852 89:-0.0356357 90:-0.0877945 91:-0.0404921 92:0.0256882 93:0.0735436 94:0.0433363 95:-0.0702385 96:-0.0115057 97:-0.0130023 98:0.0469002 99:-0.212753 100:-0.231989 101:-0.000413394 102:-0.0394689 103:-0.0149671 104:-0.0142665 105:-0.0307812 106:-0.00377747 107:0.00924226 108:0.00240961 109:-0.00730565 110:-0.0322215 111:-0.0503029 112:-0.0179852 113:-0.00449292 114:0.0187645 115:0.0498011 116:0.0716444 117:0.095518 118:0.113772 119:0.112167 120:0.0646147 121:0.0340674 122:0.00433399 123:0.0274849 124:-0.0597317 125:-0.0565851 126:-0.00510883 127:0.0402622 128:0.053444 129:0.0289588 130:0.00877883 131:0.0166299 132:0.0162433 133:0.0183116 134:0.0471758 135:0.00523149 136:-0.0268268 137:0.121028 138:0.0870967 139:0.0577033 140:0.121775 141:0.190364 142:0.295815 143:0.369687 144:0.395313 145:0.399863 146:0.444221 147:0.523625 148:0.614357 149:0.633508 150:0.639493 151:0.650516 152:0.637773 153:0.536703 154:0.379799 155:0.222239 156:-0.0108741 157:-0.199526 158:-0.252687 159:-0.366345 160:-0.317968 161:-0.255989 162:-0.251048 163:-0.231365 164:-0.138678 165:-0.0249097 166:-0.039968 167:-0.0902125 168:-0.169708 169:-0.243786 170:-0.239329 171:-0.236261 172:-0.207359 173:-0.190728 174:-0.292654 175:-0.392059 176:-0.484763 177:-0.594674 178:-0.800053 179:-0.92641 180:-0.885872 181:-0.772213 182:-0.761952 183:-0.652747 184:-0.663131 185:-0.762598 186:-0.797335 187:-0.791259 188:-0.785548 189:-0.818462 190:-0.777527 191:-0.734833 192:-0.721269 193:-0.688149 194:-0.654393 195:-0.647853 196:-0.647581 197:-0.63331 198:-0.507428 199:-0.546033 200:-0.604624 201:0.560694 202:0.630302 203:0.714476 204:0.763211 205:0.833065 206:0.897365 207:0.961892 208:1 209:0.962452 210:0.945202 211:0.923917 212:0.908245 213:0.901627 214:0.907641 215:0.875933 216:0.860268 217:0.857534 218:0.866099 219:0.869967 220:0.855523 221:0.826205 222:0.813431 223:0.799496 224:0.805521 225:0.813609 226:0.816116 227:0.824006 228:0.822514 229:0.805497 230:0.813992 231:0.808988 232:0.764586 233:0.752184 234:0.698227 235:0.61292 236:0.513255 237:0.286656 238:0.119924 239:-0.0364902 240:-0.0676971 241:-0.0223003 242:0.0305521 243:-0.0678855 244:-0.255466 245:-0.193068 246:-0.180261 247:-0.448577 248:-0.555261 249:-0.605945 250:-0.702948 251:-0.729323 252:-0.646239 253:-0.408177 254:-0.180006 255:-0.0089586 256:0.204248 257:0.36655 258:0.398841 259:0.490489 260:0.65185 261:0.710221 262:0.666971 263:0.728878 264:0.742227 265:0.760539 266:0.731349 267:0.650989 268:0.58621 269:0.617241 270:0.606657 271:0.458262 272:0.377807 273:0.334465 274:0.135744 275:-0.00505535 276:-0.118392 277:-0.255943 278:-0.260708 279:-0.283217 280:-0.305031 281:-0.335813 282:-0.376979 283:-0.415713 284:-0.457514 285:-0.515602 286:-0.60964 287:-0.708345 288:-0.673794 289:-0.667218 290:-0.662807 291:-0.668504 292:-0.685494 293:-0.667296 294:-0.640805 295:-0.666527 296:-0.714185 297:-0.683977 298:-0.645216 299:-0.61345 300:-0.59704 301:-0.185224 302:-0.178895 303:-0.200636 304:-0.226752 305:-0.245138 306:-0.252554 307:-0.254404 308:-0.256795 309:-0.260162 310:-0.265256 311:-0.273767 312:-0.284967 313:-0.313441 314:-0.362699 315:-0.402992 316:-0.428485 317:-0.423839 318:-0.412897 319:-0.392782 320:-0.36865 321:-0.332492 322:-0.281832 323:-0.225798 324:-0.161041 325:-0.110818 326:-0.0584668 327:-0.00560084 328:0.0482097 329:0.105162 330:0.158938 331:0.214124 332:0.261344 333:0.307531 334:0.345832 335:0.381653 336:0.415023 337:0.444837 338:0.461748 339:0.474793 340:0.482085 341:0.461572 342:0.434045 343:0.390849 344:0.348387 345:0.281615 346:0.214637 347:0.135954 348:0.0668543 349:-0.00347462 350:-0.0322116 351:-0.0296494 352:-0.0463734 353:-0.114854 354:-0.134452 355:-0.157891 356:-0.242707 357:-0.308706 358:-0.334249 359:-0.35627 360:-0.358999 361:-0.354694 362:-0.346371 363:-0.345105 364:-0.324594 365:-0.303755 366:-0.288228 367:-0.276296 368:-0.277393 369:-0.263745 370:-0.242451 371:-0.23346 372:-0.260085 373:-0.28313 374:-0.261096 375:-0.248137 376:-0.2271 377:-0.209156 378:-0.204036 379:-0.196588 380:-0.211843 381:-0.18994 382:-0.165475 383:-0.139699 384:-0.111853 385:-0.063755 386:-0.00571555 387:0.0600473 388:-0.0403437 389:-0.175559 390:-0.258583 391:-0.305281 392:-0.319754 393:-0.312106 394:-0.298265 395:-0.263839 396:-0.105359 397:0.0298999 398:0.152173 399:0.197177 400:0.121733 401:-0.153814 402:-0.148419 403:-0.145508 404:-0.139231 405:-0.13494 406:-0.128042 407:-0.103875 408:-0.0801076 409:-0.0576139 410:-0.0329569 411:-0.00516151 412:0.0243402 413:0.0558762 414:0.0918721 415:0.133508 416:0.185167 417:0.232477 418:0.27505 419:0.323134 420:0.372997 421:0.478057 422:0.562737 423:0.653781 424:0.721174 425:0.776592 426:0.806481 427:0.820206 428:0.836784 429:0.855414 430:0.873542 431:0.895623 432:0.915068 433:0.931756 434:0.926727 435:0.930419 436:0.930647 437:0.928154 438:0.929675 439:0.936001 440:0.943283 441:0.919692 442:0.90055 443:0.890939 444:0.901344 445:0.920527 446:0.948599 447:0.934672 448:0.901884 449:0.880328 450:0.833881 451:0.795063 452:0.769497 453:0.778324 454:0.78013 455:0.764303 456:0.763794 457:0.74744 458:0.735804 459:0.724306 460:0.724727 461:0.728585 462:0.740153 463:0.749395 464:0.754702 465:0.757715 466:0.760299 467:0.761643 468:0.763133 469:0.763995 470:0.757932 471:0.7486 472:0.739675 473:0.727761 474:0.719702 475:0.708023 476:0.695432 477:0.680434 478:0.658436 479:0.635451 480:0.61255 481:0.590948 482:0.571148 483:0.554307 484:0.538432 485:0.524722 486:0.51413 487:0.506416 488:0.507078 489:0.509289 490:0.512323 491:0.517007 492:0.525588 493:0.539528 494:0.555629 495:0.572997 496:0.591033 497:0.616712 498:0.615798 499:0.602846 500:0.594937 501:0.781539 502:0.773884 503:0.774234 504:0.783654 505:0.77925 506:0.766381 507:0.767616 508:0.76935 509:0.771132 510:0.779323 511:0.782328 512:0.792337 513:0.793024 514:0.79107 515:0.799257 516:0.808112 517:0.818349 518:0.823021 519:0.835421 520:0.841082 521:0.856272 522:0.871956 523:0.886021 524:0.898082 525:0.926983 526:0.941829 527:0.971807 528:1 529:1 530:-0.0346108 531:-0.986983 532:-0.954747 533:-0.933982 534:-0.925041 535:-0.907686 536:-0.893765 537:-0.884395 538:-0.886616 539:-0.889355 540:-0.893224 541:-0.894994 542:-0.899324 543:-0.916495 544:-0.94151 545:-0.966028 546:-0.815392 547:0.228626 548:0.945686 549:0.910441 550:0.878616 551:0.8505 552:0.828411 553:0.810731 554:0.797906 555:0.787247 556:0.782168 557:0.778397 558:0.777685 559:0.777628 560:0.780611 561:0.784599 562:0.788653 563:0.784947 564:0.790457 565:0.797957 566:0.799592 567:0.800636 568:0.802509 569:0.803988 570:0.806551 571:0.812938 572:0.81945 573:0.827944 574:0.82843 575:0.812468 576:0.8077 577:0.807119 578:0.802301 579:0.806554 580:0.800849 581:0.801617 582:0.795131 583:0.801239 584:0.798549 585:0.794343 586:0.793075 587:0.822339 588:0.820828 589:0.816883 590:0.791255 591:0.792471 592:0.790713 593:0.793973 594:0.789899 595:0.790551 596:0.79518 597:0.798386 598:0.800077 599:0.800487 600:0.791146 
12.99954367110053 1:-0.466465 2:-0.596497 3:-0.584948 4:-0.527538 5:-0.430047 6:-0.359932 7:-0.361043 8:-0.229895 9:-0.170534 10:-0.281281 11:-0.387768 12:-0.251496 13:-0.069996 14:0.0674916 15:0.306024 16:0.399597 17:0.444314 18:0.468212 19:0.373913 20:0.416412 21:0.454187 22:-0.162082 23:-0.448808 24:-0.213224 25:-0.0756376 26:0.320978 27:-0.0735204 28:-0.291213 29:-0.593753 30:-0.573213 31:-0.422127 32:-0.295753 33:-0.386538 34:-0.433952 35:-0.293922 36:-0.156544 37:-0.220181 38:-0.306434 39:-0.317314 40:-0.573916 41:-0.59161 42:-0.551501 43:-0.338966 44:-0.524299 45:-0.304882 46:-0.0449615 47:0.365034 48:0.353836 49:-0.130418 50:-0.251101 51:-0.178618 52:-0.219016 53:0.0401907 54:0.0876701 55:0.197505 56:0.158025 57:0.0334785 58:-0.122434 59:0.152103 60:0.067541 61:0.0498212 62:-0.0537445 63:0.282858 64:0.222343 65:0.0796204 66:-0.0704202 67:-0.184515 68:-0.0717811 69:-0.425451 70:-0.324231 71:-0.307243 72:-0.51904 73:-0.472625 74:-0.52077 75:-0.251809 76:-0.109529 77:-0.215642 78:-0.374826 79:-0.729674 80:-0.586679 81:-0.550921 82:-0.638303 83:-0.590875 84:-0.442833 85:-0.37412 86:-0.391583 87:-0.35543 88:-0.296722 89:-0.280406 90:-0.269068 91:-0.156706 92:-0.110351 93:-0.162494 94:-0.28202 95:-0.362972 96:-0.320776 97:-0.336857 98:-0.285175 99:-0.634069 100:-0.689944 101:0.245143 102:0.0888757 103:0.0460619 104:0.0257414 105:-0.00480756 106:0.019091 107:0.0218719 108:-0.00340174 109:-0.0105459 110:-0.0355944 111:-0.0714121 112:-0.0608698 113:-0.0474594 114:-0.0130131 115:0.0456553 116:0.0792982 117:0.102169 118:0.123298 119:0.140458 120:0.122435 121:0.116281 122:0.0903477 123:0.0983756 124:0.0165728 125:0.0299256 126:0.0886156 127:0.146541 128:0.166398 129:0.166243 130:0.181131 131:0.21962 132:0.252706 133:0.289903 134:0.352099 135:0.378103 136:0.418178 137:0.681512 138:0.612303 139:0.486428 140:0.458447 141:0.479617 142:0.460456 143:0.402156 144:0.34252 145:0.280848 146:0.191094 147:0.146715 148:0.151539 149:0.0835128 150:0.0496218 151:0.0536465 152:0.0307034 153:-0.0441672 154:-0.138754 155:-0.222899 156:-0.335602 157:-0.41414 158:-0.439453 159:-0.518192 160:-0.429261 161:-0.345967 162:-0.308778 163:-0.260964 164:-0.156802 165:-0.0474789 166:-0.0737377 167:-0.131573 168:-0.216346 169:-0.28434 170:-0.271607 171:-0.244973 172:-0.179942 173:-0.129235 174:-0.181485 175:-0.20953 176:-0.23109 177:-0.251621 178:-0.360786 179:-0.383971 180:-0.303279 181:-0.189271 182:-0.112211 183:0.0959153 184:0.23894 185:0.234682 186:0.22203 187:0.244615 188:0.279649 189:0.308923 190:0.372615 191:0.423224 192:0.439709 193:0.42588 194:0.451853 195:0.45875 196:0.464344 197:0.481128 198:0.518449 199:0.515958 200:0.534682 201:0.206166 202:0.228942 203:0.243903 204:0.25718 205:0.273375 206:0.268166 207:0.257906 208:0.224195 209:0.115649 210:0.0357242 211:0.110785 212:0.195184 213:0.25199 214:0.287838 215:0.318822 216:0.358602 217:0.403098 218:0.44758 219:0.486152 220:0.5166 221:0.479396 222:0.44198 223:0.400252 224:0.410213 225:0.459324 226:0.475889 227:0.504397 228:0.520579 229:0.48395 230:0.507157 231:0.485168 232:0.442552 233:0.415736 234:0.355377 235:0.243089 236:0.0639272 237:-0.31699 238:-0.531857 239:-0.796064 240:-0.869959 241:-0.769435 242:-0.584036 243:-0.577527 244:-0.60866 245:-0.264571 246:-0.00704736 247:0.0651956 248:0.2067 249:0.347452 250:0.421727 251:0.480186 252:0.534608 253:0.618993 254:0.697892 255:0.750271 256:0.82086 257:0.806997 258:0.7657 259:0.807905 260:0.846653 261:0.81027 262:0.740135 263:0.787397 264:0.832167 265:0.875588 266:0.892626 267:0.873525 268:0.831271 269:0.833485 270:0.797707 271:0.656112 272:0.550268 273:0.503564 274:0.34074 275:0.177374 276:0.0145009 277:-0.168384 278:-0.205747 279:-0.255784 280:-0.287083 281:-0.336644 282:-0.376031 283:-0.397017 284:-0.434668 285:-0.504397 286:-0.614753 287:-0.73235 288:-0.721043 289:-0.746327 290:-0.770845 291:-0.801603 292:-0.86046 293:-0.867304 294:-0.842242 295:-0.856898 296:-0.865132 297:-0.807774 298:-0.770222 299:-0.755732 300:-0.730448 301:0.599027 302:0.505453 303:0.41655 304:0.34081 305:0.282788 306:0.243775 307:0.220157 308:0.212791 309:0.218341 310:0.229925 311:0.245557 312:0.271548 313:0.248929 314:0.201831 315:0.173309 316:0.169227 317:0.18984 318:0.223438 319:0.269413 320:0.325376 321:0.390016 322:0.438022 323:0.486177 324:0.539287 325:0.565471 326:0.584897 327:0.605073 328:0.621086 329:0.636387 330:0.649876 331:0.66149 332:0.670696 333:0.673938 334:0.665699 335:0.646075 336:0.610307 337:0.550658 338:0.441257 339:0.290811 340:0.107247 341:-0.0828348 342:-0.228681 343:-0.323835 344:-0.383037 345:-0.420304 346:-0.431159 347:-0.412618 348:-0.380941 349:-0.343685 350:-0.270361 351:-0.152805 352:-0.0181939 353:0.0996843 354:0.25731 355:0.403381 356:0.390189 357:0.378598 358:0.370822 359:0.360844 360:0.355631 361:0.365388 362:0.389244 363:0.42068 364:0.46966 365:0.525777 366:0.590277 367:0.656053 368:0.682832 369:0.715183 370:0.747802 371:0.7784 372:0.802788 373:0.824081 374:0.833562 375:0.823226 376:0.809682 377:0.771515 378:0.636794 379:0.513093 380:0.391108 381:0.294616 382:0.207094 383:0.126841 384:0.0535044 385:0.0038323 386:-0.0301631 387:-0.0572566 388:-0.217427 389:-0.381468 390:-0.487862 391:-0.555345 392:-0.594299 393:-0.623025 394:-0.659888 395:-0.68254 396:-0.545847 397:-0.440573 398:-0.353364 399:-0.402457 400:-0.579402 401:0.319218 402:0.324 403:0.33031 404:0.339448 405:0.349716 406:0.361603 407:0.383575 408:0.404214 409:0.422281 410:0.443269 411:0.469141 412:0.496119 413:0.524578 414:0.55478 415:0.593419 416:0.639052 417:0.67726 418:0.700362 419:0.727893 420:0.751173 421:0.791924 422:0.821878 423:0.85318 424:0.876299 425:0.886249 426:0.879293 427:0.85741 428:0.843568 429:0.836815 430:0.841358 431:0.854137 432:0.873 433:0.891108 434:0.894528 435:0.913635 436:0.934278 437:0.952257 438:0.965462 439:0.964203 440:0.938667 441:0.853387 442:0.762571 443:0.685721 444:0.643191 445:0.62963 446:0.638956 447:0.631399 448:0.628492 449:0.648422 450:0.653306 451:0.672558 452:0.700958 453:0.760255 454:0.805315 455:0.828502 456:0.866803 457:0.887516 458:0.898654 459:0.906325 460:0.910008 461:0.914432 462:0.921715 463:0.927388 464:0.930181 465:0.93161 466:0.933567 467:0.935401 468:0.936802 469:0.938771 470:0.933113 471:0.928132 472:0.925234 473:0.925186 474:0.929226 475:0.935913 476:0.942211 477:0.948284 478:0.943322 479:0.934331 480:0.922588 481:0.905824 482:0.886969 483:0.868427 484:0.849258 485:0.828484 486:0.807304 487:0.781604 488:0.757314 489:0.731767 490:0.705725 491:0.67855 492:0.651475 493:0.624602 494:0.592019 495:0.553282 496:0.508021 497:0.459273 498:0.37397 499:0.265525 500:0.155113 501:-0.512745 502:-0.509203 503:-0.503113 504:-0.494216 505:-0.489509 506:-0.487791 507:-0.480741 508:-0.471986 509:-0.463523 510:-0.450042 511:-0.436711 512:-0.421239 513:-0.408049 514:-0.39461 515:-0.375881 516:-0.353375 517:-0.328839 518:-0.304818 519:-0.282438 520:-0.258181 521:-0.230635 522:-0.200531 523:-0.174356 524:-0.157119 525:-0.127959 526:-0.108588 527:-0.0889717 528:-0.0622848 529:-0.0595561 530:-0.0467382 531:-0.0382151 532:-0.029979 533:-0.0324781 534:-0.0390294 535:-0.0440321 536:-0.0695865 537:-0.10125 538:-0.14607 539:-0.208842 540:-0.275836 541:-0.333193 542:-0.378292 543:-0.410484 544:-0.438505 545:-0.4515 546:-0.466946 547:-0.467264 548:-0.463982 549:-0.467749 550:-0.458269 551:-0.445403 552:-0.431343 553:-0.416778 554:-0.401409 555:-0.385687 556:-0.368579 557:-0.350274 558:-0.331179 559:-0.311536 560:-0.291408 561:-0.270951 562:-0.250596 563:-0.232915 564:-0.210708 565:-0.186807 566:-0.165749 567:-0.148466 568:-0.131078 569:-0.120907 570:-0.111051 571:-0.0989294 572:-0.0977995 573:-0.0838745 574:-0.0967453 575:-0.118399 576:-0.139844 577:-0.16538 578:-0.186748 579:-0.216597 580:-0.242803 581:-0.269066 582:-0.296956 583:-0.319224 584:-0.337636 585:-0.358159 586:-0.375205 587:-0.37537 588:-0.38924 589:-0.400798 590:-0.421723 591:-0.431297 592:-0.442947 593:-0.447406 594:-0.457808 595:-0.469711 596:-0.467012 597:-0.474214 598:-0.480627 599:-0.482866 600:-0.485483 
51.11976925719876 1:-0.521641 2:-0.57641 3:-0.509611 4:-0.421502 5:-0.340366 6:-0.327299 7:-0.429337 8:-0.371039 9:-0.31794 10:-0.368235 11:-0.407253 12:-0.259101 13:-0.0862615 14:-0.0073565 15:0.183762 16:0.253057 17:0.350938 18:0.422855 19:0.284537 20:0.226511 21:0.126059 22:-0.366652 23:-0.562432 24:-0.375847 25:-0.240608 26:0.157841 27:-0.113164 28:-0.278815 29:-0.560579 30:-0.52839 31:-0.306682 32:-0.131064 33:-0.317268 34:-0.449157 35:-0.469452 36:-0.578804 37:-0.640084 38:-0.679666 39:-0.212305 40:-0.0250731 41:0.119096 42:-0.0293456 43:-0.0441513 44:-0.261036 45:-0.182061 46:-0.191992 47:-0.0712653 48:-0.124117 49:-0.579955 50:-0.538847 51:-0.344214 52:-0.350288 53:-0.113789 54:-0.140506 55:0.0176625 56:0.0350838 57:-0.0699517 58:-0.237297 59:0.00631552 60:-0.245446 61:-0.414662 62:-0.50543 63:-0.402329 64:-0.554253 65:-0.588029 66:-0.563019 67:-0.496955 68:-0.449282 69:-0.73348 70:-0.614189 71:-0.592561 72:-0.672485 73:-0.502307 74:-0.460481 75:-0.142632 76:0.0503925 77:0.028189 78:-0.133151 79:-0.562367 80:-0.443712 81:-0.301381 82:-0.229487 83:0.0472648 84:0.449138 85:0.588124 86:0.6007 87:0.628051 88:0.555818 89:0.239921 90:-0.128652 91:-0.267337 92:-0.180082 93:0.068048 94:0.242951 95:0.245632 96:0.454626 97:0.601585 98:0.768372 99:0.642158 100:0.219394 101:0.189748 102:0.0752779 103:0.0456131 104:0.0240892 105:-0.00424606 106:0.0306891 107:0.0430566 108:0.0255727 109:-0.00665283 110:-0.0450741 111:-0.081949 112:-0.070541 113:-0.0351104 114:-0.00988319 115:0.00686783 116:0.0251293 117:0.0408753 118:0.0566268 119:0.0614101 120:0.0152109 121:-0.0300906 122:-0.0595853 123:-0.0215767 124:-0.0589371 125:0.049948 126:0.196635 127:0.326291 128:0.392259 129:0.434297 130:0.473898 131:0.523359 132:0.554265 133:0.555895 134:0.526194 135:0.465106 136:0.389055 137:0.492055 138:0.391946 139:0.264323 140:0.12657 141:0.0557276 142:0.0414108 143:-0.0232461 144:-0.130261 145:-0.119593 146:-0.0778895 147:-0.0317783 148:-0.0175535 149:-0.0704305 150:-0.0879837 151:-0.0541329 152:-0.054937 153:-0.0979481 154:-0.16019 155:-0.23198 156:-0.337345 157:-0.404545 158:-0.42387 159:-0.503801 160:-0.426231 161:-0.33585 162:-0.279245 163:-0.206713 164:-0.0610934 165:0.115232 166:0.161619 167:0.152952 168:0.119325 169:0.0768318 170:0.0868283 171:0.0855916 172:0.0937857 173:0.10237 174:0.0138904 175:-0.0710025 176:-0.14169 177:-0.215434 178:-0.397381 179:-0.508962 180:-0.446878 181:-0.304831 182:-0.195497 183:0.0119034 184:0.104773 185:0.061592 186:0.0252823 187:0.00697411 188:-0.0700416 189:-0.221837 190:-0.338906 191:-0.430512 192:-0.526771 193:-0.579806 194:-0.595069 195:-0.618216 196:-0.643766 197:-0.647042 198:-0.538672 199:-0.194215 200:0.0849711 201:0.0188825 202:0.0335189 203:0.0277029 204:0.00141878 205:0.00168854 206:0.00977964 207:-0.000822152 208:-0.00751425 209:-0.0636657 210:-0.104882 211:0.0166764 212:0.14919 213:0.250894 214:0.308818 215:0.316191 216:0.349726 217:0.408219 218:0.457674 219:0.467214 220:0.480594 221:0.416857 222:0.334936 223:0.232265 224:0.207873 225:0.25536 226:0.267274 227:0.293813 228:0.284521 229:0.201362 230:0.215494 231:0.169076 232:0.0991855 233:0.00752958 234:-0.0702586 235:-0.198545 236:-0.375471 237:-0.662325 238:-0.542323 239:-0.47494 240:-0.242152 241:0.044806 242:0.268788 243:0.322166 244:0.290043 245:0.378018 246:0.423849 247:0.332103 248:0.339356 249:0.353975 250:0.332992 251:0.358539 252:0.417072 253:0.507864 254:0.591418 255:0.631229 256:0.682564 257:0.647252 258:0.540537 259:0.47705 260:0.477153 261:0.388268 262:0.187562 263:0.197621 264:0.149363 265:0.166079 266:0.0635469 267:-0.105161 268:-0.168483 269:-0.0429158 270:0.0062883 271:-0.217877 272:-0.256109 273:-0.373482 274:-0.826267 275:-1 276:-1 277:-0.968249 278:-0.850011 279:-0.745772 280:-0.637748 281:-0.528646 282:-0.453336 283:-0.392694 284:-0.330939 285:-0.271045 286:-0.191769 287:-0.0740399 288:0.157449 289:0.388736 290:0.585455 291:0.74309 292:0.874846 293:0.929466 294:0.931473 295:0.930912 296:0.928643 297:0.927461 298:0.916234 299:0.856757 300:0.744967 301:0.359167 302:0.298414 303:0.241394 304:0.197845 305:0.169239 306:0.151698 307:0.137878 308:0.131109 309:0.137111 310:0.156588 311:0.188606 312:0.23716 313:0.24566 314:0.233829 315:0.241511 316:0.279511 317:0.355175 318:0.455792 319:0.564251 320:0.668949 321:0.754394 322:0.78502 323:0.800767 324:0.806745 325:0.775694 326:0.73716 327:0.701532 328:0.659912 329:0.618151 330:0.569339 331:0.513944 332:0.438162 333:0.327241 334:0.185996 335:0.0314165 336:-0.110527 337:-0.221236 338:-0.306406 339:-0.339015 340:-0.349509 341:-0.355583 342:-0.35553 343:-0.340047 344:-0.315827 345:-0.290543 346:-0.261563 347:-0.223854 348:-0.174616 349:-0.116233 350:-0.00839692 351:0.164514 352:0.367537 353:0.531446 354:0.725116 355:0.896889 356:0.844313 357:0.775916 358:0.687699 359:0.582993 360:0.466955 361:0.343236 362:0.214131 363:0.0861757 364:-0.0193507 365:-0.117184 366:-0.210341 367:-0.297948 368:-0.391342 369:-0.45904 370:-0.506689 371:-0.559045 372:-0.651866 373:-0.728489 374:-0.740392 375:-0.758638 376:-0.774215 377:-0.791468 378:-0.785425 379:-0.794586 380:-0.845432 381:-0.832301 382:-0.807362 383:-0.767781 384:-0.713672 385:-0.60039 386:-0.422898 387:-0.158827 388:0.00519224 389:0.0747769 390:0.10871 391:0.0210195 392:-0.203957 393:-0.49215 394:-0.771904 395:-1 396:-1 397:-1 398:-1 399:-1 400:-1 401:0.131572 402:0.171178 403:0.207032 404:0.238928 405:0.268867 406:0.300369 407:0.341862 408:0.382553 409:0.422228 410:0.464831 411:0.512685 412:0.562441 413:0.6153 414:0.66954 415:0.728445 416:0.790226 417:0.840796 418:0.868016 419:0.887748 420:0.890874 421:0.889078 422:0.879132 423:0.871794 424:0.864427 425:0.8562 426:0.842991 427:0.824898 428:0.82507 429:0.836094 430:0.860078 431:0.892239 432:0.926302 433:0.947625 434:0.929059 435:0.895905 436:0.838982 437:0.769485 438:0.712875 439:0.668204 440:0.63887 441:0.6002 442:0.604352 443:0.628838 444:0.669113 445:0.716184 446:0.76921 447:0.787477 448:0.787085 449:0.799818 450:0.789215 451:0.7903 452:0.803097 453:0.851066 454:0.88514 455:0.895686 456:0.919605 457:0.923914 458:0.915272 459:0.89899 460:0.874784 461:0.847138 462:0.817298 463:0.782751 464:0.741521 465:0.693682 466:0.640518 467:0.580299 468:0.513545 469:0.442805 470:0.360457 471:0.270298 472:0.177614 473:0.085589 474:0.00329919 475:-0.0833367 476:-0.174999 477:-0.268862 478:-0.357784 479:-0.441205 480:-0.523356 481:-0.602051 482:-0.677839 483:-0.752411 484:-0.826537 485:-0.900259 486:-0.960841 487:-1 488:-1 489:-1 490:-1 491:-1 492:-1 493:-1 494:-1 495:-1 496:-1 497:-1 498:-0.99027 499:-0.994921 500:-1 501:-0.495067 502:-0.492879 503:-0.487901 504:-0.479822 505:-0.475666 506:-0.474413 507:-0.467631 508:-0.459123 509:-0.450266 510:-0.43568 511:-0.420577 512:-0.402055 513:-0.384742 514:-0.364992 515:-0.337423 516:-0.303472 517:-0.264086 518:-0.222222 519:-0.181201 520:-0.140682 521:-0.101062 522:-0.0664086 523:-0.0425715 524:-0.032867 525:-0.0156546 526:-0.0125228 527:-0.0113851 528:-0.00773982 529:-0.0304981 530:-0.0460534 531:-0.0709616 532:-0.103371 533:-0.155104 534:-0.215781 535:-0.269138 536:-0.323025 537:-0.359166 538:-0.386981 539:-0.409524 540:-0.419745 541:-0.417171 542:-0.412972 543:-0.404404 544:-0.397901 545:-0.382927 546:-0.377418 547:-0.361128 548:-0.343681 549:-0.335666 550:-0.317491 551:-0.297562 552:-0.277455 553:-0.25805 554:-0.238947 555:-0.220985 556:-0.204229 557:-0.190789 558:-0.181831 559:-0.177229 560:-0.177228 561:-0.182524 562:-0.193257 563:-0.209757 564:-0.224714 565:-0.240697 566:-0.260998 567:-0.285434 568:-0.306255 569:-0.330549 570:-0.349371 571:-0.35955 572:-0.376375 573:-0.370206 574:-0.388398 575:-0.402605 576:-0.411231 577:-0.419628 578:-0.416686 579:-0.42245 580:-0.421207 581:-0.423619 582:-0.431673 583:-0.439653 584:-0.446546 585:-0.461619 586:-0.481181 587:-0.496266 588:-0.533365 589:-0.571631 590:-0.609706 591:-0.609569 592:-0.576383 593:-0.51886 594:-0.471658 595:-0.437072 596:-0.398124 597:-0.376081 598:-0.357053 599:-0.363396 600:-0.384504 
27.04410191315326 1:-0.261454 2:-0.354771 3:-0.347239 4:-0.320069 5:-0.25576 6:-0.213919 7:-0.270164 8:-0.211935 9:-0.186665 10:-0.258622 11:-0.326547 12:-0.179082 13:-0.0206614 14:0.0864387 15:0.294442 16:0.398041 17:0.480715 18:0.552396 19:0.464383 20:0.414106 21:0.415599 22:-0.134118 23:-0.403684 24:-0.185767 25:-0.111672 26:0.205042 27:-0.149591 28:-0.336935 29:-0.610567 30:-0.594473 31:-0.465904 32:-0.356486 33:-0.422931 34:-0.444019 35:-0.330329 36:-0.225965 37:-0.237488 38:-0.208861 39:-0.00982184 40:-0.257952 41:-0.452173 42:-0.583193 43:-0.453953 44:-0.773195 45:-0.664206 46:-0.504323 47:-0.0834718 48:0.11564 49:-0.0521882 50:-0.104837 51:-0.157405 52:-0.280538 53:-0.0635364 54:-0.0187462 55:0.1591 56:0.149753 57:0.029505 58:-0.112847 59:0.191225 60:0.162095 61:0.11526 62:-0.0267847 63:0.311683 64:0.248804 65:0.0732708 66:-0.119175 67:-0.229449 68:-0.099869 69:-0.439546 70:-0.34862 71:-0.346629 72:-0.564117 73:-0.490014 74:-0.499963 75:-0.217488 76:-0.0548822 77:-0.134701 78:-0.312668 79:-0.736284 80:-0.670469 81:-0.647134 82:-0.706731 83:-0.64089 84:-0.539505 85:-0.519926 86:-0.508958 87:-0.375038 88:-0.265345 89:-0.265013 90:-0.236632 91:-0.192084 92:-0.196243 93:-0.16011 94:-0.159229 95:-0.209682 96:-0.135943 97:-0.17898 98:-0.208379 99:-0.605721 100:-0.696518 101:-0.000413394 102:-0.0770084 103:-0.0937285 104:-0.0815621 105:-0.0679476 106:-0.00712107 107:0.0166314 108:0.00120286 109:-0.0178106 110:-0.0463878 111:-0.0729609 112:-0.0361825 113:-0.0230222 114:0.0132102 115:0.0630953 116:0.0977903 117:0.115342 118:0.130617 119:0.139626 120:0.104226 121:0.0843644 122:0.0767738 123:0.0722599 124:-0.0403133 125:-0.0539971 126:-0.0047881 127:0.0529709 128:0.0873043 129:0.0887846 130:0.102899 131:0.151116 132:0.184838 133:0.239395 134:0.320122 135:0.326928 136:0.348522 137:0.608675 138:0.594141 139:0.544298 140:0.532443 141:0.515225 142:0.5198 143:0.504298 144:0.438472 145:0.393679 146:0.349853 147:0.277924 148:0.212646 149:0.132616 150:0.120563 151:0.115746 152:0.0697118 153:-0.0222951 154:-0.129472 155:-0.225763 156:-0.33895 157:-0.422737 158:-0.458431 159:-0.548137 160:-0.467147 161:-0.384987 162:-0.346755 163:-0.300835 164:-0.194246 165:-0.0863229 166:-0.107833 167:-0.148356 168:-0.210326 169:-0.274137 170:-0.270821 171:-0.256433 172:-0.21519 173:-0.185712 174:-0.261121 175:-0.314169 176:-0.34707 177:-0.387995 178:-0.522881 179:-0.566275 180:-0.462348 181:-0.299318 182:-0.196183 183:0.000635223 184:0.114791 185:0.0895923 186:0.0704609 187:0.0862998 188:0.120516 189:0.141514 190:0.184754 191:0.189515 192:0.210182 193:0.223598 194:0.248732 195:0.278628 196:0.325671 197:0.382501 198:0.44484 199:0.410583 200:0.376879 201:0.226587 202:0.24354 203:0.239692 204:0.194228 205:0.147011 206:0.11225 207:0.0944548 208:0.0737592 209:-0.00382741 210:-0.0464754 211:0.0698145 212:0.16373 213:0.245322 214:0.289657 215:0.301768 216:0.335483 217:0.384049 218:0.435283 219:0.474926 220:0.500094 221:0.472214 222:0.438164 223:0.381444 224:0.379424 225:0.426088 226:0.441575 227:0.468437 228:0.469262 229:0.410496 230:0.430779 231:0.40705 232:0.368168 233:0.355402 234:0.338286 235:0.262475 236:0.130632 237:-0.177523 238:-0.308096 239:-0.452328 240:-0.456326 241:-0.380211 242:-0.306269 243:-0.366339 244:-0.468477 245:-0.231296 246:-0.0782228 247:-0.162629 248:-0.0391317 249:0.138095 250:0.243655 251:0.331554 252:0.406073 253:0.50765 254:0.592687 255:0.652782 256:0.73253 257:0.728203 258:0.678547 259:0.70146 260:0.744871 261:0.720537 262:0.641529 263:0.685627 264:0.715867 265:0.751769 266:0.747349 267:0.700546 268:0.661727 269:0.697964 270:0.686561 271:0.561583 272:0.483381 273:0.465711 274:0.328719 275:0.202982 276:0.0848457 277:-0.0632978 278:-0.0919076 279:-0.157726 280:-0.20407 281:-0.260292 282:-0.316339 283:-0.359234 284:-0.423647 285:-0.494994 286:-0.566929 287:-0.628341 288:-0.589175 289:-0.58591 290:-0.626039 291:-0.616482 292:-0.612023 293:-0.587584 294:-0.553866 295:-0.564052 296:-0.587193 297:-0.544137 298:-0.483622 299:-0.411981 300:-0.360632 301:0.37226 302:0.329809 303:0.280293 304:0.236281 305:0.206068 306:0.188075 307:0.177813 308:0.175064 309:0.18135 310:0.197246 311:0.219554 312:0.253461 313:0.240758 314:0.202016 315:0.176859 316:0.177096 317:0.20611 318:0.252104 319:0.31093 320:0.375267 321:0.447515 322:0.50414 323:0.559207 324:0.613282 325:0.63265 326:0.640688 327:0.647323 328:0.648358 329:0.648906 330:0.646171 331:0.64026 332:0.631454 333:0.620601 334:0.607895 335:0.592011 336:0.572404 337:0.545943 338:0.495566 339:0.426698 340:0.328639 341:0.188574 342:0.0299352 343:-0.10498 344:-0.209691 345:-0.294636 346:-0.353979 347:-0.381003 348:-0.378752 349:-0.352098 350:-0.286968 351:-0.186159 352:-0.0743759 353:0.0166801 354:0.145304 355:0.269528 356:0.251017 357:0.23359 358:0.221958 359:0.210668 360:0.203746 361:0.209632 362:0.224702 363:0.243208 364:0.278271 365:0.31389 366:0.347871 367:0.376255 368:0.376619 369:0.388098 370:0.401498 371:0.409596 372:0.396578 373:0.385272 374:0.388766 375:0.382607 376:0.383297 377:0.372981 378:0.298696 379:0.227417 380:0.142816 381:0.0834586 382:0.0263009 383:-0.0275166 384:-0.0813844 385:-0.115621 386:-0.135579 387:-0.14387 388:-0.274595 389:-0.416988 390:-0.50874 391:-0.568232 392:-0.605575 393:-0.630055 394:-0.655227 395:-0.661445 396:-0.507829 397:-0.385888 398:-0.283766 399:-0.311836 400:-0.468765 401:0.262252 402:0.2848 403:0.304492 404:0.320388 405:0.33208 406:0.343227 407:0.364662 408:0.385809 409:0.40643 410:0.431131 411:0.462018 412:0.493986 413:0.528259 414:0.563952 415:0.606837 416:0.655816 417:0.696794 418:0.72217 419:0.750405 420:0.770941 421:0.806683 422:0.832948 423:0.857869 424:0.872151 425:0.871366 426:0.85219 427:0.817211 428:0.79558 429:0.780647 430:0.77847 431:0.785812 432:0.798811 433:0.810888 434:0.811727 435:0.827782 436:0.843468 437:0.859846 438:0.881749 439:0.903762 440:0.91985 441:0.889171 442:0.846664 443:0.802989 444:0.776838 445:0.768263 446:0.773074 447:0.748197 448:0.715379 449:0.712657 450:0.704264 451:0.715471 452:0.736104 453:0.788108 454:0.825913 455:0.843086 456:0.876532 457:0.892329 458:0.897795 459:0.898731 460:0.895375 461:0.893251 462:0.894643 463:0.894472 464:0.892179 465:0.888685 466:0.885895 467:0.883758 468:0.882866 469:0.883345 470:0.875178 471:0.86643 472:0.857261 473:0.847926 474:0.840757 475:0.834448 476:0.828272 477:0.821491 478:0.804791 479:0.784725 480:0.762513 481:0.737622 482:0.711098 483:0.683577 484:0.653654 485:0.621426 486:0.591165 487:0.560779 488:0.537239 489:0.512244 490:0.484089 491:0.454759 492:0.426854 493:0.39917 494:0.366978 495:0.328461 496:0.281688 497:0.22981 498:0.149929 499:0.0588345 500:-0.023661 501:-0.474915 502:-0.471497 503:-0.465222 504:-0.456014 505:-0.451481 506:-0.450297 507:-0.443601 508:-0.43532 509:-0.427107 510:-0.413589 511:-0.400311 512:-0.384763 513:-0.371237 514:-0.357196 515:-0.337814 516:-0.314739 517:-0.289162 518:-0.263573 519:-0.238806 520:-0.212376 521:-0.181907 522:-0.149386 523:-0.121865 524:-0.103875 525:-0.0747725 526:-0.0567812 527:-0.0392896 528:-0.0169136 529:-0.0195124 530:-0.0115329 531:-0.00888489 532:-0.00687498 533:-0.0144002 534:-0.0228355 535:-0.0253555 536:-0.0436565 537:-0.063178 538:-0.0889369 539:-0.126577 540:-0.16667 541:-0.206961 542:-0.254937 543:-0.296395 544:-0.334062 545:-0.357596 546:-0.384613 547:-0.395401 548:-0.400497 549:-0.41084 550:-0.407671 551:-0.399871 552:-0.389467 553:-0.378312 554:-0.366388 555:-0.353541 556:-0.339465 557:-0.324487 558:-0.308856 559:-0.292779 560:-0.276726 561:-0.260299 562:-0.244606 563:-0.232243 564:-0.216303 565:-0.199819 566:-0.187237 567:-0.179881 568:-0.171603 569:-0.169296 570:-0.165993 571:-0.15851 572:-0.160823 573:-0.146803 574:-0.157558 575:-0.172623 576:-0.184862 577:-0.199136 578:-0.207768 579:-0.224937 580:-0.239117 581:-0.25528 582:-0.275256 583:-0.290495 584:-0.303059 585:-0.318256 586:-0.330428 587:-0.325558 588:-0.335723 589:-0.344165 590:-0.362938 591:-0.369343 592:-0.378309 593:-0.380686 594:-0.389412 595:-0.400082 596:-0.397567 597:-0.40535 598:-0.41319 599:-0.417259 600:-0.421856 
13.30947213578967 1:-0.243231 2:-0.338642 3:-0.290941 4:-0.203775 5:-0.14188 6:-0.0771731 7:-0.118509 8:-0.0942441 9:-0.0509433 10:-0.0933987 11:-0.0748152 12:0.0417992 13:0.136227 14:0.208303 15:0.396648 16:0.468223 17:0.545355 18:0.623856 19:0.566977 20:0.55874 21:0.555249 22:-0.0677475 23:-0.353247 24:-0.0850162 25:0.0320123 26:0.424288 27:-0.006474 28:-0.229415 29:-0.574206 30:-0.579564 31:-0.472286 32:-0.388649 33:-0.477227 34:-0.544262 35:-0.465028 36:-0.407065 37:-0.410292 38:-0.415817 39:-0.144508 40:-0.168335 41:-0.158367 42:-0.153939 43:0.0901952 44:0.0514675 45:0.150788 46:0.176752 47:0.289106 48:0.228764 49:-0.206093 50:-0.220964 51:-0.230802 52:-0.50404 53:-0.269453 54:-0.391276 55:-0.240587 56:0.19064 57:0.417985 58:0.326096 59:0.582551 60:0.606734 61:0.38304 62:0.0542694 63:0.282327 64:0.221243 65:0.124306 66:-0.0124347 67:-0.161525 68:-0.0772267 69:-0.464686 70:-0.356317 71:-0.312299 72:-0.487906 73:-0.37059 74:-0.364751 75:-0.0389494 76:0.113012 77:0.0556097 78:-0.0865421 79:-0.41867 80:-0.359594 81:-0.341656 82:-0.389058 83:-0.280833 84:-0.0809469 85:-0.0712665 86:-0.137551 87:-0.139783 88:-0.152262 89:-0.254694 90:-0.356239 91:-0.291005 92:-0.253198 93:-0.248408 94:-0.254821 95:-0.342126 96:-0.364567 97:-0.528873 98:-0.580471 99:-1 100:-1 101:-0.551881 102:-0.597949 103:-0.5541 104:-0.489511 105:-0.422162 106:-0.317259 107:-0.261731 108:-0.254896 109:-0.263846 110:-0.276385 111:-0.271133 112:-0.209375 113:-0.150414 114:-0.0866334 115:-0.0381141 116:-0.00534074 117:0.0213269 118:0.0506047 119:0.0751561 120:0.0381367 121:0.00856789 122:-0.00857805 123:0.0158138 124:-0.0720948 125:-0.0685518 126:-0.00278855 127:0.0560036 128:0.0830571 129:0.0830658 130:0.0815074 131:0.101588 132:0.11329 133:0.125631 134:0.153528 135:0.108018 136:0.0592627 137:0.191313 138:0.120424 139:0.040772 140:0.0505875 141:0.065759 142:0.127531 143:0.235415 144:0.319664 145:0.406119 146:0.504035 147:0.598517 148:0.665383 149:0.597259 150:0.527874 151:0.510983 152:0.49712 153:0.388931 154:0.203675 155:0.00854199 156:-0.198085 157:-0.320024 158:-0.3697 159:-0.466932 160:-0.391253 161:-0.292735 162:-0.237641 163:-0.182518 164:-0.0916986 165:0.0313675 166:0.0559191 167:-0.0151517 168:-0.105581 169:-0.184198 170:-0.178781 171:-0.168194 172:-0.1368 173:-0.123674 174:-0.220219 175:-0.309442 176:-0.392096 177:-0.485917 178:-0.683395 179:-0.805583 180:-0.767255 181:-0.655991 182:-0.622192 183:-0.477872 184:-0.438326 185:-0.507866 186:-0.54975 187:-0.559538 188:-0.559441 189:-0.579416 190:-0.521159 191:-0.472772 192:-0.45378 193:-0.423802 194:-0.376172 195:-0.348503 196:-0.309989 197:-0.226398 198:-0.0506446 199:0.00170962 200:0.032948 201:0.655491 202:0.74021 203:0.803179 204:0.827258 205:0.875614 206:0.904765 207:0.929155 208:0.932975 209:0.840816 210:0.757019 211:0.705058 212:0.662258 213:0.654921 214:0.658054 215:0.62747 216:0.612189 217:0.611525 218:0.620091 219:0.62224 220:0.627889 221:0.59309 222:0.554182 223:0.503384 224:0.496637 225:0.528845 226:0.537572 227:0.558047 228:0.55698 229:0.498049 230:0.516555 231:0.500471 232:0.466249 233:0.45259 234:0.433892 235:0.387956 236:0.318734 237:0.133013 238:0.0705783 239:0.00536482 240:0.0345816 241:0.112614 242:0.179779 243:0.110832 244:-0.0407763 245:0.0120555 246:0.00334128 247:-0.274689 248:-0.435534 249:-0.567347 250:-0.727545 251:-0.79541 252:-0.788088 253:-0.667676 254:-0.44801 255:-0.226614 256:0.132716 257:0.433738 258:0.59254 259:0.822513 260:0.964828 261:0.937736 262:0.818663 263:0.782984 264:0.772766 265:0.774652 266:0.729484 267:0.654571 268:0.597324 269:0.632949 270:0.627715 271:0.492315 272:0.42689 273:0.42141 274:0.314781 275:0.247066 276:0.17279 277:0.0549458 278:0.0755524 279:0.0575981 280:0.0520845 281:0.0297912 282:-0.0128358 283:-0.0620404 284:-0.121206 285:-0.19474 286:-0.302224 287:-0.440174 288:-0.476064 289:-0.534594 290:-0.594607 291:-0.626469 292:-0.672606 293:-0.681686 294:-0.694935 295:-0.752993 296:-0.821534 297:-0.794367 298:-0.735816 299:-0.68126 300:-0.642513 301:-0.0762178 302:-0.0949469 303:-0.127169 304:-0.154481 305:-0.166617 306:-0.164654 307:-0.158187 308:-0.15344 309:-0.141868 310:-0.125304 311:-0.106546 312:-0.0817349 313:-0.0883712 314:-0.119414 315:-0.140133 316:-0.138487 317:-0.110236 318:-0.0699391 319:-0.0143328 320:0.0514307 321:0.128856 322:0.204438 323:0.280803 324:0.360477 325:0.413834 326:0.452752 327:0.488903 328:0.51856 329:0.539661 330:0.554755 331:0.566278 332:0.572562 333:0.571282 334:0.568255 335:0.565877 336:0.567019 337:0.573924 338:0.576335 339:0.585088 340:0.594347 341:0.587066 342:0.574458 343:0.56781 344:0.559354 345:0.545146 346:0.508835 347:0.443659 348:0.365972 349:0.261356 350:0.19687 351:0.169842 352:0.117316 353:0.035714 354:-0.00791354 355:-0.0388075 356:-0.113709 357:-0.153761 358:-0.159979 359:-0.14658 360:-0.126044 361:-0.109081 362:-0.0957332 363:-0.0951139 364:-0.0643917 365:-0.0322554 366:-0.00741263 367:0.0087396 368:0.000342025 369:0.00140105 370:0.00504544 371:0.00229245 372:-0.0270792 373:-0.0455485 374:-0.0273456 375:-0.0138965 376:0.00795819 377:0.02472 378:0.0143488 379:0.0115351 380:-0.00654814 381:0.00734013 382:0.0218139 383:0.0361861 384:0.0517081 385:0.0856269 386:0.129337 387:0.176482 388:0.0369401 389:-0.133147 390:-0.242619 391:-0.308892 392:-0.343914 393:-0.359436 394:-0.370694 395:-0.366216 396:-0.23351 397:-0.13375 398:-0.0543368 399:-0.0834733 400:-0.245712 401:0.0221048 402:0.0653126 403:0.103216 404:0.137827 405:0.170366 406:0.201858 407:0.243924 408:0.28371 409:0.319348 410:0.355948 411:0.39622 412:0.434294 413:0.475371 414:0.520561 415:0.574396 416:0.633756 417:0.687832 418:0.729246 419:0.771273 420:0.810219 421:0.861671 422:0.901861 423:0.936627 424:0.966275 425:0.978513 426:0.972945 427:0.952942 428:0.933044 429:0.921482 430:0.918937 431:0.922718 432:0.931972 433:0.940637 434:0.93076 435:0.930563 436:0.929364 437:0.926342 438:0.928299 439:0.934386 440:0.940909 441:0.91489 442:0.893726 443:0.888069 444:0.905057 445:0.937153 446:0.982323 447:0.988302 448:0.970782 449:0.961147 450:0.911362 451:0.86542 452:0.822799 453:0.804335 454:0.776876 455:0.737019 456:0.728748 457:0.720843 458:0.720457 459:0.734369 460:0.755456 461:0.777031 462:0.79911 463:0.813516 464:0.818089 465:0.820895 466:0.826493 467:0.831249 468:0.835638 469:0.839959 470:0.834394 471:0.826873 472:0.818727 473:0.811109 474:0.806461 475:0.80175 476:0.796592 477:0.7899 478:0.775815 479:0.761715 480:0.748352 481:0.735494 482:0.72491 483:0.716497 484:0.707934 485:0.700216 486:0.695152 487:0.686489 488:0.681237 489:0.675336 490:0.66852 491:0.661847 492:0.658517 493:0.659574 494:0.658106 495:0.653773 496:0.645315 497:0.638747 498:0.602 499:0.549693 500:0.500683 501:0.152576 502:0.152738 503:0.1582 504:0.169282 505:0.170927 506:0.166526 507:0.172004 508:0.178503 509:0.185541 510:0.198288 511:0.207925 512:0.222578 513:0.230979 514:0.238419 515:0.253899 516:0.272964 517:0.29377 518:0.312064 519:0.334842 520:0.356239 521:0.385191 522:0.416337 523:0.444328 524:0.466611 525:0.503157 526:0.524171 527:0.552509 528:0.580013 529:0.577119 530:0.602496 531:0.611904 532:0.614558 533:0.608985 534:0.61084 535:0.620413 536:0.609716 537:0.60806 538:0.614847 539:0.609903 540:0.612948 541:0.619993 542:0.615652 543:0.615176 544:0.608073 545:0.599807 546:0.563029 547:0.52679 548:0.480899 549:0.420911 550:0.364546 551:0.314889 552:0.272279 553:0.240482 554:0.218877 555:0.205269 556:0.20036 557:0.199806 558:0.203949 559:0.213397 560:0.226838 561:0.239516 562:0.249676 563:0.252443 564:0.262635 565:0.273369 566:0.277162 567:0.27805 568:0.279866 569:0.278514 570:0.277708 571:0.281089 572:0.280013 573:0.290278 574:0.284651 575:0.270929 576:0.264849 577:0.260361 578:0.258494 579:0.257479 580:0.25401 581:0.252448 582:0.244545 583:0.24415 584:0.240028 585:0.233215 586:0.228587 587:0.247418 588:0.243041 589:0.238168 590:0.216971 591:0.215209 592:0.210574 593:0.211671 594:0.205914 595:0.201667 596:0.206093 597:0.204772 598:0.20242 599:0.201022 600:0.194258 
11.9390254577107 1:-0.294863 2:-0.444615 3:-0.475016 4:-0.471903 5:-0.388395 6:-0.325986 7:-0.32521 8:-0.23792 9:-0.190617 10:-0.241958 11:-0.278377 12:-0.150314 13:-0.0588212 14:0.00224231 15:0.189479 16:0.30042 17:0.370276 18:0.424003 19:0.330524 20:0.385499 21:0.421907 22:-0.152591 23:-0.42366 24:-0.193644 25:-0.110337 26:0.233799 27:-0.133026 28:-0.3383 29:-0.633178 30:-0.641176 31:-0.558544 32:-0.480595 33:-0.549768 34:-0.639225 35:-0.580898 36:-0.579736 37:-0.563931 38:-0.596819 39:-0.405669 40:-0.438305 41:-0.392595 42:-0.361063 43:-0.164974 44:-0.287674 45:-0.213673 46:-0.195432 47:-0.0475457 48:-0.0408428 49:-0.390242 50:-0.306528 51:-0.187173 52:-0.285392 53:-0.0759047 54:-0.0583879 55:0.126748 56:0.139273 57:0.0761137 58:-0.0431053 59:0.25607 60:0.211048 61:0.143923 62:-0.0118359 63:0.314429 64:0.257821 65:0.133004 66:-0.0106329 67:-0.124779 68:0.0129883 69:-0.348792 70:-0.220473 71:-0.169062 72:-0.391206 73:-0.280152 74:-0.270183 75:0.105107 76:0.290299 77:0.297534 78:0.198893 79:-0.0482195 80:-0.0156916 81:-0.0251132 82:-0.0878506 83:0.115596 84:0.461653 85:0.483356 86:0.36308 87:0.33216 88:0.333835 89:0.215224 90:0.082132 91:0.0144527 92:0.0278544 93:0.0552981 94:0.0370752 95:-0.160361 96:-0.191848 97:-0.292792 98:-0.350737 99:-0.778603 100:-0.853191 101:-0.466722 102:-0.544494 103:-0.545351 104:-0.533338 105:-0.531228 106:-0.468685 107:-0.44545 108:-0.452212 109:-0.465316 110:-0.498536 111:-0.536343 112:-0.522039 113:-0.512298 114:-0.483206 115:-0.455432 116:-0.436413 117:-0.422262 118:-0.422695 119:-0.435847 120:-0.474819 121:-0.506004 122:-0.537276 123:-0.488958 124:-0.605763 125:-0.56891 126:-0.458569 127:-0.384911 128:-0.341813 129:-0.333606 130:-0.318926 131:-0.262129 132:-0.231963 133:-0.209324 134:-0.168529 135:-0.21334 136:-0.263645 137:-0.175974 138:-0.232638 139:-0.311944 140:-0.29303 141:-0.232666 142:-0.0777091 143:0.111727 144:0.183622 145:0.199046 146:0.173941 147:0.160608 148:0.17284 149:0.148133 150:0.174145 151:0.217707 152:0.224147 153:0.152071 154:0.0397579 155:-0.0688254 156:-0.175313 157:-0.243594 158:-0.252303 159:-0.331164 160:-0.274102 161:-0.20131 162:-0.176077 163:-0.136951 164:-0.0284347 165:0.110308 166:0.105471 167:0.0616407 168:0.000990428 169:-0.059733 170:-0.0338733 171:-0.00115745 172:0.041967 173:0.0645624 174:0.00215355 175:-0.022111 176:-0.0127831 177:0.0128099 178:-0.0729659 179:-0.0821438 180:0.0145821 181:0.172776 182:0.364642 183:0.676059 184:0.905888 185:0.931765 186:0.917138 187:0.907611 188:0.877643 189:0.820057 190:0.805962 191:0.817374 192:0.872724 193:0.878072 194:0.860479 195:0.830983 196:0.845009 197:0.899938 198:0.895492 199:0.883855 200:0.860698 201:-0.544126 202:-0.533976 203:-0.513224 204:-0.488554 205:-0.471229 206:-0.453785 207:-0.447686 208:-0.444659 209:-0.460478 210:-0.46407 211:-0.262392 212:-0.0598203 213:0.097964 214:0.225059 215:0.301068 216:0.377107 217:0.448423 218:0.517288 219:0.575197 220:0.615435 221:0.59988 222:0.584022 223:0.555244 224:0.564989 225:0.600198 226:0.6144 227:0.633051 228:0.630268 229:0.593077 230:0.614128 231:0.606952 232:0.578755 233:0.576444 234:0.543724 235:0.480796 236:0.402871 237:0.212285 238:0.125056 239:0.0304464 240:0.0421186 241:0.113037 242:0.193301 243:0.152735 244:0.0446752 245:0.14969 246:0.219248 247:0.11238 248:0.113522 249:0.133313 250:0.110352 251:0.123554 252:0.168716 253:0.275837 254:0.372938 255:0.436207 256:0.522281 257:0.547659 258:0.497004 259:0.496022 260:0.564764 261:0.556393 262:0.459108 263:0.514464 264:0.55143 265:0.617257 266:0.623962 267:0.58235 268:0.559375 269:0.626978 270:0.645344 271:0.528258 272:0.469725 273:0.466548 274:0.356482 275:0.272062 276:0.185251 277:0.060889 278:0.0692193 279:0.032876 280:0.000856049 281:-0.027413 282:-0.0667909 283:-0.114638 284:-0.188581 285:-0.285368 286:-0.397068 287:-0.51557 288:-0.515223 289:-0.531341 290:-0.546748 291:-0.554166 292:-0.537174 293:-0.503943 294:-0.477225 295:-0.488612 296:-0.499881 297:-0.437314 298:-0.406092 299:-0.378201 300:-0.360088 301:0.0616534 302:-0.015668 303:-0.105772 304:-0.191156 305:-0.253865 306:-0.296577 307:-0.327843 308:-0.356148 309:-0.383876 310:-0.412711 311:-0.446423 312:-0.485785 313:-0.531022 314:-0.587307 315:-0.63803 316:-0.673917 317:-0.684758 318:-0.690494 319:-0.694024 320:-0.69097 321:-0.679063 322:-0.642793 323:-0.60532 324:-0.566481 325:-0.541772 326:-0.517479 327:-0.497018 328:-0.479025 329:-0.461298 330:-0.448469 331:-0.43382 332:-0.428616 333:-0.424147 334:-0.423094 335:-0.42833 336:-0.432004 337:-0.435579 338:-0.441816 339:-0.430191 340:-0.43023 341:-0.445821 342:-0.46619 343:-0.470712 344:-0.470769 345:-0.477403 346:-0.484908 347:-0.486433 348:-0.481921 349:-0.473173 350:-0.438802 351:-0.384623 352:-0.340902 353:-0.319818 354:-0.272665 355:-0.234803 356:-0.283842 357:-0.325094 358:-0.352662 359:-0.379512 360:-0.403626 361:-0.418328 362:-0.427419 363:-0.440617 364:-0.427927 365:-0.413299 366:-0.403843 367:-0.398915 368:-0.406534 369:-0.399779 370:-0.386679 371:-0.388422 372:-0.433647 373:-0.47265 374:-0.465236 375:-0.466228 376:-0.464629 377:-0.467605 378:-0.466813 379:-0.46761 380:-0.50214 381:-0.49318 382:-0.486338 383:-0.478288 384:-0.472721 385:-0.444717 386:-0.404766 387:-0.358091 388:-0.41239 389:-0.495703 390:-0.555022 391:-0.592901 392:-0.60595 393:-0.604657 394:-0.601667 395:-0.58473 396:-0.418434 397:-0.283534 398:-0.167128 399:-0.163758 400:-0.281741 401:-0.51132 402:-0.531759 403:-0.550695 404:-0.568441 405:-0.584761 406:-0.59987 407:-0.58915 408:-0.577651 409:-0.567513 410:-0.556538 411:-0.543669 412:-0.531962 413:-0.518788 414:-0.504514 415:-0.487113 416:-0.466287 417:-0.448871 418:-0.434811 419:-0.418212 420:-0.404247 421:-0.256776 422:-0.150516 423:-0.0179016 424:0.0545514 425:0.127415 426:0.154596 427:0.153915 428:0.212417 429:0.245505 430:0.288733 431:0.332393 432:0.363892 433:0.371755 434:0.36732 435:0.381862 436:0.385899 437:0.385719 438:0.389295 439:0.387798 440:0.38998 441:0.362526 442:0.367219 443:0.382468 444:0.412738 445:0.449691 446:0.490957 447:0.500809 448:0.49303 449:0.495107 450:0.478198 451:0.475464 452:0.481806 453:0.515 454:0.536385 455:0.540221 456:0.558556 457:0.563277 458:0.561236 459:0.55701 460:0.550465 461:0.545501 462:0.543569 463:0.541276 464:0.538243 465:0.535682 466:0.535295 467:0.536501 468:0.538343 469:0.541629 470:0.538991 471:0.535767 472:0.532531 473:0.530733 474:0.532992 475:0.533216 476:0.530892 477:0.526691 478:0.516708 479:0.506708 480:0.493794 481:0.481524 482:0.470786 483:0.459068 484:0.447343 485:0.435082 486:0.423576 487:0.413318 488:0.412429 489:0.407825 490:0.40327 491:0.398231 492:0.396555 493:0.398109 494:0.399635 495:0.399599 496:0.399522 497:0.404701 498:0.38525 499:0.354417 500:0.330154 501:-0.99534 502:-0.987537 503:-0.979641 504:-0.971587 505:-0.964559 506:-0.958912 507:-0.95207 508:-0.944071 509:-0.937476 510:-0.927659 511:-0.917412 512:-0.908799 513:-0.90111 514:-0.893522 515:-0.884739 516:-0.873741 517:-0.86195 518:-0.85 519:-0.844713 520:-0.832992 521:-0.820184 522:-0.80272 523:-0.788686 524:-0.784773 525:-0.767993 526:-0.753393 527:-0.743859 528:-0.717832 529:-0.709526 530:-0.707319 531:-0.694283 532:-0.672921 533:-0.661645 534:-0.656899 535:-0.643516 536:-0.634452 537:-0.625436 538:-0.622855 539:-0.619858 540:-0.614669 541:-0.60466 542:-0.599961 543:-0.599514 544:-0.607893 545:-0.60803 546:-0.616439 547:-0.614713 548:-0.613814 549:-0.625371 550:-0.626187 551:-0.625493 552:-0.625102 553:-0.625146 554:-0.625007 555:-0.624603 556:-0.624026 557:-0.623447 558:-0.622885 559:-0.622158 560:-0.62125 561:-0.620138 562:-0.619419 563:-0.62016 564:-0.618776 565:-0.616849 566:-0.616765 567:-0.622296 568:-0.625179 569:-0.634652 570:-0.640811 571:-0.641579 572:-0.653934 573:-0.640222 574:-0.657086 575:-0.668555 576:-0.678453 577:-0.691861 578:-0.692207 579:-0.707398 580:-0.712689 581:-0.723495 582:-0.73825 583:-0.754169 584:-0.764178 585:-0.779463 586:-0.793434 587:-0.797556 588:-0.810829 589:-0.820408 590:-0.835949 591:-0.84653 592:-0.860277 593:-0.867375 594:-0.880582 595:-0.898061 596:-0.898337 597:-0.912262 598:-0.92527 599:-0.932553 600:-0.936549 
42.26014181495038 1:-0.490257 2:-0.641364 3:-0.666299 4:-0.6522 5:-0.610148 6:-0.638478 7:-0.707312 8:-0.613841 9:-0.589927 10:-0.663323 11:-0.750593 12:-0.556916 13:-0.383856 14:-0.291327 15:-0.0550802 16:0.0931659 17:0.197688 18:0.263533 19:0.16116 20:0.174973 21:0.212992 22:-0.267603 23:-0.485573 24:-0.250356 25:-0.119857 26:0.264851 27:-0.0693858 28:-0.282771 29:-0.608244 30:-0.631848 31:-0.526693 32:-0.440161 33:-0.516418 34:-0.778467 35:-0.648607 36:-0.253543 37:-0.367884 38:-0.430693 39:-0.192175 40:0.0269462 41:-0.0357041 42:-0.214698 43:-0.10772 44:-0.244274 45:-0.154264 46:-0.129583 47:0.0422356 48:0.0486662 49:-0.309392 50:-0.284296 51:-0.190312 52:-0.287389 53:-0.0742093 54:-0.0516689 55:0.12827 56:0.129122 57:0.0335166 58:-0.105393 59:0.182655 60:0.118185 61:0.0623703 62:-0.0814111 63:0.189378 64:0.013396 65:-0.256697 66:-0.359457 67:-0.249295 68:0.192874 69:-0.330443 70:-0.269359 71:-0.211538 72:-0.257991 73:-0.164067 74:-0.247847 75:0.0307896 76:0.258977 77:0.369204 78:0.363959 79:0.141049 80:0.118069 81:0.0457246 82:-0.046543 83:0.111228 84:0.449476 85:0.515364 86:0.469377 87:0.503136 88:0.534707 89:0.44556 90:0.366003 91:0.362255 92:0.404058 93:0.421199 94:0.321684 95:0.116725 96:0.144315 97:0.0987393 98:0.0434272 99:-0.361681 100:-0.507529 101:-0.666804 102:-0.691035 103:-0.654608 104:-0.615095 105:-0.580255 106:-0.491211 107:-0.444677 108:-0.432268 109:-0.427184 110:-0.445563 111:-0.465505 112:-0.432109 113:-0.40076 114:-0.351164 115:-0.290242 116:-0.231346 117:-0.173947 118:-0.128427 119:-0.0867345 120:-0.080098 121:-0.0488801 122:-0.0257451 123:0.0439468 124:0.017278 125:0.0815577 126:0.172088 127:0.244645 128:0.278574 129:0.272066 130:0.257565 131:0.246445 132:0.245753 133:0.268432 134:0.263827 135:0.246155 136:0.281854 137:0.326548 138:0.131846 139:-0.0487566 140:-0.0186615 141:-0.0648166 142:-0.0980707 143:-0.146656 144:-0.19397 145:-0.135722 146:-0.0640184 147:0.0255911 148:0.0975662 149:0.0980046 150:0.115067 151:0.162809 152:0.185952 153:0.157466 154:0.0788252 155:-0.00753849 156:-0.11184 157:-0.179897 158:-0.18456 159:-0.251761 160:-0.191413 161:-0.10825 162:-0.0835718 163:-0.059639 164:0.0179553 165:0.104238 166:0.0621238 167:0.0243434 168:-0.00203074 169:-0.144305 170:-0.173859 171:-0.175629 172:-0.120868 173:-0.109324 174:-0.217271 175:-0.302042 176:-0.349672 177:-0.393722 178:-0.537693 179:-0.596047 180:-0.511281 181:-0.364966 182:-0.269788 183:-0.0547714 184:0.0882782 185:0.103115 186:0.138381 187:0.192944 188:0.207965 189:0.173182 190:0.183992 191:0.23902 192:0.295563 193:0.3419 194:0.385305 195:0.408352 196:0.43123 197:0.450121 198:0.482589 199:0.473724 200:0.469364 201:-0.312913 202:-0.286661 203:-0.26105 204:-0.248064 205:-0.242054 206:-0.233548 207:-0.231255 208:-0.233425 209:-0.286347 210:-0.337427 211:-0.187675 212:-0.0615642 213:0.031618 214:0.0933843 215:0.122882 216:0.165362 217:0.213312 218:0.265762 219:0.307229 220:0.342373 221:0.283998 222:0.208166 223:0.108061 224:0.0763046 225:0.138837 226:0.158689 227:0.192039 228:0.166159 229:0.0497528 230:0.0861619 231:0.057806 232:0.0351239 233:0.026274 234:0.220782 235:0.367987 236:0.506596 237:0.305408 238:0.143866 239:0.00122191 240:0.167995 241:0.308082 242:0.407075 243:0.37674 244:0.307329 245:0.388285 246:0.429287 247:0.328967 248:0.312328 249:0.30597 250:0.265081 251:0.250336 252:0.261249 253:0.327714 254:0.375457 255:0.37425 256:0.394389 257:0.382403 258:0.274344 259:0.190852 260:0.241393 261:0.207743 262:0.0228331 263:0.0805067 264:0.13295 265:0.31081 266:0.606243 267:0.804886 268:0.895214 269:0.785128 270:0.725788 271:0.616013 272:0.64916 273:0.714142 274:0.71079 275:0.640365 276:0.567813 277:0.459379 278:0.497741 279:0.443821 280:0.40623 281:0.385231 282:0.378824 283:0.374564 284:0.345136 285:0.282523 286:0.202886 287:0.122837 288:0.128708 289:0.12848 290:0.0971492 291:0.0405221 292:-0.0191681 293:-0.0642806 294:-0.096165 295:-0.151848 296:-0.216089 297:-0.230302 298:-0.204412 299:-0.164779 300:-0.11793 301:-0.479493 302:-0.507561 303:-0.560412 304:-0.61182 305:-0.645496 306:-0.661613 307:-0.671927 308:-0.687371 309:-0.710535 310:-0.7422 311:-0.786626 312:-0.837072 313:-0.86631 314:-0.899676 315:-0.930306 316:-0.951112 317:-0.948177 318:-0.945222 319:-0.944967 320:-0.946448 321:-0.940859 322:-0.904253 323:-0.869245 324:-0.835997 325:-0.814705 326:-0.794151 327:-0.779726 328:-0.771173 329:-0.763297 330:-0.763214 331:-0.759319 332:-0.766441 333:-0.773661 334:-0.801553 335:-0.821294 336:-0.824849 337:-0.829641 338:-0.840604 339:-0.827827 340:-0.819198 341:-0.837532 342:-0.859195 343:-0.858725 344:-0.846872 345:-0.846246 346:-0.850576 347:-0.853183 348:-0.857366 349:-0.864631 350:-0.870336 351:-0.885532 352:-0.923406 353:-0.955086 354:-0.958616 355:-0.962555 356:-0.969617 357:-0.972553 358:-0.961847 359:-0.956001 360:-0.952175 361:-0.944774 362:-0.937767 363:-0.943777 364:-0.924783 365:-0.915345 366:-0.919593 367:-0.915722 368:-0.897926 369:-0.879474 370:-0.856962 371:-0.853663 372:-0.893059 373:-0.938414 374:-0.928378 375:-0.938823 376:-0.944394 377:-0.94882 378:-0.911295 379:-0.885829 380:-0.91047 381:-0.885431 382:-0.867762 383:-0.857337 384:-0.854491 385:-0.825933 386:-0.785479 387:-0.736824 388:-0.733277 389:-0.760989 390:-0.789941 391:-0.808965 392:-0.812456 393:-0.811216 394:-0.815776 395:-0.80916 396:-0.637808 397:-0.50579 398:-0.399354 399:-0.434103 400:-0.594827 401:-0.4204 402:-0.42298 403:-0.42618 404:-0.429825 405:-0.434485 406:-0.438373 407:-0.419691 408:-0.401081 409:-0.385169 410:-0.369045 411:-0.351164 412:-0.337117 413:-0.323614 414:-0.312279 415:-0.301384 416:-0.289944 417:-0.28507 418:-0.293269 419:-0.304131 420:-0.322545 421:-0.227056 422:-0.171668 423:-0.0834219 424:-0.0614524 425:-0.0373118 426:-0.0594851 427:-0.11529 428:-0.094903 429:-0.103887 430:-0.0986736 431:-0.0912681 432:-0.0999739 433:-0.146872 434:-0.169176 435:-0.142877 436:-0.119569 437:-0.0944609 438:-0.0799034 439:-0.0824571 440:-0.0629762 441:-0.0573194 442:0.00213222 443:0.0667764 444:0.133845 445:0.199948 446:0.26368 447:0.295309 448:0.306943 449:0.322769 450:0.316617 451:0.322589 452:0.334258 453:0.366181 454:0.383643 455:0.381486 456:0.385514 457:0.372958 458:0.351038 459:0.323226 460:0.289659 461:0.254652 462:0.218452 463:0.181851 464:0.149024 465:0.122908 466:0.124195 467:0.137623 468:0.162384 469:0.178117 470:0.182696 471:0.183836 472:0.194588 473:0.208819 474:0.230857 475:0.244349 476:0.252562 477:0.257781 478:0.260586 479:0.262306 480:0.262654 481:0.262366 482:0.262313 483:0.264379 484:0.267865 485:0.269534 486:0.275558 487:0.284696 488:0.303978 489:0.321534 490:0.338301 491:0.352895 492:0.367977 493:0.386047 494:0.403884 495:0.420524 496:0.436123 497:0.455461 498:0.450632 499:0.437166 500:0.433434 501:0.969835 502:0.966487 503:0.971814 504:0.986381 505:0.985319 506:0.974094 507:0.978209 508:0.982263 509:0.986051 510:0.996232 511:1 512:-0.107682 513:-0.999878 514:-0.996612 515:-0.992778 516:-0.986898 517:-0.980783 518:-0.974465 519:-0.976305 520:-0.971721 521:-0.967518 522:-0.958955 523:-0.955044 524:-0.962937 525:-0.959495 526:-0.957584 527:-0.963666 528:-0.951176 529:-0.953992 530:-0.969447 531:-0.968405 532:-0.954999 533:-0.952126 534:-0.958578 535:-0.95688 536:-0.956651 537:-0.955108 538:-0.961138 539:-0.962203 540:-0.963788 541:-0.957381 542:-0.951151 543:-0.948664 544:-0.953063 545:-0.949063 546:-0.95212 547:-0.949197 548:-0.947579 549:-0.961415 550:-0.961729 551:-0.960258 552:-0.959185 553:-0.959469 554:-0.960006 555:-0.960673 556:-0.96104 557:-0.961232 558:-0.961289 559:-0.961158 560:-0.961073 561:-0.960914 562:-0.960618 563:-0.959623 564:-0.957463 565:-0.954 566:-0.952117 567:-0.958242 568:-0.961639 569:-0.969361 570:-0.972262 571:-0.967863 572:-0.978115 573:-0.955847 574:-0.966864 575:-0.966838 576:-0.967055 577:-0.971151 578:-0.958935 579:-0.965884 580:-0.958952 581:-0.959555 582:-0.963483 583:-0.970369 584:-0.969463 585:-0.974772 586:-0.979761 587:-0.977611 588:-0.982442 589:-0.983458 590:-0.989267 591:-0.992715 592:-0.99969 593:-0.61444 594:0.758663 595:1 596:1 597:1 598:0.998181 599:0.994087 600:0.978671 
24.52947264772247 1:-0.528728 2:-0.697341 3:-0.730646 4:-0.701567 5:-0.621803 6:-0.588572 7:-0.630306 8:-0.555438 9:-0.568507 10:-0.673425 11:-0.792742 12:-0.605743 13:-0.427906 14:-0.290269 15:-0.0261252 16:0.132484 17:0.243075 18:0.313401 19:0.206783 20:0.181129 21:0.141314 22:-0.346127 23:-0.561157 24:-0.353159 25:-0.244208 26:0.0663641 27:-0.236128 28:-0.421747 29:-0.664129 30:-0.656966 31:-0.5559 32:-0.478624 33:-0.552996 34:-0.702862 35:-0.599052 36:-0.343819 37:-0.333056 38:-0.345233 39:-0.214763 40:-0.262206 41:-0.0834466 42:-0.121637 43:-0.0232702 44:-0.300993 45:-0.328978 46:-0.279296 47:-0.0433922 48:0.00891918 49:-0.369751 50:-0.345495 51:-0.242361 52:-0.337251 53:-0.130569 54:-0.137885 55:0.0155691 56:0.0241808 57:-0.0238207 58:-0.10233 59:0.220461 60:0.184057 61:0.1324 62:-0.0125813 63:0.315593 64:0.256171 65:0.109238 66:-0.0824893 67:-0.223292 68:-0.162561 69:-0.611569 70:-0.557862 71:-0.258166 72:-0.369666 73:-0.284266 74:-0.324411 75:-0.0123065 76:0.312666 77:0.454776 78:0.461777 79:0.183689 80:0.0773223 81:0.0260593 82:-0.0278002 83:0.216751 84:0.647229 85:0.74411 86:0.64728 87:0.62862 88:0.657996 89:0.609473 90:0.600165 91:0.611483 92:0.633095 93:0.606466 94:0.460338 95:0.236814 96:0.304704 97:0.285222 98:0.247567 99:-0.162876 100:-0.366746 101:-0.440265 102:-0.482243 103:-0.459116 104:-0.429943 105:-0.402044 106:-0.314495 107:-0.277138 108:-0.273574 109:-0.268766 110:-0.290338 111:-0.314298 112:-0.293744 113:-0.274732 114:-0.226675 115:-0.166463 116:-0.109589 117:-0.0588163 118:-0.0163329 119:0.00692508 120:-0.0129004 121:-0.0206712 122:-0.015302 123:0.0434785 124:0.0118877 125:0.0558827 126:0.126044 127:0.177978 128:0.192873 129:0.173637 130:0.156086 131:0.156139 132:0.159058 133:0.165453 134:0.178398 135:0.159662 136:0.200381 137:0.324808 138:0.172812 139:-0.00478586 140:-0.0430245 141:-0.0262048 142:-0.000926424 143:-0.014613 144:-0.0857934 145:-0.0687467 146:-0.00627271 147:0.0626106 148:0.11206 149:0.0982964 150:0.111925 151:0.156112 152:0.158814 153:0.0949368 154:-0.00123987 155:-0.0958465 156:-0.200271 157:-0.26229 158:-0.262601 159:-0.318419 160:-0.240388 161:-0.145694 162:-0.104981 163:-0.0536367 164:0.054703 165:0.190576 166:0.169928 167:0.119918 168:0.0536893 169:-0.0408319 170:-0.0434135 171:-0.00788445 172:-0.00199112 173:-0.0434818 174:-0.16148 175:-0.254353 176:-0.28864 177:-0.341977 178:-0.517589 179:-0.632552 180:-0.602723 181:-0.470842 182:-0.385448 183:-0.177407 184:-0.0543546 185:-0.0495922 186:-0.0204393 187:0.0321005 188:0.0667867 189:0.0710319 190:0.128463 191:0.204817 192:0.272686 193:0.325132 194:0.3661 195:0.393328 196:0.443441 197:0.500484 198:0.559432 199:0.570133 200:0.572254 201:-0.163006 202:-0.160366 203:-0.154114 204:-0.163062 205:-0.169941 206:-0.178025 207:-0.207658 208:-0.23226 209:-0.273237 210:-0.328395 211:-0.194033 212:-0.0605359 213:0.0443084 214:0.110936 215:0.127758 216:0.154731 217:0.192389 218:0.234149 219:0.27334 220:0.305173 221:0.238242 222:0.160066 223:0.0579487 224:0.0350896 225:0.102487 226:0.125039 227:0.154465 228:0.141995 229:0.0347131 230:0.077498 231:0.0663619 232:0.0737393 233:0.109271 234:0.230347 235:0.30879 236:0.395898 237:0.265073 238:0.179271 239:0.0771672 240:0.123084 241:0.275401 242:0.37772 243:0.354549 244:0.271371 245:0.351989 246:0.402409 247:0.303805 248:0.298453 249:0.302612 250:0.276424 251:0.274357 252:0.296771 253:0.370081 254:0.428723 255:0.449935 256:0.50678 257:0.507649 258:0.427307 259:0.374608 260:0.41561 261:0.379779 262:0.227013 263:0.255767 264:0.228659 265:0.266145 266:0.20299 267:0.117257 268:0.14091 269:0.43981 270:0.658521 271:0.727187 272:0.738239 273:0.753505 274:0.665345 275:0.530251 276:0.553223 277:0.51928 278:0.622399 279:0.594468 280:0.574051 281:0.568285 282:0.566159 283:0.568509 284:0.524048 285:0.470046 286:0.380217 287:0.295609 288:0.279842 289:0.266284 290:0.220424 291:0.156172 292:0.0827706 293:0.00669447 294:-0.0631559 295:-0.15409 296:-0.258662 297:-0.30921 298:-0.345633 299:-0.365629 300:-0.388301 301:-0.223446 302:-0.269958 303:-0.336585 304:-0.398661 305:-0.442023 306:-0.466266 307:-0.483014 308:-0.505012 309:-0.533768 310:-0.570543 311:-0.618698 312:-0.67275 313:-0.716648 314:-0.763329 315:-0.805508 316:-0.835065 317:-0.839964 318:-0.843286 319:-0.848175 320:-0.855618 321:-0.856979 322:-0.831666 323:-0.806563 324:-0.781899 325:-0.768832 326:-0.756232 327:-0.749532 328:-0.746092 329:-0.742064 330:-0.7428 331:-0.739916 332:-0.748134 333:-0.756586 334:-0.774436 335:-0.790396 336:-0.794013 337:-0.797595 338:-0.805308 339:-0.797032 340:-0.800828 341:-0.817502 342:-0.837353 343:-0.834375 344:-0.830241 345:-0.837384 346:-0.848213 347:-0.854821 348:-0.861642 349:-0.872644 350:-0.881225 351:-0.900654 352:-0.942404 353:-0.976405 354:-0.984103 355:-0.99275 356:-1 357:-1 358:-0.984746 359:-0.97199 360:-0.962744 361:-0.949619 362:-0.937043 363:-0.936207 364:-0.905279 365:-0.878088 366:-0.866902 367:-0.867152 368:-0.87357 369:-0.879856 370:-0.876688 371:-0.871296 372:-0.930327 373:-0.98736 374:-0.988347 375:-1 376:-1 377:-1 378:-0.955418 379:-0.929467 380:-0.95519 381:-0.930032 382:-0.907471 383:-0.889347 384:-0.875416 385:-0.836119 386:-0.786707 387:-0.730794 388:-0.721172 389:-0.741822 390:-0.762743 391:-0.772399 392:-0.767741 393:-0.757293 394:-0.753018 395:-0.734043 396:-0.55345 397:-0.40949 398:-0.285005 399:-0.289889 400:-0.41605 401:-0.217238 402:-0.243962 403:-0.269318 404:-0.292261 405:-0.315833 406:-0.337679 407:-0.338402 408:-0.338177 409:-0.33774 410:-0.336421 411:-0.332196 412:-0.330912 413:-0.328423 414:-0.328224 415:-0.328237 416:-0.327616 417:-0.3391 418:-0.358377 419:-0.384438 420:-0.421706 421:-0.32714 422:-0.278311 423:-0.189643 424:-0.170694 425:-0.145109 426:-0.16818 427:-0.229283 428:-0.197881 429:-0.202893 430:-0.189474 431:-0.172154 432:-0.169963 433:-0.204775 434:-0.229553 435:-0.209128 436:-0.193034 437:-0.176339 438:-0.155743 439:-0.153912 440:-0.139538 441:-0.141415 442:-0.0839067 443:-0.0182985 444:0.0453548 445:0.107615 446:0.167291 447:0.19671 448:0.207649 449:0.220821 450:0.215614 451:0.223434 452:0.236477 453:0.27015 454:0.289381 455:0.291889 456:0.303999 457:0.30295 458:0.29518 459:0.281815 460:0.265642 461:0.247628 462:0.229582 463:0.209701 464:0.184097 465:0.157267 466:0.127851 467:0.100555 468:0.0754972 469:0.0703039 470:0.0677808 471:0.0819809 472:0.098249 473:0.118646 474:0.135276 475:0.145942 476:0.151613 477:0.157545 478:0.166257 479:0.175807 480:0.185108 481:0.192428 482:0.202001 483:0.214002 484:0.225956 485:0.239243 486:0.253936 487:0.27252 488:0.302226 489:0.32927 490:0.356517 491:0.381324 492:0.408691 493:0.439304 494:0.46965 495:0.501882 496:0.529723 497:0.563791 498:0.568135 499:0.557232 500:0.550134 501:-0.497413 502:-0.495675 503:-0.491695 504:-0.485323 505:-0.48379 506:-0.485936 507:-0.483312 508:-0.480047 509:-0.478025 510:-0.471974 511:-0.467374 512:-0.462032 513:-0.460229 514:-0.459446 515:-0.455725 516:-0.450446 517:-0.445124 518:-0.441443 519:-0.441615 520:-0.439373 521:-0.434695 522:-0.42732 523:-0.424082 524:-0.430544 525:-0.424133 526:-0.423204 527:-0.423595 528:-0.411197 529:-0.417655 530:-0.421361 531:-0.419251 532:-0.41047 533:-0.410111 534:-0.413066 535:-0.407916 536:-0.411263 537:-0.411444 538:-0.414328 539:-0.417093 540:-0.416829 541:-0.410785 542:-0.408618 543:-0.406819 544:-0.409971 545:-0.406378 546:-0.413392 547:-0.411509 548:-0.410416 549:-0.42029 550:-0.420208 551:-0.418821 552:-0.417426 553:-0.416564 554:-0.415722 555:-0.414874 556:-0.413794 557:-0.412764 558:-0.411712 559:-0.410864 560:-0.410039 561:-0.40938 562:-0.409623 563:-0.412366 564:-0.411877 565:-0.41014 566:-0.410289 567:-0.415253 568:-0.417272 569:-0.424706 570:-0.429163 571:-0.428953 572:-0.436837 573:-0.420439 574:-0.428658 575:-0.434001 576:-0.436544 577:-0.440128 578:-0.433131 579:-0.435809 580:-0.431422 581:-0.430348 582:-0.433933 583:-0.43591 584:-0.435379 585:-0.439536 586:-0.442804 587:-0.431886 588:-0.435342 589:-0.437337 590:-0.449501 591:-0.45232 592:-0.458523 593:-0.45888 594:-0.466034 595:-0.475588 596:-0.471531 597:-0.477975 598:-0.484262 599:-0.486863 600:-0.489671 
