svm_type c_svc
kernel_type rbf
gamma 0.0078125
nr_class 2
total_sv 21
rho -0.616806
label 0 1
nr_sv 14 7
SV
0.0008532314879084776 1:-0.0491508 2:-0.134782 3:0.105271 4:0.315757 5:0.50121 6:0.702689 7:0.715609 8:0.780522 9:0.770561 10:0.668048 11:0.716521 12:0.758272 13:0.784136 14:0.827926 15:0.850111 16:0.763775 17:0.748884 18:0.814074 19:0.828762 20:0.756178 21:0.629198 22:0.383168 23:0.192779 24:0.109478 25:-0.0527002 26:-0.147421 27:-0.0982723 28:-0.0934487 29:-0.0192089 30:-0.320725 31:-0.477669 32:-0.516613 33:-0.561013 34:-0.691643 35:-1 36:-1 37:-0.376399 38:-0.127606 39:0.235278 40:0.356902 41:0.657114 42:0.767371 43:0.521752 44:0.375601 45:0.232018 46:0.287281 47:0.3645 48:0.467237 49:0.600409 50:0.628434 51:0.751978 52:0.87822 53:0.855018 54:0.700522 55:0.413276 56:0.133087 57:0.0620528 58:-0.0723548 59:-0.125222 60:-0.221229 61:-0.254946 62:-0.220186 63:-0.364165 64:-0.517612 65:-0.656215 66:-0.650891 67:-0.554303 68:-0.436402 69:-0.879419 70:-0.68883 71:-0.22104 72:0.399643 73:1 74:1 75:1 76:0.241764 77:-0.308857 78:0.293704 79:1 80:0.897032 81:0.418013 82:0.176795 83:0.376802 84:0.671266 85:0.546987 86:0.462383 87:0.483958 88:0.424484 89:0.247648 90:0.0284709 91:-0.0493478 92:-0.0796045 93:-0.14424 94:-0.18519 95:-0.254011 96:-0.470435 97:-0.664588 98:-0.666005 99:-0.936963 100:-0.726555 101:-0.385417 102:-0.513598 103:-0.609711 104:-0.670215 105:-0.679943 106:-0.621911 107:-0.611387 108:-0.614579 109:-0.601746 110:-0.606965 111:-0.559904 112:-0.449111 113:-0.3353 114:-0.198198 115:-0.0839417 116:0.0140497 117:0.147173 118:0.313065 119:0.470867 120:0.622831 121:0.703137 122:0.748302 123:0.784498 124:0.830137 125:0.85422 126:0.878142 127:0.955045 128:0.979433 129:0.988941 130:1 131:1 132:1 133:1 134:1 135:1 136:1 137:1 138:0.509348 139:0.0500781 140:-0.339174 141:-1 142:-1 143:-0.884893 144:-0.499864 145:-0.165282 146:0.134622 147:0.405502 148:0.581495 149:0.703506 150:0.826485 151:0.914389 152:0.970452 153:0.967066 154:0.977595 155:0.970192 156:0.932255 157:0.878729 158:0.807879 159:0.696371 160:0.606274 161:0.493345 162:0.376796 163:0.258597 164:0.151306 165:0.00257075 166:-0.197231 167:-0.395127 168:-0.618295 169:-0.787293 170:-0.895729 171:-0.973866 172:-1 173:-1 174:-1 175:-1 176:-1 177:-1 178:-1 179:-0.896673 180:-0.630856 181:-0.323277 182:-0.131742 183:0.0656032 184:0.236165 185:0.241362 186:0.269868 187:0.27247 188:0.304734 189:0.325138 190:0.383545 191:0.404706 192:0.377441 193:0.368483 194:0.402667 195:0.399381 196:0.400902 197:0.435398 198:0.485672 199:0.461007 200:0.258488 201:-0.735771 202:-0.567445 203:-0.418849 204:-0.277696 205:-0.0902486 206:0.0800347 207:0.249309 208:0.392976 209:0.471185 210:0.512495 211:0.581241 212:0.600316 213:0.556527 214:0.454157 215:0.351359 216:0.232644 217:0.177969 218:0.132406 219:0.0789541 220:0.0685994 221:0.0566627 222:0.0413866 223:0.0343229 224:0.0432411 225:0.0513846 226:0.0545361 227:0.0408502 228:-0.0252605 229:-0.238782 230:-0.295806 231:-0.476507 232:-0.624999 233:-0.783616 234:-0.868512 235:-1 236:-1 237:-1 238:-0.592928 239:-0.246488 240:0.0956931 241:0.383341 242:0.597153 243:0.742906 244:0.848869 245:0.946543 246:0.984827 247:0.966117 248:0.943257 249:0.901124 250:0.83125 251:0.765114 252:0.709809 253:0.682956 254:0.670119 255:0.648825 256:0.591577 257:0.480467 258:0.340648 259:0.285354 260:0.29485 261:0.18332 262:0.116679 263:0.0739659 264:0.00196006 265:-0.0495735 266:-0.271841 267:-0.583671 268:-0.778786 269:-0.892077 270:-0.921719 271:-1 272:-1 273:-0.968055 274:-0.273553 275:0.615144 276:1 277:1 278:1 279:1 280:1 281:1 282:0.919823 283:0.888891 284:0.814256 285:0.696603 286:0.611845 287:0.553436 288:0.537705 289:0.46807 290:0.374606 291:0.265018 292:0.141939 293:0.0835549 294:0.0423139 295:-0.0367224 296:-0.1146 297:-0.13331 298:-0.13854 299:-0.133241 300:-0.104601 
0.2765650327120309 1:0.472771 2:0.19164 3:0.294318 4:0.462546 5:0.564942 6:0.711812 7:0.72733 8:0.827253 9:0.885516 10:0.837464 11:0.936831 12:0.856517 13:0.748075 14:0.711775 15:0.669298 16:0.587459 17:0.655557 18:0.659455 19:0.362877 20:0.0273953 21:-0.167543 22:-0.234026 23:-0.199949 24:-0.269046 25:-0.595708 26:-0.885086 27:-0.926579 28:-0.870262 29:-0.759991 30:-1 31:-1 32:-0.574114 33:-0.150402 34:0.557302 35:1 36:0.394411 37:0.154413 38:0.101484 39:0.273495 40:0.316403 41:0.515953 42:0.417131 43:0.141317 44:0.149396 45:0.156357 46:0.30807 47:0.306882 48:0.135627 49:-0.186969 50:-0.257887 51:-0.497467 52:-0.658982 53:-0.610413 54:-0.655576 55:-0.705902 56:-0.840238 57:-0.926752 58:-0.909945 59:-0.915303 60:-0.901358 61:-0.728193 62:-0.300987 63:0.204206 64:1 65:1 66:1 67:0.47119 68:0.185157 69:-0.929191 70:-1 71:-0.507377 72:-0.159085 73:-0.0576934 74:-0.101936 75:0.269738 76:0.441483 77:0.409397 78:0.351714 79:0.21604 80:0.266237 81:0.164052 82:-0.0285974 83:0.00791393 84:0.18244 85:0.0940603 86:-0.0128411 87:0.0453906 88:0.126722 89:0.136779 90:0.0282311 91:0.00576463 92:-0.000750127 93:-0.108662 94:-0.244568 95:-0.323655 96:-0.392901 97:-0.401354 98:-0.24822 99:-0.507323 100:-0.552045 101:-0.677235 102:-0.828677 103:-0.8938 104:-0.923771 105:-0.922012 106:-0.780138 107:-0.658105 108:-0.564349 109:-0.446904 110:-0.330449 111:-0.195862 112:-0.0553348 113:0.07583 114:0.207212 115:0.311144 116:0.431956 117:0.582637 118:0.743762 119:0.883976 120:0.979982 121:1 122:1 123:1 124:1 125:0.967434 126:0.947151 127:0.981964 128:0.959222 129:0.860489 130:0.711433 131:0.605646 132:0.456721 133:0.116688 134:-0.104551 135:-0.106367 136:-0.0110824 137:0.230062 138:0.354672 139:0.545617 140:0.753003 141:0.929327 142:0.987453 143:0.999582 144:1 145:1 146:1 147:1 148:0.955312 149:0.918209 150:0.860536 151:0.72051 152:0.601154 153:0.507038 154:0.423412 155:0.246076 156:-0.0293303 157:-0.320708 158:-0.618685 159:-0.994251 160:-1 161:-1 162:-1 163:-1 164:-1 165:-1 166:-0.886988 167:-0.687315 168:-0.574889 169:-0.457533 170:-0.290398 171:-0.142206 172:-0.0078426 173:0.118395 174:0.143286 175:0.112056 176:0.00622355 177:-0.143645 178:-0.319561 179:-0.423446 180:-0.386323 181:-0.270932 182:-0.199606 183:-0.0663185 184:0.0658228 185:0.0677773 186:0.0876404 187:0.0406105 188:-0.0097162 189:-0.0428322 190:0.0469793 191:0.12155 192:0.147942 193:0.181256 194:0.243115 195:0.254828 196:0.275128 197:0.35974 198:0.393485 199:0.363924 200:0.283745 201:-0.413733 202:-0.206228 203:-0.0174861 204:0.137181 205:0.317412 206:0.448714 207:0.542253 208:0.54524 209:0.497673 210:0.33795 211:0.257361 212:0.188947 213:0.121912 214:0.00679604 215:-0.0991788 216:-0.197533 217:-0.255074 218:-0.330981 219:-0.381849 220:-0.374595 221:-0.375063 222:-0.389156 223:-0.406455 224:-0.407833 225:-0.407326 226:-0.413949 227:-0.430534 228:-0.513508 229:-0.803394 230:-0.81019 231:-0.761471 232:-0.464771 233:-0.0662344 234:0.363554 235:0.672252 236:0.852854 237:0.897746 238:0.908914 239:0.868772 240:0.846503 241:0.860808 242:0.85314 243:0.79189 244:0.746888 245:0.72267 246:0.658315 247:0.543688 248:0.433343 249:0.425109 250:0.346237 251:0.272245 252:0.225028 253:0.227232 254:0.215449 255:0.133512 256:-0.0858538 257:-0.537888 258:-0.796381 259:-0.867002 260:-0.934487 261:-0.893493 262:-0.721047 263:-0.584005 264:-0.503932 265:-0.30761 266:-0.137533 267:0.105263 268:0.352479 269:0.519742 270:0.618092 271:0.708392 272:0.724988 273:0.67143 274:0.620668 275:0.703878 276:0.678604 277:0.557564 278:0.620079 279:0.595038 280:0.662831 281:0.707075 282:0.69746 283:0.697901 284:0.633935 285:0.5473 286:0.464208 287:0.39199 288:0.366505 289:0.303059 290:0.257281 291:0.218207 292:0.181727 293:0.204098 294:0.211508 295:0.171106 296:0.127806 297:0.13999 298:0.164804 299:0.196622 300:0.218927 
0.1407635636722339 1:0.620183 2:0.571474 3:0.592864 4:0.625804 5:0.597946 6:0.705472 7:0.712554 8:0.815531 9:0.893029 10:0.816667 11:0.802438 12:0.782058 13:0.754104 14:0.71234 15:0.666481 16:0.558541 17:0.516284 18:0.558464 19:0.564599 20:0.496735 21:0.414699 22:0.334579 23:0.263597 24:0.137081 25:-0.12809 26:-0.37503 27:-0.491839 28:-0.532997 29:-0.565179 30:-0.772031 31:-0.793941 32:-0.777611 33:-0.776688 34:-0.975973 35:-0.93342 36:-0.286806 37:0.52985 38:0.433196 39:0.0503224 40:-0.51008 41:-0.478298 42:-0.428014 43:-0.173328 44:0.0585436 45:0.0510628 46:0.195418 47:0.327628 48:0.39493 49:0.359786 50:0.300085 51:0.350383 52:0.487236 53:0.553057 54:0.440274 55:0.189216 56:-0.0737572 57:-0.146408 58:-0.359687 59:-0.520402 60:-0.598168 61:-0.478814 62:-0.303011 63:-0.557402 64:-0.867979 65:-0.877295 66:-0.815943 67:-0.679364 68:-0.602295 69:-1 70:-0.847439 71:-0.557126 72:-0.166973 73:0.259685 74:0.214122 75:0.258364 76:-0.314926 77:-1 78:-1 79:-0.605027 80:0.485753 81:1 82:1 83:1 84:1 85:0.58636 86:0.353169 87:0.407655 88:0.522945 89:0.539539 90:0.376026 91:0.199709 92:0.0691778 93:0.0537208 94:0.0720038 95:0.0566086 96:-0.0401155 97:-0.236085 98:-0.310454 99:-0.667833 100:-0.660817 101:-0.757728 102:-0.730199 103:-0.653653 104:-0.597931 105:-0.528769 106:-0.362973 107:-0.251698 108:-0.174031 109:-0.105948 110:0.00313285 111:0.118965 112:0.246627 113:0.373306 114:0.505621 115:0.623016 116:0.721137 117:0.803236 118:0.882376 119:0.931215 120:0.956059 121:0.915354 122:0.856414 123:0.79657 124:0.733892 125:0.650828 126:0.621498 127:0.668769 128:0.680917 129:0.677782 130:0.691202 131:0.678101 132:0.658692 133:0.572752 134:0.47817 135:0.397207 136:0.298739 137:0.331558 138:0.248458 139:0.32741 140:0.422869 141:0.384098 142:0.424372 143:0.45318 144:0.539621 145:0.57959 146:0.632645 147:0.716228 148:0.746319 149:0.748468 150:0.79306 151:0.844018 152:0.887445 153:0.876745 154:0.865201 155:0.838355 156:0.77896 157:0.67659 158:0.513504 159:0.303247 160:0.219291 161:0.117418 162:-0.0227313 163:-0.197606 164:-0.311533 165:-0.431381 166:-0.585931 167:-0.729244 168:-0.897427 169:-1 170:-1 171:-0.937165 172:-0.738246 173:-0.57972 174:-0.586823 175:-0.625226 176:-0.665553 177:-0.684608 178:-0.739971 179:-0.734019 180:-0.570878 181:-0.335708 182:-0.190813 183:-0.0290746 184:0.118157 185:0.130457 186:0.163369 187:0.156608 188:0.198525 189:0.225238 190:0.286387 191:0.313137 192:0.27075 193:0.239269 194:0.249925 195:0.265724 196:0.282521 197:0.309005 198:0.335513 199:0.308863 200:0.252077 201:-0.45021 202:-0.334954 203:-0.190346 204:-0.0396599 205:0.0923689 206:0.18865 207:0.263498 208:0.29908 209:0.293148 210:0.209054 211:0.216094 212:0.218397 213:0.198399 214:0.148705 215:0.0970484 216:0.0477367 217:0.0587887 218:0.0504551 219:0.0152236 220:0.0101931 221:0.0072746 222:-0.00373057 223:-0.0190149 224:-0.032676 225:-0.0468438 226:-0.0657847 227:-0.102681 228:-0.20343 229:-0.475858 230:-0.532764 231:-0.691891 232:-0.837578 233:-0.993792 234:-0.928172 235:-0.808197 236:-0.68537 237:-0.697717 238:-0.462486 239:-0.134394 240:0.133354 241:0.382483 242:0.574841 243:0.690444 244:0.789429 245:0.920242 246:1 247:1 248:1 249:1 250:1 251:1 252:1 253:1 254:1 255:1 256:1 257:1 258:0.785003 259:0.580676 260:0.478543 261:0.276198 262:0.160783 263:0.0714161 264:-0.0501889 265:-0.106084 266:-0.321014 267:-0.635762 268:-0.846158 269:-0.982305 270:-1 271:-0.993341 272:-0.930729 273:-1 274:-0.594762 275:-0.122651 276:0.264767 277:0.474254 278:0.672898 279:0.653359 280:0.709659 281:0.78927 282:0.77867 283:0.810511 284:0.81246 285:0.772734 286:0.721579 287:0.678375 288:0.670123 289:0.616908 290:0.561538 291:0.481789 292:0.385921 293:0.313826 294:0.260604 295:0.212637 296:0.168741 297:0.163828 298:0.171202 299:0.187171 300:0.209923 
0.2906437411526307 1:0.668739 2:0.757392 3:0.906512 4:1 5:1 6:0.995997 7:0.761519 8:0.799374 9:1 10:1 11:1 12:0.944116 13:0.898174 14:0.924749 15:1 16:1 17:1 18:1 19:0.880934 20:0.700869 21:0.55502 22:0.354151 23:0.177888 24:0.0332012 25:-0.294663 26:-0.636967 27:-0.853089 28:-0.883286 29:-0.696524 30:-0.718445 31:-0.816957 32:-0.861903 33:-1 34:-0.897402 35:0.117586 36:1 37:0.968515 38:0.284766 39:-0.224277 40:-0.463604 41:-0.0158373 42:0.288453 43:0.286553 44:0.239749 45:0.03584 46:0.0166871 47:0.0728881 48:0.08815 49:-0.0504308 50:0.0185906 51:0.0660582 52:0.104384 53:0.0200374 54:-0.278832 55:-0.486033 56:-0.598746 57:-0.59292 58:-0.487863 59:-0.573685 60:-0.838857 61:-0.941049 62:-0.820532 63:-0.888108 64:-0.80308 65:-0.592975 66:-0.298806 67:0.0513251 68:1 69:1 70:1 71:0.126225 72:-0.85701 73:-1 74:-0.767623 75:-0.0792512 76:0.465222 77:0.575049 78:0.50391 79:0.184996 80:-0.00719295 81:-0.166926 82:-0.261173 83:-0.119963 84:0.0691527 85:-0.0856256 86:-0.265119 87:-0.198823 88:-0.0472399 89:0.0365239 90:-0.0926085 91:-0.275528 92:-0.451792 93:-0.476933 94:-0.383675 95:-0.319716 96:-0.404047 97:-0.63546 98:-0.670137 99:-0.989868 100:-0.793171 101:-0.803498 102:-1 103:-0.980302 104:-0.880489 105:-0.733585 106:-0.529106 107:-0.448421 108:-0.403862 109:-0.323647 110:-0.223781 111:-0.106501 112:0.0261386 113:0.146051 114:0.278603 115:0.406407 116:0.523645 117:0.629719 118:0.73391 119:0.819639 120:0.864923 121:0.847994 122:0.819794 123:0.81554 124:0.828069 125:0.787284 126:0.767874 127:0.842113 128:0.878455 129:0.900395 130:0.862463 131:0.739595 132:0.637841 133:0.501852 134:0.483334 135:0.329092 136:0.130196 137:0.180815 138:0.248294 139:0.401719 140:0.52594 141:0.536936 142:0.596529 143:0.644757 144:0.699183 145:0.716573 146:0.779452 147:0.876529 148:0.912632 149:0.911873 150:0.927655 151:0.94452 152:0.925504 153:0.858488 154:0.777011 155:0.647084 156:0.466137 157:0.264917 158:-0.00698864 159:-0.41424 160:-0.57266 161:-0.699049 162:-0.821034 163:-0.932895 164:-0.948255 165:-0.964725 166:-1 167:-1 168:-1 169:-0.929136 170:-0.803775 171:-0.643749 172:-0.477998 173:-0.339535 174:-0.318322 175:-0.29171 176:-0.280211 177:-0.312635 178:-0.384592 179:-0.428611 180:-0.364947 181:-0.232261 182:-0.119994 183:0.0894281 184:0.29746 185:0.334038 186:0.373473 187:0.377428 188:0.411954 189:0.433261 190:0.480269 191:0.479104 192:0.427286 193:0.396512 194:0.401492 195:0.401053 196:0.415081 197:0.446501 198:0.471946 199:0.480817 200:0.442982 201:-0.750281 202:-0.616132 203:-0.496412 204:-0.393566 205:-0.207535 206:-0.00217564 207:0.136265 208:0.200409 209:0.215947 210:0.186866 211:0.257767 212:0.283461 213:0.280927 214:0.237455 215:0.184304 216:0.122465 217:0.109071 218:0.0877316 219:0.0554422 220:0.0590601 221:0.0447773 222:0.0209135 223:0.00949908 224:0.00633577 225:-0.0100706 226:-0.0384944 227:-0.0820389 228:-0.189131 229:-0.463236 230:-0.538293 231:-0.755486 232:-0.95694 233:-1 234:-0.696619 235:-0.32363 236:-0.194695 237:-0.151455 238:0.210517 239:0.430898 240:0.535478 241:0.602681 242:0.669531 243:0.709824 244:0.741846 245:0.779514 246:0.797669 247:0.78854 248:0.77729 249:0.775226 250:0.73548 251:0.700026 252:0.6954 253:0.713206 254:0.722468 255:0.712835 256:0.641853 257:0.447681 258:0.144246 259:-0.0559623 260:-0.193099 261:-0.363322 262:-0.45233 263:-0.545621 264:-0.674572 265:-0.665428 266:-0.788127 267:-0.913873 268:-0.713035 269:-0.188994 270:0.323473 271:0.516127 272:0.774918 273:0.898795 274:1 275:1 276:0.857464 277:0.672095 278:0.671406 279:0.594119 280:0.617931 281:0.634037 282:0.604872 283:0.597921 284:0.553109 285:0.491843 286:0.427251 287:0.365928 288:0.362943 289:0.322608 290:0.280737 291:0.239197 292:0.202234 293:0.192838 294:0.181892 295:0.168971 296:0.155873 297:0.174 298:0.215333 299:0.251411 300:0.282519 
0.4011438069437169 1:-0.529445 2:-0.645762 3:-0.68565 4:-0.640726 5:-0.581044 6:-0.465376 7:-0.363951 8:-0.218038 9:-0.211565 10:-0.223449 11:-0.205624 12:-0.217211 13:-0.118324 14:-0.0734728 15:0.0141381 16:0.0400574 17:0.127444 18:0.264907 19:0.333841 20:0.301153 21:0.258991 22:0.212774 23:0.188158 24:0.118784 25:-0.0955149 26:-0.304015 27:-0.370332 28:-0.386518 29:-0.269003 30:-0.30712 31:-0.534413 32:-0.623422 33:-0.271175 34:0.0364239 35:0.202558 36:-0.259952 37:-0.0221799 38:-0.0805397 39:-0.1486 40:-0.422807 41:-0.323437 42:-0.446522 43:-0.450578 44:-0.299467 45:-0.435372 46:-0.350448 47:-0.222939 48:-0.249936 49:-0.570908 50:-0.415525 51:-0.319933 52:-0.156914 53:-0.00256625 54:-0.114497 55:-0.200228 56:-0.217198 57:-0.0961642 58:-0.0332306 59:0.0458174 60:0.0456104 61:0.109324 62:0.238626 63:0.280472 64:0.240921 65:-0.148111 66:-0.21249 67:-0.250686 68:-0.116746 69:-0.616998 70:-0.589962 71:-0.733496 72:-0.584631 73:-0.481327 74:-0.454185 75:-0.12515 76:0.0823178 77:-0.0820273 78:-0.372932 79:-1 80:-1 81:-1 82:-0.976566 83:-0.837103 84:-0.625601 85:-0.410882 86:-0.168363 87:0.130534 88:0.34116 89:0.434205 90:0.464332 91:0.510684 92:0.597561 93:0.6929 94:0.753717 95:0.749033 96:0.702355 97:0.529857 98:0.401167 99:0.0553305 100:-0.0978164 101:-0.656109 102:-0.777562 103:-0.846458 104:-0.894015 105:-0.914025 106:-0.81729 107:-0.789676 108:-0.821939 109:-0.880019 110:-0.944875 111:-1 112:-1 113:-1 114:-1 115:-1 116:-1 117:-1 118:-1 119:-1 120:-1 121:-1 122:-1 123:-1 124:-1 125:-1 126:-0.796964 127:-0.609802 128:-0.547255 129:-0.587589 130:-0.289318 131:0.0110982 132:0.213154 133:0.176772 134:-0.0373778 135:-0.111918 136:-0.0335233 137:0.184205 138:0.241488 139:0.313592 140:0.349198 141:0.202902 142:0.175919 143:0.122544 144:0.157847 145:0.178567 146:0.227782 147:0.299632 148:0.320605 149:0.317949 150:0.360617 151:0.418056 152:0.504541 153:0.558005 154:0.628864 155:0.693287 156:0.733516 157:0.754215 158:0.774726 159:0.785188 160:0.816817 161:0.814347 162:0.804612 163:0.777833 164:0.743894 165:0.72079 166:0.685272 167:0.642835 168:0.57741 169:0.545523 170:0.470432 171:0.448255 172:0.435254 173:0.446828 174:0.455668 175:0.473171 176:0.408906 177:0.28333 178:0.145758 179:0.0795061 180:0.125075 181:0.271693 182:0.435621 183:0.684601 184:0.865742 185:0.812921 186:0.710511 187:0.550702 188:0.363494 189:0.129665 190:-0.000692208 191:-0.150025 192:-0.357706 193:-0.524148 194:-0.592581 195:-0.622752 196:-0.603818 197:-0.494459 198:-0.37472 199:-0.406144 200:-0.523252 201:-0.629078 202:-0.524613 203:-0.415624 204:-0.301045 205:-0.165363 206:-0.0469416 207:0.0363509 208:0.0774563 209:0.0756866 210:0.0352273 211:0.133644 212:0.196816 213:0.230085 214:0.240365 215:0.23005 216:0.214798 217:0.243897 218:0.251556 219:0.244571 220:0.272167 221:0.305366 222:0.317201 223:0.341996 224:0.378193 225:0.413901 226:0.452601 227:0.480472 228:0.482372 229:0.416556 230:0.442507 231:0.439297 232:0.463042 233:0.463612 234:0.536444 235:0.517844 236:0.376197 237:0.145761 238:0.0737143 239:-0.00153184 240:-0.0711653 241:-0.0445503 242:0.00577832 243:0.0543255 244:0.0437645 245:0.0987239 246:0.14827 247:0.134124 248:0.0697126 249:0.126237 250:0.0927973 251:0.0829482 252:0.105994 253:0.181592 254:0.238137 255:0.242934 256:0.163243 257:-0.0395223 258:-0.142617 259:-0.109627 260:-0.0221417 261:-0.0188803 262:0.0230281 263:0.0751714 264:0.109719 265:0.185916 266:0.142287 267:0.0339041 268:-0.0238242 269:-0.0372077 270:-0.073838 271:-0.149386 272:-0.26597 273:-0.606684 274:-0.953747 275:-0.880109 276:-0.829911 277:-0.781873 278:-0.701921 279:-0.624836 280:-0.540946 281:-0.477791 282:-0.43633 283:-0.372407 284:-0.305386 285:-0.231975 286:-0.136617 287:-0.0119887 288:0.197525 289:0.414909 290:0.62891 291:0.808766 292:0.940033 293:1 294:1 295:1 296:1 297:1 298:1 299:1 300:1 
1.487351115508029 1:-0.49885 2:-0.607591 3:-0.632464 4:-0.571761 5:-0.501985 6:-0.443285 7:-0.367134 8:-0.218637 9:-0.233841 10:-0.225122 11:-0.166219 12:-0.187255 13:-0.0690193 14:0.0292971 15:0.145342 16:0.170309 17:0.252801 18:0.405422 19:0.456883 20:0.43626 21:0.433741 22:0.421183 23:0.454639 24:0.44716 25:0.339304 26:0.205486 27:0.0906052 28:-0.0095945 29:0.05196 30:-0.250368 31:-0.445016 32:-0.496919 33:-0.505397 34:-0.433451 35:-0.212003 36:-0.326789 37:-0.0329097 38:-0.294356 39:-0.366819 40:-0.354734 41:0.0109254 42:-0.184903 43:-0.543476 44:-0.421146 45:-0.36044 46:-0.120711 47:-0.0523282 48:-0.157647 49:-0.490741 50:-0.340788 51:-0.241986 52:-0.0561743 53:0.113451 54:0.0692954 55:0.0261457 56:0.0403959 57:0.238273 58:0.304979 59:0.385411 60:0.352485 61:0.375386 62:0.489006 63:0.603966 64:0.660322 65:0.119494 66:-0.0298682 67:-0.146185 68:-0.0160013 69:-0.497659 70:-0.412445 71:-0.462677 72:-0.396263 73:-0.299328 74:-0.295803 75:0.0622196 76:0.29566 77:0.259184 78:0.127711 79:-0.177156 80:-0.126976 81:-0.152021 82:-0.230406 83:-0.0746803 84:0.190221 85:0.144503 86:-0.0236754 87:-0.0617391 88:-0.0709638 89:-0.106821 90:-0.110371 91:0.0215814 92:0.170698 93:0.357308 94:0.419258 95:0.370096 96:0.221757 97:-0.0447672 98:-0.160839 99:-0.525352 100:-0.537677 101:-0.293412 102:-0.386412 103:-0.427325 104:-0.451036 105:-0.458012 106:-0.381351 107:-0.377144 108:-0.425965 109:-0.500967 110:-0.582243 111:-0.637457 112:-0.623338 113:-0.611196 114:-0.596862 115:-0.60418 116:-0.608134 117:-0.600603 118:-0.601448 119:-0.607602 120:-0.635657 121:-0.682739 122:-0.736472 123:-0.774546 124:-0.807667 125:-0.84818 126:-0.67903 127:-0.513003 128:-0.462757 129:-0.509467 130:-0.606305 131:-0.641463 132:-0.629269 133:-0.673488 134:-0.694584 135:-0.716928 136:-0.722037 137:-0.588332 138:0.107119 139:0.760091 140:0.798878 141:0.310989 142:0.0180721 143:-0.108362 144:-0.00802804 145:0.112242 146:0.211936 147:0.25867 148:0.225066 149:0.168787 150:0.157708 151:0.165582 152:0.214466 153:0.231193 154:0.253087 155:0.257114 156:0.228719 157:0.18587 158:0.133046 159:0.0422906 160:0.112803 161:0.149671 162:0.177461 163:0.202699 164:0.244304 165:0.260919 166:0.239352 167:0.212053 168:0.160736 169:0.149517 170:0.12138 171:0.127125 172:0.147352 173:0.183375 174:0.184631 175:0.187308 176:0.130231 177:0.0220403 178:-0.100503 179:-0.148177 180:-0.0735152 181:0.0649898 182:0.204222 183:0.432558 184:0.641442 185:0.660024 186:0.662007 187:0.654272 188:0.6682 189:0.677667 190:0.699647 191:0.680953 192:0.610263 193:0.527001 194:0.508281 195:0.508028 196:0.532348 197:0.561456 198:0.581818 199:0.563651 200:0.528978 201:-0.770907 202:-0.72253 203:-0.682719 204:-0.647199 205:-0.601597 206:-0.571809 207:-0.547538 208:-0.538916 209:-0.582696 210:-0.638431 211:-0.431284 212:-0.242655 213:-0.0842444 214:-0.000711406 215:0.0422582 216:0.0908269 217:0.188777 218:0.266507 219:0.312693 220:0.38444 221:0.447981 222:0.50365 223:0.551758 224:0.597808 225:0.641846 226:0.685128 227:0.711106 228:0.714145 229:0.679315 230:0.701881 231:0.698508 232:0.708619 233:0.719748 234:0.717892 235:0.630478 236:0.431878 237:0.177311 238:0.0674743 239:-0.046204 240:-0.15988 241:-0.118533 242:-0.0504978 243:0.0130415 244:0.0111155 245:0.0643612 246:0.110246 247:0.0982245 248:0.043742 249:0.119943 250:0.107426 251:0.117565 252:0.170887 253:0.281058 254:0.377171 255:0.430304 256:0.423894 257:0.345746 258:0.262215 259:0.273943 260:0.369582 261:0.34802 262:0.363769 263:0.417028 264:0.46005 265:0.5206 266:0.506361 267:0.446556 268:0.405494 269:0.406242 270:0.370194 271:0.321923 272:0.24515 273:0.0410345 274:-0.169074 275:-0.131892 276:-0.122844 277:-0.157873 278:-0.108597 279:-0.109912 280:-0.0698237 281:-0.0323514 282:-0.0251654 283:-0.0114094 284:-0.0261633 285:-0.0640201 286:-0.118883 287:-0.157654 288:-0.0817473 289:-0.0413529 290:-0.0153927 291:-0.0076949 292:-0.0141483 293:0.00313529 294:0.0212271 295:0.0103822 296:-0.00874226 297:0.0207591 298:0.0654446 299:0.110867 300:0.150219 
0.2443748816824895 1:-0.469269 2:-0.585721 3:-0.614202 4:-0.556963 5:-0.494684 6:-0.468136 7:-0.452094 8:-0.380739 9:-0.4284 10:-0.396105 11:-0.288742 12:-0.178002 13:-0.0526553 14:0.029137 15:0.121263 16:0.137261 17:0.24292 18:0.42431 19:0.51398 20:0.461024 21:0.457873 22:0.456513 23:0.481526 24:0.438258 25:0.299581 26:0.157337 27:0.0903026 28:0.0178644 29:0.0868276 30:-0.262578 31:-0.461424 32:-0.516242 33:-0.521468 34:-0.464801 35:-0.237035 36:-0.353329 37:-0.291367 38:-0.569427 39:-0.542492 40:-0.726307 41:-0.624266 42:-0.280838 43:-0.0602777 44:0.0201848 45:-0.32639 46:-0.45796 47:-0.280112 48:-0.0890503 49:-0.107008 50:-0.147267 51:-0.160419 52:-0.0460769 53:0.144202 54:0.139868 55:0.115531 56:0.0756006 57:0.232906 58:0.296163 59:0.401888 60:0.392801 61:0.43071 62:0.552097 63:0.686124 64:0.771234 65:0.212487 66:0.0464862 67:-0.101833 68:0.0272436 69:-0.454999 70:-0.362417 71:-0.401629 72:-0.365799 73:-0.262094 74:-0.250121 75:0.135926 76:0.380835 77:0.367712 78:0.254347 79:0.00452237 80:0.0691878 81:0.058785 82:-0.013595 83:0.133824 84:0.395399 85:0.285924 86:0.10686 87:0.130955 88:0.226906 89:0.324403 90:0.246504 91:0.159421 92:0.0870331 93:0.0894149 94:-0.00882627 95:-0.142326 96:-0.331385 97:-0.517615 98:-0.503729 99:-0.776107 100:-0.64222 101:-0.382896 102:-0.427653 103:-0.426188 104:-0.416591 105:-0.401633 106:-0.320828 107:-0.307101 108:-0.33796 109:-0.388955 110:-0.463175 111:-0.51937 112:-0.519806 113:-0.511389 114:-0.491275 115:-0.480537 116:-0.473038 117:-0.46011 118:-0.45999 119:-0.471602 120:-0.500402 121:-0.535087 122:-0.570141 123:-0.595157 124:-0.646459 125:-0.704348 126:-0.573992 127:-0.428525 128:-0.384918 129:-0.432289 130:-0.531571 131:-0.587409 132:-0.592421 133:-0.642462 134:-0.635446 135:-0.611035 136:-0.587639 137:-0.590396 138:-0.590153 139:-0.253546 140:0.205246 141:0.612406 142:0.687218 143:0.458127 144:0.210241 145:-0.00843625 146:0.00598603 147:0.122424 148:0.217061 149:0.232179 150:0.207708 151:0.18335 152:0.199117 153:0.2132 154:0.2432 155:0.260019 156:0.232675 157:0.178411 158:0.113234 159:0.0081564 160:0.0746058 161:0.108279 162:0.123092 163:0.131955 164:0.164565 165:0.181367 166:0.163342 167:0.140424 168:0.104039 169:0.111615 170:0.106051 171:0.129696 172:0.158746 173:0.204169 174:0.217062 175:0.235535 176:0.191918 177:0.100927 178:0.00263976 179:-0.0329583 180:0.0380744 181:0.171861 182:0.326455 183:0.592599 184:0.824597 185:0.837378 186:0.830005 187:0.834221 188:0.858674 189:0.883388 190:0.902751 191:0.906161 192:0.882694 193:0.876887 194:0.864252 195:0.857609 196:0.872058 197:0.905683 198:0.904631 199:0.881314 200:0.832174 201:-0.73988 202:-0.708976 203:-0.677808 204:-0.649441 205:-0.623671 206:-0.60108 207:-0.58386 208:-0.58141 209:-0.598714 210:-0.624629 211:-0.39631 212:-0.213821 213:-0.0683161 214:0.0177007 215:0.0760093 216:0.123589 217:0.220282 218:0.293461 219:0.33819 220:0.407773 221:0.464078 222:0.506609 223:0.545042 224:0.58009 225:0.615456 226:0.64924 227:0.668361 228:0.672908 229:0.646737 230:0.675032 231:0.668551 232:0.684052 233:0.698329 234:0.714112 235:0.651519 236:0.476519 237:0.232995 238:0.125185 239:0.0391619 240:-0.0454852 241:-0.0484388 242:-0.0302706 243:0.0176644 244:0.00984045 245:0.0652002 246:0.120168 247:0.0968383 248:0.0180759 249:0.0852685 250:0.0735515 251:0.101667 252:0.174903 253:0.289508 254:0.380802 255:0.429041 256:0.419905 257:0.342265 258:0.274885 259:0.297635 260:0.400556 261:0.382112 262:0.403351 263:0.463158 264:0.507314 265:0.559295 266:0.546331 267:0.496312 268:0.464086 269:0.47912 270:0.455763 271:0.421726 272:0.357308 273:0.191263 274:0.0228829 275:0.0530979 276:0.0426013 277:-0.0129495 278:0.0254083 279:-0.00242828 280:0.0267159 281:0.0407421 282:0.0106766 283:0.00356311 284:-0.0305842 285:-0.0925649 286:-0.168292 287:-0.24094 288:-0.202867 289:-0.206459 290:-0.228562 291:-0.250179 292:-0.282267 293:-0.288426 294:-0.246219 295:-0.231379 296:-0.229372 297:-0.21637 298:-0.188151 299:-0.161242 300:-0.144589 
0.1268305824454097 1:-0.619134 2:-0.820331 3:-0.91588 4:-0.888318 5:-0.812511 6:-0.765096 7:-0.696661 8:-0.600651 9:-0.734487 10:-0.743791 11:-0.695879 12:-0.639608 13:-0.531432 14:-0.449273 15:-0.319927 16:-0.257539 17:-0.138821 18:0.0584806 19:0.218033 20:0.302621 21:0.367355 22:0.407335 23:0.4683 24:0.458362 25:0.324689 26:0.166614 27:0.0821938 28:0.0650726 29:0.193961 30:-0.141695 31:-0.347587 32:-0.400408 33:-0.404679 34:-0.256704 35:0.0859769 36:-0.0491491 37:-0.104691 38:-0.433542 39:-0.575069 40:-0.809241 41:-0.682982 42:-0.875346 43:-1 44:-0.639176 45:-0.103242 46:-0.0282278 47:-0.235864 48:-0.665596 49:-0.661638 50:-0.149361 51:0.0975906 52:0.260125 53:0.238528 54:0.163569 55:0.136878 56:0.138379 57:0.339798 58:0.427818 59:0.549563 60:0.493294 61:0.441056 62:0.501933 63:0.593088 64:0.656195 65:0.104148 66:-0.0575329 67:-0.173067 68:-0.0287259 69:-0.482081 70:-0.369267 71:-0.384994 72:-0.492184 73:-0.484061 74:-0.480333 75:0.147756 76:0.245307 77:0.0409321 78:0.116929 79:0.2154 80:0.295313 81:0.147849 82:0.0505129 83:0.266372 84:0.662256 85:0.646525 86:0.473008 87:0.40112 88:0.382673 89:0.347949 90:0.297662 91:0.292693 92:0.324504 93:0.399868 94:0.37384 95:0.261427 96:0.0682431 97:-0.16318 98:-0.168207 99:-0.408853 100:-0.348297 101:-0.095917 102:-0.159831 103:-0.187592 104:-0.202294 105:-0.201369 106:-0.116578 107:-0.103675 108:-0.137244 109:-0.192494 110:-0.242354 111:-0.273639 112:-0.266478 113:-0.257123 114:-0.224322 115:-0.197362 116:-0.184616 117:-0.162661 118:-0.13597 119:-0.108449 120:-0.0939294 121:-0.115749 122:-0.146976 123:-0.165726 124:-0.182066 125:-0.21084 126:-0.112087 127:0.014782 128:0.061038 129:0.0428344 130:-0.00505383 131:-0.0188855 132:-0.00567864 133:-0.0222218 134:-0.00505877 135:-0.00090933 136:0.0185894 137:0.164042 138:0.197984 139:0.279393 140:0.330928 141:0.192684 142:0.246111 143:0.225043 144:0.30132 145:0.41765 146:0.310105 147:0.225306 148:0.119231 149:0.0871785 150:0.0665366 151:0.0391125 152:0.0413459 153:0.0451163 154:0.0362629 155:0.0233174 156:-0.00620708 157:-0.0218175 158:-0.0410822 159:-0.105803 160:-0.000879343 161:0.0502878 162:0.0814344 163:0.108208 164:0.148401 165:0.160716 166:0.133515 167:0.0998357 168:0.040797 169:0.00990439 170:-0.0363895 171:-0.058766 172:-0.0693143 173:-0.026969 174:-0.0127843 175:0.0427106 176:-0.102348 177:-0.345843 178:-0.618486 179:-0.680595 180:-0.649918 181:-0.57531 182:-0.558247 183:-0.476148 184:-0.334768 185:-0.256653 186:-0.131571 187:-0.0945753 188:-0.0187854 189:0.0332512 190:0.159912 191:0.225447 192:0.230309 193:0.246632 194:0.297853 195:0.327761 196:0.352449 197:0.434052 198:0.509631 199:0.529674 200:0.519931 201:-0.751949 202:-0.687115 203:-0.633149 204:-0.57873 205:-0.495112 206:-0.43838 207:-0.371381 208:-0.301459 209:-0.260232 210:-0.212834 211:0.0190318 212:0.197813 213:0.306165 214:0.359247 215:0.397832 216:0.426713 217:0.480476 218:0.517806 219:0.522278 220:0.53967 221:0.524445 222:0.507905 223:0.511609 224:0.523546 225:0.538845 226:0.554946 227:0.559566 228:0.543565 229:0.471364 230:0.471296 231:0.434982 232:0.419342 233:0.393307 234:0.380578 235:0.248906 236:-0.0107147 237:-0.411308 238:-0.507201 239:-0.613004 240:-0.736858 241:-0.727281 242:-0.602161 243:-0.384446 244:-0.184931 245:0.193029 246:0.265302 247:0.193645 248:0.0635669 249:0.187606 250:0.2366 251:0.292526 252:0.361576 253:0.484948 254:0.594494 255:0.668057 256:0.697146 257:0.686405 258:0.57936 259:0.528917 260:0.57879 261:0.49024 262:0.457477 263:0.47701 264:0.476325 265:0.482135 266:0.410836 267:0.290041 268:0.19151 269:0.14254 270:0.0681123 271:-0.0565879 272:-0.204695 273:-0.293978 274:0.076746 275:0.588605 276:0.498919 277:0.287234 278:0.336617 279:0.394536 280:0.487615 281:0.545206 282:0.553759 283:0.57647 284:0.551806 285:0.496462 286:0.440161 287:0.3824 288:0.380697 289:0.335522 290:0.277171 291:0.214036 292:0.131504 293:0.0353526 294:-0.0444517 295:-0.132349 296:-0.213657 297:-0.208671 298:-0.188818 299:-0.171972 300:-0.16821 
0.3406460226505992 1:-1 2:-0.885006 3:-0.646605 4:-0.473723 5:-0.445733 6:-0.447559 7:-0.524319 8:-0.523994 9:-0.661721 10:-0.621789 11:-0.507736 12:-0.538037 13:-0.43563 14:-0.406632 15:-0.338123 16:-0.338001 17:-0.312311 18:-0.20198 19:-0.0721415 20:-0.00870324 21:0.0186687 22:-0.00488401 23:0.0420456 24:0.0572853 25:-0.0538921 26:-0.158397 27:-0.163655 28:-0.133306 29:0.0674453 30:-0.211299 31:-0.380422 32:-0.380962 33:-0.313941 34:0.0411977 35:0.618027 36:0.515923 37:0.311458 38:-0.145574 39:-0.521853 40:-0.844939 41:-0.493628 42:-0.404108 43:-0.341518 44:-0.278557 45:-0.502732 46:-0.323985 47:-0.107568 48:-0.120712 49:-0.52203 50:-0.493171 51:-0.382472 52:-0.162384 53:0.019953 54:-0.0484717 55:-0.0975435 56:-0.0921275 57:0.0900174 58:0.229978 59:0.413632 60:0.474981 61:0.542119 62:0.641998 63:0.736944 64:0.789138 65:0.182535 66:-0.0338812 67:-0.211426 68:-0.0674817 69:-0.494881 70:-0.344932 71:-0.352968 72:-0.377378 73:-0.29915 74:-0.258946 75:0.182615 76:0.462086 77:0.412792 78:0.149002 79:-0.347204 80:-0.249654 81:-0.121028 82:-0.0313277 83:0.267667 84:0.689372 85:0.74216 86:0.693416 87:0.761652 88:0.898717 89:1 90:0.961957 91:0.873192 92:0.856266 93:0.909627 94:0.925832 95:0.951966 96:1 97:1 98:1 99:0.804582 100:0.539257 101:0.433415 102:0.407309 103:0.454213 104:0.523854 105:0.577998 106:0.632653 107:0.580318 108:0.477468 109:0.391419 110:0.346515 111:0.326857 112:0.296879 113:0.240454 114:0.233835 115:0.237223 116:0.250376 117:0.285405 118:0.315384 119:0.331842 120:0.34142 121:0.31914 122:0.284987 123:0.247732 124:0.217138 125:0.195456 126:0.247183 127:0.321144 128:0.313744 129:0.255517 130:0.191181 131:0.151966 132:0.198511 133:0.262796 134:0.262314 135:0.305669 136:0.345599 137:0.55002 138:0.49712 139:0.344122 140:0.250776 141:0.0357736 142:-0.0319033 143:-0.135111 144:-0.121186 145:-0.162784 146:-0.104698 147:-0.00598399 148:0.0257346 149:-0.00489074 150:-0.0133403 151:-0.0193387 152:0.0401682 153:0.068846 154:0.0991327 155:0.119662 156:0.105944 157:0.10236 158:0.119665 159:0.131738 160:0.28217 161:0.36026 162:0.386541 163:0.394594 164:0.421476 165:0.409475 166:0.315111 167:0.158068 168:-0.00737516 169:-0.103325 170:-0.177133 171:-0.207246 172:-0.18971 173:-0.155408 174:-0.181006 175:-0.224016 176:-0.317809 177:-0.463011 178:-0.655353 179:-0.759774 180:-0.682542 181:-0.527878 182:-0.472016 183:-0.408322 184:-0.339356 185:-0.34836 186:-0.335843 187:-0.426429 188:-0.475142 189:-0.562196 190:-0.516125 191:-0.534276 192:-0.650626 193:-0.784048 194:-0.836236 195:-0.847644 196:-0.856585 197:-0.797985 198:-0.728244 199:-0.830551 200:-1 201:0.0804592 202:0.272127 203:0.361697 204:0.406054 205:0.440218 206:0.428295 207:0.357829 208:0.226143 209:0.105525 210:-0.00588673 211:0.0457402 212:0.098821 213:0.132576 214:0.124386 215:0.098324 216:0.0654893 217:0.087678 218:0.11682 219:0.136303 220:0.189745 221:0.235083 222:0.272185 223:0.314438 224:0.37868 225:0.429616 226:0.469771 227:0.49574 228:0.502147 229:0.449508 230:0.461289 231:0.402276 232:0.334259 233:0.244687 234:0.206231 235:0.0121969 236:-0.296413 237:-0.839198 238:-1 239:-1 240:-0.678155 241:-0.199748 242:0.16027 243:0.361356 244:0.427678 245:0.474165 246:0.485221 247:0.450683 248:0.402497 249:0.43669 250:0.401761 251:0.384666 252:0.394272 253:0.444834 254:0.489522 255:0.505271 256:0.462673 257:0.334369 258:0.203232 259:0.148601 260:0.149765 261:0.0610169 262:0.0233305 263:-0.0136918 264:-0.0831819 265:-0.0884322 266:-0.198909 267:-0.259404 268:0.148849 269:0.511742 270:0.732262 271:0.875296 272:0.936534 273:0.930579 274:0.884586 275:0.821899 276:0.689407 277:0.50865 278:0.472785 279:0.369846 280:0.37916 281:0.392887 282:0.372902 283:0.379256 284:0.373735 285:0.345295 286:0.282089 287:0.1916 288:0.151812 289:0.0719596 290:0.000265233 291:-0.0856513 292:-0.188582 293:-0.253625 294:-0.281108 295:-0.318371 296:-0.38494 297:-0.408946 298:-0.422344 299:-0.424098 300:-0.415142 
0.8660586415727201 1:-0.786072 2:-0.897994 3:-0.901511 4:-0.839738 5:-0.784267 6:-0.760069 7:-0.755678 8:-0.699222 9:-0.837894 10:-0.838067 11:-0.799987 12:-0.781709 13:-0.647614 14:-0.635489 15:-0.577349 16:-0.551651 17:-0.437331 18:-0.217934 19:-0.0750852 20:-0.0263152 21:0.00681438 22:0.0166899 23:0.0911173 24:0.15824 25:0.0889153 26:-0.0352253 27:-0.0836983 28:-0.0981811 29:0.053896 30:-0.215966 31:-0.37867 32:-0.388587 33:-0.357072 34:-0.128272 35:0.311011 36:0.298184 37:0.40125 38:0.161476 39:0.0127057 40:-0.311613 41:-0.476227 42:-1 43:-0.619073 44:-0.330006 45:-0.40384 46:-0.336716 47:-0.326671 48:-0.397889 49:-0.562202 50:-0.26604 51:-0.17699 52:-0.111099 53:-0.0196123 54:-0.00209548 55:0.0425855 56:0.0516346 57:0.201835 58:0.230544 59:0.293898 60:0.297812 61:0.39851 62:0.587041 63:0.782643 64:0.904518 65:0.30795 66:0.135499 67:-0.0534063 68:0.00183251 69:-0.596359 70:-0.621799 71:-0.653462 72:-0.463972 73:-0.312697 74:-0.274791 75:0.111876 76:0.365082 77:0.426176 78:0.4353 79:0.295048 80:0.300978 81:0.181092 82:-0.0117008 83:0.110221 84:0.49835 85:0.654569 86:0.705103 87:0.791762 88:0.873894 89:0.926666 90:1 91:1 92:1 93:1 94:0.91165 95:0.803069 96:0.714751 97:0.542359 98:0.442931 99:0.162526 100:0.0448642 101:0.659925 102:0.563398 103:0.443642 104:0.367253 105:0.349192 106:0.42046 107:0.414414 108:0.330442 109:0.256466 110:0.206017 111:0.178214 112:0.177327 113:0.181401 114:0.188468 115:0.185606 116:0.182562 117:0.192666 118:0.208101 119:0.19071 120:0.167775 121:0.117738 122:0.0655788 123:0.0336059 124:0.0246643 125:0.0154464 126:0.0920458 127:0.178664 128:0.187394 129:0.156132 130:0.126161 131:0.126997 132:0.147722 133:0.141524 134:0.199986 135:0.276994 136:0.28014 137:0.543892 138:0.628438 139:0.724017 140:0.731008 141:0.494439 142:0.116216 143:0.0182143 144:0.0165095 145:-0.0132479 146:-0.035557 147:-0.0552554 148:-0.0852175 149:-0.0977397 150:-0.0800055 151:-0.0716674 152:-0.0362013 153:-0.0320325 154:-0.0115202 155:0.0230534 156:0.0114422 157:-0.0172413 158:-0.0419491 159:-0.0901426 160:0.0602667 161:0.156136 162:0.24024 163:0.304704 164:0.356903 165:0.383971 166:0.37554 167:0.346603 168:0.235021 169:0.106384 170:-0.0432871 171:-0.100315 172:-0.112817 173:-0.0883473 174:-0.147593 175:-0.24044 176:-0.367992 177:-0.506495 178:-0.687615 179:-0.813415 180:-0.792693 181:-0.704266 182:-0.729961 183:-0.720388 184:-0.635958 185:-0.615899 186:-0.578488 187:-0.664709 188:-0.693701 189:-0.723184 190:-0.598017 191:-0.5754 192:-0.675316 193:-0.802995 194:-0.839053 195:-0.784004 196:-0.687202 197:-0.549752 198:-0.441781 199:-0.503679 200:-0.646092 201:-0.653715 202:-0.574941 203:-0.485876 204:-0.398785 205:-0.312533 206:-0.252461 207:-0.216833 208:-0.194012 209:-0.186348 210:-0.171592 211:0.014384 212:0.137729 213:0.239925 214:0.279711 215:0.302094 216:0.330255 217:0.401306 218:0.456267 219:0.47978 220:0.514566 221:0.542474 222:0.565172 223:0.59074 224:0.613759 225:0.632355 226:0.648214 227:0.649653 228:0.63302 229:0.5715 230:0.568393 231:0.522188 232:0.487164 233:0.438311 234:0.393559 235:0.247297 236:0.0109201 237:-0.438897 238:-0.586405 239:-0.775208 240:-1 241:-1 242:-0.657977 243:-0.186417 244:0.0883615 245:0.338487 246:0.4935 247:0.5262 248:0.477809 249:0.511406 250:0.503091 251:0.51064 252:0.538809 253:0.598739 254:0.646273 255:0.658999 256:0.628504 257:0.547377 258:0.406942 259:0.345833 260:0.36442 261:0.28142 262:0.236093 263:0.216795 264:0.176333 265:0.155609 266:0.00400932 267:-0.238326 268:-0.345872 269:-0.268392 270:-0.0144674 271:0.355796 272:0.583831 273:0.749789 274:0.886224 275:0.932556 276:0.822644 277:0.638522 278:0.630345 279:0.514584 280:0.485881 281:0.431535 282:0.324548 283:0.249144 284:0.159713 285:0.0608324 286:-0.0371419 287:-0.108375 288:-0.0700576 289:-0.0662885 290:-0.0933524 291:-0.155193 292:-0.228863 293:-0.251228 294:-0.243335 295:-0.261745 296:-0.313297 297:-0.31973 298:-0.312632 299:-0.297181 300:-0.286841 
1.350468367357999 1:-0.678268 2:-0.777173 3:-0.805648 4:-0.810685 5:-0.845071 6:-0.92013 7:-0.894262 8:-0.785458 9:-0.9626 10:-1 11:-1 12:-1 13:-0.833676 14:-0.751564 15:-0.646888 16:-0.647886 17:-0.65109 18:-0.569613 19:-0.41959 20:-0.319943 21:-0.17391 22:0.0732446 23:0.372973 24:0.571314 25:0.62039 26:0.545188 27:0.364371 28:0.139424 29:0.0419392 30:-0.310268 31:-0.424499 32:-0.442025 33:-0.431779 34:-0.235591 35:0.210831 36:0.108502 37:-0.0378873 38:-0.415433 39:-0.468985 40:-0.550616 41:-0.345669 42:-0.523146 43:-0.578476 44:-0.403542 45:-0.421945 46:-0.146735 47:0.180206 48:0.329667 49:-0.00424658 50:-0.325122 51:-0.45021 52:-0.250632 53:0.125238 54:0.266199 55:0.181993 56:0.0414944 57:0.143545 58:0.272031 59:0.519441 60:0.609363 61:0.593839 62:0.53702 63:0.420878 64:0.278102 65:-0.113606 66:-0.13273 67:-0.125272 68:0.110182 69:-0.351545 70:-0.284987 71:-0.373261 72:-0.368081 73:-0.250428 74:-0.202662 75:0.236966 76:0.518923 77:0.545622 78:0.430706 79:0.155581 80:0.120978 81:0.0645406 82:-0.00833607 83:0.266233 84:0.807241 85:1 86:1 87:1 88:1 89:0.927756 90:0.695058 91:0.395167 92:0.146333 93:-0.0787065 94:-0.268956 95:-0.409077 96:-0.528811 97:-0.59467 98:-0.421853 99:-0.538305 100:-0.400166 101:0.65221 102:0.566803 103:0.551601 104:0.537602 105:0.52162 106:0.530535 107:0.459237 108:0.370309 109:0.275779 110:0.192822 111:0.107114 112:0.088483 113:0.0873729 114:0.101841 115:0.113347 116:0.137625 117:0.184334 118:0.224222 119:0.256929 120:0.304757 121:0.369894 122:0.466642 123:0.582442 124:0.644631 125:0.605304 126:0.575633 127:0.583051 128:0.371061 129:0.165823 130:0.0150185 131:-0.0865654 132:-0.149628 133:-0.243298 134:-0.254346 135:-0.207835 136:-0.1807 137:-0.12492 138:-0.131476 139:-0.0438181 140:0.0546417 141:-0.116241 142:-0.0969746 143:-0.113642 144:0.0208777 145:0.16542 146:0.39279 147:0.530537 148:0.682099 149:0.718642 150:0.743151 151:0.677784 152:0.538535 153:0.376891 154:0.240495 155:0.114249 156:0.0188407 157:-0.0927553 158:-0.167456 159:-0.239759 160:-0.108073 161:-0.06257 162:-0.064448 163:-0.0681696 164:-0.026837 165:-0.00384643 166:-0.0153547 167:-0.0382714 168:-0.103918 169:-0.143703 170:-0.185266 171:-0.198892 172:-0.17785 173:-0.139629 174:-0.187513 175:-0.261859 176:-0.382238 177:-0.53234 178:-0.718562 179:-0.828048 180:-0.773764 181:-0.64195 182:-0.615022 183:-0.547459 184:-0.452755 185:-0.423736 186:-0.372615 187:-0.441056 188:-0.478816 189:-0.55067 190:-0.504527 191:-0.520768 192:-0.598371 193:-0.677685 194:-0.65991 195:-0.615991 196:-0.541287 197:-0.401999 198:-0.27036 199:-0.286794 200:-0.386328 201:0.0917757 202:0.185465 203:0.246312 204:0.260769 205:0.280018 206:0.302678 207:0.323109 208:0.305421 209:0.246458 210:0.139825 211:0.179228 212:0.175711 213:0.130689 214:0.0598012 215:-0.0116348 216:-0.081742 217:-0.0794967 218:-0.088503 219:-0.117019 220:-0.128489 221:-0.137182 222:-0.16465 223:-0.19551 224:-0.221812 225:-0.26441 226:-0.346528 227:-0.425875 228:-0.250685 229:0.0320982 230:0.545736 231:0.80506 232:0.928361 233:0.966835 234:0.967589 235:0.913739 236:0.766722 237:0.571699 238:0.418378 239:0.297283 240:0.180555 241:0.123507 242:0.0975028 243:0.074564 244:-0.00398289 245:-0.00165114 246:-0.0472415 247:-0.132536 248:-0.377111 249:-0.445537 250:-0.633958 251:-0.688863 252:-0.515439 253:-0.0993795 254:0.315906 255:0.55813 256:0.66303 257:0.655422 258:0.508485 259:0.413148 260:0.410331 261:0.29425 262:0.246055 263:0.246245 264:0.239046 265:0.276341 266:0.229113 267:0.131615 268:0.0848332 269:0.084208 270:0.0625493 271:0.00135407 272:-0.120373 273:-0.460878 274:-0.798238 275:-0.707577 276:-0.651407 277:-0.648081 278:-0.610721 279:-0.584887 280:-0.546783 281:-0.521582 282:-0.51845 283:-0.499012 284:-0.476525 285:-0.449223 286:-0.420126 287:-0.346862 288:-0.129026 289:0.0504788 290:0.216181 291:0.362098 292:0.484716 293:0.590603 294:0.646798 295:0.680308 296:0.704476 297:0.735182 298:0.763735 299:0.788448 300:0.811131 
0.3745799516908255 1:-0.833867 2:-0.84309 3:-0.780146 4:-0.671883 5:-0.622521 6:-0.671492 7:-0.767733 8:-0.719128 9:-0.801419 10:-0.709159 11:-0.660187 12:-0.68239 13:-0.539661 14:-0.437321 15:-0.315967 16:-0.350076 17:-0.326472 18:-0.176343 19:0.00809425 20:0.0940776 21:0.169784 22:0.190769 23:0.222041 24:0.198043 25:0.019671 26:-0.036224 27:0.0770393 28:0.224256 29:0.512213 30:0.270247 31:-0.0371798 32:-0.165037 33:-0.246837 34:-0.16957 35:-0.157929 36:0.00150215 37:0.235587 38:0.0113442 39:-0.0706376 40:-0.246933 41:-0.0833567 42:-0.191178 43:-0.29027 44:-0.243036 45:-0.445472 46:-0.419902 47:-0.312183 48:-0.313651 49:-0.501392 50:-0.283484 51:-0.198943 52:-0.103364 53:-0.0285629 54:-0.177034 55:-0.193089 56:-0.0890046 57:0.202919 58:0.435188 59:0.5846 60:0.609558 61:0.565039 62:0.409311 63:0.221126 64:0.280113 65:-0.0438997 66:-0.100923 67:-0.159281 68:0.0452251 69:-0.480257 70:-0.413607 71:-0.379594 72:-0.281452 73:-0.114213 74:-0.068621 75:0.362369 76:0.533944 77:0.37153 78:0.0742875 79:-0.329873 80:-0.193262 81:-0.0661153 82:-0.0215968 83:0.199186 84:0.543589 85:0.499389 86:0.390545 87:0.419895 88:0.517125 89:0.604629 90:0.600587 91:0.504575 92:0.397971 93:0.335443 94:0.290874 95:0.283088 96:0.318219 97:0.248775 98:0.23381 99:-0.0382095 100:-0.117937 101:0.00431098 102:-0.0765384 103:-0.0795655 104:-0.0531065 105:-0.0193836 106:0.058196 107:0.0382184 108:-0.0472067 109:-0.132709 110:-0.18867 111:-0.221483 112:-0.240796 113:-0.243207 114:-0.20892 115:-0.163125 116:-0.122319 117:-0.0937709 118:-0.0748251 119:-0.0603324 120:-0.0414526 121:-0.033008 122:-0.0264752 123:-0.0139638 124:-0.000620143 125:-0.00177266 126:0.120479 127:0.305997 128:0.450342 129:0.576576 130:0.616319 131:0.665744 132:0.722238 133:0.75864 134:0.797115 135:0.434337 136:0.174362 137:0.168177 138:0.123122 139:-0.0380499 140:-0.086784 141:-0.427256 142:-0.453315 143:-0.508309 144:-0.379677 145:-0.297657 146:-0.211999 147:-0.112388 148:-0.0487743 149:-0.0248069 150:0.0104534 151:0.034387 152:0.08462 153:0.109218 154:0.161396 155:0.238975 156:0.330096 157:0.440016 158:0.492363 159:0.494988 160:0.621051 161:0.721375 162:0.777986 163:0.711558 164:0.587225 165:0.405654 166:0.206613 167:0.125074 168:-0.0709671 169:-0.210157 170:-0.298447 171:-0.321294 172:-0.297155 173:-0.227849 174:-0.265613 175:-0.353178 176:-0.503094 177:-0.678732 178:-0.889194 179:-1 180:-0.915648 181:-0.75291 182:-0.721456 183:-0.686961 184:-0.613151 185:-0.591638 186:-0.521586 187:-0.557312 188:-0.54189 189:-0.5383 190:-0.401818 191:-0.349684 192:-0.380656 193:-0.425217 194:-0.409212 195:-0.37611 196:-0.297166 197:-0.13846 198:-0.0157626 199:-0.0381013 200:-0.136358 201:-0.0903322 202:0.00448003 203:0.0992421 204:0.169567 205:0.228148 206:0.272431 207:0.300464 208:0.300964 209:0.283652 210:0.281587 211:0.350325 212:0.386167 213:0.418881 214:0.406586 215:0.374611 216:0.32268 217:0.323631 218:0.320418 219:0.299255 220:0.300614 221:0.279409 222:0.2743 223:0.287004 224:0.312069 225:0.334856 226:0.353361 227:0.356132 228:0.317835 229:0.173991 230:0.110978 231:-0.0921132 232:-0.337933 233:-0.603794 234:-0.663189 235:-0.508233 236:-0.104974 237:0.0860591 238:0.153852 239:0.426075 240:0.503151 241:0.506091 242:0.473178 243:0.42691 244:0.384903 245:0.426814 246:0.461977 247:0.448309 248:0.413946 249:0.450376 250:0.418856 251:0.401097 252:0.406904 253:0.441737 254:0.46229 255:0.44214 256:0.344685 257:0.108684 258:-0.116391 259:-0.199343 260:-0.291185 261:-0.439096 262:-0.498482 263:-0.532409 264:-0.442055 265:0.0330433 266:0.48773 267:0.552963 268:0.701366 269:0.905535 270:0.956026 271:0.912572 272:0.842743 273:0.698356 274:0.500641 275:0.396692 276:0.266832 277:0.0812019 278:0.0270289 279:-0.0570122 280:-0.0536055 281:-0.0371246 282:-0.0342899 283:-0.0284158 284:-0.0505621 285:-0.09628 286:-0.154716 287:-0.208172 288:-0.17269 289:-0.189376 290:-0.217682 291:-0.24717 292:-0.260091 293:-0.228144 294:-0.186274 295:-0.185292 296:-0.208649 297:-0.171296 298:-0.117748 299:-0.0621386 300:-0.0163505 
1.879527764112306 1:-0.489183 2:-0.481766 3:-0.361417 4:-0.254844 5:-0.304201 6:-0.484172 7:-0.577942 8:-0.575229 9:-0.738641 10:-0.72481 11:-0.670372 12:-0.613262 13:-0.458004 14:-0.415606 15:-0.381405 16:-0.430164 17:-0.409487 18:-0.263541 19:-0.0753561 20:0.0180994 21:0.166818 22:0.34915 23:0.597662 24:0.814037 25:0.92198 26:0.887503 27:0.726352 28:0.501422 29:0.644294 30:0.148425 31:-0.208451 32:-0.36577 33:-0.264408 34:0.0200651 35:0.473741 36:0.350758 37:0.139901 38:-0.168915 39:-0.22966 40:-0.360915 41:-0.212787 42:-0.473162 43:-0.561681 44:-0.406318 45:-0.504758 46:-0.416775 47:-0.326951 48:-0.427335 49:-0.866295 50:-0.643497 51:-0.45371 52:-0.0996294 53:0.237861 54:0.378416 55:0.410766 56:0.288677 57:0.350703 58:0.300728 59:0.310467 60:0.112786 61:-0.182271 62:0.110348 63:0.642891 64:0.99157 65:0.398976 66:0.120269 67:-0.100738 68:0.0128017 69:-0.422755 70:-0.255045 71:-0.244533 72:-0.289761 73:-0.243135 74:-0.300601 75:-0.00591839 76:0.174609 77:0.101576 78:-0.0176693 79:-0.273593 80:-0.11896 81:-0.0825967 82:-0.159367 83:-0.0279143 84:0.218107 85:0.169442 86:0.0461414 87:0.0485244 88:0.12993 89:0.258612 90:0.368371 91:0.477732 92:0.422753 93:0.377143 94:0.317425 95:0.239963 96:0.0766502 97:-0.147931 98:-0.204892 99:-0.485477 100:-0.384856 101:-0.732776 102:-0.772112 103:-0.663006 104:-0.546926 105:-0.477222 106:-0.42386 107:-0.404446 108:-0.406312 109:-0.425426 110:-0.493161 111:-0.505575 112:-0.444344 113:-0.376276 114:-0.302615 115:-0.253301 116:-0.193199 117:-0.112974 118:-0.0233749 119:0.0678661 120:0.188647 121:0.282687 122:0.386552 123:0.527834 124:0.694618 125:0.760697 126:0.776152 127:0.810793 128:0.794042 129:0.795098 130:0.634818 131:0.35118 132:0.0708594 133:-0.0114532 134:-0.10805 135:-0.196157 136:-0.237542 137:-0.16597 138:-0.158814 139:-0.0641279 140:0.00481398 141:-0.245872 142:-0.274738 143:-0.351246 144:-0.286737 145:-0.23582 146:-0.154899 147:-0.0741905 148:-0.0577115 149:-0.0723459 150:-0.0212305 151:0.0785314 152:0.292854 153:0.474979 154:0.648782 155:0.782212 156:0.837213 157:0.879457 158:0.927451 159:0.930998 160:0.670643 161:0.32528 162:0.154254 163:0.0882526 164:0.0261654 165:-0.0231867 166:-0.083175 167:-0.131684 168:-0.201123 169:-0.218045 170:-0.230518 171:-0.229435 172:-0.201873 173:-0.159673 174:-0.204402 175:-0.274848 176:-0.385266 177:-0.523978 178:-0.688551 179:-0.766165 180:-0.698446 181:-0.57634 182:-0.560783 183:-0.509691 184:-0.407899 185:-0.364177 186:-0.282488 187:-0.27485 188:-0.235696 189:-0.220399 190:-0.124549 191:-0.110512 192:-0.183856 193:-0.206228 194:-0.148587 195:-0.0873313 196:-0.0475436 197:0.0394454 198:0.129744 199:0.134241 200:0.0988815 201:0.406016 202:0.510099 203:0.587998 204:0.630367 205:0.661404 206:0.659821 207:0.721918 208:0.743329 209:0.677132 210:0.523415 211:0.471236 212:0.428782 213:0.368293 214:0.264352 215:0.190496 216:0.116697 217:0.0830572 218:0.0307354 219:-0.0241918 220:-0.0600057 221:-0.0791568 222:-0.100342 223:-0.122882 224:-0.138488 225:-0.145363 226:-0.16586 227:-0.195833 228:-0.265477 229:-0.52952 230:-0.48756 231:-0.400447 232:-0.0593128 233:0.434296 234:0.694167 235:0.840482 236:0.838687 237:0.668266 238:0.535626 239:0.44441 240:0.379335 241:0.373871 242:0.382951 243:0.388499 244:0.363328 245:0.385471 246:0.400989 247:0.357149 248:0.279159 249:0.292542 250:0.229593 251:0.192374 252:0.172737 253:0.196835 254:0.189318 255:0.0985519 256:-0.14226 257:-0.648895 258:-0.954029 259:-1 260:-0.899496 261:-0.504212 262:0.0159476 263:0.463211 264:0.652914 265:0.873479 266:0.952362 267:0.942532 268:0.880956 269:0.871395 270:0.805991 271:0.748272 272:0.652211 273:0.475126 274:0.265688 275:0.19766 276:0.10052 277:-0.0201488 278:-0.0272042 279:-0.073621 280:-0.0575731 281:-0.0446547 282:-0.0530666 283:-0.0549319 284:-0.0888304 285:-0.149067 286:-0.235647 287:-0.328366 288:-0.276958 289:-0.271677 290:-0.285242 291:-0.314027 292:-0.349181 293:-0.350315 294:-0.331066 295:-0.337614 296:-0.333593 297:-0.263345 298:-0.199536 299:-0.152704 300:-0.122011 
0.126740976295064 1:-0.666258 2:-0.673298 3:-0.559877 4:-0.404827 5:-0.359726 6:-0.511814 7:-0.620359 8:-0.604547 9:-0.743504 10:-0.731626 11:-0.649616 12:-0.609037 13:-0.487048 14:-0.478465 15:-0.496569 16:-0.470891 17:-0.426988 18:-0.291127 19:-0.122394 20:-0.0100461 21:0.00261101 22:-0.0146005 23:0.0569272 24:0.155603 25:0.219623 26:0.365963 27:0.583659 28:0.690905 29:0.8001 30:0.260041 31:-0.166625 32:-0.37938 33:-0.491069 34:-0.470908 35:0.0669158 36:0.205769 37:0.314615 38:0.130234 39:-0.105749 40:-0.461826 41:-0.331162 42:-0.393767 43:-0.353457 44:-0.284602 45:-0.475261 46:-0.404885 47:-0.264943 48:-0.318255 49:-0.795662 50:-0.639418 51:-0.512238 52:-0.228854 53:0.206918 54:0.379062 55:0.548306 56:0.582387 57:0.811116 58:0.860412 59:0.771385 60:0.455872 61:0.135159 62:-0.0691327 63:-0.0393396 64:0.680024 65:0.473449 66:0.291325 67:0.0381989 68:0.106835 69:-0.43834 70:-0.355872 71:-0.349089 72:-0.300344 73:-0.212096 74:-0.247179 75:0.0441624 76:0.169789 77:0.037215 78:-0.112607 79:-0.410689 80:-0.214108 81:-0.117246 82:-0.106962 83:0.0967527 84:0.450518 85:0.460014 86:0.357196 87:0.329693 88:0.359174 89:0.382771 90:0.343815 91:0.311927 92:0.275298 93:0.290904 94:0.310871 95:0.325687 96:0.351015 97:0.295891 98:0.329592 99:0.130035 100:0.0274606 101:-0.0992512 102:-0.233893 103:-0.238657 104:-0.180678 105:-0.105592 106:-0.0128961 107:-0.071747 108:-0.144266 109:-0.208751 110:-0.268617 111:-0.299285 112:-0.283697 113:-0.265538 114:-0.231192 115:-0.201151 116:-0.1799 117:-0.138521 118:-0.088166 119:-0.035465 120:0.0109161 121:0.0294486 122:0.0470552 123:0.0851347 124:0.145358 125:0.203615 126:0.380514 127:0.591773 128:0.676692 129:0.622503 130:0.624634 131:0.578881 132:0.562461 133:0.501178 134:0.315758 135:0.0956101 136:-0.0238262 137:-0.0209177 138:-0.130711 139:-0.196818 140:-0.203649 141:-0.489359 142:-0.399043 143:-0.353959 144:-0.284337 145:-0.252541 146:-0.188994 147:-0.0877056 148:-0.00791079 149:-0.0173644 150:0.0211402 151:0.116691 152:0.296144 153:0.45677 154:0.58412 155:0.714889 156:0.801612 157:0.831334 158:0.810811 159:0.760508 160:0.737279 161:0.648024 162:0.470885 163:0.26497 164:0.15914 165:0.078552 166:-0.0165517 167:-0.101077 168:-0.190427 169:-0.234612 170:-0.254269 171:-0.236662 172:-0.188649 173:-0.13921 174:-0.185866 175:-0.267791 176:-0.393503 177:-0.533594 178:-0.70114 179:-0.783958 180:-0.706115 181:-0.56766 182:-0.551309 183:-0.50269 184:-0.413611 185:-0.395643 186:-0.352143 187:-0.392837 188:-0.364133 189:-0.352208 190:-0.245456 191:-0.212713 192:-0.254679 193:-0.290326 194:-0.264748 195:-0.236569 196:-0.183032 197:-0.0827351 198:0.0148204 199:0.000748549 200:-0.0893472 201:0.241643 202:0.314858 203:0.377867 204:0.413604 205:0.445662 206:0.479398 207:0.48688 208:0.486926 209:0.450075 210:0.379294 211:0.389313 212:0.406547 213:0.384395 214:0.314265 215:0.262369 216:0.203018 217:0.201482 218:0.188553 219:0.155981 220:0.148217 221:0.145688 222:0.143073 223:0.153399 224:0.178299 225:0.191196 226:0.201833 227:0.182555 228:0.12843 229:-0.0116943 230:-0.0691297 231:-0.186166 232:-0.291346 233:-0.374008 234:-0.223341 235:0.133369 236:0.347469 237:0.443287 238:0.545648 239:0.593351 240:0.469209 241:0.421634 242:0.430127 243:0.438025 244:0.405442 245:0.408233 246:0.416625 247:0.381723 248:0.303168 249:0.30598 250:0.242918 251:0.199999 252:0.187159 253:0.226402 254:0.262517 255:0.197443 256:0.0162846 257:-0.362364 258:-0.686973 259:-0.809118 260:-0.853716 261:-0.778203 262:-0.55398 263:-0.150501 264:0.298085 265:0.615163 266:0.75806 267:0.960568 268:0.954401 269:0.931288 270:0.834233 271:0.761523 272:0.664933 273:0.488405 274:0.242128 275:0.124354 276:-0.0152888 277:-0.152964 278:-0.179327 279:-0.224832 280:-0.208124 281:-0.196536 282:-0.199683 283:-0.192356 284:-0.21785 285:-0.281756 286:-0.369953 287:-0.438722 288:-0.365192 289:-0.324145 290:-0.291419 291:-0.280794 292:-0.276562 293:-0.244726 294:-0.207748 295:-0.203091 296:-0.179665 297:-0.101177 298:-0.0396123 299:-0.00234616 300:0.0236372 
-1.984597971532833 1:-0.057327 2:-0.128868 3:-0.133376 4:-0.0908342 5:-0.0576049 6:0.0580679 7:0.0450312 8:0.0335006 9:-0.143722 10:-0.275439 11:-0.215809 12:-0.153088 13:-0.0233382 14:0.0349542 15:0.0426067 16:-0.0739878 17:-0.201867 18:-0.297281 19:-0.0615811 20:0.106072 21:0.202758 22:0.20429 23:0.198631 24:0.213488 25:0.134229 26:0.0700811 27:0.0493047 28:0.0276164 29:0.157471 30:-0.159859 31:-0.350895 32:-0.376524 33:-0.361817 34:-0.17193 35:0.186097 36:0.124282 37:0.173238 38:0.0465266 39:0.105588 40:0.0318618 41:-0.00980843 42:-0.473601 43:-0.891647 44:-1 45:-1 46:-0.523051 47:-0.0205641 48:0.231044 49:0.338767 50:0.117036 51:-0.0817982 52:-0.127206 53:0.0926872 54:0.162229 55:0.126796 56:-0.00732368 57:-0.0755144 58:-0.232159 59:-0.210585 60:-0.111731 61:0.160241 62:0.411411 63:0.578585 64:0.650673 65:0.103782 66:-0.0726874 67:-0.203225 68:-0.103429 69:-0.590186 70:-0.553338 71:-0.728674 72:-0.602151 73:-0.52493 74:-0.535616 75:-0.27285 76:-0.091153 77:-0.225798 78:-0.440166 79:-0.984921 80:-0.87116 81:-0.783866 82:-0.72643 83:-0.579592 84:-0.473533 85:-0.475445 86:-0.445963 87:-0.200468 88:0.0193213 89:0.0634325 90:-0.0511368 91:-0.101423 92:-0.106096 93:-0.0349585 94:0.010715 95:0.000604989 96:-0.0520024 97:-0.136147 98:-0.0928315 99:-0.314952 100:-0.264801 101:-0.315926 102:-0.351877 103:-0.338093 104:-0.310041 105:-0.268708 106:-0.127225 107:-0.0513032 108:-0.0411829 109:-0.0662209 110:-0.0989203 111:-0.127127 112:-0.0922576 113:-0.0388807 114:0.0209607 115:0.0232295 116:-0.00991463 117:-0.0272094 118:-0.00323852 119:0.0328449 120:0.113184 121:0.123254 122:0.068415 123:0.0627825 124:0.100557 125:0.100787 126:0.163442 127:0.247421 128:0.256039 129:0.212037 130:0.143113 131:0.0931866 132:0.0814998 133:0.0498701 134:0.0580921 135:0.0689241 136:0.114254 137:0.379954 138:0.586394 139:0.824053 140:0.943376 141:1 142:0.877941 143:0.664906 144:0.4148 145:0.278406 146:0.145218 147:0.0759168 148:0.0343094 149:0.0233825 150:0.0398772 151:0.0554428 152:0.102077 153:0.126799 154:0.147428 155:0.149468 156:0.105278 157:0.0275914 158:-0.0691433 159:-0.193206 160:-0.112598 161:-0.0819079 162:-0.0725143 163:-0.0493547 164:0.000943463 165:0.0155857 166:-0.0235757 167:-0.0615873 168:-0.124319 169:-0.14806 170:-0.176671 171:-0.176475 172:-0.137068 173:-0.0763004 174:-0.0905498 175:-0.126731 176:-0.219953 177:-0.358395 178:-0.531636 179:-0.603855 180:-0.49495 181:-0.314499 182:-0.209315 183:-0.124339 184:-0.0635868 185:-0.0422695 186:0.0621167 187:0.147433 188:0.165903 189:0.114637 190:0.1219 191:0.106934 192:0.0932632 193:0.0824557 194:0.100716 195:0.114484 196:0.155872 197:0.217563 198:0.270974 199:0.235164 200:0.124213 201:1 202:1 203:0.971394 204:0.913204 205:0.864133 206:0.826706 207:0.787752 208:0.723553 209:0.614274 210:0.448357 211:0.386984 212:0.337169 213:0.287179 214:0.206451 215:0.123268 216:0.00257689 217:-0.0464236 218:-0.0563425 219:-0.0523044 220:-0.00731967 221:0.0180578 222:0.0306678 223:0.0803633 224:0.153753 225:0.22412 226:0.286555 227:0.338206 228:0.376009 229:0.351157 230:0.422272 231:0.44308 232:0.488171 233:0.531292 234:0.580178 235:0.52653 236:0.341369 237:0.0343526 238:-0.134253 239:-0.348967 240:-0.639099 241:-0.852062 242:-1 243:-1 244:-1 245:-0.63908 246:-0.224195 247:0.0635522 248:0.215944 249:0.458492 250:0.538611 251:0.543004 252:0.512361 253:0.562302 254:0.616287 255:0.639394 256:0.614887 257:0.530261 258:0.446876 259:0.490962 260:0.637937 261:0.610892 262:0.618342 263:0.693481 264:0.761368 265:0.813287 266:0.816268 267:0.763373 268:0.685451 269:0.64924 270:0.570111 271:0.481032 272:0.347785 273:0.0795123 274:-0.231376 275:-0.284702 276:-0.362786 277:-0.470367 278:-0.517892 279:-0.569924 280:-0.586546 281:-0.599086 282:-0.633293 283:-0.677055 284:-0.679242 285:-0.686171 286:-0.732638 287:-0.797146 288:-0.721129 289:-0.68626 290:-0.662729 291:-0.647359 292:-0.634541 293:-0.582725 294:-0.519987 295:-0.515411 296:-0.542925 297:-0.488066 298:-0.417104 299:-0.348051 300:-0.294101 
-2 1:-0.627224 2:-0.606232 3:-0.552926 4:-0.539463 5:-0.544489 6:-0.566681 7:-0.549679 8:-0.449494 9:-0.481686 10:-0.435679 11:-0.323779 12:-0.20042 13:0.00268393 14:0.148207 15:0.302633 16:0.374741 17:0.547626 18:0.826436 19:1 20:1 21:1 22:1 23:1 24:1 25:1 26:1 27:0.971452 28:0.905383 29:1 30:0.432933 31:0.083788 32:-0.0370985 33:-0.0985778 34:0.188247 35:0.616612 36:0.471962 37:0.34411 38:0.046985 39:-0.0997955 40:-0.301496 41:-0.164432 42:-0.262638 43:-0.299387 44:-0.175266 45:-0.261221 46:-0.153484 47:-0.0189783 48:0.0052002 49:-0.0951301 50:0.020036 51:0.099939 52:0.234896 53:0.344485 54:0.221043 55:0.0373302 56:-0.14664 57:-0.242365 58:-0.441798 59:-0.499464 60:-0.587472 61:-0.471015 62:-0.0515163 63:0.412812 64:0.806029 65:0.424757 66:0.302885 67:0.105483 68:0.258496 69:-0.355455 70:-0.383969 71:-0.537452 72:-0.467375 73:-0.349935 74:-0.303186 75:0.113809 76:0.392425 77:0.397011 78:0.272994 79:-0.0212754 80:-0.00233578 81:-0.0386052 82:-0.1245 83:0.0149663 84:0.302591 85:0.29163 86:0.180199 87:0.190319 88:0.236964 89:0.254627 90:0.180234 91:0.145963 92:0.131786 93:0.161906 94:0.173693 95:0.143649 96:0.0535713 97:-0.100323 98:-0.119652 99:-0.42603 100:-0.451107 101:-0.145258 102:-0.0574933 103:0.0305415 104:0.0956596 105:0.0977891 106:0.133534 107:0.128869 108:0.0909054 109:0.05043 110:0.010002 111:-0.013699 112:-0.00218836 113:0.0120285 114:0.0371247 115:0.0585208 116:0.0763215 117:0.095577 118:0.111129 119:0.115333 120:0.0990962 121:0.0433983 122:-0.0223206 123:-0.0782232 124:-0.12325 125:-0.181197 126:-0.11206 127:-0.00404024 128:0.020328 129:-0.0292683 130:-0.111273 131:-0.163031 132:-0.165187 133:-0.199539 134:-0.217664 135:-0.213639 136:-0.172255 137:-0.106569 138:-0.124222 139:0.0292925 140:0.135025 141:-0.0502461 142:-0.0130402 143:-0.0137763 144:0.063389 145:0.11123 146:0.175835 147:0.26733 148:0.309385 149:0.337108 150:0.40685 151:0.494679 152:0.597054 153:0.661764 154:0.692478 155:0.703074 156:0.668948 157:0.615883 158:0.551669 159:0.409457 160:0.379826 161:0.378335 162:0.324339 163:0.241376 164:0.180334 165:0.120294 166:0.0548244 167:-0.00614269 168:-0.089179 169:-0.143676 170:-0.193894 171:-0.208729 172:-0.185024 173:-0.139658 174:-0.183575 175:-0.260003 176:-0.388938 177:-0.555364 178:-0.769037 179:-0.911552 180:-0.887714 181:-0.787411 182:-0.821854 183:-0.858846 184:-0.845394 185:-0.857797 186:-0.825458 187:-0.913053 188:-0.917875 189:-0.943756 190:-0.823267 191:-0.809488 192:-0.901539 193:-1 194:-1 195:-0.982522 196:-0.940915 197:-0.807873 198:-0.670514 199:-0.72678 200:-0.897843 201:-0.26405 202:-0.154049 203:-0.0541569 204:0.0181685 205:0.101317 206:0.184375 207:0.260922 208:0.330624 209:0.377933 210:0.414889 211:0.538941 212:0.619966 213:0.672384 214:0.665347 215:0.675399 216:0.710631 217:0.769045 218:0.824209 219:0.841113 220:0.867981 221:0.894909 222:0.911564 223:0.935499 224:0.958943 225:0.979444 226:0.999925 227:1 228:1 229:1 230:1 231:1 232:1 233:1 234:1 235:0.91532 236:0.709647 237:0.484184 238:0.347584 239:0.198386 240:0.0804427 241:0.0747937 242:0.0865154 243:0.0937992 244:0.0530539 245:0.0760038 246:0.0922137 247:0.0456456 248:-0.0567726 249:-0.025412 250:-0.097426 251:-0.147565 252:-0.168017 253:-0.12215 254:-0.102771 255:-0.161437 256:-0.372332 257:-0.831619 258:-1 259:-0.820567 260:-0.590823 261:-0.268654 262:-0.0299693 263:0.144211 264:0.318034 265:0.505637 266:0.603857 267:0.663052 268:0.718736 269:0.77819 270:0.773686 271:0.742554 272:0.681353 273:0.566776 274:0.432386 275:0.403872 276:0.326113 277:0.206748 278:0.206746 279:0.132045 280:0.130293 281:0.119873 282:0.0632643 283:0.0099637 284:-0.0634303 285:-0.162778 286:-0.28342 287:-0.404502 288:-0.398676 289:-0.422559 290:-0.452215 291:-0.487599 292:-0.541088 293:-0.558661 294:-0.548783 295:-0.584304 296:-0.632053 297:-0.617391 298:-0.594367 299:-0.584635 300:-0.592416 
-1.683481304367913 1:-0.665428 2:-0.671718 3:-0.600049 4:-0.518503 5:-0.503249 6:-0.519312 7:-0.500882 8:-0.340746 9:-0.332191 10:-0.319811 11:-0.262019 12:-0.219891 13:-0.0878195 14:0.000226145 15:0.0840185 16:0.0891572 17:0.161511 18:0.382994 19:0.602856 20:0.692508 21:0.746664 22:0.738254 23:0.706491 24:0.639085 25:0.514647 26:0.412261 27:0.405115 28:0.301478 29:0.436121 30:-0.0371569 31:-0.308341 32:-0.357134 33:-0.350494 34:-0.202755 35:0.143537 36:0.0760847 37:0.0705012 38:-0.20481 39:-0.311846 40:-0.47511 41:-0.282623 42:-0.330047 43:-0.32229 44:-0.177645 45:-0.237389 46:-0.0596429 47:0.196535 48:0.319672 49:0.183369 50:-0.00568829 51:-0.14729 52:-0.209426 53:-0.29343 54:-0.702037 55:-0.830248 56:-0.459841 57:0.0269261 58:0.387397 59:0.699592 60:0.71137 61:0.578577 62:0.535525 63:0.592922 64:0.62621 65:0.0821802 66:-0.0859865 67:-0.209629 68:-0.129965 69:-0.630718 70:-0.566825 71:-0.647256 72:-0.515581 73:-0.426791 74:-0.443749 75:-0.145434 76:0.0282244 77:-0.0866177 78:-0.235389 79:-0.598764 80:-0.495376 81:-0.50942 82:-0.560021 83:-0.536818 84:-0.461341 85:-0.451834 86:-0.453267 87:-0.34705 88:-0.263313 89:-0.224576 90:-0.243203 91:-0.147493 92:-0.0674946 93:0.0234578 94:0.0729281 95:0.0954981 96:0.101572 97:0.109741 98:0.260313 99:0.181724 100:0.19824 101:0.404499 102:0.343316 103:0.344876 104:0.356551 105:0.349516 106:0.370969 107:0.318635 108:0.249938 109:0.184783 110:0.12958 111:0.0828503 112:0.0659301 113:0.0619575 114:0.0789889 115:0.106698 116:0.111469 117:0.104535 118:0.101907 119:0.110045 120:0.124887 121:0.109858 122:0.0523662 123:-0.00420034 124:-0.0447561 125:-0.0955988 126:-0.0393452 127:0.0342496 128:0.0752342 129:0.0310379 130:-0.0390192 131:-0.107082 132:-0.133735 133:-0.147601 134:-0.13755 135:-0.129432 136:-0.0914019 137:0.0601847 138:0.139863 139:0.268248 140:0.35468 141:0.24224 142:0.231371 143:0.182296 144:0.222246 145:0.266389 146:0.353603 147:0.473218 148:0.533905 149:0.56392 150:0.582364 151:0.587468 152:0.624369 153:0.639377 154:0.591244 155:0.512781 156:0.43517 157:0.274523 158:0.0958246 159:-0.0566628 160:0.006868 161:0.0109081 162:0.0100426 163:0.0150519 164:0.0479112 165:0.0515982 166:0.00757901 167:-0.0536623 168:-0.135313 169:-0.173434 170:-0.211473 171:-0.237771 172:-0.220614 173:-0.149358 174:-0.233369 175:-0.29494 176:-0.408338 177:-0.586518 178:-0.810039 179:-0.909009 180:-0.796215 181:-0.71612 182:-0.754637 183:-0.679933 184:-0.552586 185:-0.538729 186:-0.461381 187:-0.486823 188:-0.436002 189:-0.350019 190:-0.167066 191:-0.0898169 192:-0.125952 193:-0.181182 194:-0.154647 195:-0.103516 196:-0.0304872 197:0.0721131 198:0.143013 199:0.0919389 200:-0.026604 201:-0.205933 202:-0.143778 203:-0.0904676 204:-0.0382003 205:0.0116993 206:0.0339027 207:0.0533833 208:0.0633658 209:0.049554 210:0.0430596 211:0.194896 212:0.312457 213:0.392653 214:0.417293 215:0.454485 216:0.505379 217:0.569452 218:0.610706 219:0.615828 220:0.632808 221:0.651934 222:0.673386 223:0.694641 224:0.705676 225:0.718785 226:0.742369 227:0.754441 228:0.743542 229:0.683803 230:0.689668 231:0.695593 232:0.714648 233:0.70871 234:0.715948 235:0.646558 236:0.468746 237:0.22486 238:0.119094 239:0.0179923 240:-0.0573201 241:-0.033059 242:0.012952 243:0.0451745 244:0.0146996 245:0.04023 246:0.0404692 247:-0.0437865 248:-0.230546 249:-0.276519 250:-0.447441 251:-0.580975 252:-0.651241 253:-0.590732 254:-0.500647 255:-0.3986 256:-0.259264 257:-0.156767 258:0.171567 259:0.533539 260:0.831926 261:0.794983 262:0.714479 263:0.680413 264:0.642379 265:0.623741 266:0.562948 267:0.465299 268:0.374032 269:0.327738 270:0.258229 271:0.194561 272:0.098587 273:-0.2207 274:-0.534933 275:-0.551681 276:-0.535254 277:-0.531346 278:-0.511994 279:-0.560924 280:-0.566642 281:-0.497352 282:-0.498133 283:-0.533418 284:-0.574361 285:-0.615851 286:-0.686781 287:-0.728552 288:-0.623088 289:-0.563994 290:-0.497193 291:-0.417876 292:-0.34164 293:-0.236353 294:-0.138054 295:-0.0743692 296:-0.0206482 297:0.0639672 298:0.137997 299:0.197005 300:0.247795 
-0.9878507867432087 1:-0.100779 2:-0.1651 3:-0.169529 4:-0.131916 5:-0.114183 6:-0.076293 7:-0.116867 8:-0.0726148 9:-0.149471 10:-0.20943 11:-0.170914 12:-0.117788 13:0.0256657 14:0.142138 15:0.253814 16:0.290855 17:0.347932 18:0.444887 19:0.468476 20:0.385266 21:0.3155 22:0.241789 23:0.225542 24:0.223823 25:0.106655 26:0.00746236 27:-0.000828329 28:-0.00306796 29:0.111417 30:-0.197698 31:-0.368831 32:-0.374626 33:-0.342273 34:-0.127978 35:0.263308 36:0.199196 37:0.213046 38:0.0575508 39:0.0682833 40:-0.0146527 41:0.141874 42:-0.0866988 43:-0.376744 44:-0.39682 45:-0.653113 46:-0.733262 47:-0.627964 48:-0.478507 49:-0.368714 50:0.051426 51:0.1641 52:0.368614 53:0.421521 54:0.207804 55:-0.0363491 56:0.0049992 57:0.21484 58:0.243657 59:0.208982 60:0.090514 61:0.104231 62:0.239292 63:0.322702 64:0.347153 65:-0.0780983 66:-0.194172 67:-0.278195 68:-0.201535 69:-0.693633 70:-0.669849 71:-0.809754 72:-0.615561 73:-0.515886 74:-0.550652 75:-0.297524 76:-0.0837728 77:-0.140594 78:-0.281255 79:-0.739943 80:-0.657845 81:-0.656708 82:-0.715907 83:-0.694679 84:-0.687828 85:-0.708087 86:-0.635842 87:-0.36623 88:-0.133976 89:-0.0330267 90:-0.117213 91:-0.199615 92:-0.249378 93:-0.210371 94:-0.19802 95:-0.284403 96:-0.520169 97:-1 98:-1 99:-0.87919 100:0.2296 101:-0.283412 102:-0.207202 103:-0.140559 104:-0.0784435 105:-0.0191125 106:0.0388868 107:0.0588896 108:0.0421978 109:-0.0027719 110:-0.0826021 111:-0.101475 112:-0.0814641 113:-0.0535125 114:-0.00560778 115:0.0333337 116:0.0640324 117:0.0811981 118:0.0920178 119:0.11476 120:0.120042 121:0.0765395 122:0.0327725 123:0.0181167 124:0.00847458 125:-0.0101916 126:0.0694107 127:0.175321 128:0.20155 129:0.166927 130:0.106051 131:0.0652885 132:0.0623643 133:0.0355479 134:0.0480148 135:0.0678095 136:0.118908 137:0.352645 138:0.501903 139:0.683718 140:0.81398 141:0.876199 142:0.796075 143:0.624709 144:0.512651 145:0.431853 146:0.388194 147:0.341372 148:0.306823 149:0.203913 150:0.0613009 151:0.00269725 152:0.0484544 153:0.0736559 154:0.105045 155:0.133327 156:0.15286 157:0.12192 158:0.0628186 159:-0.0478715 160:0.00840332 161:0.016008 162:0.0145619 163:0.0182278 164:0.0507066 165:0.0399028 166:-0.0218301 167:-0.089554 168:-0.181259 169:-0.224077 170:-0.209421 171:-0.219388 172:-0.216897 173:-0.154681 174:-0.225571 175:-0.294623 176:-0.392982 177:-0.529894 178:-0.709169 179:-0.797678 180:-0.705671 181:-0.534798 182:-0.459272 183:-0.344999 184:-0.190514 185:-0.106614 186:0.0190637 187:0.0793085 188:0.128492 189:0.127521 190:0.169694 191:0.163547 192:0.100748 193:0.0216149 194:0.0469647 195:0.168503 196:0.285549 197:0.127988 198:-0.0142393 199:-0.184387 200:-0.325751 201:0.886047 202:0.876071 203:0.863107 204:0.827779 205:0.79648 206:0.774365 207:0.765421 208:0.745848 209:0.686958 210:0.584574 211:0.578872 212:0.592322 213:0.577957 214:0.501487 215:0.441467 216:0.384839 217:0.360243 218:0.319037 219:0.256076 220:0.223778 221:0.221924 222:0.230026 223:0.248014 224:0.282739 225:0.319238 226:0.36134 227:0.399947 228:0.420029 229:0.389405 230:0.453084 231:0.475683 232:0.520848 233:0.561415 234:0.609372 235:0.564969 236:0.394985 237:0.119313 238:-0.0372802 239:-0.211945 240:-0.410756 241:-0.524718 242:-0.628181 243:-0.674712 244:-0.808743 245:-0.800338 246:-0.741715 247:-0.680642 248:-0.596447 249:-0.241488 250:-0.013792 251:0.254231 252:0.498986 253:0.657204 254:0.695784 255:0.63436 256:0.540412 257:0.395062 258:0.247313 259:0.209884 260:0.242117 261:0.175315 262:0.175048 263:0.21148 264:0.237553 265:0.297092 266:0.253922 267:0.150351 268:0.0865548 269:0.0654762 270:0.0159287 271:-0.052255 272:-0.176351 273:-0.599447 274:-1 275:-1 276:-1 277:-1 278:-1 279:-1 280:-1 281:-1 282:-1 283:-1 284:-1 285:-1 286:-1 287:-0.942087 288:-0.730263 289:-0.573696 290:-0.428302 291:-0.280765 292:-0.144176 293:0.00165818 294:0.182084 295:0.383576 296:0.495409 297:0.554245 298:0.667736 299:0.799708 300:0.865095 
-0.5757874286025328 1:-0.307722 2:-0.443876 3:-0.476464 4:-0.399545 5:-0.296499 6:-0.158633 7:-0.0980456 8:-0.0254225 9:-0.118829 10:-0.222442 11:-0.205307 12:-0.14685 13:-0.00354292 14:0.11536 15:0.238392 16:0.311141 17:0.4713 18:0.694172 19:0.758809 20:0.635398 21:0.520774 22:0.416521 23:0.382719 24:0.289497 25:0.0771625 26:0.119034 27:0.223575 28:0.296262 29:0.473761 30:0.0848839 31:-0.190776 32:-0.265692 33:-0.282803 34:-0.0397687 35:0.376454 36:0.274532 37:0.191621 38:-0.107058 39:-0.229253 40:-0.35964 41:-0.114997 42:-0.0719875 43:-0.0556493 44:0.0751563 45:-0.0510199 46:-0.0212405 47:-0.0186471 48:-0.176704 49:-0.737554 50:-1 51:-0.844286 52:-0.217314 53:0.0853395 54:0.110097 55:0.0328752 56:0.00130827 57:0.15041 58:0.221345 59:0.320092 60:0.312618 61:0.420181 62:0.611852 63:0.840183 64:0.939931 65:0.282634 66:0.0115714 67:-0.179794 68:-0.132285 69:-0.609161 70:-0.535682 71:-0.578712 72:-0.465225 73:-0.364697 74:-0.384772 75:-0.0977846 76:0.0636174 77:-0.0484703 78:-0.201972 79:-0.509095 80:-0.359886 81:-0.321452 82:-0.394825 83:-0.23789 84:0.104716 85:0.159546 86:0.0869723 87:0.0534934 88:0.0810034 89:0.0745349 90:0.00588242 91:-0.0814717 92:-0.204743 93:-0.23378 94:-0.234462 95:-0.223833 96:-0.269397 97:-0.385247 98:-0.402813 99:-0.742865 100:-0.732853 101:-0.648573 102:-0.625905 103:-0.567542 104:-0.517671 105:-0.436053 106:-0.285905 107:-0.222391 108:-0.228817 109:-0.261558 110:-0.261343 111:-0.24978 112:-0.203788 113:-0.168752 114:-0.122731 115:-0.0888162 116:-0.042216 117:0.0165823 118:0.054781 119:0.0762016 120:0.0776572 121:0.0621023 122:0.0341938 123:0.00292117 124:-0.0602121 125:-0.156798 126:-0.0221758 127:0.116225 128:0.156212 129:0.109492 130:0.0345801 131:-0.0018593 132:-0.00566644 133:-0.0362139 134:-0.0186593 135:-0.00419512 136:0.0255387 137:0.176842 138:0.230701 139:0.339232 140:0.443859 141:0.421459 142:0.51015 143:0.554766 144:0.615079 145:0.613469 146:0.650826 147:0.721827 148:0.695688 149:0.624866 150:0.53599 151:0.478022 152:0.469469 153:0.330246 154:0.205677 155:0.119407 156:0.0455905 157:-0.0186887 158:-0.0707513 159:-0.174204 160:-0.0901206 161:-0.0393765 162:-0.0116588 163:0.015208 164:0.0545953 165:0.0627313 166:0.0214029 167:-0.0228324 168:-0.0942038 169:-0.121116 170:-0.148104 171:-0.151248 172:-0.127445 173:-0.0895245 174:-0.150451 175:-0.239213 176:-0.373994 177:-0.493695 178:-0.669676 179:-0.821119 180:-0.750136 181:-0.595189 182:-0.585411 183:-0.579849 184:-0.563626 185:-0.549205 186:-0.498696 187:-0.554182 188:-0.58573 189:-0.636622 190:-0.498924 191:-0.413878 192:-0.391795 193:-0.459105 194:-0.445363 195:-0.392525 196:-0.32059 197:-0.193869 198:-0.0674721 199:-0.0550354 200:-0.096182 201:0.544475 202:0.591762 203:0.643255 204:0.689478 205:0.743374 206:0.793002 207:0.81981 208:0.838432 209:0.838272 210:0.817302 211:0.831365 212:0.836482 213:0.801276 214:0.724034 215:0.66225 216:0.633701 217:0.64588 218:0.616456 219:0.542371 220:0.470734 221:0.41803 222:0.376462 223:0.355784 224:0.384642 225:0.433895 226:0.458053 227:0.485396 228:0.505429 229:0.477899 230:0.528607 231:0.543369 232:0.577337 233:0.608596 234:0.640974 235:0.582114 236:0.404263 237:0.158343 238:0.0607928 239:-0.0571764 240:-0.176945 241:-0.203957 242:-0.221346 243:-0.244999 244:-0.375237 245:-0.466041 246:-0.550762 247:-0.71194 248:-1 249:-1 250:-0.983155 251:-0.849244 252:-0.594747 253:-0.0903605 254:0.314818 255:0.518895 256:0.723538 257:0.999497 258:1 259:0.930966 260:0.92111 261:0.766505 262:0.687362 263:0.700868 264:0.720344 265:0.742312 266:0.714988 267:0.64355 268:0.568494 269:0.539937 270:0.474379 271:0.405001 272:0.304877 273:0.0815588 274:-0.16007 275:-0.147753 276:-0.160049 277:-0.203857 278:-0.156854 279:-0.14175 280:-0.125904 281:-0.133378 282:-0.136797 283:-0.131599 284:-0.147884 285:-0.24531 286:-0.374261 287:-0.493302 288:-0.464026 289:-0.476614 290:-0.526487 291:-0.583689 292:-0.657189 293:-0.647675 294:-0.626442 295:-0.672188 296:-0.72694 297:-0.71206 298:-0.680307 299:-0.648637 300:-0.626927 
-0.2385233750212282 1:-0.718348 2:-0.861379 3:-0.935616 4:-0.886332 5:-0.76618 6:-0.616613 7:-0.492141 8:-0.348142 9:-0.404859 10:-0.428661 11:-0.342518 12:-0.272733 13:-0.116576 14:0.0036749 15:0.15735 16:0.253933 17:0.43088 18:0.70579 19:0.882369 20:0.896152 21:0.874151 22:0.80457 23:0.745282 24:0.693599 25:0.62462 26:0.569913 27:0.520953 28:0.445496 29:0.53119 30:0.0812452 31:-0.202204 32:-0.278826 33:-0.300683 34:-0.112405 35:0.214959 36:0.0802707 37:0.020608 38:-0.278711 39:-0.3869 40:-0.570737 41:-0.396583 42:-0.503931 43:-0.504824 44:-0.39916 45:-0.535803 46:-0.399561 47:-0.220035 48:-0.205673 49:-0.290891 50:0.125639 51:0.349783 52:0.427875 53:0.236194 54:-0.165914 55:-0.649307 56:-0.738887 57:-0.234417 58:0.465524 59:0.91497 60:1 61:0.909029 62:0.688028 63:0.659097 64:0.693807 65:0.217972 66:0.134059 67:-0.0151409 68:0.101001 69:-0.465009 70:-0.472288 71:-0.565905 72:-0.446724 73:-0.313047 74:-0.277331 75:0.0802822 76:0.285638 77:0.202208 78:-0.000239964 79:-0.491262 80:-0.52036 81:-0.590714 82:-0.69493 83:-0.688225 84:-0.614237 85:-0.655272 86:-0.729484 87:-0.665055 88:-0.657274 89:-0.768605 90:-1 91:-1 92:-1 93:-1 94:-1 95:-1 96:-1 97:-0.871283 98:-0.609117 99:-0.800292 100:-0.774429 101:0.164248 102:0.0845201 103:0.0340908 104:4.15442e-05 105:-0.0181998 106:0.0407455 107:0.0520974 108:0.0240548 109:-0.0218261 110:-0.0761992 111:-0.119732 112:-0.120061 113:-0.105232 114:-0.0580135 115:-0.0258694 116:-0.0192652 117:-0.00713072 118:0.0230546 119:0.0763194 120:0.11675 121:0.104966 122:0.0607316 123:0.0233171 124:-0.00875851 125:-0.0628171 126:-0.0103711 127:0.0745943 128:0.0781603 129:0.01543 130:-0.0782426 131:-0.136517 132:-0.164643 133:-0.208961 134:-0.201628 135:-0.186538 136:-0.166061 137:-0.0469031 138:0.0195148 139:0.156969 140:0.282168 141:0.21579 142:0.193843 143:0.118031 144:0.181792 145:0.13749 146:0.204307 147:0.322069 148:0.385355 149:0.38614 150:0.471532 151:0.582438 152:0.690677 153:0.658122 154:0.617023 155:0.487943 156:0.336734 157:0.322926 158:0.0998697 159:-0.0901574 160:-0.0461828 161:-0.0209644 162:-0.00587808 163:-0.0136881 164:0.00737557 165:0.00933021 166:-0.023282 167:-0.0650012 168:-0.144112 169:-0.190962 170:-0.232946 171:-0.242588 172:-0.216429 173:-0.171493 174:-0.217983 175:-0.295138 176:-0.420751 177:-0.583406 178:-0.795731 179:-0.94449 180:-0.913719 181:-0.811346 182:-0.844837 183:-0.862392 184:-0.812866 185:-0.776774 186:-0.683587 187:-0.690405 188:-0.614872 189:-0.538138 190:-0.34374 191:-0.235261 192:-0.22706 193:-0.213896 194:-0.120327 195:0.0120043 196:0.196026 197:0.355778 198:0.446407 199:0.434502 200:0.355954 201:-0.690407 202:-0.564333 203:-0.426212 204:-0.283124 205:-0.127373 206:0.0152035 207:0.167177 208:0.327311 209:0.482126 210:0.627636 211:0.800648 212:0.926315 213:1 214:1 215:1 216:1 217:1 218:0.992491 219:0.954721 220:0.925508 221:0.898508 222:0.870879 223:0.846187 224:0.840482 225:0.842911 226:0.849749 227:0.842904 228:0.828647 229:0.802488 230:0.807533 231:0.796342 232:0.788796 233:0.785059 234:0.781519 235:0.694757 236:0.498116 237:0.241435 238:0.125278 239:0.0142862 240:-0.0896764 241:-0.08812 242:-0.0464624 243:-0.00239114 244:-0.0310318 245:0.025332 246:0.0466704 247:-0.00425174 248:-0.11199 249:-0.0836592 250:-0.237768 251:-0.419352 252:-0.587498 253:-0.628462 254:-0.652695 255:-0.706813 256:-0.772598 257:-0.671588 258:0.00553926 259:0.433367 260:0.805884 261:1 262:1 263:1 264:1 265:1 266:1 267:0.970176 268:0.908036 269:0.898083 270:0.840497 271:0.806628 272:0.761932 273:0.704504 274:0.641453 275:0.622924 276:0.551798 277:0.442897 278:0.479961 279:0.402658 280:0.389642 281:0.367897 282:0.306576 283:0.262239 284:0.153616 285:-0.00735649 286:-0.204095 287:-0.386099 288:-0.438324 289:-0.544373 290:-0.65669 291:-0.766514 292:-0.898243 293:-1 294:-1 295:-1 296:-1 297:-1 298:-1 299:-1 300:-1 
-0.4363068130162464 1:-0.1372 2:-0.252929 3:-0.292603 4:-0.283133 5:-0.249048 6:-0.161944 7:-0.0985325 8:0.0174647 9:0.00416081 10:-0.0392748 11:0.00178697 12:0.0109046 13:0.0658922 14:0.0706131 15:0.125784 16:0.124675 17:0.272456 18:0.540847 19:0.756312 20:0.755125 21:0.742891 22:0.672641 23:0.592563 24:0.471966 25:0.3982 26:0.334475 27:0.294082 28:0.332009 29:0.557498 30:0.142801 31:-0.119493 32:-0.211568 33:-0.255853 34:-0.0641721 35:0.294954 36:0.180513 37:0.144652 38:-0.123139 39:-0.219429 40:-0.410999 41:-0.240431 42:-0.327206 43:-0.33585 44:-0.190429 45:-0.294144 46:-0.200839 47:-0.0961942 48:-0.066656 49:-0.209635 50:-0.0945867 51:-0.0790769 52:-0.0734105 53:-0.21243 54:-0.666372 55:-0.909273 56:-0.633748 57:-0.109342 58:0.319727 59:0.739151 60:0.950305 61:1 62:1 63:1 64:0.911448 65:0.207714 66:-0.00900467 67:-0.158799 68:-0.0328768 69:-0.512132 70:-0.43257 71:-0.52354 72:-0.457596 73:-0.378597 74:-0.385151 75:-0.0528376 76:0.201275 77:0.201477 78:0.113582 79:-0.163107 80:-0.104175 81:-0.162958 82:-0.285926 83:-0.214143 84:-0.0306771 85:-0.0594617 86:-0.118543 87:-0.0600706 88:0.00781653 89:0.0298779 90:-0.0389647 91:-0.0213985 92:0.0100272 93:0.0792803 94:0.124479 95:0.120613 96:0.0681851 97:-0.0626684 98:-0.0980067 99:-0.41067 100:-0.441879 101:-0.546309 102:-0.514792 103:-0.443314 104:-0.367708 105:-0.310795 106:-0.194486 107:-0.150943 108:-0.150808 109:-0.159516 110:-0.161994 111:-0.143709 112:-0.0784856 113:-0.0248679 114:0.0290069 115:0.0515638 116:0.0672791 117:0.109448 118:0.156713 119:0.20156 120:0.216118 121:0.188313 122:0.135516 123:0.0996284 124:0.0778059 125:0.00599966 126:0.0341017 127:0.0999191 128:0.109898 129:0.0726886 130:0.019256 131:-0.0267092 132:-0.074686 133:-0.118304 134:-0.10568 135:-0.0959565 136:-0.0709162 137:0.0681251 138:0.119844 139:0.220182 140:0.295212 141:0.182884 142:0.207891 143:0.197665 144:0.255878 145:0.306608 146:0.389773 147:0.50414 148:0.580367 149:0.63746 150:0.70645 151:0.753787 152:0.784516 153:0.733642 154:0.672704 155:0.540602 156:0.458275 157:0.429618 158:0.248386 159:0.0289139 160:0.0331132 161:0.0209772 162:0.000982918 163:-0.00532064 164:0.0142653 165:0.00170193 166:-0.0401723 167:-0.0828991 168:-0.133637 169:-0.147915 170:-0.162481 171:-0.16251 172:-0.13604 173:-0.0946156 174:-0.133725 175:-0.199026 176:-0.312864 177:-0.461988 178:-0.647619 179:-0.760242 180:-0.717553 181:-0.620274 182:-0.638029 183:-0.649239 184:-0.604216 185:-0.588176 186:-0.505709 187:-0.521112 188:-0.477483 189:-0.465885 190:-0.355393 191:-0.32877 192:-0.384659 193:-0.433658 194:-0.407677 195:-0.363011 196:-0.303138 197:-0.195231 198:-0.107595 199:-0.143283 200:-0.250972 201:0.471779 202:0.501922 203:0.544181 204:0.595836 205:0.665756 206:0.739353 207:0.758265 208:0.755239 209:0.712515 210:0.702436 211:0.757608 212:0.776758 213:0.771742 214:0.715243 215:0.693417 216:0.694798 217:0.706656 218:0.704129 219:0.660438 220:0.64521 221:0.633437 222:0.618563 223:0.619926 224:0.632144 225:0.639403 226:0.658691 227:0.693721 228:0.705452 229:0.681462 230:0.698484 231:0.701376 232:0.73993 233:0.773757 234:0.805592 235:0.755413 236:0.595462 237:0.387088 238:0.283748 239:0.181881 240:0.0804596 241:0.0630957 242:0.0767115 243:0.0791454 244:0.022295 245:0.0119136 246:-0.00856457 247:-0.104385 248:-0.303783 249:-0.349332 250:-0.597162 251:-0.819828 252:-1 253:-1 254:-1 255:-1 256:-1 257:-1 258:-0.517359 259:-0.0235174 260:0.185731 261:0.342907 262:0.535256 263:0.660588 264:0.762937 265:0.827855 266:0.835228 267:0.79388 268:0.718481 269:0.697876 270:0.641495 271:0.588072 272:0.504286 273:0.343432 274:0.166763 275:0.16343 276:0.125161 277:0.0483494 278:0.0709778 279:0.0259372 280:0.037542 281:0.0423919 282:0.00571073 283:-0.0166319 284:-0.0769794 285:-0.176893 286:-0.305019 287:-0.430131 288:-0.406894 289:-0.418076 290:-0.434082 291:-0.468221 292:-0.516298 293:-0.516974 294:-0.496405 295:-0.520405 296:-0.563745 297:-0.55087 298:-0.537544 299:-0.537844 300:-0.555967 
