svm_type c_svc
kernel_type rbf
gamma 0.000488281
nr_class 2
total_sv 41
rho -8.60755
label 0 1
nr_sv 26 15
SV
10.58555517262104 1:-0.0488503 2:-0.134577 3:0.130084 4:0.334774 5:0.524402 6:0.71772 7:0.717744 8:0.782822 9:0.7918 10:0.691504 11:0.723261 12:0.788264 13:0.813422 14:0.851372 15:0.88525 16:0.842849 17:0.846967 18:0.864403 19:0.774898 20:0.73287 21:0.631919 22:-0.154464 23:-0.500331 24:-0.317702 25:-0.228151 26:0.0914119 27:-0.191681 28:-0.384969 29:-0.66767 30:-0.677696 31:-0.58487 32:-0.516989 33:-0.621499 34:-0.816693 35:-1 36:-1 37:-0.668432 38:-0.429764 39:0.247097 40:0.424504 41:0.513065 42:0.460098 43:0.508552 44:0.388328 45:0.305901 46:0.227582 47:0.348918 48:0.393213 49:0.219749 50:0.308725 51:0.390494 52:0.378745 53:0.476969 54:0.395824 55:0.385568 56:0.217756 57:-0.0621103 58:-0.30101 59:-0.0696216 60:-0.303268 61:-0.384751 62:-0.456368 63:-0.405318 64:-0.634738 65:-0.655591 66:-0.6494 67:-0.553283 68:-0.435261 69:-0.724371 70:-0.482403 71:0.0163804 72:0.400291 73:1 74:1 75:1 76:0.19311 77:-0.320128 78:0.294554 79:1 80:0.897725 81:0.417249 82:0.17804 83:0.377607 84:0.657178 85:0.549514 86:0.465009 87:0.469825 88:0.398025 89:0.152862 90:-0.0413416 91:-0.0768091 92:-0.0819593 93:-0.174287 94:-0.280632 95:-0.421455 96:-0.547481 97:-0.684618 98:-0.66613 99:-0.936233 100:-0.726099 101:-0.499793 102:-0.624745 103:-0.693312 104:-0.735616 105:-0.743664 106:-0.69642 107:-0.676766 108:-0.66815 109:-0.641914 110:-0.637394 111:-0.592804 112:-0.476608 113:-0.361504 114:-0.225324 115:-0.097206 116:0.0136318 117:0.146879 118:0.312853 119:0.470796 120:0.570754 121:0.664217 122:0.739186 123:0.79543 124:0.829408 125:0.860054 126:0.881695 127:0.952848 128:0.977746 129:0.987449 130:1 131:1 132:1 133:1 134:1 135:1 136:1 137:0.974338 138:0.415489 139:-0.1219 140:-0.470406 141:-0.698747 142:-0.708857 143:-0.65387 144:-0.522777 145:-0.201432 146:0.087957 147:0.35332 148:0.582234 149:0.70606 150:0.797534 151:0.87809 152:0.920364 153:0.851112 154:0.69949 155:0.532981 156:0.360976 157:0.254899 158:0.243271 159:0.145569 160:0.105472 161:0.110686 162:0.0500071 163:-3.02938e-05 164:-0.000454258 165:-0.018166 166:-0.198727 167:-0.40191 168:-0.625761 169:-0.800596 170:-0.897627 171:-0.974412 172:-1 173:-1 174:-1 175:-1 176:-1 177:-1 178:-1 179:-0.892948 180:-0.627505 181:-0.320434 182:-0.106443 183:0.157425 184:0.305029 185:0.279643 186:0.276896 187:0.308976 188:0.314899 189:0.295673 190:0.316541 191:0.356482 192:0.392909 193:0.424082 194:0.458445 195:0.438225 196:0.413042 197:0.413844 198:0.468539 199:0.454736 200:0.295954 201:-0.61079 202:-0.470398 203:-0.339896 204:-0.217276 205:-0.0455085 206:0.119703 207:0.279841 208:0.426524 209:0.476953 210:0.50478 211:0.550063 212:0.568795 213:0.546873 214:0.509301 215:0.44149 216:0.380341 217:0.355613 218:0.356755 219:0.360938 220:0.37004 221:0.296584 222:0.200365 223:0.0737794 224:0.0194509 225:0.0468888 226:0.0223694 227:0.0131795 228:-0.0500126 229:-0.259449 230:-0.314341 231:-0.491279 232:-0.64456 233:-0.795774 234:-0.879971 235:-1 236:-1 237:-1 238:-0.588822 239:-0.243238 240:0.187284 241:0.490088 242:0.685885 243:0.778889 244:0.856258 245:0.951399 246:0.986521 247:0.965913 248:0.94616 249:0.901139 250:0.831708 251:0.767207 252:0.711049 253:0.684245 254:0.671435 255:0.650346 256:0.658381 257:0.614714 258:0.525325 259:0.479231 260:0.483257 261:0.397653 262:0.171751 263:0.118782 264:0.00828034 265:-0.0440112 266:-0.267162 267:-0.583407 268:-0.748166 269:-0.638999 270:-0.546692 271:-0.760314 272:-0.631424 273:-0.392516 274:0.0194804 275:0.661534 276:1 277:1 278:0.975431 279:0.993931 280:0.906585 281:0.843898 282:0.756863 283:0.700586 284:0.619489 285:0.524312 286:0.461366 287:0.42628 288:0.439567 289:0.429425 290:0.360611 291:0.260732 292:0.154893 293:0.0966031 294:0.0548566 295:-0.0240109 296:-0.101442 297:-0.120215 298:-0.125483 299:-0.120129 300:-0.0913562 301:-0.0352036 302:-0.101925 303:-0.146541 304:-0.167592 305:-0.156529 306:-0.130049 307:-0.0973928 308:-0.0570695 309:-0.00784933 310:0.0540633 311:0.128675 312:0.219299 313:0.258498 314:0.256443 315:0.249355 316:0.249584 317:0.260623 318:0.271141 319:0.281739 320:0.288737 321:0.28984 322:0.262239 323:0.2214 324:0.176757 325:0.103637 326:0.0234908 327:-0.0597163 328:-0.147805 329:-0.235464 330:-0.32112 331:-0.391917 332:-0.4546 333:-0.504583 334:-0.54954 335:-0.603019 336:-0.635325 337:-0.645758 338:-0.645441 339:-0.617026 340:-0.605331 341:-0.614073 342:-0.619194 343:-0.597503 344:-0.566575 345:-0.542965 346:-0.520983 347:-0.49274 348:-0.457004 349:-0.413656 350:-0.336363 351:-0.22249 352:-0.109147 353:-0.0411115 354:0.0239384 355:0.0390885 356:-0.0965559 357:-0.248955 358:-0.401625 359:-0.551541 360:-0.687067 361:-0.805058 362:-0.903896 363:-0.978965 364:-1 365:-1 366:-1 367:-1 368:-1 369:-1 370:-1 371:-1 372:-1 373:-0.935537 374:-0.800504 375:-0.746659 376:-0.790236 377:-0.88506 378:-0.865811 379:-0.774274 380:-0.724018 381:-0.646617 382:-0.585019 383:-0.530474 384:-0.488105 385:-0.434958 386:-0.371856 387:-0.298188 388:-0.3453 389:-0.438337 390:-0.500832 391:-0.540476 392:-0.556698 393:-0.564284 394:-0.575489 395:-0.575439 396:-0.438235 397:-0.335306 398:-0.248104 399:-0.273028 400:-0.413283 401:-0.908515 402:-0.848523 403:-0.785215 404:-0.719549 405:-0.651303 406:-0.578708 407:-0.480432 408:-0.384256 409:-0.294089 410:-0.208989 411:-0.128985 412:-0.0578814 413:0.00413781 414:0.0558865 415:0.102007 416:0.140925 417:0.166455 418:0.178651 419:0.192853 420:0.205943 421:0.283685 422:0.339056 423:0.420122 424:0.468392 425:0.505792 426:0.505666 427:0.47126 428:0.457127 429:0.4119 430:0.353977 431:0.276611 432:0.167712 433:0.00546663 434:-0.188463 435:-0.358677 436:-0.520458 437:-0.635728 438:-0.700872 439:-0.739012 440:-0.71675 441:-0.678313 442:-0.53757 443:-0.379826 444:-0.22398 445:-0.0711957 446:0.076572 447:0.191512 448:0.28179 449:0.370742 450:0.434357 451:0.504024 452:0.573821 453:0.664735 454:0.735838 455:0.78 456:0.83303 457:0.862971 458:0.877397 459:0.880407 460:0.868631 461:0.845564 462:0.810807 463:0.760879 464:0.696739 465:0.619142 466:0.528495 467:0.424917 468:0.310025 469:0.188381 470:0.0611902 471:-0.0613676 472:-0.168547 473:-0.243138 474:-0.260631 475:-0.246379 476:-0.216699 477:-0.181974 478:-0.150396 479:-0.115085 480:-0.0881929 481:-0.0690515 482:-0.0531722 483:-0.0413739 484:-0.0326264 485:-0.0285549 486:-0.0216453 487:-0.00999988 488:0.0153748 489:0.0347328 490:0.0487593 491:0.0544711 492:0.0525525 493:0.0459886 494:0.032794 495:0.00963397 496:-0.0254786 497:-0.0700936 498:-0.139645 499:-0.221683 500:-0.291974 501:-0.728181 502:-0.715728 503:-0.701344 504:-0.684406 505:-0.670156 506:-0.657461 507:-0.640304 508:-0.621311 509:-0.602892 510:-0.579709 511:-0.556963 512:-0.533561 513:-0.512885 514:-0.493194 515:-0.471031 516:-0.448351 517:-0.427683 518:-0.412017 519:-0.403755 520:-0.397699 521:-0.393263 522:-0.390559 523:-0.397143 524:-0.418226 525:-0.43253 526:-0.45851 527:-0.492854 528:-0.519154 529:-0.566857 530:-0.618046 531:-0.660172 532:-0.689943 533:-0.725027 534:-0.763434 535:-0.78995 536:-0.815745 537:-0.83312 538:-0.84671 539:-0.845696 540:-0.832572 541:-0.806163 542:-0.779926 543:-0.758492 544:-0.746469 545:-0.730393 546:-0.726412 547:-0.718423 548:-0.714285 549:-0.726171 550:-0.72843 551:-0.731099 552:-0.736155 553:-0.744519 554:-0.755955 555:-0.770502 556:-0.78779 557:-0.80801 558:-0.830424 559:-0.853556 560:-0.87559 561:-0.895562 562:-0.910403 563:-0.915184 564:-0.910901 565:-0.896865 566:-0.875035 567:-0.852564 568:-0.820731 569:-0.79116 570:-0.752813 571:-0.703912 572:-0.663442 573:-0.596174 574:-0.566644 575:-0.541204 576:-0.519816 577:-0.505648 578:-0.487294 579:-0.486063 580:-0.481463 581:-0.484482 582:-0.494045 583:-0.502988 584:-0.508737 585:-0.519111 586:-0.528552 587:-0.525287 588:-0.535374 589:-0.543711 590:-0.561739 591:-0.571588 592:-0.584842 593:-0.592271 594:-0.606663 595:-0.623977 596:-0.625489 597:-0.638266 598:-0.650629 599:-0.658797 600:-0.66359 
0.5076915145834293 1:-0.679069 2:-0.858036 3:-0.816851 4:-0.773922 5:-0.677802 6:-0.626877 7:-0.601489 8:-0.459671 9:-0.408345 10:-0.510799 11:-0.615095 12:-0.465598 13:-0.379331 14:-0.411202 15:-0.24706 16:-0.131384 17:-0.116958 18:-0.213153 19:-0.494418 20:-0.509654 21:-0.459875 22:-0.674099 23:-0.747108 24:-0.49805 25:-0.353061 26:-0.187702 27:-0.347274 28:-0.246913 29:-0.383069 30:-0.0489171 31:0.592254 32:0.590733 33:-0.154513 34:-0.553272 35:-0.391115 36:-0.0231831 37:0.0398956 38:0.260504 39:0.860032 40:0.785206 41:0.716975 42:0.588155 43:0.684753 44:0.765829 45:0.758248 46:0.68278 47:0.709843 48:0.644034 49:0.369154 50:0.321372 51:0.326788 52:0.242723 53:0.288318 54:0.156877 55:0.198076 56:0.119535 57:-0.046808 58:-0.199843 59:0.0516496 60:-0.192394 61:-0.337446 62:-0.422208 63:-0.248818 64:-0.424875 65:-0.699636 66:-1 67:-1 68:-1 69:-0.561442 70:0.263645 71:0.404563 72:-0.237106 73:-0.368312 74:-0.437696 75:-0.0604721 76:0.229019 77:0.308907 78:0.257877 79:0.0706095 80:0.138949 81:0.142897 82:0.0845096 83:0.264572 84:0.597885 85:0.58765 86:0.463536 87:0.458773 88:0.534738 89:0.527657 90:0.557953 91:0.603577 92:0.655897 93:0.661781 94:0.544261 95:0.341681 96:0.465106 97:0.591086 98:0.763917 99:0.696487 100:0.6275 101:0.47995 102:0.418886 103:0.409504 104:0.361829 105:0.324797 106:0.358727 107:0.372619 108:0.397594 109:0.42291 110:0.45749 111:0.492269 112:0.539896 113:0.531313 114:0.516289 115:0.505036 116:0.471386 117:0.41069 118:0.341158 119:0.25279 120:0.0974649 121:-0.0701073 122:-0.266976 123:-0.40337 124:-0.722951 125:-0.879427 126:-0.861216 127:-0.838232 128:-0.813072 129:-0.853985 130:-0.811364 131:-0.667684 132:-0.610213 133:-0.544827 134:-0.430974 135:-0.407201 136:-0.387653 137:-0.249506 138:-0.242178 139:-0.204472 140:-0.0808459 141:-0.03058 142:0.0316605 143:0.0939345 144:0.172367 145:0.301462 146:0.421084 147:0.557362 148:0.691503 149:0.736974 150:0.772639 151:0.82376 152:0.871841 153:0.830428 154:0.693322 155:0.541447 156:0.384908 157:0.296724 158:0.325724 159:0.290551 160:0.318506 161:0.436739 162:0.506383 163:0.592891 164:0.740982 165:0.964659 166:0.905944 167:0.661862 168:0.402316 169:0.0641234 170:-0.128942 171:-0.197978 172:-0.15171 173:-0.137358 174:-0.228557 175:-0.305296 176:-0.375929 177:-0.469925 178:-0.667486 179:-0.783548 180:-0.745125 181:-0.639156 182:-0.611755 183:-0.47387 184:-0.42628 185:-0.469196 186:-0.458535 187:-0.40726 188:-0.387873 189:-0.421079 190:-0.404537 191:-0.382448 192:-0.383124 193:-0.373593 194:-0.374701 195:-0.39168 196:-0.41556 197:-0.422728 198:-0.336651 199:-0.398363 200:-0.488439 201:0.0500994 202:0.199858 203:0.322831 204:0.383216 205:0.389367 206:0.373579 207:0.362787 208:0.324205 209:0.19367 210:0.0251132 211:0.0184028 212:0.0271692 213:0.0092331 214:-0.0155619 215:-0.0425957 216:-0.0486128 217:-0.0427865 218:-0.0231093 219:0.00929894 220:0.0453882 221:-0.0772959 222:-0.276383 223:-0.542692 224:-0.682869 225:-0.648142 226:-0.689414 227:-0.623433 228:-0.560293 229:-0.644591 230:-0.394102 231:-0.0961928 232:0.227441 233:0.438887 234:0.627045 235:0.709095 236:0.796066 237:0.817204 238:0.768554 239:0.734732 240:0.735613 241:0.763233 242:0.782285 243:0.726528 244:0.654396 245:0.667131 246:0.663473 247:0.556748 248:0.495729 249:0.436645 250:0.350317 251:0.287639 252:0.236673 253:0.230174 254:0.206121 255:0.117005 256:0.0742285 257:0.0287791 258:-0.176803 259:-0.43578 260:-0.41947 261:-0.490567 262:-0.819644 263:-0.837782 264:-1 265:-1 266:-1 267:-0.593974 268:-0.0299668 269:0.160373 270:0.546882 271:0.620527 272:0.686758 273:0.794934 274:0.858636 275:0.866369 276:0.804142 277:0.667547 278:0.679492 279:0.625663 280:0.60621 281:0.604724 282:0.599087 283:0.593007 284:0.561149 285:0.534679 286:0.505795 287:0.494517 288:0.55068 289:0.598729 290:0.585651 291:0.547734 292:0.51995 293:0.484246 294:0.44543 295:0.40287 296:0.358112 297:0.351737 298:0.352592 299:0.35527 300:0.358993 301:0.263517 302:0.198725 303:0.132423 304:0.0662547 305:0.0136393 306:-0.0208334 307:-0.0432045 308:-0.0595163 309:-0.0757613 310:-0.0989382 311:-0.133836 312:-0.177245 313:-0.256199 314:-0.360767 315:-0.458527 316:-0.537124 317:-0.596655 318:-0.656678 319:-0.712909 320:-0.760611 321:-0.784886 322:-0.766694 323:-0.738127 324:-0.699116 325:-0.673025 326:-0.661106 327:-0.660153 328:-0.655706 329:-0.641156 330:-0.603416 331:-0.536891 332:-0.498739 333:-0.502841 334:-0.538694 335:-0.570822 336:-0.568035 337:-0.545359 338:-0.514196 339:-0.457907 340:-0.410782 341:-0.38193 342:-0.35121 343:-0.295878 344:-0.230952 345:-0.171905 346:-0.115063 347:-0.0548009 348:0.0129249 349:0.0868794 350:0.21413 351:0.407413 352:0.603363 353:0.700683 354:0.774986 355:0.776812 356:0.545011 357:0.315758 358:0.107074 359:-0.0788323 360:-0.239078 361:-0.366835 362:-0.465386 363:-0.539299 364:-0.559968 365:-0.56237 366:-0.571195 367:-0.601046 368:-0.649102 369:-0.625402 370:-0.552499 371:-0.50359 372:-0.544873 373:-0.610093 374:-0.629893 375:-0.646453 376:-0.647408 377:-0.643839 378:-0.620854 379:-0.599543 380:-0.612726 381:-0.577909 382:-0.5447 383:-0.514749 384:-0.488574 385:-0.441765 386:-0.385706 387:-0.320871 388:-0.361494 389:-0.434394 390:-0.47877 391:-0.497949 392:-0.492713 393:-0.470923 394:-0.448167 395:-0.407421 396:-0.232058 397:-0.0819499 398:0.0613155 399:0.13574 400:0.103321 401:-0.432191 402:-0.344961 403:-0.258057 404:-0.17543 405:-0.102085 406:-0.035339 407:0.0414779 408:0.110752 409:0.171824 410:0.2265 411:0.278478 412:0.323946 413:0.36178 414:0.392062 415:0.421062 416:0.446254 417:0.450027 418:0.425 419:0.389337 420:0.332394 421:0.320443 422:0.271822 423:0.227594 424:0.125748 425:0.00675634 426:-0.174935 427:-0.40221 428:-0.511702 429:-0.639976 430:-0.715661 431:-0.737485 432:-0.740168 433:-0.771142 434:-0.758331 435:-0.679332 436:-0.607764 437:-0.531814 438:-0.449065 439:-0.374585 440:-0.284192 441:-0.213187 442:-0.0905105 443:0.0277301 444:0.139021 445:0.244229 446:0.344443 447:0.408684 448:0.449418 449:0.493965 450:0.515166 451:0.545701 452:0.580848 453:0.640039 454:0.679139 455:0.688932 456:0.700875 457:0.681704 458:0.637296 459:0.572275 460:0.485745 461:0.382166 462:0.264508 463:0.13245 464:-0.015073 465:-0.17921 466:-0.337122 467:-0.442445 468:-0.495208 469:-0.546535 470:-0.557891 471:-0.552508 472:-0.524867 473:-0.487864 474:-0.437051 475:-0.396455 476:-0.37087 477:-0.359532 478:-0.350971 479:-0.342281 480:-0.337625 481:-0.335742 482:-0.335654 483:-0.337278 484:-0.341435 485:-0.347949 486:-0.34873 487:-0.34106 488:-0.312534 489:-0.288832 490:-0.27037 491:-0.25791 492:-0.249624 493:-0.24419 494:-0.243243 495:-0.246574 496:-0.253918 497:-0.26266 498:-0.282428 499:-0.307738 500:-0.317593 501:-0.647455 502:-0.649818 503:-0.650714 504:-0.649116 505:-0.650787 506:-0.655257 507:-0.656137 508:-0.656613 509:-0.65868 510:-0.657907 511:-0.658978 512:-0.661235 513:-0.666066 514:-0.671473 515:-0.674344 516:-0.674766 517:-0.674836 518:-0.675051 519:-0.679159 520:-0.676301 521:-0.667731 522:-0.650414 523:-0.633291 524:-0.622216 525:-0.595192 526:-0.570515 527:-0.547729 528:-0.509659 529:-0.488766 530:-0.46773 531:-0.441804 532:-0.409255 533:-0.386486 534:-0.368283 535:-0.342855 536:-0.328705 537:-0.313829 538:-0.301946 539:-0.294048 540:-0.282987 541:-0.265425 542:-0.252276 543:-0.238428 544:-0.230559 545:-0.217955 546:-0.218188 547:-0.210168 548:-0.205004 549:-0.211938 550:-0.213434 551:-0.217045 552:-0.225186 553:-0.239349 554:-0.259496 555:-0.285866 556:-0.317891 557:-0.354674 558:-0.394554 559:-0.435407 560:-0.476117 561:-0.515894 562:-0.555053 563:-0.594882 564:-0.632686 565:-0.672012 566:-0.71246 567:-0.750458 568:-0.774467 569:-0.794079 570:-0.796495 571:-0.787641 572:-0.789584 573:-0.763261 574:-0.769131 575:-0.768546 576:-0.766859 577:-0.767654 578:-0.753809 579:-0.75519 580:-0.74528 581:-0.740902 582:-0.740144 583:-0.740315 584:-0.734935 585:-0.735099 586:-0.734854 587:-0.724586 588:-0.724772 589:-0.722225 590:-0.727034 591:-0.72576 592:-0.727591 593:-0.72305 594:-0.724646 595:-0.729584 596:-0.717825 597:-0.71768 598:-0.716245 599:-0.710234 600:-0.702356 
3.983846655227417 1:0.473042 2:0.191842 3:0.313912 4:0.477242 5:0.584908 6:0.726086 7:0.729019 8:0.829086 9:0.895532 10:0.848273 11:0.937561 12:0.873684 13:0.781067 14:0.749301 15:0.745936 16:0.724905 17:0.789569 18:0.770779 19:0.447155 20:0.171269 21:-0.0211973 22:-0.473661 23:-0.65804 24:-0.529959 25:-0.5389 26:-0.488762 27:-0.679667 28:-0.851046 29:-0.918454 30:-1 31:-1 32:-0.573856 33:-0.267091 34:-0.0740204 35:-0.0486465 36:-0.250633 37:-0.395498 38:-0.280288 39:0.283318 40:0.387346 41:0.387414 42:0.230089 43:0.266461 44:0.16502 45:0.238333 46:0.244652 47:0.302361 48:0.171506 49:-0.235611 50:-0.298081 51:-0.388515 52:-0.724536 53:-0.592521 54:-0.561838 55:-0.430782 56:-0.658947 57:-0.93394 58:-0.911474 59:-0.585378 60:-0.910747 61:-0.774704 62:-0.506217 63:0.0156846 64:0.511774 65:1 66:1 67:0.471342 68:0.185395 69:-0.770672 70:-0.756381 71:-0.215044 72:-0.158894 73:-0.0576168 74:-0.10208 75:0.269708 76:0.384825 77:0.38593 78:0.351828 79:0.237007 80:0.266138 81:0.163101 82:-0.0269917 83:0.00955563 84:0.173864 85:0.097185 86:-0.00978247 87:0.0365056 88:0.106696 89:0.0511982 90:-0.0407093 91:-0.0226054 92:-0.00265949 93:-0.139186 94:-0.332123 95:-0.474616 96:-0.480495 97:-0.435718 98:-0.2468 99:-0.505873 100:-0.550805 101:-0.737081 102:-0.869158 103:-0.91624 104:-0.938404 105:-0.936993 106:-0.82371 107:-0.71662 108:-0.62653 109:-0.505053 110:-0.385561 111:-0.255942 112:-0.102355 113:0.0336202 114:0.16657 115:0.292374 116:0.431631 117:0.582506 118:0.743799 119:0.884244 120:0.916784 121:0.954631 122:0.989967 123:1 124:1 125:0.968382 126:0.948828 127:0.981344 128:0.959461 129:0.864562 130:0.737232 131:0.660525 132:0.535533 133:0.269134 134:0.103234 135:0.0473943 136:0.0697202 137:0.295987 138:0.285881 139:0.286055 140:0.393828 141:0.522242 142:0.649462 143:0.791037 144:0.904335 145:0.91006 146:0.914791 147:0.923013 148:0.953586 149:0.915713 150:0.827442 151:0.698874 152:0.570672 153:0.420392 154:0.221436 155:-0.0319896 156:-0.317728 157:-0.547621 158:-0.739176 159:-0.997667 160:-1 161:-1 162:-1 163:-1 164:-1 165:-1 166:-0.886105 167:-0.689365 168:-0.58095 169:-0.490462 170:-0.303868 171:-0.145102 172:-0.00691152 173:0.0857621 174:0.0335882 175:-0.0302654 176:-0.0849941 177:-0.143146 178:-0.319157 179:-0.420331 180:-0.383295 181:-0.268249 182:-0.17301 183:0.0379998 184:0.149712 185:0.114617 186:0.0966164 187:0.0911945 188:0.0257772 189:-0.0365056 190:-0.00183487 191:0.0847446 192:0.173983 193:0.254051 194:0.315201 195:0.308651 196:0.298424 197:0.339794 198:0.377719 199:0.358201 200:0.319653 201:-0.310983 202:-0.130209 203:0.0439065 204:0.183605 205:0.352129 206:0.479868 207:0.568259 208:0.577162 209:0.501466 210:0.333863 211:0.23785 212:0.19415 213:0.164596 214:0.114828 215:0.0603723 216:0.0486082 217:0.0438297 218:0.0487498 219:0.0701494 220:0.104573 221:0.0152535 222:-0.122293 223:-0.314964 224:-0.415398 225:-0.38629 226:-0.431498 227:-0.445344 228:-0.525595 229:-0.808507 230:-0.815165 231:-0.768052 232:-0.492028 233:-0.119591 234:0.248312 235:0.525438 236:0.791351 237:0.897418 238:0.908846 239:0.86881 240:0.861779 241:0.884697 242:0.884674 243:0.820695 244:0.760037 245:0.752632 246:0.702356 247:0.545755 248:0.466427 249:0.427848 250:0.35007 251:0.280582 252:0.230102 253:0.231991 254:0.220086 255:0.138646 256:0.092769 257:0.0560887 258:-0.12882 259:-0.37842 260:-0.3714 261:-0.409026 262:-0.624558 263:-0.516 264:-0.501702 265:-0.305224 266:-0.134637 267:0.102401 268:0.360465 269:0.581062 270:0.700598 271:0.686058 272:0.666793 273:0.701508 274:0.708941 275:0.740159 276:0.697485 277:0.560661 278:0.603176 279:0.593265 280:0.58791 281:0.576409 282:0.555732 283:0.530911 284:0.460798 285:0.39238 286:0.329871 287:0.280411 288:0.281627 289:0.271049 290:0.246419 291:0.215469 292:0.195805 293:0.2177 294:0.224438 295:0.184119 296:0.141219 297:0.153318 298:0.17808 299:0.209947 300:0.232435 301:0.0105271 302:-0.0299444 303:-0.064959 304:-0.0750807 305:-0.0576224 306:-0.0229302 307:0.0268837 308:0.0927321 309:0.176036 310:0.278448 311:0.396766 312:0.516599 313:0.543339 314:0.50772 315:0.460296 316:0.420092 317:0.391502 318:0.355764 319:0.307779 320:0.242929 321:0.165152 322:0.0729202 323:-0.0166365 324:-0.101716 325:-0.203485 326:-0.298972 327:-0.382751 328:-0.452019 329:-0.504767 330:-0.555062 331:-0.591011 332:-0.600937 333:-0.579823 334:-0.548667 335:-0.534761 336:-0.537668 337:-0.544301 338:-0.542613 339:-0.506829 340:-0.474508 341:-0.459508 342:-0.450122 343:-0.428008 344:-0.404752 345:-0.390935 346:-0.383629 347:-0.383085 348:-0.393861 349:-0.41705 350:-0.431978 351:-0.46716 352:-0.569489 353:-0.714352 354:-0.827554 355:-0.907348 356:-0.962205 357:-0.99501 358:-1 359:-1 360:-1 361:-1 362:-1 363:-1 364:-0.949258 365:-0.874447 366:-0.793953 367:-0.732514 368:-0.732158 369:-0.784319 370:-0.830661 371:-0.81827 372:-0.82694 373:-0.825451 374:-0.769705 375:-0.73482 376:-0.71179 377:-0.696492 378:-0.659781 379:-0.62285 380:-0.623507 381:-0.583745 382:-0.556384 383:-0.542846 384:-0.541065 385:-0.524508 386:-0.501342 387:-0.470489 388:-0.520397 389:-0.597561 390:-0.657838 391:-0.697424 392:-0.716338 393:-0.734797 394:-0.768762 395:-0.799433 396:-0.668459 397:-0.564483 398:-0.468231 399:-0.510812 400:-0.674585 401:-0.766693 402:-0.678141 403:-0.585253 404:-0.491625 405:-0.397845 406:-0.30564 407:-0.199553 408:-0.106678 409:-0.0270423 410:0.0388703 411:0.0928825 412:0.133759 413:0.165339 414:0.187654 415:0.207323 416:0.226867 417:0.233695 418:0.213995 419:0.199124 420:0.190877 421:0.252767 422:0.28384 423:0.323612 424:0.310166 425:0.272612 426:0.17433 427:0.017821 428:-0.0886984 429:-0.238992 430:-0.382857 431:-0.50124 432:-0.596848 433:-0.693035 434:-0.728318 435:-0.665316 436:-0.582205 437:-0.483607 438:-0.370662 439:-0.265988 440:-0.144816 441:-0.0406737 442:0.106354 443:0.246238 444:0.380725 445:0.508899 446:0.628095 447:0.699419 448:0.741048 449:0.789089 450:0.8071 451:0.827482 452:0.846116 453:0.882863 454:0.890156 455:0.862953 456:0.837321 457:0.780538 458:0.703026 459:0.609942 460:0.500354 461:0.383513 462:0.269113 463:0.159266 464:0.053432 465:-0.0467877 466:-0.12797 467:-0.180185 468:-0.202855 469:-0.207898 470:-0.204771 471:-0.194257 472:-0.180789 473:-0.165078 474:-0.137677 475:-0.11356 476:-0.096216 477:-0.0863403 478:-0.07699 479:-0.0655054 480:-0.0566307 481:-0.0510185 482:-0.0480511 483:-0.0470217 484:-0.0494667 485:-0.0562514 486:-0.0600811 487:-0.0592495 488:-0.0441894 489:-0.0361501 490:-0.0333322 491:-0.0359061 492:-0.0422787 493:-0.0487173 494:-0.0577068 495:-0.0724389 496:-0.0940563 497:-0.118224 498:-0.158607 499:-0.202462 500:-0.231982 501:-0.683026 502:-0.667788 503:-0.650544 504:-0.630754 505:-0.613762 506:-0.599189 507:-0.580445 508:-0.560693 509:-0.542261 510:-0.520531 511:-0.500775 512:-0.481277 513:-0.466211 514:-0.453889 515:-0.440492 516:-0.428446 517:-0.420733 518:-0.420344 519:-0.428814 520:-0.440174 521:-0.454482 522:-0.471241 523:-0.497157 524:-0.536549 525:-0.565969 526:-0.601091 527:-0.639624 528:-0.661282 529:-0.696091 530:-0.731313 531:-0.750826 532:-0.754091 533:-0.757219 534:-0.759818 535:-0.750058 536:-0.742985 537:-0.737593 538:-0.739718 539:-0.740995 540:-0.741797 541:-0.736855 542:-0.734924 543:-0.737068 544:-0.747272 545:-0.752174 546:-0.767597 547:-0.778024 548:-0.791893 549:-0.822817 550:-0.842945 551:-0.862484 552:-0.882675 553:-0.901635 554:-0.916363 555:-0.920707 556:-0.913197 557:-0.897392 558:-0.874525 559:-0.845469 560:-0.811562 561:-0.774854 562:-0.737358 563:-0.699834 564:-0.657414 565:-0.612853 566:-0.575829 567:-0.553723 568:-0.535209 569:-0.527783 570:-0.523964 571:-0.521388 572:-0.532706 573:-0.522589 574:-0.541168 575:-0.554256 576:-0.563095 577:-0.572706 578:-0.569299 579:-0.577666 580:-0.576815 581:-0.580218 582:-0.587948 583:-0.595539 584:-0.598861 585:-0.607143 586:-0.614425 587:-0.609428 588:-0.615405 589:-0.618482 590:-0.629909 591:-0.634614 592:-0.643613 593:-0.647438 594:-0.658491 595:-0.67278 596:-0.670746 597:-0.680799 598:-0.68997 599:-0.694556 600:-0.697769 
5.780196134229129 1:-0.287777 2:-0.34756 3:-0.306368 4:-0.243805 5:-0.19391 6:-0.149984 7:-0.149058 8:-0.0587799 9:-0.0655529 10:-0.207969 11:-0.291901 12:-0.180129 13:-0.101299 14:-0.102319 15:0.0284552 16:0.0568627 17:0.0519603 18:0.0174411 19:-0.20031 20:-0.287327 21:-0.409668 22:-0.755662 23:-0.871264 24:-0.729867 25:-0.60737 26:-0.358583 27:-0.457589 28:-0.568386 29:-0.728328 30:-0.718029 31:-0.472829 32:0.0291809 33:0.167983 34:0.304849 35:0.293488 36:0.0944153 37:-0.234123 38:-0.153434 39:0.491164 40:0.756754 41:1 42:0.935537 43:0.868567 44:0.786312 45:0.739212 46:0.803782 47:0.966539 48:0.970055 49:0.699582 50:0.413012 51:0.199341 52:-0.000471792 53:0.123808 54:0.145375 55:0.298711 56:0.251969 57:0.0507084 58:-0.172324 59:0.0398001 60:-0.227642 61:-0.358726 62:-0.415418 63:-0.283568 64:-0.46035 65:-0.583565 66:-0.646535 67:-0.618196 68:-0.677261 69:-1 70:-0.917638 71:-0.837949 72:-0.795498 73:-0.410762 74:-0.157544 75:0.386221 76:0.519391 77:0.419329 78:0.289344 79:0.248804 80:0.498272 81:0.609306 82:0.54459 83:0.705553 84:1 85:0.850634 86:0.675156 87:0.682092 88:0.767799 89:0.718861 90:0.65233 91:0.550708 92:0.453704 93:0.342689 94:0.197433 95:0.0264986 96:0.0960372 97:0.131025 98:0.217103 99:-0.0310313 100:-0.121882 101:-0.0186027 102:0.00019162 103:0.0608346 104:0.118264 105:0.160575 106:0.233689 107:0.263708 108:0.29913 109:0.32138 110:0.309366 111:0.300757 112:0.337095 113:0.355863 114:0.381479 115:0.419416 116:0.419698 117:0.404422 118:0.388062 119:0.352574 120:0.241663 121:0.117015 122:-0.0394241 123:-0.153056 124:-0.394951 125:-0.493196 126:-0.482895 127:-0.486181 128:-0.52119 129:-0.631925 130:-0.711074 131:-0.643683 132:-0.636581 133:-0.701219 134:-0.73574 135:-0.793888 136:-0.801543 137:-0.749127 138:-0.724437 139:-0.668997 140:-0.449874 141:-0.258577 142:-0.0256088 143:0.149848 144:0.227039 145:0.294952 146:0.400898 147:0.552525 148:0.709961 149:0.762487 150:0.780257 151:0.799321 152:0.813237 153:0.741154 154:0.593727 155:0.435006 156:0.272323 157:0.171226 158:0.166771 159:0.101036 160:0.110779 161:0.201285 162:0.261253 163:0.353041 164:0.517601 165:0.73058 166:0.758689 167:0.724334 168:0.676551 169:0.592363 170:0.557956 171:0.40362 172:0.271759 173:0.111083 174:-0.124872 175:-0.292046 176:-0.408122 177:-0.540438 178:-0.797504 179:-0.945141 180:-0.903846 181:-0.78468 182:-0.756115 183:-0.611658 184:-0.558404 185:-0.600271 186:-0.619931 187:-0.604284 188:-0.58227 189:-0.583924 190:-0.52303 191:-0.464581 192:-0.441467 193:-0.423948 194:-0.38466 195:-0.335914 196:-0.273115 197:-0.20674 198:-0.0909735 199:-0.118904 200:-0.177457 201:0.0921002 202:0.23178 203:0.338512 204:0.391508 205:0.425151 206:0.43014 207:0.408768 208:0.377285 209:0.263736 210:0.0974869 211:0.0587729 212:0.0718136 213:0.0887491 214:0.083503 215:0.0546992 216:0.0574605 217:0.0876099 218:0.113712 219:0.129497 220:0.150963 221:0.0589419 222:-0.0762142 223:-0.28013 224:-0.40088 225:-0.381503 226:-0.421338 227:-0.423889 228:-0.491627 229:-0.721976 230:-0.616419 231:-0.582363 232:-0.418901 233:-0.165849 234:0.135712 235:0.340443 236:0.53269 237:0.616108 238:0.674619 239:0.690325 240:0.739596 241:0.806549 242:0.855452 243:0.819788 244:0.745975 245:0.728883 246:0.692884 247:0.568662 248:0.517613 249:0.500074 250:0.46009 251:0.428588 252:0.42022 253:0.458059 254:0.484521 255:0.465273 256:0.464601 257:0.415387 258:0.265137 259:0.110506 260:0.0975349 261:-0.000680052 262:-0.286133 263:-0.325886 264:-0.441215 265:-0.432941 266:-0.632184 267:-0.944454 268:-0.998913 269:-0.684854 270:-0.359872 271:-0.265745 272:-0.0245653 273:0.0734172 274:0.255113 275:0.602158 276:0.8197 277:0.87383 278:1 279:1 280:1 281:1 282:1 283:0.995404 284:0.947152 285:0.897493 286:0.839298 287:0.759801 288:0.710943 289:0.688468 290:0.646903 291:0.594608 292:0.550353 293:0.482989 294:0.401393 295:0.331906 296:0.283338 297:0.278989 298:0.283567 299:0.284382 300:0.279552 301:-0.256009 302:-0.209427 303:-0.192172 304:-0.181062 305:-0.168424 306:-0.151898 307:-0.134588 308:-0.12037 309:-0.113448 310:-0.114304 311:-0.123053 312:-0.137657 313:-0.188194 314:-0.266136 315:-0.342158 316:-0.407817 317:-0.452676 318:-0.49978 319:-0.547754 320:-0.595874 321:-0.638506 322:-0.658223 323:-0.663363 324:-0.658297 325:-0.659778 326:-0.657164 327:-0.657285 328:-0.661167 329:-0.667276 330:-0.685838 331:-0.695425 332:-0.692619 333:-0.671147 334:-0.648702 335:-0.642966 336:-0.650635 337:-0.673232 338:-0.68654 339:-0.658235 340:-0.622833 341:-0.589786 342:-0.549877 343:-0.491262 344:-0.435077 345:-0.389384 346:-0.341042 347:-0.284072 348:-0.219776 349:-0.153136 350:-0.0516891 351:0.0872243 352:0.21922 353:0.292638 354:0.380861 355:0.437886 356:0.317179 357:0.191524 358:0.0663047 359:-0.0625044 360:-0.187309 361:-0.299185 362:-0.398652 363:-0.493242 364:-0.550151 365:-0.595807 366:-0.639665 367:-0.67881 368:-0.719947 369:-0.739421 370:-0.74403 371:-0.760665 372:-0.827763 373:-0.871659 374:-0.8561 375:-0.850724 376:-0.849591 377:-0.858757 378:-0.839999 379:-0.817373 380:-0.822443 381:-0.766225 382:-0.712421 383:-0.668792 384:-0.638782 385:-0.59519 386:-0.546398 387:-0.489165 388:-0.510157 389:-0.562704 390:-0.601452 391:-0.625675 392:-0.635514 393:-0.641032 394:-0.655489 395:-0.657841 396:-0.503804 397:-0.379587 398:-0.269774 399:-0.281936 400:-0.418324 401:-0.439282 402:-0.36984 403:-0.303101 404:-0.241671 405:-0.186885 406:-0.136597 407:-0.0749171 408:-0.0195436 409:0.0287965 410:0.070956 411:0.109562 412:0.142819 413:0.172701 414:0.198737 415:0.22533 416:0.249059 417:0.260427 418:0.250317 419:0.231461 420:0.195209 421:0.221982 422:0.214422 423:0.21851 424:0.165364 425:0.0986544 426:-0.0225067 427:-0.191855 428:-0.281481 429:-0.405695 430:-0.500474 431:-0.570928 432:-0.638347 433:-0.728265 434:-0.776667 435:-0.746944 436:-0.710998 437:-0.65771 438:-0.586367 439:-0.521917 440:-0.437101 441:-0.365263 442:-0.228814 443:-0.0936731 444:0.0290963 445:0.139447 446:0.239463 447:0.302499 448:0.343058 449:0.388308 450:0.413083 451:0.447374 452:0.485494 453:0.547128 454:0.592373 455:0.613699 456:0.642925 457:0.650214 458:0.640368 459:0.617049 460:0.578811 461:0.528942 462:0.468641 463:0.395423 464:0.309586 465:0.210444 466:0.0979835 467:-0.0273537 468:-0.158535 469:-0.284361 470:-0.396244 471:-0.481739 472:-0.53739 473:-0.569831 474:-0.547896 475:-0.515412 476:-0.482867 477:-0.453538 478:-0.424049 479:-0.389051 480:-0.356296 481:-0.324876 482:-0.297127 483:-0.272951 484:-0.252009 485:-0.233721 486:-0.21119 487:-0.185865 488:-0.147017 489:-0.115801 490:-0.0897556 491:-0.0684663 492:-0.049502 493:-0.0318431 494:-0.0192405 495:-0.00875518 496:1.01371e-05 497:0.0112425 498:0.0079631 499:0.00020905 500:0.00483574 501:-0.995851 502:-0.997271 503:-0.99833 504:-0.999 505:-0.124545 506:1 507:1 508:1 509:1 510:-0.454618 511:-1 512:-0.99952 513:-0.99963 514:-1 515:-1 516:-0.997712 517:-0.995073 518:-0.993108 519:-0.999721 520:-0.99909 521:-0.99708 522:-0.988025 523:-0.979106 524:-0.978686 525:-0.963947 526:-0.948635 527:-0.939355 528:-0.909796 529:-0.893571 530:-0.88515 531:-0.861073 532:-0.824818 533:-0.796656 534:-0.774797 535:-0.744089 536:-0.718868 537:-0.695784 538:-0.682016 539:-0.670167 540:-0.659469 541:-0.644868 542:-0.634953 543:-0.628402 544:-0.628316 545:-0.621491 546:-0.625097 547:-0.622687 548:-0.622733 549:-0.636348 550:-0.639209 551:-0.641306 552:-0.645022 553:-0.65099 554:-0.658704 555:-0.668384 556:-0.68003 557:-0.694108 558:-0.711055 559:-0.730576 560:-0.751754 561:-0.774606 562:-0.799037 563:-0.824662 564:-0.849254 565:-0.87269 566:-0.896397 567:-0.925987 568:-0.951339 569:-0.98445 570:-0.521683 571:0.997055 572:0.98929 573:0.989579 574:0.993385 575:0.981723 576:0.982095 577:0.987477 578:0.987467 579:1 580:1 581:-0.371079 582:-0.99626 583:-0.99586 584:-0.987427 585:-0.98512 586:-0.982188 587:-0.971731 588:-0.968349 589:-0.962061 590:-0.961593 591:-0.958887 592:-0.959813 593:-0.954324 594:-0.955381 595:-0.961861 596:-0.951042 597:-0.954577 598:-0.957287 599:-0.954153 600:-0.947435 
7.204620424058218 1:-0.376868 2:-0.45396 3:-0.44062 4:-0.355754 5:-0.305961 6:-0.318493 7:-0.4358 8:-0.399231 9:-0.465562 10:-0.710388 11:-0.841326 12:-0.751895 13:-0.751809 14:-1 15:-1 16:-1 17:-1 18:-1 19:-1 20:-0.779308 21:-0.335721 22:1 23:1 24:0.494807 25:-0.221624 26:0.916478 27:1 28:0.782339 29:-0.144906 30:-0.175128 31:0.125239 32:0.261283 33:-0.0644447 34:-0.209109 35:-0.191438 36:-0.33914 37:-0.56132 38:-0.836521 39:-1 40:-1 41:-1 42:-1 43:-1 44:-1 45:-0.263942 46:-0.186502 47:-0.138343 48:-0.168259 49:-0.511413 50:-0.435722 51:-0.340596 52:-0.456565 53:-0.146803 54:0.0232379 55:0.280898 56:0.246236 57:0.167602 58:-0.0052149 59:0.207172 60:0.0530547 61:-0.00544126 62:-0.0794346 63:0.30089 64:0.253862 65:0.0120483 66:-0.174667 67:-0.224471 68:-0.095796 69:-0.49446 70:-0.399771 71:-0.258236 72:-0.380404 73:-0.244331 74:-0.220032 75:0.163645 76:0.308233 77:0.287611 78:0.212978 79:0.0271904 80:0.0719672 81:0.0247554 82:-0.0494463 83:0.157396 84:0.513208 85:0.490432 86:0.423064 87:0.486401 88:0.586625 89:0.561037 90:0.534441 91:0.526299 92:0.565304 93:0.575182 94:0.444042 95:0.189352 96:0.192622 97:0.227519 98:0.278751 99:0.0250786 100:0.0545077 101:0.417115 102:0.444222 103:0.507195 104:0.590719 105:0.564961 106:0.563461 107:0.54021 108:0.509188 109:0.441961 110:0.344302 111:0.257225 112:0.244455 113:0.184564 114:0.138148 115:0.138212 116:0.14435 117:0.173009 118:0.169784 119:0.0718611 120:-0.257272 121:-0.542716 122:-0.850676 123:-1 124:-0.917898 125:-0.632313 126:-0.324037 127:-0.0426609 128:0.159508 129:0.212346 130:0.236671 131:0.321868 132:0.429761 133:0.52787 134:0.610833 135:0.614958 136:0.609057 137:0.846235 138:0.81695 139:0.833569 140:0.860869 141:0.939278 142:0.988071 143:0.948805 144:0.74923 145:0.295567 146:0.0690669 147:0.0768408 148:0.122503 149:0.129181 150:0.148001 151:0.183194 152:0.1727 153:0.0696084 154:-0.047958 155:-0.147074 156:-0.274397 157:-0.338702 158:-0.314024 159:-0.36867 160:-0.285357 161:-0.194527 162:-0.176251 163:-0.142041 164:-0.0343093 165:0.0913136 166:0.0780621 167:0.0314032 168:-0.0561231 169:-0.139595 170:-0.143037 171:-0.142643 172:-0.112454 173:-0.0974585 174:-0.192177 175:-0.263248 176:-0.324013 177:-0.404677 178:-0.584098 179:-0.681828 180:-0.63047 181:-0.516203 182:-0.46688 183:-0.309792 184:-0.241661 185:-0.288042 186:-0.312453 187:-0.304919 188:-0.295969 189:-0.306889 190:-0.271814 191:-0.244599 192:-0.234302 193:-0.220283 194:-0.206371 195:-0.210148 196:-0.221819 197:-0.215503 198:-0.114725 199:-0.191274 200:-0.282081 201:0.112139 202:0.252037 203:0.324797 204:0.352479 205:0.345695 206:0.23576 207:0.0676542 208:-0.0982463 209:-0.303492 210:-0.621027 211:-0.727392 212:-0.755404 213:-0.798867 214:-0.869364 215:-0.948544 216:-1 217:-1 218:-1 219:-1 220:-1 221:-1 222:-0.706345 223:-0.356966 224:0.217419 225:0.552317 226:0.700093 227:0.795801 228:0.853446 229:0.869675 230:0.883268 231:0.874913 232:0.800522 233:0.739632 234:0.634814 235:0.47135 236:0.236156 237:-0.208692 238:-0.540972 239:-0.887236 240:-1 241:-1 242:-1 243:-1 244:-0.718471 245:-0.333979 246:0.0529724 247:0.0957797 248:0.150418 249:0.190739 250:0.172067 251:0.157162 252:0.158657 253:0.197769 254:0.229017 255:0.220178 256:0.269116 257:0.307333 258:0.248162 259:0.199945 260:0.288796 261:0.306427 262:0.198066 263:0.2827 264:0.337932 265:0.451488 266:0.484948 267:0.467559 268:0.494164 269:0.624124 270:0.683586 271:0.591118 272:0.545229 273:0.580205 274:0.567979 275:0.554962 276:0.529259 277:0.462412 278:0.533766 279:0.53524 280:0.557021 281:0.598746 282:0.645758 283:0.696534 284:0.712757 285:0.733415 286:0.739333 287:0.75281 288:0.797353 289:0.85781 290:0.889848 291:0.895439 292:0.913612 293:0.892031 294:0.843363 295:0.800444 296:0.758565 297:0.732813 298:0.752991 299:0.788072 300:0.812903 301:0.321737 302:0.334928 303:0.333088 304:0.34034 305:0.346332 306:0.349035 307:0.345186 308:0.343749 309:0.346683 310:0.341683 311:0.335833 312:0.319457 313:0.189914 314:-0.0126789 315:-0.221976 316:-0.426576 317:-0.598291 318:-0.73402 319:-0.822751 320:-0.884896 321:-0.938032 322:-0.825254 323:-0.585116 324:-0.479477 325:-0.52473 326:-0.514517 327:-0.41999 328:-0.315307 329:-0.227317 330:-0.150616 331:-0.064257 332:0.0164435 333:0.0825584 334:0.123207 335:0.14141 336:0.121495 337:0.0577505 338:-0.0621577 339:-0.199616 340:-0.335765 341:-0.465776 342:-0.565282 343:-0.635496 344:-0.665158 345:-0.660254 346:-0.664493 347:-0.687418 348:-0.711415 349:-0.73117 350:-0.736797 351:-0.748783 352:-0.788168 353:-0.825995 354:-0.821562 355:-0.80383 356:-0.813428 357:-0.825766 358:-0.820975 359:-0.826658 360:-0.839971 361:-0.846008 362:-0.845909 363:-0.850049 364:-0.819834 365:-0.800719 366:-0.799653 367:-0.800575 368:-0.804187 369:-0.797144 370:-0.786966 371:-0.787364 372:-0.834063 373:-0.873218 374:-0.855674 375:-0.846018 376:-0.842188 377:-0.849901 378:-0.828621 379:-0.807521 380:-0.823296 381:-0.787679 382:-0.762119 383:-0.740667 384:-0.721412 385:-0.685965 386:-0.64802 387:-0.603847 388:-0.615779 389:-0.645855 390:-0.65982 391:-0.661643 392:-0.647306 393:-0.620962 394:-0.602751 395:-0.582393 396:-0.428725 397:-0.309694 398:-0.186702 399:-0.177692 400:-0.290372 401:-0.26759 402:-0.0753569 403:0.104725 404:0.273056 405:0.427156 406:0.561387 407:0.678488 408:0.773357 409:0.852081 410:0.909536 411:0.945165 412:0.956629 413:0.936524 414:0.887518 415:0.810988 416:0.695712 417:0.513201 418:0.25698 419:-0.073461 420:-0.499468 421:-0.78749 422:-1 423:-1 424:-0.980445 425:-0.843539 426:-0.740505 427:-0.656045 428:-0.441723 429:-0.282367 430:-0.123424 431:0.0237009 432:0.144565 433:0.229057 434:0.299372 435:0.379276 436:0.426805 437:0.445032 438:0.424358 439:0.350959 440:0.21604 441:0.0019732 442:-0.212911 443:-0.405352 444:-0.500951 445:-0.538768 446:-0.518116 447:-0.477883 448:-0.445144 449:-0.421979 450:-0.416708 451:-0.405415 452:-0.399839 453:-0.398085 454:-0.41663 455:-0.453988 456:-0.493544 457:-0.541773 458:-0.592487 459:-0.644125 460:-0.695886 461:-0.746042 462:-0.791442 463:-0.828893 464:-0.86187 465:-0.889505 466:-0.910909 467:-0.927061 468:-0.939537 469:-0.946064 470:-0.945303 471:-0.941005 472:-0.939641 473:-0.93595 474:-0.912935 475:-0.901105 476:-0.902873 477:-0.913476 478:-0.915148 479:-0.911022 480:-0.911188 481:-0.913332 482:-0.915791 483:-0.91845 484:-0.923287 485:-0.93019 486:-0.928682 487:-0.914312 488:-0.873335 489:-0.842423 490:-0.818257 491:-0.801952 492:-0.792085 493:-0.789217 494:-0.794622 495:-0.808395 496:-0.82872 497:-0.855287 498:-0.877824 499:-0.881744 500:-0.852254 501:-1 502:-1 503:-1 504:-1 505:-1 506:-1 507:-0.998111 508:-0.99451 509:-0.990447 510:-0.981011 511:-0.970069 512:-0.961876 513:-0.958359 514:-0.958185 515:-0.957554 516:-0.956565 517:-0.95486 518:-0.949423 519:-0.944633 520:-0.923386 521:-0.888785 522:-0.844491 523:-0.79967 524:-0.768579 525:-0.73032 526:-0.700796 527:-0.682956 528:-0.652447 529:-0.639559 530:-0.629658 531:-0.611319 532:-0.588503 533:-0.580256 534:-0.583135 535:-0.583904 536:-0.600758 537:-0.628783 538:-0.67781 539:-0.736981 540:-0.797506 541:-0.849123 542:-0.898051 543:-0.942075 544:-0.980535 545:-0.994858 546:-1 547:-0.993169 548:-0.988102 549:-1 550:-0.999248 551:-0.997026 552:-0.994899 553:-0.992015 554:-0.987948 555:-0.983637 556:-0.97812 557:-0.972 558:-0.967832 559:-0.965431 560:-0.964009 561:-0.963794 562:-0.963246 563:-0.961206 564:-0.959305 565:-0.957083 566:-0.956156 567:-0.962982 568:-0.965593 569:-0.976836 570:-0.984877 571:-0.98455 572:-0.996214 573:-0.974224 574:-0.984339 575:-0.984407 576:-0.984978 577:-0.98836 578:-0.974325 579:-0.979367 580:-0.971432 581:-0.971661 582:-0.974649 583:-0.980301 584:-0.977737 585:-0.980604 586:-0.981988 587:-0.974997 588:-0.975019 589:-0.97342 590:-0.978793 591:-0.981491 592:-0.987006 593:-0.985911 594:-0.98989 595:-0.997914 596:-0.987109 597:-0.989842 598:-0.994302 599:-0.99271 600:-0.985551 
15.92335547211023 1:0.394585 2:0.238805 3:0.436719 4:0.657854 5:0.718194 6:0.805195 7:0.703916 8:0.77149 9:0.926328 10:0.892038 11:0.969743 12:1 13:1 14:1 15:0.937307 16:0.842253 17:0.852895 18:0.908339 19:0.731326 20:0.454745 21:0.200173 22:-0.408975 23:-0.645526 24:-0.495132 25:-0.451541 26:-0.398418 27:-0.664622 28:-0.868489 29:-0.892826 30:-0.876912 31:-0.900861 32:-1 33:-0.826246 34:-0.560522 35:-0.166302 36:-0.0582015 37:-0.330736 38:-0.539528 39:-0.325634 40:-0.113359 41:0.11955 42:0.166631 43:0.251069 44:0.0519588 45:-0.025513 46:-0.0584971 47:0.189924 48:0.301555 49:0.036041 50:-0.0624922 51:-0.121028 52:-0.332959 53:-0.221306 54:-0.278946 55:-0.186045 56:-0.37345 57:-0.632216 58:-0.661955 59:-0.387015 60:-0.81238 61:-0.880489 62:-0.76031 63:-0.752394 64:-0.926405 65:-0.666734 66:-0.243615 67:0.118294 68:0.875941 69:0.636072 70:0.550414 71:-0.229131 72:-1 73:-0.759586 74:-0.278418 75:0.554262 76:0.921687 77:0.96691 78:0.662746 79:0.19356 80:0.0982879 81:0.106721 82:0.00681885 83:0.103346 84:0.332007 85:0.223936 86:0.0557045 87:0.0653598 88:0.080768 89:-0.0555963 90:-0.225883 91:-0.279047 92:-0.285696 93:-0.251391 94:-0.327062 95:-0.508906 96:-0.529196 97:-0.494981 98:-0.300352 99:-0.541975 100:-0.583124 101:-0.794957 102:-0.853708 103:-0.867817 104:-0.816591 105:-0.710969 106:-0.563059 107:-0.496021 108:-0.458834 109:-0.410544 110:-0.337985 111:-0.25198 112:-0.0926832 113:0.0576832 114:0.220549 115:0.399175 116:0.555478 117:0.690621 118:0.822936 119:0.938262 120:0.936154 121:0.9318 122:0.916657 123:0.891214 124:0.872643 125:0.845174 126:0.808905 127:0.836646 128:0.849104 129:0.838785 130:0.791042 131:0.68722 132:0.562315 133:0.525539 134:0.427264 135:0.222145 136:0.0893564 137:0.200273 138:0.147329 139:0.0958752 140:0.12262 141:0.178982 142:0.307894 143:0.45216 144:0.544751 145:0.56607 146:0.617787 147:0.721884 148:0.83448 149:0.839884 150:0.815475 151:0.80413 152:0.775011 153:0.63833 154:0.41361 155:0.171501 156:-0.067375 157:-0.272419 158:-0.408619 159:-0.585589 160:-0.614328 161:-0.623964 162:-0.698385 163:-0.757846 164:-0.752925 165:-0.736088 166:-0.772468 167:-0.854272 168:-0.915357 169:-0.881951 170:-0.747464 171:-0.608289 172:-0.423659 173:-0.256918 174:-0.250237 175:-0.228582 176:-0.197983 177:-0.225081 178:-0.419163 179:-0.528359 180:-0.467261 181:-0.326043 182:-0.223957 183:-0.0056196 184:0.130722 185:0.114663 186:0.10964 187:0.123592 188:0.133086 189:0.122821 190:0.170796 191:0.241766 192:0.312776 193:0.361461 194:0.3713 195:0.368615 196:0.397689 197:0.43273 198:0.470732 199:0.437866 200:0.391329 201:-0.357996 202:-0.23888 203:-0.147624 204:-0.05655 205:0.102531 206:0.225207 207:0.307924 208:0.385896 209:0.358174 210:0.289199 211:0.290003 212:0.279869 213:0.281832 214:0.241091 215:0.178191 216:0.158838 217:0.16598 218:0.171571 219:0.175422 220:0.192233 221:0.103401 222:-0.0285681 223:-0.207412 224:-0.305614 225:-0.279799 226:-0.329035 227:-0.355378 228:-0.442252 229:-0.698202 230:-0.732628 231:-0.951619 232:-1 233:-0.835985 234:-0.373101 235:-0.114858 236:0.108956 237:0.336702 238:0.575584 239:0.687724 240:0.775873 241:0.86195 242:0.938704 243:0.945545 244:0.944477 245:0.94912 246:0.930476 247:0.864167 248:0.813612 249:0.756877 250:0.682446 251:0.626201 252:0.596408 253:0.606245 254:0.605269 255:0.567191 256:0.542475 257:0.465155 258:0.291274 259:0.0976874 260:0.0517913 261:-0.0814027 262:-0.402454 263:-0.489209 264:-0.651707 265:-0.612705 266:-0.76605 267:-0.876636 268:-0.607815 269:-0.0365211 270:0.402938 271:0.545596 272:0.69407 273:0.8214 274:0.870935 275:0.850436 276:0.783317 277:0.667907 278:0.69741 279:0.633758 280:0.599687 281:0.600645 282:0.592227 283:0.566631 284:0.507365 285:0.458778 286:0.387944 287:0.304382 288:0.314505 289:0.33473 290:0.326386 291:0.290763 292:0.255677 293:0.246387 294:0.230026 295:0.206155 296:0.196746 297:0.229586 298:0.245792 299:0.256537 300:0.277908 301:-0.00913104 302:-0.0375692 303:-0.0527335 304:-0.0367226 305:0.000265431 306:0.0426641 307:0.0827226 308:0.1319 309:0.20378 310:0.29478 311:0.400285 312:0.517295 313:0.553056 314:0.52863 315:0.488681 316:0.452516 317:0.427964 318:0.408084 319:0.382931 320:0.342151 321:0.285992 322:0.204583 323:0.120824 324:0.0400819 325:-0.0598017 326:-0.160038 327:-0.255228 328:-0.34129 329:-0.408009 330:-0.460532 331:-0.498279 332:-0.542762 333:-0.568051 334:-0.56256 335:-0.544662 336:-0.535182 337:-0.542033 338:-0.56494 339:-0.5649 340:-0.563369 341:-0.566154 342:-0.561903 343:-0.538105 344:-0.514559 345:-0.505883 346:-0.502268 347:-0.491458 348:-0.473887 349:-0.457182 350:-0.427771 351:-0.398007 352:-0.407393 353:-0.465455 354:-0.526707 355:-0.614854 356:-0.738944 357:-0.826871 358:-0.86584 359:-0.886841 360:-0.897477 361:-0.903668 362:-0.906154 363:-0.922434 364:-0.911884 365:-0.900753 366:-0.88784 367:-0.854144 368:-0.785037 369:-0.67703 370:-0.595965 371:-0.622337 372:-0.77769 373:-0.901671 374:-0.874616 375:-0.817387 376:-0.735877 377:-0.658926 378:-0.590001 379:-0.553582 380:-0.564977 381:-0.531392 382:-0.503857 383:-0.48509 384:-0.474224 385:-0.45067 386:-0.423967 387:-0.392091 388:-0.454754 389:-0.542686 390:-0.61186 391:-0.662618 392:-0.693594 393:-0.714153 394:-0.744305 395:-0.774412 396:-0.641514 397:-0.534833 398:-0.434313 399:-0.467737 400:-0.622335 401:-0.74748 402:-0.675769 403:-0.606779 404:-0.539734 405:-0.472374 406:-0.403424 407:-0.316432 408:-0.235026 409:-0.162604 410:-0.0979226 411:-0.0407944 412:0.00594799 413:0.0464516 414:0.0795044 415:0.111402 416:0.144369 417:0.17018 418:0.184323 419:0.189607 420:0.196491 421:0.274766 422:0.321155 423:0.375262 424:0.381033 425:0.366003 426:0.294972 427:0.168623 428:0.0790706 429:-0.0482693 430:-0.17639 431:-0.319172 432:-0.48464 433:-0.677159 434:-0.805495 435:-0.840011 436:-0.840413 437:-0.798655 438:-0.723241 439:-0.642979 440:-0.535203 441:-0.435452 442:-0.263605 443:-0.0906284 444:0.0740475 445:0.228415 446:0.373405 447:0.478102 448:0.554688 449:0.632693 450:0.682431 451:0.736276 452:0.791109 453:0.870873 454:0.926471 455:0.948021 456:0.973764 457:0.969076 458:0.941179 459:0.894386 460:0.827302 461:0.744639 462:0.649166 463:0.535867 464:0.407199 465:0.270113 466:0.128784 467:-0.0069071 468:-0.122071 469:-0.200469 470:-0.238444 471:-0.245898 472:-0.228507 473:-0.198715 474:-0.158712 475:-0.129137 476:-0.109362 477:-0.0963283 478:-0.0865858 479:-0.0771271 480:-0.0710416 481:-0.0656216 482:-0.0595654 483:-0.0540342 484:-0.0513748 485:-0.0514364 486:-0.0485977 487:-0.0437724 488:-0.0255374 489:-0.0125289 490:-0.00328498 491:0.00115301 492:0.0020628 493:0.00208022 494:-0.00138628 495:-0.00857698 496:-0.018074 497:-0.0254897 498:-0.0489395 499:-0.0782619 500:-0.0932204 501:-0.681136 502:-0.666624 503:-0.650171 504:-0.631853 505:-0.617669 506:-0.606465 507:-0.59077 508:-0.573494 509:-0.556668 510:-0.535869 511:-0.516216 512:-0.496851 513:-0.481551 514:-0.468891 515:-0.455639 516:-0.443335 517:-0.433938 518:-0.430075 519:-0.434673 520:-0.441399 521:-0.450327 522:-0.461238 523:-0.481187 524:-0.515552 525:-0.541304 526:-0.574186 527:-0.611792 528:-0.634811 529:-0.673443 530:-0.714414 531:-0.741204 532:-0.75218 533:-0.768519 534:-0.786024 535:-0.786884 536:-0.783726 537:-0.778254 538:-0.779618 539:-0.779039 540:-0.777121 541:-0.768728 542:-0.763003 543:-0.761214 544:-0.766455 545:-0.764549 546:-0.771745 547:-0.773353 548:-0.777818 549:-0.798012 550:-0.807501 551:-0.817091 552:-0.8288 553:-0.842516 554:-0.857701 555:-0.871972 556:-0.880986 557:-0.882317 558:-0.875829 559:-0.863225 560:-0.844096 561:-0.820866 562:-0.79337 563:-0.76289 564:-0.727614 565:-0.689858 566:-0.653149 567:-0.62122 568:-0.588384 569:-0.566524 570:-0.546379 571:-0.52391 572:-0.516397 573:-0.491527 574:-0.499668 575:-0.506118 576:-0.51178 577:-0.519178 578:-0.513858 579:-0.519367 580:-0.51697 581:-0.518826 582:-0.525334 583:-0.531359 584:-0.534313 585:-0.542319 586:-0.549488 587:-0.543925 588:-0.551356 589:-0.557369 590:-0.572566 591:-0.579974 592:-0.59121 593:-0.596651 594:-0.608525 595:-0.62336 596:-0.623085 597:-0.634519 598:-0.645466 599:-0.651606 600:-0.656435 
2.782817177763773 1:-0.399647 2:-0.469175 3:-0.358985 4:-0.231302 5:-0.205225 6:-0.251845 7:-0.366775 8:-0.332096 9:-0.430809 10:-0.645432 11:-0.901627 12:-1 13:-1 14:-0.999896 15:-0.782558 16:-0.639461 17:-0.522322 18:-0.422511 19:-0.614194 20:-0.510194 21:-0.413933 22:-0.522706 23:-0.131263 24:1 25:1 26:0.618873 27:0.15898 28:0.323174 29:-0.108618 30:-0.0387468 31:0.194266 32:0.273364 33:0.0944705 34:0.0891571 35:0.0800903 36:-0.0736219 37:-0.319307 38:-0.302145 39:-0.101581 40:-0.40953 41:-0.637043 42:-0.677972 43:-0.416365 44:-0.638267 45:-0.710094 46:-1 47:-1 48:-1 49:-0.710829 50:0.327511 51:0.0499425 52:-0.439386 53:-0.252493 54:-0.123343 55:0.127319 56:0.0614014 57:-0.197658 58:-0.259669 59:0.184028 60:0.333115 61:0.323705 62:0.0871203 63:0.411178 64:0.354212 65:0.180277 66:0.00925705 67:-0.119997 68:-0.00423681 69:-0.40146 70:-0.32362 71:-0.310998 72:-0.523531 73:-0.429305 74:-0.416951 75:-0.0843045 76:0.0153037 77:-0.0704311 78:0.170032 79:0.368001 80:0.450099 81:0.284658 82:0.134233 83:0.349008 84:0.77535 85:0.690488 86:0.429442 87:0.428318 88:0.568997 89:0.579814 90:0.541228 91:0.500161 92:0.498924 93:0.464511 94:0.348897 95:0.173903 96:0.296882 97:0.426538 98:0.584478 99:0.387274 100:0.181048 101:0.313766 102:0.357536 103:0.415391 104:0.50159 105:0.546672 106:0.587626 107:0.613354 108:0.585015 109:0.580253 110:0.57114 111:0.553852 112:0.520129 113:0.43294 114:0.366877 115:0.295984 116:0.162987 117:-0.062712 118:-0.311939 119:-0.471424 120:-0.572819 121:-0.732627 122:-0.948552 123:-0.713371 124:-0.911083 125:-0.90888 126:-0.585972 127:-0.313763 128:-0.0820679 129:0.0690803 130:0.212945 131:0.316931 132:0.371723 133:0.45084 134:0.586673 135:0.63381 136:0.618702 137:0.821995 138:0.766384 139:0.691267 140:0.649923 141:0.675397 142:0.770907 143:0.922921 144:1 145:1 146:1 147:1 148:0.868395 149:0.498686 150:0.158503 151:0.111344 152:0.136293 153:0.138487 154:0.0528601 155:-0.0484617 156:-0.166708 157:-0.236917 158:-0.24479 159:-0.345135 160:-0.302638 161:-0.247494 162:-0.252327 163:-0.228676 164:-0.112001 165:0.018195 166:0.00956774 167:-0.0306035 168:-0.0959476 169:-0.161372 170:-0.140737 171:-0.112535 172:-0.0727982 173:-0.0592415 174:-0.173484 175:-0.27571 176:-0.34266 177:-0.461627 178:-0.641282 179:-0.721965 180:-0.672055 181:-0.570269 182:-0.536777 183:-0.360886 184:-0.239971 185:-0.222127 186:-0.232249 187:-0.24453 188:-0.262894 189:-0.295453 190:-0.259732 191:-0.194869 192:-0.142866 193:-0.118969 194:-0.119717 195:-0.137002 196:-0.137858 197:-0.131834 198:-0.0716855 199:-0.152409 200:-0.260694 201:0.110597 202:0.316034 203:0.416676 204:0.395351 205:0.357793 206:0.24555 207:0.0839878 208:-0.137955 209:-0.48812 210:-0.765201 211:-0.763701 212:-0.766764 213:-0.739159 214:-0.734657 215:-0.752405 216:-0.724337 217:-0.702546 218:-0.725303 219:-0.70275 220:-0.635325 221:-0.802589 222:-1 223:-1 224:-0.493819 225:0.0454864 226:0.36889 227:0.575984 228:0.722383 229:0.797931 230:0.915757 231:1 232:1 233:1 234:0.912016 235:0.804709 236:0.695561 237:0.443802 238:0.206562 239:-0.0510744 240:-0.230935 241:-0.328396 242:-0.39077 243:-0.624325 244:-1 245:-1 246:-1 247:-0.979491 248:-0.539789 249:-0.326016 250:-0.0312977 251:0.123417 252:0.255663 253:0.365704 254:0.427945 255:0.427527 256:0.467958 257:0.459238 258:0.365141 259:0.318663 260:0.396909 261:0.397164 262:0.269239 263:0.318528 264:0.33504 265:0.395443 266:0.360156 267:0.272446 268:0.250057 269:0.35521 270:0.407986 271:0.300563 272:0.293973 273:0.325129 274:0.291849 275:0.392699 276:0.527438 277:0.523562 278:0.620394 279:0.610831 280:0.631986 281:0.677043 282:0.703032 283:0.714173 284:0.686256 285:0.679311 286:0.711363 287:0.769408 288:0.863222 289:0.949628 290:0.974252 291:0.954222 292:0.944792 293:0.898392 294:0.834844 295:0.785469 296:0.740543 297:0.725041 298:0.731711 299:0.759553 300:0.79811 301:0.234313 302:0.24544 303:0.255054 304:0.277682 305:0.298421 306:0.306747 307:0.30363 308:0.298996 309:0.281348 310:0.243232 311:0.176129 312:0.058462 313:-0.141507 314:-0.35576 315:-0.53513 316:-0.667033 317:-0.727763 318:-0.750854 319:-0.77004 320:-0.795523 321:-0.82175 322:-0.829026 323:-0.790689 324:-0.668002 325:-0.581639 326:-0.574925 327:-0.584219 328:-0.548126 329:-0.470065 330:-0.383541 331:-0.299776 332:-0.233568 333:-0.16024 334:-0.0851012 335:-0.0261971 336:0.00951384 337:0.0188244 338:0.0129412 339:-0.00320477 340:-0.0636493 341:-0.179568 342:-0.314818 343:-0.424212 344:-0.49798 345:-0.561202 346:-0.613061 347:-0.659945 348:-0.698388 349:-0.705639 350:-0.645741 351:-0.612345 352:-0.641798 353:-0.681323 354:-0.671445 355:-0.653666 356:-0.680501 357:-0.724679 358:-0.752745 359:-0.761483 360:-0.750783 361:-0.728679 362:-0.716117 363:-0.722597 364:-0.702491 365:-0.685045 366:-0.67418 367:-0.667518 368:-0.667873 369:-0.656295 370:-0.641496 371:-0.637344 372:-0.676788 373:-0.696271 374:-0.656093 375:-0.631591 376:-0.592519 377:-0.607518 378:-0.604668 379:-0.569041 380:-0.576173 381:-0.573584 382:-0.594755 383:-0.604938 384:-0.57868 385:-0.499439 386:-0.406643 387:-0.310888 388:-0.318902 389:-0.361184 390:-0.378563 391:-0.371639 392:-0.327207 393:-0.258834 394:-0.184127 395:-0.0813316 396:0.154722 397:0.399767 398:0.661604 399:0.904924 400:1 401:-0.452141 402:-0.261194 403:-0.0807111 404:0.0799016 405:0.220826 406:0.343663 407:0.451817 408:0.538116 409:0.596847 410:0.640704 411:0.676182 412:0.687591 413:0.676426 414:0.642949 415:0.593255 416:0.523768 417:0.408339 418:0.234124 419:0.00360667 420:-0.289912 421:-0.4937 422:-0.744323 423:-0.882492 424:-1 425:-1 426:-1 427:-0.989862 428:-0.797157 429:-0.645971 430:-0.465733 431:-0.281954 432:-0.124693 433:-0.00968871 434:0.0989302 435:0.227018 436:0.328624 437:0.405629 438:0.470982 439:0.512948 440:0.529942 441:0.476726 442:0.403566 443:0.307 444:0.185099 445:0.0397679 446:-0.131599 447:-0.291653 448:-0.394528 449:-0.460194 450:-0.497298 451:-0.48668 452:-0.45788 453:-0.42127 454:-0.397576 455:-0.392904 456:-0.393737 457:-0.409137 458:-0.433992 459:-0.463905 460:-0.495897 461:-0.528686 462:-0.561531 463:-0.594589 464:-0.628301 465:-0.663352 466:-0.703106 467:-0.746679 468:-0.792145 469:-0.83917 470:-0.887495 471:-0.93223 472:-0.971008 473:-1 474:-1 475:-1 476:-1 477:-1 478:-0.984559 479:-0.970681 480:-0.965542 481:-0.961718 482:-0.958883 483:-0.958165 484:-0.964474 485:-0.977395 486:-0.981198 487:-0.967507 488:-0.922433 489:-0.885825 490:-0.856396 491:-0.836729 492:-0.824275 493:-0.819867 494:-0.823586 495:-0.834442 496:-0.85147 497:-0.872825 498:-0.890893 499:-0.899452 500:-0.879499 501:-0.98491 502:-0.985099 503:-0.985066 504:-0.984515 505:-0.984926 506:-0.986244 507:-0.986805 508:-0.986276 509:-0.988121 510:-0.988252 511:-0.989841 512:-0.995421 513:0.704069 514:0.994923 515:0.993478 516:0.998059 517:0.077688 518:-0.977504 519:-0.958584 520:-0.931942 521:-0.90177 522:-0.859824 523:-0.823569 524:-0.798721 525:-0.758982 526:-0.725988 527:-0.704032 528:-0.673512 529:-0.66571 530:-0.664587 531:-0.653072 532:-0.631643 533:-0.620223 534:-0.617561 535:-0.607848 536:-0.604114 537:-0.603814 538:-0.615499 539:-0.636724 540:-0.666791 541:-0.701812 542:-0.74688 543:-0.796939 544:-0.851466 545:-0.89708 546:-0.948577 547:-0.988245 548:0.968568 549:0.973157 550:0.971837 551:0.979055 552:0.985119 553:0.987852 554:0.988301 555:0.988159 556:0.987881 557:0.987454 558:0.986555 559:0.986418 560:0.987265 561:0.989914 562:0.9925 563:0.987886 564:0.992827 565:1 566:1 567:1 568:1 569:1 570:0.999577 571:1 572:0.998047 573:0.991628 574:0.979638 575:0.952381 576:0.932703 577:0.92873 578:0.926136 579:0.937904 580:0.941205 581:0.956206 582:0.964837 583:0.984177 584:0.985498 585:0.97921 586:0.972542 587:0.999422 588:0.993397 589:0.983951 590:0.950906 591:0.945935 592:0.935623 593:0.929708 594:0.917347 595:0.910644 596:0.904674 597:0.895907 598:0.884631 599:0.874951 600:0.86059 
3.729989846564043 1:0.360163 2:0.264581 3:0.214971 4:0.213795 5:0.271906 6:0.415437 7:0.436991 8:0.540105 9:0.641705 10:0.606867 11:0.68938 12:0.7854 13:0.772057 14:0.719105 15:0.713519 16:0.686562 17:0.681554 18:0.647924 19:0.472268 20:0.353891 21:0.239419 22:-0.317912 23:-0.561842 24:-0.405751 25:-0.377984 26:-0.262666 27:-0.572154 28:-0.777296 29:-0.865009 30:-0.912501 31:-0.95399 32:-0.894963 33:-0.843536 34:-1 35:-0.870909 36:-0.53653 37:-0.239809 38:-0.149414 39:-0.221735 40:-0.704641 41:-0.684579 42:-0.327537 43:0.151681 44:0.259616 45:0.304316 46:0.189342 47:0.221414 48:0.177226 49:-0.0741839 50:0.118643 51:0.259368 52:0.186939 53:0.224449 54:0.0922265 55:0.102617 56:-0.065487 57:-0.337463 58:-0.450575 59:-0.182142 60:-0.537612 61:-0.688843 62:-0.67763 63:-0.681198 64:-1 65:-1 66:-0.814988 67:-0.641383 68:-0.545247 69:-0.625191 70:-0.00323614 71:1 72:1 73:0.847143 74:-0.0797477 75:-1 76:-1 77:-0.218103 78:0.572744 79:0.743776 80:0.632474 81:0.372506 82:0.0987688 83:0.131096 84:0.403617 85:0.455772 86:0.332075 87:0.229386 88:0.160623 89:0.0124048 90:-0.122564 91:-0.109964 92:-0.0788891 93:-0.0661877 94:-0.101087 95:-0.206543 96:-0.231173 97:-0.401609 98:-0.404501 99:-0.710614 100:-0.722812 101:-0.656056 102:-0.622348 103:-0.596603 104:-0.548119 105:-0.478329 106:-0.354917 107:-0.272186 108:-0.216128 109:-0.154661 110:-0.0921884 111:-0.00118515 112:0.13964 113:0.257434 114:0.374796 115:0.494823 116:0.5834 117:0.634993 118:0.692377 119:0.745717 120:0.719251 121:0.703225 122:0.68572 123:0.665214 124:0.606363 125:0.576173 126:0.574061 127:0.639528 128:0.668805 129:0.653262 130:0.633565 131:0.627244 132:0.604092 133:0.564913 134:0.443607 135:0.403619 136:0.356844 137:0.378073 138:0.20599 139:0.143807 140:0.184786 141:0.210348 142:0.252963 143:0.345448 144:0.463153 145:0.560394 146:0.662435 147:0.749836 148:0.824537 149:0.839245 150:0.874827 151:0.901231 152:0.883194 153:0.770318 154:0.584438 155:0.367893 156:0.140007 157:-0.0244645 158:-0.0949254 159:-0.242702 160:-0.270812 161:-0.265815 162:-0.297728 163:-0.323242 164:-0.304293 165:-0.299244 166:-0.422586 167:-0.583935 168:-0.779738 169:-0.912069 170:-0.95224 171:-1 172:-0.873848 173:-0.627208 174:-0.61487 175:-0.675042 176:-0.66238 177:-0.602055 178:-0.628729 179:-0.560141 180:-0.388712 181:-0.217275 182:-0.0876642 183:0.147325 184:0.287822 185:0.267308 186:0.245641 187:0.250723 188:0.249049 189:0.22871 190:0.261017 191:0.305987 192:0.331393 193:0.319995 194:0.296153 195:0.269789 196:0.24825 197:0.253204 198:0.314654 199:0.291965 200:0.283815 201:-0.319078 202:-0.210934 203:-0.135986 204:-0.0639891 205:0.026347 206:0.116507 207:0.16854 208:0.183937 209:0.0877612 210:-0.0481888 211:-0.0299923 212:0.013703 213:0.0323932 214:0.0297955 215:0.0241291 216:0.059094 217:0.106403 218:0.157249 219:0.210532 220:0.263699 221:0.210343 222:0.121171 223:-0.00844048 224:-0.0725482 225:-0.0562358 226:-0.106975 227:-0.126053 228:-0.197852 229:-0.424576 230:-0.487799 231:-0.670909 232:-0.816265 233:-0.99858 234:-1 235:-0.856451 236:-0.645724 237:-0.621155 238:-0.276333 239:0.0567291 240:0.394116 241:0.636198 242:0.776961 243:0.779788 244:0.799487 245:0.897937 246:0.961002 247:0.961142 248:0.968016 249:0.974189 250:0.96074 251:0.934697 252:0.909916 253:0.911046 254:0.91893 255:0.913687 256:0.887345 257:0.769871 258:0.624969 259:0.529191 260:0.478337 261:0.355119 262:0.0960518 263:0.0202247 264:-0.125834 265:-0.19838 266:-0.466092 267:-0.838059 268:-0.965551 269:-0.73251 270:-0.575303 271:-0.681963 272:-0.28398 273:0.163987 274:0.402734 275:0.624968 276:0.69307 277:0.64527 278:0.736459 279:0.664615 280:0.637112 281:0.6771 282:0.710889 283:0.718285 284:0.683931 285:0.661495 286:0.64322 287:0.617785 288:0.617755 289:0.60928 290:0.559738 291:0.504149 292:0.461508 293:0.402005 294:0.337974 295:0.27815 296:0.225439 297:0.216181 298:0.215009 299:0.224856 300:0.231887 301:0.122967 302:0.130545 303:0.113586 304:0.0989244 305:0.101551 306:0.120749 307:0.151797 308:0.193137 309:0.249188 310:0.319298 311:0.401188 312:0.492922 313:0.498839 314:0.443639 315:0.379898 316:0.327939 317:0.291257 318:0.257284 319:0.223614 320:0.188931 321:0.153036 322:0.106787 323:0.0610985 324:0.0169634 325:-0.0506764 326:-0.121098 327:-0.195632 328:-0.269117 329:-0.333298 330:-0.396718 331:-0.450199 332:-0.497677 333:-0.531259 334:-0.563982 335:-0.588505 336:-0.583598 337:-0.560654 338:-0.5471 339:-0.538335 340:-0.563541 341:-0.60555 342:-0.628848 343:-0.609739 344:-0.571681 345:-0.541949 346:-0.522284 347:-0.506036 348:-0.489689 349:-0.468126 350:-0.412707 351:-0.323943 352:-0.239145 353:-0.19342 354:-0.141391 355:-0.120466 356:-0.218215 357:-0.343273 358:-0.46504 359:-0.578181 360:-0.665745 361:-0.732101 362:-0.788229 363:-0.843727 364:-0.861127 365:-0.869566 366:-0.877507 367:-0.889732 368:-0.911339 369:-0.914752 370:-0.880567 371:-0.798258 372:-0.701828 373:-0.615493 374:-0.60429 375:-0.742422 376:-0.906965 377:-0.972244 378:-0.889887 379:-0.803732 380:-0.763525 381:-0.688329 382:-0.633882 383:-0.596851 384:-0.568812 385:-0.518418 386:-0.462629 387:-0.410512 388:-0.461739 389:-0.546992 390:-0.61146 391:-0.653767 392:-0.67485 393:-0.685442 394:-0.697601 395:-0.696321 396:-0.543385 397:-0.43636 398:-0.350564 399:-0.398806 400:-0.572388 401:-0.456291 402:-0.411479 403:-0.366662 404:-0.321585 405:-0.276753 406:-0.229522 407:-0.165156 408:-0.106143 409:-0.0561705 410:-0.0137648 411:0.0240734 412:0.0551699 413:0.0811268 414:0.102297 415:0.125305 416:0.150879 417:0.168416 418:0.170534 419:0.168224 420:0.162062 421:0.232636 422:0.276188 423:0.334829 424:0.348631 425:0.347809 426:0.303094 427:0.213891 428:0.165112 429:0.0811196 430:-0.00895508 431:-0.112015 432:-0.246965 433:-0.447754 434:-0.661238 435:-0.801271 436:-0.911577 437:-0.981643 438:-1 439:-0.992182 440:-0.935484 441:-0.865202 442:-0.69041 443:-0.515359 444:-0.351009 445:-0.192092 446:-0.0377485 447:0.0858036 448:0.18514 449:0.284176 450:0.361706 451:0.447102 452:0.532222 453:0.639143 454:0.727568 455:0.788469 456:0.854559 457:0.892873 458:0.908644 459:0.908088 460:0.890154 461:0.859599 462:0.816677 463:0.757612 464:0.68175 465:0.588622 466:0.478183 467:0.351261 468:0.215619 469:0.0814544 470:-0.0554158 471:-0.181764 472:-0.26878 473:-0.307652 474:-0.305205 475:-0.293933 476:-0.278804 477:-0.26736 478:-0.255557 479:-0.243097 480:-0.236374 481:-0.229142 482:-0.220115 483:-0.210293 484:-0.20174 485:-0.194464 486:-0.181099 487:-0.161129 488:-0.125046 489:-0.0952914 490:-0.0707849 491:-0.0516475 492:-0.0358363 493:-0.0233048 494:-0.0172234 495:-0.0160106 496:-0.0196167 497:-0.0242019 498:-0.0465789 499:-0.0751772 500:-0.09193 501:-0.732932 502:-0.722387 503:-0.710152 504:-0.69622 505:-0.685602 506:-0.677504 507:-0.665887 508:-0.653131 509:-0.641466 510:-0.626277 511:-0.612647 512:-0.600059 513:-0.591299 514:-0.584787 515:-0.577223 516:-0.569171 517:-0.562278 518:-0.558449 519:-0.561665 520:-0.563446 521:-0.565526 522:-0.566816 523:-0.575225 524:-0.596496 525:-0.608763 526:-0.628306 527:-0.655364 528:-0.669486 529:-0.701009 530:-0.73797 531:-0.762769 532:-0.77503 533:-0.794653 534:-0.816801 535:-0.827599 536:-0.837848 537:-0.843279 538:-0.851763 539:-0.855434 540:-0.857598 541:-0.852519 542:-0.848764 543:-0.849556 544:-0.857921 545:-0.858717 546:-0.86697 547:-0.868132 548:-0.869945 549:-0.886625 550:-0.891101 551:-0.893924 552:-0.896778 553:-0.900527 554:-0.904835 555:-0.90932 556:-0.913686 557:-0.921464 558:-0.931395 559:-0.940475 560:-0.943988 561:-0.942414 562:-0.937237 563:-0.927732 564:-0.912183 565:-0.890423 566:-0.86453 567:-0.840231 568:-0.807973 569:-0.779378 570:-0.744548 571:-0.70238 572:-0.677757 573:-0.635205 574:-0.625819 575:-0.613895 576:-0.60359 577:-0.601521 578:-0.593642 579:-0.60074 580:-0.601136 581:-0.606677 582:-0.61647 583:-0.626163 584:-0.631212 585:-0.641068 586:-0.649696 587:-0.646707 588:-0.655162 589:-0.661371 590:-0.675775 591:-0.683589 592:-0.694632 593:-0.699221 594:-0.710078 595:-0.72417 596:-0.721713 597:-0.731072 598:-0.73967 599:-0.74309 600:-0.745018 
5.581830473594052 1:-0.44723 2:-0.546484 3:-0.555111 4:-0.564547 5:-0.533935 6:-0.529848 7:-0.548069 8:-0.405539 9:-0.326011 10:-0.37187 11:-0.418381 12:-0.263675 13:-0.129747 14:-0.057397 15:0.144527 16:0.261246 17:0.349029 18:0.401823 19:0.281073 20:0.280226 21:0.300907 22:-0.211925 23:-0.467769 24:-0.264638 25:-0.211166 26:0.0170416 27:-0.332036 28:-0.522274 29:-0.684001 30:-0.622238 31:-0.489344 32:-0.428702 33:-0.56327 34:-0.716941 35:-0.726568 36:-0.7968 37:-0.611522 38:-0.715623 39:-0.948148 40:-0.484985 41:-0.0385023 42:0.210362 43:0.0433409 44:-0.373418 45:-0.307903 46:-0.161987 47:0.126272 48:0.060635 49:-0.314295 50:-0.276016 51:-0.141251 52:-0.21438 53:-0.0240543 54:-0.0659505 55:0.0652018 56:0.0703306 57:0.0111845 58:-0.102253 59:0.187064 60:0.106073 61:0.0367092 62:-0.093016 63:0.186884 64:0.0925619 65:-0.0311018 66:-0.14729 67:-0.225846 68:-0.102992 69:-0.447787 70:-0.331884 71:-0.301676 72:-0.491996 73:-0.385194 74:-0.376571 75:-0.0430526 76:0.130597 77:0.101702 78:-0.0194982 79:-0.323845 80:-0.268715 81:-0.233292 82:-0.247936 83:-0.0524173 84:0.244543 85:0.261809 86:0.157384 87:0.0713039 88:-0.0221309 89:-0.218495 90:-0.36471 91:-0.313437 92:-0.0909326 93:0.161243 94:0.314541 95:0.182738 96:0.220584 97:0.102699 98:-0.063693 99:-0.561296 100:-0.725551 101:-0.579165 102:-0.614779 103:-0.590268 104:-0.563895 105:-0.546977 106:-0.469782 107:-0.43248 108:-0.427935 109:-0.433298 110:-0.46186 111:-0.508814 112:-0.504603 113:-0.499507 114:-0.478965 115:-0.456793 116:-0.43969 117:-0.448838 118:-0.477195 119:-0.51822 120:-0.56996 121:-0.617146 122:-0.675708 123:-0.642953 124:-0.79752 125:-0.784669 126:-0.690859 127:-0.652863 128:-0.650239 129:-0.68692 130:-0.706907 131:-0.643511 132:-0.631318 133:-0.640533 134:-0.62915 135:-0.726881 136:-0.844256 137:-0.790621 138:-0.450104 139:0.277495 140:0.391697 141:0.323539 142:0.0529403 143:-0.0510637 144:-0.11563 145:0.0168167 146:0.0932517 147:0.16259 148:0.189461 149:0.178096 150:0.199418 151:0.249898 152:0.257867 153:0.196369 154:0.0902098 155:-0.0100105 156:-0.119975 157:-0.191284 158:-0.20143 159:-0.276647 160:-0.21726 161:-0.135118 162:-0.105787 163:-0.0624408 164:0.0514175 165:0.200019 166:0.204431 167:0.171401 168:0.118323 169:0.0560053 170:0.0801188 171:0.105615 172:0.13806 173:0.146224 174:0.070925 175:0.0405341 176:0.0438945 177:0.0662225 178:-0.0231375 179:-0.0335153 180:0.0592453 181:0.209869 182:0.396981 183:0.697797 184:0.939106 185:0.988256 186:1 187:0.993323 188:0.955139 189:0.905988 190:0.900992 191:0.92939 192:0.988886 193:1 194:0.997041 195:0.978681 196:0.960694 197:0.93917 198:0.892663 199:0.845376 200:0.788439 201:-0.470138 202:-0.454103 203:-0.428043 204:-0.399604 205:-0.374823 206:-0.34964 207:-0.335411 208:-0.334833 209:-0.364786 210:-0.391918 211:-0.225611 212:-0.0473449 213:0.0997562 214:0.208252 215:0.274181 216:0.343422 217:0.41238 218:0.480179 219:0.54431 220:0.589657 221:0.577119 222:0.559749 223:0.535295 224:0.553913 225:0.60404 226:0.6245 227:0.648775 228:0.660521 229:0.637615 230:0.663826 231:0.639975 232:0.592958 233:0.575165 234:0.537509 235:0.459673 236:0.357691 237:0.123609 238:0.0439363 239:0.00801345 240:0.0202638 241:0.101618 242:0.195794 243:0.156203 244:0.0556668 245:0.154672 246:0.208941 247:0.0810739 248:0.0821682 249:0.117499 250:0.117606 251:0.141846 252:0.194753 253:0.303314 254:0.392976 255:0.442377 256:0.525919 257:0.549572 258:0.498034 259:0.498943 260:0.563924 261:0.547471 262:0.43733 263:0.474106 264:0.486145 265:0.533852 266:0.512344 267:0.435735 268:0.398049 269:0.46612 270:0.484323 271:0.342252 272:0.277084 273:0.233477 274:0.0162446 275:-0.0998982 276:-0.175351 277:-0.276167 278:-0.245753 279:-0.233642 280:-0.215179 281:-0.203548 282:-0.211198 283:-0.223332 284:-0.253981 285:-0.29678 286:-0.356071 287:-0.387276 288:-0.286445 289:-0.181085 290:-0.0945285 291:-0.0328219 292:-0.0307295 293:-0.035307 294:-0.0466165 295:-0.0697114 296:-0.0942699 297:-0.0692118 298:-0.0320488 299:0.00830859 300:0.0456112 301:-0.0688224 302:-0.152652 303:-0.248673 304:-0.337516 305:-0.405709 306:-0.451428 307:-0.484478 308:-0.511523 309:-0.540097 310:-0.571466 311:-0.612375 312:-0.659686 313:-0.698848 314:-0.74598 315:-0.789161 316:-0.819554 317:-0.82563 318:-0.829611 319:-0.833955 320:-0.836948 321:-0.830958 322:-0.79392 323:-0.757608 324:-0.720786 325:-0.697872 326:-0.67587 327:-0.658945 328:-0.642294 329:-0.618372 330:-0.594836 331:-0.565376 332:-0.547844 333:-0.532102 334:-0.525758 335:-0.526016 336:-0.52609 337:-0.51475 338:-0.528948 339:-0.55118 340:-0.563041 341:-0.580489 342:-0.5811 343:-0.578129 344:-0.572984 345:-0.580495 346:-0.58294 347:-0.579922 348:-0.576022 349:-0.572121 350:-0.549119 351:-0.511692 352:-0.486277 353:-0.4767 354:-0.446561 355:-0.428383 356:-0.474552 357:-0.512645 358:-0.536392 359:-0.560333 360:-0.583567 361:-0.599335 362:-0.611132 363:-0.630934 364:-0.623854 365:-0.617104 366:-0.619629 367:-0.628567 368:-0.645037 369:-0.647158 370:-0.643729 371:-0.658254 372:-0.726405 373:-0.791221 374:-0.798408 375:-0.816647 376:-0.836628 377:-0.861218 378:-0.854064 379:-0.852508 380:-0.896492 381:-0.884863 382:-0.875608 383:-0.868962 384:-0.867922 385:-0.842437 386:-0.80592 387:-0.769786 388:-0.775876 389:-0.81369 390:-0.851004 391:-0.877051 392:-0.877723 393:-0.863828 394:-0.846819 395:-0.804642 396:-0.596898 397:-0.428004 398:-0.287906 399:-0.273027 400:-0.376706 401:-0.767116 402:-0.763131 403:-0.76172 404:-0.762063 405:-0.763807 406:-0.766198 407:-0.741515 408:-0.718532 409:-0.699257 410:-0.681426 411:-0.664284 412:-0.649768 413:-0.635099 414:-0.621507 415:-0.606245 416:-0.58979 417:-0.576706 418:-0.566558 419:-0.555172 420:-0.545203 421:-0.387143 422:-0.275669 423:-0.130651 424:-0.051206 425:0.0305145 426:0.0667165 427:0.0751132 428:0.147122 429:0.19361 430:0.249223 431:0.297856 432:0.332721 433:0.34178 434:0.33525 435:0.347554 436:0.346345 437:0.335297 438:0.333373 439:0.333483 440:0.335993 441:0.313404 442:0.326813 443:0.345763 444:0.374715 445:0.408948 446:0.448033 447:0.456069 448:0.44706 449:0.448671 450:0.432675 451:0.432205 452:0.441284 453:0.476878 454:0.49992 455:0.505082 456:0.523667 457:0.528886 458:0.527001 459:0.523095 460:0.51617 461:0.509963 462:0.50573 463:0.498933 464:0.489712 465:0.479734 466:0.469236 467:0.45895 468:0.449132 469:0.43823 470:0.421068 471:0.403071 472:0.383735 473:0.365445 474:0.353075 475:0.336243 476:0.315076 477:0.289926 478:0.26032 479:0.232318 480:0.203755 481:0.175236 482:0.148038 483:0.1215 484:0.0942359 485:0.0665352 486:0.0436715 487:0.0275879 488:0.0286771 489:0.0299365 490:0.0323507 491:0.0339791 492:0.0353347 493:0.0360303 494:0.0339631 495:0.0292886 496:0.0227377 497:0.018074 498:-0.00040941 499:-0.0211843 500:-0.0263571 501:0.381541 502:0.384002 503:0.392334 504:0.406956 505:0.409986 506:0.405256 507:0.411524 508:0.417909 509:0.423617 510:0.434723 511:0.441785 512:0.454083 513:0.458173 514:0.460202 515:0.469627 516:0.480117 517:0.491428 518:0.498396 519:0.509571 520:0.516426 521:0.530287 522:0.545434 523:0.558231 524:0.566769 525:0.591531 526:0.604218 527:0.628274 528:0.654795 529:0.655799 530:0.690734 531:0.710422 532:0.725171 533:0.735226 534:0.754952 535:0.782827 536:0.788705 537:0.801644 538:0.815645 539:0.804006 540:0.799541 541:0.802454 542:0.798475 543:0.804876 544:0.807757 545:0.811558 546:0.796397 547:0.795917 548:0.795797 549:0.794124 550:0.794041 551:0.793917 552:0.793832 553:0.793516 554:0.792969 555:0.79214 556:0.791245 557:0.79032 558:0.789496 559:0.788853 560:0.788272 561:0.787912 562:0.785402 563:0.774548 564:0.772171 565:0.771768 566:0.765197 567:0.758159 568:0.751987 569:0.745243 570:0.739628 571:0.738387 572:0.736363 573:0.738429 574:0.731199 575:0.709344 576:0.698031 577:0.690425 578:0.679756 579:0.676313 580:0.664602 581:0.658251 582:0.644694 583:0.642163 584:0.631508 585:0.61867 586:0.607944 587:0.625188 588:0.614014 589:0.601079 590:0.56856 591:0.559925 592:0.547961 593:0.541138 594:0.527063 595:0.51574 596:0.510399 597:0.501445 598:0.491313 599:0.481126 600:0.4637 
32 1:-0.419895 2:-0.405766 3:-0.369243 4:-0.434053 5:-0.493955 6:-0.681866 7:-0.690511 8:-0.590634 9:-0.649653 10:-0.752402 11:-0.864485 12:-0.740873 13:-0.734896 14:-0.736243 15:-0.528518 16:-0.326842 17:0.326951 18:0.0897649 19:0.0738349 20:0.0952022 21:0.0781853 22:-0.353719 23:-0.535939 24:-0.262594 25:-0.148787 26:0.246552 27:-0.0580878 28:-0.22245 29:-0.576271 30:-0.570592 31:-0.433909 32:-0.365273 33:-0.477275 34:-0.517793 35:-0.46495 36:-0.47918 37:-0.547126 38:-0.583347 39:-0.513928 40:-0.584647 41:-0.607769 42:-0.545826 43:-0.189798 44:-0.323899 45:-0.274403 46:-0.264151 47:-0.141321 48:-0.255142 49:-0.666291 50:-0.455659 51:-0.247261 52:-0.268351 53:-0.129115 54:-0.13795 55:0.269518 56:0.512043 57:0.356501 58:0.0419809 59:0.276184 60:0.212959 61:0.14283 62:-0.0169251 63:0.320267 64:0.26024 65:0.128771 66:-0.0209897 67:-0.139123 68:-0.00135369 69:-0.355634 70:-0.22698 71:-0.174205 72:-0.397188 73:-0.284329 74:-0.263274 75:0.126645 76:0.330486 77:0.366871 78:0.285721 79:0.0938486 80:0.148691 81:0.133457 82:0.0536391 83:0.16862 84:0.422869 85:0.500738 86:0.529344 87:0.565722 88:0.594066 89:0.554553 90:0.597115 91:0.625911 92:0.643562 93:0.63094 94:0.474161 95:0.238201 96:0.341103 97:0.503152 98:0.660833 99:0.52621 100:0.409478 101:-0.799091 102:-0.943369 103:-0.958579 104:-0.895642 105:-0.845171 106:-0.785595 107:-0.807752 108:-0.839432 109:-0.882521 110:-0.919547 111:-0.903938 112:-0.801362 113:-0.689304 114:-0.530622 115:-0.376882 116:0.33164 117:0.573548 118:0.291933 119:0.440642 120:0.378438 121:0.35236 122:0.331905 123:0.347466 124:0.311007 125:0.308225 126:0.353943 127:0.471662 128:0.576757 129:0.647108 130:0.71843 131:0.760569 132:0.772671 133:0.787782 134:0.805457 135:0.765298 136:0.749753 137:0.968423 138:0.820781 139:0.662675 140:0.581585 141:0.530371 142:0.506891 143:0.489879 144:0.439626 145:0.346811 146:0.305592 147:0.282545 148:0.238657 149:0.125153 150:0.0734172 151:0.0769683 152:0.137059 153:0.1469 154:0.039953 155:-0.0944024 156:-0.20586 157:-0.276965 158:-0.281616 159:-0.363969 160:-0.302281 161:-0.219644 162:-0.193118 163:-0.15955 164:-0.0614326 165:0.0637637 166:0.0510118 167:-0.00149828 168:-0.0787152 169:-0.151836 170:-0.144196 171:-0.137055 172:-0.108635 173:-0.0942914 174:-0.187999 175:-0.269653 176:-0.338439 177:-0.419664 178:-0.600976 179:-0.706316 180:-0.661192 181:-0.545248 182:-0.490328 183:-0.331294 184:-0.286515 185:-0.356563 186:-0.360409 187:-0.326053 188:-0.318754 189:-0.347683 190:-0.308971 191:-0.271736 192:-0.262106 193:-0.240012 194:-0.21878 195:-0.230775 196:-0.236909 197:-0.223544 198:-0.151129 199:-0.211119 200:-0.302312 201:-0.494801 202:-0.397082 203:-0.307506 204:-0.287943 205:-0.27363 206:-0.293518 207:-0.364066 208:-0.520087 209:-0.706406 210:-0.990309 211:-0.992895 212:-0.90598 213:-0.837908 214:-0.787676 215:-0.715375 216:-0.574357 217:-0.328818 218:-0.149465 219:-0.0294537 220:0.108154 221:0.116354 222:0.0773458 223:0.0263051 224:0.0596623 225:0.154815 226:0.201524 227:0.251635 228:0.256343 229:0.167289 230:0.19249 231:0.144104 232:0.0913407 233:0.0688057 234:0.0566157 235:-0.0202198 236:-0.163885 237:-0.482796 238:-0.546834 239:-0.601726 240:-0.520921 241:-0.367152 242:-0.209713 243:-0.252625 244:-0.368578 245:-0.182499 246:-0.0370386 247:-0.107098 248:-0.0158062 249:0.0953078 250:0.137561 251:0.190272 252:0.234194 253:0.304458 254:0.383881 255:0.427276 256:0.50678 257:0.531645 258:0.480077 259:0.490171 260:0.565785 261:0.555106 262:0.45365 263:0.506571 264:0.543 265:0.608538 266:0.615837 267:0.577946 268:0.565332 269:0.64109 270:0.6676 271:0.569134 272:0.528739 273:0.562025 274:0.539493 275:0.534376 276:0.513482 277:0.445354 278:0.52721 279:0.538081 280:0.563118 281:0.60587 282:0.650199 283:0.693963 284:0.714434 285:0.732334 286:0.748336 287:0.782964 288:0.854315 289:0.9283 290:0.959657 291:0.972253 292:1 293:0.992858 294:0.957466 295:0.939215 296:0.908644 297:0.880571 298:0.864606 299:0.855334 300:0.845501 301:-0.438252 302:-0.506156 303:-0.553886 304:-0.583731 305:-0.598413 306:-0.612877 307:-0.609711 308:-0.583767 309:-0.55745 310:-0.520631 311:-0.475373 312:-0.430989 313:-0.419991 314:-0.454861 315:-0.505442 316:-0.579881 317:-0.618818 318:-0.636252 319:-0.665473 320:-0.683061 321:-0.700021 322:-0.690309 323:-0.680737 324:-0.663385 325:-0.66027 326:-0.657098 327:-0.657948 328:-0.664753 329:-0.679279 330:-0.702076 331:-0.719078 332:-0.744054 333:-0.766779 334:-0.784088 335:-0.801203 336:-0.813981 337:-0.827645 338:-0.837765 339:-0.825345 340:-0.830341 341:-0.850726 342:-0.865264 343:-0.839287 344:-0.784937 345:-0.723397 346:-0.643315 347:-0.545421 348:-0.486869 349:-0.507205 350:-0.573921 351:-0.663902 352:-0.736415 353:-0.750372 354:-0.741644 355:-0.73432 356:-0.713197 357:-0.69314 358:-0.680687 359:-0.695077 360:-0.719673 361:-0.732895 362:-0.732454 363:-0.739352 364:-0.718843 365:-0.697617 366:-0.68416 367:-0.680163 368:-0.68457 369:-0.674398 370:-0.657284 371:-0.657786 372:-0.710832 373:-0.756512 374:-0.743529 375:-0.742991 376:-0.747936 377:-0.753686 378:-0.736888 379:-0.723181 380:-0.751038 381:-0.73075 382:-0.721532 383:-0.73859 384:-0.779716 385:-0.803529 386:-0.796652 387:-0.766129 388:-0.763191 389:-0.781085 390:-0.786135 391:-0.772915 392:-0.742505 393:-0.695161 394:-0.646281 395:-0.584096 396:-0.374824 397:-0.182912 398:0.00769979 399:0.119691 400:0.120335 401:-0.705258 402:-0.551328 403:-0.39953 404:-0.256355 405:-0.12502 406:-0.00101741 407:0.127183 408:0.233621 409:0.320622 410:0.385849 411:0.421424 412:0.430437 413:0.413397 414:0.370719 415:0.319109 416:0.248738 417:0.204041 418:0.164279 419:0.118906 420:0.0802283 421:0.134987 422:0.169319 423:0.228443 424:0.249769 425:0.269157 426:0.246058 427:0.190746 428:0.189431 429:0.160351 430:0.137779 431:0.1072 432:0.0516026 433:-0.0466657 434:-0.15821 435:-0.243307 436:-0.351926 437:-0.469182 438:-0.586497 439:-0.721362 440:-0.842631 441:-0.977294 442:-1 443:-1 444:-1 445:-1 446:-1 447:-1 448:-1 449:-1 450:-1 451:-0.976152 452:-0.951459 453:-0.940674 454:-0.939434 455:-0.942928 456:-0.949938 457:-0.959449 458:-0.969029 459:-0.974859 460:-0.977015 461:-0.97901 462:-0.980226 463:-0.980318 464:-0.98012 465:-0.980474 466:-0.982133 467:-0.984726 468:-0.986461 469:-0.989017 470:-0.992861 471:-0.995901 472:-0.997881 473:-0.994789 474:-0.971942 475:-0.958911 476:-0.958866 477:-0.969673 478:-0.970829 479:-0.965547 480:-0.963533 481:-0.96317 482:-0.963766 483:-0.966915 484:-0.971096 485:-0.975194 486:-0.970549 487:-0.952273 488:-0.905718 489:-0.868054 490:-0.837183 491:-0.81439 492:-0.795744 493:-0.7798 494:-0.766687 495:-0.750815 496:-0.732261 497:-0.712794 498:-0.691573 499:-0.663382 500:-0.613519 501:0.395098 502:0.407814 503:0.426117 504:0.449935 505:0.461702 506:0.46655 507:0.485409 508:0.508018 509:0.533755 510:0.568852 511:0.601701 512:0.641269 513:0.670665 514:0.693765 515:0.721014 516:0.732382 517:0.72501 518:0.72214 519:0.723421 520:0.716122 521:0.716964 522:0.717136 523:0.713844 524:0.705142 525:0.710773 526:0.701094 527:0.699313 528:0.692118 529:0.65331 530:0.643435 531:0.615685 532:0.584097 533:0.548938 534:0.522624 535:0.505952 536:0.47204 537:0.44731 538:0.430851 539:0.405323 540:0.387814 541:0.376403 542:0.356519 543:0.341712 544:0.319563 545:0.296469 546:0.252251 547:0.215641 548:0.190676 549:0.186335 550:0.21041 551:0.240516 552:0.257458 553:0.257193 554:0.256326 555:0.260123 556:0.264387 557:0.267914 558:0.270569 559:0.275027 560:0.28123 561:0.286816 562:0.288093 563:0.284045 564:0.286978 565:0.291462 566:0.291313 567:0.290042 568:0.29143 569:0.291139 570:0.292839 571:0.299936 572:0.302748 573:0.316317 574:0.314643 575:0.305832 576:0.306859 577:0.310229 578:0.315621 579:0.322568 580:0.326557 581:0.333316 582:0.334519 583:0.346027 584:0.353278 585:0.358112 586:0.363279 587:0.391287 588:0.392044 589:0.390302 590:0.368778 591:0.366989 592:0.361395 593:0.35953 594:0.349836 595:0.342741 596:0.343932 597:0.340743 598:0.337907 599:0.337209 600:0.332054 
32 1:-0.328779 2:-0.490754 3:-0.539368 4:-0.562108 5:-0.516336 6:-0.485847 7:-0.46476 8:-0.350119 9:-0.298107 10:-0.368235 11:-0.43574 12:-0.303189 13:-0.186572 14:-0.145781 15:0.0345631 16:0.156654 17:0.248791 18:0.304399 19:0.223783 20:0.265827 21:0.329993 22:-0.204719 23:-0.444439 24:-0.186408 25:-0.0701528 26:0.286434 27:-0.0992346 28:-0.312333 29:-0.616107 30:-0.633706 31:-0.556345 32:-0.497146 33:-0.558243 34:-0.626765 35:-0.546765 36:-0.521882 37:-0.487469 38:-0.457508 39:-0.343644 40:-0.387369 41:-0.131756 42:-0.104546 43:0.0313711 44:-0.250993 45:-0.284714 46:-0.309081 47:-0.0381711 48:0.00483989 49:-0.368117 50:-0.366378 51:-0.259264 52:-0.337756 53:-0.110606 54:-0.102128 55:0.0512331 56:0.077051 57:0.0313353 58:-0.0600585 59:0.252017 60:0.214026 61:0.143592 62:-0.0118462 63:0.311807 64:0.256464 65:0.129209 66:-0.0154554 67:-0.132966 68:-0.000983205 69:-0.369223 70:-0.246471 71:-0.197234 72:-0.408117 73:-0.295167 74:-0.276015 75:0.104705 76:0.292256 77:0.300795 78:0.207075 79:-0.0364797 80:-0.0046436 81:-0.0326374 82:-0.122102 83:-0.00497952 84:0.289878 85:0.303702 86:0.205409 87:0.249034 88:0.340063 89:0.353144 90:0.24366 91:0.158337 92:0.0832601 93:0.037261 94:-0.0535866 95:-0.197538 96:-0.214216 97:-0.319819 98:-0.347918 99:-0.660445 100:-0.583672 101:-0.646135 102:-0.703507 103:-0.69283 104:-0.673756 105:-0.649869 106:-0.563499 107:-0.521018 108:-0.521381 109:-0.532066 110:-0.562263 111:-0.597946 112:-0.584223 113:-0.571792 114:-0.551753 115:-0.535876 116:-0.526807 117:-0.522238 118:-0.531308 119:-0.54894 120:-0.580471 121:-0.599729 122:-0.627159 123:-0.566153 124:-0.67724 125:-0.625793 126:-0.501361 127:-0.423127 128:-0.368122 129:-0.361913 130:-0.360567 131:-0.316293 132:-0.29794 133:-0.277316 134:-0.240377 135:-0.296612 136:-0.354168 137:-0.206854 138:-0.079603 139:0.0446097 140:0.192255 141:0.231585 142:0.169585 143:0.0601758 144:-0.0613373 145:-0.0333424 146:0.0508387 147:0.158611 148:0.223618 149:0.193585 150:0.170719 151:0.190374 152:0.195827 153:0.149432 154:0.0546191 155:-0.0475561 156:-0.159763 157:-0.231571 158:-0.242155 159:-0.313566 160:-0.250345 161:-0.171347 162:-0.143194 163:-0.102467 164:0.0105272 165:0.153688 166:0.153801 167:0.116521 168:0.058011 169:-0.00317376 170:0.0304729 171:0.0673468 172:0.10917 173:0.126828 174:0.059943 175:0.0310006 176:0.0323715 177:0.0457779 178:-0.0513425 179:-0.0736055 180:0.0107708 181:0.150845 182:0.317059 183:0.59531 184:0.808433 185:0.841898 186:0.867005 187:0.885412 188:0.86874 189:0.823685 190:0.795487 191:0.799462 192:0.834075 193:0.835542 194:0.831964 195:0.822406 196:0.827071 197:0.843238 198:0.8591 199:0.857001 200:0.839889 201:-0.744123 202:-0.720529 203:-0.697124 204:-0.678999 205:-0.650276 206:-0.61802 207:-0.597708 208:-0.586219 209:-0.593589 210:-0.596094 211:-0.359477 212:-0.129923 213:0.0256106 214:0.143399 215:0.221707 216:0.304784 217:0.393173 218:0.477345 219:0.52886 220:0.568361 221:0.55235 222:0.536282 223:0.509195 224:0.517054 225:0.554257 226:0.570735 227:0.605068 228:0.60863 229:0.566477 230:0.586054 231:0.575616 232:0.543984 233:0.530841 234:0.498907 235:0.433056 236:0.336501 237:0.120796 238:0.0374727 239:-0.0358159 240:0.00335018 241:0.098975 242:0.193766 243:0.160275 244:0.0709189 245:0.176368 246:0.236075 247:0.114594 248:0.107415 249:0.128313 250:0.119946 251:0.141872 252:0.189365 253:0.292682 254:0.381633 255:0.432619 256:0.520524 257:0.548204 258:0.499108 259:0.501642 260:0.568655 261:0.554089 262:0.449606 263:0.498142 264:0.523494 265:0.57927 266:0.568609 267:0.503435 268:0.471107 269:0.539224 270:0.555628 271:0.422548 272:0.361578 273:0.342275 274:0.18766 275:0.103134 276:0.0355622 277:-0.06736 278:-0.0407042 279:-0.0477467 280:-0.0510438 281:-0.0563237 282:-0.0783653 283:-0.103668 284:-0.149456 285:-0.189615 286:-0.232598 287:-0.283691 288:-0.243046 289:-0.246432 290:-0.23899 291:-0.231038 292:-0.206484 293:-0.181539 294:-0.163064 295:-0.188012 296:-0.210762 297:-0.176996 298:-0.121812 299:-0.0815174 300:-0.0595797 301:-0.492246 302:-0.530869 303:-0.596388 304:-0.661865 305:-0.70473 306:-0.723748 307:-0.730933 308:-0.742686 309:-0.761681 310:-0.788649 311:-0.829255 312:-0.879474 313:-0.907576 314:-0.942095 315:-0.975818 316:-1 317:-1 318:-1 319:-1 320:-1 321:-0.990451 322:-0.946848 323:-0.904204 324:-0.861058 325:-0.829834 326:-0.800002 327:-0.777265 328:-0.758872 329:-0.740067 330:-0.728652 331:-0.715101 332:-0.712367 333:-0.709874 334:-0.709165 335:-0.713996 336:-0.716358 337:-0.716203 338:-0.71631 339:-0.712259 340:-0.722562 341:-0.74484 342:-0.763981 343:-0.759743 344:-0.752607 345:-0.758274 346:-0.769853 347:-0.775641 348:-0.781796 349:-0.78973 350:-0.792627 351:-0.799171 352:-0.825451 353:-0.849705 354:-0.847623 355:-0.848859 356:-0.864375 357:-0.872527 358:-0.865061 359:-0.860499 360:-0.858538 361:-0.852501 362:-0.84562 363:-0.848982 364:-0.823618 365:-0.800484 366:-0.789311 367:-0.786179 368:-0.789173 369:-0.778817 370:-0.764901 371:-0.77068 372:-0.836035 373:-0.897954 374:-0.898694 375:-0.911053 376:-0.925507 377:-0.94391 378:-0.924797 379:-0.913001 380:-0.949943 381:-0.934104 382:-0.924649 383:-0.924477 384:-0.931442 385:-0.915443 386:-0.890712 387:-0.855611 388:-0.841986 389:-0.850939 390:-0.871669 391:-0.888235 392:-0.896914 393:-0.905929 394:-0.925584 395:-0.934973 396:-0.770508 397:-0.648464 398:-0.547895 399:-0.594521 400:-0.754206 401:-0.724331 402:-0.739722 403:-0.755409 404:-0.770887 405:-0.7853 406:-0.798871 407:-0.783001 408:-0.766748 409:-0.753002 410:-0.739383 411:-0.724211 412:-0.711111 413:-0.698034 414:-0.686036 415:-0.672415 416:-0.657374 417:-0.643317 418:-0.630634 419:-0.619608 420:-0.609984 421:-0.446489 422:-0.331529 423:-0.180888 424:-0.101127 425:-0.0207381 426:0.0138122 427:0.0186248 428:0.0918328 429:0.138267 430:0.191893 431:0.244236 432:0.283878 433:0.294196 434:0.294584 435:0.315889 436:0.321753 437:0.321721 438:0.322348 439:0.315201 440:0.314972 441:0.293112 442:0.308441 443:0.333728 444:0.368393 445:0.406732 446:0.447284 447:0.456958 448:0.449785 449:0.452304 450:0.43633 451:0.434461 452:0.441223 453:0.473922 454:0.494441 455:0.497278 456:0.513757 457:0.517111 458:0.513967 459:0.509133 460:0.502215 461:0.49661 462:0.493003 463:0.488409 464:0.481841 465:0.474799 466:0.469021 467:0.462729 468:0.457036 469:0.451978 470:0.439356 471:0.42591 472:0.411547 473:0.397713 474:0.390483 475:0.380344 476:0.36643 477:0.349943 478:0.328565 479:0.307806 480:0.286854 481:0.26524 482:0.244615 483:0.22529 484:0.204335 485:0.184091 486:0.16935 487:0.15884 488:0.161987 489:0.162118 490:0.161012 491:0.158879 492:0.158388 493:0.159643 494:0.159711 495:0.157317 496:0.153199 497:0.151703 498:0.134565 499:0.111273 500:0.099578 501:0.650747 502:0.650982 503:0.658531 504:0.673897 505:0.675735 506:0.668632 507:0.674466 508:0.680465 509:0.685989 510:0.697378 511:0.703428 512:0.715907 513:0.718734 514:0.719029 515:0.727914 516:0.737799 517:0.747875 518:0.752459 519:0.763088 520:0.766978 521:0.77872 522:0.790608 523:0.799754 524:0.805359 525:0.826799 526:0.833452 527:0.853527 528:0.87173 529:0.862431 530:0.892428 531:0.903221 532:0.907038 533:0.906341 534:0.917082 535:0.935634 536:0.929891 537:0.933025 538:0.945442 539:0.936561 540:0.936577 541:0.93993 542:0.933475 543:0.937504 544:0.940527 545:0.945509 546:0.930686 547:0.92992 548:0.929191 549:0.928458 550:0.929228 551:0.930157 552:0.931057 553:0.931417 554:0.931553 555:0.931624 556:0.931601 557:0.931695 558:0.931871 559:0.932109 560:0.932557 561:0.933331 562:0.93186 563:0.921729 564:0.920769 565:0.921997 566:0.917184 567:0.912394 568:0.908348 569:0.904773 570:0.901345 571:0.901927 572:0.902815 573:0.904621 574:0.899365 575:0.876873 576:0.865856 577:0.859436 578:0.848017 579:0.846507 580:0.83451 581:0.829331 582:0.816709 583:0.816806 584:0.807388 585:0.796265 586:0.787562 587:0.809009 588:0.799676 589:0.788147 590:0.755678 591:0.74975 592:0.740814 593:0.737069 594:0.726134 595:0.719612 596:0.717597 597:0.713492 598:0.707453 599:0.700437 600:0.684472 
32 1:-0.318149 2:-0.447874 3:-0.466433 4:-0.463212 5:-0.405952 6:-0.361117 7:-0.362311 8:-0.271513 9:-0.23227 10:-0.296623 11:-0.382077 12:-0.283295 13:-0.186559 14:-0.166221 15:0.0010977 16:0.167087 17:0.295977 18:0.390684 19:0.305001 20:0.301903 21:0.288772 22:-0.245276 23:-0.478607 24:-0.229777 25:-0.099945 26:0.281083 27:-0.0647382 28:-0.260927 29:-0.581653 30:-0.58715 31:-0.474439 32:-0.380283 33:-0.461907 34:-0.532435 35:-0.476674 36:-0.473229 37:-0.496403 38:-0.562707 39:-0.346308 40:-0.348089 41:-0.336762 42:-0.305161 43:-0.0787382 44:-0.204241 45:-0.197395 46:-0.265571 47:-0.164224 48:-0.126373 49:-0.388401 50:-0.26196 51:-0.149308 52:-0.283728 53:-0.0925715 54:-0.0886598 55:0.102426 56:0.13791 57:0.088271 58:-0.0318419 59:0.27221 60:0.242701 61:0.189109 62:0.0255361 63:0.362223 64:0.288424 65:0.128568 66:-0.0411346 67:-0.154713 68:-0.0202887 69:-0.369983 70:-0.235702 71:-0.181376 72:-0.403506 73:-0.304502 74:-0.298852 75:0.0630965 76:0.246142 77:0.246235 78:0.149231 79:-0.108123 80:-0.0691661 81:-0.0695312 82:-0.119677 83:0.0523346 84:0.376249 85:0.374268 86:0.223973 87:0.22976 88:0.259027 89:0.166281 90:0.0690947 91:0.05744 92:0.0835577 93:0.0790499 94:0.00122982 95:-0.141951 96:-0.107714 97:-0.131628 98:-0.126039 99:-0.453571 100:-0.486713 101:-0.77594 102:-0.794094 103:-0.757554 104:-0.721688 105:-0.696257 106:-0.60461 107:-0.55211 108:-0.535383 109:-0.532981 110:-0.56216 111:-0.590544 112:-0.566195 113:-0.538394 114:-0.51657 115:-0.504943 116:-0.487063 117:-0.476776 118:-0.481658 119:-0.477713 120:-0.504607 121:-0.535677 122:-0.568148 123:-0.514104 124:-0.624985 125:-0.5846 126:-0.469096 127:-0.385001 128:-0.334664 129:-0.334625 130:-0.331872 131:-0.287246 132:-0.267512 133:-0.248337 134:-0.210925 135:-0.263158 136:-0.322921 137:-0.252493 138:-0.31602 139:-0.399774 140:-0.301142 141:-0.0946717 142:0.133907 143:0.293547 144:0.202262 145:0.0876615 146:0.0186015 147:0.0739679 148:0.157855 149:0.200577 150:0.233102 151:0.263276 152:0.237058 153:0.163599 154:0.0566146 155:-0.0378882 156:-0.142885 157:-0.208564 158:-0.213474 159:-0.277914 160:-0.213244 161:-0.130551 162:-0.10179 163:-0.0611094 164:0.0518996 165:0.201389 166:0.207646 167:0.188118 168:0.145405 169:0.0925704 170:0.123504 171:0.156605 172:0.188399 173:0.190305 174:0.115055 175:0.0821999 176:0.077731 177:0.0815185 178:-0.035755 179:-0.0815917 180:-0.0212748 181:0.102235 182:0.24912 183:0.509842 184:0.69349 185:0.696531 186:0.688277 187:0.682652 188:0.650665 189:0.59706 190:0.584019 191:0.602612 192:0.644616 193:0.658587 194:0.664346 195:0.648739 196:0.656242 197:0.683232 198:0.732586 199:0.737405 200:0.717346 201:-0.621962 202:-0.612528 203:-0.601534 204:-0.595455 205:-0.571867 206:-0.548685 207:-0.545728 208:-0.549299 209:-0.57098 210:-0.582702 211:-0.355884 212:-0.132508 213:0.0229755 214:0.130021 215:0.194231 216:0.268495 217:0.358856 218:0.451107 219:0.498625 220:0.538843 221:0.522903 222:0.503087 223:0.474841 224:0.493026 225:0.539018 226:0.56 227:0.594043 228:0.602911 229:0.568521 230:0.595255 231:0.592762 232:0.568791 233:0.56729 234:0.539597 235:0.47586 236:0.400195 237:0.203336 238:0.0989502 239:0.00543206 240:0.0329311 241:0.135089 242:0.197651 243:0.133616 244:0.0394665 245:0.151939 246:0.219655 247:0.104637 248:0.102515 249:0.125663 250:0.109181 251:0.129417 252:0.181938 253:0.292932 254:0.385994 255:0.436458 256:0.51968 257:0.543908 258:0.493216 259:0.493214 260:0.559084 261:0.541551 262:0.427858 263:0.467191 264:0.47903 265:0.529449 266:0.509338 267:0.43503 268:0.402763 269:0.479438 270:0.502519 271:0.364387 272:0.303022 273:0.270147 274:0.0796753 275:-0.0174615 276:-0.0877242 277:-0.188703 278:-0.155464 279:-0.148629 280:-0.140361 281:-0.13237 282:-0.151331 283:-0.180089 284:-0.200609 285:-0.224986 286:-0.263421 287:-0.298783 288:-0.234545 289:-0.205665 290:-0.192817 291:-0.189372 292:-0.178602 293:-0.143838 294:-0.109901 295:-0.120628 296:-0.149823 297:-0.13622 298:-0.101524 299:-0.0514259 300:0.00479276 301:-0.590801 302:-0.612753 303:-0.662631 304:-0.711608 305:-0.739533 306:-0.746209 307:-0.744439 308:-0.74918 309:-0.761857 310:-0.782435 311:-0.818802 312:-0.865749 313:-0.892799 314:-0.928386 315:-0.963527 316:-0.985204 317:-0.981882 318:-0.977798 319:-0.975136 320:-0.974604 321:-0.967162 322:-0.927261 323:-0.888004 324:-0.847905 325:-0.818498 326:-0.789476 327:-0.765665 328:-0.745726 329:-0.724975 330:-0.710408 331:-0.692573 332:-0.684595 333:-0.676317 334:-0.671347 335:-0.673151 336:-0.676007 337:-0.679598 338:-0.688065 339:-0.671199 340:-0.669664 341:-0.689205 342:-0.715302 343:-0.719052 344:-0.712883 345:-0.717376 346:-0.72756 347:-0.737712 348:-0.744581 349:-0.750263 350:-0.74411 351:-0.739339 352:-0.754443 353:-0.771831 354:-0.761987 355:-0.754603 356:-0.772847 357:-0.784645 358:-0.782738 359:-0.784261 360:-0.787442 361:-0.784448 362:-0.78041 363:-0.786122 364:-0.765047 365:-0.7466 366:-0.739914 367:-0.742708 368:-0.751111 369:-0.744785 370:-0.73258 371:-0.73911 372:-0.803588 373:-0.865671 374:-0.867749 375:-0.88104 376:-0.895942 377:-0.914542 378:-0.89669 379:-0.885142 380:-0.920755 381:-0.902321 382:-0.88725 383:-0.878481 384:-0.874805 385:-0.8493 386:-0.816342 387:-0.776022 388:-0.773659 389:-0.799721 390:-0.829236 391:-0.849973 392:-0.857134 393:-0.861786 394:-0.875023 395:-0.87654 396:-0.704798 397:-0.571125 398:-0.453963 399:-0.47435 400:-0.607348 401:-0.690258 402:-0.700366 403:-0.711822 404:-0.723961 405:-0.735954 406:-0.74775 407:-0.731845 408:-0.716591 409:-0.703878 410:-0.691171 411:-0.677041 412:-0.664809 413:-0.652334 414:-0.641551 415:-0.629436 416:-0.61724 417:-0.606046 418:-0.596427 419:-0.589967 420:-0.585151 421:-0.428644 422:-0.319796 423:-0.174338 424:-0.0975992 425:-0.0191989 426:0.0137698 427:0.017144 428:0.0898002 429:0.13614 430:0.190622 431:0.24428 432:0.285586 433:0.299009 434:0.302555 435:0.326857 436:0.336018 437:0.340453 438:0.347134 439:0.346486 440:0.3495 441:0.324217 442:0.330827 443:0.348576 444:0.380863 445:0.417919 446:0.457596 447:0.465479 448:0.456381 449:0.457071 450:0.440814 451:0.439162 452:0.446679 453:0.480201 454:0.501468 455:0.504897 456:0.521617 457:0.524939 458:0.521432 459:0.515799 460:0.507813 461:0.500696 462:0.495478 463:0.489069 464:0.479644 465:0.469123 466:0.459384 467:0.448706 468:0.438823 469:0.429759 470:0.413627 471:0.396947 472:0.379728 473:0.362508 474:0.352037 475:0.338212 476:0.319566 477:0.297825 478:0.272083 479:0.247429 480:0.222617 481:0.197776 482:0.173719 483:0.15072 484:0.127499 485:0.104972 486:0.0884072 487:0.0778291 488:0.0826114 489:0.0848481 490:0.0854106 491:0.0840805 492:0.0828715 493:0.0835467 494:0.0830554 495:0.0808532 496:0.0756918 497:0.0716892 498:0.0508882 499:0.0279048 500:0.0204832 501:0.664538 502:0.664437 503:0.671645 504:0.686651 505:0.688251 506:0.680923 507:0.686703 508:0.692486 509:0.697797 510:0.70909 511:0.714937 512:0.727207 513:0.729576 514:0.729546 515:0.738237 516:0.74787 517:0.757671 518:0.76193 519:0.772082 520:0.775503 521:0.786919 522:0.798472 523:0.807253 524:0.812448 525:0.833605 526:0.839883 527:0.859442 528:0.877164 529:0.86739 530:0.897002 531:0.907278 532:0.910521 533:0.909291 534:0.919474 535:0.937407 536:0.93089 537:0.934733 538:0.949911 539:0.949444 540:0.957537 541:0.966478 542:0.958578 543:0.959319 544:0.958725 545:0.962708 546:0.94823 547:0.949328 548:0.949411 549:0.948857 550:0.94822 551:0.948093 552:0.948308 553:0.948689 554:0.948792 555:0.948704 556:0.948301 557:0.947908 558:0.947438 559:0.946828 560:0.946334 561:0.946046 562:0.943373 563:0.93193 564:0.9297 565:0.929567 566:0.923279 567:0.916309 568:0.909895 569:0.903756 570:0.897971 571:0.896344 572:0.89517 573:0.895397 574:0.888658 575:0.865223 576:0.853504 577:0.846554 578:0.835245 579:0.833945 580:0.822517 581:0.818067 582:0.806201 583:0.806966 584:0.798348 585:0.78813 586:0.78047 587:0.803122 588:0.795114 589:0.784924 590:0.753652 591:0.748832 592:0.740963 593:0.738054 594:0.727863 595:0.722062 596:0.720648 597:0.717072 598:0.711219 599:0.704061 600:0.687671 
